~o
<STREAMINFO> 1 25
<VECSIZE> 25<NULLD><MFCC_D_N_Z_0><DIAGC>
~h "l1_i"
<BEGINHMM>
<NUMSTATES> 5
<STATE> 2
<MEAN> 25
 -1.002115e-02 -4.143279e+00 2.504445e+00 -4.230436e-01 -3.700609e+00 -6.561577e-01 1.410684e+00 -1.401510e+00 7.153305e-01 -1.257849e-02 2.468756e-01 2.963293e+00 -2.256382e-02 1.934027e-01 1.276743e-01 5.247684e-02 -1.879538e-01 -1.520520e-01 1.112187e-01 -3.077336e-01 -1.277037e-01 1.088822e-01 1.007382e-01 -8.022534e-02 -1.249274e-01
<VARIANCE> 25
 4.488117e+00 4.476944e+01 8.030351e+01 1.614371e+01 1.304107e+02 2.167193e+01 8.075018e+01 7.042307e+01 2.895739e+01 3.950694e+01 1.507542e+01 2.453449e+01 3.545524e-01 9.395005e-01 1.659829e+00 1.091638e+00 5.667864e+00 2.665737e+00 4.633151e+00 2.632205e+00 2.826827e+00 2.178304e+00 1.400028e+00 1.812311e+00 4.321368e-01
<GCONST> 9.458649e+01
<STATE> 3
<MEAN> 25
 1.571778e+00 -1.378252e+00 3.930157e-01 6.974134e-01 -7.237650e+00 -1.354215e+00 3.960582e+00 -8.586547e-01 -1.156378e+00 -8.034397e-01 -1.870895e+00 -2.209092e+00 4.423121e-02 1.638702e-02 1.957070e-02 -2.303483e-02 -2.415851e-04 3.723624e-02 -6.540280e-03 1.243247e-01 1.629619e-02 -1.343798e-03 -1.268129e-02 -4.482873e-02 -3.384072e-03
<VARIANCE> 25
 1.324295e+01 3.422691e+01 3.450400e+01 1.402174e+01 5.864337e+01 4.767826e+01 5.227044e+01 8.599530e+01 3.715938e+01 3.212978e+01 2.748305e+01 1.854819e+01 9.458221e-01 1.470975e+00 1.542900e+00 1.370653e+00 4.616985e+00 3.103607e+00 4.670858e+00 4.197621e+00 3.268413e+00 2.795208e+00 1.557706e+00 1.706498e+00 7.521554e-01
<GCONST> 9.753310e+01
<STATE> 4
<MEAN> 25
 6.134732e-01 8.494366e-01 1.707742e-01 -7.852543e-01 -6.910086e-02 -9.159344e-02 2.906343e-01 -2.930750e-01 1.139154e-01 -7.973235e-01 -1.200865e+00 1.751491e-01 -1.289151e-02 -4.295958e-03 -2.001923e-02 -2.669051e-03 3.274813e-02 5.311547e-03 -1.368482e-04 2.261605e-02 -2.613845e-03 3.140058e-03 9.580448e-03 1.343180e-02 -1.194640e-02
<VARIANCE> 25
 2.313058e+01 3.228094e+01 5.192197e+01 2.523387e+01 1.062951e+02 4.723623e+01 6.194266e+01 4.563485e+01 4.143724e+01 4.385540e+01 3.232891e+01 3.274267e+01 1.458753e+00 1.320658e+00 1.782906e+00 1.399101e+00 3.954622e+00 2.634385e+00 3.096989e+00 3.077732e+00 2.869094e+00 2.907467e+00 2.158896e+00 2.328574e+00 9.353209e-01
<GCONST> 1.005157e+02
<TRANSP> 5
 0.000000e+00 1.000000e+00 0.000000e+00 0.000000e+00 0.000000e+00
 0.000000e+00 9.765554e-01 2.344459e-02 0.000000e+00 0.000000e+00
 0.000000e+00 0.000000e+00 9.866500e-01 1.335000e-02 0.000000e+00
 0.000000e+00 0.000000e+00 0.000000e+00 9.969785e-01 3.021536e-03
 0.000000e+00 0.000000e+00 0.000000e+00 0.000000e+00 0.000000e+00
<ENDHMM>
~h "l1_u"
<BEGINHMM>
<NUMSTATES> 5
<STATE> 2
<MEAN> 25
 -4.177788e+00 3.659695e+00 -1.732239e+00 2.939811e+00 -3.276121e+00 -8.726049e+00 3.088952e+00 -2.621186e+00 4.382893e-01 7.047465e-01 4.074305e+00 1.298496e+01 1.526618e-01 1.590556e-01 -4.493875e-02 -3.262856e-01 -1.839958e-03 -2.084508e-01 7.708160e-01 2.281780e-01 1.694622e-01 1.488537e-01 -7.623410e-01 2.336302e-01 -1.679911e-02
<VARIANCE> 25
 7.273300e+00 3.263815e+01 1.031559e+01 1.295002e+01 1.958593e+01 2.706875e+01 4.847201e+01 3.882578e+01 1.644591e+01 3.997932e+01 3.400776e+01 2.556679e+01 1.067417e+00 1.635492e+00 1.117568e+00 1.561016e+00 2.076915e+00 1.808019e+00 6.436741e+00 1.988391e+00 2.229361e+00 3.050535e+00 3.069638e+00 4.268274e+00 1.159113e-01
<GCONST> 9.070196e+01
<STATE> 3
<MEAN> 25
 2.394763e+00 -2.223559e+00 -3.448064e+00 2.272916e+00 -3.506780e+00 -3.047541e+00 5.238397e+00 1.482352e+00 1.045972e+00 -6.905782e-02 -6.577336e+00 5.525288e+00 3.906019e-01 -1.430835e-01 -1.203986e-01 2.221216e-02 6.865099e-02 1.014055e-01 -5.769308e-01 -2.540669e-01 -1.557737e-01 -1.684112e-01 2.017664e-01 -6.430870e-01 -2.199875e-01
<VARIANCE> 25
 1.401386e+01 2.275858e+01 1.571381e+01 1.240659e+01 1.302287e+01 7.880979e+01 7.538123e+01 4.548604e+01 2.995722e+01 2.385582e+01 4.742109e+01 3.885489e+01 3.763665e-01 1.766308e+00 7.071880e-01 1.113269e+00 1.294242e+00 2.701446e+00 4.356667e+00 3.290752e+00 2.292551e+00 2.029588e+00 3.641333e+00 1.718512e+00 1.953106e-01
<GCONST> 9.115434e+01
<STATE> 4
<MEAN> 25
 1.967161e+00 7.821275e-01 -1.410958e+00 -1.061629e+00 -8.696398e-01 6.958184e-01 6.705961e-02 -2.915997e+00 -4.174773e-01 1.017331e+00 -1.592397e+00 -2.872661e+00 -1.059275e-02 -1.683092e-02 2.578468e-02 -1.106796e-02 -2.729863e-03 4.067979e-02 1.808082e-02 5.090525e-02 1.807854e-02 -1.983772e-02 -1.066290e-02 1.086211e-02 2.215088e-02
<VARIANCE> 25
 2.730013e+01 2.161665e+01 3.237405e+01 2.087643e+01 9.778992e+01 4.866302e+01 7.508727e+01 4.712315e+01 5.183129e+01 5.025535e+01 3.239605e+01 5.805549e+01 1.140311e+00 9.785748e-01 1.515043e+00 1.869726e+00 4.141913e+00 3.042117e+00 4.215261e+00 3.624393e+00 3.053128e+00 2.694919e+00 2.734302e+00 2.673605e+00 7.923454e-01
<GCONST> 1.011620e+02
<TRANSP> 5
 0.000000e+00 1.000000e+00 0.000000e+00 0.000000e+00 0.000000e+00
 0.000000e+00 9.486864e-01 5.131358e-02 0.000000e+00 0.000000e+00
 0.000000e+00 0.000000e+00 9.564332e-01 4.356685e-02 0.000000e+00
 0.000000e+00 0.000000e+00 0.000000e+00 9.945757e-01 5.424287e-03
 0.000000e+00 0.000000e+00 0.000000e+00 0.000000e+00 0.000000e+00
<ENDHMM>
~h "l2_i"
<BEGINHMM>
<NUMSTATES> 5
<STATE> 2
<MEAN> 25
 2.151655e-01 -4.134670e+00 -2.568920e+00 2.450596e+00 1.198343e-01 -1.724531e+00 3.563321e-01 -1.927041e+00 -9.511248e-01 -2.874078e+00 -2.961800e+00 2.858880e+00 2.411067e-03 -1.982489e-01 -2.473516e-01 2.981712e-02 2.967036e-01 2.587779e-01 -2.104838e-01 -5.701503e-02 3.102993e-01 -6.149258e-02 -1.554056e-01 4.198972e-02 6.833193e-02
<VARIANCE> 25
 1.164590e+01 3.246769e+01 3.025644e+01 1.416641e+01 6.112278e+01 4.157535e+01 6.866330e+01 7.182102e+01 5.886398e+01 3.367754e+01 3.806798e+01 3.041559e+01 1.082753e+00 1.910074e+00 1.771434e+00 1.427568e+00 6.452353e+00 3.861929e+00 6.921728e+00 5.040391e+00 6.765868e+00 2.913152e+00 4.254911e+00 3.047453e+00 1.684957e+00
<GCONST> 1.034203e+02
<STATE> 3
<MEAN> 25
 2.164562e-01 -3.311190e+00 -3.796019e+00 1.333294e+00 2.998506e+00 1.334346e+00 2.098471e-02 -3.668306e-01 -3.048077e-01 -6.549547e-01 -3.207896e+00 1.907098e+00 -4.842764e-02 1.272090e-01 2.812310e-01 -1.079728e-01 -3.987853e-01 7.123793e-03 2.230171e-01 -5.983704e-02 -2.207683e-02 2.358906e-02 1.406286e-01 -5.859957e-02 -3.010691e-02
<VARIANCE> 25
 1.437942e+01 2.020885e+01 2.606791e+01 1.345688e+01 6.604373e+01 2.514512e+01 5.217891e+01 5.607862e+01 5.217223e+01 2.143109e+01 2.784556e+01 2.112832e+01 1.478374e+00 1.371891e+00 1.748926e+00 1.264339e+00 6.821682e+00 2.796238e+00 3.455232e+00 4.871085e+00 3.938656e+00 2.401228e+00 2.569606e+00 2.594532e+00 7.155159e-01
<GCONST> 9.735365e+01
<STATE> 4
<MEAN> 25
 5.840427e-01 1.469040e+00 8.528707e-01 -2.770022e-01 -1.689049e+00 -8.290633e-01 7.905513e-01 1.563613e-01 1.410898e-01 1.032968e-01 -3.070503e-02 -2.327957e+00 1.140763e-02 2.527643e-03 -2.609221e-02 3.396562e-03 5.193965e-02 2.036301e-02 9.938510e-03 3.293750e-02 1.179511e-02 -2.318998e-02 1.172532e-02 -1.108511e-02 1.526673e-02
<VARIANCE> 25
 3.924183e+01 3.180746e+01 3.791285e+01 1.946472e+01 6.695517e+01 5.460168e+01 4.708549e+01 4.704908e+01 2.836985e+01 2.975377e+01 2.919523e+01 2.195838e+01 2.291016e+00 1.916694e+00 1.874652e+00 1.449206e+00 4.967604e+00 3.324686e+00 3.483067e+00 3.242537e+00 2.827221e+00 2.564455e+00 2.318733e+00 1.929585e+00 9.684410e-01
<GCONST> 9.994386e+01
<TRANSP> 5
 0.000000e+00 1.000000e+00 0.000000e+00 0.000000e+00 0.000000e+00
 0.000000e+00 9.539804e-01 4.601961e-02 0.000000e+00 0.000000e+00
 0.000000e+00 0.000000e+00 9.648783e-01 3.512168e-02 0.000000e+00
 0.000000e+00 0.000000e+00 0.000000e+00 9.922423e-01 7.757656e-03
 0.000000e+00 0.000000e+00 0.000000e+00 0.000000e+00 0.000000e+00
<ENDHMM>
~h "l2_u"
<BEGINHMM>
<NUMSTATES> 5
<STATE> 2
<MEAN> 25
 -1.651109e-08 -2.268430e-07 1.259320e-08 1.165062e-07 -3.503200e-08 7.789977e-08 -6.306777e-08 1.437152e-07 -9.648429e-08 -8.998416e-08 1.010382e-07 -1.644749e-08 3.964178e-03 4.991033e-03 -2.259726e-03 -8.660138e-04 -1.980516e-03 2.296586e-03 -1.050157e-04 -6.062090e-03 -3.834328e-04 3.311979e-04 1.732379e-04 -2.677502e-03 -2.030911e-03
<VARIANCE> 25
 3.382748e+01 3.628031e+01 4.600648e+01 2.294502e+01 9.100511e+01 4.563913e+01 5.834692e+01 5.632589e+01 3.456791e+01 4.004803e+01 4.066158e+01 4.632240e+01 1.656153e+00 1.407841e+00 1.798202e+00 1.585461e+00 4.502382e+00 2.970210e+00 3.744460e+00 3.177201e+00 2.837936e+00 2.797859e+00 2.639533e+00 2.465156e+00 1.004578e+00
<GCONST> 1.021376e+02
<STATE> 3
<MEAN> 25
 -1.651109e-08 -2.268430e-07 1.259320e-08 1.165062e-07 -3.503200e-08 7.789977e-08 -6.306777e-08 1.437152e-07 -9.648429e-08 -8.998416e-08 1.010382e-07 -1.644749e-08 3.964178e-03 4.991033e-03 -2.259726e-03 -8.660138e-04 -1.980516e-03 2.296586e-03 -1.050157e-04 -6.062090e-03 -3.834328e-04 3.311979e-04 1.732379e-04 -2.677502e-03 -2.030911e-03
<VARIANCE> 25
 3.382748e+01 3.628031e+01 4.600648e+01 2.294502e+01 9.100511e+01 4.563913e+01 5.834692e+01 5.632589e+01 3.456791e+01 4.004803e+01 4.066158e+01 4.632240e+01 1.656153e+00 1.407841e+00 1.798202e+00 1.585461e+00 4.502382e+00 2.970210e+00 3.744460e+00 3.177201e+00 2.837936e+00 2.797859e+00 2.639533e+00 2.465156e+00 1.004578e+00
<GCONST> 1.021376e+02
<STATE> 4
<MEAN> 25
 -1.651109e-08 -2.268430e-07 1.259320e-08 1.165062e-07 -3.503200e-08 7.789977e-08 -6.306777e-08 1.437152e-07 -9.648429e-08 -8.998416e-08 1.010382e-07 -1.644749e-08 3.964178e-03 4.991033e-03 -2.259726e-03 -8.660138e-04 -1.980516e-03 2.296586e-03 -1.050157e-04 -6.062090e-03 -3.834328e-04 3.311979e-04 1.732379e-04 -2.677502e-03 -2.030911e-03
<VARIANCE> 25
 3.382748e+01 3.628031e+01 4.600648e+01 2.294502e+01 9.100511e+01 4.563913e+01 5.834692e+01 5.632589e+01 3.456791e+01 4.004803e+01 4.066158e+01 4.632240e+01 1.656153e+00 1.407841e+00 1.798202e+00 1.585461e+00 4.502382e+00 2.970210e+00 3.744460e+00 3.177201e+00 2.837936e+00 2.797859e+00 2.639533e+00 2.465156e+00 1.004578e+00
<GCONST> 1.021376e+02
<TRANSP> 5
 0.000000e+00 1.000000e+00 0.000000e+00 0.000000e+00 0.000000e+00
 0.000000e+00 6.000000e-01 4.000000e-01 0.000000e+00 0.000000e+00
 0.000000e+00 0.000000e+00 6.000000e-01 4.000000e-01 0.000000e+00
 0.000000e+00 0.000000e+00 0.000000e+00 7.000000e-01 3.000000e-01
 0.000000e+00 0.000000e+00 0.000000e+00 0.000000e+00 0.000000e+00
<ENDHMM>
~h "l3_i"
<BEGINHMM>
<NUMSTATES> 5
<STATE> 2
<MEAN> 25
 -1.651109e-08 -2.268430e-07 1.259320e-08 1.165062e-07 -3.503200e-08 7.789977e-08 -6.306777e-08 1.437152e-07 -9.648429e-08 -8.998416e-08 1.010382e-07 -1.644749e-08 3.964178e-03 4.991033e-03 -2.259726e-03 -8.660138e-04 -1.980516e-03 2.296586e-03 -1.050157e-04 -6.062090e-03 -3.834328e-04 3.311979e-04 1.732379e-04 -2.677502e-03 -2.030911e-03
<VARIANCE> 25
 3.382748e+01 3.628031e+01 4.600648e+01 2.294502e+01 9.100511e+01 4.563913e+01 5.834692e+01 5.632589e+01 3.456791e+01 4.004803e+01 4.066158e+01 4.632240e+01 1.656153e+00 1.407841e+00 1.798202e+00 1.585461e+00 4.502382e+00 2.970210e+00 3.744460e+00 3.177201e+00 2.837936e+00 2.797859e+00 2.639533e+00 2.465156e+00 1.004578e+00
<GCONST> 1.021376e+02
<STATE> 3
<MEAN> 25
 -1.651109e-08 -2.268430e-07 1.259320e-08 1.165062e-07 -3.503200e-08 7.789977e-08 -6.306777e-08 1.437152e-07 -9.648429e-08 -8.998416e-08 1.010382e-07 -1.644749e-08 3.964178e-03 4.991033e-03 -2.259726e-03 -8.660138e-04 -1.980516e-03 2.296586e-03 -1.050157e-04 -6.062090e-03 -3.834328e-04 3.311979e-04 1.732379e-04 -2.677502e-03 -2.030911e-03
<VARIANCE> 25
 3.382748e+01 3.628031e+01 4.600648e+01 2.294502e+01 9.100511e+01 4.563913e+01 5.834692e+01 5.632589e+01 3.456791e+01 4.004803e+01 4.066158e+01 4.632240e+01 1.656153e+00 1.407841e+00 1.798202e+00 1.585461e+00 4.502382e+00 2.970210e+00 3.744460e+00 3.177201e+00 2.837936e+00 2.797859e+00 2.639533e+00 2.465156e+00 1.004578e+00
<GCONST> 1.021376e+02
<STATE> 4
<MEAN> 25
 -1.651109e-08 -2.268430e-07 1.259320e-08 1.165062e-07 -3.503200e-08 7.789977e-08 -6.306777e-08 1.437152e-07 -9.648429e-08 -8.998416e-08 1.010382e-07 -1.644749e-08 3.964178e-03 4.991033e-03 -2.259726e-03 -8.660138e-04 -1.980516e-03 2.296586e-03 -1.050157e-04 -6.062090e-03 -3.834328e-04 3.311979e-04 1.732379e-04 -2.677502e-03 -2.030911e-03
<VARIANCE> 25
 3.382748e+01 3.628031e+01 4.600648e+01 2.294502e+01 9.100511e+01 4.563913e+01 5.834692e+01 5.632589e+01 3.456791e+01 4.004803e+01 4.066158e+01 4.632240e+01 1.656153e+00 1.407841e+00 1.798202e+00 1.585461e+00 4.502382e+00 2.970210e+00 3.744460e+00 3.177201e+00 2.837936e+00 2.797859e+00 2.639533e+00 2.465156e+00 1.004578e+00
<GCONST> 1.021376e+02
<TRANSP> 5
 0.000000e+00 1.000000e+00 0.000000e+00 0.000000e+00 0.000000e+00
 0.000000e+00 6.000000e-01 4.000000e-01 0.000000e+00 0.000000e+00
 0.000000e+00 0.000000e+00 6.000000e-01 4.000000e-01 0.000000e+00
 0.000000e+00 0.000000e+00 0.000000e+00 7.000000e-01 3.000000e-01
 0.000000e+00 0.000000e+00 0.000000e+00 0.000000e+00 0.000000e+00
<ENDHMM>
~h "l3_u"
<BEGINHMM>
<NUMSTATES> 5
<STATE> 2
<MEAN> 25
 -1.651109e-08 -2.268430e-07 1.259320e-08 1.165062e-07 -3.503200e-08 7.789977e-08 -6.306777e-08 1.437152e-07 -9.648429e-08 -8.998416e-08 1.010382e-07 -1.644749e-08 3.964178e-03 4.991033e-03 -2.259726e-03 -8.660138e-04 -1.980516e-03 2.296586e-03 -1.050157e-04 -6.062090e-03 -3.834328e-04 3.311979e-04 1.732379e-04 -2.677502e-03 -2.030911e-03
<VARIANCE> 25
 3.382748e+01 3.628031e+01 4.600648e+01 2.294502e+01 9.100511e+01 4.563913e+01 5.834692e+01 5.632589e+01 3.456791e+01 4.004803e+01 4.066158e+01 4.632240e+01 1.656153e+00 1.407841e+00 1.798202e+00 1.585461e+00 4.502382e+00 2.970210e+00 3.744460e+00 3.177201e+00 2.837936e+00 2.797859e+00 2.639533e+00 2.465156e+00 1.004578e+00
<GCONST> 1.021376e+02
<STATE> 3
<MEAN> 25
 -1.651109e-08 -2.268430e-07 1.259320e-08 1.165062e-07 -3.503200e-08 7.789977e-08 -6.306777e-08 1.437152e-07 -9.648429e-08 -8.998416e-08 1.010382e-07 -1.644749e-08 3.964178e-03 4.991033e-03 -2.259726e-03 -8.660138e-04 -1.980516e-03 2.296586e-03 -1.050157e-04 -6.062090e-03 -3.834328e-04 3.311979e-04 1.732379e-04 -2.677502e-03 -2.030911e-03
<VARIANCE> 25
 3.382748e+01 3.628031e+01 4.600648e+01 2.294502e+01 9.100511e+01 4.563913e+01 5.834692e+01 5.632589e+01 3.456791e+01 4.004803e+01 4.066158e+01 4.632240e+01 1.656153e+00 1.407841e+00 1.798202e+00 1.585461e+00 4.502382e+00 2.970210e+00 3.744460e+00 3.177201e+00 2.837936e+00 2.797859e+00 2.639533e+00 2.465156e+00 1.004578e+00
<GCONST> 1.021376e+02
<STATE> 4
<MEAN> 25
 -1.651109e-08 -2.268430e-07 1.259320e-08 1.165062e-07 -3.503200e-08 7.789977e-08 -6.306777e-08 1.437152e-07 -9.648429e-08 -8.998416e-08 1.010382e-07 -1.644749e-08 3.964178e-03 4.991033e-03 -2.259726e-03 -8.660138e-04 -1.980516e-03 2.296586e-03 -1.050157e-04 -6.062090e-03 -3.834328e-04 3.311979e-04 1.732379e-04 -2.677502e-03 -2.030911e-03
<VARIANCE> 25
 3.382748e+01 3.628031e+01 4.600648e+01 2.294502e+01 9.100511e+01 4.563913e+01 5.834692e+01 5.632589e+01 3.456791e+01 4.004803e+01 4.066158e+01 4.632240e+01 1.656153e+00 1.407841e+00 1.798202e+00 1.585461e+00 4.502382e+00 2.970210e+00 3.744460e+00 3.177201e+00 2.837936e+00 2.797859e+00 2.639533e+00 2.465156e+00 1.004578e+00
<GCONST> 1.021376e+02
<TRANSP> 5
 0.000000e+00 1.000000e+00 0.000000e+00 0.000000e+00 0.000000e+00
 0.000000e+00 6.000000e-01 4.000000e-01 0.000000e+00 0.000000e+00
 0.000000e+00 0.000000e+00 6.000000e-01 4.000000e-01 0.000000e+00
 0.000000e+00 0.000000e+00 0.000000e+00 7.000000e-01 3.000000e-01
 0.000000e+00 0.000000e+00 0.000000e+00 0.000000e+00 0.000000e+00
<ENDHMM>
~h "l4_i"
<BEGINHMM>
<NUMSTATES> 5
<STATE> 2
<MEAN> 25
 -1.651109e-08 -2.268430e-07 1.259320e-08 1.165062e-07 -3.503200e-08 7.789977e-08 -6.306777e-08 1.437152e-07 -9.648429e-08 -8.998416e-08 1.010382e-07 -1.644749e-08 3.964178e-03 4.991033e-03 -2.259726e-03 -8.660138e-04 -1.980516e-03 2.296586e-03 -1.050157e-04 -6.062090e-03 -3.834328e-04 3.311979e-04 1.732379e-04 -2.677502e-03 -2.030911e-03
<VARIANCE> 25
 3.382748e+01 3.628031e+01 4.600648e+01 2.294502e+01 9.100511e+01 4.563913e+01 5.834692e+01 5.632589e+01 3.456791e+01 4.004803e+01 4.066158e+01 4.632240e+01 1.656153e+00 1.407841e+00 1.798202e+00 1.585461e+00 4.502382e+00 2.970210e+00 3.744460e+00 3.177201e+00 2.837936e+00 2.797859e+00 2.639533e+00 2.465156e+00 1.004578e+00
<GCONST> 1.021376e+02
<STATE> 3
<MEAN> 25
 -1.651109e-08 -2.268430e-07 1.259320e-08 1.165062e-07 -3.503200e-08 7.789977e-08 -6.306777e-08 1.437152e-07 -9.648429e-08 -8.998416e-08 1.010382e-07 -1.644749e-08 3.964178e-03 4.991033e-03 -2.259726e-03 -8.660138e-04 -1.980516e-03 2.296586e-03 -1.050157e-04 -6.062090e-03 -3.834328e-04 3.311979e-04 1.732379e-04 -2.677502e-03 -2.030911e-03
<VARIANCE> 25
 3.382748e+01 3.628031e+01 4.600648e+01 2.294502e+01 9.100511e+01 4.563913e+01 5.834692e+01 5.632589e+01 3.456791e+01 4.004803e+01 4.066158e+01 4.632240e+01 1.656153e+00 1.407841e+00 1.798202e+00 1.585461e+00 4.502382e+00 2.970210e+00 3.744460e+00 3.177201e+00 2.837936e+00 2.797859e+00 2.639533e+00 2.465156e+00 1.004578e+00
<GCONST> 1.021376e+02
<STATE> 4
<MEAN> 25
 -1.651109e-08 -2.268430e-07 1.259320e-08 1.165062e-07 -3.503200e-08 7.789977e-08 -6.306777e-08 1.437152e-07 -9.648429e-08 -8.998416e-08 1.010382e-07 -1.644749e-08 3.964178e-03 4.991033e-03 -2.259726e-03 -8.660138e-04 -1.980516e-03 2.296586e-03 -1.050157e-04 -6.062090e-03 -3.834328e-04 3.311979e-04 1.732379e-04 -2.677502e-03 -2.030911e-03
<VARIANCE> 25
 3.382748e+01 3.628031e+01 4.600648e+01 2.294502e+01 9.100511e+01 4.563913e+01 5.834692e+01 5.632589e+01 3.456791e+01 4.004803e+01 4.066158e+01 4.632240e+01 1.656153e+00 1.407841e+00 1.798202e+00 1.585461e+00 4.502382e+00 2.970210e+00 3.744460e+00 3.177201e+00 2.837936e+00 2.797859e+00 2.639533e+00 2.465156e+00 1.004578e+00
<GCONST> 1.021376e+02
<TRANSP> 5
 0.000000e+00 1.000000e+00 0.000000e+00 0.000000e+00 0.000000e+00
 0.000000e+00 6.000000e-01 4.000000e-01 0.000000e+00 0.000000e+00
 0.000000e+00 0.000000e+00 6.000000e-01 4.000000e-01 0.000000e+00
 0.000000e+00 0.000000e+00 0.000000e+00 7.000000e-01 3.000000e-01
 0.000000e+00 0.000000e+00 0.000000e+00 0.000000e+00 0.000000e+00
<ENDHMM>
~h "l4_u"
<BEGINHMM>
<NUMSTATES> 5
<STATE> 2
<MEAN> 25
 -9.253785e-01 -3.081225e+00 -2.102035e-01 1.283823e+00 -4.939630e+00 -4.063215e+00 2.678942e+00 -1.720228e+00 1.368783e+00 5.412743e+00 5.684724e+00 1.376086e+01 3.248433e-02 -9.895863e-02 -2.026373e-01 1.208358e-02 1.335395e-01 -4.814754e-02 2.073853e-01 8.019108e-02 -4.393024e-02 5.800612e-02 6.263599e-03 1.014835e-01 8.584872e-03
<VARIANCE> 25
 1.470972e+01 3.575217e+01 4.776885e+01 2.011069e+01 1.045646e+02 2.004153e+01 4.913780e+01 4.871359e+01 4.298277e+01 9.213383e+01 7.787731e+01 6.634151e+01 7.791460e-01 1.440785e+00 2.187361e+00 1.843761e+00 3.547093e+00 1.831855e+00 3.611884e+00 3.102625e+00 3.277730e+00 4.496935e+00 3.340416e+00 5.007634e+00 6.117637e-01
<GCONST> 1.021561e+02
<STATE> 3
<MEAN> 25
 -1.394825e-01 3.211524e-01 -4.800584e-01 1.402923e+00 -5.394213e+00 -5.021176e+00 3.778013e+00 -1.753330e+00 -2.110329e+00 1.273060e+00 -2.495504e+00 1.857931e+00 -6.354766e-02 4.384845e-02 8.801027e-02 -5.994994e-03 -3.257460e-02 7.928466e-02 -1.297736e-01 -3.931139e-02 9.589528e-02 -2.513720e-02 -5.882353e-02 -1.724051e-01 -8.855395e-03
<VARIANCE> 25
 2.704369e+01 1.831144e+01 2.251625e+01 1.295724e+01 4.088529e+01 2.770225e+01 6.915615e+01 4.762047e+01 3.836098e+01 5.465110e+01 7.079337e+01 6.258672e+01 1.665656e+00 1.515707e+00 1.829077e+00 1.127767e+00 2.592227e+00 2.839870e+00 6.615112e+00 4.534027e+00 3.233246e+00 3.779426e+00 3.554112e+00 3.259199e+00 1.013220e+00
<GCONST> 1.010172e+02
<STATE> 4
<MEAN> 25
 1.591921e+00 7.663294e-01 -1.487820e+00 -3.714631e-01 4.709299e+00 2.130945e+00 -2.106895e+00 -1.652671e+00 3.542137e-01 -9.509914e-01 -1.198641e+00 -4.721074e+00 -5.483183e-03 3.293866e-03 3.141123e-03 -1.546619e-02 6.400694e-02 2.704115e-02 9.974530e-03 4.299816e-02 -2.395859e-03 -4.180633e-04 2.276870e-02 -4.612333e-02 -2.669364e-02
<VARIANCE> 25
 4.230325e+01 2.677461e+01 5.206679e+01 2.818673e+01 9.056866e+01 5.938049e+01 4.785031e+01 4.053162e+01 3.836777e+01 3.530404e+01 3.726325e+01 3.149096e+01 1.964088e+00 1.359542e+00 2.633046e+00 1.627924e+00 4.069472e+00 3.726701e+00 3.890502e+00 3.241324e+00 3.228168e+00 2.771747e+00 3.288320e+00 2.444473e+00 8.202692e-01
<GCONST> 1.024784e+02
<TRANSP> 5
 0.000000e+00 1.000000e+00 0.000000e+00 0.000000e+00 0.000000e+00
 0.000000e+00 9.790603e-01 2.093970e-02 0.000000e+00 0.000000e+00
 0.000000e+00 0.000000e+00 9.802574e-01 1.974260e-02 0.000000e+00
 0.000000e+00 0.000000e+00 0.000000e+00 9.941502e-01 5.849825e-03
 0.000000e+00 0.000000e+00 0.000000e+00 0.000000e+00 0.000000e+00
<ENDHMM>
~h "l5_i"
<BEGINHMM>
<NUMSTATES> 5
<STATE> 2
<MEAN> 25
 6.928278e+00 -5.883531e+00 -1.022697e+01 1.678840e+00 4.307754e-01 3.177486e+00 -4.972355e+00 6.047947e+00 1.436940e+00 1.896144e-01 -5.307269e+00 4.397649e-02 7.192792e-02 -1.134423e-01 6.093066e-03 3.252479e-02 2.160992e-01 1.120863e+00 -3.800289e-01 -5.667420e-01 2.172540e-01 2.940138e-01 2.015913e-01 2.036420e-01 1.484294e-01
<VARIANCE> 25
 2.769447e+01 1.017684e+01 2.227528e+01 1.482049e+01 6.839458e+01 3.823376e+01 3.930856e+01 3.941349e+01 1.597502e+01 1.342356e+01 3.168607e+01 1.419887e+01 1.246071e+00 8.322824e-01 1.102221e+00 2.739080e+00 3.974593e+00 1.818944e+00 4.626881e+00 4.141232e+00 1.641449e+00 7.882473e-01 6.896491e-01 1.096742e+00 5.239139e-01
<GCONST> 8.948380e+01
<STATE> 3
<MEAN> 25
 -9.571958e-01 -5.100160e-01 -9.456086e-01 1.511032e+00 3.469282e+00 1.759786e+00 -1.356391e+00 2.120387e+00 1.588231e+00 2.035796e+00 3.916285e+00 1.782253e+00 -6.655719e-02 1.242327e-01 6.212045e-02 -2.285705e-02 -4.493479e-02 1.431021e-02 3.592691e-02 3.287201e-02 -4.996322e-03 3.882328e-02 8.365696e-02 -3.628869e-02 -1.572831e-01
<VARIANCE> 25
 2.394119e+01 2.406191e+01 4.459117e+01 1.083054e+01 4.750537e+01 2.354606e+01 2.070983e+01 3.816281e+01 1.469467e+01 2.364947e+01 2.481105e+01 1.852170e+01 6.218919e-01 6.295215e-01 8.128508e-01 8.419007e-01 2.090774e+00 1.650795e+00 1.499984e+00 1.800381e+00 1.548037e+00 1.635852e+00 1.342446e+00 1.260847e+00 1.445289e-01
<GCONST> 8.459271e+01
<STATE> 4
<MEAN> 25
 1.115331e-01 1.523509e+00 1.660046e-01 4.124323e-01 -2.367386e+00 -1.573264e+00 2.093425e+00 -1.969784e+00 -6.384118e-01 -9.697360e-01 -1.474825e+00 -7.382246e-01 -2.437750e-03 -1.182512e-03 2.149977e-03 -1.689922e-03 -6.933004e-03 -3.397118e-03 -2.492718e-03 -5.308926e-03 -1.670172e-03 3.498220e-03 -6.648591e-03 -1.112230e-02 2.521132e-02
<VARIANCE> 25
 3.980231e+01 3.826091e+01 5.654345e+01 2.814051e+01 9.232899e+01 3.445301e+01 5.464950e+01 4.649572e+01 3.292581e+01 3.691413e+01 4.026823e+01 3.052801e+01 1.838742e+00 1.771192e+00 2.108026e+00 1.906718e+00 5.230731e+00 2.672270e+00 3.610509e+00 2.845970e+00 2.636633e+00 2.865107e+00 2.739062e+00 2.569691e+00 1.589224e+00
<GCONST> 1.027457e+02
<TRANSP> 5
 0.000000e+00 1.000000e+00 0.000000e+00 0.000000e+00 0.000000e+00
 0.000000e+00 8.649270e-01 1.350730e-01 0.000000e+00 0.000000e+00
 0.000000e+00 0.000000e+00 9.834880e-01 1.651199e-02 0.000000e+00
 0.000000e+00 0.000000e+00 0.000000e+00 9.971200e-01 2.880017e-03
 0.000000e+00 0.000000e+00 0.000000e+00 0.000000e+00 0.000000e+00
<ENDHMM>
~h "l5_u"
<BEGINHMM>
<NUMSTATES> 5
<STATE> 2
<MEAN> 25
 -1.651109e-08 -2.268430e-07 1.259320e-08 1.165062e-07 -3.503200e-08 7.789977e-08 -6.306777e-08 1.437152e-07 -9.648429e-08 -8.998416e-08 1.010382e-07 -1.644749e-08 3.964178e-03 4.991033e-03 -2.259726e-03 -8.660138e-04 -1.980516e-03 2.296586e-03 -1.050157e-04 -6.062090e-03 -3.834328e-04 3.311979e-04 1.732379e-04 -2.677502e-03 -2.030911e-03
<VARIANCE> 25
 3.382748e+01 3.628031e+01 4.600648e+01 2.294502e+01 9.100511e+01 4.563913e+01 5.834692e+01 5.632589e+01 3.456791e+01 4.004803e+01 4.066158e+01 4.632240e+01 1.656153e+00 1.407841e+00 1.798202e+00 1.585461e+00 4.502382e+00 2.970210e+00 3.744460e+00 3.177201e+00 2.837936e+00 2.797859e+00 2.639533e+00 2.465156e+00 1.004578e+00
<GCONST> 1.021376e+02
<STATE> 3
<MEAN> 25
 -1.651109e-08 -2.268430e-07 1.259320e-08 1.165062e-07 -3.503200e-08 7.789977e-08 -6.306777e-08 1.437152e-07 -9.648429e-08 -8.998416e-08 1.010382e-07 -1.644749e-08 3.964178e-03 4.991033e-03 -2.259726e-03 -8.660138e-04 -1.980516e-03 2.296586e-03 -1.050157e-04 -6.062090e-03 -3.834328e-04 3.311979e-04 1.732379e-04 -2.677502e-03 -2.030911e-03
<VARIANCE> 25
 3.382748e+01 3.628031e+01 4.600648e+01 2.294502e+01 9.100511e+01 4.563913e+01 5.834692e+01 5.632589e+01 3.456791e+01 4.004803e+01 4.066158e+01 4.632240e+01 1.656153e+00 1.407841e+00 1.798202e+00 1.585461e+00 4.502382e+00 2.970210e+00 3.744460e+00 3.177201e+00 2.837936e+00 2.797859e+00 2.639533e+00 2.465156e+00 1.004578e+00
<GCONST> 1.021376e+02
<STATE> 4
<MEAN> 25
 -1.651109e-08 -2.268430e-07 1.259320e-08 1.165062e-07 -3.503200e-08 7.789977e-08 -6.306777e-08 1.437152e-07 -9.648429e-08 -8.998416e-08 1.010382e-07 -1.644749e-08 3.964178e-03 4.991033e-03 -2.259726e-03 -8.660138e-04 -1.980516e-03 2.296586e-03 -1.050157e-04 -6.062090e-03 -3.834328e-04 3.311979e-04 1.732379e-04 -2.677502e-03 -2.030911e-03
<VARIANCE> 25
 3.382748e+01 3.628031e+01 4.600648e+01 2.294502e+01 9.100511e+01 4.563913e+01 5.834692e+01 5.632589e+01 3.456791e+01 4.004803e+01 4.066158e+01 4.632240e+01 1.656153e+00 1.407841e+00 1.798202e+00 1.585461e+00 4.502382e+00 2.970210e+00 3.744460e+00 3.177201e+00 2.837936e+00 2.797859e+00 2.639533e+00 2.465156e+00 1.004578e+00
<GCONST> 1.021376e+02
<TRANSP> 5
 0.000000e+00 1.000000e+00 0.000000e+00 0.000000e+00 0.000000e+00
 0.000000e+00 6.000000e-01 4.000000e-01 0.000000e+00 0.000000e+00
 0.000000e+00 0.000000e+00 6.000000e-01 4.000000e-01 0.000000e+00
 0.000000e+00 0.000000e+00 0.000000e+00 7.000000e-01 3.000000e-01
 0.000000e+00 0.000000e+00 0.000000e+00 0.000000e+00 0.000000e+00
<ENDHMM>
~h "sil"
<BEGINHMM>
<NUMSTATES> 5
<STATE> 2
<MEAN> 25
 -3.051967e+00 -3.760116e+00 1.606292e+00 8.287072e-02 5.275938e+00 1.772706e+00 -1.285616e+00 6.718450e+00 6.320990e-01 -6.895744e-01 3.895178e+00 1.980979e+00 -1.046043e-02 1.787014e-02 1.578216e-03 1.567780e-02 -1.490433e-02 1.920939e-02 4.846446e-03 7.677019e-03 -4.050974e-03 -6.263281e-03 2.882060e-02 3.882516e-02 -7.053059e-02
<VARIANCE> 25
 2.094481e+01 1.826661e+01 2.294999e+01 1.503748e+01 2.503858e+01 2.328280e+01 2.999517e+01 2.820427e+01 2.024913e+01 2.340558e+01 1.775388e+01 2.433136e+01 4.883146e-01 5.382695e-01 8.607402e-01 9.089170e-01 1.192484e+00 1.375378e+00 1.585768e+00 1.727068e+00 1.605105e+00 1.818502e+00 1.580137e+00 1.327266e+00 2.636222e-01
<GCONST> 8.347504e+01
<STATE> 3
<MEAN> 25
 -2.806401e+00 -4.706346e+00 -1.734191e+00 1.698421e-01 1.311298e+00 2.582698e-01 2.502549e+00 2.697128e+00 -1.021091e+00 8.050190e-01 2.247098e+00 5.676808e+00 4.959010e-02 2.105673e-02 -1.264205e-03 -2.032601e-02 -1.346847e-01 -1.094922e-01 1.441093e-03 -1.735202e-01 -8.931503e-02 -3.675707e-03 -1.423577e-01 5.870223e-03 2.395373e-01
<VARIANCE> 25
 2.404085e+01 2.427255e+01 2.459722e+01 1.859118e+01 8.413660e+01 3.728818e+01 8.583372e+01 3.438739e+01 3.433383e+01 5.617588e+01 3.952057e+01 5.200718e+01 1.531659e+00 1.315895e+00 1.512388e+00 1.462508e+00 3.741949e+00 2.960999e+00 5.571869e+00 3.251229e+00 3.094589e+00 3.373508e+00 2.757230e+00 2.822869e+00 1.433470e+00
<GCONST> 1.012297e+02
<STATE> 4
<MEAN> 25
 4.393942e-01 8.438210e-01 1.028190e-01 -6.187982e-02 -5.286725e-01 -2.659402e-02 -4.111994e-01 -8.167593e-01 4.726746e-02 1.130679e-01 -3.822394e-01 -6.349565e-01 4.453479e-03 2.893163e-03 -2.928191e-03 1.261100e-03 4.125290e-03 2.269031e-03 -5.012303e-03 -1.352097e-03 4.161497e-03 2.297923e-03 8.828699e-03 -1.156086e-03 -1.063507e-02
<VARIANCE> 25
 3.575040e+01 3.634501e+01 5.023194e+01 2.453271e+01 9.525162e+01 4.854739e+01 5.820126e+01 5.649686e+01 3.518278e+01 4.040831e+01 4.153772e+01 4.502428e+01 1.896183e+00 1.520611e+00 1.936569e+00 1.710539e+00 5.089824e+00 3.251451e+00 3.848036e+00 3.344474e+00 2.950142e+00 2.904399e+00 2.820180e+00 2.612326e+00 1.080156e+00
<GCONST> 1.034039e+02
<TRANSP> 5
 0.000000e+00 1.000000e+00 0.000000e+00 0.000000e+00 0.000000e+00
 0.000000e+00 9.697329e-01 3.026714e-02 0.000000e+00 0.000000e+00
 0.000000e+00 0.000000e+00 9.512061e-01 4.879388e-02 0.000000e+00
 0.000000e+00 0.000000e+00 0.000000e+00 9.954537e-01 4.546353e-03
 0.000000e+00 0.000000e+00 0.000000e+00 0.000000e+00 0.000000e+00
<ENDHMM>
~h "sp"
<BEGINHMM>
<NUMSTATES> 3
<STATE> 2
<MEAN> 25
 -2.806401e+00 -4.706346e+00 -1.734191e+00 1.698421e-01 1.311298e+00 2.582698e-01 2.502549e+00 2.697128e+00 -1.021091e+00 8.050190e-01 2.247098e+00 5.676808e+00 4.959010e-02 2.105673e-02 -1.264205e-03 -2.032601e-02 -1.346847e-01 -1.094922e-01 1.441093e-03 -1.735202e-01 -8.931503e-02 -3.675707e-03 -1.423577e-01 5.870223e-03 2.395373e-01
<VARIANCE> 25
 2.404085e+01 2.427255e+01 2.459722e+01 1.859118e+01 8.413660e+01 3.728818e+01 8.583372e+01 3.438739e+01 3.433383e+01 5.617588e+01 3.952057e+01 5.200718e+01 1.531659e+00 1.315895e+00 1.512388e+00 1.462508e+00 3.741949e+00 2.960999e+00 5.571869e+00 3.251229e+00 3.094589e+00 3.373508e+00 2.757230e+00 2.822869e+00 1.433470e+00
<GCONST> 1.012297e+02
<TRANSP> 3
 0.000000e+00 1.000000e+00 0.000000e+00
 0.000000e+00 9.697329e-01 3.026714e-02
 0.000000e+00 0.000000e+00 9.512061e-01
<ENDHMM>
