~o
<STREAMINFO> 1 25
<VECSIZE> 25<NULLD><MFCC_D_N_Z_0><DIAGC>
~s "ST_ek_2_1"
<MEAN> 25
 -1.564881e+00 2.672894e+00 -4.498108e+00 -4.711296e-01 -4.065439e+00 4.340293e+00 3.715492e+00 2.032724e+00 -1.726686e-01 1.348028e+00 1.433464e+00 2.216044e+00 -4.158333e-03 5.242706e-02 2.621806e-03 -1.927457e-02 -2.579722e-02 -3.762322e-02 -5.053071e-02 1.785221e-02 -9.339506e-03 -1.199315e-02 -2.216022e-02 -2.281320e-02 1.039145e-02
<VARIANCE> 25
 2.836643e+00 7.525963e+00 6.313117e+00 5.540528e+00 7.794234e+00 1.042209e+01 7.209076e+00 8.761630e+00 7.602458e+00 8.836157e+00 6.614481e+00 7.500376e+00 1.389685e-01 3.153519e-01 4.056185e-01 5.314730e-01 6.862220e-01 7.449303e-01 6.981695e-01 9.490826e-01 7.928888e-01 9.783110e-01 7.135518e-01 7.699836e-01 1.031875e-01
<GCONST> 6.034851e+01
~s "ST_ek_3_1"
<MEAN> 25
 -4.109785e+00 1.457249e+00 -1.693733e+00 -2.154787e+00 2.380866e-01 1.547145e+00 -7.516695e-01 4.221805e+00 1.091809e+00 2.461964e-01 -8.265131e-01 2.476068e+00 -5.282923e-02 -1.085503e+00 1.463925e+00 6.247635e-01 1.853760e+00 -1.786459e+00 -2.039220e+00 -1.080043e+00 2.763325e-01 1.237218e-01 -9.367766e-01 -7.196262e-01 1.730132e+00
<VARIANCE> 25
 5.900160e+00 1.532582e+01 7.316212e+00 8.028124e+00 1.638754e+01 1.679711e+01 9.934317e+00 5.230364e+00 8.585221e+00 3.658417e+00 7.131970e+00 8.940730e+00 1.371568e+00 2.261683e+00 6.343879e-01 2.419273e+00 2.197215e+00 1.828270e+00 9.638551e-01 3.005804e+00 8.696535e-01 1.677945e+00 4.504344e-01 8.634720e-01 1.139338e+00
<GCONST> 7.527371e+01
~s "ST_ek_4_1"
<MEAN> 25
 5.524935e+00 -7.532443e+00 1.407267e+01 1.197531e+00 1.393395e+01 -1.333148e+01 -1.080315e+01 -7.475950e+00 3.455251e-01 -1.525348e-01 -3.545863e+00 -6.996938e+00 4.685433e-01 -4.069084e-01 5.515145e-01 -3.234136e-02 5.936251e-01 -3.194059e-01 -1.123300e-01 -2.626196e-01 -2.144046e-01 2.350198e-01 -1.901381e-02 -3.245317e-01 1.886118e-01
<VARIANCE> 25
 6.592802e+01 5.930333e+01 3.941069e+01 4.479990e+01 4.889856e+01 4.506763e+01 4.279387e+01 6.930854e+01 4.255514e+01 5.305335e+01 3.376916e+01 3.819778e+01 1.481727e+00 1.893473e+00 2.032376e+00 1.739654e+00 2.525924e+00 3.760107e+00 2.663868e+00 3.992282e+00 3.389551e+00 3.174855e+00 2.020736e+00 2.147287e+00 2.970093e+00
<GCONST> 1.041136e+02
~s "ST_teen_2_1"
<MEAN> 25
 -2.300866e+00 3.446864e+00 -5.854497e+00 -1.721042e+00 -3.889626e+00 2.546126e+00 1.639733e+00 -3.969046e-01 -1.452742e+00 2.513768e+00 2.235051e-01 1.821135e+00 1.317920e-02 8.777513e-04 4.761548e-04 2.648356e-02 6.636119e-03 2.063989e-03 3.815893e-02 1.307890e-02 2.382123e-02 1.476070e-02 1.812592e-02 1.694562e-02 2.457030e-02
<VARIANCE> 25
 1.197201e+00 3.310657e+00 6.929710e+00 3.735803e+00 5.024686e+00 8.195308e+00 7.512014e+00 8.869493e+00 6.774969e+00 7.207767e+00 5.912431e+00 4.968645e+00 7.973525e-02 2.062172e-01 3.555092e-01 4.018846e-01 5.913541e-01 7.020417e-01 9.373692e-01 7.486616e-01 6.234151e-01 1.046708e+00 6.943045e-01 5.598019e-01 6.281587e-02
<GCONST> 5.433711e+01
~s "ST_teen_3_1"
<MEAN> 25
 -2.628681e+00 1.427581e-01 -5.303276e+00 -7.090422e-01 -4.084435e+00 6.812690e-01 2.859707e+00 2.222110e+00 -1.160290e+00 1.413810e+00 -5.224273e-01 1.935665e+00 -6.521405e-02 -3.712907e-01 1.022347e-01 8.011677e-02 -6.061395e-02 2.094380e-02 -5.857143e-02 -2.313800e-01 1.414619e-01 1.838697e-03 -5.215356e-02 -1.056728e-01 4.183003e-01
<VARIANCE> 25
 2.220623e+00 2.300727e+01 9.462049e+00 7.214341e+00 5.077771e+00 9.640014e+00 1.170313e+01 1.146600e+01 1.186704e+01 7.883351e+00 9.686861e+00 7.534588e+00 3.123807e-01 3.877242e+00 1.685323e+00 1.105650e+00 9.192989e-01 1.173993e+00 1.609380e+00 7.504870e-01 1.548107e+00 1.146542e+00 1.488471e+00 9.036847e-01 2.483951e+00
<GCONST> 7.458189e+01
~s "ST_teen_4_1"
<MEAN> 25
 5.206030e+00 -1.143220e+01 2.084799e+01 6.097445e+00 1.566072e+01 -1.525115e+01 -2.623962e+00 -4.556381e+00 5.360064e+00 -6.941469e+00 -1.923928e+00 -6.500928e+00 5.904182e-01 -4.094663e-02 6.359620e-01 8.797885e-02 3.591700e-01 -3.516128e-01 -2.564563e-01 6.118445e-02 7.062228e-03 -2.716123e-01 1.469426e-01 -3.620619e-01 -1.453004e-01
<VARIANCE> 25
 2.831206e+01 2.608075e+01 7.694020e+01 2.203760e+01 9.008010e+01 6.609935e+01 2.634677e+01 1.130074e+02 7.181871e+01 5.922795e+01 3.217572e+01 2.652964e+01 1.581465e+00 2.257780e+00 5.037475e+00 2.642210e+00 5.506205e+00 6.955656e+00 3.664558e+00 4.398749e+00 3.868568e+00 7.471963e+00 4.721772e+00 3.580050e+00 1.534945e+00
<GCONST> 1.086897e+02
~s "ST_pach_2_1"
<MEAN> 25
 -3.410626e+00 4.879653e+00 -3.537374e+00 4.114715e+00 2.898302e-01 2.172781e+00 -2.572446e-01 -6.540645e-01 -7.730264e-01 -1.179426e-01 2.170581e-02 -2.330976e+00 -1.556684e-02 2.185540e-02 1.161622e-02 1.165069e-02 2.289060e-02 9.097484e-03 -1.699188e-03 1.445640e-02 2.393926e-02 -3.532152e-03 -2.794524e-02 -5.684179e-02 -3.464266e-03
<VARIANCE> 25
 2.173881e+00 2.523718e+00 6.814224e+00 5.766745e+00 6.129463e+00 6.873658e+00 5.453994e+00 7.117746e+00 8.425025e+00 6.145379e+00 8.830655e+00 7.297113e+00 7.843014e-02 1.912251e-01 2.632903e-01 3.994184e-01 4.689936e-01 5.867901e-01 5.890672e-01 7.288022e-01 6.953574e-01 6.144901e-01 6.455547e-01 7.961477e-01 5.158101e-02
<GCONST> 5.376422e+01
~s "ST_pach_3_1"
<MEAN> 25
 -2.081424e+00 2.328780e+00 -1.989299e+00 3.613276e+00 -8.475523e-01 -2.495393e-01 -4.008809e-01 7.036466e-01 2.864651e-01 -7.797536e-01 2.164105e-01 -3.493915e+00 1.716922e+00 -9.626756e-01 4.933294e-01 -1.446102e+00 -4.186915e-01 -9.663838e-01 -3.799742e-01 3.209357e-01 2.367111e-01 -3.227684e-01 -3.590989e-01 5.340562e-01 2.905392e+00
<VARIANCE> 25
 1.877496e+01 1.662547e+01 1.178509e+01 1.313933e+01 1.547507e+01 9.770405e+00 1.829023e+01 7.863490e+00 1.297904e+01 1.136725e+01 1.016706e+01 8.853449e+00 3.387025e+00 2.359139e+00 2.522220e+00 2.253744e+00 1.888251e+00 1.683514e+00 1.702678e+00 1.474090e+00 2.175619e+00 1.755784e+00 1.187420e+00 1.182967e+00 8.326820e+00
<GCONST> 8.590633e+01
~s "ST_pach_4_1"
<MEAN> 25
 1.584073e+01 -1.561377e+01 1.012673e+01 -1.603165e+01 2.753988e+00 -1.017611e+01 1.496753e-01 3.554430e+00 3.313788e+00 2.542182e+00 -3.645928e+00 6.524139e+00 9.545447e-02 -2.860010e-01 3.910905e-01 -2.061972e-01 2.502257e-01 -5.879376e-02 1.155663e-01 -2.077611e-01 -1.496624e-01 -4.638169e-03 5.966735e-02 3.479709e-01 -3.170874e-01
<VARIANCE> 25
 1.728940e+01 3.505558e+01 2.782459e+01 2.891538e+01 4.311139e+01 4.425241e+01 2.163449e+01 6.253531e+01 4.428045e+01 4.169812e+01 6.494958e+01 3.560985e+01 2.196526e+00 3.855482e+00 2.595405e+00 5.185741e+00 4.896619e+00 4.045093e+00 2.436310e+00 5.554876e+00 4.309207e+00 4.574679e+00 4.335392e+00 2.481093e+00 1.264626e+00
<GCONST> 1.049940e+02
~s "ST_saat_2_1"
<MEAN> 25
 -1.256652e+00 4.346309e+00 -4.154141e+00 3.049094e+00 1.094768e+00 2.331781e-01 -7.011733e-01 5.796261e-01 -1.350225e+00 2.515847e-01 -7.600850e-01 -1.723716e+00 -5.151758e-03 -1.940119e-02 -1.307340e-02 -6.498655e-03 -1.311181e-03 1.799365e-02 -1.137836e-03 -1.563385e-02 2.329818e-03 1.599391e-03 4.102399e-03 2.144258e-02 2.189939e-02
<VARIANCE> 25
 9.218032e-01 3.090749e+00 3.712490e+00 3.595649e+00 5.818539e+00 8.218750e+00 7.891440e+00 8.317628e+00 1.042014e+01 7.817523e+00 6.073045e+00 7.011920e+00 6.707759e-02 1.919775e-01 2.929947e-01 3.447243e-01 4.981439e-01 6.588263e-01 7.184945e-01 7.663295e-01 8.878590e-01 9.224286e-01 7.002066e-01 6.422413e-01 5.158101e-02
<GCONST> 5.346928e+01
~s "ST_saat_3_1"
<MEAN> 25
 -2.450584e+00 3.031539e+00 -3.071147e+00 4.048995e+00 -1.038532e+00 2.253337e+00 -5.601553e-01 -1.608344e-02 -1.396737e+00 4.351299e-01 -9.206778e-01 -1.731195e+00 2.256665e-01 -2.236006e-01 4.929828e-01 1.127858e-01 -6.400079e-02 1.755509e-01 -1.800901e-02 -4.621038e-02 1.415581e-01 -3.290233e-02 -1.438771e-01 1.736295e-02 3.454141e-01
<VARIANCE> 25
 7.884490e+00 5.800026e+00 9.636957e+00 1.101566e+01 9.176442e+00 1.399487e+01 1.164192e+01 8.608646e+00 1.179610e+01 1.153263e+01 1.316480e+01 6.972816e+00 1.672898e+00 2.051967e+00 1.669809e+00 1.371374e+00 1.499763e+00 1.834535e+00 1.267261e+00 1.231740e+00 1.535767e+00 1.468188e+00 1.900540e+00 8.815671e-01 9.783788e-01
<GCONST> 7.815636e+01
~s "ST_saat_4_1"
<MEAN> 25
 -9.930686e+00 -4.083614e+00 1.054557e+01 -2.626878e-01 1.029926e+00 4.496319e+00 1.740697e+00 -3.139964e+00 2.403001e+00 -8.955114e-02 4.099321e-01 -4.164338e-02 -2.140059e-01 -3.810295e-01 4.444695e-01 -3.820089e-01 1.962356e-01 -1.267827e-01 2.551209e-01 -2.877944e-01 1.889899e-01 -1.156980e-01 1.457327e-01 -8.837895e-03 6.675512e-01
<VARIANCE> 25
 7.530712e+01 4.287466e+01 3.963115e+01 3.215226e+01 3.053794e+01 6.404555e+01 4.730406e+01 3.728870e+01 3.893777e+01 1.766741e+01 2.619647e+01 1.801908e+01 5.456014e+00 4.087472e+00 3.268854e+00 2.514911e+00 2.099550e+00 3.030894e+00 2.494342e+00 2.904212e+00 2.509628e+00 1.457174e+00 2.030999e+00 1.468985e+00 2.063446e+00
<GCONST> 1.010777e+02
~s "ST_char_2_1"
<MEAN> 25
 -3.045204e+00 4.534488e+00 -2.374894e+00 1.724064e+00 3.433192e-02 2.052973e+00 4.002730e-01 2.453527e-01 -3.984760e-01 8.703039e-02 -5.910856e-02 -2.148580e+00 6.011998e-04 6.517120e-03 -3.421033e-03 -7.483718e-03 1.106723e-02 -2.571231e-03 -4.941667e-03 2.353182e-02 3.685854e-02 2.075200e-02 1.049122e-02 -3.218041e-03 3.939590e-03
<VARIANCE> 25
 1.537762e+00 2.723231e+00 3.615553e+00 4.277167e+00 5.011123e+00 6.188251e+00 5.084684e+00 8.953645e+00 9.135486e+00 9.723959e+00 6.704785e+00 6.355989e+00 6.950895e-02 2.324435e-01 2.976560e-01 3.860168e-01 4.818902e-01 5.678477e-01 5.070274e-01 7.969550e-01 9.889835e-01 9.806467e-01 8.593474e-01 8.346832e-01 5.158101e-02
<GCONST> 5.379050e+01
~s "ST_char_3_1"
<MEAN> 25
 -4.001327e+00 2.448131e+00 -2.959201e+00 3.334946e+00 -1.303070e+00 6.501154e-01 -5.033048e-01 1.130959e+00 5.219239e-01 1.419519e+00 1.854285e+00 -3.122235e+00 -7.393645e-01 -1.530836e+00 1.460262e+00 -1.026984e-01 -5.897052e-01 6.596603e-01 -3.974137e-01 2.460866e-01 4.761809e-01 -9.105696e-01 3.320702e-01 -3.327447e-01 1.124946e+00
<VARIANCE> 25
 9.761374e+00 1.328177e+01 1.244527e+01 2.589696e+01 8.252715e+00 2.456063e+01 1.331134e+01 1.131686e+01 4.903013e+00 1.455629e+01 6.229354e+00 7.170928e+00 2.072249e+00 4.432515e+00 2.448507e+00 2.802016e+00 1.479706e+00 3.974905e+00 3.347468e+00 2.091619e+00 1.430375e+00 2.506177e+00 1.149523e+00 1.771234e+00 2.301424e+00
<GCONST> 8.566364e+01
~s "ST_char_4_1"
<MEAN> 25
 3.818062e+00 -8.437311e+00 7.754377e+00 -7.040107e+00 1.692959e+00 -3.724586e+00 1.032089e-02 6.005365e-01 1.522718e+00 2.054446e+00 -1.412386e+00 5.089236e+00 3.510719e-01 -5.742455e-02 2.678555e-02 -1.553306e-01 1.587296e-01 -2.137511e-01 -4.239438e-02 -1.083453e-02 -4.575463e-02 6.817573e-02 -4.343818e-02 2.004801e-01 2.176061e-01
<VARIANCE> 25
 1.143817e+02 2.226702e+01 4.728338e+01 8.050829e+01 8.388258e+01 6.081768e+01 5.265832e+01 6.354901e+01 7.368443e+01 4.104872e+01 5.340012e+01 7.159280e+01 4.649110e+00 2.426634e+00 3.922678e+00 3.402506e+00 5.837014e+00 5.553385e+00 5.524714e+00 4.580317e+00 5.691267e+00 3.536019e+00 4.494936e+00 3.858856e+00 2.242658e+00
<GCONST> 1.133374e+02
~s "ST_aath_2_1"
<MEAN> 25
 -4.093138e+00 3.609074e+00 -1.105247e+00 3.821275e+00 1.712602e+00 8.408322e-01 -7.585623e-01 -5.719500e-02 -1.172537e+00 -3.449706e-01 6.172289e-01 -2.307868e+00 5.119105e-03 8.845259e-03 -1.419016e-02 -1.399669e-02 3.018711e-03 -7.483858e-03 1.674669e-02 1.212309e-02 2.515706e-03 1.523286e-02 6.409173e-03 -1.008222e-03 2.414457e-02
<VARIANCE> 25
 1.969827e+00 5.970059e+00 3.210008e+00 6.146683e+00 7.413518e+00 8.420263e+00 7.605583e+00 9.161142e+00 7.674075e+00 1.076405e+01 1.098787e+01 6.199476e+00 1.076392e-01 2.751987e-01 2.720436e-01 4.763669e-01 4.749596e-01 6.084654e-01 7.711964e-01 8.163588e-01 8.435427e-01 5.369623e-01 6.354436e-01 6.799472e-01 8.182729e-02
<GCONST> 5.700600e+01
~s "ST_aath_3_1"
<MEAN> 25
 -4.641732e+00 1.281794e+00 -1.396280e+00 4.550340e-01 -2.627004e+00 2.102733e+00 2.070513e+00 1.962095e+00 1.027800e-02 -1.972942e+00 -2.631364e-01 -1.031652e+00 2.361929e-01 -5.130659e-01 1.380331e-01 -4.374901e-01 -5.779951e-01 5.849086e-02 3.314189e-01 2.244092e-01 3.399925e-01 -8.759603e-02 -3.911009e-01 1.750579e-01 6.673422e-01
<VARIANCE> 25
 1.679864e+01 3.445095e+01 2.303824e+01 2.409483e+01 3.527628e+01 3.043849e+01 2.938868e+01 2.086767e+01 2.475700e+01 2.239621e+01 2.423729e+01 1.161968e+01 1.364387e+00 3.349804e+00 1.809693e+00 2.133805e+00 2.695288e+00 2.734428e+00 2.430495e+00 1.846990e+00 3.256720e+00 2.295670e+00 2.674623e+00 1.468816e+00 2.246101e+00
<GCONST> 9.454218e+01
~s "ST_aath_4_1"
<MEAN> 25
 1.338455e+01 -1.087218e+01 3.979918e+00 -1.156971e+01 -3.835099e+00 -4.567589e+00 2.351504e+00 1.128734e+00 3.845180e+00 2.533276e+00 -5.432771e+00 6.041495e+00 5.997320e-01 -8.649752e-04 -6.242505e-02 8.194287e-02 3.311675e-01 4.187689e-02 -3.136855e-01 -4.197433e-01 -2.964431e-01 1.035238e-01 2.973265e-01 1.858803e-01 -1.630090e-01
<VARIANCE> 25
 7.291634e+01 5.921931e+01 4.245997e+01 6.027259e+01 1.413889e+02 9.606524e+01 6.936829e+01 8.558189e+01 1.049260e+02 1.010375e+02 1.028116e+02 5.913204e+01 3.928356e+00 3.589867e+00 3.129444e+00 6.216461e+00 9.810844e+00 9.258368e+00 5.090236e+00 8.117712e+00 7.278344e+00 6.716742e+00 7.155194e+00 5.953759e+00 2.228279e+00
<GCONST> 1.206392e+02
~s "ST_shunya_2_1"
<MEAN> 25
 -5.811160e+00 7.684525e+00 -5.928966e+00 1.076586e-01 -4.992189e+00 1.764652e+00 3.108191e+00 4.775671e-01 -9.577070e-01 8.544059e-01 -3.363257e-01 1.309331e+00 -2.843739e-03 -1.381548e-02 -2.747796e-02 6.068789e-03 3.238333e-03 -1.553287e-02 -2.446559e-02 -6.704729e-04 -1.883052e-03 -1.537266e-02 2.610989e-03 1.634704e-02 4.347924e-02
<VARIANCE> 25
 1.773463e+00 8.299035e+00 4.694952e+00 7.201957e+00 1.052657e+01 9.820558e+00 1.299372e+01 1.110451e+01 8.504134e+00 8.708549e+00 6.261736e+00 7.090968e+00 1.148781e-01 4.364840e-01 3.624806e-01 4.819899e-01 5.531166e-01 6.315116e-01 8.957741e-01 7.194385e-01 7.063342e-01 7.727259e-01 5.721247e-01 6.374240e-01 1.706331e-01
<GCONST> 6.025404e+01
~s "ST_shunya_3_1"
<MEAN> 25
 -5.009267e+00 4.389909e+00 -4.240618e+00 1.094656e+00 -2.368734e+00 2.152261e+00 -1.136330e-01 6.952669e-01 3.750865e-01 -8.101488e-01 1.689689e-01 1.874325e+00 8.084793e-01 -2.134250e+00 1.479369e+00 2.290035e-01 1.016228e+00 3.097905e-01 -3.820765e-01 -7.760140e-02 1.536123e-01 -7.021087e-01 3.427378e-01 -4.883205e-01 7.939544e-01
<VARIANCE> 25
 8.335832e+00 2.661475e+01 1.300648e+01 1.929785e+01 2.786422e+01 1.468696e+01 1.901220e+01 1.334674e+01 1.470486e+01 1.774136e+01 2.006840e+01 7.902146e+00 2.433618e+00 1.147733e+01 4.785812e+00 6.766553e+00 3.295828e+00 2.731459e+00 5.134083e+00 3.271452e+00 3.562724e+00 2.218553e+00 2.781561e+00 1.822068e+00 6.696312e-01
<GCONST> 9.417078e+01
~s "ST_shunya_4_1"
<MEAN> 25
 8.769906e+00 -1.290083e+01 8.546413e+00 1.494918e+00 6.245699e+00 -9.673719e-01 -5.169085e+00 5.559453e-01 1.322782e+00 -1.252442e+00 -7.545529e-01 -2.031807e+00 3.347568e-01 4.956986e-03 6.298628e-02 9.430256e-03 5.593799e-02 -1.121324e-01 -1.027068e-01 -3.835937e-02 -4.587575e-02 1.242673e-01 -5.832006e-02 -8.186550e-02 1.372040e-01
<VARIANCE> 25
 3.134774e+02 3.968403e+01 4.019938e+01 7.811916e+01 9.848260e+01 1.126233e+02 6.957013e+01 4.873286e+01 6.937151e+01 4.071978e+01 5.571857e+01 3.425235e+01 6.386425e+00 3.873965e+00 4.158607e+00 5.929456e+00 6.284828e+00 7.283780e+00 3.678624e+00 4.025779e+00 5.763993e+00 3.816814e+00 4.349673e+00 2.472003e+00 2.370979e+00
<GCONST> 1.156326e+02
~s "ST_don_2_1"
<MEAN> 25
 -7.002799e+00 3.291872e+00 -6.028168e+00 8.723599e-01 -8.549918e-01 -5.104815e-01 3.963442e+00 -1.240217e+00 3.450350e-01 2.338498e+00 -1.021823e-01 1.016819e+00 -1.381803e-02 -7.568685e-02 -1.603887e-02 -9.561980e-03 2.877475e-03 -2.846300e-02 -2.282710e-02 -1.808607e-02 2.087346e-02 2.318922e-02 5.013024e-02 1.586642e-02 3.271750e-02
<VARIANCE> 25
 2.216802e+00 7.042083e+00 5.016814e+00 3.033666e+00 9.103548e+00 6.230604e+00 6.960260e+00 8.380322e+00 9.426989e+00 1.012568e+01 7.691345e+00 7.506902e+00 7.336808e-02 2.381644e-01 2.861492e-01 3.623698e-01 5.092391e-01 4.512095e-01 6.961884e-01 7.252337e-01 9.228016e-01 1.010934e+00 7.053270e-01 6.897845e-01 6.080326e-02
<GCONST> 5.607877e+01
~s "ST_don_3_1"
<MEAN> 25
 -4.925651e+00 -6.262655e+00 -6.342033e+00 1.253621e-02 2.191771e+00 -2.994210e+00 4.675333e+00 -4.700086e+00 1.395040e+00 -1.127207e+00 2.960326e+00 3.598277e+00 2.643156e-01 -6.939056e-02 -2.149048e-02 8.175959e-02 -2.840840e-02 1.948897e-01 -5.439818e-02 -6.241696e-02 1.045596e-01 -3.734213e-02 -2.762257e-01 3.237082e-02 5.596745e-02
<VARIANCE> 25
 6.455341e+00 4.060710e+01 4.481869e+01 2.079543e+01 1.571160e+01 6.730970e+01 2.020230e+01 1.625019e+01 2.554545e+01 1.794292e+01 1.165210e+01 1.822015e+01 1.429575e+00 3.578883e+00 2.560653e+00 1.712400e+00 2.268815e+00 4.023463e+00 1.187678e+00 1.928909e+00 2.328493e+00 1.559625e+00 2.004825e+00 1.837573e+00 1.617950e-01
<GCONST> 8.951957e+01
~s "ST_don_4_1"
<MEAN> 25
 1.146427e+01 -5.942986e+00 1.025211e+01 -2.237074e+00 -2.863534e-01 -1.683792e-01 -7.310208e+00 2.731254e+00 -3.206342e+00 -3.646953e+00 1.570270e+00 -3.251035e+00 3.144740e-01 -1.525435e-01 3.131384e-01 8.399251e-02 -1.430687e-01 3.455980e-02 -3.908667e-01 3.573531e-01 -1.630360e-01 -2.594091e-01 1.928324e-01 -2.381800e-01 1.600355e-01
<VARIANCE> 25
 8.472193e+01 7.115811e+01 6.481647e+01 1.292685e+02 5.546756e+01 7.468637e+01 8.138941e+01 8.109100e+01 9.236210e+01 4.853306e+01 4.646505e+01 3.557182e+01 5.846258e+00 4.054182e+00 3.508425e+00 6.563249e+00 4.906500e+00 5.977530e+00 6.224939e+00 4.300709e+00 7.181776e+00 6.452566e+00 5.758282e+00 4.051866e+00 2.085536e+00
<GCONST> 1.173158e+02
~s "ST_saha_2_1"
<MEAN> 25
 -2.242988e+00 4.672480e+00 -4.022035e+00 4.158596e+00 1.853802e+00 6.319779e-01 -1.572312e+00 5.607966e-01 -1.937098e+00 -9.389332e-01 6.936021e-01 -1.507669e+00 -9.332063e-03 -4.001505e-02 8.243606e-04 -1.678691e-02 -3.623741e-02 1.503635e-02 1.718085e-02 1.330362e-02 -9.494357e-03 5.369796e-05 2.684246e-02 1.823832e-02 4.041647e-02
<VARIANCE> 25
 1.560253e+00 4.556415e+00 5.069183e+00 5.535893e+00 6.777347e+00 1.001070e+01 1.392511e+01 1.184785e+01 7.624801e+00 7.354715e+00 8.263721e+00 6.928890e+00 8.136039e-02 2.925028e-01 4.364247e-01 4.203865e-01 4.706397e-01 6.697130e-01 7.832346e-01 7.318080e-01 8.028978e-01 7.570593e-01 7.384685e-01 6.645162e-01 8.042941e-02
<GCONST> 5.776506e+01
~s "ST_saha_3_1"
<MEAN> 25
 -1.190806e+01 -3.919026e+00 8.240384e+00 1.204123e+00 5.687499e-01 1.563913e+00 1.723692e+00 -7.575547e-01 -3.727672e-01 -1.363549e+00 3.838576e+00 -1.732217e+00 3.448093e-02 -3.676626e-01 5.292423e-01 -2.830648e-01 2.961579e-01 -2.824334e-01 2.270000e-01 -3.116370e-01 4.911761e-02 -2.059870e-01 1.178157e-01 -6.503247e-02 7.010298e-01
<VARIANCE> 25
 6.011329e+01 3.588792e+01 6.869746e+01 2.560328e+01 4.128224e+01 4.867290e+01 3.728160e+01 3.692543e+01 5.125103e+01 2.515758e+01 2.111408e+01 1.884190e+01 4.991016e+00 4.380563e+00 4.004259e+00 1.803586e+00 3.934238e+00 2.445717e+00 2.844293e+00 3.011841e+00 2.689833e+00 3.401104e+00 1.609876e+00 1.681992e+00 1.959040e+00
<GCONST> 1.024329e+02
~s "ST_saha_4_1"
<MEAN> 25
 1.347930e+01 -8.615581e+00 6.631389e+00 -1.197911e+01 2.147168e+00 -6.726058e+00 3.769240e+00 8.289173e-01 3.109284e-01 2.523479e+00 -5.552827e+00 6.501194e+00 3.615897e-01 8.244315e-02 -2.088816e-01 -2.194749e-01 -3.685057e-01 2.090414e-01 -5.496103e-02 1.656427e-01 1.877706e-01 1.297704e-01 -4.002122e-01 2.795714e-01 -2.697383e-01
<VARIANCE> 25
 2.287654e+01 2.893949e+01 3.152439e+01 6.428979e+01 6.511626e+01 4.099786e+01 1.033948e+02 9.669874e+01 5.937600e+01 6.029554e+01 4.869767e+01 3.730984e+01 3.843570e+00 2.986760e+00 2.117380e+00 4.304269e+00 3.448718e+00 3.753515e+00 5.370365e+00 5.221225e+00 4.199689e+00 6.280322e+00 4.630972e+00 4.323046e+00 5.736544e-01
<GCONST> 1.091024e+02
~s "ST_nau_2_1"
<MEAN> 25
 -6.915079e+00 3.147897e+00 -5.249848e+00 1.236130e+00 -2.343309e-01 1.218211e+00 1.964596e+00 -6.397986e-01 1.491180e+00 3.279760e-01 1.384418e+00 1.843922e-01 1.207948e-02 6.137919e-03 -2.642018e-02 3.877265e-03 2.419016e-02 -1.740163e-02 1.569230e-02 4.326918e-02 2.611626e-02 8.973378e-03 1.138796e-02 -2.059215e-03 -3.616067e-03
<VARIANCE> 25
 3.276581e+00 3.912723e+00 3.890933e+00 4.581474e+00 1.067961e+01 1.499518e+01 1.088043e+01 9.259761e+00 9.081961e+00 9.536040e+00 7.961648e+00 7.688012e+00 5.811911e-02 2.280477e-01 2.887327e-01 3.561204e-01 4.304082e-01 6.441382e-01 7.424731e-01 9.200443e-01 8.410531e-01 7.902919e-01 6.302909e-01 6.141822e-01 5.158101e-02
<GCONST> 5.705876e+01
~s "ST_nau_3_1"
<MEAN> 25
 -3.622698e+00 -1.294078e+00 -5.747230e+00 6.193245e+00 2.893905e+00 2.135363e+00 -1.101869e-01 2.969109e-01 2.207110e+00 -3.598867e+00 1.908747e-01 5.866155e-01 7.727701e-01 -1.073158e-01 5.346144e-01 1.084020e+00 4.576786e-01 4.615459e-01 -4.791406e-01 -5.283788e-01 9.989111e-02 -3.494194e-01 -4.016474e-01 -2.524459e-01 4.753668e-01
<VARIANCE> 25
 9.814197e+00 2.961796e+01 1.509295e+01 1.879063e+01 6.939914e+00 1.601055e+01 1.713659e+01 2.252763e+01 2.052896e+01 2.239278e+01 2.370700e+01 1.751080e+01 1.238189e+00 9.877075e-01 8.288521e-01 1.509570e+00 8.512163e-01 1.763575e+00 1.666319e+00 1.934451e+00 1.898674e+00 2.063594e+00 1.895505e+00 1.028276e+00 2.433325e-01
<GCONST> 8.271413e+01
~s "ST_nau_4_1"
<MEAN> 25
 1.678601e+01 -7.873612e+00 4.824692e+00 1.265250e+01 3.219008e+00 9.163872e+00 -9.562680e+00 -5.217756e+00 1.232744e+00 -1.124375e+00 -5.369079e+00 -4.289793e+00 7.617392e-01 -6.088614e-01 5.515425e-01 -7.420327e-01 1.301119e-01 -3.678369e-01 1.659601e-02 3.737848e-01 -6.175370e-01 -6.095161e-01 1.816796e-01 -2.351065e-02 6.792696e-01
<VARIANCE> 25
 6.639094e+01 5.958664e+01 3.488506e+01 8.223815e+01 5.960526e+01 8.023572e+01 1.034553e+02 9.091907e+01 8.619386e+01 7.873576e+01 6.665005e+01 3.904421e+01 8.626320e+00 4.590380e+00 3.008232e+00 7.616486e+00 6.015074e+00 9.492763e+00 1.218810e+01 4.981744e+00 5.199566e+00 7.131001e+00 5.813920e+00 3.646637e+00 2.516893e+00
<GCONST> 1.190519e+02
~s "ST_sil_2_1"
<MEAN> 25
 -1.248515e+00 1.846273e+00 -1.293992e+00 1.972911e+00 6.344667e-01 1.801172e+00 8.225141e-01 1.208307e+00 6.732811e-01 -5.516889e-02 1.968753e+00 7.257609e-01 -1.244430e+00 4.931278e-02 -5.429362e-01 -1.940445e-01 -8.569666e-01 -4.902287e-01 -2.116165e-02 -5.494807e-01 -3.602024e-01 -3.681873e-01 6.540156e-03 -3.785510e-01 4.480995e+00
<VARIANCE> 25
 7.416139e+01 3.792861e+01 3.223599e+01 3.447544e+01 5.789280e+01 3.273342e+01 2.713660e+01 3.467138e+01 2.637126e+01 2.376172e+01 1.704410e+01 1.957268e+01 1.111920e+01 5.776959e+00 5.218760e+00 4.553462e+00 5.863655e+00 5.247104e+00 4.009581e+00 4.053944e+00 3.666080e+00 2.911041e+00 3.037278e+00 2.267001e+00 3.019353e+01
<GCONST> 1.087965e+02
~s "silst"
<MEAN> 25
 -3.283922e+00 3.789239e+00 -3.834543e+00 2.473744e+00 -8.539188e-01 1.463701e+00 1.162203e-01 1.818492e-01 -7.923086e-01 1.836478e-01 6.718304e-01 -5.932999e-01 -1.078238e-01 4.281623e-02 9.369668e-03 4.724903e-02 2.741407e-02 2.206606e-02 8.088032e-03 8.550527e-03 -6.273656e-03 2.533329e-02 -1.405988e-02 -1.139955e-02 5.767079e-02
<VARIANCE> 25
 1.045724e+01 1.034229e+01 1.380582e+01 1.475225e+01 1.347660e+01 1.340247e+01 1.332035e+01 1.291266e+01 1.140785e+01 1.064788e+01 8.552506e+00 1.067830e+01 2.011160e-01 4.144561e-01 4.643574e-01 6.111225e-01 6.672896e-01 7.901509e-01 9.261132e-01 9.701387e-01 9.209940e-01 8.773344e-01 8.064207e-01 7.769216e-01 4.935908e-01
<GCONST> 6.972681e+01
~s "ST_sil_3_1"
<MEAN> 25
 -3.319150e+00 3.801479e+00 -3.893078e+00 2.526964e+00 -8.943932e-01 1.481388e+00 1.190426e-01 2.002107e-01 -8.057619e-01 1.954439e-01 6.687454e-01 -6.268896e-01 -1.031431e-01 4.067811e-02 1.229491e-02 4.345262e-02 3.330828e-02 1.797440e-02 1.861075e-02 1.154507e-02 -4.773233e-03 2.627362e-02 -9.739462e-03 -5.421677e-03 1.871878e-02
<VARIANCE> 25
 1.041379e+01 1.032812e+01 1.410934e+01 1.495288e+01 1.351924e+01 1.333156e+01 1.330581e+01 1.277861e+01 1.143363e+01 1.058492e+01 8.563522e+00 1.071841e+01 1.976723e-01 4.098347e-01 4.617130e-01 6.083627e-01 6.614411e-01 7.758218e-01 9.231896e-01 9.659498e-01 9.215947e-01 8.740646e-01 8.025517e-01 7.702881e-01 3.529876e-01
<GCONST> 6.931916e+01
~s "ST_sil_4_1"
<MEAN> 25
 1.089975e+01 -7.284853e+00 8.480645e+00 -7.169954e+00 -9.578094e-01 -4.329517e+00 -1.906107e+00 -7.695206e-01 1.184016e-01 -1.474111e+00 -6.425186e-01 9.316916e-01 2.382021e-01 4.357192e-02 -1.412801e-02 5.885975e-02 -1.874857e-01 2.587459e-01 1.842491e-02 9.622448e-02 -6.645338e-02 1.927565e-01 -1.693918e-01 1.167586e-01 -3.772989e-01
<VARIANCE> 25
 1.205606e+02 6.672924e+01 8.661200e+01 1.026603e+02 1.567937e+02 1.124648e+02 8.418656e+01 7.767799e+01 8.811952e+01 8.360765e+01 6.867162e+01 6.620380e+01 3.176944e+00 2.981275e+00 3.867239e+00 5.399922e+00 6.029907e+00 4.923376e+00 4.839629e+00 5.348399e+00 5.972628e+00 6.653114e+00 5.673236e+00 4.255408e+00 1.489488e+00
<GCONST> 1.191189e+02
~h "ek"
<BEGINHMM>
<NUMSTATES> 5
<STATE> 2
~s "ST_ek_2_1"
<STATE> 3
~s "ST_ek_3_1"
<STATE> 4
~s "ST_ek_4_1"
<TRANSP> 5
 0.000000e+00 1.000000e+00 0.000000e+00 0.000000e+00 0.000000e+00
 0.000000e+00 9.830908e-01 1.690917e-02 0.000000e+00 0.000000e+00
 0.000000e+00 0.000000e+00 6.973749e-01 3.026251e-01 0.000000e+00
 0.000000e+00 0.000000e+00 0.000000e+00 9.655050e-01 3.449503e-02
 0.000000e+00 0.000000e+00 0.000000e+00 0.000000e+00 0.000000e+00
<ENDHMM>
~h "sp"
<BEGINHMM>
<NUMSTATES> 3
<STATE> 2
~s "ST_sil_3_1"
<TRANSP> 3
 0.000000e+00 6.841705e-02 9.315830e-01
 0.000000e+00 9.385430e-01 6.145694e-02
 0.000000e+00 0.000000e+00 0.000000e+00
<ENDHMM>
~h "saat"
<BEGINHMM>
<NUMSTATES> 5
<STATE> 2
~s "ST_saat_2_1"
<STATE> 3
~s "ST_saat_3_1"
<STATE> 4
~s "ST_saat_4_1"
<TRANSP> 5
 0.000000e+00 1.000000e+00 0.000000e+00 0.000000e+00 0.000000e+00
 0.000000e+00 9.811495e-01 1.885054e-02 0.000000e+00 0.000000e+00
 0.000000e+00 0.000000e+00 8.811779e-01 1.188221e-01 0.000000e+00
 0.000000e+00 0.000000e+00 0.000000e+00 9.607383e-01 3.926163e-02
 0.000000e+00 0.000000e+00 0.000000e+00 0.000000e+00 0.000000e+00
<ENDHMM>
~h "saha"
<BEGINHMM>
<NUMSTATES> 5
<STATE> 2
~s "ST_saha_2_1"
<STATE> 3
~s "ST_saha_3_1"
<STATE> 4
~s "ST_saha_4_1"
<TRANSP> 5
 0.000000e+00 1.000000e+00 0.000000e+00 0.000000e+00 0.000000e+00
 0.000000e+00 9.834635e-01 1.653652e-02 0.000000e+00 0.000000e+00
 0.000000e+00 0.000000e+00 9.623122e-01 3.768779e-02 0.000000e+00
 0.000000e+00 0.000000e+00 0.000000e+00 9.646690e-01 3.533095e-02
 0.000000e+00 0.000000e+00 0.000000e+00 0.000000e+00 0.000000e+00
<ENDHMM>
~h "char"
<BEGINHMM>
<NUMSTATES> 5
<STATE> 2
~s "ST_char_2_1"
<STATE> 3
~s "ST_char_3_1"
<STATE> 4
~s "ST_char_4_1"
<TRANSP> 5
 0.000000e+00 1.000000e+00 0.000000e+00 0.000000e+00 0.000000e+00
 0.000000e+00 9.822763e-01 1.772366e-02 0.000000e+00 0.000000e+00
 0.000000e+00 0.000000e+00 7.826238e-01 2.173762e-01 0.000000e+00
 0.000000e+00 0.000000e+00 0.000000e+00 9.686882e-01 3.131177e-02
 0.000000e+00 0.000000e+00 0.000000e+00 0.000000e+00 0.000000e+00
<ENDHMM>
~h "teen"
<BEGINHMM>
<NUMSTATES> 5
<STATE> 2
~s "ST_teen_2_1"
<STATE> 3
~s "ST_teen_3_1"
<STATE> 4
~s "ST_teen_4_1"
<TRANSP> 5
 0.000000e+00 1.000000e+00 0.000000e+00 0.000000e+00 0.000000e+00
 0.000000e+00 9.880964e-01 1.190361e-02 0.000000e+00 0.000000e+00
 0.000000e+00 0.000000e+00 9.540080e-01 4.599200e-02 0.000000e+00
 0.000000e+00 0.000000e+00 0.000000e+00 9.536239e-01 4.637609e-02
 0.000000e+00 0.000000e+00 0.000000e+00 0.000000e+00 0.000000e+00
<ENDHMM>
~h "don"
<BEGINHMM>
<NUMSTATES> 5
<STATE> 2
~s "ST_don_2_1"
<STATE> 3
~s "ST_don_3_1"
<STATE> 4
~s "ST_don_4_1"
<TRANSP> 5
 0.000000e+00 1.000000e+00 0.000000e+00 0.000000e+00 0.000000e+00
 0.000000e+00 9.843774e-01 1.562264e-02 0.000000e+00 0.000000e+00
 0.000000e+00 0.000000e+00 9.111328e-01 8.886722e-02 0.000000e+00
 0.000000e+00 0.000000e+00 0.000000e+00 9.546999e-01 4.530007e-02
 0.000000e+00 0.000000e+00 0.000000e+00 0.000000e+00 0.000000e+00
<ENDHMM>
~h "nau"
<BEGINHMM>
<NUMSTATES> 5
<STATE> 2
~s "ST_nau_2_1"
<STATE> 3
~s "ST_nau_3_1"
<STATE> 4
~s "ST_nau_4_1"
<TRANSP> 5
 0.000000e+00 1.000000e+00 0.000000e+00 0.000000e+00 0.000000e+00
 0.000000e+00 9.860297e-01 1.397034e-02 0.000000e+00 0.000000e+00
 0.000000e+00 0.000000e+00 8.931346e-01 1.068654e-01 0.000000e+00
 0.000000e+00 0.000000e+00 0.000000e+00 9.186978e-01 8.130223e-02
 0.000000e+00 0.000000e+00 0.000000e+00 0.000000e+00 0.000000e+00
<ENDHMM>
~h "sil"
<BEGINHMM>
<NUMSTATES> 5
<STATE> 2
~s "ST_sil_2_1"
<STATE> 3
~s "ST_sil_3_1"
<STATE> 4
~s "ST_sil_4_1"
<TRANSP> 5
 0.000000e+00 1.000000e+00 0.000000e+00 0.000000e+00 0.000000e+00
 0.000000e+00 7.479086e-01 1.291696e-01 1.229218e-01 0.000000e+00
 0.000000e+00 0.000000e+00 9.335989e-01 6.640108e-02 0.000000e+00
 0.000000e+00 8.817507e-02 0.000000e+00 8.115368e-01 1.002881e-01
 0.000000e+00 0.000000e+00 0.000000e+00 0.000000e+00 0.000000e+00
<ENDHMM>
~h "shunya"
<BEGINHMM>
<NUMSTATES> 5
<STATE> 2
~s "ST_shunya_2_1"
<STATE> 3
~s "ST_shunya_3_1"
<STATE> 4
~s "ST_shunya_4_1"
<TRANSP> 5
 0.000000e+00 1.000000e+00 0.000000e+00 0.000000e+00 0.000000e+00
 0.000000e+00 9.856263e-01 1.437374e-02 0.000000e+00 0.000000e+00
 0.000000e+00 0.000000e+00 8.329293e-01 1.670707e-01 0.000000e+00
 0.000000e+00 0.000000e+00 0.000000e+00 9.802523e-01 1.974773e-02
 0.000000e+00 0.000000e+00 0.000000e+00 0.000000e+00 0.000000e+00
<ENDHMM>
~h "pach"
<BEGINHMM>
<NUMSTATES> 5
<STATE> 2
~s "ST_pach_2_1"
<STATE> 3
~s "ST_pach_3_1"
<STATE> 4
~s "ST_pach_4_1"
<TRANSP> 5
 0.000000e+00 1.000000e+00 0.000000e+00 0.000000e+00 0.000000e+00
 0.000000e+00 9.854771e-01 1.452284e-02 0.000000e+00 0.000000e+00
 0.000000e+00 0.000000e+00 8.390849e-01 1.609151e-01 0.000000e+00
 0.000000e+00 0.000000e+00 0.000000e+00 9.582441e-01 4.175589e-02
 0.000000e+00 0.000000e+00 0.000000e+00 0.000000e+00 0.000000e+00
<ENDHMM>
~h "aath"
<BEGINHMM>
<NUMSTATES> 5
<STATE> 2
~s "ST_aath_2_1"
<STATE> 3
~s "ST_aath_3_1"
<STATE> 4
~s "ST_aath_4_1"
<TRANSP> 5
 0.000000e+00 1.000000e+00 0.000000e+00 0.000000e+00 0.000000e+00
 0.000000e+00 9.802449e-01 1.975507e-02 0.000000e+00 0.000000e+00
 0.000000e+00 0.000000e+00 9.371169e-01 6.288314e-02 0.000000e+00
 0.000000e+00 0.000000e+00 0.000000e+00 9.625618e-01 3.743817e-02
 0.000000e+00 0.000000e+00 0.000000e+00 0.000000e+00 0.000000e+00
<ENDHMM>
