~o
<STREAMINFO> 1 25
<VECSIZE> 25<NULLD><MFCC_D_N_Z_0><DIAGC>
~s "silst"
<MEAN> 25
 -3.175342e+00 3.774861e+00 -3.655480e+00 2.268409e+00 -7.893579e-01 1.386864e+00 1.740596e-01 1.327887e-01 -6.940023e-01 2.133075e-01 6.905364e-01 -5.378856e-01 -1.159628e-01 4.757987e-02 6.565117e-03 4.825498e-02 2.286947e-02 3.312016e-02 -8.673882e-04 3.701927e-03 -9.758208e-03 2.464041e-02 -1.166251e-02 -1.701235e-02 8.607795e-02
<VARIANCE> 25
 1.063622e+01 1.051958e+01 1.302451e+01 1.364637e+01 1.368049e+01 1.360799e+01 1.341299e+01 1.317936e+01 1.128647e+01 1.079468e+01 8.679851e+00 1.075943e+01 2.201038e-01 4.382291e-01 4.795571e-01 6.241515e-01 6.910096e-01 8.422464e-01 9.523829e-01 9.948983e-01 9.326988e-01 8.923442e-01 8.212489e-01 7.960361e-01 6.072091e-01
<GCONST> 7.033808e+01
~h "ek"
<BEGINHMM>
<NUMSTATES> 5
<STATE> 2
<MEAN> 25
 -1.609233e+00 2.626966e+00 -4.419870e+00 -4.352549e-01 -3.993362e+00 4.370893e+00 3.706512e+00 2.037256e+00 -1.682732e-01 1.317780e+00 1.432611e+00 2.235843e+00 -7.404693e-03 6.530035e-02 2.805547e-04 -2.202261e-02 -2.200317e-02 -2.589548e-02 -5.250887e-02 9.658050e-03 -1.110735e-03 -8.999983e-03 -1.457573e-02 -2.394812e-02 5.613849e-03
<VARIANCE> 25
 2.980719e+00 7.601128e+00 6.680008e+00 5.498215e+00 7.929153e+00 1.044490e+01 7.228850e+00 8.682314e+00 7.701973e+00 9.072854e+00 6.521708e+00 7.509674e+00 1.440126e-01 3.399601e-01 4.129240e-01 5.356733e-01 6.994578e-01 7.496081e-01 6.911677e-01 9.406450e-01 8.306470e-01 1.037964e+00 7.465253e-01 7.811062e-01 1.278525e-01
<GCONST> 6.101880e+01
<STATE> 3
<MEAN> 25
 -3.825485e+00 1.617665e+00 -1.864593e+00 -2.174562e+00 -6.222671e-02 1.794190e+00 -5.572255e-01 4.125011e+00 1.032665e+00 2.056303e-01 -5.804968e-01 2.484242e+00 -9.006213e-02 -1.029462e+00 1.419184e+00 5.864516e-01 1.893230e+00 -1.712943e+00 -1.928140e+00 -9.176081e-01 3.033169e-01 1.062570e-01 -8.993676e-01 -7.133110e-01 1.655002e+00
<VARIANCE> 25
 6.486611e+00 1.416833e+01 7.179549e+00 7.476333e+00 1.634719e+01 1.642830e+01 9.116941e+00 5.158031e+00 8.121049e+00 3.508904e+00 7.590799e+00 8.497115e+00 1.307611e+00 2.166226e+00 6.203184e-01 2.282007e+00 2.100464e+00 1.793274e+00 1.064468e+00 3.212330e+00 8.282879e-01 1.592065e+00 4.419053e-01 8.429911e-01 1.114393e+00
<GCONST> 7.475272e+01
<STATE> 4
<MEAN> 25
 5.516844e+00 -7.532385e+00 1.406707e+01 1.199274e+00 1.393064e+01 -1.332877e+01 -1.080324e+01 -7.471567e+00 3.482438e-01 -1.538858e-01 -3.547503e+00 -6.992668e+00 4.692244e-01 -4.068745e-01 5.530437e-01 -3.161775e-02 5.943837e-01 -3.209316e-01 -1.146176e-01 -2.634090e-01 -2.146194e-01 2.348959e-01 -2.018697e-02 -3.247163e-01 1.906909e-01
<VARIANCE> 25
 6.600439e+01 5.927426e+01 3.945662e+01 4.478418e+01 4.888804e+01 4.507097e+01 4.277144e+01 6.933287e+01 4.250713e+01 5.302308e+01 3.376013e+01 3.821545e+01 1.480418e+00 1.889006e+00 2.030600e+00 1.739847e+00 2.521232e+00 3.759527e+00 2.669709e+00 3.992561e+00 3.386895e+00 3.172348e+00 2.020550e+00 2.146610e+00 2.974535e+00
<GCONST> 1.041090e+02
<TRANSP> 5
 0.000000e+00 1.000000e+00 0.000000e+00 0.000000e+00 0.000000e+00
 0.000000e+00 9.833843e-01 1.661568e-02 0.000000e+00 0.000000e+00
 0.000000e+00 0.000000e+00 7.158135e-01 2.841866e-01 0.000000e+00
 0.000000e+00 0.000000e+00 0.000000e+00 9.655173e-01 3.448272e-02
 0.000000e+00 0.000000e+00 0.000000e+00 0.000000e+00 0.000000e+00
<ENDHMM>
~h "sp"
<BEGINHMM>
<NUMSTATES> 3
<STATE> 2
~s "silst"
<TRANSP> 3
 0.000000e+00 5.607566e-02 9.439244e-01
 0.000000e+00 9.466795e-01 5.332048e-02
 0.000000e+00 0.000000e+00 0.000000e+00
<ENDHMM>
~h "saat"
<BEGINHMM>
<NUMSTATES> 5
<STATE> 2
<MEAN> 25
 -1.594862e+00 4.403584e+00 -4.496279e+00 3.547557e+00 8.035053e-01 5.064340e-01 -7.108341e-01 6.753454e-01 -1.566258e+00 1.026366e-01 -6.962847e-01 -1.762334e+00 -7.149668e-03 -1.845065e-02 -7.625905e-03 6.303995e-03 9.023524e-03 1.648977e-02 6.689902e-03 -5.459536e-03 1.093790e-02 8.159886e-03 7.555166e-03 2.194969e-02 1.684450e-02
<VARIANCE> 25
 2.111250e+00 2.989609e+00 4.917747e+00 6.484560e+00 6.726061e+00 8.799907e+00 7.811422e+00 8.239004e+00 1.058900e+01 7.683445e+00 5.874351e+00 6.728723e+00 6.623702e-02 1.847741e-01 2.860200e-01 3.547145e-01 4.976790e-01 6.326500e-01 7.036788e-01 7.435619e-01 8.818626e-01 8.763630e-01 6.790607e-01 6.118170e-01 5.158101e-02
<GCONST> 5.497738e+01
<STATE> 3
<MEAN> 25
 -2.494734e+00 3.072566e+00 -3.115669e+00 4.149307e+00 -1.042424e+00 2.353983e+00 -6.306984e-01 1.096505e-02 -1.390708e+00 4.586389e-01 -8.962328e-01 -1.738916e+00 2.389629e-01 -2.146924e-01 5.091710e-01 1.363692e-01 -4.967192e-02 1.784237e-01 -4.425543e-02 -5.707902e-02 1.391796e-01 -3.904995e-02 -1.521503e-01 4.947923e-03 3.501582e-01
<VARIANCE> 25
 7.964226e+00 5.789766e+00 9.932132e+00 1.180160e+01 9.034519e+00 1.332315e+01 1.118441e+01 8.788664e+00 1.184454e+01 1.150445e+01 1.316336e+01 6.878340e+00 1.668785e+00 2.063131e+00 1.662996e+00 1.355735e+00 1.474730e+00 1.808778e+00 1.276263e+00 1.223301e+00 1.531159e+00 1.465146e+00 1.903141e+00 8.699220e-01 9.802351e-01
<GCONST> 7.810902e+01
<STATE> 4
<MEAN> 25
 -9.931284e+00 -4.090583e+00 1.053929e+01 -2.642520e-01 1.035810e+00 4.496294e+00 1.753883e+00 -3.144482e+00 2.404243e+00 -9.214463e-02 4.132623e-01 -4.823366e-02 -2.020670e-01 -3.772811e-01 4.380988e-01 -3.844732e-01 1.958684e-01 -1.354288e-01 2.568603e-01 -2.847113e-01 1.843307e-01 -1.198105e-01 1.448502e-01 -6.067521e-03 6.649231e-01
<VARIANCE> 25
 7.517196e+01 4.280048e+01 3.957901e+01 3.209195e+01 3.051216e+01 6.395644e+01 4.729288e+01 3.728229e+01 3.887210e+01 1.766982e+01 2.614681e+01 1.801381e+01 5.517093e+00 4.084541e+00 3.280220e+00 2.514165e+00 2.105718e+00 3.058231e+00 2.494758e+00 2.904666e+00 2.520701e+00 1.467448e+00 2.030390e+00 1.470479e+00 2.063576e+00
<GCONST> 1.011026e+02
<TRANSP> 5
 0.000000e+00 1.000000e+00 0.000000e+00 0.000000e+00 0.000000e+00
 0.000000e+00 9.826575e-01 1.734254e-02 0.000000e+00 0.000000e+00
 0.000000e+00 0.000000e+00 8.812944e-01 1.187057e-01 0.000000e+00
 0.000000e+00 0.000000e+00 0.000000e+00 9.608062e-01 3.919383e-02
 0.000000e+00 0.000000e+00 0.000000e+00 0.000000e+00 0.000000e+00
<ENDHMM>
~h "saha"
<BEGINHMM>
<NUMSTATES> 5
<STATE> 2
<MEAN> 25
 -2.391106e+00 4.758013e+00 -4.352981e+00 4.307708e+00 1.608969e+00 7.520118e-01 -1.649498e+00 6.140316e-01 -1.942436e+00 -8.401681e-01 6.909077e-01 -1.625066e+00 -7.694220e-03 -3.875202e-02 4.627340e-03 -2.461157e-02 -4.450448e-02 1.738709e-02 1.091231e-02 1.920637e-03 -1.604357e-02 -1.326118e-03 2.531931e-02 2.006303e-02 3.308799e-02
<VARIANCE> 25
 2.231105e+00 4.757727e+00 8.198082e+00 6.156610e+00 8.034442e+00 1.006549e+01 1.400389e+01 1.215774e+01 7.498585e+00 7.565686e+00 8.691098e+00 7.050171e+00 8.045585e-02 2.871110e-01 4.565645e-01 4.111628e-01 4.760084e-01 6.636047e-01 7.808205e-01 7.419623e-01 7.851042e-01 7.495724e-01 7.455301e-01 6.593706e-01 7.331549e-02
<GCONST> 5.892217e+01
<STATE> 3
<MEAN> 25
 -1.191387e+01 -3.091323e+00 6.304250e+00 2.235598e+00 -2.413468e-01 2.358853e+00 1.292801e+00 1.169691e-01 -7.302134e-01 -6.312315e-01 3.367057e+00 -1.614563e+00 -3.826463e-01 -3.819462e-01 5.803315e-01 -2.164740e-01 8.413863e-02 -7.343978e-02 2.525626e-01 -1.845986e-01 8.260109e-02 4.488686e-02 1.219156e-01 -1.165146e-02 7.929931e-01
<VARIANCE> 25
 5.566052e+01 4.065869e+01 9.984675e+01 3.072786e+01 4.388983e+01 4.437729e+01 3.609313e+01 3.086485e+01 4.878533e+01 2.428894e+01 1.905472e+01 1.742337e+01 2.545946e+00 4.526270e+00 3.584594e+00 1.685439e+00 3.380911e+00 1.873572e+00 2.722825e+00 2.835289e+00 2.666414e+00 2.691501e+00 1.625425e+00 1.655325e+00 1.775632e+00
<GCONST> 1.008406e+02
<STATE> 4
<MEAN> 25
 1.221052e+01 -8.378939e+00 6.957553e+00 -1.131893e+01 2.128139e+00 -6.654058e+00 3.829891e+00 1.824344e-01 3.166482e-01 2.015839e+00 -4.672521e+00 5.750276e+00 6.587155e-01 7.213296e-02 -2.271544e-01 -2.259594e-01 -1.186994e-01 3.145900e-02 -1.164395e-02 8.092007e-02 1.556867e-01 -5.037510e-02 -3.551542e-01 2.500648e-01 -3.221745e-01
<VARIANCE> 25
 4.863032e+01 2.989698e+01 3.178259e+01 6.728349e+01 6.378239e+01 3.984655e+01 9.747515e+01 9.712171e+01 5.899378e+01 6.179430e+01 5.675615e+01 4.418309e+01 4.744404e+00 2.825429e+00 2.321082e+00 4.022038e+00 4.091394e+00 4.159745e+00 4.993608e+00 5.126866e+00 3.995770e+00 6.594151e+00 4.392632e+00 4.122917e+00 6.100593e-01
<GCONST> 1.105013e+02
<TRANSP> 5
 0.000000e+00 1.000000e+00 0.000000e+00 0.000000e+00 0.000000e+00
 0.000000e+00 9.839709e-01 1.602909e-02 0.000000e+00 0.000000e+00
 0.000000e+00 0.000000e+00 9.622251e-01 3.777491e-02 0.000000e+00
 0.000000e+00 0.000000e+00 0.000000e+00 9.669045e-01 3.309555e-02
 0.000000e+00 0.000000e+00 0.000000e+00 0.000000e+00 0.000000e+00
<ENDHMM>
~h "char"
<BEGINHMM>
<NUMSTATES> 5
<STATE> 2
<MEAN> 25
 -3.045199e+00 4.534335e+00 -2.375129e+00 1.724077e+00 3.441668e-02 2.053087e+00 4.005514e-01 2.454176e-01 -3.982892e-01 8.697417e-02 -5.920941e-02 -2.148954e+00 5.987285e-04 6.546519e-03 -3.406646e-03 -7.466026e-03 1.106854e-02 -2.671907e-03 -5.052734e-03 2.350967e-02 3.678289e-02 2.077365e-02 1.046828e-02 -3.326812e-03 3.875828e-03
<VARIANCE> 25
 1.537872e+00 2.723104e+00 3.615146e+00 4.277425e+00 5.011294e+00 6.188377e+00 5.084941e+00 8.954718e+00 9.135559e+00 9.724298e+00 6.705022e+00 6.354069e+00 6.952113e-02 2.324623e-01 2.976656e-01 3.860448e-01 4.819283e-01 5.677568e-01 5.069595e-01 7.969713e-01 9.890224e-01 9.806968e-01 8.594165e-01 8.347246e-01 5.158101e-02
<GCONST> 5.379086e+01
<STATE> 3
<MEAN> 25
 -3.985988e+00 2.431492e+00 -2.998330e+00 3.255459e+00 -1.274470e+00 5.004181e-01 -5.093995e-01 1.069956e+00 5.052188e-01 1.435400e+00 1.815472e+00 -3.138836e+00 -7.062048e-01 -1.504820e+00 1.445452e+00 -1.122588e-01 -5.574076e-01 6.141180e-01 -3.976598e-01 2.675366e-01 4.590448e-01 -9.039921e-01 3.224306e-01 -3.026491e-01 1.085775e+00
<VARIANCE> 25
 9.828259e+00 1.337552e+01 1.239859e+01 2.546070e+01 8.242994e+00 2.238964e+01 1.343167e+01 1.103245e+01 4.919290e+00 1.466650e+01 6.127320e+00 7.208812e+00 1.974057e+00 4.401618e+00 2.447959e+00 2.818564e+00 1.381849e+00 3.790203e+00 3.378865e+00 2.062187e+00 1.412259e+00 2.524999e+00 1.150355e+00 1.690593e+00 2.158696e+00
<GCONST> 8.526033e+01
<STATE> 4
<MEAN> 25
 4.049288e+00 -8.354665e+00 7.748452e+00 -7.050147e+00 2.122161e+00 -3.837616e+00 -1.231407e-01 7.418802e-01 1.357253e+00 2.073485e+00 -1.225358e+00 5.009393e+00 4.052976e-01 -9.006779e-02 5.350030e-02 -1.628085e-01 9.494242e-02 -1.861832e-01 -3.710420e-02 4.032644e-03 -6.124936e-02 8.273172e-02 -6.121994e-02 1.725053e-01 1.917335e-01
<VARIANCE> 25
 1.150383e+02 2.317635e+01 4.747743e+01 7.956404e+01 9.099820e+01 6.174313e+01 5.207267e+01 6.250848e+01 7.291684e+01 4.059378e+01 5.365493e+01 6.969731e+01 4.719762e+00 2.466216e+00 3.905016e+00 3.438589e+00 6.106325e+00 5.861707e+00 5.480006e+00 4.491498e+00 5.608604e+00 3.544185e+00 4.517808e+00 3.806887e+00 2.260051e+00
<GCONST> 1.134962e+02
<TRANSP> 5
 0.000000e+00 1.000000e+00 0.000000e+00 0.000000e+00 0.000000e+00
 0.000000e+00 9.822751e-01 1.772492e-02 0.000000e+00 0.000000e+00
 0.000000e+00 0.000000e+00 7.805768e-01 2.194232e-01 0.000000e+00
 0.000000e+00 0.000000e+00 0.000000e+00 9.697684e-01 3.023160e-02
 0.000000e+00 0.000000e+00 0.000000e+00 0.000000e+00 0.000000e+00
<ENDHMM>
~h "teen"
<BEGINHMM>
<NUMSTATES> 5
<STATE> 2
<MEAN> 25
 -2.301210e+00 3.443937e+00 -5.854579e+00 -1.719575e+00 -3.888032e+00 2.541043e+00 1.640059e+00 -3.917488e-01 -1.453618e+00 2.510262e+00 2.240824e-01 1.823197e+00 1.339589e-02 1.410717e-03 3.963220e-04 2.680393e-02 7.592379e-03 9.544032e-04 3.588315e-02 1.240888e-02 2.419721e-02 1.333413e-02 1.760594e-02 1.795624e-02 2.309234e-02
<VARIANCE> 25
 1.198641e+00 3.309269e+00 6.935886e+00 3.736178e+00 5.028512e+00 8.185533e+00 7.517730e+00 8.865839e+00 6.779426e+00 7.206355e+00 5.916484e+00 4.963469e+00 7.981209e-02 2.060568e-01 3.557220e-01 4.023570e-01 5.913336e-01 7.022753e-01 9.347122e-01 7.484719e-01 6.239561e-01 1.045881e+00 6.951496e-01 5.597840e-01 6.119734e-02
<GCONST> 5.431322e+01
<STATE> 3
<MEAN> 25
 -2.628306e+00 3.840215e-01 -5.280717e+00 -7.383860e-01 -4.001758e+00 5.966226e-01 2.776525e+00 2.461077e+00 -1.421385e+00 1.450241e+00 -6.026074e-01 1.981157e+00 -3.416654e-02 -3.005010e-01 3.521820e-02 5.679449e-02 -7.247705e-02 3.557658e-02 3.562382e-03 -2.014377e-01 8.857138e-02 -4.160164e-02 -2.179110e-02 -8.871137e-02 2.631567e-01
<VARIANCE> 25
 2.121256e+00 1.958372e+01 9.599799e+00 7.342625e+00 4.977526e+00 9.492887e+00 1.181389e+01 9.555179e+00 9.623219e+00 7.715225e+00 9.606586e+00 7.703419e+00 2.566406e-01 3.810285e+00 1.546366e+00 1.072344e+00 7.181181e-01 1.200724e+00 1.495887e+00 7.385007e-01 1.456696e+00 1.049309e+00 1.483974e+00 9.123421e-01 1.744466e+00
<GCONST> 7.284090e+01
<STATE> 4
<MEAN> 25
 4.980119e+00 -1.132166e+01 2.006799e+01 5.927394e+00 1.501023e+01 -1.470748e+01 -2.390267e+00 -4.591848e+00 5.417434e+00 -6.733594e+00 -1.802810e+00 -6.295419e+00 5.419120e-01 -1.186298e-01 6.833968e-01 1.098599e-01 3.574364e-01 -3.544917e-01 -3.096721e-01 2.326416e-02 6.135796e-02 -2.230484e-01 1.122345e-01 -3.706976e-01 1.806441e-02
<VARIANCE> 25
 2.936033e+01 2.785132e+01 9.521111e+01 2.242971e+01 1.016611e+02 7.425896e+01 2.746743e+01 1.100230e+02 7.015946e+01 5.929699e+01 3.187134e+01 2.718852e+01 1.645289e+00 2.402535e+00 5.006571e+00 2.627120e+00 5.560900e+00 6.755536e+00 3.682656e+00 4.323142e+00 3.896430e+00 7.402134e+00 4.641598e+00 3.487148e+00 2.389136e+00
<GCONST> 1.097224e+02
<TRANSP> 5
 0.000000e+00 1.000000e+00 0.000000e+00 0.000000e+00 0.000000e+00
 0.000000e+00 9.880768e-01 1.192320e-02 0.000000e+00 0.000000e+00
 0.000000e+00 0.000000e+00 9.526553e-01 4.734465e-02 0.000000e+00
 0.000000e+00 0.000000e+00 0.000000e+00 9.549692e-01 4.503075e-02
 0.000000e+00 0.000000e+00 0.000000e+00 0.000000e+00 0.000000e+00
<ENDHMM>
~h "don"
<BEGINHMM>
<NUMSTATES> 5
<STATE> 2
<MEAN> 25
 -7.004076e+00 3.298118e+00 -6.024937e+00 8.723450e-01 -8.571986e-01 -5.094314e-01 3.966394e+00 -1.239897e+00 3.471831e-01 2.351823e+00 -1.044321e-01 1.010901e+00 -1.319577e-02 -7.409035e-02 -1.607303e-02 -1.224045e-02 2.087692e-03 -2.709608e-02 -2.252969e-02 -1.963373e-02 1.807831e-02 2.254814e-02 4.885858e-02 1.462947e-02 3.217051e-02
<VARIANCE> 25
 2.218568e+00 7.045506e+00 5.004483e+00 3.039721e+00 9.099376e+00 6.239271e+00 6.967107e+00 8.395393e+00 9.422733e+00 1.000572e+01 7.697556e+00 7.496887e+00 7.322194e-02 2.365785e-01 2.863296e-01 3.587002e-01 5.094945e-01 4.498611e-01 6.953570e-01 7.249705e-01 9.209005e-01 1.011092e+00 7.058936e-01 6.894116e-01 6.058822e-02
<GCONST> 5.604295e+01
<STATE> 3
<MEAN> 25
 -4.948643e+00 -6.094430e+00 -6.370907e+00 -2.721332e-01 2.219240e+00 -2.904098e+00 4.514915e+00 -4.644026e+00 1.316926e+00 -1.256052e+00 3.010224e+00 3.591326e+00 1.737302e-01 -5.556630e-02 -1.038792e-01 8.970969e-02 -4.477182e-02 1.976345e-01 -5.193017e-02 -4.732135e-02 1.679681e-01 6.109426e-03 -1.729777e-01 4.648204e-02 4.251263e-02
<VARIANCE> 25
 6.380282e+00 4.122326e+01 4.414797e+01 1.913999e+01 1.556258e+01 6.703580e+01 2.014573e+01 1.623222e+01 2.522204e+01 1.778108e+01 1.113926e+01 1.804426e+01 1.139036e+00 3.574749e+00 2.306600e+00 1.691798e+00 2.261758e+00 3.945525e+00 1.152464e+00 1.900790e+00 2.065281e+00 1.583436e+00 1.505750e+00 1.798241e+00 1.683106e-01
<GCONST> 8.854527e+01
<STATE> 4
<MEAN> 25
 1.137849e+01 -5.960603e+00 1.007306e+01 -2.100058e+00 -4.988795e-01 -4.427639e-01 -7.156512e+00 2.905468e+00 -3.200098e+00 -3.732531e+00 1.505922e+00 -3.253812e+00 3.598117e-01 -1.763425e-01 3.042486e-01 1.088740e-01 -1.598654e-01 2.211819e-02 -3.200511e-01 2.821031e-01 -1.533431e-01 -2.962465e-01 8.526816e-02 -1.857138e-01 1.535138e-01
<VARIANCE> 25
 8.493507e+01 6.966603e+01 6.797685e+01 1.266058e+02 5.508757e+01 7.570225e+01 8.092302e+01 8.179079e+01 9.011316e+01 4.956705e+01 4.533697e+01 3.550543e+01 5.809200e+00 3.989533e+00 3.568712e+00 6.398211e+00 4.784518e+00 5.832032e+00 6.294069e+00 4.496662e+00 7.157073e+00 6.293668e+00 6.000508e+00 4.285006e+00 2.022444e+00
<GCONST> 1.173163e+02
<TRANSP> 5
 0.000000e+00 1.000000e+00 0.000000e+00 0.000000e+00 0.000000e+00
 0.000000e+00 9.843464e-01 1.565354e-02 0.000000e+00 0.000000e+00
 0.000000e+00 0.000000e+00 9.123594e-01 8.764055e-02 0.000000e+00
 0.000000e+00 0.000000e+00 0.000000e+00 9.561614e-01 4.383852e-02
 0.000000e+00 0.000000e+00 0.000000e+00 0.000000e+00 0.000000e+00
<ENDHMM>
~h "nau"
<BEGINHMM>
<NUMSTATES> 5
<STATE> 2
<MEAN> 25
 -6.915093e+00 3.149367e+00 -5.250817e+00 1.236194e+00 -2.336640e-01 1.216732e+00 1.964387e+00 -6.396204e-01 1.490139e+00 3.283079e-01 1.384665e+00 1.843176e-01 1.212557e-02 6.035916e-03 -2.650363e-02 3.503903e-03 2.418649e-02 -1.773076e-02 1.512975e-02 4.277653e-02 2.577389e-02 9.044639e-03 1.196290e-02 -1.960363e-03 -3.722957e-03
<VARIANCE> 25
 3.275609e+00 3.911544e+00 3.887309e+00 4.576816e+00 1.068071e+01 1.499429e+01 1.088227e+01 9.259642e+00 9.077468e+00 9.536072e+00 7.965206e+00 7.690654e+00 5.809901e-02 2.277106e-01 2.886626e-01 3.554884e-01 4.305603e-01 6.436442e-01 7.411065e-01 9.196599e-01 8.406962e-01 7.897034e-01 6.299383e-01 6.144052e-01 5.158101e-02
<GCONST> 5.704881e+01
<STATE> 3
<MEAN> 25
 -3.993009e+00 -1.788863e+00 -6.231370e+00 5.727819e+00 2.709780e+00 1.801926e+00 2.028226e-02 5.990121e-01 1.864529e+00 -3.553881e+00 1.322743e-01 6.964869e-01 6.132649e-01 -9.876453e-02 4.755211e-01 1.043068e+00 4.726162e-01 4.450237e-01 -3.718178e-01 -4.088998e-01 1.556683e-01 -3.221869e-01 -3.614242e-01 -2.553387e-01 4.634911e-01
<VARIANCE> 25
 7.976903e+00 2.651845e+01 1.216575e+01 1.726017e+01 6.638749e+00 1.436041e+01 1.614798e+01 2.143145e+01 1.884603e+01 2.265527e+01 2.461744e+01 1.822537e+01 9.268655e-01 9.703077e-01 8.138591e-01 1.463379e+00 7.666533e-01 1.660792e+00 1.487610e+00 1.832126e+00 1.860667e+00 2.068266e+00 1.977929e+00 9.983705e-01 2.046004e-01
<GCONST> 8.096962e+01
<STATE> 4
<MEAN> 25
 1.612890e+01 -7.271119e+00 4.580582e+00 1.289009e+01 3.062348e+00 9.250743e+00 -9.345662e+00 -5.196938e+00 1.561339e+00 -9.733127e-01 -5.175023e+00 -4.107247e+00 1.046827e+00 -6.959070e-01 6.303957e-01 -5.725265e-01 2.319221e-01 -2.484615e-01 -1.557252e-01 2.327151e-01 -6.273316e-01 -5.006033e-01 -3.579583e-02 -3.093524e-02 5.782136e-01
<VARIANCE> 25
 7.701884e+01 6.756979e+01 3.566644e+01 7.762703e+01 5.591479e+01 7.739066e+01 1.040977e+02 8.957571e+01 8.625269e+01 7.476743e+01 6.645477e+01 3.879546e+01 7.570961e+00 4.087998e+00 2.730775e+00 7.315549e+00 5.609558e+00 8.619558e+00 1.094200e+01 5.106401e+00 4.591270e+00 6.442818e+00 4.584313e+00 3.124781e+00 2.172323e+00
<GCONST> 1.177234e+02
<TRANSP> 5
 0.000000e+00 1.000000e+00 0.000000e+00 0.000000e+00 0.000000e+00
 0.000000e+00 9.860227e-01 1.397728e-02 0.000000e+00 0.000000e+00
 0.000000e+00 0.000000e+00 8.846630e-01 1.153371e-01 0.000000e+00
 0.000000e+00 0.000000e+00 0.000000e+00 9.206576e-01 7.934244e-02
 0.000000e+00 0.000000e+00 0.000000e+00 0.000000e+00 0.000000e+00
<ENDHMM>
~h "sil"
<BEGINHMM>
<NUMSTATES> 5
<STATE> 2
<MEAN> 25
 -4.917687e-01 1.518777e+00 -9.852360e-01 1.844481e+00 7.092699e-01 1.716375e+00 7.922550e-01 1.083304e+00 6.377483e-01 -2.118979e-01 1.811954e+00 9.050380e-01 -1.318075e+00 1.155399e-01 -6.266899e-01 -2.331883e-01 -9.682215e-01 -5.019068e-01 4.530640e-02 -5.548980e-01 -3.160190e-01 -4.123589e-01 5.102060e-02 -3.706324e-01 4.561220e+00
<VARIANCE> 25
 8.368710e+01 4.001556e+01 3.443272e+01 3.662394e+01 6.253793e+01 3.527118e+01 2.903583e+01 3.739520e+01 2.918897e+01 2.652135e+01 1.847565e+01 2.152254e+01 1.225963e+01 6.457898e+00 6.085695e+00 5.606090e+00 6.862422e+00 6.042240e+00 4.626391e+00 4.581883e+00 4.322352e+00 3.350064e+00 3.707481e+00 2.613476e+00 3.172675e+01
<GCONST> 1.116103e+02
<STATE> 3
~s "silst"
<STATE> 4
<MEAN> 25
 1.062650e+01 -7.336584e+00 8.504475e+00 -7.241146e+00 -9.544594e-01 -4.292309e+00 -1.877950e+00 -7.397678e-01 1.993411e-01 -1.407506e+00 -5.650405e-01 9.090521e-01 2.271493e-01 1.858263e-02 1.174876e-02 7.862541e-02 -1.613712e-01 2.439993e-01 -2.527544e-03 1.095424e-01 -9.048241e-02 1.932648e-01 -1.706928e-01 1.052123e-01 -3.623055e-01
<VARIANCE> 25
 1.267162e+02 6.672681e+01 8.693750e+01 1.024937e+02 1.556397e+02 1.126160e+02 8.479404e+01 7.790141e+01 8.818431e+01 8.325912e+01 6.960040e+01 6.619933e+01 2.882383e+00 2.784303e+00 3.451427e+00 5.024277e+00 5.547246e+00 4.690056e+00 4.669578e+00 5.200016e+00 5.745822e+00 6.612862e+00 5.486985e+00 4.147838e+00 1.357864e+00
<GCONST> 1.184410e+02
<TRANSP> 5
 0.000000e+00 1.000000e+00 0.000000e+00 0.000000e+00 0.000000e+00
 0.000000e+00 7.362629e-01 1.464737e-01 1.172634e-01 0.000000e+00
 0.000000e+00 0.000000e+00 9.280125e-01 7.198752e-02 0.000000e+00
 0.000000e+00 8.906177e-02 0.000000e+00 8.089942e-01 1.019440e-01
 0.000000e+00 0.000000e+00 0.000000e+00 0.000000e+00 0.000000e+00
<ENDHMM>
~h "shunya"
<BEGINHMM>
<NUMSTATES> 5
<STATE> 2
<MEAN> 25
 -5.815170e+00 7.693746e+00 -5.930546e+00 1.101526e-01 -4.998431e+00 1.746094e+00 3.108405e+00 4.630293e-01 -9.736860e-01 8.452260e-01 -3.455908e-01 1.307240e+00 -2.928941e-03 -1.539161e-02 -2.807993e-02 4.193468e-03 4.345908e-03 -1.887215e-02 -2.839260e-02 -8.106942e-03 -8.524265e-03 -1.673744e-02 1.054580e-03 1.707662e-02 2.981093e-02
<VARIANCE> 25
 1.778720e+00 8.313950e+00 4.715413e+00 7.214317e+00 1.056552e+01 9.823166e+00 1.301323e+01 1.113190e+01 8.513145e+00 8.744224e+00 6.272752e+00 7.072665e+00 1.154886e-01 4.379812e-01 3.632556e-01 4.829584e-01 5.536686e-01 6.300533e-01 8.985956e-01 7.166721e-01 7.044607e-01 7.771162e-01 5.755017e-01 6.397029e-01 1.452126e-01
<GCONST> 6.013909e+01
<STATE> 3
<MEAN> 25
 -5.009048e+00 4.392002e+00 -4.242961e+00 1.098581e+00 -2.370494e+00 2.152858e+00 -1.087692e-01 6.963487e-01 3.735284e-01 -8.094874e-01 1.684557e-01 1.878426e+00 8.081014e-01 -2.134465e+00 1.478578e+00 2.294371e-01 1.015997e+00 3.093643e-01 -3.830816e-01 -7.752679e-02 1.528502e-01 -7.029548e-01 3.429053e-01 -4.882832e-01 7.941531e-01
<VARIANCE> 25
 8.329865e+00 2.660658e+01 1.301003e+01 1.931215e+01 2.785198e+01 1.467316e+01 1.904281e+01 1.334169e+01 1.470241e+01 1.773309e+01 2.005261e+01 7.920395e+00 2.432618e+00 1.147106e+01 4.784441e+00 6.763340e+00 3.293546e+00 2.730239e+00 5.132553e+00 3.269628e+00 3.562020e+00 2.218652e+00 2.780132e+00 1.821560e+00 6.692779e-01
<GCONST> 9.416631e+01
<STATE> 4
<MEAN> 25
 8.762543e+00 -1.289967e+01 8.546150e+00 1.492516e+00 6.235490e+00 -9.645099e-01 -5.143747e+00 5.440785e-01 1.327085e+00 -1.267141e+00 -7.416498e-01 -2.037041e+00 3.430285e-01 -3.930746e-03 6.987160e-02 7.393209e-03 6.606593e-02 -1.159902e-01 -1.149020e-01 -3.106173e-02 -3.857085e-02 1.211615e-01 -6.597427e-02 -8.075149e-02 1.326256e-01
<VARIANCE> 25
 3.137599e+02 3.977216e+01 4.022106e+01 7.819753e+01 9.844740e+01 1.128077e+02 6.938791e+01 4.872901e+01 6.941873e+01 4.067734e+01 5.582166e+01 3.433213e+01 6.340685e+00 3.843943e+00 4.135300e+00 5.910979e+00 6.315334e+00 7.351961e+00 3.583748e+00 3.995582e+00 5.739257e+00 3.828410e+00 4.333931e+00 2.462436e+00 2.353476e+00
<GCONST> 1.155803e+02
<TRANSP> 5
 0.000000e+00 1.000000e+00 0.000000e+00 0.000000e+00 0.000000e+00
 0.000000e+00 9.855165e-01 1.448352e-02 0.000000e+00 0.000000e+00
 0.000000e+00 0.000000e+00 8.330197e-01 1.669804e-01 0.000000e+00
 0.000000e+00 0.000000e+00 0.000000e+00 9.802275e-01 1.977253e-02
 0.000000e+00 0.000000e+00 0.000000e+00 0.000000e+00 0.000000e+00
<ENDHMM>
~h "pach"
<BEGINHMM>
<NUMSTATES> 5
<STATE> 2
<MEAN> 25
 -3.419667e+00 4.883379e+00 -3.542018e+00 4.113415e+00 2.882156e-01 2.169779e+00 -2.526479e-01 -6.539553e-01 -7.798785e-01 -1.203196e-01 3.075084e-02 -2.334866e+00 -1.542087e-02 2.203485e-02 1.121413e-02 1.230251e-02 2.326281e-02 9.015584e-03 -8.610557e-04 1.400313e-02 2.358278e-02 -2.788785e-03 -2.750891e-02 -5.614810e-02 -5.302011e-03
<VARIANCE> 25
 2.214585e+00 2.527258e+00 6.820258e+00 5.763656e+00 6.133959e+00 6.858842e+00 5.450227e+00 7.126825e+00 8.409177e+00 6.157868e+00 8.833785e+00 7.295781e+00 7.843129e-02 1.912542e-01 2.635361e-01 3.998356e-01 4.697070e-01 5.871766e-01 5.882116e-01 7.296253e-01 6.962669e-01 6.163449e-01 6.467052e-01 7.971451e-01 5.158101e-02
<GCONST> 5.379535e+01
<STATE> 3
<MEAN> 25
 -3.280981e+00 2.600912e+00 -2.282467e+00 4.627907e+00 -3.386244e-02 7.553110e-01 1.640481e-01 6.033804e-01 6.709301e-01 -4.046072e-01 2.163076e-01 -4.332619e+00 1.170090e+00 -9.148291e-01 2.893465e-01 -1.182373e+00 -5.732059e-01 -7.065500e-01 -3.033016e-01 2.401563e-01 -2.014557e-02 -4.383313e-01 -3.148311e-01 3.544454e-01 2.833499e+00
<VARIANCE> 25
 1.040779e+01 1.617706e+01 1.212535e+01 7.586196e+00 5.296294e+00 4.972516e+00 1.347545e+01 7.417834e+00 1.272104e+01 1.178197e+01 1.141906e+01 5.018276e+00 1.922672e+00 2.494254e+00 2.341683e+00 2.085268e+00 1.782308e+00 1.296363e+00 1.725442e+00 1.007529e+00 1.208326e+00 1.429712e+00 8.256379e-01 1.112485e+00 8.074302e+00
<GCONST> 7.962290e+01
<STATE> 4
<MEAN> 25
 1.537554e+01 -1.504418e+01 9.631049e+00 -1.552104e+01 2.430504e+00 -1.008380e+01 2.299732e-02 3.537057e+00 3.211580e+00 2.308025e+00 -3.392177e+00 6.143846e+00 2.990625e-01 -3.415447e-01 5.283571e-01 -4.053932e-01 3.499732e-01 -2.308896e-01 8.318441e-02 -2.049485e-01 -1.368352e-01 -3.278818e-03 -1.962324e-02 4.314222e-01 -1.425268e-01
<VARIANCE> 25
 2.274001e+01 4.499434e+01 3.072482e+01 3.619091e+01 4.561815e+01 4.426448e+01 2.271395e+01 5.734225e+01 4.093826e+01 4.241829e+01 6.451495e+01 3.465946e+01 2.860047e+00 3.759009e+00 2.223235e+00 4.475093e+00 4.176999e+00 3.517436e+00 2.432188e+00 5.408331e+00 4.638471e+00 4.579931e+00 4.266014e+00 2.408171e+00 1.970277e+00
<GCONST> 1.058464e+02
<TRANSP> 5
 0.000000e+00 1.000000e+00 0.000000e+00 0.000000e+00 0.000000e+00
 0.000000e+00 9.854788e-01 1.452125e-02 0.000000e+00 0.000000e+00
 0.000000e+00 0.000000e+00 8.072628e-01 1.927372e-01 0.000000e+00
 0.000000e+00 0.000000e+00 0.000000e+00 9.594974e-01 4.050260e-02
 0.000000e+00 0.000000e+00 0.000000e+00 0.000000e+00 0.000000e+00
<ENDHMM>
~h "aath"
<BEGINHMM>
<NUMSTATES> 5
<STATE> 2
<MEAN> 25
 -4.131768e+00 3.635724e+00 -1.200191e+00 3.888157e+00 1.584423e+00 8.857892e-01 -7.603940e-01 -3.912772e-02 -1.153822e+00 -3.483685e-01 6.242102e-01 -2.351698e+00 9.393638e-03 1.510748e-02 -1.921595e-02 -1.697436e-02 5.916345e-03 -5.709044e-03 1.520034e-02 1.702953e-02 9.726395e-05 1.107971e-02 -1.297987e-03 -1.636350e-03 1.830051e-02
<VARIANCE> 25
 2.011494e+00 5.922649e+00 3.625061e+00 6.482090e+00 7.956012e+00 8.440010e+00 7.809861e+00 9.145067e+00 7.616238e+00 1.072329e+01 1.085098e+01 6.287462e+00 1.102223e-01 2.772474e-01 2.744639e-01 4.729703e-01 4.696236e-01 6.041798e-01 8.087645e-01 8.172999e-01 8.408089e-01 5.452160e-01 6.285613e-01 6.706321e-01 7.886891e-02
<GCONST> 5.729528e+01
<STATE> 3
<MEAN> 25
 -5.145843e+00 1.118588e+00 -1.125436e+00 1.329837e+00 -1.782240e+00 2.286142e+00 1.304186e+00 1.284039e+00 -4.305543e-01 -1.715231e+00 2.579995e-01 -1.457296e+00 1.104942e-01 -5.063488e-01 9.039664e-02 -4.615331e-01 -6.173987e-01 1.986730e-01 4.169371e-01 1.572161e-01 4.918149e-01 -1.631128e-01 -4.570599e-01 1.552055e-01 6.450035e-01
<VARIANCE> 25
 1.495178e+01 3.495824e+01 2.225019e+01 1.926868e+01 3.037210e+01 2.938500e+01 2.539926e+01 1.600665e+01 2.265739e+01 2.219679e+01 2.148578e+01 9.705887e+00 1.162219e+00 3.508692e+00 1.809535e+00 2.075605e+00 2.745576e+00 2.587315e+00 2.386076e+00 1.887593e+00 3.118966e+00 2.320821e+00 2.543547e+00 1.417656e+00 2.114734e+00
<GCONST> 9.283442e+01
<STATE> 4
<MEAN> 25
 1.267590e+01 -1.030281e+01 3.694778e+00 -1.158413e+01 -4.265018e+00 -4.490011e+00 2.787318e+00 1.692821e+00 4.022884e+00 2.173609e+00 -5.611375e+00 5.938489e+00 7.430549e-01 -1.117489e-01 9.916587e-03 4.470712e-02 3.824810e-01 -9.489857e-02 -3.281667e-01 -4.237303e-01 -4.038752e-01 1.793985e-01 2.873379e-01 1.991041e-01 -1.046232e-01
<VARIANCE> 25
 7.741515e+01 6.668429e+01 4.447160e+01 5.671500e+01 1.389022e+02 9.392869e+01 6.918832e+01 8.327065e+01 1.013716e+02 1.000935e+02 9.839606e+01 5.732066e+01 3.371141e+00 3.063410e+00 2.980524e+00 5.883761e+00 8.929030e+00 8.469323e+00 4.910903e+00 7.624485e+00 6.944149e+00 5.968145e+00 6.661361e+00 5.737549e+00 2.332251e+00
<GCONST> 1.196889e+02
<TRANSP> 5
 0.000000e+00 1.000000e+00 0.000000e+00 0.000000e+00 0.000000e+00
 0.000000e+00 9.806684e-01 1.933158e-02 0.000000e+00 0.000000e+00
 0.000000e+00 0.000000e+00 9.311702e-01 6.882980e-02 0.000000e+00
 0.000000e+00 0.000000e+00 0.000000e+00 9.637716e-01 3.622835e-02
 0.000000e+00 0.000000e+00 0.000000e+00 0.000000e+00 0.000000e+00
<ENDHMM>
