~o
<STREAMINFO> 1 25
<VECSIZE> 25<NULLD><MFCC_D_N_Z_0><DIAGC>
~s "silst"
<MEAN> 25
 -3.001243e+00 3.775726e+00 -3.527933e+00 2.064304e+00 -7.740759e-01 1.256231e+00 2.653556e-01 1.219239e-01 -6.889104e-01 1.762590e-01 6.659163e-01 -5.190961e-01 -1.193856e-01 4.252312e-02 1.755156e-03 5.157161e-02 1.910660e-02 2.949569e-02 -8.919523e-03 6.600508e-03 -2.016886e-02 2.232661e-02 -8.556518e-03 -2.436850e-02 1.230253e-01
<VARIANCE> 25
 1.058282e+01 1.049370e+01 1.268246e+01 1.228399e+01 1.424278e+01 1.366135e+01 1.358452e+01 1.346780e+01 1.150407e+01 1.087228e+01 8.777495e+00 1.076639e+01 2.593724e-01 4.788450e-01 5.031989e-01 6.402568e-01 7.244375e-01 8.641074e-01 9.966546e-01 1.032114e+00 9.649875e-01 9.101475e-01 8.334967e-01 8.162453e-01 7.566605e-01
<GCONST> 7.111057e+01
~h "ek"
<BEGINHMM>
<NUMSTATES> 5
<STATE> 2
<MEAN> 25
 -1.758145e+00 2.401285e+00 -4.153789e+00 -1.907739e-01 -3.780329e+00 4.108230e+00 3.451381e+00 2.081664e+00 -8.062483e-02 1.176727e+00 1.479427e+00 2.248921e+00 -8.692613e-03 6.747312e-02 8.336715e-04 -3.293226e-02 -2.071912e-02 -1.420969e-02 -3.278845e-02 4.651884e-03 -8.603418e-04 -1.873497e-02 -1.418666e-02 -1.824270e-02 9.356342e-03
<VARIANCE> 25
 3.194984e+00 8.842747e+00 7.228738e+00 5.833754e+00 8.044891e+00 1.123717e+01 8.441409e+00 8.780846e+00 8.328693e+00 9.900275e+00 7.122733e+00 7.698953e+00 1.573751e-01 4.870691e-01 4.396484e-01 5.579102e-01 7.113466e-01 8.167219e-01 7.875891e-01 9.114251e-01 8.799007e-01 1.148214e+00 7.953820e-01 7.958283e-01 1.651537e-01
<GCONST> 6.316016e+01
<STATE> 3
<MEAN> 25
 -3.492888e+00 1.956812e+00 -2.152715e+00 -2.290264e+00 -7.072366e-01 2.173985e+00 -2.443434e-01 3.853132e+00 8.724070e-01 1.216713e-01 -4.000472e-01 2.439191e+00 -9.767359e-02 -9.284907e-01 1.298776e+00 5.128925e-01 1.830604e+00 -1.552753e+00 -1.839598e+00 -7.748511e-01 2.770263e-01 1.001617e-01 -8.679124e-01 -6.527963e-01 1.524812e+00
<VARIANCE> 25
 6.241687e+00 1.046429e+01 7.445077e+00 7.475188e+00 1.625924e+01 1.698524e+01 8.888074e+00 4.868661e+00 7.064148e+00 3.371554e+00 6.898428e+00 8.298649e+00 1.256806e+00 2.090060e+00 5.696637e-01 2.055476e+00 2.003860e+00 1.747318e+00 1.021683e+00 3.396952e+00 7.256610e-01 1.556864e+00 4.297150e-01 9.028145e-01 1.043460e+00
<GCONST> 7.359034e+01
<STATE> 4
<MEAN> 25
 5.464737e+00 -7.536160e+00 1.401573e+01 1.188925e+00 1.390642e+01 -1.327992e+01 -1.077913e+01 -7.413560e+00 3.691374e-01 -1.458050e-01 -3.552881e+00 -6.959980e+00 4.655451e-01 -4.132167e-01 5.625046e-01 -2.134522e-02 6.057767e-01 -3.333037e-01 -1.265439e-01 -2.665504e-01 -2.067958e-01 2.327158e-01 -2.471083e-02 -3.306385e-01 2.026191e-01
<VARIANCE> 25
 6.649287e+01 5.906484e+01 4.002122e+01 4.464793e+01 4.886530e+01 4.554985e+01 4.277003e+01 6.998391e+01 4.246838e+01 5.284460e+01 3.364505e+01 3.836250e+01 1.478760e+00 1.893299e+00 2.047133e+00 1.761924e+00 2.546952e+00 3.786791e+00 2.698357e+00 3.980503e+00 3.391338e+00 3.161885e+00 2.018543e+00 2.148119e+00 3.001942e+00
<GCONST> 1.041934e+02
<TRANSP> 5
 0.000000e+00 1.000000e+00 0.000000e+00 0.000000e+00 0.000000e+00
 0.000000e+00 9.852890e-01 1.471100e-02 0.000000e+00 0.000000e+00
 0.000000e+00 0.000000e+00 7.281474e-01 2.718526e-01 0.000000e+00
 0.000000e+00 0.000000e+00 0.000000e+00 9.656445e-01 3.435547e-02
 0.000000e+00 0.000000e+00 0.000000e+00 0.000000e+00 0.000000e+00
<ENDHMM>
~h "sp"
<BEGINHMM>
<NUMSTATES> 3
<STATE> 2
~s "silst"
<TRANSP> 3
 0.000000e+00 6.405281e-02 9.359471e-01
 0.000000e+00 9.445099e-01 5.549008e-02
 0.000000e+00 0.000000e+00 0.000000e+00
<ENDHMM>
~h "saat"
<BEGINHMM>
<NUMSTATES> 5
<STATE> 2
<MEAN> 25
 -1.590036e+00 4.362565e+00 -4.460926e+00 3.586614e+00 7.982374e-01 4.884035e-01 -6.781860e-01 6.862641e-01 -1.563116e+00 6.478602e-02 -6.687532e-01 -1.754882e+00 -8.014951e-03 -1.400727e-02 -5.224300e-03 2.172605e-03 6.265976e-03 1.424815e-02 3.234704e-03 -5.618592e-03 1.546789e-02 1.139541e-02 9.812742e-03 2.675923e-02 1.486689e-02
<VARIANCE> 25
 2.102560e+00 3.132158e+00 5.040491e+00 6.599532e+00 6.708195e+00 8.824891e+00 7.885558e+00 8.193791e+00 1.050785e+01 7.788936e+00 5.982195e+00 6.777486e+00 6.665581e-02 1.878729e-01 2.864404e-01 3.676205e-01 5.025048e-01 6.322783e-01 7.097093e-01 7.474185e-01 8.835445e-01 8.744224e-01 6.902626e-01 6.253803e-01 5.158101e-02
<GCONST> 5.521842e+01
<STATE> 3
<MEAN> 25
 -2.506251e+00 3.085242e+00 -3.079605e+00 4.125221e+00 -1.046096e+00 2.500742e+00 -7.531879e-01 -5.340566e-02 -1.359817e+00 4.778228e-01 -9.129351e-01 -1.769020e+00 2.484054e-01 -2.192529e-01 5.258809e-01 1.566298e-01 -2.047762e-02 1.974497e-01 -5.624483e-02 -6.587605e-02 1.324134e-01 -4.845530e-02 -1.495234e-01 -4.189449e-03 3.585706e-01
<VARIANCE> 25
 8.060161e+00 5.819356e+00 1.023528e+01 1.192833e+01 9.002334e+00 1.251786e+01 1.065943e+01 8.827826e+00 1.214476e+01 1.164088e+01 1.340133e+01 6.845519e+00 1.686272e+00 2.108956e+00 1.684738e+00 1.350666e+00 1.457887e+00 1.795618e+00 1.279603e+00 1.228783e+00 1.554308e+00 1.490210e+00 1.921252e+00 8.694381e-01 1.000936e+00
<GCONST> 7.819895e+01
<STATE> 4
<MEAN> 25
 -9.924344e+00 -4.117537e+00 1.052686e+01 -2.707578e-01 1.056419e+00 4.503753e+00 1.791969e+00 -3.161689e+00 2.406875e+00 -9.009674e-02 4.187480e-01 -5.334804e-02 -1.630649e-01 -3.689763e-01 4.255070e-01 -3.933643e-01 1.990572e-01 -1.680139e-01 2.589980e-01 -2.817740e-01 1.725298e-01 -1.345510e-01 1.464667e-01 -2.621166e-03 6.610056e-01
<VARIANCE> 25
 7.488615e+01 4.277803e+01 3.945226e+01 3.197532e+01 3.047955e+01 6.377063e+01 4.723751e+01 3.736430e+01 3.874153e+01 1.765645e+01 2.598708e+01 1.797611e+01 5.750656e+00 4.076132e+00 3.290008e+00 2.528516e+00 2.120045e+00 3.234260e+00 2.500360e+00 2.926763e+00 2.547223e+00 1.518340e+00 2.033616e+00 1.475878e+00 2.062273e+00
<GCONST> 1.012459e+02
<TRANSP> 5
 0.000000e+00 1.000000e+00 0.000000e+00 0.000000e+00 0.000000e+00
 0.000000e+00 9.828641e-01 1.713594e-02 0.000000e+00 0.000000e+00
 0.000000e+00 0.000000e+00 8.794457e-01 1.205543e-01 0.000000e+00
 0.000000e+00 0.000000e+00 0.000000e+00 9.609957e-01 3.900426e-02
 0.000000e+00 0.000000e+00 0.000000e+00 0.000000e+00 0.000000e+00
<ENDHMM>
~h "saha"
<BEGINHMM>
<NUMSTATES> 5
<STATE> 2
<MEAN> 25
 -2.539609e+00 4.848430e+00 -4.616510e+00 4.437036e+00 1.451152e+00 8.833777e-01 -1.718130e+00 6.856930e-01 -1.940400e+00 -7.587258e-01 7.314873e-01 -1.667018e+00 -4.348953e-03 -3.795849e-02 2.939949e-03 -2.333751e-02 -4.224429e-02 1.122166e-02 1.023533e-02 2.661278e-04 -1.782595e-02 -3.205866e-03 2.077615e-02 1.529498e-02 3.293507e-02
<VARIANCE> 25
 2.928586e+00 4.898605e+00 1.026382e+01 6.557721e+00 8.719022e+00 1.054820e+01 1.398065e+01 1.222952e+01 7.448774e+00 7.773128e+00 8.700686e+00 7.017802e+00 8.467008e-02 2.838526e-01 4.540750e-01 4.031125e-01 4.846559e-01 6.621454e-01 7.781000e-01 7.529284e-01 7.817026e-01 7.420381e-01 7.584778e-01 6.540302e-01 7.367861e-02
<GCONST> 5.970190e+01
<STATE> 3
<MEAN> 25
 -1.229718e+01 -2.611282e+00 6.669531e+00 2.757697e+00 -1.257899e+00 3.661139e+00 5.367827e-02 -4.367629e-01 6.097038e-01 -1.284181e+00 3.785138e+00 -1.865879e+00 -5.237478e-01 -4.488309e-01 6.718990e-01 -2.692264e-01 1.330491e-01 -8.138140e-02 1.886683e-01 -9.090324e-02 1.964861e-01 6.062747e-02 3.966347e-02 -6.571182e-02 9.077119e-01
<VARIANCE> 25
 5.301889e+01 4.152244e+01 1.109629e+02 3.588637e+01 4.667772e+01 4.364011e+01 3.194306e+01 3.094936e+01 3.899409e+01 2.015525e+01 1.348435e+01 1.696271e+01 1.898584e+00 4.284789e+00 3.819923e+00 1.900328e+00 3.706734e+00 1.732321e+00 3.034672e+00 2.321403e+00 2.514707e+00 2.562015e+00 1.384517e+00 1.588401e+00 1.709879e+00
<GCONST> 9.962611e+01
<STATE> 4
<MEAN> 25
 1.155833e+01 -8.422674e+00 6.885881e+00 -1.105192e+01 2.132650e+00 -6.729554e+00 3.757384e+00 2.230404e-01 4.248457e-01 2.040429e+00 -4.459002e+00 5.389173e+00 7.388205e-01 1.375870e-02 -2.238017e-01 -2.395720e-01 -1.564649e-01 2.000099e-02 -4.341155e-04 5.435438e-02 1.601974e-01 -3.050274e-02 -3.950437e-01 2.655174e-01 -3.200706e-01
<VARIANCE> 25
 6.268084e+01 2.967681e+01 3.221252e+01 6.831652e+01 6.274189e+01 3.898497e+01 9.413351e+01 9.547504e+01 5.923792e+01 6.090159e+01 5.894632e+01 4.685049e+01 4.493482e+00 2.736303e+00 2.270490e+00 3.816555e+00 4.146509e+00 4.137584e+00 4.858330e+00 5.119950e+00 3.958441e+00 6.428994e+00 4.300230e+00 4.029004e+00 6.571726e-01
<GCONST> 1.105859e+02
<TRANSP> 5
 0.000000e+00 1.000000e+00 0.000000e+00 0.000000e+00 0.000000e+00
 0.000000e+00 9.844607e-01 1.553930e-02 0.000000e+00 0.000000e+00
 0.000000e+00 0.000000e+00 9.513107e-01 4.868929e-02 0.000000e+00
 0.000000e+00 0.000000e+00 0.000000e+00 9.676604e-01 3.233963e-02
 0.000000e+00 0.000000e+00 0.000000e+00 0.000000e+00 0.000000e+00
<ENDHMM>
~h "char"
<BEGINHMM>
<NUMSTATES> 5
<STATE> 2
<MEAN> 25
 -3.045359e+00 4.537420e+00 -2.373467e+00 1.720893e+00 3.339550e-02 2.053993e+00 4.014545e-01 2.497643e-01 -4.004723e-01 8.623164e-02 -5.324961e-02 -2.138386e+00 1.196381e-03 6.426686e-03 -3.400263e-03 -7.175534e-03 1.116021e-02 -4.077165e-04 -3.285953e-03 2.446020e-02 3.755208e-02 2.000736e-02 9.942554e-03 -3.393748e-03 5.503015e-03
<VARIANCE> 25
 1.534555e+00 2.727540e+00 3.617608e+00 4.273958e+00 5.002223e+00 6.179120e+00 5.084327e+00 8.950875e+00 9.120470e+00 9.714970e+00 6.712866e+00 6.395749e+00 6.962625e-02 2.321836e-01 2.972552e-01 3.853504e-01 4.809429e-01 5.689317e-01 5.085952e-01 7.964471e-01 9.874872e-01 9.788418e-01 8.576952e-01 8.339345e-01 5.158101e-02
<GCONST> 5.378475e+01
<STATE> 3
<MEAN> 25
 -3.873307e+00 2.403154e+00 -3.190600e+00 2.940449e+00 -1.257177e+00 7.364234e-02 -4.666190e-01 8.814679e-01 4.771980e-01 1.574980e+00 1.710732e+00 -3.193083e+00 -6.326784e-01 -1.433978e+00 1.416799e+00 -1.379656e-01 -4.635640e-01 4.687841e-01 -4.054716e-01 3.111124e-01 4.067771e-01 -8.732782e-01 2.947573e-01 -2.163682e-01 9.858256e-01
<VARIANCE> 25
 9.710481e+00 1.376386e+01 1.216864e+01 2.410961e+01 7.948277e+00 1.571150e+01 1.382401e+01 1.001122e+01 4.929825e+00 1.474412e+01 5.850158e+00 7.424452e+00 1.650296e+00 4.376241e+00 2.475025e+00 2.881376e+00 1.060869e+00 3.214319e+00 3.505671e+00 1.965891e+00 1.363772e+00 2.592543e+00 1.166684e+00 1.419855e+00 1.719470e+00
<GCONST> 8.374683e+01
<STATE> 4
<MEAN> 25
 3.960058e+00 -8.254195e+00 7.640173e+00 -6.901425e+00 2.049730e+00 -3.761143e+00 -1.320371e-01 7.678056e-01 1.376754e+00 2.016300e+00 -1.164633e+00 4.969300e+00 3.929143e-01 -1.019585e-01 5.509662e-02 -1.540314e-01 7.181145e-02 -1.688802e-01 -2.921128e-02 4.773375e-03 -6.441120e-02 8.075698e-02 -6.134160e-02 1.514751e-01 2.050682e-01
<VARIANCE> 25
 1.138719e+02 2.387690e+01 4.789772e+01 8.101264e+01 9.067621e+01 6.261049e+01 5.157038e+01 6.200297e+01 7.201492e+01 4.053149e+01 5.340524e+01 6.927270e+01 4.755847e+00 2.507903e+00 3.901493e+00 3.401635e+00 6.110773e+00 5.966875e+00 5.467562e+00 4.455946e+00 5.589425e+00 3.536379e+00 4.485421e+00 3.844777e+00 2.329218e+00
<GCONST> 1.135587e+02
<TRANSP> 5
 0.000000e+00 1.000000e+00 0.000000e+00 0.000000e+00 0.000000e+00
 0.000000e+00 9.823155e-01 1.768454e-02 0.000000e+00 0.000000e+00
 0.000000e+00 0.000000e+00 7.700025e-01 2.299975e-01 0.000000e+00
 0.000000e+00 0.000000e+00 0.000000e+00 9.701068e-01 2.989324e-02
 0.000000e+00 0.000000e+00 0.000000e+00 0.000000e+00 0.000000e+00
<ENDHMM>
~h "teen"
<BEGINHMM>
<NUMSTATES> 5
<STATE> 2
<MEAN> 25
 -2.311429e+00 3.428491e+00 -5.839440e+00 -1.709511e+00 -3.873807e+00 2.512145e+00 1.608717e+00 -3.509766e-01 -1.461379e+00 2.483263e+00 2.197248e-01 1.820649e+00 1.272216e-02 7.753395e-04 -7.879910e-04 2.112875e-02 7.434845e-03 5.709917e-04 3.100488e-02 1.380917e-02 2.154660e-02 8.186202e-03 1.952548e-02 1.857704e-02 2.513689e-02
<VARIANCE> 25
 1.205047e+00 3.313232e+00 6.900065e+00 3.851722e+00 5.030966e+00 8.242280e+00 7.680154e+00 9.068066e+00 6.815585e+00 7.349048e+00 5.934772e+00 4.945545e+00 8.005750e-02 2.064217e-01 3.547495e-01 4.191839e-01 5.911339e-01 7.065644e-01 9.351912e-01 7.478124e-01 6.283919e-01 1.040516e+00 6.947964e-01 5.579884e-01 6.083576e-02
<GCONST> 5.446151e+01
<STATE> 3
<MEAN> 25
 -2.634393e+00 4.332964e-01 -5.289710e+00 -7.519921e-01 -3.995088e+00 5.930314e-01 2.770006e+00 2.498798e+00 -1.460554e+00 1.457594e+00 -6.190472e-01 1.987334e+00 -2.845673e-02 -2.893071e-01 2.557005e-02 5.249415e-02 -7.927307e-02 3.799999e-02 1.275332e-02 -1.999409e-01 7.908741e-02 -4.838096e-02 -1.838691e-02 -8.782642e-02 2.358642e-01
<VARIANCE> 25
 2.120448e+00 1.884853e+01 9.644819e+00 7.383396e+00 4.967256e+00 9.511908e+00 1.174644e+01 9.245326e+00 9.224778e+00 7.674645e+00 9.555309e+00 7.704279e+00 2.532857e-01 3.797703e+00 1.515603e+00 1.064723e+00 6.803054e-01 1.205492e+00 1.488206e+00 7.446771e-01 1.438572e+00 1.052249e+00 1.485606e+00 9.147789e-01 1.624378e+00
<GCONST> 7.255298e+01
<STATE> 4
<MEAN> 25
 4.950120e+00 -1.130889e+01 1.994736e+01 5.900617e+00 1.490746e+01 -1.462427e+01 -2.350791e+00 -4.595724e+00 5.422846e+00 -6.700578e+00 -1.782830e+00 -6.263478e+00 5.338993e-01 -1.317781e-01 6.908179e-01 1.121855e-01 3.610168e-01 -3.552070e-01 -3.157261e-01 1.764663e-02 7.274008e-02 -2.184039e-01 1.066344e-01 -3.725991e-01 4.523490e-02
<VARIANCE> 25
 2.940970e+01 2.816699e+01 9.781669e+01 2.247670e+01 1.033925e+02 7.537629e+01 2.766101e+01 1.095431e+02 6.993876e+01 5.930809e+01 3.182856e+01 2.727531e+01 1.649181e+00 2.428444e+00 5.004508e+00 2.639731e+00 5.572415e+00 6.721758e+00 3.677104e+00 4.308855e+00 3.903996e+00 7.376160e+00 4.628877e+00 3.471985e+00 2.514124e+00
<GCONST> 1.098498e+02
<TRANSP> 5
 0.000000e+00 1.000000e+00 0.000000e+00 0.000000e+00 0.000000e+00
 0.000000e+00 9.881908e-01 1.180917e-02 0.000000e+00 0.000000e+00
 0.000000e+00 0.000000e+00 9.524477e-01 4.755230e-02 0.000000e+00
 0.000000e+00 0.000000e+00 0.000000e+00 9.551832e-01 4.481677e-02
 0.000000e+00 0.000000e+00 0.000000e+00 0.000000e+00 0.000000e+00
<ENDHMM>
~h "don"
<BEGINHMM>
<NUMSTATES> 5
<STATE> 2
<MEAN> 25
 -7.004987e+00 3.304648e+00 -6.019437e+00 8.737991e-01 -8.590964e-01 -5.080589e-01 3.970621e+00 -1.238642e+00 3.483910e-01 2.359484e+00 -1.051235e-01 1.009261e+00 -1.326689e-02 -7.354543e-02 -1.667693e-02 -1.409303e-02 1.409587e-03 -2.668222e-02 -2.220907e-02 -2.015105e-02 1.651287e-02 2.266348e-02 4.844316e-02 1.420767e-02 3.209458e-02
<VARIANCE> 25
 2.221276e+00 7.060707e+00 5.012050e+00 3.043943e+00 9.119351e+00 6.238433e+00 6.971838e+00 8.396034e+00 9.418893e+00 9.943960e+00 7.709148e+00 7.489019e+00 7.327547e-02 2.355946e-01 2.870466e-01 3.567234e-01 5.092542e-01 4.494901e-01 6.954251e-01 7.259578e-01 9.194535e-01 1.010460e+00 7.061839e-01 6.886163e-01 6.078758e-02
<GCONST> 5.603992e+01
<STATE> 3
<MEAN> 25
 -5.054822e+00 -4.971262e+00 -7.075806e+00 -7.907084e-01 1.777712e+00 -2.438194e+00 4.014621e+00 -4.454687e+00 1.014681e+00 -8.295087e-01 2.998389e+00 3.515522e+00 1.248046e-01 -2.352159e-02 -8.378965e-02 1.708575e-01 -1.477464e-02 1.321504e-01 -1.197920e-01 -7.327957e-02 6.966645e-02 3.197037e-02 -1.442892e-01 5.545562e-03 8.106897e-03
<VARIANCE> 25
 5.637186e+00 4.372251e+01 4.153540e+01 1.807519e+01 1.499740e+01 5.983732e+01 1.959297e+01 1.469934e+01 2.311803e+01 1.745199e+01 9.913288e+00 1.599972e+01 9.566875e-01 3.165693e+00 2.021323e+00 1.573342e+00 2.064528e+00 3.574130e+00 1.076606e+00 1.758502e+00 1.863045e+00 1.491093e+00 1.290494e+00 1.624121e+00 1.740718e-01
<GCONST> 8.651963e+01
<STATE> 4
<MEAN> 25
 1.139522e+01 -6.003909e+00 1.009652e+01 -1.978556e+00 -5.574523e-01 -6.244196e-01 -7.185284e+00 3.001070e+00 -3.274430e+00 -3.854249e+00 1.442535e+00 -3.318041e+00 3.718339e-01 -2.066582e-01 3.031167e-01 1.303608e-01 -1.532577e-01 4.923392e-02 -2.693467e-01 2.299746e-01 -1.060705e-01 -3.396813e-01 2.983680e-02 -1.331492e-01 1.562102e-01
<VARIANCE> 25
 8.455398e+01 6.876795e+01 6.669880e+01 1.248981e+02 5.532486e+01 7.654659e+01 7.935135e+01 8.322604e+01 8.868655e+01 4.982695e+01 4.469850e+01 3.501889e+01 5.751166e+00 3.948177e+00 3.589864e+00 6.330532e+00 4.719244e+00 5.765009e+00 6.370885e+00 4.650710e+00 7.145326e+00 6.200816e+00 6.060311e+00 4.441645e+00 1.984726e+00
<GCONST> 1.172466e+02
<TRANSP> 5
 0.000000e+00 1.000000e+00 0.000000e+00 0.000000e+00 0.000000e+00
 0.000000e+00 9.843475e-01 1.565253e-02 0.000000e+00 0.000000e+00
 0.000000e+00 0.000000e+00 9.242657e-01 7.573421e-02 0.000000e+00
 0.000000e+00 0.000000e+00 0.000000e+00 9.568750e-01 4.312501e-02
 0.000000e+00 0.000000e+00 0.000000e+00 0.000000e+00 0.000000e+00
<ENDHMM>
~h "nau"
<BEGINHMM>
<NUMSTATES> 5
<STATE> 2
<MEAN> 25
 -6.915593e+00 3.149503e+00 -5.250698e+00 1.235115e+00 -2.330430e-01 1.217850e+00 1.965424e+00 -6.404257e-01 1.490144e+00 3.289547e-01 1.384031e+00 1.843993e-01 1.202799e-02 6.408178e-03 -2.711880e-02 3.304138e-03 2.439874e-02 -1.823462e-02 1.567357e-02 4.299846e-02 2.521550e-02 9.234682e-03 1.243028e-02 -1.704378e-03 -3.787512e-03
<VARIANCE> 25
 3.275214e+00 3.911056e+00 3.889253e+00 4.577800e+00 1.067635e+01 1.499155e+01 1.088256e+01 9.257628e+00 9.079043e+00 9.530794e+00 7.963052e+00 7.688871e+00 5.810401e-02 2.281355e-01 2.901870e-01 3.554168e-01 4.305637e-01 6.445999e-01 7.418169e-01 9.193233e-01 8.424045e-01 7.902585e-01 6.305056e-01 6.142582e-01 5.158101e-02
<GCONST> 5.706012e+01
<STATE> 3
<MEAN> 25
 -4.042517e+00 -1.926641e+00 -6.395488e+00 5.530980e+00 2.628074e+00 1.575336e+00 -1.137388e-01 5.859781e-01 1.659098e+00 -3.663863e+00 1.188377e-01 7.586935e-01 5.142272e-01 -1.451218e-01 4.291709e-01 9.819850e-01 4.481797e-01 4.309693e-01 -3.179474e-01 -3.602207e-01 1.856345e-01 -2.846594e-01 -3.542858e-01 -2.236348e-01 4.495980e-01
<VARIANCE> 25
 7.833220e+00 2.552409e+01 1.138593e+01 1.674539e+01 6.438864e+00 1.345477e+01 1.492617e+01 2.123576e+01 1.767651e+01 2.265878e+01 2.486969e+01 1.858939e+01 6.859218e-01 9.457048e-01 7.923753e-01 1.413563e+00 7.340540e-01 1.638141e+00 1.424373e+00 1.819006e+00 1.837286e+00 2.031905e+00 1.989774e+00 9.869030e-01 1.792120e-01
<GCONST> 7.993484e+01
<STATE> 4
<MEAN> 25
 1.567026e+01 -6.950834e+00 4.330104e+00 1.300718e+01 2.797815e+00 9.371216e+00 -9.078926e+00 -5.185814e+00 1.827951e+00 -7.795964e-01 -4.964771e+00 -4.001939e+00 1.221105e+00 -7.401483e-01 6.981589e-01 -3.745928e-01 2.815996e-01 -1.418630e-01 -2.853214e-01 1.758265e-01 -5.807432e-01 -5.037475e-01 -1.294662e-01 -9.820630e-02 4.867885e-01
<VARIANCE> 25
 8.632060e+01 6.936141e+01 3.683657e+01 7.573860e+01 5.128903e+01 7.586919e+01 1.085826e+02 8.978170e+01 8.587296e+01 7.229427e+01 6.668884e+01 3.834299e+01 7.005624e+00 3.792764e+00 2.615680e+00 6.978646e+00 5.514578e+00 8.136995e+00 1.025104e+01 5.027967e+00 4.229693e+00 6.263089e+00 4.178212e+00 2.846677e+00 1.800502e+00
<GCONST> 1.168810e+02
<TRANSP> 5
 0.000000e+00 1.000000e+00 0.000000e+00 0.000000e+00 0.000000e+00
 0.000000e+00 9.860283e-01 1.397173e-02 0.000000e+00 0.000000e+00
 0.000000e+00 0.000000e+00 8.798562e-01 1.201438e-01 0.000000e+00
 0.000000e+00 0.000000e+00 0.000000e+00 9.208420e-01 7.915805e-02
 0.000000e+00 0.000000e+00 0.000000e+00 0.000000e+00 0.000000e+00
<ENDHMM>
~h "sil"
<BEGINHMM>
<NUMSTATES> 5
<STATE> 2
<MEAN> 25
 -1.377454e-01 1.292656e+00 -7.691737e-01 1.824971e+00 8.878456e-01 1.676346e+00 7.179309e-01 1.124273e+00 6.458202e-01 -2.870619e-01 1.699856e+00 9.703705e-01 -1.392408e+00 1.520611e-01 -6.340059e-01 -2.871042e-01 -9.709664e-01 -5.195943e-01 9.122615e-02 -5.956964e-01 -2.937120e-01 -4.437718e-01 1.066887e-01 -3.573247e-01 4.642748e+00
<VARIANCE> 25
 8.732500e+01 4.192842e+01 3.538386e+01 3.703477e+01 6.559901e+01 3.625043e+01 3.000846e+01 3.753658e+01 3.062615e+01 2.803194e+01 2.008301e+01 2.220934e+01 1.260788e+01 6.824381e+00 6.381520e+00 5.821335e+00 7.271282e+00 6.353222e+00 4.801456e+00 4.831722e+00 4.543997e+00 3.490997e+00 3.954159e+00 2.795357e+00 3.223508e+01
<GCONST> 1.126736e+02
<STATE> 3
~s "silst"
<STATE> 4
<MEAN> 25
 1.042570e+01 -7.571393e+00 8.622603e+00 -7.423396e+00 -7.854009e-01 -4.384989e+00 -1.712599e+00 -6.076695e-01 1.578522e-01 -1.137853e+00 -6.193995e-01 1.019443e+00 2.241911e-01 -5.155089e-04 3.810650e-02 8.543795e-02 -1.630666e-01 2.464290e-01 -3.980187e-03 1.040824e-01 -1.010996e-01 2.013652e-01 -1.754951e-01 1.034077e-01 -3.456755e-01
<VARIANCE> 25
 1.324840e+02 6.581491e+01 8.447636e+01 1.008542e+02 1.508848e+02 1.095876e+02 8.371235e+01 7.797459e+01 8.741013e+01 8.175343e+01 6.842248e+01 6.509275e+01 2.771047e+00 2.708053e+00 3.319537e+00 4.954249e+00 5.385609e+00 4.653874e+00 4.573227e+00 5.125032e+00 5.641540e+00 6.482466e+00 5.381666e+00 3.995744e+00 1.324576e+00
<GCONST> 1.179831e+02
<TRANSP> 5
 0.000000e+00 1.000000e+00 0.000000e+00 0.000000e+00 0.000000e+00
 0.000000e+00 7.324475e-01 1.488028e-01 1.187497e-01 0.000000e+00
 0.000000e+00 0.000000e+00 9.247687e-01 7.523131e-02 0.000000e+00
 0.000000e+00 8.423709e-02 0.000000e+00 8.178414e-01 9.792153e-02
 0.000000e+00 0.000000e+00 0.000000e+00 0.000000e+00 0.000000e+00
<ENDHMM>
~h "shunya"
<BEGINHMM>
<NUMSTATES> 5
<STATE> 2
<MEAN> 25
 -5.815857e+00 7.693108e+00 -5.930618e+00 1.089670e-01 -4.999390e+00 1.738845e+00 3.102804e+00 4.603643e-01 -9.787742e-01 8.418223e-01 -3.471768e-01 1.303524e+00 -2.960525e-03 -1.628089e-02 -2.832768e-02 3.607086e-03 3.846294e-03 -2.058431e-02 -2.957952e-02 -9.801366e-03 -1.039052e-02 -1.720657e-02 7.027723e-04 1.781706e-02 2.616957e-02
<VARIANCE> 25
 1.781358e+00 8.321452e+00 4.720371e+00 7.221902e+00 1.057012e+01 9.811308e+00 1.300555e+01 1.113881e+01 8.516232e+00 8.754277e+00 6.277654e+00 7.071018e+00 1.155608e-01 4.381979e-01 3.636357e-01 4.835835e-01 5.546168e-01 6.292393e-01 8.992741e-01 7.162916e-01 7.035428e-01 7.780927e-01 5.764090e-01 6.397209e-01 1.386055e-01
<GCONST> 6.010398e+01
<STATE> 3
<MEAN> 25
 -5.009577e+00 4.392815e+00 -4.244110e+00 1.099631e+00 -2.371149e+00 2.152331e+00 -1.068827e-01 6.970671e-01 3.728595e-01 -8.093276e-01 1.691240e-01 1.879549e+00 8.079786e-01 -2.134247e+00 1.478126e+00 2.296572e-01 1.015449e+00 3.088049e-01 -3.831230e-01 -7.733280e-02 1.522352e-01 -7.032781e-01 3.428609e-01 -4.883054e-01 7.940718e-01
<VARIANCE> 25
 8.328764e+00 2.659768e+01 1.300977e+01 1.931233e+01 2.784752e+01 1.467460e+01 1.905009e+01 1.333959e+01 1.470409e+01 1.773258e+01 2.005128e+01 7.926264e+00 2.431871e+00 1.146761e+01 4.783647e+00 6.761497e+00 3.293746e+00 2.730860e+00 5.131318e+00 3.268757e+00 3.561743e+00 2.218517e+00 2.778979e+00 1.820654e+00 6.691023e-01
<GCONST> 9.416419e+01
<STATE> 4
<MEAN> 25
 8.752068e+00 -1.289408e+01 8.547611e+00 1.490018e+00 6.237532e+00 -9.751945e-01 -5.122490e+00 5.383537e-01 1.330094e+00 -1.284227e+00 -7.312664e-01 -2.039861e+00 3.510901e-01 -1.337464e-02 7.830463e-02 3.658888e-03 7.682720e-02 -1.190674e-01 -1.291325e-01 -2.229037e-02 -3.217350e-02 1.199959e-01 -7.635352e-02 -7.826264e-02 1.275722e-01
<VARIANCE> 25
 3.137765e+02 3.984461e+01 4.023295e+01 7.822098e+01 9.852971e+01 1.130363e+02 6.916240e+01 4.872074e+01 6.941903e+01 4.064393e+01 5.594427e+01 3.439770e+01 6.287258e+00 3.810049e+00 4.106425e+00 5.883276e+00 6.340551e+00 7.402237e+00 3.468653e+00 3.957182e+00 5.714571e+00 3.841035e+00 4.331158e+00 2.458246e+00 2.333535e+00
<GCONST> 1.155131e+02
<TRANSP> 5
 0.000000e+00 1.000000e+00 0.000000e+00 0.000000e+00 0.000000e+00
 0.000000e+00 9.854858e-01 1.451424e-02 0.000000e+00 0.000000e+00
 0.000000e+00 0.000000e+00 8.330712e-01 1.669287e-01 0.000000e+00
 0.000000e+00 0.000000e+00 0.000000e+00 9.802174e-01 1.978260e-02
 0.000000e+00 0.000000e+00 0.000000e+00 0.000000e+00 0.000000e+00
<ENDHMM>
~h "pach"
<BEGINHMM>
<NUMSTATES> 5
<STATE> 2
<MEAN> 25
 -3.858298e+00 5.042315e+00 -3.713913e+00 4.159361e+00 2.532197e-01 2.192729e+00 -2.042464e-01 -7.054511e-01 -8.151255e-01 -1.419398e-01 2.368153e-01 -2.342965e+00 -1.723011e-02 9.747562e-03 6.243089e-03 2.170912e-02 1.880378e-02 1.337771e-03 3.619770e-03 1.702005e-02 2.737261e-02 1.495959e-02 -7.589709e-03 -3.807061e-02 -4.608905e-03
<VARIANCE> 25
 3.938929e+00 2.545930e+00 6.647715e+00 5.479858e+00 5.961550e+00 6.499723e+00 5.254091e+00 7.061566e+00 8.029687e+00 6.382378e+00 8.984587e+00 7.185124e+00 7.840908e-02 1.795696e-01 2.595385e-01 3.944901e-01 4.712579e-01 5.710028e-01 5.648047e-01 7.279299e-01 6.934819e-01 6.631594e-01 6.473519e-01 7.845179e-01 5.158101e-02
<GCONST> 5.406018e+01
<STATE> 3
<MEAN> 25
 -3.348176e+00 2.702255e+00 -2.638370e+00 4.786283e+00 3.613274e-01 7.074400e-01 4.015031e-01 5.411248e-01 2.316364e-01 9.882116e-02 3.082346e-01 -3.957941e+00 1.012885e+00 -8.800207e-01 1.540424e-01 -1.004042e+00 -6.097961e-01 -5.036209e-01 -2.519971e-01 2.836659e-01 -1.482505e-01 -3.683079e-01 -4.596127e-01 3.408829e-01 2.133835e+00
<VARIANCE> 25
 1.139248e+01 1.627162e+01 1.116654e+01 6.530759e+00 5.025267e+00 4.111051e+00 1.584921e+01 6.789987e+00 1.002107e+01 1.014544e+01 1.281924e+01 4.907872e+00 2.040392e+00 2.629408e+00 2.303131e+00 2.592218e+00 2.056659e+00 9.560230e-01 1.676228e+00 8.139229e-01 7.906624e-01 1.387915e+00 9.730895e-01 1.111417e+00 6.118310e+00
<GCONST> 7.836498e+01
<STATE> 4
<MEAN> 25
 1.530839e+01 -1.551522e+01 9.015410e+00 -1.622941e+01 2.580469e+00 -1.094152e+01 5.449538e-01 3.796532e+00 3.370066e+00 2.227367e+00 -3.271406e+00 6.414089e+00 3.953954e-01 -3.935865e-01 6.004732e-01 -4.706323e-01 3.625104e-01 -3.133399e-01 3.114050e-02 -1.166465e-01 -1.832425e-01 -3.660268e-02 -2.290085e-02 4.364105e-01 -5.287408e-02
<VARIANCE> 25
 2.816550e+01 5.257902e+01 3.327519e+01 4.302940e+01 3.979755e+01 4.545077e+01 2.110565e+01 5.025402e+01 4.137888e+01 4.662770e+01 7.510683e+01 3.963462e+01 3.325182e+00 4.289401e+00 2.391410e+00 4.576280e+00 3.692648e+00 2.812220e+00 2.314908e+00 5.319371e+00 4.540713e+00 4.643474e+00 3.811666e+00 2.558000e+00 2.321136e+00
<GCONST> 1.066140e+02
<TRANSP> 5
 0.000000e+00 1.000000e+00 0.000000e+00 0.000000e+00 0.000000e+00
 0.000000e+00 9.868264e-01 1.317358e-02 0.000000e+00 0.000000e+00
 0.000000e+00 0.000000e+00 7.729313e-01 2.270687e-01 0.000000e+00
 0.000000e+00 0.000000e+00 0.000000e+00 9.410961e-01 5.890388e-02
 0.000000e+00 0.000000e+00 0.000000e+00 0.000000e+00 0.000000e+00
<ENDHMM>
~h "aath"
<BEGINHMM>
<NUMSTATES> 5
<STATE> 2
<MEAN> 25
 -4.247231e+00 3.538227e+00 -1.379622e+00 4.248233e+00 1.459915e+00 1.079165e+00 -9.138923e-01 -8.565614e-03 -1.150731e+00 -2.844272e-01 5.799697e-01 -2.382961e+00 8.817673e-03 3.789414e-02 -2.904020e-02 -9.313463e-03 1.810664e-02 1.513482e-02 2.277595e-02 8.024023e-03 -1.331497e-03 3.294374e-03 -3.428682e-03 -2.263889e-03 5.569231e-03
<VARIANCE> 25
 2.312510e+00 6.160094e+00 4.500921e+00 1.006737e+01 8.406270e+00 9.416971e+00 8.276024e+00 9.038911e+00 7.643344e+00 1.090598e+01 1.065100e+01 6.149748e+00 1.108764e-01 3.019281e-01 2.742071e-01 4.765862e-01 4.745761e-01 6.223564e-01 7.943608e-01 7.952039e-01 8.519713e-01 5.648172e-01 6.311415e-01 6.513705e-01 8.043201e-02
<GCONST> 5.845701e+01
<STATE> 3
<MEAN> 25
 -5.345752e+00 1.604596e+00 -1.489459e+00 1.956490e+00 -1.579168e+00 2.442379e+00 9.595703e-01 1.093509e+00 -6.345704e-01 -1.662488e+00 3.806773e-01 -1.412360e+00 8.778930e-02 -4.510903e-01 8.058746e-02 -4.706663e-01 -6.121146e-01 1.379006e-01 3.986272e-01 1.568953e-01 4.473045e-01 -1.838164e-01 -4.102283e-01 1.637856e-01 5.901970e-01
<VARIANCE> 25
 1.452966e+01 3.699819e+01 2.340902e+01 2.049353e+01 2.827590e+01 2.851262e+01 2.453948e+01 1.603148e+01 2.110980e+01 2.215288e+01 1.901377e+01 9.648705e+00 1.119863e+00 3.434972e+00 1.744892e+00 1.961203e+00 2.588086e+00 2.458107e+00 2.294647e+00 1.888747e+00 3.115573e+00 2.331259e+00 2.460325e+00 1.392858e+00 2.054069e+00
<GCONST> 9.226267e+01
<STATE> 4
<MEAN> 25
 1.246542e+01 -1.020997e+01 3.685223e+00 -1.161384e+01 -4.362767e+00 -4.360718e+00 2.867378e+00 1.753649e+00 4.112209e+00 2.098029e+00 -5.668756e+00 5.901128e+00 7.781948e-01 -1.478508e-01 2.297205e-02 1.829257e-02 4.030614e-01 -1.283662e-01 -3.091199e-01 -4.269924e-01 -4.040025e-01 2.139751e-01 2.526349e-01 2.149805e-01 -7.509148e-02
<VARIANCE> 25
 7.886275e+01 6.715263e+01 4.426678e+01 5.526833e+01 1.380826e+02 9.554597e+01 6.897665e+01 8.222446e+01 1.005669e+02 9.869525e+01 9.787976e+01 5.679242e+01 3.142741e+00 2.922362e+00 2.945495e+00 5.841420e+00 8.483166e+00 7.842524e+00 4.879938e+00 7.525775e+00 6.871467e+00 5.641782e+00 6.531697e+00 5.682740e+00 2.353124e+00
<GCONST> 1.192720e+02
<TRANSP> 5
 0.000000e+00 1.000000e+00 0.000000e+00 0.000000e+00 0.000000e+00
 0.000000e+00 9.813905e-01 1.860958e-02 0.000000e+00 0.000000e+00
 0.000000e+00 0.000000e+00 9.332014e-01 6.679864e-02 0.000000e+00
 0.000000e+00 0.000000e+00 0.000000e+00 9.640253e-01 3.597465e-02
 0.000000e+00 0.000000e+00 0.000000e+00 0.000000e+00 0.000000e+00
<ENDHMM>
