~o
<STREAMINFO> 1 25
<VECSIZE> 25<NULLD><MFCC_D_N_Z_0><DIAGC>
~s "silst"
<MEAN> 25
 -1.178236e-01 -4.805398e+00 -3.836779e+00 3.039325e-01 9.989719e-01 -5.591121e-01 3.975866e+00 -1.610155e-01 -1.895990e-01 9.039226e-01 -1.045881e+00 5.954411e+00 1.287993e-01 2.781816e-03 6.244397e-02 2.604502e-02 -4.062944e-01 -2.635655e-01 1.641260e-01 -2.360102e-01 -2.968187e-02 1.301066e-02 -2.236567e-01 -4.885896e-02 1.158726e-01
<VARIANCE> 25
 1.576532e+01 2.720152e+01 3.027498e+01 2.342546e+01 1.075128e+02 5.156853e+01 8.727466e+01 5.018021e+01 3.885489e+01 5.399139e+01 4.993222e+01 5.411939e+01 1.223657e+00 1.679305e+00 1.684056e+00 1.764111e+00 5.509113e+00 3.285222e+00 6.032812e+00 3.632652e+00 3.177412e+00 3.478558e+00 2.942724e+00 3.561628e+00 1.451534e+00
<GCONST> 1.040448e+02
~h "l1_i"
<BEGINHMM>
<NUMSTATES> 5
<STATE> 2
<MEAN> 25
 -1.002115e-02 -4.143279e+00 2.504445e+00 -4.230436e-01 -3.700609e+00 -6.561577e-01 1.410684e+00 -1.401510e+00 7.153305e-01 -1.257849e-02 2.468756e-01 2.963293e+00 -2.256382e-02 1.934027e-01 1.276743e-01 5.247684e-02 -1.879538e-01 -1.520520e-01 1.112187e-01 -3.077336e-01 -1.277037e-01 1.088822e-01 1.007382e-01 -8.022534e-02 -1.249274e-01
<VARIANCE> 25
 4.488117e+00 4.476944e+01 8.030351e+01 1.614371e+01 1.304107e+02 2.167193e+01 8.075018e+01 7.042307e+01 2.895739e+01 3.950694e+01 1.507542e+01 2.453449e+01 3.545524e-01 9.395005e-01 1.659829e+00 1.091638e+00 5.667864e+00 2.665737e+00 4.633151e+00 2.632205e+00 2.826827e+00 2.178304e+00 1.400028e+00 1.812311e+00 4.321368e-01
<GCONST> 9.458649e+01
<STATE> 3
<MEAN> 25
 1.571778e+00 -1.378252e+00 3.930157e-01 6.974134e-01 -7.237650e+00 -1.354215e+00 3.960582e+00 -8.586547e-01 -1.156378e+00 -8.034397e-01 -1.870895e+00 -2.209092e+00 4.423121e-02 1.638702e-02 1.957070e-02 -2.303483e-02 -2.415851e-04 3.723624e-02 -6.540280e-03 1.243247e-01 1.629619e-02 -1.343798e-03 -1.268129e-02 -4.482873e-02 -3.384072e-03
<VARIANCE> 25
 1.324295e+01 3.422691e+01 3.450400e+01 1.402174e+01 5.864337e+01 4.767826e+01 5.227044e+01 8.599530e+01 3.715938e+01 3.212978e+01 2.748305e+01 1.854819e+01 9.458221e-01 1.470975e+00 1.542900e+00 1.370653e+00 4.616985e+00 3.103607e+00 4.670858e+00 4.197621e+00 3.268413e+00 2.795208e+00 1.557706e+00 1.706498e+00 7.521554e-01
<GCONST> 9.753310e+01
<STATE> 4
<MEAN> 25
 6.134732e-01 8.494366e-01 1.707742e-01 -7.852543e-01 -6.910086e-02 -9.159344e-02 2.906343e-01 -2.930750e-01 1.139154e-01 -7.973235e-01 -1.200865e+00 1.751491e-01 -1.289151e-02 -4.295958e-03 -2.001923e-02 -2.669051e-03 3.274813e-02 5.311547e-03 -1.368482e-04 2.261605e-02 -2.613845e-03 3.140058e-03 9.580448e-03 1.343180e-02 -1.194640e-02
<VARIANCE> 25
 2.313058e+01 3.228094e+01 5.192197e+01 2.523387e+01 1.062951e+02 4.723623e+01 6.194266e+01 4.563485e+01 4.143724e+01 4.385540e+01 3.232891e+01 3.274267e+01 1.458753e+00 1.320658e+00 1.782906e+00 1.399101e+00 3.954622e+00 2.634385e+00 3.096989e+00 3.077732e+00 2.869094e+00 2.907467e+00 2.158896e+00 2.328574e+00 9.353209e-01
<GCONST> 1.005157e+02
<TRANSP> 5
 0.000000e+00 1.000000e+00 0.000000e+00 0.000000e+00 0.000000e+00
 0.000000e+00 9.765554e-01 2.344459e-02 0.000000e+00 0.000000e+00
 0.000000e+00 0.000000e+00 9.866500e-01 1.335000e-02 0.000000e+00
 0.000000e+00 0.000000e+00 0.000000e+00 9.969785e-01 3.021536e-03
 0.000000e+00 0.000000e+00 0.000000e+00 0.000000e+00 0.000000e+00
<ENDHMM>
~h "l1_u"
<BEGINHMM>
<NUMSTATES> 5
<STATE> 2
<MEAN> 25
 -4.484480e+00 5.514329e+00 -1.771246e+00 2.506588e+00 -3.477431e+00 -9.237880e+00 2.858616e+00 -4.138253e+00 1.019244e+00 1.155885e+00 3.094316e+00 1.327579e+01 2.881892e-01 -1.651104e-01 -1.311611e-01 -1.453436e-01 -1.095742e-01 -2.668191e-01 9.046574e-01 5.264061e-01 4.108829e-01 -4.459296e-02 -8.395768e-01 3.816932e-01 4.946763e-02
<VARIANCE> 25
 6.962496e+00 2.198307e+01 1.027326e+01 9.080737e+00 2.071999e+01 2.176066e+01 5.795681e+01 2.725029e+01 1.503683e+01 4.152999e+01 4.333749e+01 2.720963e+01 1.301441e+00 2.413415e+00 9.844241e-01 1.138625e+00 2.510179e+00 2.136391e+00 6.813254e+00 2.679183e+00 2.176211e+00 3.679597e+00 3.703655e+00 4.632523e+00 1.311602e-01
<GCONST> 9.123288e+01
<STATE> 3
<MEAN> 25
 3.401098e+00 -3.741633e+00 -4.111671e+00 2.936088e+00 -3.380906e+00 -2.929855e+00 6.581069e+00 1.906090e+00 1.770739e+00 -3.354513e-01 -7.332007e+00 5.114452e+00 4.095595e-01 -7.616781e-02 -2.401551e-01 7.114701e-02 1.205593e-01 1.184601e-01 -1.044663e+00 -4.900436e-01 -2.445014e-01 -1.187709e-01 4.148972e-01 -7.483023e-01 -3.411162e-01
<VARIANCE> 25
 1.305841e+01 9.808771e+00 1.610253e+01 1.188030e+01 1.416133e+01 9.381574e+01 5.689405e+01 5.417511e+01 2.947724e+01 2.189544e+01 4.424838e+01 2.696228e+01 1.619635e-01 1.370109e+00 5.080093e-01 1.132481e+00 1.396770e+00 2.764415e+00 2.774701e+00 2.597126e+00 2.336245e+00 1.672766e+00 2.813266e+00 1.775510e+00 1.162687e-01
<GCONST> 8.692013e+01
<STATE> 4
<MEAN> 25
 3.383923e+00 7.206340e-01 -2.612933e+00 -2.011680e+00 5.091289e-01 1.642528e+00 -1.447810e+00 -3.099442e+00 7.361321e-01 -5.367696e-01 -1.368535e+00 -4.548724e+00 -9.865893e-02 4.836054e-02 4.227598e-02 -4.320874e-02 3.868564e-02 5.929823e-02 6.321271e-03 6.870978e-02 -1.273815e-03 3.800480e-02 2.808454e-02 -6.492424e-02 3.463939e-02
<VARIANCE> 25
 1.791336e+01 1.785622e+01 3.435909e+01 2.142208e+01 9.029141e+01 4.830042e+01 5.668357e+01 3.485351e+01 4.911148e+01 4.078917e+01 2.664192e+01 2.585839e+01 1.002874e+00 6.526534e-01 1.349269e+00 1.548070e+00 3.485690e+00 2.714065e+00 3.544694e+00 2.511466e+00 3.620413e+00 2.316440e+00 2.485498e+00 1.919182e+00 5.057489e-01
<GCONST> 9.617632e+01
<TRANSP> 5
 0.000000e+00 1.000000e+00 0.000000e+00 0.000000e+00 0.000000e+00
 0.000000e+00 9.487132e-01 5.128674e-02 0.000000e+00 0.000000e+00
 0.000000e+00 0.000000e+00 9.486874e-01 5.131258e-02 0.000000e+00
 0.000000e+00 0.000000e+00 0.000000e+00 9.896590e-01 1.034100e-02
 0.000000e+00 0.000000e+00 0.000000e+00 0.000000e+00 0.000000e+00
<ENDHMM>
~h "l2_i"
<BEGINHMM>
<NUMSTATES> 5
<STATE> 2
<MEAN> 25
 6.089494e-02 -3.945458e+00 -1.981405e+00 3.006850e+00 -9.805237e-01 -3.101208e+00 1.302874e+00 -1.479923e+00 -2.201835e+00 -2.708666e+00 -2.343019e+00 2.741327e+00 -8.372451e-03 -4.243495e-01 -2.949861e-01 1.066049e-01 2.866631e-01 4.305193e-01 -1.329587e-01 7.392995e-03 5.335596e-01 -1.219515e-01 -2.842113e-01 1.034337e-01 1.699602e-01
<VARIANCE> 25
 1.288096e+01 3.223394e+01 3.066291e+01 1.378971e+01 5.674177e+01 3.775810e+01 6.641092e+01 8.951685e+01 5.886032e+01 3.348907e+01 3.724997e+01 2.959730e+01 1.037241e+00 2.036078e+00 1.901603e+00 1.608917e+00 7.181170e+00 4.208341e+00 7.730708e+00 5.201142e+00 8.043127e+00 2.959124e+00 4.851946e+00 3.034787e+00 1.745959e+00
<GCONST> 1.043594e+02
<STATE> 3
<MEAN> 25
 1.676010e+00 -3.622107e+00 -3.892300e+00 1.607785e+00 1.900737e+00 1.198570e+00 -2.263783e-02 -4.474244e-01 1.230801e+00 -1.722925e+00 -3.432182e+00 6.781663e-01 -1.542473e-02 2.492527e-01 2.391607e-01 -6.523606e-02 -3.905255e-01 -1.843854e-01 1.799612e-01 -7.240967e-02 -8.694412e-03 1.085434e-01 1.778487e-01 -5.149807e-02 -8.484896e-02
<VARIANCE> 25
 1.128528e+01 2.227552e+01 2.076561e+01 1.125585e+01 6.148452e+01 2.816916e+01 5.815218e+01 4.631861e+01 5.118153e+01 2.640304e+01 2.637413e+01 3.082302e+01 7.895147e-01 1.554699e+00 1.426948e+00 1.146020e+00 6.418143e+00 3.077594e+00 3.393951e+00 4.408664e+00 4.262759e+00 2.608390e+00 2.211106e+00 2.725852e+00 8.062317e-01
<GCONST> 9.656839e+01
<STATE> 4
<MEAN> 25
 -1.812224e+00 3.480264e+00 2.916883e+00 -1.902177e+00 -1.000251e+00 -1.933541e+00 -1.962914e+00 1.189910e+00 -1.720639e-01 9.749665e-01 1.761760e-02 -3.607493e+00 7.800963e-03 -5.692225e-03 5.583752e-02 -5.163873e-03 1.548126e-01 7.780308e-02 -4.546790e-02 1.028985e-01 -5.844091e-02 -1.030636e-01 -1.826139e-02 -5.259138e-02 5.322776e-03
<VARIANCE> 25
 5.432185e+01 2.291799e+01 3.536004e+01 1.586692e+01 7.254523e+01 4.834076e+01 3.583562e+01 3.871300e+01 2.620688e+01 3.192632e+01 3.330972e+01 2.048427e+01 4.239336e+00 2.325063e+00 2.339766e+00 1.212574e+00 6.269681e+00 2.888021e+00 3.317561e+00 3.104396e+00 3.086147e+00 2.532631e+00 2.227131e+00 1.978081e+00 1.145748e+00
<GCONST> 1.002905e+02
<TRANSP> 5
 0.000000e+00 1.000000e+00 0.000000e+00 0.000000e+00 0.000000e+00
 0.000000e+00 9.380267e-01 6.197330e-02 0.000000e+00 0.000000e+00
 0.000000e+00 0.000000e+00 9.701280e-01 2.987199e-02 0.000000e+00
 0.000000e+00 0.000000e+00 0.000000e+00 9.742604e-01 2.573956e-02
 0.000000e+00 0.000000e+00 0.000000e+00 0.000000e+00 0.000000e+00
<ENDHMM>
~h "l2_u"
<BEGINHMM>
<NUMSTATES> 5
<STATE> 2
<MEAN> 25
 -1.651109e-08 -2.268430e-07 1.259320e-08 1.165062e-07 -3.503200e-08 7.789977e-08 -6.306777e-08 1.437152e-07 -9.648429e-08 -8.998416e-08 1.010382e-07 -1.644749e-08 3.964178e-03 4.991033e-03 -2.259726e-03 -8.660138e-04 -1.980516e-03 2.296586e-03 -1.050157e-04 -6.062090e-03 -3.834328e-04 3.311979e-04 1.732379e-04 -2.677502e-03 -2.030911e-03
<VARIANCE> 25
 3.382748e+01 3.628031e+01 4.600648e+01 2.294502e+01 9.100511e+01 4.563913e+01 5.834692e+01 5.632589e+01 3.456791e+01 4.004803e+01 4.066158e+01 4.632240e+01 1.656153e+00 1.407841e+00 1.798202e+00 1.585461e+00 4.502382e+00 2.970210e+00 3.744460e+00 3.177201e+00 2.837936e+00 2.797859e+00 2.639533e+00 2.465156e+00 1.004578e+00
<GCONST> 1.021376e+02
<STATE> 3
<MEAN> 25
 -1.651109e-08 -2.268430e-07 1.259320e-08 1.165062e-07 -3.503200e-08 7.789977e-08 -6.306777e-08 1.437152e-07 -9.648429e-08 -8.998416e-08 1.010382e-07 -1.644749e-08 3.964178e-03 4.991033e-03 -2.259726e-03 -8.660138e-04 -1.980516e-03 2.296586e-03 -1.050157e-04 -6.062090e-03 -3.834328e-04 3.311979e-04 1.732379e-04 -2.677502e-03 -2.030911e-03
<VARIANCE> 25
 3.382748e+01 3.628031e+01 4.600648e+01 2.294502e+01 9.100511e+01 4.563913e+01 5.834692e+01 5.632589e+01 3.456791e+01 4.004803e+01 4.066158e+01 4.632240e+01 1.656153e+00 1.407841e+00 1.798202e+00 1.585461e+00 4.502382e+00 2.970210e+00 3.744460e+00 3.177201e+00 2.837936e+00 2.797859e+00 2.639533e+00 2.465156e+00 1.004578e+00
<GCONST> 1.021376e+02
<STATE> 4
<MEAN> 25
 -1.651109e-08 -2.268430e-07 1.259320e-08 1.165062e-07 -3.503200e-08 7.789977e-08 -6.306777e-08 1.437152e-07 -9.648429e-08 -8.998416e-08 1.010382e-07 -1.644749e-08 3.964178e-03 4.991033e-03 -2.259726e-03 -8.660138e-04 -1.980516e-03 2.296586e-03 -1.050157e-04 -6.062090e-03 -3.834328e-04 3.311979e-04 1.732379e-04 -2.677502e-03 -2.030911e-03
<VARIANCE> 25
 3.382748e+01 3.628031e+01 4.600648e+01 2.294502e+01 9.100511e+01 4.563913e+01 5.834692e+01 5.632589e+01 3.456791e+01 4.004803e+01 4.066158e+01 4.632240e+01 1.656153e+00 1.407841e+00 1.798202e+00 1.585461e+00 4.502382e+00 2.970210e+00 3.744460e+00 3.177201e+00 2.837936e+00 2.797859e+00 2.639533e+00 2.465156e+00 1.004578e+00
<GCONST> 1.021376e+02
<TRANSP> 5
 0.000000e+00 1.000000e+00 0.000000e+00 0.000000e+00 0.000000e+00
 0.000000e+00 6.000000e-01 4.000000e-01 0.000000e+00 0.000000e+00
 0.000000e+00 0.000000e+00 6.000000e-01 4.000000e-01 0.000000e+00
 0.000000e+00 0.000000e+00 0.000000e+00 7.000000e-01 3.000000e-01
 0.000000e+00 0.000000e+00 0.000000e+00 0.000000e+00 0.000000e+00
<ENDHMM>
~h "l3_i"
<BEGINHMM>
<NUMSTATES> 5
<STATE> 2
<MEAN> 25
 2.876458e+00 -5.581482e-01 -9.658313e+00 -6.178894e+00 1.687119e+01 6.979289e+00 -3.841011e-01 8.584204e-01 -3.973126e-03 1.819793e-01 7.263190e-02 5.481218e-01 -1.953681e-01 1.241421e-01 -1.223453e-01 -3.963720e-01 1.427987e+00 3.068159e-01 -1.438150e+00 3.283999e-01 -8.172977e-02 -1.407632e-01 8.886793e-01 -3.227934e-02 -1.188661e-01
<VARIANCE> 25
 3.043354e+00 2.410960e+01 2.761049e+00 2.204959e+01 2.796693e+01 1.861378e+01 4.899411e+01 1.913069e+01 1.427979e+01 1.237733e+01 2.998819e+01 4.160533e+00 4.120062e-01 6.902449e-01 5.464962e-01 7.881933e-01 4.672738e+00 1.763244e+00 5.878385e+00 2.921447e+00 3.234636e+00 2.099164e+00 2.729265e+00 6.075922e-01 1.101223e-01
<GCONST> 8.051815e+01
<STATE> 3
<MEAN> 25
 1.051088e+00 -4.841911e+00 -9.677226e+00 -3.460661e+00 1.989017e+01 1.993796e+00 -6.699852e+00 -5.089400e-01 5.539787e+00 -4.736553e+00 -1.386441e+00 -2.488146e+00 2.481589e-01 2.791669e-01 2.529625e-01 -7.016924e-02 -9.092999e-01 -5.315441e-01 8.118672e-01 -8.914549e-01 -6.246044e-02 -2.435200e-01 1.460030e-01 -3.388743e-01 -2.724710e-01
<VARIANCE> 25
 5.728804e+00 8.482358e+00 7.734110e+00 1.423058e+01 2.118393e+01 4.662358e+01 5.964777e+01 1.567694e+01 1.064780e+01 1.394640e+01 5.594982e+00 4.057931e+00 3.168640e-01 2.885034e-01 7.531923e-01 1.537662e+00 3.591193e+00 4.473501e+00 5.552902e+00 1.975700e+00 2.418983e+00 1.637164e+00 1.193015e+00 8.106981e-01 2.459265e-01
<GCONST> 7.925717e+01
<STATE> 4
<MEAN> 25
 3.927887e+00 -1.051289e+00 -4.015540e+00 -2.484959e+00 7.291402e+00 8.315731e-01 1.219332e-01 -1.744919e+00 -1.730418e+00 -2.683604e+00 1.492743e+00 -2.799291e+00 -1.312804e-01 -4.427926e-01 9.217649e-01 4.477234e-01 -1.157752e+00 9.065802e-02 4.422158e-01 1.365536e+00 -2.575209e-01 1.844060e-01 1.911992e-01 3.818951e-01 1.495759e-02
<VARIANCE> 25
 3.975469e+00 7.442089e+00 6.864034e+00 8.054956e+00 2.899993e+01 2.012193e+01 8.000153e+01 6.997443e+01 3.577866e+01 2.009255e+01 4.017356e+01 2.367363e+01 6.350300e-01 7.685598e-01 8.841396e-01 9.062446e-01 1.812979e+00 3.921315e+00 4.746249e+00 4.964209e+00 3.350743e+00 2.998010e+00 3.307516e+00 1.006163e+00 5.329354e-01
<GCONST> 8.884357e+01
<TRANSP> 5
 0.000000e+00 1.000000e+00 0.000000e+00 0.000000e+00 0.000000e+00
 0.000000e+00 8.664158e-01 1.335842e-01 0.000000e+00 0.000000e+00
 0.000000e+00 0.000000e+00 8.624297e-01 1.375703e-01 0.000000e+00
 0.000000e+00 0.000000e+00 0.000000e+00 8.826223e-01 1.173776e-01
 0.000000e+00 0.000000e+00 0.000000e+00 0.000000e+00 0.000000e+00
<ENDHMM>
~h "l3_u"
<BEGINHMM>
<NUMSTATES> 5
<STATE> 2
<MEAN> 25
 -1.651109e-08 -2.268430e-07 1.259320e-08 1.165062e-07 -3.503200e-08 7.789977e-08 -6.306777e-08 1.437152e-07 -9.648429e-08 -8.998416e-08 1.010382e-07 -1.644749e-08 3.964178e-03 4.991033e-03 -2.259726e-03 -8.660138e-04 -1.980516e-03 2.296586e-03 -1.050157e-04 -6.062090e-03 -3.834328e-04 3.311979e-04 1.732379e-04 -2.677502e-03 -2.030911e-03
<VARIANCE> 25
 3.382748e+01 3.628031e+01 4.600648e+01 2.294502e+01 9.100511e+01 4.563913e+01 5.834692e+01 5.632589e+01 3.456791e+01 4.004803e+01 4.066158e+01 4.632240e+01 1.656153e+00 1.407841e+00 1.798202e+00 1.585461e+00 4.502382e+00 2.970210e+00 3.744460e+00 3.177201e+00 2.837936e+00 2.797859e+00 2.639533e+00 2.465156e+00 1.004578e+00
<GCONST> 1.021376e+02
<STATE> 3
<MEAN> 25
 -1.651109e-08 -2.268430e-07 1.259320e-08 1.165062e-07 -3.503200e-08 7.789977e-08 -6.306777e-08 1.437152e-07 -9.648429e-08 -8.998416e-08 1.010382e-07 -1.644749e-08 3.964178e-03 4.991033e-03 -2.259726e-03 -8.660138e-04 -1.980516e-03 2.296586e-03 -1.050157e-04 -6.062090e-03 -3.834328e-04 3.311979e-04 1.732379e-04 -2.677502e-03 -2.030911e-03
<VARIANCE> 25
 3.382748e+01 3.628031e+01 4.600648e+01 2.294502e+01 9.100511e+01 4.563913e+01 5.834692e+01 5.632589e+01 3.456791e+01 4.004803e+01 4.066158e+01 4.632240e+01 1.656153e+00 1.407841e+00 1.798202e+00 1.585461e+00 4.502382e+00 2.970210e+00 3.744460e+00 3.177201e+00 2.837936e+00 2.797859e+00 2.639533e+00 2.465156e+00 1.004578e+00
<GCONST> 1.021376e+02
<STATE> 4
<MEAN> 25
 -1.651109e-08 -2.268430e-07 1.259320e-08 1.165062e-07 -3.503200e-08 7.789977e-08 -6.306777e-08 1.437152e-07 -9.648429e-08 -8.998416e-08 1.010382e-07 -1.644749e-08 3.964178e-03 4.991033e-03 -2.259726e-03 -8.660138e-04 -1.980516e-03 2.296586e-03 -1.050157e-04 -6.062090e-03 -3.834328e-04 3.311979e-04 1.732379e-04 -2.677502e-03 -2.030911e-03
<VARIANCE> 25
 3.382748e+01 3.628031e+01 4.600648e+01 2.294502e+01 9.100511e+01 4.563913e+01 5.834692e+01 5.632589e+01 3.456791e+01 4.004803e+01 4.066158e+01 4.632240e+01 1.656153e+00 1.407841e+00 1.798202e+00 1.585461e+00 4.502382e+00 2.970210e+00 3.744460e+00 3.177201e+00 2.837936e+00 2.797859e+00 2.639533e+00 2.465156e+00 1.004578e+00
<GCONST> 1.021376e+02
<TRANSP> 5
 0.000000e+00 1.000000e+00 0.000000e+00 0.000000e+00 0.000000e+00
 0.000000e+00 6.000000e-01 4.000000e-01 0.000000e+00 0.000000e+00
 0.000000e+00 0.000000e+00 6.000000e-01 4.000000e-01 0.000000e+00
 0.000000e+00 0.000000e+00 0.000000e+00 7.000000e-01 3.000000e-01
 0.000000e+00 0.000000e+00 0.000000e+00 0.000000e+00 0.000000e+00
<ENDHMM>
~h "l4_i"
<BEGINHMM>
<NUMSTATES> 5
<STATE> 2
<MEAN> 25
 -1.651109e-08 -2.268430e-07 1.259320e-08 1.165062e-07 -3.503200e-08 7.789977e-08 -6.306777e-08 1.437152e-07 -9.648429e-08 -8.998416e-08 1.010382e-07 -1.644749e-08 3.964178e-03 4.991033e-03 -2.259726e-03 -8.660138e-04 -1.980516e-03 2.296586e-03 -1.050157e-04 -6.062090e-03 -3.834328e-04 3.311979e-04 1.732379e-04 -2.677502e-03 -2.030911e-03
<VARIANCE> 25
 3.382748e+01 3.628031e+01 4.600648e+01 2.294502e+01 9.100511e+01 4.563913e+01 5.834692e+01 5.632589e+01 3.456791e+01 4.004803e+01 4.066158e+01 4.632240e+01 1.656153e+00 1.407841e+00 1.798202e+00 1.585461e+00 4.502382e+00 2.970210e+00 3.744460e+00 3.177201e+00 2.837936e+00 2.797859e+00 2.639533e+00 2.465156e+00 1.004578e+00
<GCONST> 1.021376e+02
<STATE> 3
<MEAN> 25
 -1.651109e-08 -2.268430e-07 1.259320e-08 1.165062e-07 -3.503200e-08 7.789977e-08 -6.306777e-08 1.437152e-07 -9.648429e-08 -8.998416e-08 1.010382e-07 -1.644749e-08 3.964178e-03 4.991033e-03 -2.259726e-03 -8.660138e-04 -1.980516e-03 2.296586e-03 -1.050157e-04 -6.062090e-03 -3.834328e-04 3.311979e-04 1.732379e-04 -2.677502e-03 -2.030911e-03
<VARIANCE> 25
 3.382748e+01 3.628031e+01 4.600648e+01 2.294502e+01 9.100511e+01 4.563913e+01 5.834692e+01 5.632589e+01 3.456791e+01 4.004803e+01 4.066158e+01 4.632240e+01 1.656153e+00 1.407841e+00 1.798202e+00 1.585461e+00 4.502382e+00 2.970210e+00 3.744460e+00 3.177201e+00 2.837936e+00 2.797859e+00 2.639533e+00 2.465156e+00 1.004578e+00
<GCONST> 1.021376e+02
<STATE> 4
<MEAN> 25
 -1.651109e-08 -2.268430e-07 1.259320e-08 1.165062e-07 -3.503200e-08 7.789977e-08 -6.306777e-08 1.437152e-07 -9.648429e-08 -8.998416e-08 1.010382e-07 -1.644749e-08 3.964178e-03 4.991033e-03 -2.259726e-03 -8.660138e-04 -1.980516e-03 2.296586e-03 -1.050157e-04 -6.062090e-03 -3.834328e-04 3.311979e-04 1.732379e-04 -2.677502e-03 -2.030911e-03
<VARIANCE> 25
 3.382748e+01 3.628031e+01 4.600648e+01 2.294502e+01 9.100511e+01 4.563913e+01 5.834692e+01 5.632589e+01 3.456791e+01 4.004803e+01 4.066158e+01 4.632240e+01 1.656153e+00 1.407841e+00 1.798202e+00 1.585461e+00 4.502382e+00 2.970210e+00 3.744460e+00 3.177201e+00 2.837936e+00 2.797859e+00 2.639533e+00 2.465156e+00 1.004578e+00
<GCONST> 1.021376e+02
<TRANSP> 5
 0.000000e+00 1.000000e+00 0.000000e+00 0.000000e+00 0.000000e+00
 0.000000e+00 6.000000e-01 4.000000e-01 0.000000e+00 0.000000e+00
 0.000000e+00 0.000000e+00 6.000000e-01 4.000000e-01 0.000000e+00
 0.000000e+00 0.000000e+00 0.000000e+00 7.000000e-01 3.000000e-01
 0.000000e+00 0.000000e+00 0.000000e+00 0.000000e+00 0.000000e+00
<ENDHMM>
~h "l4_u"
<BEGINHMM>
<NUMSTATES> 5
<STATE> 2
<MEAN> 25
 -9.262200e-01 -3.347977e+00 -2.965079e-01 1.196389e+00 -4.851013e+00 -4.183705e+00 2.965726e+00 -1.390949e+00 1.917475e+00 5.890071e+00 5.848338e+00 1.420940e+01 6.759054e-02 -1.241203e-01 -1.973190e-01 -1.673248e-02 8.325490e-02 -6.357472e-02 2.701006e-01 3.369394e-02 9.615157e-03 5.691233e-02 -4.376451e-02 1.953426e-01 2.229809e-02
<VARIANCE> 25
 1.467828e+01 3.452599e+01 4.825506e+01 2.113635e+01 1.080955e+02 2.036815e+01 4.853574e+01 4.790980e+01 3.733388e+01 9.208435e+01 8.032089e+01 6.308049e+01 6.797799e-01 1.313711e+00 2.181173e+00 1.950643e+00 3.460531e+00 1.714115e+00 3.469180e+00 3.094386e+00 2.884359e+00 4.551149e+00 3.337673e+00 3.789879e+00 5.376030e-01
<GCONST> 1.012045e+02
<STATE> 3
<MEAN> 25
 -1.274965e-01 3.079724e-01 -1.122353e+00 1.514922e+00 -4.668027e+00 -5.100462e+00 3.165394e+00 -1.573224e+00 -1.656101e+00 9.143908e-01 -2.365508e+00 2.285561e+00 -6.115724e-03 1.314455e-01 1.162814e-01 1.127152e-02 7.283071e-02 4.582305e-03 -2.438636e-01 -5.093219e-02 5.905211e-02 -4.024436e-02 -5.114646e-02 -3.411364e-01 -4.093270e-02
<VARIANCE> 25
 2.643966e+01 1.793355e+01 2.569895e+01 1.229597e+01 4.397166e+01 3.138014e+01 6.724635e+01 4.651435e+01 4.249306e+01 5.072089e+01 6.766954e+01 6.000916e+01 1.903803e+00 1.596456e+00 2.040362e+00 1.112177e+00 2.577849e+00 3.497826e+00 6.544913e+00 4.644887e+00 3.603158e+00 3.588284e+00 3.856077e+00 3.990894e+00 1.158463e+00
<GCONST> 1.021117e+02
<STATE> 4
<MEAN> 25
 1.929478e+00 1.127880e+00 -1.910992e+00 -1.088619e+00 6.448734e+00 3.535573e+00 -3.988587e+00 -2.308308e+00 8.343626e-01 -2.391770e+00 -1.501259e+00 -5.735415e+00 -4.878783e-02 -4.227780e-02 3.908358e-02 2.674318e-02 2.532706e-02 1.037852e-01 8.928359e-02 4.658033e-02 -1.148296e-02 5.342936e-03 8.580850e-02 -1.789237e-02 1.948017e-02
<VARIANCE> 25
 4.493543e+01 2.303048e+01 5.474240e+01 2.944976e+01 1.019086e+02 5.596918e+01 3.642685e+01 3.433641e+01 3.322646e+01 3.421198e+01 3.230050e+01 2.298122e+01 2.010108e+00 1.257273e+00 2.590441e+00 1.680483e+00 3.907684e+00 3.416781e+00 3.508047e+00 2.731845e+00 3.310685e+00 3.106737e+00 2.933283e+00 2.242891e+00 6.995515e-01
<GCONST> 1.008074e+02
<TRANSP> 5
 0.000000e+00 1.000000e+00 0.000000e+00 0.000000e+00 0.000000e+00
 0.000000e+00 9.779684e-01 2.203164e-02 0.000000e+00 0.000000e+00
 0.000000e+00 0.000000e+00 9.826956e-01 1.730441e-02 0.000000e+00
 0.000000e+00 0.000000e+00 0.000000e+00 9.901794e-01 9.820625e-03
 0.000000e+00 0.000000e+00 0.000000e+00 0.000000e+00 0.000000e+00
<ENDHMM>
~h "l5_i"
<BEGINHMM>
<NUMSTATES> 5
<STATE> 2
<MEAN> 25
 5.975022e+00 -6.086224e+00 -1.048597e+01 1.980972e+00 9.722611e-01 5.178133e+00 -1.474933e+00 1.510626e+00 5.898157e-01 1.520934e+00 -6.489421e+00 1.399010e+00 -1.591211e-01 -6.335735e-03 2.179468e-01 1.395966e-01 -1.499760e-01 5.247494e-01 1.843708e-01 -4.113938e-01 -1.006157e-01 7.893719e-03 3.877438e-01 2.640730e-01 7.852633e-02
<VARIANCE> 25
 3.227751e+01 1.080387e+01 1.534290e+01 9.759021e+00 5.780991e+01 2.981361e+01 4.385084e+01 7.350504e+01 1.354050e+01 6.081802e+00 1.778072e+01 1.855925e+01 4.543661e-01 5.507082e-01 1.323561e+00 1.469888e+00 5.180528e+00 2.362125e+00 4.026395e+00 3.643510e+00 1.218065e+00 8.494267e-01 8.019051e-01 1.098690e+00 3.243982e-01
<GCONST> 8.580241e+01
<STATE> 3
<MEAN> 25
 -3.042130e+00 2.300979e+00 -8.062572e-01 3.078204e+00 3.876062e+00 9.398429e-01 5.747215e-02 1.689044e+00 1.645939e+00 3.106988e+00 5.673602e+00 6.557363e-01 3.543621e-02 3.302297e-02 2.719460e-02 -4.905851e-02 4.233064e-02 -1.799854e-02 -1.228522e-01 1.128815e-02 2.116621e-02 3.032564e-02 6.760305e-02 3.266983e-02 -1.710066e-01
<VARIANCE> 25
 2.723914e+01 1.307647e+01 2.190377e+01 1.427593e+01 4.216499e+01 1.706667e+01 1.949426e+01 2.615698e+01 1.272717e+01 1.986672e+01 1.437563e+01 1.338785e+01 6.255904e-01 6.214542e-01 8.983120e-01 9.005754e-01 2.006193e+00 1.758781e+00 1.522413e+00 1.668665e+00 1.532413e+00 1.795756e+00 1.412212e+00 1.263964e+00 1.583875e-01
<GCONST> 8.195867e+01
<STATE> 4
<MEAN> 25
 2.113213e+00 9.100293e-01 4.654088e-01 9.777439e-01 -6.023242e+00 -3.016341e+00 2.136999e+00 -3.200129e+00 -6.292713e-01 -3.327159e+00 -4.469962e+00 -3.802662e-01 4.735034e-02 -5.220271e-02 -6.146279e-02 -5.798903e-02 3.760385e-02 -3.617753e-02 7.116273e-02 -3.108224e-02 -3.933967e-02 -3.508746e-02 -1.477699e-01 2.499477e-03 1.022640e-01
<VARIANCE> 25
 2.544767e+01 5.212085e+01 5.626347e+01 2.692476e+01 1.024797e+02 2.601158e+01 6.231735e+01 3.408584e+01 2.952012e+01 4.218338e+01 3.557373e+01 3.276125e+01 1.258651e+00 2.375418e+00 1.929136e+00 2.018653e+00 7.017176e+00 2.398812e+00 4.784266e+00 2.944344e+00 2.558058e+00 3.038352e+00 2.808262e+00 3.196318e+00 2.521553e+00
<GCONST> 1.032908e+02
<TRANSP> 5
 0.000000e+00 1.000000e+00 0.000000e+00 0.000000e+00 0.000000e+00
 0.000000e+00 9.078010e-01 9.219897e-02 0.000000e+00 0.000000e+00
 0.000000e+00 0.000000e+00 9.838392e-01 1.616081e-02 0.000000e+00
 0.000000e+00 0.000000e+00 0.000000e+00 9.909726e-01 9.027401e-03
 0.000000e+00 0.000000e+00 0.000000e+00 0.000000e+00 0.000000e+00
<ENDHMM>
~h "l5_u"
<BEGINHMM>
<NUMSTATES> 5
<STATE> 2
<MEAN> 25
 -1.651109e-08 -2.268430e-07 1.259320e-08 1.165062e-07 -3.503200e-08 7.789977e-08 -6.306777e-08 1.437152e-07 -9.648429e-08 -8.998416e-08 1.010382e-07 -1.644749e-08 3.964178e-03 4.991033e-03 -2.259726e-03 -8.660138e-04 -1.980516e-03 2.296586e-03 -1.050157e-04 -6.062090e-03 -3.834328e-04 3.311979e-04 1.732379e-04 -2.677502e-03 -2.030911e-03
<VARIANCE> 25
 3.382748e+01 3.628031e+01 4.600648e+01 2.294502e+01 9.100511e+01 4.563913e+01 5.834692e+01 5.632589e+01 3.456791e+01 4.004803e+01 4.066158e+01 4.632240e+01 1.656153e+00 1.407841e+00 1.798202e+00 1.585461e+00 4.502382e+00 2.970210e+00 3.744460e+00 3.177201e+00 2.837936e+00 2.797859e+00 2.639533e+00 2.465156e+00 1.004578e+00
<GCONST> 1.021376e+02
<STATE> 3
<MEAN> 25
 -1.651109e-08 -2.268430e-07 1.259320e-08 1.165062e-07 -3.503200e-08 7.789977e-08 -6.306777e-08 1.437152e-07 -9.648429e-08 -8.998416e-08 1.010382e-07 -1.644749e-08 3.964178e-03 4.991033e-03 -2.259726e-03 -8.660138e-04 -1.980516e-03 2.296586e-03 -1.050157e-04 -6.062090e-03 -3.834328e-04 3.311979e-04 1.732379e-04 -2.677502e-03 -2.030911e-03
<VARIANCE> 25
 3.382748e+01 3.628031e+01 4.600648e+01 2.294502e+01 9.100511e+01 4.563913e+01 5.834692e+01 5.632589e+01 3.456791e+01 4.004803e+01 4.066158e+01 4.632240e+01 1.656153e+00 1.407841e+00 1.798202e+00 1.585461e+00 4.502382e+00 2.970210e+00 3.744460e+00 3.177201e+00 2.837936e+00 2.797859e+00 2.639533e+00 2.465156e+00 1.004578e+00
<GCONST> 1.021376e+02
<STATE> 4
<MEAN> 25
 -1.651109e-08 -2.268430e-07 1.259320e-08 1.165062e-07 -3.503200e-08 7.789977e-08 -6.306777e-08 1.437152e-07 -9.648429e-08 -8.998416e-08 1.010382e-07 -1.644749e-08 3.964178e-03 4.991033e-03 -2.259726e-03 -8.660138e-04 -1.980516e-03 2.296586e-03 -1.050157e-04 -6.062090e-03 -3.834328e-04 3.311979e-04 1.732379e-04 -2.677502e-03 -2.030911e-03
<VARIANCE> 25
 3.382748e+01 3.628031e+01 4.600648e+01 2.294502e+01 9.100511e+01 4.563913e+01 5.834692e+01 5.632589e+01 3.456791e+01 4.004803e+01 4.066158e+01 4.632240e+01 1.656153e+00 1.407841e+00 1.798202e+00 1.585461e+00 4.502382e+00 2.970210e+00 3.744460e+00 3.177201e+00 2.837936e+00 2.797859e+00 2.639533e+00 2.465156e+00 1.004578e+00
<GCONST> 1.021376e+02
<TRANSP> 5
 0.000000e+00 1.000000e+00 0.000000e+00 0.000000e+00 0.000000e+00
 0.000000e+00 6.000000e-01 4.000000e-01 0.000000e+00 0.000000e+00
 0.000000e+00 0.000000e+00 6.000000e-01 4.000000e-01 0.000000e+00
 0.000000e+00 0.000000e+00 0.000000e+00 7.000000e-01 3.000000e-01
 0.000000e+00 0.000000e+00 0.000000e+00 0.000000e+00 0.000000e+00
<ENDHMM>
~h "sil"
<BEGINHMM>
<NUMSTATES> 5
<STATE> 2
<MEAN> 25
 -3.141785e+00 -1.174601e+00 -1.940844e-01 2.107854e-01 4.710787e+00 2.324713e+00 -8.763714e-01 4.942676e+00 4.334636e-01 -1.896989e-01 3.387842e+00 1.035243e+00 -2.211159e-02 -8.569000e-02 -1.142962e-02 -1.667789e-02 3.680603e-02 4.017495e-02 1.118802e-02 8.105861e-02 3.670807e-02 4.273174e-02 9.141597e-02 1.186612e-01 -1.586004e-01
<VARIANCE> 25
 4.121894e+01 3.155025e+01 2.998223e+01 1.582351e+01 3.413178e+01 2.505686e+01 3.091825e+01 3.123049e+01 2.214356e+01 2.605067e+01 2.255631e+01 2.408009e+01 4.973902e-01 5.324435e-01 8.580956e-01 8.719612e-01 1.205180e+00 1.325616e+00 1.538351e+00 1.756289e+00 1.633866e+00 1.741611e+00 1.515960e+00 1.395993e+00 2.275073e-01
<GCONST> 8.571716e+01
<STATE> 3
~s "silst"
<STATE> 4
<MEAN> 25
 1.557078e+00 2.696866e+00 2.111819e+00 -3.118277e-01 -2.974831e+00 -9.101943e-01 -1.320729e+00 -2.424437e+00 -2.682058e-01 -1.887268e-01 -1.178511e+00 -3.005922e+00 -3.316092e-02 5.879896e-02 -2.942918e-02 7.713339e-04 1.417007e-01 8.558160e-02 -7.926016e-02 3.044267e-02 -1.162604e-02 -3.115801e-02 3.880018e-02 -4.289133e-02 4.385494e-02
<VARIANCE> 25
 3.021281e+01 2.591195e+01 5.068701e+01 2.682443e+01 9.077641e+01 4.993180e+01 5.282690e+01 5.555428e+01 3.925293e+01 4.069790e+01 3.703465e+01 2.854651e+01 2.578594e+00 1.768247e+00 2.385325e+00 1.952662e+00 5.869409e+00 3.804164e+00 3.903383e+00 3.758128e+00 3.264647e+00 3.119116e+00 3.137502e+00 2.599816e+00 1.263248e+00
<GCONST> 1.040686e+02
<TRANSP> 5
 0.000000e+00 1.000000e+00 0.000000e+00 0.000000e+00 0.000000e+00
 0.000000e+00 8.930601e-01 4.869670e-02 5.824316e-02 0.000000e+00
 0.000000e+00 0.000000e+00 9.335707e-01 6.642920e-02 0.000000e+00
 0.000000e+00 5.509071e-02 0.000000e+00 9.387956e-01 6.113725e-03
 0.000000e+00 0.000000e+00 0.000000e+00 0.000000e+00 0.000000e+00
<ENDHMM>
