~o
<STREAMINFO> 1 25
<VECSIZE> 25<NULLD><MFCC_D_N_Z_0><DIAGC>
~h "ek"
<BEGINHMM>
<NUMSTATES> 5
<STATE> 2
<MEAN> 25
 -1.906361e+00 2.179632e+00 -3.675294e+00 1.934664e-01 -3.532564e+00 3.259241e+00 3.078958e+00 1.966969e+00 1.229326e-01 7.285873e-01 1.350740e+00 2.104288e+00 -2.361979e-03 5.287196e-02 -1.212026e-02 -3.810563e-02 -1.688015e-02 -1.699212e-02 -9.823263e-03 9.588797e-03 -5.357435e-03 -2.940919e-02 -8.882003e-03 -1.147039e-02 1.939373e-02
<VARIANCE> 25
 2.950732e+00 9.840443e+00 7.394054e+00 6.018880e+00 7.755867e+00 1.304045e+01 1.037712e+01 8.768725e+00 9.967143e+00 1.159875e+01 8.218040e+00 7.939567e+00 1.677455e-01 6.981795e-01 4.402789e-01 5.798873e-01 7.679379e-01 9.513110e-01 1.085531e+00 8.740794e-01 9.886051e-01 1.282642e+00 9.063711e-01 7.711208e-01 2.242258e-01
<GCONST> 6.567458e+01
<STATE> 3
<MEAN> 25
 -2.902436e+00 2.536505e+00 -2.713404e+00 -2.658857e+00 -2.015545e+00 2.958228e+00 4.362618e-01 3.229531e+00 9.066005e-01 -1.358071e-01 -2.363504e-01 2.052903e+00 -2.890325e-01 -6.883343e-01 9.988171e-01 1.016881e-01 1.330666e+00 -1.038168e+00 -1.693109e+00 -3.512056e-01 4.218731e-01 -3.558738e-02 -7.231547e-01 -1.844053e-01 1.036753e+00
<VARIANCE> 25
 3.672479e+00 2.076017e+00 6.012752e+00 9.578490e+00 1.475389e+01 1.306887e+01 8.239633e+00 2.869615e+00 6.711717e+00 2.580981e+00 5.216528e+00 7.367475e+00 8.595403e-01 1.087475e+00 3.740699e-01 1.146350e+00 1.166874e+00 1.729617e+00 1.176632e+00 2.885393e+00 3.330820e-01 7.819735e-01 4.676900e-01 6.912637e-01 3.346970e-01
<GCONST> 6.439876e+01
<STATE> 4
<MEAN> 25
 4.943140e+00 -7.042033e+00 1.336236e+01 1.230344e+00 1.333228e+01 -1.285506e+01 -1.063136e+01 -6.934055e+00 5.833189e-01 -5.224138e-01 -3.420691e+00 -6.570125e+00 5.182654e-01 -5.240577e-01 7.175094e-01 -1.368597e-04 7.960537e-01 -5.069470e-01 -2.176016e-01 -3.265460e-01 -1.992017e-01 3.116109e-01 -1.388198e-01 -3.868996e-01 3.571268e-01
<VARIANCE> 25
 6.766583e+01 5.780195e+01 4.508206e+01 4.374959e+01 5.030568e+01 5.044405e+01 4.047166e+01 7.190408e+01 3.874018e+01 4.605063e+01 3.338232e+01 4.091216e+01 1.412758e+00 1.781666e+00 1.622515e+00 1.842754e+00 2.285649e+00 3.498007e+00 2.717529e+00 4.079865e+00 3.339948e+00 2.978617e+00 1.713118e+00 1.969006e+00 3.000438e+00
<GCONST> 1.034415e+02
<TRANSP> 5
 0.000000e+00 1.000000e+00 0.000000e+00 0.000000e+00 0.000000e+00
 0.000000e+00 9.890566e-01 1.094343e-02 0.000000e+00 0.000000e+00
 0.000000e+00 0.000000e+00 6.750016e-01 3.249985e-01 0.000000e+00
 0.000000e+00 0.000000e+00 0.000000e+00 9.657971e-01 3.420288e-02
 0.000000e+00 0.000000e+00 0.000000e+00 0.000000e+00 0.000000e+00
<ENDHMM>
~h "saat"
<BEGINHMM>
<NUMSTATES> 5
<STATE> 2
<MEAN> 25
 -1.761903e+00 4.095351e+00 -4.628638e+00 3.779109e+00 4.372159e-01 6.007539e-01 -6.095620e-01 6.491567e-01 -1.710288e+00 -3.015605e-01 -3.158481e-01 -1.728943e+00 -8.795995e-03 -1.537954e-02 -1.942434e-03 1.633465e-03 -1.863287e-02 -9.297459e-03 -1.674453e-02 -3.309862e-02 -5.430598e-03 1.494536e-02 -2.004067e-02 5.896170e-03 4.949613e-02
<VARIANCE> 25
 2.469756e+00 4.474374e+00 6.686528e+00 7.082344e+00 8.326179e+00 1.092406e+01 7.717765e+00 8.677100e+00 1.089473e+01 8.363921e+00 5.963900e+00 7.089451e+00 7.736427e-02 2.154018e-01 3.050800e-01 4.075310e-01 5.750519e-01 7.426224e-01 6.732806e-01 7.855229e-01 8.333047e-01 7.810853e-01 7.109317e-01 6.708400e-01 8.559725e-02
<GCONST> 5.788314e+01
<STATE> 3
<MEAN> 25
 -2.661533e+00 2.731499e+00 -2.489697e+00 3.906168e+00 -1.195753e+00 2.965544e+00 -9.576597e-01 -3.783479e-01 -1.451638e+00 3.482051e-01 -1.089409e+00 -1.743187e+00 1.680663e-01 -2.913772e-01 5.522816e-01 1.585659e-01 7.540344e-02 2.965718e-01 1.963945e-02 -4.918268e-02 1.506954e-01 2.587423e-02 -2.167152e-02 3.114668e-02 3.400286e-01
<VARIANCE> 25
 8.568432e+00 9.245154e+00 1.469880e+01 1.254146e+01 8.452058e+00 1.391350e+01 8.853545e+00 7.869507e+00 1.143481e+01 1.194303e+01 1.190687e+01 6.286277e+00 1.811464e+00 2.348330e+00 1.832887e+00 1.451223e+00 1.472508e+00 1.621033e+00 1.040861e+00 9.447930e-01 1.583722e+00 1.206829e+00 1.684490e+00 8.318675e-01 1.038826e+00
<GCONST> 7.808196e+01
<STATE> 4
<MEAN> 25
 1.676638e+00 -8.043996e+00 8.803899e+00 -6.522146e+00 1.074749e+00 -1.015741e+00 1.230853e+00 -2.089594e+00 3.409428e+00 1.027880e+00 1.301762e-01 2.139939e+00 4.007557e-01 -2.021337e-01 1.894983e-01 -3.427332e-01 8.593597e-03 -2.112482e-01 5.073010e-03 -5.730608e-02 -6.249563e-02 1.746132e-03 -1.063120e-01 2.819484e-01 1.776020e-01
<VARIANCE> 25
 2.155155e+02 6.869413e+01 4.019137e+01 9.231899e+01 5.716579e+01 1.310375e+02 4.512626e+01 5.997942e+01 4.704465e+01 3.135760e+01 2.859774e+01 3.573557e+01 6.449217e+00 4.026845e+00 3.212756e+00 3.867412e+00 2.963495e+00 4.788809e+00 3.784912e+00 4.925854e+00 3.905700e+00 3.138727e+00 2.635595e+00 2.860255e+00 2.044671e+00
<GCONST> 1.114158e+02
<TRANSP> 5
 0.000000e+00 1.000000e+00 0.000000e+00 0.000000e+00 0.000000e+00
 0.000000e+00 9.832062e-01 1.679377e-02 0.000000e+00 0.000000e+00
 0.000000e+00 0.000000e+00 8.717335e-01 1.282665e-01 0.000000e+00
 0.000000e+00 0.000000e+00 0.000000e+00 9.754338e-01 2.456615e-02
 0.000000e+00 0.000000e+00 0.000000e+00 0.000000e+00 0.000000e+00
<ENDHMM>
~h "saha"
<BEGINHMM>
<NUMSTATES> 5
<STATE> 2
<MEAN> 25
 -2.761928e+00 4.598843e+00 -5.714681e+00 5.060572e+00 5.000520e-02 2.260708e+00 -2.286084e+00 7.591993e-01 -8.769469e-01 9.843528e-03 8.637114e-01 -2.206419e+00 -3.005169e-03 4.009917e-03 3.853262e-02 3.978259e-02 -4.020533e-02 -2.302634e-02 9.667025e-03 9.207377e-03 -1.390438e-02 1.485090e-02 6.075896e-02 2.635176e-02 1.331349e-02
<VARIANCE> 25
 5.855762e+00 7.836345e+00 1.710945e+01 1.062248e+01 1.401908e+01 8.925391e+00 1.620825e+01 1.280825e+01 7.792902e+00 8.304654e+00 8.937237e+00 6.400600e+00 1.591380e-01 3.885306e-01 5.520350e-01 5.095013e-01 8.452227e-01 6.012954e-01 7.147226e-01 9.502984e-01 7.900706e-01 7.490585e-01 8.174488e-01 5.910595e-01 1.698691e-01
<GCONST> 6.521709e+01
<STATE> 3
<MEAN> 25
 -1.229040e+01 -2.964450e+00 7.441661e+00 7.355271e-01 2.668303e+00 3.002481e+00 -2.617675e+00 -3.218612e+00 2.163813e+00 -8.617482e-01 5.649590e+00 -3.041947e+00 -6.908286e-01 -6.071395e-01 8.402622e-01 -1.817000e-01 2.372610e-02 -1.830563e-01 4.493674e-02 2.831494e-01 1.314606e-01 -2.175926e-01 -9.083245e-02 3.328129e-02 6.531874e-01
<VARIANCE> 25
 6.336681e+01 2.406155e+01 7.346583e+01 2.123954e+01 2.110529e+01 1.206744e+01 1.638389e+01 3.075701e+01 9.182327e+00 1.406281e+01 7.992344e+00 9.797930e+00 8.084037e-01 2.464725e+00 1.604557e+00 7.338319e-01 2.818343e+00 1.334779e+00 2.580978e+00 2.244148e+00 9.547613e-01 1.722085e+00 7.277597e-01 1.054022e+00 9.335518e-01
<GCONST> 8.571055e+01
<STATE> 4
<MEAN> 25
 5.396949e+00 -6.044237e+00 7.190651e+00 -7.415190e+00 9.760201e-01 -4.655751e+00 3.574157e+00 -3.717169e-01 -3.247221e-01 5.927972e-01 -2.053668e+00 3.674325e+00 4.537841e-01 -7.068850e-02 4.377595e-02 -3.458548e-01 -1.069938e-01 3.501728e-03 4.481584e-02 -1.026170e-01 1.067486e-01 3.825850e-02 -2.394493e-01 1.696320e-01 7.592393e-02
<VARIANCE> 25
 1.964893e+02 3.428749e+01 3.868696e+01 1.077108e+02 6.254704e+01 6.319793e+01 9.263170e+01 7.900172e+01 6.667931e+01 5.836395e+01 6.421248e+01 5.244174e+01 4.378550e+00 2.938343e+00 3.304232e+00 3.420099e+00 3.187190e+00 3.267052e+00 4.500412e+00 4.589511e+00 4.221146e+00 6.345107e+00 3.981597e+00 3.388399e+00 1.241929e+00
<GCONST> 1.131230e+02
<TRANSP> 5
 0.000000e+00 1.000000e+00 0.000000e+00 0.000000e+00 0.000000e+00
 0.000000e+00 9.796698e-01 2.033020e-02 0.000000e+00 0.000000e+00
 0.000000e+00 0.000000e+00 8.401456e-01 1.598544e-01 0.000000e+00
 0.000000e+00 0.000000e+00 0.000000e+00 9.673060e-01 3.269399e-02
 0.000000e+00 0.000000e+00 0.000000e+00 0.000000e+00 0.000000e+00
<ENDHMM>
~h "char"
<BEGINHMM>
<NUMSTATES> 5
<STATE> 2
<MEAN> 25
 -3.165922e+00 4.287265e+00 -3.149466e+00 2.186202e+00 -7.485434e-01 2.102647e+00 5.157924e-01 2.138031e-02 -6.620914e-02 2.328692e-01 -9.752612e-02 -2.119795e+00 -1.957687e-02 9.761516e-03 1.238320e-02 -1.069649e-02 -3.537712e-02 -1.826873e-03 1.669495e-02 -4.808100e-03 -1.063146e-02 7.419134e-03 1.032306e-02 1.355957e-02 1.050327e-02
<VARIANCE> 25
 4.600349e+00 6.617466e+00 7.542906e+00 1.042445e+01 7.792492e+00 8.212464e+00 8.210647e+00 1.128397e+01 1.087383e+01 1.188172e+01 6.759861e+00 7.711436e+00 2.271772e-01 5.082736e-01 4.559647e-01 6.977966e-01 5.623915e-01 8.434093e-01 8.339199e-01 8.108639e-01 1.194399e+00 1.176073e+00 8.087030e-01 8.124987e-01 1.715558e-01
<GCONST> 6.494617e+01
<STATE> 3
<MEAN> 25
 -3.293247e+00 2.002182e+00 -4.205568e+00 2.991540e+00 -2.517065e+00 -2.241802e-02 -1.688526e-01 -3.103120e-01 -3.973157e-01 2.251364e+00 1.662519e+00 -4.010811e+00 -4.433037e-01 -1.593130e+00 1.435465e+00 8.126554e-02 -5.411283e-01 4.734822e-01 -3.329459e-02 3.669543e-01 4.508583e-01 -4.823741e-01 5.285673e-01 -6.726869e-02 1.006130e+00
<VARIANCE> 25
 7.557300e+00 1.704616e+01 1.249039e+01 2.440174e+01 5.511276e+00 1.830218e+01 1.379581e+01 1.404198e+01 1.173250e+01 1.070129e+01 6.157256e+00 4.618554e+00 1.026273e+00 6.087287e+00 2.569440e+00 2.695009e+00 6.693724e-01 2.474074e+00 2.249035e+00 1.781881e+00 1.227459e+00 2.816240e+00 1.363078e+00 1.112523e+00 2.100192e+00
<GCONST> 8.264426e+01
<STATE> 4
<MEAN> 25
 3.992784e+00 -9.274946e+00 8.514416e+00 -6.147215e+00 2.800682e+00 -3.809112e+00 -7.169802e-01 1.634222e-01 8.525461e-01 2.121150e+00 -1.341377e+00 5.157261e+00 4.826189e-01 -1.983110e-01 2.178135e-01 -3.874113e-01 1.461263e-01 -2.238827e-01 -1.120468e-01 9.809158e-02 -1.097732e-01 1.345826e-01 -1.376653e-01 2.676934e-01 3.168737e-01
<VARIANCE> 25
 1.188247e+02 3.115227e+01 4.256660e+01 8.705584e+01 9.673921e+01 6.042317e+01 5.954589e+01 6.794917e+01 9.238222e+01 4.199279e+01 5.355827e+01 7.358627e+01 5.514256e+00 3.053767e+00 4.080283e+00 3.336602e+00 7.446088e+00 6.092352e+00 5.531961e+00 5.371578e+00 7.245080e+00 3.751509e+00 4.453007e+00 4.047340e+00 2.663820e+00
<GCONST> 1.157177e+02
<TRANSP> 5
 0.000000e+00 1.000000e+00 0.000000e+00 0.000000e+00 0.000000e+00
 0.000000e+00 9.862010e-01 1.379904e-02 0.000000e+00 0.000000e+00
 0.000000e+00 0.000000e+00 7.012544e-01 2.987456e-01 0.000000e+00
 0.000000e+00 0.000000e+00 0.000000e+00 9.704628e-01 2.953724e-02
 0.000000e+00 0.000000e+00 0.000000e+00 0.000000e+00 0.000000e+00
<ENDHMM>
~h "teen"
<BEGINHMM>
<NUMSTATES> 5
<STATE> 2
<MEAN> 25
 -2.182544e+00 3.383479e+00 -5.951765e+00 -1.658986e+00 -3.799397e+00 2.911959e+00 1.612220e+00 -7.661474e-01 -1.599297e+00 2.289080e+00 3.957499e-01 1.976709e+00 1.026188e-02 1.668487e-03 -1.991344e-02 1.643149e-02 2.260230e-02 -4.815521e-03 5.408591e-03 -3.750487e-03 -3.562936e-03 3.134431e-02 -1.072493e-02 -7.678944e-03 3.938024e-02
<VARIANCE> 25
 1.216296e+00 3.806286e+00 7.658564e+00 3.765741e+00 5.094157e+00 7.381607e+00 7.621214e+00 8.642672e+00 7.340316e+00 8.185911e+00 6.030340e+00 5.266555e+00 8.691894e-02 2.067133e-01 3.360787e-01 3.838662e-01 5.202144e-01 6.169226e-01 8.725625e-01 7.214229e-01 6.872495e-01 1.074201e+00 7.686192e-01 5.993674e-01 9.471960e-02
<GCONST> 5.510806e+01
<STATE> 3
<MEAN> 25
 -1.201183e+00 -2.120090e-01 -7.055264e+00 -1.784464e+00 -3.296906e+00 2.793575e+00 3.309699e+00 -4.608141e-01 -2.055507e+00 1.425071e+00 -3.176335e-01 1.810997e+00 -1.921464e-01 -3.679461e-01 1.261520e-01 3.743470e-04 -3.838175e-01 2.434516e-01 2.270885e-01 -6.073694e-01 5.132126e-01 -4.740139e-01 -1.142817e-01 -2.128349e-01 1.638817e-01
<VARIANCE> 25
 1.316368e+00 3.679372e+01 1.300390e+01 6.335947e+00 2.764651e+00 6.925122e+00 1.626302e+01 6.801256e+00 6.596480e+00 1.037136e+01 2.071539e+01 8.950105e+00 2.865165e-01 6.634225e+00 2.026517e+00 1.247726e+00 4.343056e-01 6.886492e-01 3.447145e+00 1.222178e+00 1.039993e+00 1.932572e+00 3.891248e+00 1.286641e+00 1.527376e+00
<GCONST> 7.587828e+01
<STATE> 4
<MEAN> 25
 2.762393e+00 -7.258835e+00 1.571340e+01 2.630889e+00 8.302248e+00 -8.829854e+00 -3.637805e+00 6.844380e-01 3.530586e+00 -5.922886e+00 -1.934446e+00 -6.037481e+00 3.030764e-01 -1.592080e-01 4.874038e-01 1.912572e-01 3.782630e-01 -2.386003e-01 -2.338075e-01 9.916025e-02 1.114014e-01 -2.052863e-01 2.809056e-02 -1.419210e-01 2.343337e-01
<VARIANCE> 25
 2.865550e+01 4.412320e+01 1.808784e+02 5.478492e+01 1.047754e+02 1.037442e+02 4.916820e+01 3.696121e+01 6.957766e+01 7.085841e+01 5.017895e+01 4.409593e+01 1.538321e+00 3.286155e+00 5.289172e+00 5.167819e+00 4.560185e+00 4.796662e+00 5.224874e+00 3.968436e+00 3.143828e+00 5.404082e+00 5.434159e+00 3.078357e+00 3.710356e+00
<GCONST> 1.133009e+02
<TRANSP> 5
 0.000000e+00 1.000000e+00 0.000000e+00 0.000000e+00 0.000000e+00
 0.000000e+00 9.861330e-01 1.386700e-02 0.000000e+00 0.000000e+00
 0.000000e+00 0.000000e+00 7.813997e-01 2.186003e-01 0.000000e+00
 0.000000e+00 0.000000e+00 0.000000e+00 9.643048e-01 3.569520e-02
 0.000000e+00 0.000000e+00 0.000000e+00 0.000000e+00 0.000000e+00
<ENDHMM>
~h "don"
<BEGINHMM>
<NUMSTATES> 5
<STATE> 2
<MEAN> 25
 -6.541137e+00 3.609822e+00 -5.780616e+00 1.104344e+00 -6.912051e-01 -3.117594e-01 4.078394e+00 -1.182008e+00 8.439216e-02 2.214911e+00 -1.369304e-01 8.182573e-01 -3.878893e-02 -8.049287e-02 -3.596750e-02 -2.404688e-02 -3.114273e-03 -2.447169e-02 1.406720e-02 6.785561e-03 1.384166e-02 2.333710e-02 4.069885e-02 3.394521e-02 3.433322e-02
<VARIANCE> 25
 4.480821e+00 9.381398e+00 6.575103e+00 3.951070e+00 9.199378e+00 6.775054e+00 7.381048e+00 8.656561e+00 9.706993e+00 9.659601e+00 7.548896e+00 7.689259e+00 8.710758e-02 2.761786e-01 3.676907e-01 3.728001e-01 4.748039e-01 4.500508e-01 7.361158e-01 8.303803e-01 8.948380e-01 1.004856e+00 7.136478e-01 6.718298e-01 9.427024e-02
<GCONST> 5.888138e+01
<STATE> 3
<MEAN> 25
 -5.807323e+00 -3.109308e+00 -6.792316e+00 -7.425684e-01 1.223146e+00 -1.681546e+00 3.174711e+00 -3.812731e+00 4.139339e-01 -1.005620e+00 2.423396e+00 2.684254e+00 6.229347e-02 -5.087464e-02 4.354334e-03 1.820621e-01 -1.434219e-02 5.384043e-02 -4.109722e-02 1.217535e-02 7.905576e-02 -4.956758e-03 -1.227809e-01 -2.510904e-02 1.318314e-02
<VARIANCE> 25
 5.613936e+00 4.008786e+01 3.083946e+01 1.355752e+01 1.261303e+01 4.677414e+01 1.947466e+01 1.393316e+01 1.866285e+01 1.434302e+01 1.022049e+01 1.467606e+01 7.129009e-01 2.506882e+00 1.563043e+00 1.358399e+00 1.564082e+00 2.882144e+00 1.360080e+00 1.540033e+00 1.533252e+00 1.272827e+00 1.188399e+00 1.306407e+00 1.464648e-01
<GCONST> 8.274913e+01
<STATE> 4
<MEAN> 25
 1.117801e+01 -5.790452e+00 9.554370e+00 -2.810856e+00 2.297007e-01 -3.645074e-01 -6.479728e+00 1.699735e+00 -2.054327e+00 -3.783817e+00 6.608226e-01 -2.519977e+00 3.047252e-01 -1.104642e-01 1.682706e-01 1.572238e-01 8.109771e-04 1.395385e-01 -1.762314e-01 4.110555e-02 -2.125153e-02 -1.127171e-01 -8.590912e-02 -8.137403e-02 7.276578e-02
<VARIANCE> 25
 9.719655e+01 6.363821e+01 6.149899e+01 1.552978e+02 4.934347e+01 1.028260e+02 8.874852e+01 7.529330e+01 7.679462e+01 5.978367e+01 5.140928e+01 6.647346e+01 5.067730e+00 4.017731e+00 4.002559e+00 6.551390e+00 4.078074e+00 5.750319e+00 6.799090e+00 5.378802e+00 6.577439e+00 5.988734e+00 5.628658e+00 5.472975e+00 1.982047e+00
<GCONST> 1.185685e+02
<TRANSP> 5
 0.000000e+00 1.000000e+00 0.000000e+00 0.000000e+00 0.000000e+00
 0.000000e+00 9.863265e-01 1.367348e-02 0.000000e+00 0.000000e+00
 0.000000e+00 0.000000e+00 9.465840e-01 5.341604e-02 0.000000e+00
 0.000000e+00 0.000000e+00 0.000000e+00 9.757978e-01 2.420215e-02
 0.000000e+00 0.000000e+00 0.000000e+00 0.000000e+00 0.000000e+00
<ENDHMM>
~h "nau"
<BEGINHMM>
<NUMSTATES> 5
<STATE> 2
<MEAN> 25
 -6.835711e+00 2.991224e+00 -5.068840e+00 1.144009e+00 -4.475692e-01 1.289629e+00 1.711475e+00 -7.533136e-01 1.491812e+00 3.801120e-01 1.268136e+00 9.453528e-02 8.117263e-03 1.360069e-02 -2.284934e-02 1.224168e-02 2.172572e-02 -4.298835e-03 3.520388e-02 4.339271e-02 2.807384e-02 9.605876e-03 2.632318e-04 -2.378976e-03 8.224770e-03
<VARIANCE> 25
 3.509717e+00 4.233760e+00 4.832790e+00 4.865632e+00 1.141643e+01 1.493259e+01 1.201474e+01 9.337618e+00 8.999787e+00 9.367146e+00 8.075341e+00 7.989699e+00 8.636263e-02 2.379256e-01 3.265638e-01 4.128648e-01 4.996258e-01 7.154477e-01 7.872763e-01 9.312016e-01 8.608500e-01 7.878597e-01 6.608148e-01 6.287799e-01 7.497481e-02
<GCONST> 5.917824e+01
<STATE> 3
<MEAN> 25
 -4.274062e+00 -3.033096e+00 -7.115610e+00 5.742056e+00 2.798568e+00 1.464493e+00 -1.080563e-01 1.609017e+00 1.803347e+00 -4.416773e+00 7.025937e-01 1.380580e+00 2.436435e-01 -2.748837e-01 3.742152e-01 7.879512e-01 4.519520e-01 3.851776e-01 -1.055963e-01 -2.233796e-01 1.664334e-01 -2.814490e-01 -3.841215e-01 -2.095595e-01 3.927929e-01
<VARIANCE> 25
 6.098857e+00 2.106702e+01 9.698740e+00 1.585152e+01 5.776030e+00 1.116998e+01 1.104796e+01 1.204306e+01 1.515635e+01 2.158620e+01 2.387194e+01 1.704398e+01 3.566901e-01 9.535385e-01 7.410432e-01 1.187647e+00 6.401454e-01 1.525048e+00 1.087890e+00 1.793316e+00 1.742956e+00 2.000531e+00 1.974410e+00 9.192610e-01 1.304339e-01
<GCONST> 7.594093e+01
<STATE> 4
<MEAN> 25
 1.372505e+01 -5.856707e+00 3.232210e+00 1.303438e+01 2.442229e+00 8.871704e+00 -8.431818e+00 -5.510164e+00 2.351709e+00 -5.189714e-01 -4.705269e+00 -3.632121e+00 1.570598e+00 -7.594637e-01 8.341994e-01 -6.482205e-02 3.136770e-01 1.740617e-01 -6.845565e-01 5.213630e-02 -4.946920e-01 -3.654874e-01 -2.317207e-01 -2.197398e-01 3.250574e-01
<VARIANCE> 25
 1.116856e+02 7.419711e+01 3.299207e+01 6.567615e+01 4.557003e+01 7.200059e+01 1.053765e+02 8.730125e+01 7.544314e+01 6.735214e+01 6.330271e+01 3.584367e+01 5.199844e+00 3.303643e+00 2.206680e+00 6.793768e+00 4.985431e+00 5.699697e+00 6.950104e+00 4.635203e+00 3.821245e+00 5.037901e+00 3.222184e+00 2.030886e+00 1.171107e+00
<GCONST> 1.134982e+02
<TRANSP> 5
 0.000000e+00 1.000000e+00 0.000000e+00 0.000000e+00 0.000000e+00
 0.000000e+00 9.870039e-01 1.299618e-02 0.000000e+00 0.000000e+00
 0.000000e+00 0.000000e+00 8.446534e-01 1.553467e-01 0.000000e+00
 0.000000e+00 0.000000e+00 0.000000e+00 9.234462e-01 7.655381e-02
 0.000000e+00 0.000000e+00 0.000000e+00 0.000000e+00 0.000000e+00
<ENDHMM>
~h "sil"
<BEGINHMM>
<NUMSTATES> 5
<STATE> 2
<MEAN> 25
 2.668997e+00 1.041316e+00 1.311842e+00 1.123659e+00 4.732866e+00 1.654541e+00 2.199871e-01 2.308489e+00 1.439725e+00 4.227846e-01 1.695473e+00 2.540090e+00 -2.871563e+00 4.683802e-01 -1.562721e+00 3.354694e-02 -2.178992e+00 -2.710066e-01 1.643696e-01 -6.993867e-01 -4.303043e-01 -6.203672e-01 1.112766e-01 -6.134270e-01 6.920402e+00
<VARIANCE> 25
 1.479257e+02 5.476848e+01 4.949990e+01 4.987677e+01 8.397879e+01 4.719934e+01 4.269585e+01 5.734690e+01 4.123353e+01 3.755419e+01 3.077522e+01 3.762575e+01 9.632318e+00 6.066403e+00 4.917373e+00 6.953721e+00 6.054948e+00 7.515476e+00 4.883166e+00 6.909059e+00 4.525877e+00 3.652436e+00 5.516693e+00 4.435743e+00 4.556777e+01
<GCONST> 1.180042e+02
<STATE> 3
<MEAN> 25
 -2.619140e+00 3.266532e+00 -3.009861e+00 1.851108e+00 -4.740765e-01 9.298958e-01 2.691738e-01 2.735349e-01 -1.112708e+00 -1.096235e-01 5.616333e-01 -4.233692e-01 -2.672115e-02 -1.195453e-01 9.231432e-02 -1.988788e-02 -1.073554e-01 1.590849e-02 4.136123e-03 -4.779204e-02 -4.343583e-02 -4.130930e-02 -2.300875e-02 -5.016980e-02 6.252389e-01
<VARIANCE> 25
 1.786243e+01 1.954293e+01 1.852506e+01 1.839954e+01 2.159570e+01 1.714485e+01 1.724667e+01 1.617118e+01 1.603999e+01 1.410771e+01 1.212155e+01 1.173959e+01 1.511013e+00 1.673068e+00 1.618992e+00 1.533899e+00 1.671762e+00 1.603791e+00 1.618686e+00 1.498833e+00 1.752725e+00 1.361207e+00 1.377082e+00 1.203241e+00 4.225312e+00
<GCONST> 8.608372e+01
<STATE> 4
<MEAN> 25
 6.835005e+00 -5.186126e+00 6.988773e+00 -4.875871e+00 -1.921391e+00 -2.462867e+00 -6.504820e-01 -2.618092e-01 -9.877968e-02 -9.112664e-01 -5.958700e-01 7.722397e-01 -1.031302e-03 1.824738e-01 -8.657971e-02 1.173428e-01 4.335743e-02 8.887049e-02 2.728581e-02 2.857147e-02 -4.277395e-02 1.158524e-01 -4.602768e-02 -2.250430e-02 -2.030531e-01
<VARIANCE> 25
 1.555614e+02 7.177895e+01 9.802644e+01 8.850417e+01 1.288932e+02 9.231430e+01 7.143583e+01 6.727331e+01 6.870067e+01 6.698810e+01 5.245127e+01 4.654136e+01 3.759197e+00 2.768297e+00 3.202761e+00 3.854774e+00 4.972974e+00 4.338670e+00 4.160151e+00 3.942159e+00 4.254546e+00 5.425658e+00 3.823310e+00 2.660637e+00 1.264358e+00
<GCONST> 1.148501e+02
<TRANSP> 5
 0.000000e+00 1.000000e+00 0.000000e+00 0.000000e+00 0.000000e+00
 0.000000e+00 6.958657e-01 3.041343e-01 0.000000e+00 0.000000e+00
 0.000000e+00 0.000000e+00 9.367576e-01 6.324242e-02 0.000000e+00
 0.000000e+00 0.000000e+00 0.000000e+00 8.953463e-01 1.046537e-01
 0.000000e+00 0.000000e+00 0.000000e+00 0.000000e+00 0.000000e+00
<ENDHMM>
~h "shunya"
<BEGINHMM>
<NUMSTATES> 5
<STATE> 2
<MEAN> 25
 -5.821121e+00 7.667423e+00 -5.922374e+00 1.147263e-01 -4.971744e+00 1.754597e+00 3.095129e+00 4.838126e-01 -9.644940e-01 8.322785e-01 -3.124878e-01 1.297039e+00 -2.215794e-03 -1.472483e-02 -2.491566e-02 7.446134e-03 -3.931783e-03 -2.042777e-02 -2.001540e-02 5.323466e-03 -3.997857e-03 -1.664409e-02 4.879336e-03 9.491196e-03 4.825750e-02
<VARIANCE> 25
 1.798711e+00 8.358861e+00 4.714262e+00 7.172896e+00 1.059962e+01 1.000544e+01 1.288628e+01 1.105700e+01 8.562481e+00 8.802256e+00 6.412152e+00 7.055296e+00 1.150227e-01 4.365402e-01 3.629575e-01 4.811456e-01 5.644357e-01 6.475365e-01 8.930765e-01 7.220289e-01 7.116286e-01 7.770410e-01 5.722663e-01 6.345234e-01 1.801918e-01
<GCONST> 6.043470e+01
<STATE> 3
<MEAN> 25
 -5.417822e+00 5.937036e+00 -4.955575e+00 3.708976e-01 -3.473695e+00 1.776202e+00 3.913813e-01 1.032223e-01 1.248694e+00 1.860568e-01 -1.527919e-01 2.530931e+00 6.161122e-01 -1.282720e+00 9.663066e-01 4.518115e-01 9.455938e-01 4.050063e-01 -6.375321e-01 1.700905e-02 -4.472855e-02 -5.481565e-01 4.142927e-02 -3.073736e-01 6.508194e-01
<VARIANCE> 25
 6.138683e+00 1.026472e+01 1.067592e+01 2.049087e+01 2.321320e+01 1.018621e+01 2.038298e+01 1.297734e+01 1.239291e+01 1.658905e+01 2.073643e+01 8.578189e+00 1.221366e+00 6.773660e+00 2.892679e+00 4.256326e+00 1.882999e+00 2.121485e+00 3.010305e+00 2.395506e+00 2.414227e+00 2.503223e+00 2.444370e+00 1.478065e+00 5.879491e-01
<GCONST> 8.756545e+01
<STATE> 4
<MEAN> 25
 8.774454e+00 -1.120214e+01 8.095310e+00 3.543534e-01 6.317669e+00 -2.776893e+00 -4.553890e+00 -9.785578e-01 1.391879e+00 -1.738197e+00 -7.944120e-02 -2.234715e+00 1.495430e-01 -8.102441e-02 1.341419e-01 -2.029939e-01 1.144337e-01 -1.856958e-01 -5.294237e-03 -1.113895e-01 -3.965707e-02 7.012017e-02 3.209069e-02 -9.481767e-03 1.492742e-01
<VARIANCE> 25
 2.609098e+02 4.819916e+01 4.006107e+01 8.202843e+01 1.292856e+02 1.227716e+02 6.337110e+01 6.005640e+01 7.678938e+01 5.092823e+01 6.969081e+01 3.686138e+01 6.594360e+00 4.513468e+00 4.314866e+00 6.587040e+00 7.360108e+00 7.599939e+00 3.832057e+00 4.250812e+00 6.714863e+00 5.537467e+00 6.026332e+00 3.210611e+00 2.606202e+00
<GCONST> 1.186148e+02
<TRANSP> 5
 0.000000e+00 1.000000e+00 0.000000e+00 0.000000e+00 0.000000e+00
 0.000000e+00 9.857129e-01 1.428706e-02 0.000000e+00 0.000000e+00
 0.000000e+00 0.000000e+00 7.853186e-01 2.146814e-01 0.000000e+00
 0.000000e+00 0.000000e+00 0.000000e+00 9.841416e-01 1.585844e-02
 0.000000e+00 0.000000e+00 0.000000e+00 0.000000e+00 0.000000e+00
<ENDHMM>
~h "pach"
<BEGINHMM>
<NUMSTATES> 5
<STATE> 2
<MEAN> 25
 -3.569410e+00 4.619887e+00 -3.741870e+00 3.990995e+00 2.065183e-01 2.192056e+00 -3.186125e-01 -6.982253e-01 -7.279626e-01 -1.571888e-02 7.538795e-04 -2.408380e+00 -7.573899e-03 3.062248e-02 -2.773647e-03 -5.686463e-03 8.997038e-03 1.134257e-02 -7.148003e-03 7.231184e-03 3.177166e-02 2.244500e-02 -2.033788e-02 -5.283929e-02 6.838739e-04
<VARIANCE> 25
 1.802363e+00 2.549142e+00 6.312717e+00 6.030866e+00 5.672377e+00 7.148953e+00 5.791947e+00 7.339403e+00 8.883469e+00 6.711104e+00 8.837786e+00 7.380992e+00 8.012289e-02 1.918680e-01 2.716273e-01 3.807320e-01 4.906242e-01 6.010484e-01 6.558146e-01 7.954251e-01 7.354285e-01 6.880885e-01 6.394919e-01 7.968343e-01 5.394458e-02
<GCONST> 5.423827e+01
<STATE> 3
<MEAN> 25
 -4.350554e+00 3.536863e+00 -3.333174e+00 5.635058e+00 7.457936e-02 1.125270e+00 5.685403e-01 -5.723326e-01 2.952148e-01 5.781190e-01 1.283133e+00 -3.632111e+00 2.082595e-01 -6.094296e-01 4.559757e-01 -6.588641e-02 -2.401551e-01 -4.916957e-01 -1.186306e-01 1.975940e-01 2.012598e-01 -1.677045e-01 -2.676088e-02 5.223638e-02 1.226857e+00
<VARIANCE> 25
 3.994458e+00 1.696243e+01 9.164612e+00 4.320555e+00 4.616097e+00 3.309659e+00 9.070031e+00 3.670033e+00 8.332026e+00 1.354366e+01 6.262335e+00 8.528304e+00 5.820652e-01 2.895574e+00 1.919548e+00 7.258049e-01 1.065645e+00 7.184428e-01 1.073008e+00 8.936411e-01 1.264070e+00 1.582532e+00 8.345165e-01 9.103838e-01 3.761440e+00
<GCONST> 7.106504e+01
<STATE> 4
<MEAN> 25
 1.437611e+01 -1.417483e+01 8.722392e+00 -1.427096e+01 1.771434e+00 -9.119964e+00 -4.765314e-02 3.996820e+00 3.443914e+00 2.451219e+00 -3.245270e+00 5.244103e+00 4.957188e-01 -4.978528e-01 6.174062e-01 -6.700463e-01 4.155082e-01 -4.271647e-01 1.646673e-02 -2.613401e-01 -1.430226e-01 -4.691291e-02 -1.106434e-01 4.751068e-01 3.539386e-01
<VARIANCE> 25
 4.216431e+01 5.880367e+01 2.915750e+01 5.833714e+01 3.780395e+01 4.971071e+01 2.247447e+01 4.815415e+01 3.411721e+01 3.741532e+01 6.198773e+01 3.835693e+01 2.911180e+00 3.103976e+00 1.842355e+00 3.834442e+00 3.828434e+00 3.080861e+00 2.397889e+00 4.668658e+00 4.225274e+00 4.299451e+00 3.774867e+00 2.004500e+00 3.752882e+00
<GCONST> 1.059381e+02
<TRANSP> 5
 0.000000e+00 1.000000e+00 0.000000e+00 0.000000e+00 0.000000e+00
 0.000000e+00 9.853594e-01 1.464061e-02 0.000000e+00 0.000000e+00
 0.000000e+00 0.000000e+00 7.262263e-01 2.737738e-01 0.000000e+00
 0.000000e+00 0.000000e+00 0.000000e+00 9.604669e-01 3.953308e-02
 0.000000e+00 0.000000e+00 0.000000e+00 0.000000e+00 0.000000e+00
<ENDHMM>
~h "aath"
<BEGINHMM>
<NUMSTATES> 5
<STATE> 2
<MEAN> 25
 -4.722570e+00 3.790516e+00 -1.813485e+00 4.560184e+00 8.825691e-01 1.513282e+00 -1.083448e+00 -4.357058e-02 -1.001958e+00 -2.243877e-01 1.047078e+00 -2.270325e+00 6.122363e-03 4.454717e-02 -3.064476e-02 -2.028050e-02 -8.835514e-03 -1.313893e-02 7.343747e-03 3.416184e-03 7.609728e-03 -7.080354e-04 -1.139285e-02 -1.237334e-02 1.431657e-02
<VARIANCE> 25
 3.116182e+00 6.993756e+00 5.368010e+00 1.077457e+01 9.927080e+00 1.092082e+01 8.460401e+00 9.365703e+00 7.998413e+00 1.120511e+01 1.058851e+01 6.463330e+00 1.609870e-01 3.264815e-01 2.941680e-01 5.008078e-01 5.110356e-01 6.478667e-01 8.354323e-01 8.406337e-01 9.119532e-01 6.234715e-01 7.413570e-01 6.550904e-01 1.191307e-01
<GCONST> 6.113196e+01
<STATE> 3
<MEAN> 25
 -5.490947e+00 1.483564e+00 -7.193099e-01 1.902650e+00 -4.265255e-01 2.166397e+00 1.086546e-01 6.742535e-01 -1.113395e+00 -1.766991e+00 1.052616e+00 -1.503288e+00 -2.649446e-02 -2.660962e-01 7.027213e-02 -2.086235e-01 -3.546548e-01 7.370727e-02 3.043864e-01 9.169103e-02 2.269802e-01 -1.075158e-01 -2.239269e-01 5.570031e-02 3.599854e-01
<VARIANCE> 25
 1.097983e+01 2.995017e+01 2.103461e+01 1.508566e+01 2.092703e+01 2.464819e+01 2.049825e+01 1.123027e+01 1.704266e+01 2.269844e+01 1.376456e+01 1.047536e+01 8.990808e-01 3.640610e+00 1.753196e+00 1.823547e+00 2.447437e+00 2.476872e+00 2.285859e+00 1.674696e+00 2.893020e+00 2.610479e+00 2.170262e+00 1.245354e+00 1.747102e+00
<GCONST> 8.918275e+01
<STATE> 4
<MEAN> 25
 1.053156e+01 -8.328036e+00 2.512689e+00 -1.034615e+01 -3.269292e+00 -4.228043e+00 3.114875e+00 2.331207e+00 3.295583e+00 1.926424e+00 -5.235637e+00 5.064334e+00 6.899529e-01 -2.312632e-01 1.020529e-01 -1.320635e-01 3.399987e-01 -6.956778e-02 -2.569106e-01 -3.741084e-01 -2.430137e-01 2.181736e-01 1.456174e-01 2.199288e-01 4.619436e-02
<VARIANCE> 25
 8.624450e+01 7.349574e+01 4.377932e+01 5.555093e+01 1.342807e+02 8.683805e+01 6.715385e+01 7.282770e+01 9.349198e+01 9.637576e+01 1.063954e+02 5.898327e+01 2.993392e+00 2.629034e+00 2.641803e+00 4.717447e+00 7.457440e+00 7.082607e+00 4.514852e+00 7.061049e+00 6.393708e+00 5.413245e+00 6.905267e+00 5.502157e+00 2.476318e+00
<GCONST> 1.183103e+02
<TRANSP> 5
 0.000000e+00 1.000000e+00 0.000000e+00 0.000000e+00 0.000000e+00
 0.000000e+00 9.821918e-01 1.780817e-02 0.000000e+00 0.000000e+00
 0.000000e+00 0.000000e+00 9.158009e-01 8.419910e-02 0.000000e+00
 0.000000e+00 0.000000e+00 0.000000e+00 9.645275e-01 3.547249e-02
 0.000000e+00 0.000000e+00 0.000000e+00 0.000000e+00 0.000000e+00
<ENDHMM>
