~o
<STREAMINFO> 1 25
<VECSIZE> 25<NULLD><MFCC_D_N_Z_0><DIAGC>
~h "proto"
<BEGINHMM>
<NUMSTATES> 5
<STATE> 2
<MEAN> 25
 -9.214244e-09 3.269571e-09 1.363560e-08 -5.246175e-08 4.792893e-08 -9.437170e-09 -5.194159e-08 1.560477e-07 -4.094394e-08 2.121505e-08 -3.797161e-08 -4.532814e-09 -2.892123e-02 -4.520320e-02 -1.905636e-02 1.687049e-02 -4.539362e-02 4.983883e-03 5.368600e-03 -3.340390e-02 8.889064e-05 -9.845404e-04 -2.185627e-02 1.275718e-02 2.206732e-01
<VARIANCE> 25
 5.400438e+01 4.270322e+01 1.756232e+01 3.108022e+01 3.915583e+01 2.462078e+01 3.115146e+01 2.963555e+01 2.321824e+01 1.838884e+01 1.683302e+01 1.449596e+01 1.070209e+00 1.633186e+00 8.677058e-01 1.233272e+00 1.527098e+00 1.502046e+00 1.383645e+00 1.588511e+00 1.596889e+00 1.439277e+00 1.205637e+00 1.111278e+00 1.859629e+00
<GCONST> 8.923443e+01
<STATE> 3
<MEAN> 25
 -9.214244e-09 3.269571e-09 1.363560e-08 -5.246175e-08 4.792893e-08 -9.437170e-09 -5.194159e-08 1.560477e-07 -4.094394e-08 2.121505e-08 -3.797161e-08 -4.532814e-09 -2.892123e-02 -4.520320e-02 -1.905636e-02 1.687049e-02 -4.539362e-02 4.983883e-03 5.368600e-03 -3.340390e-02 8.889064e-05 -9.845404e-04 -2.185627e-02 1.275718e-02 2.206732e-01
<VARIANCE> 25
 5.400438e+01 4.270322e+01 1.756232e+01 3.108022e+01 3.915583e+01 2.462078e+01 3.115146e+01 2.963555e+01 2.321824e+01 1.838884e+01 1.683302e+01 1.449596e+01 1.070209e+00 1.633186e+00 8.677058e-01 1.233272e+00 1.527098e+00 1.502046e+00 1.383645e+00 1.588511e+00 1.596889e+00 1.439277e+00 1.205637e+00 1.111278e+00 1.859629e+00
<GCONST> 8.923443e+01
<STATE> 4
<MEAN> 25
 -9.214244e-09 3.269571e-09 1.363560e-08 -5.246175e-08 4.792893e-08 -9.437170e-09 -5.194159e-08 1.560477e-07 -4.094394e-08 2.121505e-08 -3.797161e-08 -4.532814e-09 -2.892123e-02 -4.520320e-02 -1.905636e-02 1.687049e-02 -4.539362e-02 4.983883e-03 5.368600e-03 -3.340390e-02 8.889064e-05 -9.845404e-04 -2.185627e-02 1.275718e-02 2.206732e-01
<VARIANCE> 25
 5.400438e+01 4.270322e+01 1.756232e+01 3.108022e+01 3.915583e+01 2.462078e+01 3.115146e+01 2.963555e+01 2.321824e+01 1.838884e+01 1.683302e+01 1.449596e+01 1.070209e+00 1.633186e+00 8.677058e-01 1.233272e+00 1.527098e+00 1.502046e+00 1.383645e+00 1.588511e+00 1.596889e+00 1.439277e+00 1.205637e+00 1.111278e+00 1.859629e+00
<GCONST> 8.923443e+01
<TRANSP> 5
 0.000000e+00 1.000000e+00 0.000000e+00 0.000000e+00 0.000000e+00
 0.000000e+00 6.000000e-01 4.000000e-01 0.000000e+00 0.000000e+00
 0.000000e+00 0.000000e+00 6.000000e-01 4.000000e-01 0.000000e+00
 0.000000e+00 0.000000e+00 0.000000e+00 7.000000e-01 3.000000e-01
 0.000000e+00 0.000000e+00 0.000000e+00 0.000000e+00 0.000000e+00
<ENDHMM>
