~o
<STREAMINFO> 1 25
<VECSIZE> 25<NULLD><MFCC_D_N_Z_0><DIAGC>
~h "ek"
<BEGINHMM>
<NUMSTATES> 5
<STATE> 2
<MEAN> 25
 -1.000008e+00 2.285559e+00 -2.700806e-01 -5.164870e-01 -8.209122e-01 -9.387360e-01 -1.534001e+00 -3.290714e+00 -8.402638e-01 1.168672e-01 -2.376606e+00 -7.635650e-01 9.788917e-01 -6.031970e-01 2.888606e-01 1.671710e+00 4.292134e-01 -1.317436e+00 -2.505156e+00 -1.600805e+00 -5.800601e-01 -3.242496e-01 -2.407930e-01 -7.089543e-01 9.714652e-01
<VARIANCE> 25
 4.217871e+00 4.092836e+00 4.386155e+00 3.227201e+00 3.176509e+00 1.245918e+01 2.145968e+01 1.069179e+01 5.193408e+00 1.026693e+01 3.826734e+00 3.441334e+00 9.498556e-01 2.007093e+00 3.003704e-01 2.791678e+00 4.474115e+00 7.028225e-01 2.388599e+00 9.039685e-01 1.427695e+00 8.540408e-01 9.532675e-01 3.702160e-01 2.895632e-01
<GCONST> 6.741557e+01
<STATE> 3
<MEAN> 25
 7.013472e+00 -5.046119e+00 4.219430e-01 1.253445e+01 7.527041e+00 -6.159351e+00 -1.468301e+01 -1.048221e+01 -4.273159e+00 -2.804349e+00 -9.786167e-01 -7.669238e-01 2.408512e+00 -2.305266e+00 7.142829e-01 3.054866e+00 8.892767e-01 -9.583819e-01 -2.216628e+00 -2.215713e+00 -1.381897e+00 -9.146719e-01 6.226951e-01 5.014169e-01 3.282492e+00
<VARIANCE> 25
 3.671029e+01 1.652075e+01 4.090772e+00 3.705144e+01 2.791218e+01 3.396451e+01 6.072212e+01 3.178202e+01 1.444705e+01 8.427003e+00 1.498775e+01 1.810519e+01 2.537603e+00 1.998056e+00 4.565617e-01 4.623401e+00 5.339201e+00 1.648762e+00 4.912209e+00 2.576340e+00 1.401316e+00 7.814013e-01 1.182132e+00 1.356566e+00 2.508712e+00
<GCONST> 9.076707e+01
<STATE> 4
<MEAN> 25
 6.546551e+00 -6.588865e+00 2.651477e+00 7.856011e+00 2.972753e-01 -2.453312e+00 -4.715433e+00 -4.872520e+00 -1.199841e+00 -1.983350e+00 -5.863276e-01 -3.024256e-01 -1.257100e-01 1.911163e-01 -5.457633e-02 -2.674320e-01 -7.498895e-02 1.906385e-01 3.695369e-01 2.886153e-01 1.239717e-01 5.392078e-02 -2.653960e-02 4.045576e-03 -2.041371e-01
<VARIANCE> 25
 2.653984e+01 6.053102e+01 1.578662e+01 1.214161e+02 9.304932e+01 9.824557e+01 1.667013e+02 4.093347e+01 2.168073e+01 2.569243e+01 1.635378e+01 1.845344e+01 1.683229e+00 4.329592e+00 1.403879e+00 4.722013e+00 5.895792e+00 3.579568e+00 3.869270e+00 2.569767e+00 1.585113e+00 2.264513e+00 1.784396e+00 1.434156e+00 3.459419e+00
<GCONST> 1.035510e+02
<TRANSP> 5
 0.000000e+00 1.000000e+00 0.000000e+00 0.000000e+00 0.000000e+00
 0.000000e+00 6.195949e-01 3.804052e-01 0.000000e+00 0.000000e+00
 0.000000e+00 0.000000e+00 6.756434e-01 3.243566e-01 0.000000e+00
 0.000000e+00 0.000000e+00 0.000000e+00 9.783660e-01 2.163395e-02
 0.000000e+00 0.000000e+00 0.000000e+00 0.000000e+00 0.000000e+00
<ENDHMM>
~h "saat"
<BEGINHMM>
<NUMSTATES> 5
<STATE> 2
<MEAN> 25
 -3.259399e+00 -4.375323e-01 5.111501e-01 5.270684e-01 -2.357754e+00 -1.589993e+00 2.341252e+00 1.171768e+00 -2.950795e+00 -9.822629e-02 1.889504e+00 -1.933241e+00 1.886502e-02 -3.230239e+00 2.097769e+00 1.452341e+00 -2.726438e+00 1.058614e+00 1.624098e+00 -1.896345e+00 -1.312992e+00 -2.274364e-02 9.527138e-01 5.431366e-01 1.585770e+00
<VARIANCE> 25
 2.600420e+00 2.495558e+01 3.494539e+01 1.915832e+01 1.794762e+01 1.289073e+01 2.381074e+01 3.505151e+01 1.742616e+01 1.390269e+01 8.305569e+00 1.410983e+01 7.938650e-01 1.872963e+00 3.359710e+00 1.415924e+00 7.508230e-01 4.217429e+00 2.188924e+00 4.846161e+00 1.528853e+00 2.249315e+00 1.090569e+00 1.053162e+00 8.139570e-01
<GCONST> 8.568934e+01
<STATE> 3
<MEAN> 25
 -1.576496e+00 -1.696993e+01 1.171633e+01 6.195561e+00 -1.355918e+01 6.184371e+00 3.265110e+00 -8.832911e+00 7.855288e-01 -1.532340e-02 1.431697e+00 2.379382e+00 1.338597e+00 -4.143845e-01 -9.197822e-02 1.895809e-02 -3.943749e-01 -3.406127e-01 -6.211698e-01 -2.666163e-01 2.399631e-01 -5.822935e-01 -3.612731e-01 4.123607e-01 1.319107e+00
<VARIANCE> 25
 1.888457e+01 3.334468e+01 3.541920e+01 1.592560e+01 1.926669e+01 2.247567e+01 1.804898e+01 1.585937e+01 1.392404e+01 1.076605e+01 1.586354e+01 8.784184e+00 4.435301e+00 5.175863e+00 4.266962e+00 1.379260e+00 2.599624e+00 3.738278e+00 1.846995e+00 3.127005e+00 1.799087e+00 1.295387e+00 1.008981e+00 8.481921e-01 9.008979e-01
<GCONST> 8.992170e+01
<STATE> 4
<MEAN> 25
 1.060963e+01 -5.517110e+00 -1.074630e+00 -1.924786e+00 -9.883170e+00 -3.868104e+00 -7.621659e-01 -1.536385e+00 3.439054e+00 6.990174e-01 -5.446593e-01 2.601604e+00 -3.178601e-01 3.345316e-01 -1.078605e-01 -5.926735e-02 3.101575e-01 4.410670e-02 8.004716e-02 1.388191e-01 5.507564e-02 2.201911e-01 -6.588028e-03 -1.683808e-01 -4.407431e-01
<VARIANCE> 25
 5.125870e+01 7.256453e+01 1.390383e+01 2.022584e+01 4.208681e+01 1.648143e+01 2.064288e+01 4.108894e+01 3.287631e+01 4.706681e+01 1.700857e+01 2.711683e+01 1.477226e+00 7.571874e+00 2.161497e+00 2.722120e+00 2.835761e+00 1.721858e+00 1.423448e+00 3.626450e+00 3.546597e+00 2.754557e+00 1.861732e+00 1.486222e+00 3.392918e+00
<GCONST> 9.850323e+01
<TRANSP> 5
 0.000000e+00 1.000000e+00 0.000000e+00 0.000000e+00 0.000000e+00
 0.000000e+00 6.870311e-01 3.129689e-01 0.000000e+00 0.000000e+00
 0.000000e+00 0.000000e+00 9.238023e-01 7.619775e-02 0.000000e+00
 0.000000e+00 0.000000e+00 0.000000e+00 9.731954e-01 2.680458e-02
 0.000000e+00 0.000000e+00 0.000000e+00 0.000000e+00 0.000000e+00
<ENDHMM>
~h "saha"
<BEGINHMM>
<NUMSTATES> 5
<STATE> 2
<MEAN> 25
 -3.923942e+00 -6.052794e+00 4.589453e+00 4.152482e+00 -5.200820e+00 2.155000e+00 5.014282e+00 -2.802038e+00 -2.640178e+00 5.301288e-01 2.577944e+00 1.122732e-01 -7.657769e-02 -3.179490e+00 2.168414e+00 1.083418e+00 -2.386679e+00 1.642978e+00 1.465139e+00 -8.590260e-01 1.003456e+00 6.989349e-02 -1.106544e-01 6.272631e-01 1.533436e+00
<VARIANCE> 25
 6.309930e+00 7.966679e+01 2.835113e+01 1.738010e+01 3.426325e+01 1.958638e+01 1.273655e+01 3.169584e+01 1.188242e+01 2.862356e+01 1.195059e+01 2.626158e+01 3.864431e-01 3.110297e+00 1.042798e+00 1.997885e+00 2.241313e+00 1.445279e+00 7.267246e-01 1.865226e+00 1.314396e+00 3.146893e+00 9.123738e-01 2.453251e+00 8.619094e-01
<GCONST> 8.692903e+01
<STATE> 3
<MEAN> 25
 2.737085e+00 -1.736389e+01 7.185707e+00 6.006036e+00 -9.510690e+00 9.925570e-01 -1.001061e+00 -5.742912e+00 3.308291e-02 -3.728525e+00 1.619353e+00 4.448765e+00 1.522278e+00 4.942844e-01 -1.064982e+00 -5.597531e-01 2.803863e-01 -1.051872e+00 -9.947252e-01 2.452985e-01 -4.345511e-02 -3.890472e-01 -8.171745e-02 1.966130e-01 1.271245e+00
<VARIANCE> 25
 9.489220e+01 6.850539e+01 7.611401e+01 3.459589e+01 3.589502e+01 8.079377e+01 4.960208e+01 3.779694e+01 3.681423e+01 4.474905e+01 1.625751e+01 1.940081e+01 4.162545e+00 6.533041e+00 3.886426e+00 1.890132e+00 3.405912e+00 5.643481e+00 2.170959e+00 2.555519e+00 5.071165e+00 3.597668e+00 2.310916e+00 1.519376e+00 1.230151e+00
<GCONST> 1.056056e+02
<STATE> 4
<MEAN> 25
 1.103868e+01 -2.137274e+00 2.369292e-01 -1.178324e+00 -6.620332e+00 -1.260133e+00 1.154783e+00 8.640470e-01 6.531960e+00 2.429443e+00 -2.784414e+00 4.736897e-01 -3.454764e-01 1.985324e-01 1.800995e-01 9.214800e-02 1.297292e-01 1.943625e-01 1.878625e-01 8.078463e-02 6.667043e-02 1.711187e-01 1.181021e-02 -1.396602e-01 -4.556893e-01
<VARIANCE> 25
 5.751055e+01 3.489628e+01 5.182605e+01 4.966607e+01 6.298907e+01 3.045568e+01 2.476623e+01 4.695714e+01 3.031299e+01 4.060366e+01 2.136477e+01 1.640290e+01 8.536260e-01 2.071948e+00 1.722631e+00 1.325411e+00 1.799115e+00 1.941531e+00 1.658888e+00 1.514225e+00 1.972966e+00 1.829618e+00 1.154513e+00 1.353095e+00 8.729568e-01
<GCONST> 9.415854e+01
<TRANSP> 5
 0.000000e+00 1.000000e+00 0.000000e+00 0.000000e+00 0.000000e+00
 0.000000e+00 8.172193e-01 1.827808e-01 0.000000e+00 0.000000e+00
 0.000000e+00 0.000000e+00 9.311448e-01 6.885514e-02 0.000000e+00
 0.000000e+00 0.000000e+00 0.000000e+00 9.793239e-01 2.067612e-02
 0.000000e+00 0.000000e+00 0.000000e+00 0.000000e+00 0.000000e+00
<ENDHMM>
~h "char"
<BEGINHMM>
<NUMSTATES> 5
<STATE> 2
<MEAN> 25
 -4.190853e+00 4.213234e+00 6.841310e-01 1.429048e-01 1.772233e+00 5.589936e-01 2.644826e+00 3.016784e+00 6.103592e-01 2.047477e+00 -1.860012e-01 -1.168292e+00 9.175314e-01 -3.136570e+00 -3.831628e-02 8.570527e-01 -2.124079e+00 -1.121507e+00 -1.121671e-01 6.432560e-02 -6.093162e-02 -1.879344e+00 -1.409344e+00 -4.221054e-01 1.824134e+00
<VARIANCE> 25
 1.015332e+00 4.270322e-01 1.422245e+00 2.072968e+00 6.663243e+00 7.153820e+00 6.035166e+00 8.543938e+00 2.224551e+00 1.762256e+00 4.073253e+00 6.403373e+00 3.935087e-01 1.341331e+00 3.684988e-01 5.043794e-01 1.578752e+00 1.076768e+00 4.478682e-01 1.759208e+00 4.855179e+00 3.015145e+00 5.048070e-01 6.170066e-01 8.417107e-01
<GCONST> 5.794236e+01
<STATE> 3
<MEAN> 25
 -2.624026e+00 3.320751e+00 -1.764697e-01 6.323010e-01 1.368658e+00 5.332425e-01 2.219931e+00 -3.467049e-01 -3.086406e+00 -9.843251e-01 -2.007601e+00 -3.342709e+00 4.089433e-01 -7.118638e+00 1.467006e+00 2.023512e+00 -3.878298e+00 -1.497613e+00 -9.904366e-01 -2.669908e-01 9.329844e-01 -2.884002e+00 -1.170488e+00 7.133127e-01 3.493555e+00
<VARIANCE> 25
 7.226452e-01 3.746064e+00 1.558257e+00 1.373701e+00 3.915583e-01 6.180800e+00 3.588151e+00 4.706183e+00 2.193930e+00 1.041858e+01 1.565906e+01 7.894095e+00 6.575772e-01 1.666825e+00 6.312388e-01 1.816348e+00 2.582348e+00 1.303159e+00 5.258098e-01 1.776406e+00 4.429456e+00 3.449059e+00 8.889582e-01 7.999055e-01 6.360180e-01
<GCONST> 6.266730e+01
<STATE> 4
<MEAN> 25
 1.219940e+01 -1.045796e+01 -1.224523e+00 1.486658e+00 -7.431870e+00 -3.672739e+00 -3.417305e+00 -3.248376e+00 2.117211e+00 -3.106966e+00 -5.563408e-01 4.931237e+00 2.227095e-01 2.678634e-01 -1.401599e-02 -9.898265e-02 4.189938e-02 7.158594e-02 4.674787e-02 5.399610e-03 7.627298e-02 1.374950e-01 1.322905e-01 6.648585e-02 6.685296e-02
<VARIANCE> 25
 5.412346e+01 7.224243e+01 4.674001e+01 5.273598e+01 4.423369e+01 2.075452e+01 3.287618e+01 5.859490e+01 6.163158e+01 5.027999e+01 2.298409e+01 3.148118e+01 2.950112e+00 6.947930e+00 3.583528e+00 3.959996e+00 4.939844e+00 2.204793e+00 2.160100e+00 4.038967e+00 4.862234e+00 3.136174e+00 1.787508e+00 2.454942e+00 2.962783e+00
<GCONST> 1.065533e+02
<TRANSP> 5
 0.000000e+00 1.000000e+00 0.000000e+00 0.000000e+00 0.000000e+00
 0.000000e+00 9.644097e-02 9.035590e-01 0.000000e+00 0.000000e+00
 0.000000e+00 0.000000e+00 3.117767e-04 9.996882e-01 0.000000e+00
 0.000000e+00 0.000000e+00 0.000000e+00 9.735286e-01 2.647142e-02
 0.000000e+00 0.000000e+00 0.000000e+00 0.000000e+00 0.000000e+00
<ENDHMM>
~h "teen"
<BEGINHMM>
<NUMSTATES> 5
<STATE> 2
<MEAN> 25
 -2.119169e+00 -5.924635e-01 -2.673291e+00 -3.480440e+00 -4.773182e+00 -2.229672e+00 -8.447762e-01 -5.566638e-01 -3.328741e-01 2.720571e+00 3.783747e+00 8.358474e-01 1.380046e+00 -4.272398e+00 1.910265e+00 1.716562e+00 -2.814695e+00 -6.663233e-03 -1.068934e+00 -1.441016e+00 1.354620e+00 2.012420e-01 -1.275463e-01 -6.777154e-01 3.042431e+00
<VARIANCE> 25
 5.514359e+00 1.339254e+01 8.010164e+00 4.197108e+00 3.643003e+01 5.974835e+00 8.429606e+00 1.486961e+01 5.598336e+00 1.145843e+01 1.573859e+01 7.070218e+00 1.643398e+00 2.515007e+00 2.312599e+00 3.105007e+00 4.973882e+00 1.118795e+00 1.922017e+00 3.894116e+00 1.227368e+00 2.300516e+00 1.402217e+00 1.060355e+00 3.755751e+00
<GCONST> 8.272899e+01
<STATE> 3
<MEAN> 25
 4.572559e+00 -1.417934e+01 7.424636e+00 9.890381e+00 -5.171669e+00 -3.453653e-01 -3.809470e+00 -5.563761e+00 1.214029e+00 -1.261549e+00 -4.107773e-02 -2.435203e+00 2.415634e+00 -2.382266e+00 2.465318e+00 5.471087e+00 3.315887e+00 5.500318e-01 -1.901240e+00 -6.128612e-01 6.627235e-01 -1.700400e+00 -1.108537e+00 7.853859e-01 3.741129e+00
<VARIANCE> 25
 2.156482e+01 5.232449e+01 2.373087e+01 6.808192e+01 9.919559e+01 1.834748e+01 6.948429e+01 3.930077e+01 2.905355e+01 2.200700e+01 1.797418e+01 2.167072e+01 7.223624e-01 1.324156e+01 3.604511e+00 1.300901e+00 7.433744e+00 1.149075e+01 1.364467e+01 8.207273e+00 1.240154e+01 1.847373e+00 1.657195e+00 3.827967e+00 2.369242e+00
<GCONST> 1.070182e+02
<STATE> 4
<MEAN> 25
 8.988235e+00 -3.033109e+00 8.068804e+00 1.164124e+01 3.738688e+00 1.328104e-01 -7.164500e+00 -6.279077e+00 2.269594e+00 -2.678761e+00 -4.354346e+00 3.784666e-01 -1.525346e-01 3.747293e-01 -2.032676e-01 -4.865112e-01 -1.463061e-01 2.807787e-02 2.192728e-01 1.091480e-01 4.160807e-03 1.913828e-01 9.608907e-02 -1.420691e-02 -3.482698e-01
<VARIANCE> 25
 2.420650e+01 7.328307e+01 1.625721e+01 5.467946e+01 1.778199e+01 8.574433e+01 1.062294e+02 4.797416e+01 3.794272e+01 2.035772e+01 2.520160e+01 1.432641e+01 9.688474e-01 1.531299e+00 1.177266e+00 1.904007e+00 1.677633e+00 5.109258e+00 1.904567e+00 2.208984e+00 1.746266e+00 1.514485e+00 1.643546e+00 1.483288e+00 8.967441e-01
<GCONST> 9.516381e+01
<TRANSP> 5
 0.000000e+00 1.000000e+00 0.000000e+00 0.000000e+00 0.000000e+00
 0.000000e+00 5.016984e-01 4.983016e-01 0.000000e+00 0.000000e+00
 0.000000e+00 0.000000e+00 6.655069e-01 3.344932e-01 0.000000e+00
 0.000000e+00 0.000000e+00 0.000000e+00 9.699199e-01 3.008007e-02
 0.000000e+00 0.000000e+00 0.000000e+00 0.000000e+00 0.000000e+00
<ENDHMM>
~h "don"
<BEGINHMM>
<NUMSTATES> 5
<STATE> 2
<MEAN> 25
 1.999738e+00 5.694273e+00 5.096587e+00 4.829900e+00 2.993594e+00 3.520071e+00 4.225885e+00 -2.160137e+00 -3.394468e+00 4.434072e-01 -1.536463e+00 -3.364538e+00 1.632562e+00 1.153017e+00 1.586810e+00 1.511597e+00 1.157073e+00 7.920198e-01 -1.677671e-01 -6.191326e-01 -7.711215e-02 -4.748872e-01 -5.608733e-01 -3.819470e-01 1.047998e+00
<VARIANCE> 25
 1.642033e+01 1.247903e+01 1.724294e+01 1.351149e+01 9.848001e+00 8.873660e+00 6.197565e+00 1.114725e+01 1.517077e+01 7.594511e+00 1.146379e+01 1.483503e+01 9.904556e-01 1.326636e+00 1.126435e+00 1.621011e+00 2.300974e+00 1.476569e+00 1.411466e+00 2.083529e+00 7.193441e-01 4.032537e-01 2.689211e+00 2.702836e+00 4.361178e-01
<GCONST> 7.840215e+01
<STATE> 3
<MEAN> 25
 1.026371e+01 7.503440e-01 6.877111e+00 1.097983e+01 4.082133e+00 -1.130787e+00 -4.724653e-01 4.390776e-01 -1.621582e+00 -4.868094e+00 -2.051906e+00 -3.344103e-01 1.273036e+00 -2.533383e+00 -5.465952e-01 -2.055439e-01 -1.689332e+00 -2.146803e+00 -1.256376e+00 1.219288e+00 5.427450e-01 -2.509920e+00 -1.175824e+00 1.128225e+00 2.631387e+00
<VARIANCE> 25
 1.074195e+01 5.673387e+01 7.160683e+00 1.385946e+01 3.302192e+01 6.418101e+01 2.269530e+01 4.635888e+01 1.209837e+01 7.673666e+01 2.288293e+01 1.351046e+01 8.268797e-01 4.600656e+00 1.169282e+00 5.481155e+00 2.559055e+00 5.658718e+00 6.329396e+00 4.360010e+00 1.893755e+00 7.446043e+00 4.028999e+00 1.082720e+00 2.453441e+00
<GCONST> 9.834283e+01
<STATE> 4
<MEAN> 25
 1.159012e+01 -2.426126e+00 5.011853e+00 4.637575e+00 -1.987315e+00 -3.512224e+00 -9.395123e+00 -2.538455e+00 7.673795e+00 -5.061540e+00 -8.908121e+00 4.559276e-01 -3.295744e-01 3.380123e-01 5.652083e-02 -7.211268e-02 1.657429e-01 3.386834e-01 1.763518e-01 -2.042768e-01 1.828120e-02 5.284606e-01 2.527917e-01 -9.086036e-02 -5.141667e-01
<VARIANCE> 25
 2.048331e+01 2.164532e+01 1.696431e+01 2.091570e+01 1.058950e+02 9.591900e+01 5.993846e+01 5.738385e+01 7.328091e+01 4.439151e+01 4.384001e+01 1.769840e+01 5.114058e-01 6.933694e-01 1.257709e+00 2.095072e+00 4.833797e+00 3.370240e+00 2.940205e+00 3.661474e+00 4.763941e+00 2.817094e+00 2.157506e+00 1.667663e+00 4.515587e-01
<GCONST> 9.820449e+01
<TRANSP> 5
 0.000000e+00 1.000000e+00 0.000000e+00 0.000000e+00 0.000000e+00
 0.000000e+00 8.342133e-01 1.657867e-01 0.000000e+00 0.000000e+00
 0.000000e+00 0.000000e+00 8.429405e-01 1.570595e-01 0.000000e+00
 0.000000e+00 0.000000e+00 0.000000e+00 9.700497e-01 2.995024e-02
 0.000000e+00 0.000000e+00 0.000000e+00 0.000000e+00 0.000000e+00
<ENDHMM>
~h "nau"
<BEGINHMM>
<NUMSTATES> 5
<STATE> 2
<MEAN> 25
 -3.710773e+00 -2.015247e+00 -1.858236e+00 -7.687459e-01 -9.919745e-01 6.932219e-01 2.802219e+00 5.278039e-01 -1.386428e+00 -1.909314e-01 3.127544e-01 4.424032e-01 -4.174893e-02 1.473375e-02 -4.740257e-03 -1.653559e-02 1.019723e-02 -3.442348e-02 -2.912170e-02 2.342182e-02 2.861311e-02 4.125560e-02 2.971182e-02 -2.007599e-02 -4.181742e-02
<VARIANCE> 25
 2.458657e+00 5.845841e+00 2.909526e+00 5.606773e+00 6.652538e+00 1.074965e+01 1.116746e+01 9.802878e+00 9.871057e+00 1.528409e+01 8.564726e+00 7.233236e+00 9.437227e-02 4.559277e-01 3.038095e-01 4.737079e-01 8.169872e-01 1.345757e+00 1.393444e+00 1.104417e+00 1.160612e+00 1.441563e+00 9.991273e-01 8.480044e-01 6.264805e-02
<GCONST> 6.253274e+01
<STATE> 3
<MEAN> 25
 -4.949996e+00 1.030287e+00 -2.228425e+00 -1.387287e+00 -2.696560e-01 -1.324936e+00 1.743269e+00 1.896221e+00 1.351996e+00 5.405122e+00 3.127026e+00 -1.184204e+00 2.895736e-01 3.577633e-01 2.699555e-01 3.078344e-01 2.157949e-01 -8.177231e-02 -1.065455e-01 3.439180e-02 8.898007e-02 4.301797e-02 -4.649690e-02 -1.478657e-01 1.263240e-01
<VARIANCE> 25
 8.353347e-01 1.483796e+00 3.146235e+00 4.125260e+00 3.865511e+00 9.302194e+00 4.211898e+00 1.238233e+01 7.320001e+00 6.441526e+00 7.436341e+00 5.346626e+00 4.587394e-01 3.910760e-01 5.735557e-01 8.936230e-01 8.421379e-01 7.451501e-01 6.299136e-01 1.133707e+00 7.911068e-01 7.947487e-01 1.208380e+00 8.819901e-01 1.902186e-01
<GCONST> 5.854860e+01
<STATE> 4
<MEAN> 25
 1.317362e+01 2.975580e-01 3.807123e+00 5.710288e+00 7.453666e-02 -5.191525e+00 -8.750860e+00 -2.515417e+00 3.792716e+00 -2.721970e+00 -3.067155e+00 1.065133e+00 1.997067e-01 1.916795e-02 1.469793e-01 7.897920e-02 -7.491288e-02 3.120789e-02 -2.315296e-02 -1.416248e-01 -5.190808e-02 -7.603870e-02 -7.576329e-02 5.194181e-02 1.707208e-01
<VARIANCE> 25
 3.945129e+01 4.696475e+01 2.505488e+01 4.081087e+01 8.290701e+01 1.172678e+02 6.354523e+01 6.866654e+01 4.565111e+01 4.736080e+01 1.323570e+01 3.466620e+01 1.871343e+00 1.986513e+00 1.351321e+00 3.737158e+00 4.133179e+00 5.380261e+00 3.548530e+00 4.781385e+00 2.415486e+00 3.536291e+00 1.911296e+00 2.518401e+00 1.982810e+00
<GCONST> 1.050385e+02
<TRANSP> 5
 0.000000e+00 1.000000e+00 0.000000e+00 0.000000e+00 0.000000e+00
 0.000000e+00 9.842460e-01 1.575398e-02 0.000000e+00 0.000000e+00
 0.000000e+00 0.000000e+00 8.774413e-01 1.225587e-01 0.000000e+00
 0.000000e+00 0.000000e+00 0.000000e+00 9.760086e-01 2.399141e-02
 0.000000e+00 0.000000e+00 0.000000e+00 0.000000e+00 0.000000e+00
<ENDHMM>
~h "sil"
<BEGINHMM>
<NUMSTATES> 5
<STATE> 2
<MEAN> 25
 1.070895e+00 1.037401e+01 2.101926e+00 -5.589570e+00 9.555243e+00 -7.727733e-01 -6.751190e-01 7.648651e+00 -8.187792e-01 1.093594e+00 5.575101e+00 -3.030001e+00 -1.134218e+00 -2.712913e-01 -3.495828e-01 -1.344920e-01 -1.759382e-01 7.739543e-02 3.195604e-02 5.637116e-02 -1.426284e-01 1.233002e-01 -6.067049e-02 -2.148565e-02 1.445721e+00
<VARIANCE> 25
 6.127075e+00 1.646095e+01 6.527625e+00 1.528429e+01 2.214456e+01 4.079302e+00 9.268829e+00 1.422341e+01 3.962315e+00 4.670576e+00 6.581949e+00 3.986978e+00 3.417911e+00 4.401345e-01 5.274274e-01 2.006381e-01 3.299363e-01 2.702724e-01 2.990975e-01 2.845559e-01 3.315026e-01 2.794114e-01 2.953684e-01 2.854134e-01 8.277955e+00
<GCONST> 6.127646e+01
<STATE> 3
<MEAN> 25
 -6.080361e+00 3.594399e+00 -1.125647e+00 -2.471246e+00 3.174880e+00 -4.794192e-01 -1.564212e+00 2.387533e+00 -2.045690e+00 -1.630179e-01 1.571393e+00 -1.353236e+00 1.560439e-01 -2.861005e-01 -7.855140e-02 2.170082e-01 -3.129027e-01 2.276625e-02 7.477047e-02 -3.147292e-01 2.248021e-02 -7.805556e-02 -2.408456e-01 7.676186e-02 1.323648e+00
<VARIANCE> 25
 8.999271e+01 5.272042e+01 1.314702e+01 4.663614e+01 3.975611e+01 1.770024e+01 2.725246e+01 3.040401e+01 2.084675e+01 1.947770e+01 1.615971e+01 1.526860e+01 2.130145e+00 1.440989e+00 8.555563e-01 1.090536e+00 1.113976e+00 1.140704e+00 1.368158e+00 1.541128e+00 1.619305e+00 1.350033e+00 1.347102e+00 1.084872e+00 4.493969e+00
<GCONST> 9.032311e+01
<STATE> 4
<MEAN> 25
 -1.955924e+00 6.937495e-01 -7.342800e-01 -5.287672e-01 6.760211e-02 8.445058e-01 1.619240e+00 1.427854e-01 -5.793493e-01 4.079842e-01 -2.238043e-02 -1.459252e-01 -6.361248e-02 5.963013e-03 -2.703027e-02 -4.048313e-02 8.901304e-03 -1.275860e-02 -1.120328e-02 2.187763e-02 -1.446263e-02 2.405966e-03 2.372312e-02 -1.939689e-03 -4.784072e-02
<VARIANCE> 25
 5.822875e+00 6.702089e+00 7.189722e+00 8.716881e+00 1.011909e+01 1.029734e+01 1.083161e+01 1.124542e+01 1.139956e+01 1.027430e+01 9.378980e+00 8.634949e+00 1.648838e-01 4.134673e-01 4.304127e-01 6.247609e-01 7.111254e-01 8.382325e-01 9.308739e-01 1.008401e+00 1.070813e+00 9.938883e-01 9.542347e-01 8.601472e-01 1.306013e-01
<GCONST> 6.560477e+01
<TRANSP> 5
 0.000000e+00 1.000000e+00 0.000000e+00 0.000000e+00 0.000000e+00
 0.000000e+00 7.528225e-01 2.471775e-01 0.000000e+00 0.000000e+00
 0.000000e+00 0.000000e+00 9.253570e-01 7.464293e-02 0.000000e+00
 0.000000e+00 0.000000e+00 0.000000e+00 9.828286e-01 1.717141e-02
 0.000000e+00 0.000000e+00 0.000000e+00 0.000000e+00 0.000000e+00
<ENDHMM>
~h "shunya"
<BEGINHMM>
<NUMSTATES> 5
<STATE> 2
<MEAN> 25
 -5.228131e+00 -3.090081e+00 5.038172e-01 8.804350e-01 -1.357629e+00 -9.803843e-02 2.753735e+00 5.190294e+00 4.686110e+00 -2.765247e-01 -2.378710e+00 -1.300914e+00 5.730274e-02 -4.359694e+00 1.081557e+00 2.712891e+00 -9.177940e-01 -6.675503e-01 -1.327035e+00 -1.015406e+00 2.414373e+00 -6.702657e-01 -1.610008e+00 2.158920e-01 1.752053e+00
<VARIANCE> 25
 8.390923e-01 3.718701e+01 8.070811e+00 2.780673e+01 7.219714e+00 1.520888e+01 1.566731e+01 3.815784e+01 2.077663e+01 8.812369e+00 1.386003e+01 7.843857e+00 3.603517e-01 2.176382e+00 5.074962e-01 1.210731e+00 2.624155e+00 5.898042e+00 1.362650e+00 8.444877e+00 9.756981e-01 3.358476e+00 1.034481e+00 5.642493e-01 6.973912e-01
<GCONST> 8.053214e+01
<STATE> 3
<MEAN> 25
 -2.155414e+00 -2.349485e+01 4.782643e+00 1.054754e+01 -3.037607e+00 2.207820e+00 -7.530836e+00 -6.289095e+00 1.079228e+01 1.854920e+00 -1.970070e+00 1.302606e+00 1.232758e+00 1.012631e-01 2.057999e-04 4.171958e-01 6.661828e-01 5.583808e-02 -6.773191e-01 -7.681310e-01 -1.028338e+00 -5.079848e-01 4.535411e-01 4.842976e-01 1.077378e+00
<VARIANCE> 25
 1.784603e+01 6.916762e+01 9.193841e+00 1.797341e+01 3.029926e+01 3.806018e+01 2.809367e+01 4.813772e+01 3.257843e+01 2.815326e+01 2.919515e+01 9.947866e+00 3.053886e+00 1.518888e+01 6.467352e-01 2.377008e+00 5.533828e+00 2.310115e+00 1.802339e+00 1.692946e+00 5.096176e+00 4.872361e+00 1.789528e+00 1.028546e+00 1.601845e+00
<GCONST> 9.714930e+01
<STATE> 4
<MEAN> 25
 1.278055e+01 -5.881016e+00 2.710138e+00 8.388591e+00 5.596651e+00 1.745461e+00 -1.213848e+01 -1.080346e+01 2.235040e+00 -3.535669e+00 -3.111835e+00 5.543217e+00 -1.431198e-01 4.764883e-01 -7.748714e-02 -2.905536e-01 -1.109078e-01 1.782177e-02 3.482058e-01 1.722448e-01 1.819183e-02 2.987175e-01 7.111206e-02 -1.330219e-01 -3.445856e-01
<VARIANCE> 25
 1.319474e+01 3.354728e+01 4.348405e+01 4.261547e+01 4.526954e+01 9.967355e+01 7.086089e+01 1.080291e+02 3.743389e+01 3.225287e+01 2.648491e+01 5.640808e+01 1.156388e+00 2.825741e+00 1.841979e+00 2.248042e+00 2.230492e+00 3.152277e+00 1.509141e+00 2.491393e+00 2.071453e+00 2.675450e+00 1.242084e+00 4.007995e+00 1.577964e+00
<GCONST> 1.009806e+02
<TRANSP> 5
 0.000000e+00 1.000000e+00 0.000000e+00 0.000000e+00 0.000000e+00
 0.000000e+00 6.715140e-01 3.284861e-01 0.000000e+00 0.000000e+00
 0.000000e+00 0.000000e+00 8.869984e-01 1.130017e-01 0.000000e+00
 0.000000e+00 0.000000e+00 0.000000e+00 9.625151e-01 3.748493e-02
 0.000000e+00 0.000000e+00 0.000000e+00 0.000000e+00 0.000000e+00
<ENDHMM>
~h "pach"
<BEGINHMM>
<NUMSTATES> 5
<STATE> 2
<MEAN> 25
 -2.756688e+00 2.000505e+00 -9.310652e-01 1.394627e-01 2.498762e+00 9.426157e-01 6.718414e-01 5.341100e-01 -9.033725e-01 1.426716e-01 -2.590308e-01 -6.127025e-01 -1.122758e-02 2.427422e-02 9.547264e-03 1.458881e-03 1.023135e-02 -5.439449e-03 -2.554959e-02 -9.632573e-03 -1.018229e-02 -1.969002e-04 2.701724e-02 2.997126e-02 -5.679619e-03
<VARIANCE> 25
 1.212739e+00 4.072001e+00 2.506701e+00 3.452080e+00 5.499658e+00 7.416714e+00 6.440816e+00 6.362970e+00 6.909342e+00 5.776540e+00 8.125673e+00 5.174210e+00 9.408773e-02 2.554543e-01 2.586766e-01 3.597237e-01 6.612085e-01 8.436136e-01 7.348841e-01 6.909512e-01 8.245268e-01 7.140323e-01 9.219431e-01 6.722739e-01 6.252231e-02
<GCONST> 5.340417e+01
<STATE> 3
<MEAN> 25
 -3.922629e+00 5.089104e-01 -1.270767e+00 1.060253e+00 2.749856e+00 -1.026522e+00 -7.155204e-01 1.285833e+00 -4.227315e-01 3.826229e-02 1.239613e+00 -9.551359e-01 1.068274e-01 2.735034e-02 -2.531112e-02 -1.174930e-01 -1.742302e-01 -2.231908e-01 -1.660018e-01 -6.417084e-02 -1.380250e-02 -8.972838e-02 1.720333e-02 -3.035588e-02 5.590030e-02
<VARIANCE> 25
 1.746572e+00 3.690289e+01 7.607973e+00 2.809921e+01 2.542948e+01 1.040469e+01 1.671980e+01 7.788401e+00 1.327820e+01 7.758286e+00 1.887435e+01 1.043030e+01 4.330694e-01 4.623208e+00 1.438046e+00 3.421931e+00 3.762100e+00 1.519783e+00 2.650248e+00 8.055323e-01 2.042810e+00 8.336303e-01 3.349137e+00 1.888596e+00 4.175595e-01
<GCONST> 8.213584e+01
<STATE> 4
<MEAN> 25
 8.413292e+00 -7.191773e+00 1.850358e+00 8.315398e-01 -9.089046e+00 -2.684764e+00 -8.481920e-01 -2.707548e+00 3.511541e+00 6.229644e-01 -7.744825e-01 2.078182e+00 8.370657e-02 -1.158929e-01 9.399191e-02 1.238600e-01 -3.826036e-02 8.185168e-02 1.136879e-01 -1.609178e-02 4.387239e-02 2.544132e-02 -4.431240e-02 3.254554e-02 1.197145e-01
<VARIANCE> 25
 6.960162e+01 9.972031e+01 3.853740e+01 3.079437e+01 5.385361e+01 4.328444e+01 2.239185e+01 3.214396e+01 3.970639e+01 3.494722e+01 2.153028e+01 2.058989e+01 3.137793e+00 6.110230e+00 1.934021e+00 2.006012e+00 3.980345e+00 3.091360e+00 1.957492e+00 2.719707e+00 3.217038e+00 3.005925e+00 2.011644e+00 1.965713e+00 3.857943e+00
<GCONST> 1.030190e+02
<TRANSP> 5
 0.000000e+00 1.000000e+00 0.000000e+00 0.000000e+00 0.000000e+00
 0.000000e+00 9.842116e-01 1.578836e-02 0.000000e+00 0.000000e+00
 0.000000e+00 0.000000e+00 9.162143e-01 8.378574e-02 0.000000e+00
 0.000000e+00 0.000000e+00 0.000000e+00 9.807727e-01 1.922732e-02
 0.000000e+00 0.000000e+00 0.000000e+00 0.000000e+00 0.000000e+00
<ENDHMM>
~h "aath"
<BEGINHMM>
<NUMSTATES> 5
<STATE> 2
<MEAN> 25
 3.770689e+00 8.104997e-01 -2.673989e+00 -6.754966e+00 -7.923113e+00 -1.404786e+00 2.662942e+00 3.882356e+00 6.446823e+00 2.290366e+00 -3.931128e+00 -2.981268e+00 3.732642e+00 -1.135234e+00 -9.845719e-01 -1.111388e+00 -2.657073e+00 -1.509737e+00 -4.100667e-01 1.160111e+00 2.063956e+00 -2.600850e-01 -1.794291e+00 -6.053644e-01 3.449698e+00
<VARIANCE> 25
 4.088644e+01 6.493660e+00 1.405686e+01 9.940839e+00 5.603032e+01 4.830844e+01 2.031026e+01 4.527355e+01 1.681862e+01 1.592214e+01 3.287248e+01 1.262633e+01 2.431318e+00 1.661708e+00 2.040412e+00 1.815404e+00 3.028928e+00 3.940816e+00 2.179855e+00 6.751213e+00 2.078358e+00 1.341770e+00 1.175837e+00 1.828421e+00 2.864524e+00
<GCONST> 9.353199e+01
<STATE> 3
<MEAN> 25
 1.882374e+01 -1.014584e+01 -4.922053e+00 -4.608803e+00 -1.464178e+01 -1.034005e+01 -2.244738e+00 5.448749e+00 1.210501e+01 2.145281e-01 -5.199852e+00 8.606856e-01 3.238379e-01 -4.189559e-01 -2.187604e-01 2.021188e-01 7.139201e-01 -8.451546e-02 -1.512884e-01 -6.258042e-01 -6.237361e-01 -1.168647e-01 6.574333e-01 5.621304e-01 9.787186e-01
<VARIANCE> 25
 1.620073e+01 1.597225e+01 3.788554e+01 1.165257e+01 6.217464e+01 2.179133e+01 1.273204e+01 5.991447e+01 2.433370e+01 2.224248e+01 2.593388e+01 1.151448e+01 2.673150e+00 3.295913e+00 1.422267e+00 1.965451e+00 3.532616e+00 3.165981e+00 1.672051e+00 2.907047e+00 3.764464e+00 1.553222e+00 1.294356e+00 1.170650e+00 2.287024e+00
<GCONST> 9.364281e+01
<STATE> 4
<MEAN> 25
 9.309996e+00 -1.441610e+00 1.472367e+00 2.453541e+00 -1.126529e+00 1.526557e+00 5.277281e-01 -3.525439e+00 -6.024020e-01 -1.652291e-01 2.750238e+00 4.223385e+00 -4.740858e-01 3.278541e-01 4.056414e-01 2.947954e-01 1.190161e-01 3.568774e-01 1.472704e-01 5.408413e-02 3.308120e-02 1.382847e-01 -6.907886e-02 -1.425158e-01 -7.547347e-01
<VARIANCE> 25
 2.993772e+01 5.608280e+01 3.432892e+01 4.709533e+01 3.750967e+01 3.146323e+01 2.269230e+01 3.540163e+01 3.327461e+01 2.415864e+01 2.000856e+01 2.329209e+01 1.864622e+00 7.236231e+00 1.421922e+00 2.711440e+00 3.841505e+00 4.618699e+00 3.582051e+00 5.373487e+00 5.063293e+00 3.519917e+00 2.133465e+00 2.447602e+00 2.730814e+00
<GCONST> 1.026799e+02
<TRANSP> 5
 0.000000e+00 1.000000e+00 0.000000e+00 0.000000e+00 0.000000e+00
 0.000000e+00 7.549959e-01 2.450040e-01 0.000000e+00 0.000000e+00
 0.000000e+00 0.000000e+00 9.281969e-01 7.180311e-02 0.000000e+00
 0.000000e+00 0.000000e+00 0.000000e+00 9.671174e-01 3.288261e-02
 0.000000e+00 0.000000e+00 0.000000e+00 0.000000e+00 0.000000e+00
<ENDHMM>
