~o
<STREAMINFO> 1 25
<VECSIZE> 25<NULLD><MFCC_D_N_Z_0><DIAGC>
~s "silst"
<MEAN> 25
 -6.739295e+00 3.333409e+00 -1.496544e+00 -2.969843e+00 2.391405e+00 -1.297594e-01 -2.416922e-01 2.480950e+00 -2.299780e+00 2.067576e-01 2.046052e+00 -1.061140e+00 9.541553e-02 -3.519246e-01 -6.602165e-02 1.842656e-01 -3.367492e-01 9.079359e-03 4.986535e-02 -2.775061e-01 5.515669e-02 -6.163228e-02 -1.777417e-01 1.347263e-01 1.265998e+00
<VARIANCE> 25
 5.742453e+01 4.606122e+01 1.567387e+01 2.904498e+01 4.244547e+01 1.717850e+01 1.822143e+01 2.711577e+01 1.993056e+01 1.619219e+01 1.410771e+01 1.583821e+01 2.090246e+00 1.911193e+00 1.012462e+00 1.405467e+00 1.482139e+00 1.387953e+00 1.347366e+00 1.800377e+00 1.962932e+00 1.424400e+00 1.288493e+00 1.058863e+00 4.556803e+00
<GCONST> 9.012945e+01
~h "ek"
<BEGINHMM>
<NUMSTATES> 5
<STATE> 2
<MEAN> 25
 -4.070105e-01 1.899101e+00 -4.032703e-01 2.436237e-01 -3.025210e-01 -2.485517e+00 -3.059718e+00 -2.607787e+00 -5.126228e-01 -4.270465e-01 -2.780252e+00 -9.087682e-01 1.082255e+00 -4.644740e-01 -1.318207e-01 1.708808e+00 1.103936e+00 -1.850069e+00 -3.171930e+00 -1.895506e+00 -8.246994e-01 -6.299653e-01 -2.317097e-01 -3.352440e-01 9.382521e-01
<VARIANCE> 25
 4.373337e+00 3.730671e+00 2.756554e+00 4.150031e+00 3.514393e+00 4.698538e+00 1.544760e+01 1.790858e+01 1.063471e+01 9.051270e+00 2.853653e+00 5.285521e+00 2.220625e-01 1.651991e+00 3.911050e-01 1.793694e+00 1.163582e+00 5.904140e-01 7.187256e-01 1.071613e+00 1.453317e+00 8.207415e-01 6.841266e-01 9.940715e-01 2.593773e-01
<GCONST> 6.333100e+01
<STATE> 3
<MEAN> 25
 9.413348e+00 -9.262882e+00 5.662290e-01 1.584873e+01 6.864827e+00 -1.144985e+01 -2.013036e+01 -1.172192e+01 -2.286500e+00 -2.807315e+00 4.004731e-01 2.195370e-01 1.921692e+00 -2.261373e+00 9.040375e-01 2.631575e+00 6.945610e-01 -1.472264e+00 -2.253380e+00 -1.187673e+00 -3.073664e-01 -4.363560e-01 5.776608e-01 4.120963e-01 3.271857e+00
<VARIANCE> 25
 2.335812e+01 2.936900e+01 7.754962e+00 2.828876e+01 1.456740e+01 2.885072e+01 2.306929e+01 2.301599e+01 1.869536e+01 6.272774e+00 1.366361e+01 2.283282e+01 1.960897e+00 2.372554e+00 7.433842e-01 3.674168e+00 2.368475e+00 1.698558e+00 4.498510e+00 3.598770e+00 2.906641e+00 1.126657e+00 1.922812e+00 9.589984e-01 1.948377e+00
<GCONST> 8.987535e+01
<STATE> 4
<MEAN> 25
 6.804839e+00 -6.414439e+00 2.762016e+00 7.708329e+00 3.417995e-01 -1.820157e+00 -3.908020e+00 -4.555268e+00 -1.345912e+00 -2.285169e+00 -7.349046e-01 -3.367806e-01 -2.739410e-01 3.622650e-01 -7.567845e-02 -5.042332e-01 -1.954518e-01 4.944623e-01 7.323595e-01 3.479105e-01 8.379319e-02 1.044885e-01 -5.348875e-02 -3.167000e-02 -4.658557e-01
<VARIANCE> 25
 2.341338e+01 6.271313e+01 1.572096e+01 1.253904e+02 9.866796e+01 9.617313e+01 1.565598e+02 3.895704e+01 2.212184e+01 2.666496e+01 1.697607e+01 1.848239e+01 1.660023e+00 4.079902e+00 1.279806e+00 4.718525e+00 6.395569e+00 3.149723e+00 2.830899e+00 2.275408e+00 1.334189e+00 2.419943e+00 1.738350e+00 1.520827e+00 2.973431e+00
<GCONST> 1.026383e+02
<TRANSP> 5
 0.000000e+00 1.000000e+00 0.000000e+00 0.000000e+00 0.000000e+00
 0.000000e+00 7.279680e-01 2.720320e-01 0.000000e+00 0.000000e+00
 0.000000e+00 0.000000e+00 8.262851e-01 1.737150e-01 0.000000e+00
 0.000000e+00 0.000000e+00 0.000000e+00 9.751697e-01 2.483028e-02
 0.000000e+00 0.000000e+00 0.000000e+00 0.000000e+00 0.000000e+00
<ENDHMM>
~h "saat"
<BEGINHMM>
<NUMSTATES> 5
<STATE> 2
<MEAN> 25
 -2.985875e+00 -2.525744e+00 1.867508e-01 9.321433e-01 -3.340636e+00 -1.118301e+00 2.746007e+00 8.941889e-02 -3.378834e+00 5.397750e-01 2.610890e+00 -1.490936e+00 6.009492e-02 -3.399207e+00 2.244804e+00 1.632929e+00 -2.653946e+00 1.155487e+00 1.372495e+00 -2.013185e+00 -9.831226e-01 3.327672e-02 9.305167e-01 7.437476e-01 1.742153e+00
<VARIANCE> 25
 2.831256e+00 5.417137e+01 3.107316e+01 1.838866e+01 2.259946e+01 1.296991e+01 2.191493e+01 4.186831e+01 1.736031e+01 1.510039e+01 1.166431e+01 1.522072e+01 7.195397e-01 1.902542e+00 3.227522e+00 1.610877e+00 6.833435e-01 3.876568e+00 2.350147e+00 4.440035e+00 2.282139e+00 1.986940e+00 9.769474e-01 1.222480e+00 8.888748e-01
<GCONST> 8.743156e+01
<STATE> 3
<MEAN> 25
 -1.611260e+00 -1.695289e+01 1.221076e+01 6.274778e+00 -1.367811e+01 6.338636e+00 3.203559e+00 -8.854214e+00 1.062701e+00 -1.943831e-01 1.198726e+00 2.393769e+00 1.374106e+00 -2.628328e-01 -2.152248e-01 -8.789705e-02 -3.367033e-01 -4.251767e-01 -6.269308e-01 -1.746667e-01 1.956718e-01 -6.169580e-01 -4.024454e-01 3.459365e-01 1.262216e+00
<VARIANCE> 25
 1.931563e+01 3.435295e+01 2.974836e+01 1.624427e+01 1.954585e+01 2.245050e+01 1.843088e+01 1.620350e+01 1.223071e+01 1.008076e+01 1.477488e+01 8.763931e+00 4.541423e+00 4.678815e+00 3.917494e+00 1.065370e+00 2.579004e+00 3.659257e+00 1.908594e+00 2.946004e+00 1.784327e+00 1.294864e+00 9.911460e-01 7.523270e-01 8.380837e-01
<GCONST> 8.891040e+01
<STATE> 4
<MEAN> 25
 1.079177e+01 -5.654412e+00 -1.097973e+00 -2.040460e+00 -1.013263e+01 -3.963941e+00 -8.151956e-01 -1.604702e+00 3.325189e+00 5.284430e-01 -5.917823e-01 2.700799e+00 -3.200105e-01 3.251437e-01 -1.221286e-01 -7.593755e-02 2.886379e-01 1.089576e-02 7.124707e-02 1.254559e-01 4.409626e-02 2.325554e-01 -2.213873e-03 -1.522061e-01 -4.403059e-01
<VARIANCE> 25
 5.120844e+01 7.357589e+01 1.420681e+01 2.012286e+01 4.054554e+01 1.647434e+01 2.091842e+01 4.165300e+01 3.289057e+01 4.704684e+01 1.731585e+01 2.738725e+01 1.520505e+00 7.746881e+00 2.212279e+00 2.771354e+00 2.867668e+00 1.711131e+00 1.452041e+00 3.705637e+00 3.606760e+00 2.798172e+00 1.882902e+00 1.504436e+00 3.479917e+00
<GCONST> 9.877016e+01
<TRANSP> 5
 0.000000e+00 1.000000e+00 0.000000e+00 0.000000e+00 0.000000e+00
 0.000000e+00 7.275648e-01 2.724352e-01 0.000000e+00 0.000000e+00
 0.000000e+00 0.000000e+00 9.210359e-01 7.896413e-02 0.000000e+00
 0.000000e+00 0.000000e+00 0.000000e+00 9.725295e-01 2.747051e-02
 0.000000e+00 0.000000e+00 0.000000e+00 0.000000e+00 0.000000e+00
<ENDHMM>
~h "saha"
<BEGINHMM>
<NUMSTATES> 5
<STATE> 2
<MEAN> 25
 -4.246105e+00 -8.253257e+00 7.125270e+00 5.336576e+00 -6.775853e+00 3.977179e+00 6.110261e+00 -3.678485e+00 -1.422047e+00 8.419169e-01 1.955668e+00 7.831687e-01 -3.310903e-02 -2.773832e+00 1.902806e+00 1.095260e+00 -1.682996e+00 1.284998e+00 8.231164e-01 -6.880630e-01 8.893332e-01 1.235089e-02 -5.692144e-02 5.704723e-01 1.506761e+00
<VARIANCE> 25
 6.981730e+00 8.032758e+01 4.143784e+01 3.073014e+01 3.394385e+01 2.462204e+01 1.396732e+01 3.365993e+01 1.404509e+01 3.038790e+01 1.132041e+01 2.415633e+01 3.222379e-01 2.765753e+00 1.100912e+00 1.623333e+00 3.123976e+00 1.661149e+00 1.921745e+00 1.676218e+00 1.120244e+00 2.377714e+00 7.958105e-01 2.049050e+00 7.246000e-01
<GCONST> 8.840302e+01
<STATE> 3
<MEAN> 25
 4.290387e+00 -1.768875e+01 5.822980e+00 5.457307e+00 -9.143572e+00 -4.774624e-01 -2.782831e+00 -5.531687e+00 -2.727669e-01 -4.724254e+00 1.864851e+00 4.806916e+00 1.725160e+00 8.520206e-01 -1.405483e+00 -8.547119e-01 2.855950e-01 -1.202506e+00 -9.729217e-01 3.365699e-01 -7.618786e-02 -3.872714e-01 -1.246617e-01 1.568408e-01 1.214491e+00
<VARIANCE> 25
 9.902650e+01 7.270726e+01 7.916602e+01 3.071193e+01 3.995571e+01 8.109005e+01 3.773237e+01 3.925515e+01 4.076542e+01 4.072570e+01 1.743817e+01 1.958682e+01 4.391357e+00 6.518188e+00 3.463921e+00 1.553215e+00 3.780590e+00 6.262313e+00 2.374561e+00 2.761777e+00 5.890512e+00 4.143260e+00 2.572086e+00 1.579839e+00 1.405803e+00
<GCONST> 1.062766e+02
<STATE> 4
<MEAN> 25
 1.197716e+01 -1.883050e+00 -1.243316e-01 -1.672658e+00 -6.895678e+00 -1.384734e+00 1.362162e+00 1.349183e+00 7.238759e+00 2.919758e+00 -3.046810e+00 3.091899e-01 -3.789189e-01 2.195757e-01 1.824384e-01 7.964477e-02 1.267431e-01 2.031160e-01 2.157079e-01 1.074009e-01 5.944530e-02 2.063486e-01 3.764573e-02 -1.603678e-01 -4.989505e-01
<VARIANCE> 25
 4.805915e+01 3.446541e+01 5.275778e+01 4.925167e+01 6.663643e+01 3.183340e+01 2.471346e+01 4.801376e+01 2.672621e+01 3.845696e+01 2.100523e+01 1.632822e+01 9.066809e-01 2.138193e+00 1.753881e+00 1.275691e+00 1.883344e+00 1.974805e+00 1.609066e+00 1.473079e+00 1.998539e+00 1.779657e+00 1.128180e+00 1.374564e+00 8.862302e-01
<GCONST> 9.396406e+01
<TRANSP> 5
 0.000000e+00 1.000000e+00 0.000000e+00 0.000000e+00 0.000000e+00
 0.000000e+00 8.672487e-01 1.327513e-01 0.000000e+00 0.000000e+00
 0.000000e+00 0.000000e+00 9.215446e-01 7.845540e-02 0.000000e+00
 0.000000e+00 0.000000e+00 0.000000e+00 9.776886e-01 2.231140e-02
 0.000000e+00 0.000000e+00 0.000000e+00 0.000000e+00 0.000000e+00
<ENDHMM>
~h "char"
<BEGINHMM>
<NUMSTATES> 5
<STATE> 2
<MEAN> 25
 -4.137972e+00 4.239759e+00 6.299492e-01 1.162248e-02 1.562189e+00 2.281781e-01 2.439384e+00 2.776544e+00 6.665819e-01 1.974079e+00 -4.254400e-01 -1.307003e+00 9.786417e-01 -3.448471e+00 -2.263384e-02 9.029140e-01 -2.369982e+00 -1.294870e+00 -2.691343e-01 2.299949e-02 4.840719e-02 -2.038088e+00 -1.472820e+00 -3.203718e-01 1.985460e+00
<VARIANCE> 25
 1.061066e+00 4.270322e-01 1.486035e+00 1.731987e+00 5.100444e+00 5.382483e+00 4.745839e+00 5.799649e+00 2.265542e+00 1.870049e+00 3.138933e+00 6.833643e+00 3.951693e-01 4.729109e-01 4.032195e-01 5.078394e-01 1.102059e+00 8.475954e-01 1.794305e-01 1.898889e+00 5.127124e+00 3.059574e+00 4.937438e-01 5.558631e-01 6.583197e-01
<GCONST> 5.387151e+01
<STATE> 3
<MEAN> 25
 -2.623738e+00 3.320495e+00 -1.768934e-01 6.328875e-01 1.369279e+00 5.336081e-01 2.220432e+00 -3.474637e-01 -3.087981e+00 -9.851156e-01 -2.007669e+00 -3.343135e+00 4.088767e-01 -7.119737e+00 1.467414e+00 2.023752e+00 -3.879053e+00 -1.497944e+00 -9.906361e-01 -2.674779e-01 9.327359e-01 -2.883905e+00 -1.170208e+00 7.134708e-01 3.494119e+00
<VARIANCE> 25
 7.225914e-01 3.746967e+00 1.557697e+00 1.372772e+00 3.915583e-01 6.182005e+00 3.588354e+00 4.705340e+00 2.185934e+00 1.041930e+01 1.566291e+01 7.894247e+00 6.577623e-01 1.663329e+00 6.308692e-01 1.816720e+00 2.581243e+00 1.303132e+00 5.258276e-01 1.776053e+00 4.430605e+00 3.449106e+00 8.889663e-01 8.000755e-01 6.351466e-01
<GCONST> 6.265950e+01
<STATE> 4
<MEAN> 25
 1.228339e+01 -1.070024e+01 -1.390907e+00 1.383645e+00 -7.579077e+00 -3.751623e+00 -3.493713e+00 -3.327351e+00 2.062963e+00 -3.173205e+00 -5.910032e-01 5.012844e+00 2.349944e-01 2.863832e-01 -6.497003e-04 -9.003618e-02 4.849087e-02 7.252049e-02 5.308127e-02 1.193804e-02 6.318289e-02 1.173394e-01 1.105784e-01 5.122566e-02 7.202369e-02
<VARIANCE> 25
 5.417295e+01 6.815331e+01 4.508566e+01 5.255517e+01 4.300060e+01 2.048145e+01 3.274478e+01 5.876527e+01 6.215109e+01 5.050223e+01 2.311733e+01 3.126533e+01 2.972302e+00 7.003387e+00 3.611744e+00 3.999535e+00 4.994578e+00 2.230439e+00 2.184757e+00 4.088406e+00 4.903712e+00 3.143782e+00 1.775773e+00 2.466100e+00 2.995931e+00
<GCONST> 1.065249e+02
<TRANSP> 5
 0.000000e+00 1.000000e+00 0.000000e+00 0.000000e+00 0.000000e+00
 0.000000e+00 0.000000e+00 1.000000e+00 0.000000e+00 0.000000e+00
 0.000000e+00 0.000000e+00 0.000000e+00 1.000000e+00 0.000000e+00
 0.000000e+00 0.000000e+00 0.000000e+00 9.732145e-01 2.678550e-02
 0.000000e+00 0.000000e+00 0.000000e+00 0.000000e+00 0.000000e+00
<ENDHMM>
~h "teen"
<BEGINHMM>
<NUMSTATES> 5
<STATE> 2
<MEAN> 25
 -2.553738e+00 -2.314716e-01 -2.670247e+00 -3.874684e+00 -3.811824e+00 -1.970423e+00 -6.312110e-01 5.563270e-01 1.645147e-01 2.845366e+00 2.690600e+00 3.185932e-01 1.491430e+00 -4.394969e+00 1.955193e+00 2.198698e+00 -2.596668e+00 -7.138910e-01 -1.464461e+00 -1.801815e+00 1.141412e+00 3.145195e-01 -6.405115e-01 -7.086816e-01 3.154172e+00
<VARIANCE> 25
 3.333466e+00 1.164231e+01 6.312256e+00 3.591131e+00 3.191277e+01 7.199456e+00 7.336944e+00 1.154322e+01 3.874319e+00 8.085317e+00 2.051914e+01 8.233125e+00 1.116860e+00 2.364061e+00 1.920983e+00 3.971646e+00 4.464979e+00 4.663221e-01 7.779558e-01 1.536608e+00 2.954009e-01 2.010625e+00 1.680556e+00 7.078785e-01 2.849335e+00
<GCONST> 7.579108e+01
<STATE> 3
<MEAN> 25
 6.138681e+00 -1.628180e+01 7.431769e+00 1.498184e+01 -1.989695e+00 -3.874257e+00 -8.238568e+00 -7.799630e+00 1.290245e+00 -1.351983e+00 -7.987232e-01 -1.638915e+00 2.743915e+00 -1.589229e+00 2.060861e+00 5.410942e+00 3.476299e+00 -8.455561e-01 -3.450507e+00 -1.886011e+00 -9.517403e-01 -2.423532e+00 -6.072499e-01 6.216906e-01 3.613250e+00
<VARIANCE> 25
 2.071612e+01 1.167135e+01 2.170822e+01 7.848164e+01 1.141645e+02 1.317354e+01 7.222064e+01 2.807729e+01 2.101525e+01 3.064850e+01 1.734842e+01 1.575014e+01 4.731417e-01 6.869219e+00 3.118326e+00 2.919946e+00 5.640351e+00 2.682585e+00 6.861289e+00 4.340483e+00 2.034458e+00 2.056950e+00 2.237658e+00 2.189665e+00 2.078075e+00
<GCONST> 9.913448e+01
<STATE> 4
<MEAN> 25
 1.001094e+01 -3.797772e+00 7.850992e+00 1.329989e+01 4.675322e+00 -2.196514e+00 -9.308559e+00 -6.559385e+00 1.105519e+00 -3.606013e+00 -3.517922e+00 -9.211765e-02 -1.860633e-01 4.222445e-01 -1.646525e-01 -5.253416e-01 -1.406445e-01 2.249863e-01 4.431260e-01 2.355067e-01 7.872082e-02 1.946246e-01 1.989921e-02 -9.308258e-02 -3.929264e-01
<VARIANCE> 25
 2.261944e+01 7.064265e+01 1.839098e+01 6.044781e+01 1.542408e+01 7.709272e+01 1.022741e+02 3.786357e+01 3.007872e+01 2.218434e+01 2.690185e+01 2.109464e+01 9.708138e-01 1.059399e+00 1.231742e+00 1.420941e+00 1.060424e+00 4.035361e+00 1.716800e+00 1.863411e+00 1.460196e+00 1.676018e+00 1.534337e+00 1.718937e+00 7.969525e-01
<GCONST> 9.336631e+01
<TRANSP> 5
 0.000000e+00 1.000000e+00 0.000000e+00 0.000000e+00 0.000000e+00
 0.000000e+00 5.725791e-01 4.274209e-01 0.000000e+00 0.000000e+00
 0.000000e+00 0.000000e+00 7.500026e-01 2.499974e-01 0.000000e+00
 0.000000e+00 0.000000e+00 0.000000e+00 9.747088e-01 2.529122e-02
 0.000000e+00 0.000000e+00 0.000000e+00 0.000000e+00 0.000000e+00
<ENDHMM>
~h "don"
<BEGINHMM>
<NUMSTATES> 5
<STATE> 2
<MEAN> 25
 1.624853e+00 5.324534e+00 4.492133e+00 4.358629e+00 2.674962e+00 3.232336e+00 4.098263e+00 -2.048426e+00 -3.296735e+00 6.778284e-01 -1.184005e+00 -3.078281e+00 1.579382e+00 1.144163e+00 1.580443e+00 1.550558e+00 1.189500e+00 7.701945e-01 -1.635702e-01 -5.518112e-01 -4.379197e-02 -4.531612e-01 -5.601198e-01 -4.663895e-01 1.001812e+00
<VARIANCE> 25
 1.762001e+01 1.381737e+01 2.093274e+01 1.573487e+01 1.096302e+01 1.023581e+01 6.398582e+00 1.058276e+01 1.406485e+01 7.584015e+00 1.262896e+01 1.634792e+01 9.663516e-01 1.212608e+00 1.033449e+00 1.506886e+00 2.214011e+00 1.477585e+00 1.440523e+00 2.077408e+00 7.999799e-01 4.314975e-01 2.447425e+00 2.552402e+00 4.414048e-01
<GCONST> 7.900806e+01
<STATE> 3
<MEAN> 25
 1.078965e+01 -3.152332e-01 6.538758e+00 1.030219e+01 2.813881e+00 -1.994251e+00 -1.077461e+00 7.094894e-01 -1.450134e+00 -6.267438e+00 -2.884223e+00 3.409107e-01 1.204819e+00 -2.217679e+00 -5.188796e-01 -6.384851e-01 -1.932836e+00 -1.951084e+00 -1.431954e+00 9.703505e-01 8.773801e-01 -2.323325e+00 -1.371603e+00 1.162183e+00 2.520080e+00
<VARIANCE> 25
 1.140509e+01 5.892439e+01 7.413751e+00 1.785603e+01 4.274941e+01 6.548138e+01 2.639217e+01 4.293287e+01 1.228214e+01 8.472576e+01 2.703929e+01 1.442549e+01 8.290575e-01 5.826427e+00 1.093558e+00 6.238775e+00 2.270067e+00 5.598002e+00 6.155643e+00 4.555839e+00 2.747056e+00 7.505804e+00 3.944918e+00 9.638089e-01 2.413571e+00
<GCONST> 9.984064e+01
<STATE> 4
<MEAN> 25
 1.317954e+01 -3.511064e+00 5.181081e+00 4.354240e+00 -2.872703e+00 -4.659538e+00 -1.202569e+01 -2.471016e+00 1.025134e+01 -5.798662e+00 -1.071231e+01 7.736772e-01 -2.732127e-01 3.443703e-01 -1.225086e-02 1.484468e-01 4.459101e-01 3.699122e-01 1.519881e-01 -2.867229e-01 -1.087772e-01 6.413400e-01 3.980372e-01 -2.225154e-01 -5.663649e-01
<VARIANCE> 25
 9.738456e+00 1.775175e+01 1.984813e+01 2.265129e+01 1.237501e+02 1.079978e+02 3.534311e+01 6.401569e+01 5.716053e+01 4.331309e+01 3.692958e+01 1.972007e+01 3.989713e-01 6.120953e-01 1.393295e+00 1.704016e+00 4.795877e+00 3.939490e+00 2.973338e+00 3.714324e+00 5.197157e+00 3.015620e+00 2.214628e+00 1.865789e+00 3.742170e-01
<GCONST> 9.682076e+01
<TRANSP> 5
 0.000000e+00 1.000000e+00 0.000000e+00 0.000000e+00 0.000000e+00
 0.000000e+00 8.497609e-01 1.502391e-01 0.000000e+00 0.000000e+00
 0.000000e+00 0.000000e+00 8.571213e-01 1.428787e-01 0.000000e+00
 0.000000e+00 0.000000e+00 0.000000e+00 9.620258e-01 3.797422e-02
 0.000000e+00 0.000000e+00 0.000000e+00 0.000000e+00 0.000000e+00
<ENDHMM>
~h "nau"
<BEGINHMM>
<NUMSTATES> 5
<STATE> 2
<MEAN> 25
 -3.676643e+00 -2.161991e+00 -1.857942e+00 -6.990195e-01 -1.025511e+00 6.487404e-01 2.869533e+00 6.600307e-01 -1.440254e+00 -3.944076e-01 3.124761e-01 5.655034e-01 -3.789470e-02 2.396028e-02 1.005411e-02 -4.469055e-03 2.011653e-02 4.776821e-03 -1.895152e-02 1.593409e-02 1.829858e-02 9.663436e-03 1.902603e-02 -1.308976e-02 -4.101408e-02
<VARIANCE> 25
 2.498388e+00 5.757148e+00 2.983099e+00 5.730795e+00 6.878887e+00 1.083532e+01 1.137554e+01 9.321534e+00 9.985476e+00 1.529095e+01 8.882664e+00 7.148972e+00 9.595052e-02 4.735105e-01 3.041084e-01 4.955006e-01 8.525344e-01 1.389707e+00 1.422317e+00 1.072419e+00 1.224564e+00 1.470341e+00 9.910704e-01 8.596653e-01 6.332414e-02
<GCONST> 6.288245e+01
<STATE> 3
<MEAN> 25
 -4.872041e+00 9.075127e-01 -2.164460e+00 -1.568035e+00 -2.942032e-01 -6.446234e-01 1.599393e+00 9.323022e-01 8.707001e-01 4.858016e+00 2.340246e+00 -1.461980e+00 1.531708e-01 2.193272e-01 7.748382e-02 1.115148e-01 7.649686e-02 -2.403969e-01 -6.163041e-02 8.067521e-02 1.106345e-01 2.320695e-01 1.797085e-02 -1.694978e-01 4.713023e-02
<VARIANCE> 25
 8.402405e-01 1.269884e+00 2.543366e+00 3.723164e+00 3.408197e+00 1.090455e+01 3.945393e+00 1.497476e+01 7.716556e+00 6.158915e+00 7.882247e+00 4.861561e+00 3.025279e-01 3.040211e-01 4.852681e-01 5.470746e-01 5.690057e-01 7.193548e-01 6.742640e-01 1.327654e+00 6.242071e-01 7.926476e-01 1.210447e+00 7.973332e-01 1.239906e-01
<GCONST> 5.591823e+01
<STATE> 4
<MEAN> 25
 1.309490e+01 3.038359e-01 3.801951e+00 5.695165e+00 8.516335e-02 -5.164594e+00 -8.692255e+00 -2.462340e+00 3.800776e+00 -2.697483e+00 -3.020487e+00 1.093200e+00 2.052054e-01 2.287870e-02 1.513064e-01 8.891169e-02 -6.401088e-02 2.928956e-02 -3.173834e-02 -1.459132e-01 -5.666340e-02 -7.996207e-02 -8.516905e-02 4.702302e-02 1.744116e-01
<VARIANCE> 25
 4.055296e+01 4.671867e+01 2.502906e+01 4.074200e+01 8.256158e+01 1.169197e+02 6.386931e+01 6.848074e+01 4.542797e+01 4.727593e+01 1.345745e+01 3.450473e+01 1.887872e+00 1.998172e+00 1.371693e+00 3.782393e+00 4.156938e+00 5.357221e+00 3.545952e+00 4.761621e+00 2.410819e+00 3.522767e+00 1.888831e+00 2.510429e+00 1.982466e+00
<GCONST> 1.050758e+02
<TRANSP> 5
 0.000000e+00 1.000000e+00 0.000000e+00 0.000000e+00 0.000000e+00
 0.000000e+00 9.833238e-01 1.667619e-02 0.000000e+00 0.000000e+00
 0.000000e+00 0.000000e+00 9.086750e-01 9.132497e-02 0.000000e+00
 0.000000e+00 0.000000e+00 0.000000e+00 9.761317e-01 2.386828e-02
 0.000000e+00 0.000000e+00 0.000000e+00 0.000000e+00 0.000000e+00
<ENDHMM>
~h "sil"
<BEGINHMM>
<NUMSTATES> 5
<STATE> 2
<MEAN> 25
 9.954301e-01 9.426041e+00 1.862924e+00 -5.024286e+00 8.664497e+00 -5.428950e-01 -5.727089e-01 6.737671e+00 -7.361540e-01 1.064181e+00 4.903074e+00 -2.902864e+00 -9.841793e-01 -2.508750e-01 -2.903058e-01 -1.173207e-01 -1.755031e-01 3.044108e-02 1.146741e-02 3.180770e-02 -1.385958e-01 1.152331e-01 2.219110e-02 2.130655e-02 1.184530e+00
<VARIANCE> 25
 4.634137e+00 2.311487e+01 6.995197e+00 1.767499e+01 2.818905e+01 4.746532e+00 1.000305e+01 2.161324e+01 3.836120e+00 4.421684e+00 9.430982e+00 4.026424e+00 2.975950e+00 4.166860e-01 4.843515e-01 2.381666e-01 3.756080e-01 3.658720e-01 3.875854e-01 3.063558e-01 3.760817e-01 3.399460e-01 3.899801e-01 3.774638e-01 6.897601e+00
<GCONST> 6.407684e+01
<STATE> 3
~s "silst"
<STATE> 4
<MEAN> 25
 -1.985627e+00 8.503379e-01 -6.666815e-01 -5.608065e-01 9.277631e-02 8.763398e-01 1.625919e+00 1.796605e-01 -5.280797e-01 4.333952e-01 -1.040759e-01 -1.951539e-01 -6.248039e-02 2.677344e-02 -3.324495e-02 -4.139658e-02 2.122092e-02 -9.164297e-03 -5.906097e-03 2.506067e-02 -1.795934e-02 5.035013e-03 1.139938e-02 -1.479414e-02 -5.915809e-02
<VARIANCE> 25
 5.051660e+00 4.669517e+00 5.671052e+00 7.497966e+00 9.141971e+00 9.199291e+00 1.018841e+01 1.072829e+01 1.064543e+01 9.770353e+00 8.573822e+00 7.692646e+00 1.222043e-01 2.568853e-01 3.483897e-01 4.949114e-01 6.225982e-01 7.603197e-01 8.949764e-01 9.322037e-01 9.734076e-01 9.379491e-01 9.193965e-01 8.268970e-01 6.261168e-02
<GCONST> 6.153334e+01
<TRANSP> 5
 0.000000e+00 1.000000e+00 0.000000e+00 0.000000e+00 0.000000e+00
 0.000000e+00 6.716746e-01 2.412738e-01 8.705165e-02 0.000000e+00
 0.000000e+00 0.000000e+00 9.277084e-01 7.229157e-02 0.000000e+00
 0.000000e+00 8.176154e-03 0.000000e+00 9.739823e-01 1.784158e-02
 0.000000e+00 0.000000e+00 0.000000e+00 0.000000e+00 0.000000e+00
<ENDHMM>
~h "shunya"
<BEGINHMM>
<NUMSTATES> 5
<STATE> 2
<MEAN> 25
 -2.793345e+00 -6.265481e+00 -1.152073e+00 3.317028e+00 9.790264e-01 -1.107671e+00 -1.159906e+00 2.441886e+00 7.157855e+00 1.250047e+00 -4.217718e+00 -3.434334e+00 1.011548e-01 -3.275644e+00 1.352921e+00 2.116676e+00 -2.076875e-01 7.095891e-01 -9.113409e-01 -1.020122e+00 1.878347e+00 -2.356790e-01 -1.135198e+00 2.116005e-01 1.536799e+00
<VARIANCE> 25
 1.026770e+01 4.395772e+01 2.023449e+01 2.538130e+01 2.863561e+01 1.659588e+01 3.606808e+01 4.044898e+01 1.520531e+01 1.594655e+01 1.463480e+01 1.231365e+01 1.803034e-01 2.803136e+00 3.402932e+00 2.589752e+00 8.082161e-01 5.555344e+00 3.731447e+00 6.768138e+00 1.652916e+00 2.407144e+00 2.317665e+00 1.420129e+00 5.814179e-01
<GCONST> 9.068950e+01
<STATE> 3
<MEAN> 25
 1.239556e+00 -2.435991e+01 6.342302e+00 9.453040e+00 -2.137042e+00 7.029162e+00 -7.766349e+00 -8.127632e+00 1.133622e+01 1.730126e+00 -1.243511e+00 2.139731e+00 1.274866e+00 3.740426e-01 4.601467e-02 1.751936e-01 4.160318e-01 1.177535e-01 -4.026840e-01 -6.884958e-01 -1.087252e+00 -9.734734e-01 9.017614e-02 7.635766e-01 1.039641e+00
<VARIANCE> 25
 3.175067e+01 5.372898e+01 6.431254e+00 2.553192e+01 2.440365e+01 2.670045e+01 2.152186e+01 3.154311e+01 3.076667e+01 2.715688e+01 2.301577e+01 1.372821e+01 3.088811e+00 1.373799e+01 1.407717e+00 2.308673e+00 5.015238e+00 1.768772e+00 1.583559e+00 1.153832e+00 4.336777e+00 3.682353e+00 2.322505e+00 7.811922e-01 1.550536e+00
<GCONST> 9.549052e+01
<STATE> 4
<MEAN> 25
 1.428048e+01 -4.237695e+00 2.593774e+00 8.467746e+00 5.286632e+00 6.932576e-01 -1.091479e+01 -9.110657e+00 1.784441e+00 -4.572204e+00 -4.340425e+00 4.507627e+00 -2.053549e-01 3.599809e-01 -9.426639e-02 -2.494867e-01 -1.561252e-01 -1.093657e-01 2.727137e-01 2.572376e-01 7.219841e-02 3.000993e-01 9.628212e-02 -2.366552e-01 -3.730611e-01
<VARIANCE> 25
 1.553248e+01 3.707682e+01 3.532037e+01 3.644498e+01 4.101688e+01 8.922477e+01 7.302398e+01 9.148815e+01 3.747300e+01 3.914982e+01 3.085871e+01 5.602531e+01 1.253970e+00 2.216485e+00 1.761820e+00 1.964614e+00 2.072665e+00 3.608341e+00 1.703874e+00 2.659096e+00 2.558789e+00 2.351756e+00 2.214631e+00 3.472904e+00 1.337585e+00
<GCONST> 1.011340e+02
<TRANSP> 5
 0.000000e+00 1.000000e+00 0.000000e+00 0.000000e+00 0.000000e+00
 0.000000e+00 7.911091e-01 2.088909e-01 0.000000e+00 0.000000e+00
 0.000000e+00 0.000000e+00 9.137101e-01 8.628986e-02 0.000000e+00
 0.000000e+00 0.000000e+00 0.000000e+00 9.727663e-01 2.723374e-02
 0.000000e+00 0.000000e+00 0.000000e+00 0.000000e+00 0.000000e+00
<ENDHMM>
~h "pach"
<BEGINHMM>
<NUMSTATES> 5
<STATE> 2
<MEAN> 25
 -2.783903e+00 2.035124e+00 -1.000091e+00 4.286225e-02 2.420432e+00 8.937443e-01 6.105978e-01 5.307256e-01 -9.217122e-01 9.029181e-02 -2.415635e-01 -6.049853e-01 -4.673308e-02 2.953292e-02 -6.228258e-03 -4.053415e-03 3.289821e-02 5.785558e-03 -7.345262e-03 7.565357e-03 -1.544934e-02 -7.075325e-03 4.714900e-02 1.273713e-02 -4.545922e-02
<VARIANCE> 25
 1.199579e+00 4.090341e+00 2.455902e+00 3.316243e+00 5.517905e+00 7.453609e+00 6.029285e+00 6.507940e+00 6.881655e+00 5.713628e+00 8.284355e+00 5.416621e+00 7.226083e-02 2.580805e-01 2.576843e-01 3.626068e-01 6.689007e-01 8.279511e-01 6.985204e-01 6.971122e-01 8.357461e-01 7.386801e-01 9.389237e-01 6.948612e-01 2.833551e-02
<GCONST> 5.236079e+01
<STATE> 3
<MEAN> 25
 -3.894215e+00 4.814947e-01 -1.268274e+00 1.065740e+00 2.714683e+00 -1.070197e+00 -7.018510e-01 1.331332e+00 -3.709778e-01 3.385438e-02 1.173390e+00 -1.052602e+00 1.072015e-01 3.929720e-02 -2.509037e-02 -1.124810e-01 -1.702321e-01 -2.292785e-01 -1.808340e-01 -7.721506e-02 -5.854522e-02 -9.787979e-02 2.342987e-02 -1.394320e-02 5.153426e-02
<VARIANCE> 25
 1.722947e+00 3.752617e+01 7.744216e+00 2.860719e+01 2.582388e+01 1.047186e+01 1.696936e+01 7.790851e+00 1.334499e+01 7.882793e+00 1.893221e+01 1.005444e+01 3.973961e-01 4.685641e+00 1.464102e+00 3.473784e+00 3.796688e+00 1.504984e+00 2.655521e+00 8.019450e-01 1.942201e+00 8.340691e-01 3.403533e+00 1.893618e+00 4.120524e-01
<GCONST> 8.211173e+01
<STATE> 4
<MEAN> 25
 8.338959e+00 -7.166162e+00 1.887006e+00 9.002355e-01 -8.995679e+00 -2.595490e+00 -7.408808e-01 -2.701553e+00 3.478513e+00 6.296808e-01 -7.686258e-01 2.085797e+00 8.386815e-02 -1.049647e-01 9.162439e-02 1.178574e-01 -4.184876e-02 6.870720e-02 9.753037e-02 -2.390617e-02 5.845845e-02 4.326080e-02 -3.041086e-02 2.492839e-02 1.166885e-01
<VARIANCE> 25
 6.926032e+01 9.863044e+01 3.822318e+01 3.084883e+01 5.396508e+01 4.342426e+01 2.306674e+01 3.177450e+01 3.946334e+01 3.463122e+01 2.132325e+01 2.039638e+01 3.109830e+00 6.049610e+00 1.911851e+00 1.987609e+00 3.948121e+00 3.086850e+00 1.974151e+00 2.699159e+00 3.207762e+00 3.001853e+00 2.006887e+00 1.949200e+00 3.816727e+00
<GCONST> 1.029117e+02
<TRANSP> 5
 0.000000e+00 1.000000e+00 0.000000e+00 0.000000e+00 0.000000e+00
 0.000000e+00 9.833778e-01 1.662226e-02 0.000000e+00 0.000000e+00
 0.000000e+00 0.000000e+00 9.146752e-01 8.532478e-02 0.000000e+00
 0.000000e+00 0.000000e+00 0.000000e+00 9.810004e-01 1.899961e-02
 0.000000e+00 0.000000e+00 0.000000e+00 0.000000e+00 0.000000e+00
<ENDHMM>
~h "aath"
<BEGINHMM>
<NUMSTATES> 5
<STATE> 2
<MEAN> 25
 5.968785e+00 -4.308273e-01 -3.082693e+00 -6.704466e+00 -9.020564e+00 -2.391057e+00 1.648444e+00 3.627933e+00 7.271257e+00 2.013529e+00 -4.729604e+00 -2.376733e+00 3.713505e+00 -1.567099e+00 -1.053768e+00 -6.250321e-01 -2.366332e+00 -1.870570e+00 -6.621038e-01 1.138626e+00 1.864917e+00 -4.258456e-01 -1.340116e+00 -5.271602e-02 3.588238e+00
<VARIANCE> 25
 5.995464e+01 1.284869e+01 1.651682e+01 1.008237e+01 6.699662e+01 4.439396e+01 2.201525e+01 5.484968e+01 1.804316e+01 1.476584e+01 3.226432e+01 1.291691e+01 2.168380e+00 2.802389e+00 1.667698e+00 2.580649e+00 2.705908e+00 3.799274e+00 2.194960e+00 5.551735e+00 1.831086e+00 1.314719e+00 1.632535e+00 2.952131e+00 2.667506e+00
<GCONST> 9.594738e+01
<STATE> 3
<MEAN> 25
 1.912591e+01 -1.048594e+01 -5.053121e+00 -4.366236e+00 -1.444961e+01 -1.051778e+01 -2.333296e+00 5.490177e+00 1.202971e+01 6.614247e-02 -4.787930e+00 1.079506e+00 3.548923e-02 -1.484574e-01 -1.343032e-01 1.388621e-01 9.176155e-01 1.975524e-01 -2.282427e-02 -8.145741e-01 -8.577218e-01 -5.396003e-02 7.093108e-01 4.730227e-01 6.646978e-01
<VARIANCE> 25
 1.606513e+01 1.456894e+01 3.945071e+01 1.116998e+01 6.289870e+01 2.175715e+01 1.411310e+01 5.668743e+01 2.719589e+01 2.393561e+01 2.657334e+01 1.218958e+01 1.643638e+00 2.473213e+00 1.369108e+00 2.020372e+00 3.433820e+00 2.420225e+00 1.493259e+00 2.875291e+00 4.187128e+00 1.566718e+00 1.368870e+00 9.297798e-01 1.383482e+00
<GCONST> 9.209709e+01
<STATE> 4
<MEAN> 25
 8.964943e+00 -1.323328e+00 1.645862e+00 2.536052e+00 -1.061964e+00 1.590798e+00 6.566771e-01 -3.478351e+00 -6.068048e-01 -6.065600e-02 2.656939e+00 4.078676e+00 -4.826492e-01 3.112103e-01 3.870318e-01 2.541867e-01 7.721864e-02 3.070562e-01 1.201510e-01 5.146004e-02 5.005600e-02 1.214883e-01 -1.035834e-01 -1.761711e-01 -7.422398e-01
<VARIANCE> 25
 2.935462e+01 5.446445e+01 3.257549e+01 4.662025e+01 3.659801e+01 3.068410e+01 2.192746e+01 3.531537e+01 3.257212e+01 2.434449e+01 2.042244e+01 2.350030e+01 1.824487e+00 7.078732e+00 1.413107e+00 2.634164e+00 3.703063e+00 4.552184e+00 3.527085e+00 5.241883e+00 4.747328e+00 3.463073e+00 2.090132e+00 2.373847e+00 2.670292e+00
<GCONST> 1.021730e+02
<TRANSP> 5
 0.000000e+00 1.000000e+00 0.000000e+00 0.000000e+00 0.000000e+00
 0.000000e+00 8.100138e-01 1.899862e-01 0.000000e+00 0.000000e+00
 0.000000e+00 0.000000e+00 9.239247e-01 7.607530e-02 0.000000e+00
 0.000000e+00 0.000000e+00 0.000000e+00 9.678982e-01 3.210182e-02
 0.000000e+00 0.000000e+00 0.000000e+00 0.000000e+00 0.000000e+00
<ENDHMM>
