~o
<STREAMINFO> 1 25
<VECSIZE> 25<NULLD><MFCC_D_N_Z_0><DIAGC>
~s "silst"
<MEAN> 25
 -5.705033e+00 2.347919e+00 -2.375502e-01 2.600774e-01 3.754806e+00 2.164446e-01 -5.362405e-01 2.483799e+00 9.519804e-01 7.726421e-01 4.677623e-01 1.088756e+00 4.869174e-01 -2.738005e-01 -2.438799e-03 -3.222944e-01 -4.130648e-01 -4.234266e-01 -2.221521e-01 -1.684227e-01 1.926047e-02 -3.032798e-01 -1.910610e-01 -1.614445e-01 8.234273e-01
<VARIANCE> 25
 7.674304e+01 3.968483e+01 3.380822e+01 2.920516e+01 3.815060e+01 4.359726e+01 4.025619e+01 3.055902e+01 2.969927e+01 2.798867e+01 2.633226e+01 2.294199e+01 9.067488e+00 3.602463e+00 3.039800e+00 3.035857e+00 4.944844e+00 4.973133e+00 4.063486e+00 3.824374e+00 3.647639e+00 3.107745e+00 3.142830e+00 2.677500e+00 3.728835e+00
<GCONST> 1.060501e+02
~h "l1_i"
<BEGINHMM>
<NUMSTATES> 5
<STATE> 2
<MEAN> 25
 3.793460e+00 -2.640989e+00 -8.808013e+00 -7.455325e+00 4.911098e+00 8.738984e+00 5.536242e-01 -5.690760e+00 1.546578e+00 -2.033387e+00 -1.730438e+00 -2.092681e+00 -2.524913e-02 -4.805434e-03 5.584107e-02 6.258639e-02 3.083718e-02 -3.886060e-02 3.637815e-02 9.414890e-02 1.791389e-02 1.052572e-01 1.021577e-02 2.449752e-02 -1.326488e-01
<VARIANCE> 25
 1.566164e+01 3.241540e+01 2.183602e+01 6.363079e+01 6.127937e+01 5.029266e+01 3.729753e+01 4.315285e+01 4.764493e+01 3.342714e+01 3.441405e+01 3.987647e+01 8.854731e-01 1.314610e+00 1.291048e+00 2.454082e+00 2.346624e+00 3.118689e+00 2.890367e+00 2.458849e+00 2.556535e+00 2.271987e+00 1.930679e+00 2.292877e+00 1.242131e+00
<GCONST> 9.814822e+01
<STATE> 3
<MEAN> 25
 -3.201231e-01 -8.517348e-01 -1.828021e+00 -2.848846e-01 1.052537e+00 -8.325922e-01 -1.174995e+00 3.768784e-01 3.620902e+00 -1.758599e-01 -1.173995e+00 -1.075306e+00 -9.458503e-02 6.717734e-02 1.911782e-01 1.003414e-01 -1.877870e-01 -1.770903e-01 6.271477e-02 4.243803e-02 -9.405676e-02 2.364518e-02 8.467158e-02 1.581240e-01 3.811545e-02
<VARIANCE> 25
 5.709061e+01 6.199110e+01 4.314979e+01 3.444854e+01 4.188221e+01 7.267928e+01 4.619900e+01 4.229812e+01 5.920038e+01 3.328316e+01 3.706195e+01 2.906964e+01 4.543622e+00 4.284081e+00 2.929032e+00 2.619802e+00 4.610564e+00 5.370987e+00 4.374840e+00 4.077347e+00 4.984235e+00 3.069523e+00 4.006436e+00 2.606014e+00 2.121533e+00
<GCONST> 1.085123e+02
<STATE> 4
<MEAN> 25
 4.395946e-01 2.538135e+00 7.011717e+00 9.353513e-01 -7.812728e+00 -2.704347e+00 6.452392e-01 -3.278640e+00 -4.873837e+00 2.493676e+00 1.575405e+00 -4.803211e-01 -7.906637e-02 1.058294e-01 -6.126886e-03 3.441750e-02 1.443191e-01 7.456911e-02 -1.368235e-02 -7.363527e-02 2.988009e-02 -6.735713e-03 -2.039727e-04 2.849041e-02 -5.136515e-02
<VARIANCE> 25
 2.752234e+01 3.178604e+01 4.463935e+01 4.091693e+01 7.970318e+01 4.659584e+01 2.862030e+01 6.547812e+01 4.432884e+01 3.183962e+01 2.110699e+01 2.809537e+01 1.955072e+00 1.601928e+00 1.730721e+00 1.975997e+00 4.377484e+00 2.293772e+00 1.904010e+00 3.105466e+00 2.522076e+00 2.051092e+00 1.518631e+00 1.867363e+00 8.470256e-01
<GCONST> 9.859912e+01
<TRANSP> 5
 0.000000e+00 1.000000e+00 0.000000e+00 0.000000e+00 0.000000e+00
 0.000000e+00 9.704089e-01 2.959111e-02 0.000000e+00 0.000000e+00
 0.000000e+00 0.000000e+00 9.673024e-01 3.269757e-02 0.000000e+00
 0.000000e+00 0.000000e+00 0.000000e+00 9.673550e-01 3.264507e-02
 0.000000e+00 0.000000e+00 0.000000e+00 0.000000e+00 0.000000e+00
<ENDHMM>
~h "l1_u"
<BEGINHMM>
<NUMSTATES> 5
<STATE> 2
<MEAN> 25
 -4.449098e+00 1.142158e+00 1.059551e-01 2.798579e+00 -2.286558e+00 -5.163025e+00 2.275417e+00 -2.606773e+00 5.440714e-01 -1.321743e-01 3.272963e+00 8.794457e+00 4.298135e-02 2.860258e-02 -1.136477e-01 -1.055602e-02 2.343896e-01 -1.422252e-01 3.250028e-01 1.751217e-01 2.820639e-01 -4.139010e-02 -4.035793e-01 2.095298e-01 -4.127314e-03
<VARIANCE> 25
 1.188563e+01 4.726621e+01 1.926254e+01 1.242628e+01 8.307832e+01 3.260214e+01 9.446763e+01 4.308071e+01 2.743619e+01 3.540831e+01 3.677281e+01 4.227803e+01 1.173632e+00 1.727095e+00 1.434603e+00 1.521536e+00 2.942042e+00 1.922001e+00 5.197683e+00 4.044105e+00 2.519922e+00 3.473890e+00 3.077088e+00 3.304003e+00 3.759222e-01
<GCONST> 9.797471e+01
<STATE> 3
<MEAN> 25
 4.882152e+00 -9.068002e-01 -4.437966e+00 -2.096573e-01 -3.223886e+00 -1.244659e+00 1.158545e+00 -1.171798e+00 3.905935e+00 1.075723e+00 -3.862611e+00 -1.613420e+00 1.923733e-01 5.922984e-02 -1.544789e-01 -4.482899e-02 1.224374e-01 2.231884e-01 -4.674414e-01 -4.492165e-01 -7.964626e-02 1.749555e-02 2.508970e-01 -4.252672e-01 -1.678148e-01
<VARIANCE> 25
 1.460754e+01 2.457833e+01 1.448278e+01 1.938878e+01 1.264689e+01 6.063534e+01 4.997978e+01 4.314762e+01 4.784793e+01 2.698293e+01 3.913988e+01 6.374591e+01 3.896796e-01 1.002838e+00 5.922242e-01 1.060767e+00 1.120236e+00 2.221949e+00 2.304187e+00 1.525448e+00 2.197174e+00 1.725011e+00 1.992820e+00 1.585181e+00 2.051725e-01
<GCONST> 8.843502e+01
<STATE> 4
<MEAN> 25
 1.405773e+00 6.588475e-01 -1.050053e+00 -8.681390e-01 -6.232879e-01 8.376981e-01 4.077038e-01 -2.898338e+00 -1.233308e+00 9.753588e-01 -1.496780e+00 -2.444635e+00 -1.235175e-02 -3.093517e-02 3.391781e-02 7.221502e-03 -2.910441e-02 -1.095016e-02 3.094712e-02 8.639965e-02 1.297274e-02 -1.602095e-02 -4.202260e-02 3.290676e-02 2.974165e-02
<VARIANCE> 25
 2.647851e+01 2.124459e+01 3.333091e+01 2.158978e+01 1.064173e+02 4.928545e+01 8.048606e+01 4.947774e+01 4.835958e+01 5.041852e+01 3.258381e+01 5.929552e+01 1.210015e+00 1.012524e+00 1.617007e+00 1.941493e+00 4.455478e+00 3.198280e+00 4.492164e+00 3.931629e+00 3.134925e+00 2.786273e+00 2.817586e+00 2.774577e+00 8.514404e-01
<GCONST> 1.020162e+02
<TRANSP> 5
 0.000000e+00 1.000000e+00 0.000000e+00 0.000000e+00 0.000000e+00
 0.000000e+00 9.642102e-01 3.578976e-02 0.000000e+00 0.000000e+00
 0.000000e+00 0.000000e+00 9.598801e-01 4.011987e-02 0.000000e+00
 0.000000e+00 0.000000e+00 0.000000e+00 9.899904e-01 1.000960e-02
 0.000000e+00 0.000000e+00 0.000000e+00 0.000000e+00 0.000000e+00
<ENDHMM>
~h "l2_i"
<BEGINHMM>
<NUMSTATES> 5
<STATE> 2
<MEAN> 25
 3.242843e+00 -3.472913e+00 -7.816822e-01 -3.201036e-01 -3.039744e+00 3.647708e+00 -5.258186e-01 -3.113073e+00 1.833655e+00 9.082524e-01 -4.796877e-01 -1.709135e+00 8.594131e-02 -2.881204e-01 -3.977347e-01 -4.011827e-01 1.778201e-01 4.852524e-01 1.355319e-01 -1.421178e-01 3.665829e-01 -9.286872e-02 -1.130296e-01 -1.736512e-01 4.145438e-01
<VARIANCE> 25
 1.790588e+01 2.409174e+01 3.271120e+01 4.674158e+01 4.818636e+01 6.504548e+01 3.903494e+01 8.605283e+01 4.898984e+01 3.569337e+01 4.402421e+01 3.608978e+01 2.375219e+00 2.404406e+00 2.902430e+00 5.538807e+00 4.618345e+00 5.502276e+00 4.759754e+00 6.776420e+00 4.338030e+00 4.106927e+00 4.865095e+00 3.083827e+00 5.851858e+00
<GCONST> 1.089369e+02
<STATE> 3
<MEAN> 25
 5.101976e+00 -2.241227e+00 -4.694801e+00 -3.792517e+00 1.895784e+00 5.902617e+00 -1.162484e+00 -6.371020e+00 3.211508e+00 -3.179166e+00 -1.003704e+00 -5.592214e+00 -2.044821e-02 2.351950e-01 1.599782e-01 2.192689e-01 -8.576220e-02 -1.368568e-01 -1.254173e-01 1.873383e-02 -1.489122e-01 -8.942171e-02 3.173175e-02 1.808559e-02 -3.405564e-01
<VARIANCE> 25
 6.991292e+00 2.469001e+01 2.466352e+01 3.461783e+01 3.464056e+01 7.282027e+01 3.457883e+01 4.196078e+01 4.567355e+01 4.585379e+01 3.023175e+01 3.088994e+01 3.847671e-01 1.589693e+00 1.379735e+00 2.054268e+00 2.364447e+00 4.110181e+00 2.308924e+00 3.770655e+00 3.208971e+00 3.813212e+00 2.473436e+00 1.929713e+00 1.532740e+00
<GCONST> 9.692970e+01
<STATE> 4
<MEAN> 25
 1.297466e+00 2.206200e+00 -2.044498e+00 -6.088761e+00 -2.115893e-02 8.144331e+00 -1.439494e+00 6.139850e-01 3.071717e+00 -1.541997e+00 1.781271e+00 -7.733969e-01 -4.382115e-01 1.058687e-01 8.038224e-02 1.161820e-02 2.148259e-01 -2.010922e-01 7.663535e-02 3.535003e-01 -1.320320e-02 1.646387e-03 7.919772e-02 1.217103e-01 1.105301e-01
<VARIANCE> 25
 8.801798e+01 4.706211e+01 2.630896e+01 5.146941e+01 6.091434e+01 6.562887e+01 3.697561e+01 6.308918e+01 3.997422e+01 3.192344e+01 3.805786e+01 2.711289e+01 5.569107e+00 2.789797e+00 2.367331e+00 3.196561e+00 4.466172e+00 3.846175e+00 3.269737e+00 4.669440e+00 3.912409e+00 2.607269e+00 2.353706e+00 2.085753e+00 2.175138e+00
<GCONST> 1.066529e+02
<TRANSP> 5
 0.000000e+00 1.000000e+00 0.000000e+00 0.000000e+00 0.000000e+00
 0.000000e+00 9.413719e-01 5.862806e-02 0.000000e+00 0.000000e+00
 0.000000e+00 0.000000e+00 9.574388e-01 4.256116e-02 0.000000e+00
 0.000000e+00 0.000000e+00 0.000000e+00 9.469065e-01 5.309349e-02
 0.000000e+00 0.000000e+00 0.000000e+00 0.000000e+00 0.000000e+00
<ENDHMM>
~h "l2_u"
<BEGINHMM>
<NUMSTATES> 5
<STATE> 2
<MEAN> 25
 3.950776e+00 -3.716003e+00 -5.484014e+00 2.376193e-01 2.157380e+00 -9.560988e-02 -1.679669e+00 -1.870226e+00 1.763897e+00 -2.611468e+00 -5.538903e+00 -1.094111e+00 1.017082e-03 9.684166e-02 8.945404e-02 -1.628904e-03 -6.029926e-02 1.521153e-01 -5.009303e-02 -1.777740e-01 -1.637704e-01 4.702300e-02 1.043916e-01 2.949670e-02 -1.347314e-01
<VARIANCE> 25
 7.859067e+00 3.874255e+01 2.466751e+01 3.254619e+01 3.861009e+01 7.090459e+01 1.971117e+01 8.434094e+01 6.539555e+01 1.078842e+02 2.772930e+01 2.289803e+01 4.176552e-01 1.571923e+00 2.019320e+00 1.293385e+00 2.156830e+00 3.190291e+00 1.965534e+00 7.427912e+00 3.602511e+00 4.705381e+00 3.227837e+00 1.861206e+00 6.251497e-01
<GCONST> 9.830222e+01
<STATE> 3
<MEAN> 25
 5.243579e+00 -1.108175e+00 -3.176567e+00 -9.721706e+00 -4.251035e+00 8.467585e+00 1.817720e+00 -7.800300e+00 -6.256759e-03 -7.514456e-01 -1.132169e+00 -1.031785e+00 -1.352391e-01 8.216549e-02 1.375487e-02 8.342604e-02 1.694880e-01 7.819973e-03 1.163212e-01 1.198771e-01 2.728075e-03 1.112707e-01 1.691193e-01 1.407668e-02 -2.895601e-01
<VARIANCE> 25
 1.241127e+01 3.580437e+01 5.940993e+01 6.016755e+01 5.611576e+01 8.707545e+01 6.248518e+01 3.702651e+01 4.672419e+01 5.935005e+01 4.781969e+01 3.361171e+01 6.185055e-01 2.284357e+00 1.424406e+00 3.651218e+00 2.504988e+00 4.188193e+00 3.138507e+00 2.947606e+00 3.552588e+00 1.986434e+00 3.111760e+00 2.505256e+00 1.268824e+00
<GCONST> 1.025914e+02
<STATE> 4
<MEAN> 25
 -1.647075e+00 4.380465e-01 -2.527841e+00 2.775874e-01 2.763477e+00 2.708905e+00 -2.360223e+00 -5.506781e-01 2.113478e+00 5.921384e-01 -2.616453e-01 5.199185e-01 -2.649693e-01 3.978102e-02 1.035047e-02 -2.601770e-02 1.405597e-01 -4.200350e-02 8.680397e-02 2.015487e-01 5.762929e-03 -5.138009e-02 1.200211e-01 1.045232e-01 1.486221e-01
<VARIANCE> 25
 1.116567e+02 4.638854e+01 5.397557e+01 4.036445e+01 4.275260e+01 4.399227e+01 1.070927e+02 5.287057e+01 5.575853e+01 2.841239e+01 2.529999e+01 2.674849e+01 7.988274e+00 3.813064e+00 3.774123e+00 4.007648e+00 3.013670e+00 4.661976e+00 7.030541e+00 3.082962e+00 4.710798e+00 2.296006e+00 1.907702e+00 2.024884e+00 1.385446e+00
<GCONST> 1.081620e+02
<TRANSP> 5
 0.000000e+00 1.000000e+00 0.000000e+00 0.000000e+00 0.000000e+00
 0.000000e+00 9.628044e-01 3.719556e-02 0.000000e+00 0.000000e+00
 0.000000e+00 0.000000e+00 9.538532e-01 4.614674e-02 0.000000e+00
 0.000000e+00 0.000000e+00 0.000000e+00 9.677486e-01 3.225130e-02
 0.000000e+00 0.000000e+00 0.000000e+00 0.000000e+00 0.000000e+00
<ENDHMM>
~h "l3_i"
<BEGINHMM>
<NUMSTATES> 5
<STATE> 2
<MEAN> 25
 -4.850514e+00 -2.640640e+00 -3.292576e+00 -2.228091e+00 3.834395e+00 -1.102891e+00 -2.142533e+00 1.881310e+00 -6.037931e-01 -3.130767e+00 -4.197608e+00 -1.704805e+00 1.522835e-01 -1.730236e-01 -9.634539e-02 -2.306370e-01 2.917783e-02 1.064177e-01 -4.416321e-02 -6.288268e-03 4.545056e-02 -1.278312e-01 -6.551628e-02 -4.471064e-02 2.425626e-01
<VARIANCE> 25
 7.554102e+01 3.182353e+01 3.791014e+01 4.337132e+01 6.929159e+01 6.460250e+01 2.430837e+01 5.428506e+01 5.353676e+01 3.139812e+01 2.991738e+01 2.871236e+01 4.515262e+00 1.815182e+00 2.363699e+00 3.425760e+00 4.152655e+00 3.462365e+00 2.454484e+00 4.196715e+00 3.109697e+00 2.563126e+00 2.893386e+00 2.999324e+00 4.038363e+00
<GCONST> 1.057369e+02
<STATE> 3
<MEAN> 25
 5.979009e+00 -2.099594e+00 -6.956150e+00 -5.267579e+00 1.190039e+00 7.608641e+00 1.132369e-02 -3.709340e+00 4.601300e+00 -1.314337e+00 3.191922e-01 -2.535650e+00 3.022053e-02 1.956026e-01 8.090177e-02 1.257380e-01 -8.581027e-02 -1.004915e-01 6.013571e-02 6.403048e-04 -1.363627e-01 -2.456085e-02 -1.752861e-02 -3.673425e-02 -2.808910e-01
<VARIANCE> 25
 1.063452e+01 2.999031e+01 1.432358e+01 5.564544e+01 3.066530e+01 5.501138e+01 4.224049e+01 5.992003e+01 3.966854e+01 4.158506e+01 4.180242e+01 4.198020e+01 5.213637e-01 1.003469e+00 1.023143e+00 1.954021e+00 1.616328e+00 2.982197e+00 2.995166e+00 3.077498e+00 2.440462e+00 2.169862e+00 2.570222e+00 1.917585e+00 7.341293e-01
<GCONST> 9.533003e+01
<STATE> 4
<MEAN> 25
 1.601195e+00 1.342082e+00 3.074790e-01 -8.616953e-01 -2.197361e+00 1.727431e+00 1.445172e-01 -1.861938e-01 2.566237e+00 1.300128e+00 -1.472389e+00 -3.206080e+00 -2.446772e-01 1.064060e-01 5.700432e-02 9.228272e-02 9.959344e-02 3.273368e-02 5.139439e-02 8.293492e-02 2.953962e-02 1.324043e-01 -1.651441e-02 7.180589e-02 -5.355327e-02
<VARIANCE> 25
 5.206291e+01 3.094370e+01 3.108423e+01 2.721343e+01 4.506495e+01 3.524378e+01 5.810120e+01 3.995417e+01 5.112546e+01 3.006976e+01 3.195228e+01 3.867846e+01 5.331768e+00 3.005056e+00 2.532851e+00 3.444080e+00 4.166918e+00 4.035970e+00 4.862679e+00 4.276749e+00 4.968362e+00 3.159709e+00 2.896332e+00 2.758636e+00 3.618516e+00
<GCONST> 1.065646e+02
<TRANSP> 5
 0.000000e+00 1.000000e+00 0.000000e+00 0.000000e+00 0.000000e+00
 0.000000e+00 9.634284e-01 3.657160e-02 0.000000e+00 0.000000e+00
 0.000000e+00 0.000000e+00 9.648251e-01 3.517492e-02 0.000000e+00
 0.000000e+00 0.000000e+00 0.000000e+00 9.684029e-01 3.159711e-02
 0.000000e+00 0.000000e+00 0.000000e+00 0.000000e+00 0.000000e+00
<ENDHMM>
~h "l3_u"
<BEGINHMM>
<NUMSTATES> 5
<STATE> 2
<MEAN> 25
 -1.073907e+00 2.790174e+00 7.675467e+00 2.007466e+00 -7.181344e+00 -4.209498e+00 9.440671e-01 -5.443048e+00 -6.573767e+00 2.182720e+00 -2.129396e-01 -3.379790e-01 -7.559922e-02 -4.896928e-02 -7.656673e-02 5.265959e-03 1.274376e-02 2.894285e-02 1.265415e-01 1.480909e-01 1.515186e-01 1.006449e-02 3.927259e-02 -5.285218e-02 -1.444307e-02
<VARIANCE> 25
 1.718972e+01 2.565549e+01 3.756762e+01 2.035073e+01 5.294751e+01 3.242247e+01 4.322189e+01 6.058266e+01 4.386014e+01 3.666894e+01 4.910518e+01 5.946461e+01 9.423015e-01 1.928825e+00 1.532719e+00 1.443708e+00 4.633241e+00 2.527010e+00 3.583159e+00 4.657055e+00 3.301744e+00 2.938925e+00 2.630479e+00 3.205668e+00 1.357407e+00
<GCONST> 1.007329e+02
<STATE> 3
<MEAN> 25
 -2.174231e+00 -8.761309e-01 1.971279e+00 1.063157e+00 1.227623e-01 -2.596819e-01 -3.310760e+00 2.635617e-01 1.701675e+00 -9.937246e-01 -1.291412e-01 1.464344e+00 1.552165e-01 -1.565229e-01 -2.376431e-01 -1.654786e-01 -1.085030e-02 9.663245e-02 -2.684872e-02 3.262138e-02 1.789519e-01 -6.634994e-02 -4.420688e-02 5.653524e-02 1.333511e-01
<VARIANCE> 25
 1.016399e+02 4.103944e+01 4.354601e+01 2.932788e+01 3.273853e+01 6.185400e+01 6.303731e+01 4.726793e+01 5.882221e+01 3.293993e+01 2.556445e+01 2.169679e+01 7.934621e+00 3.757961e+00 2.984025e+00 2.960654e+00 3.791930e+00 5.441101e+00 4.898264e+00 3.858550e+00 5.479374e+00 3.251734e+00 2.170172e+00 1.990431e+00 1.563360e+00
<GCONST> 1.072657e+02
<STATE> 4
<MEAN> 25
 4.412394e+00 -3.332825e+00 -4.835398e+00 -3.093251e+00 8.873453e-01 1.904748e+00 1.091472e+00 -2.479831e+00 1.592086e+00 -5.530643e-01 -1.932524e+00 -1.791592e+00 1.736630e-02 4.614187e-02 -1.460268e-02 -2.395915e-03 1.057718e-01 -1.257073e-02 5.608162e-02 -7.736415e-03 3.771026e-02 5.183370e-02 -3.269424e-02 1.071140e-03 -7.480785e-02
<VARIANCE> 25
 1.332985e+01 2.566444e+01 5.153559e+01 4.552915e+01 5.706913e+01 7.629012e+01 5.788096e+01 8.961205e+01 6.941270e+01 5.572010e+01 3.530215e+01 3.087408e+01 8.111790e-01 1.707883e+00 2.995256e+00 2.488922e+00 2.982169e+00 3.490894e+00 2.648855e+00 5.197343e+00 4.145853e+00 4.254544e+00 2.399662e+00 2.092409e+00 1.189552e+00
<GCONST> 1.036869e+02
<TRANSP> 5
 0.000000e+00 1.000000e+00 0.000000e+00 0.000000e+00 0.000000e+00
 0.000000e+00 9.699109e-01 3.008912e-02 0.000000e+00 0.000000e+00
 0.000000e+00 0.000000e+00 9.618315e-01 3.816846e-02 0.000000e+00
 0.000000e+00 0.000000e+00 0.000000e+00 9.761728e-01 2.382720e-02
 0.000000e+00 0.000000e+00 0.000000e+00 0.000000e+00 0.000000e+00
<ENDHMM>
~h "l4_i"
<BEGINHMM>
<NUMSTATES> 5
<STATE> 2
<MEAN> 25
 1.061367e+00 1.338954e+00 -5.802676e+00 -9.335717e+00 1.052615e+00 8.394681e+00 1.097245e+00 -3.391350e+00 1.973621e+00 6.677456e-01 2.982932e+00 -1.044551e+00 2.744169e-01 -5.689148e-02 -2.949298e-01 -3.905752e-01 2.139953e-01 4.097406e-01 3.926025e-01 -6.232746e-02 2.364482e-01 1.285217e-01 -4.735160e-02 3.897724e-02 2.082499e-01
<VARIANCE> 25
 1.120806e+02 3.821016e+01 1.991455e+01 3.720550e+01 4.301236e+01 4.575402e+01 6.413055e+01 5.515479e+01 6.148165e+01 2.567852e+01 4.203314e+01 2.243305e+01 6.176867e+00 2.710315e+00 1.378552e+00 4.176818e+00 2.255985e+00 4.709620e+00 3.598412e+00 4.490170e+00 3.702907e+00 2.081695e+00 3.366684e+00 2.729822e+00 3.132030e+00
<GCONST> 1.060025e+02
<STATE> 3
<MEAN> 25
 5.070542e+00 -3.244989e+00 -9.411983e+00 -7.679447e+00 4.848737e+00 1.135981e+01 4.114691e+00 -6.741841e+00 7.185415e+00 -1.305967e+00 -1.733195e+00 -2.493304e+00 -6.671130e-02 -2.667255e-01 1.618853e-01 3.636627e-01 -4.774332e-02 -3.039184e-01 -1.128909e-02 3.745051e-01 9.765035e-02 -2.154896e-02 -1.923774e-03 1.425424e-02 -9.182501e-02
<VARIANCE> 25
 4.095552e+00 3.544840e+01 2.032479e+01 6.050379e+01 4.758449e+01 3.818084e+01 3.080933e+01 4.743745e+01 3.517783e+01 3.568691e+01 2.190043e+01 2.675144e+01 1.957328e-01 8.656543e-01 9.224405e-01 1.006634e+00 1.894977e+00 2.156544e+00 1.407941e+00 1.781962e+00 1.338919e+00 1.457506e+00 1.275582e+00 1.581409e+00 2.358534e-01
<GCONST> 8.674374e+01
<STATE> 4
<MEAN> 25
 -8.393863e-01 1.139784e+00 4.067958e+00 -6.115823e-01 -3.087815e+00 9.912773e-01 -1.416551e+00 -3.017845e+00 -1.081435e+00 1.033193e+00 2.664805e+00 7.700413e-02 -2.794302e-01 1.128247e-01 1.426806e-01 -1.726026e-02 1.298487e-02 -2.109759e-01 -2.059910e-01 1.079679e-02 -1.099536e-01 -1.193725e-01 1.217469e-01 7.255714e-02 -7.886409e-02
<VARIANCE> 25
 6.423124e+01 2.623289e+01 3.577650e+01 3.100090e+01 6.213128e+01 5.879589e+01 5.294756e+01 6.403662e+01 4.209535e+01 3.656107e+01 2.722287e+01 2.425257e+01 4.893189e+00 2.029095e+00 2.345417e+00 2.259800e+00 6.083061e+00 4.578143e+00 2.924669e+00 3.920874e+00 3.388053e+00 3.722150e+00 3.256796e+00 2.343174e+00 3.113777e+00
<GCONST> 1.059834e+02
<TRANSP> 5
 0.000000e+00 1.000000e+00 0.000000e+00 0.000000e+00 0.000000e+00
 0.000000e+00 9.412170e-01 5.878293e-02 0.000000e+00 0.000000e+00
 0.000000e+00 0.000000e+00 9.578769e-01 4.212312e-02 0.000000e+00
 0.000000e+00 0.000000e+00 0.000000e+00 9.554410e-01 4.455899e-02
 0.000000e+00 0.000000e+00 0.000000e+00 0.000000e+00 0.000000e+00
<ENDHMM>
~h "l4_u"
<BEGINHMM>
<NUMSTATES> 5
<STATE> 2
<MEAN> 25
 -1.316800e+00 1.825817e+00 5.693435e+00 6.080266e-01 -6.102993e+00 -5.598823e+00 -2.952229e+00 -3.873739e+00 -7.584257e+00 -8.627694e-01 1.743704e-01 -3.182997e+00 -5.579310e-02 -1.165226e-01 -1.055973e-01 -1.708228e-01 2.506453e-02 -7.841262e-02 9.095961e-02 8.750660e-02 5.128020e-02 4.143955e-02 -9.053254e-02 7.069512e-02 1.712184e-01
<VARIANCE> 25
 1.862655e+01 2.896454e+01 2.375368e+01 3.070082e+01 5.763849e+01 4.536166e+01 3.420744e+01 7.679109e+01 5.794004e+01 5.200339e+01 5.176337e+01 4.339518e+01 1.812368e+00 2.529837e+00 3.015853e+00 2.169568e+00 5.860755e+00 4.553185e+00 3.194896e+00 5.998001e+00 6.499456e+00 3.323893e+00 3.597103e+00 4.906968e+00 3.706083e+00
<GCONST> 1.071916e+02
<STATE> 3
<MEAN> 25
 9.177021e-01 4.513414e-01 -3.574880e+00 -7.757347e+00 -1.602978e-01 4.621615e+00 1.432977e+00 -4.641932e+00 9.134207e-01 8.146522e-01 -1.389676e+00 2.916207e-01 -5.382381e-02 -5.110437e-02 -3.948100e-02 -1.788362e-01 1.741618e-02 1.481141e-01 1.322726e-01 9.875969e-02 1.249592e-01 1.494843e-01 -3.277543e-02 -5.204953e-02 8.961508e-02
<VARIANCE> 25
 7.473424e+01 2.453927e+01 1.983217e+01 5.512154e+01 4.687073e+01 7.450782e+01 4.219139e+01 7.310757e+01 3.915748e+01 2.746966e+01 3.740636e+01 2.834743e+01 3.102188e+00 2.161649e+00 2.162356e+00 5.247406e+00 2.837635e+00 4.676169e+00 3.608837e+00 5.242807e+00 4.328397e+00 2.761559e+00 3.572383e+00 3.167238e+00 2.991514e+00
<GCONST> 1.064580e+02
<STATE> 4
<MEAN> 25
 1.005063e+00 -6.801124e-01 -1.951643e+00 -5.054193e-01 -3.099993e-01 -1.516926e+00 1.485869e-01 -1.433151e+00 3.760688e-01 1.206723e+00 1.550501e-01 2.787666e+00 -2.014351e-02 3.054384e-02 -5.702923e-02 5.339601e-02 5.579390e-02 6.399509e-02 1.350638e-02 -6.293650e-02 -1.492052e-02 -5.647251e-02 1.512869e-02 -6.903733e-02 -2.927045e-02
<VARIANCE> 25
 3.219647e+01 2.767907e+01 4.271973e+01 2.468050e+01 1.103241e+02 5.448842e+01 6.467141e+01 4.817780e+01 4.128283e+01 7.102977e+01 7.134136e+01 1.115050e+02 1.474562e+00 1.451997e+00 2.488889e+00 1.583185e+00 2.911167e+00 3.372865e+00 4.329692e+00 3.746582e+00 3.433186e+00 3.943629e+00 3.494826e+00 3.477647e+00 7.534015e-01
<GCONST> 1.054342e+02
<TRANSP> 5
 0.000000e+00 1.000000e+00 0.000000e+00 0.000000e+00 0.000000e+00
 0.000000e+00 9.469534e-01 5.304668e-02 0.000000e+00 0.000000e+00
 0.000000e+00 0.000000e+00 9.581802e-01 4.181975e-02 0.000000e+00
 0.000000e+00 0.000000e+00 0.000000e+00 9.748471e-01 2.515291e-02
 0.000000e+00 0.000000e+00 0.000000e+00 0.000000e+00 0.000000e+00
<ENDHMM>
~h "l5_i"
<BEGINHMM>
<NUMSTATES> 5
<STATE> 2
<MEAN> 25
 3.989409e+00 -3.262769e+00 -4.537807e+00 -8.008851e-01 2.695977e+00 2.783074e+00 -2.942072e+00 -1.227188e+00 3.593966e+00 -8.150948e-01 -3.078063e+00 -5.281090e-01 2.721400e-02 -1.262031e-02 -5.439389e-02 -1.458936e-01 5.835768e-02 1.354705e-01 2.921187e-02 -2.072783e-01 4.816850e-02 6.420261e-02 7.056032e-02 -1.567644e-01 -4.636910e-02
<VARIANCE> 25
 3.607884e+01 5.052070e+01 3.948575e+01 4.269810e+01 4.887030e+01 5.639297e+01 7.050016e+01 6.280481e+01 5.373029e+01 4.415611e+01 5.178128e+01 3.612170e+01 2.810775e+00 4.210853e+00 3.180144e+00 4.063982e+00 4.389775e+00 5.315987e+00 5.737991e+00 4.498290e+00 5.206542e+00 3.835028e+00 3.162935e+00 2.935164e+00 2.293004e+00
<GCONST> 1.099911e+02
<STATE> 3
<MEAN> 25
 5.175526e+00 -2.697668e-01 -6.372417e+00 -8.942141e+00 2.203339e+00 9.586045e+00 -1.472739e+00 -9.924343e+00 3.225609e+00 -1.994724e+00 6.942267e-01 -1.726878e+00 -1.014340e-01 3.619109e-02 8.684425e-02 6.357403e-02 2.203716e-03 -7.150897e-02 1.902089e-03 1.494820e-01 -2.479180e-02 1.562953e-02 -3.307423e-02 6.580985e-02 -2.738437e-02
<VARIANCE> 25
 1.882370e+01 5.309191e+01 2.791528e+01 5.842198e+01 3.246863e+01 4.841816e+01 4.735629e+01 6.380698e+01 3.628875e+01 4.493438e+01 3.114809e+01 2.492032e+01 9.258385e-01 1.551046e+00 1.348847e+00 2.825616e+00 2.117091e+00 2.622467e+00 2.475435e+00 2.781023e+00 2.783322e+00 2.207291e+00 1.793856e+00 2.208770e+00 8.933389e-01
<GCONST> 9.809844e+01
<STATE> 4
<MEAN> 25
 2.110567e+00 -7.408240e-02 3.497577e+00 -1.402400e+00 -8.241648e+00 -2.090999e+00 -8.791575e-01 -4.244532e+00 1.922144e-01 1.657023e+00 -8.817028e-01 -3.927609e+00 -1.940022e-02 7.578906e-03 1.333862e-01 7.572186e-02 -1.466077e-02 -4.970212e-02 4.637871e-02 9.140164e-02 -6.132832e-02 -5.479779e-02 7.668244e-02 1.210728e-01 -1.257457e-01
<VARIANCE> 25
 1.393380e+01 3.447095e+01 4.764879e+01 3.146227e+01 8.369180e+01 3.877926e+01 4.264031e+01 7.561301e+01 3.588008e+01 5.512141e+01 3.986308e+01 2.696159e+01 6.037156e-01 1.375813e+00 1.385142e+00 1.365833e+00 3.614632e+00 2.464514e+00 2.378479e+00 3.898089e+00 2.482210e+00 2.521335e+00 1.990839e+00 2.388169e+00 9.075212e-01
<GCONST> 9.832892e+01
<TRANSP> 5
 0.000000e+00 1.000000e+00 0.000000e+00 0.000000e+00 0.000000e+00
 0.000000e+00 9.519069e-01 4.809312e-02 0.000000e+00 0.000000e+00
 0.000000e+00 0.000000e+00 9.529541e-01 4.704585e-02 0.000000e+00
 0.000000e+00 0.000000e+00 0.000000e+00 9.595490e-01 4.045102e-02
 0.000000e+00 0.000000e+00 0.000000e+00 0.000000e+00 0.000000e+00
<ENDHMM>
~h "l5_u"
<BEGINHMM>
<NUMSTATES> 5
<STATE> 2
<MEAN> 25
 5.459442e+00 -3.608328e-01 -3.722974e+00 -5.359683e+00 -3.551304e-01 5.732099e+00 2.342360e+00 -2.547764e+00 1.080995e+00 -1.210183e+00 2.489136e+00 5.538685e-01 4.572282e-02 -3.998314e-02 -1.689643e-01 -9.022056e-02 6.873854e-02 4.120350e-03 8.644868e-02 6.711370e-02 1.039196e-01 -1.680209e-02 -1.975144e-01 1.285367e-03 2.556439e-01
<VARIANCE> 25
 2.787724e+01 2.461614e+01 2.244811e+01 7.770411e+01 3.692101e+01 4.093052e+01 3.523547e+01 5.463029e+01 2.615990e+01 1.757694e+01 4.603944e+01 2.085684e+01 2.268247e+00 2.001509e+00 1.811742e+00 6.997453e+00 2.564962e+00 3.115134e+00 2.955040e+00 4.288756e+00 2.886575e+00 2.587818e+00 4.119124e+00 2.333715e+00 2.695045e+00
<GCONST> 1.017594e+02
<STATE> 3
<MEAN> 25
 3.071988e+00 -8.043051e-02 -2.413800e+00 -9.076082e-01 -1.560614e+00 1.303182e+00 -1.256062e+00 -5.038555e+00 3.127426e-02 -9.174671e-01 -3.276066e+00 -1.647182e+00 -2.693232e-02 1.301795e-01 6.131910e-02 1.014159e-01 -8.453620e-02 -2.297750e-03 6.208283e-02 -7.195033e-02 -1.471538e-01 -1.029154e-02 1.200692e-01 -9.137277e-03 -1.518528e-01
<VARIANCE> 25
 1.374650e+01 3.810002e+01 4.403474e+01 2.873270e+01 7.594732e+01 5.256124e+01 5.177472e+01 6.555886e+01 7.832208e+01 3.883240e+01 4.107051e+01 2.525511e+01 7.933387e-01 2.090267e+00 2.540343e+00 2.160365e+00 4.606468e+00 3.844728e+00 4.800764e+00 5.085927e+00 5.378373e+00 2.800169e+00 4.100321e+00 2.567674e+00 1.078686e+00
<GCONST> 1.041569e+02
<STATE> 4
<MEAN> 25
 5.658160e-01 -4.338911e-02 -2.109672e+00 -6.395745e-01 1.610990e+00 2.148903e+00 -1.571970e+00 -8.277909e-01 2.307185e+00 9.441808e-01 2.141874e+00 -9.777446e-01 -2.834492e-01 -1.483806e-01 2.397519e-02 -1.443165e-01 8.098077e-03 -5.792059e-02 5.761450e-02 3.269787e-01 1.295257e-01 1.278169e-01 6.606783e-02 3.233087e-01 1.741722e-01
<VARIANCE> 25
 4.676034e+01 5.651275e+01 3.374624e+01 4.354483e+01 3.909523e+01 6.772588e+01 4.554013e+01 4.309894e+01 4.366496e+01 2.980948e+01 3.065110e+01 3.011920e+01 5.252154e+00 4.120086e+00 3.020808e+00 5.969082e+00 4.335459e+00 5.054725e+00 4.546401e+00 3.735522e+00 3.611912e+00 2.955205e+00 2.594121e+00 3.071616e+00 4.264222e+00
<GCONST> 1.083614e+02
<TRANSP> 5
 0.000000e+00 1.000000e+00 0.000000e+00 0.000000e+00 0.000000e+00
 0.000000e+00 9.567362e-01 4.326378e-02 0.000000e+00 0.000000e+00
 0.000000e+00 0.000000e+00 9.801455e-01 1.985445e-02 0.000000e+00
 0.000000e+00 0.000000e+00 0.000000e+00 9.330693e-01 6.693065e-02
 0.000000e+00 0.000000e+00 0.000000e+00 0.000000e+00 0.000000e+00
<ENDHMM>
~h "sil"
<BEGINHMM>
<NUMSTATES> 5
<STATE> 2
<MEAN> 25
 -1.478513e+00 -2.053124e+00 -1.463258e+00 3.427987e-01 2.647769e+00 9.135963e-01 8.731797e-01 2.815342e+00 6.592221e-01 -3.372282e-01 3.820180e-01 1.745338e+00 -6.518506e-02 8.769831e-03 -6.824042e-03 2.330917e-02 -6.072813e-03 3.469426e-02 2.348816e-02 7.155257e-03 2.025926e-02 3.623974e-02 7.263829e-02 5.789522e-02 -1.719309e-01
<VARIANCE> 25
 4.159749e+01 4.043587e+01 2.972173e+01 2.439722e+01 4.023486e+01 3.849381e+01 3.533396e+01 4.702404e+01 2.927101e+01 3.910383e+01 3.257098e+01 2.817024e+01 3.565327e-01 6.070700e-01 7.489171e-01 8.634692e-01 1.225561e+00 1.374188e+00 1.532547e+00 1.674804e+00 1.550212e+00 1.568453e+00 1.448104e+00 1.321021e+00 2.316790e-01
<GCONST> 8.815854e+01
<STATE> 3
~s "silst"
<STATE> 4
<MEAN> 25
 2.960608e+00 6.023898e-01 1.700547e+00 3.990104e-01 -3.303376e+00 -1.424020e+00 -2.850749e-01 -2.102914e+00 -1.134986e+00 -3.610156e-02 -2.402302e-01 -1.342025e+00 -1.466721e-01 1.227577e-01 2.838261e-03 1.202828e-01 1.740930e-01 1.597964e-01 7.124469e-02 4.960371e-02 -2.309717e-02 1.072201e-01 2.885797e-02 1.859409e-02 -2.322201e-01
<VARIANCE> 25
 2.001807e+01 3.625725e+01 5.721032e+01 3.918542e+01 6.694476e+01 5.930385e+01 5.371399e+01 6.866374e+01 5.712552e+01 4.044014e+01 4.084642e+01 3.596148e+01 1.524714e+00 2.573455e+00 2.605181e+00 2.520204e+00 4.529358e+00 3.828587e+00 3.819439e+00 4.966014e+00 4.075538e+00 3.358841e+00 3.007681e+00 2.829236e+00 1.889955e+00
<GCONST> 1.062250e+02
<TRANSP> 5
 0.000000e+00 1.000000e+00 0.000000e+00 0.000000e+00 0.000000e+00
 0.000000e+00 8.570027e-01 8.574849e-02 5.724888e-02 0.000000e+00
 0.000000e+00 0.000000e+00 8.611085e-01 1.388915e-01 0.000000e+00
 0.000000e+00 9.329345e-02 0.000000e+00 8.992806e-01 7.425911e-03
 0.000000e+00 0.000000e+00 0.000000e+00 0.000000e+00 0.000000e+00
<ENDHMM>
