~o
<STREAMINFO> 1 25
<VECSIZE> 25<NULLD><MFCC_D_N_Z_0><DIAGC>
~h "l1_i"
<BEGINHMM>
<NUMSTATES> 5
<STATE> 2
<MEAN> 25
 2.957410e-01 -4.439817e-01 -5.825791e-01 -5.066001e-01 -3.174535e-01 -2.127737e-02 -3.557899e-01 -5.095067e-01 1.666278e-01 -4.006359e-02 -4.277510e-01 -3.336840e-01 1.049271e-02 2.374188e-03 1.013739e-02 1.055570e-03 -1.311534e-02 -5.495163e-03 6.772708e-04 -5.832265e-03 -6.744032e-03 2.782811e-03 -2.164944e-03 -9.572681e-03 1.173174e-02
<VARIANCE> 25
 4.869707e+01 4.295395e+01 5.269234e+01 3.980252e+01 6.226308e+01 5.604345e+01 4.176165e+01 6.060184e+01 4.685747e+01 3.578373e+01 3.343612e+01 3.163864e+01 2.801936e+00 2.401036e+00 2.182418e+00 2.313193e+00 3.446596e+00 3.334953e+00 3.023009e+00 3.836410e+00 3.252591e+00 2.784825e+00 2.561755e+00 2.496686e+00 1.969456e+00
<GCONST> 1.047785e+02
<STATE> 3
<MEAN> 25
 3.576257e-01 -4.315723e-01 -5.165486e-01 -4.954609e-01 -3.975048e-01 -5.295034e-02 -3.528569e-01 -5.530097e-01 1.310570e-01 -2.589170e-02 -4.406497e-01 -3.812513e-01 8.672103e-03 1.811497e-03 1.015020e-02 1.351081e-03 -1.124019e-02 -4.362942e-03 8.933518e-04 -6.128301e-03 -5.355936e-03 1.940457e-03 -1.926825e-03 -6.444407e-03 6.708595e-03
<VARIANCE> 25
 4.855937e+01 4.289133e+01 5.302555e+01 3.966129e+01 6.309296e+01 5.635400e+01 4.180074e+01 6.055923e+01 4.725418e+01 3.601823e+01 3.334405e+01 3.166090e+01 2.803510e+00 2.396291e+00 2.177881e+00 2.298432e+00 3.473175e+00 3.336706e+00 3.015553e+00 3.846045e+00 3.252108e+00 2.799341e+00 2.559899e+00 2.493245e+00 1.952973e+00
<GCONST> 1.048017e+02
<STATE> 4
<MEAN> 25
 1.979462e-01 1.807345e-01 1.233633e-01 9.356010e-03 -5.144554e-02 2.954061e-02 -1.603675e-01 -3.037408e-01 -1.132105e-02 6.243652e-03 -1.463483e-04 -6.041816e-02 -9.883938e-04 4.270062e-03 5.512053e-03 3.872806e-03 1.489729e-03 -3.518380e-04 2.279410e-03 3.460628e-03 -1.802277e-03 1.380516e-04 3.276556e-03 1.660284e-03 -3.592819e-03
<VARIANCE> 25
 4.891565e+01 4.098492e+01 5.817378e+01 3.667998e+01 6.493450e+01 5.319510e+01 3.968003e+01 6.023937e+01 4.627969e+01 3.568771e+01 3.238035e+01 3.013875e+01 2.620572e+00 2.107978e+00 2.209894e+00 2.172823e+00 3.408545e+00 3.165761e+00 2.875646e+00 3.674856e+00 3.101237e+00 2.644964e+00 2.462811e+00 2.268813e+00 1.835385e+00
<GCONST> 1.038821e+02
<TRANSP> 5
 0.000000e+00 1.000000e+00 0.000000e+00 0.000000e+00 0.000000e+00
 0.000000e+00 8.533220e-01 1.466780e-01 0.000000e+00 0.000000e+00
 0.000000e+00 0.000000e+00 8.533220e-01 1.466780e-01 0.000000e+00
 0.000000e+00 0.000000e+00 0.000000e+00 9.954507e-01 4.549311e-03
 0.000000e+00 0.000000e+00 0.000000e+00 0.000000e+00 0.000000e+00
<ENDHMM>
~h "l1_u"
<BEGINHMM>
<NUMSTATES> 5
<STATE> 2
<MEAN> 25
 -8.906131e-02 4.487897e-03 -2.476351e-01 6.598710e-02 -1.399471e-01 -5.331926e-01 -6.043641e-02 3.813809e-01 2.147049e-01 -1.169451e-01 4.823746e-01 7.077867e-01 2.055609e-02 7.851062e-03 -1.075020e-02 -1.329605e-02 -9.336703e-03 9.883681e-03 9.125079e-03 -1.768936e-02 -5.406620e-03 7.511177e-03 -9.517901e-03 -1.885452e-02 3.615969e-02
<VARIANCE> 25
 3.646532e+01 3.207583e+01 3.405529e+01 2.773150e+01 6.692810e+01 5.463507e+01 5.921968e+01 6.252131e+01 4.395132e+01 3.395357e+01 3.984859e+01 4.905471e+01 2.026472e+00 1.861439e+00 1.767016e+00 2.064136e+00 3.151877e+00 3.033790e+00 3.853664e+00 3.250865e+00 3.054943e+00 2.597944e+00 2.807686e+00 2.340447e+00 1.576324e+00
<GCONST> 1.029858e+02
<STATE> 3
<MEAN> 25
 3.269439e-02 3.468116e-02 -2.936933e-01 2.758055e-03 -2.187059e-01 -4.316125e-01 -7.778169e-03 2.364247e-01 1.619902e-01 -6.690213e-02 3.782355e-01 5.860465e-01 1.736804e-02 4.298700e-03 -6.005197e-03 -8.881897e-03 -1.170057e-02 1.537351e-02 7.229370e-03 -2.180662e-02 -8.442368e-03 7.068665e-03 -1.549005e-02 -1.787814e-02 2.283671e-02
<VARIANCE> 25
 3.665061e+01 3.229642e+01 3.421929e+01 2.792806e+01 6.826428e+01 5.488077e+01 6.073020e+01 6.269431e+01 4.483984e+01 3.457316e+01 4.018741e+01 4.927750e+01 2.057767e+00 1.851529e+00 1.779005e+00 2.103462e+00 3.227857e+00 3.022796e+00 3.920721e+00 3.315125e+00 3.086161e+00 2.605752e+00 2.836187e+00 2.326123e+00 1.580625e+00
<GCONST> 1.032254e+02
<STATE> 4
<MEAN> 25
 6.169213e-01 1.551254e-01 -2.345210e-01 -1.371220e-02 -5.679247e-01 1.257409e-01 6.317408e-02 -7.285162e-01 -1.032761e-01 2.150505e-01 -3.813923e-01 5.339183e-02 6.254774e-03 1.973510e-03 2.446920e-03 -2.513636e-03 -2.798960e-04 7.904365e-03 2.741734e-03 -8.177884e-03 -2.725766e-03 2.447073e-03 -8.795449e-03 -1.373122e-02 -5.221526e-03
<VARIANCE> 25
 4.442548e+01 3.635283e+01 4.042532e+01 3.249002e+01 7.514362e+01 5.588486e+01 6.645641e+01 5.895750e+01 5.481057e+01 3.869243e+01 3.609494e+01 5.095615e+01 2.548145e+00 2.009278e+00 2.122098e+00 2.408080e+00 3.660609e+00 3.509614e+00 4.053021e+00 3.437680e+00 3.517200e+00 2.702382e+00 2.703843e+00 2.453715e+00 1.225113e+00
<GCONST> 1.051060e+02
<TRANSP> 5
 0.000000e+00 1.000000e+00 0.000000e+00 0.000000e+00 0.000000e+00
 0.000000e+00 8.515981e-01 1.484019e-01 0.000000e+00 0.000000e+00
 0.000000e+00 0.000000e+00 8.515980e-01 1.484020e-01 0.000000e+00
 0.000000e+00 0.000000e+00 0.000000e+00 9.917442e-01 8.255823e-03
 0.000000e+00 0.000000e+00 0.000000e+00 0.000000e+00 0.000000e+00
<ENDHMM>
~h "l2_i"
<BEGINHMM>
<NUMSTATES> 5
<STATE> 2
<MEAN> 25
 -1.844978e-01 -4.097117e-01 -8.859212e-02 -1.179559e-01 -4.183982e-01 -1.929037e-01 -2.792986e-01 -5.633143e-01 -2.454965e-01 -2.072565e-01 -4.593118e-01 -1.628369e-01 8.758930e-03 -2.941592e-03 -2.643826e-03 -1.124824e-02 -5.616217e-03 -2.438342e-03 -7.545975e-04 -2.248628e-02 1.078469e-02 1.484136e-02 -5.501958e-03 -1.733862e-02 1.949809e-02
<VARIANCE> 25
 5.293254e+01 3.804727e+01 4.350051e+01 3.574679e+01 6.261266e+01 5.984327e+01 4.445847e+01 5.897264e+01 4.678949e+01 3.496785e+01 3.372316e+01 3.430889e+01 2.905301e+00 2.133176e+00 2.204863e+00 2.269696e+00 4.263926e+00 3.662435e+00 3.511805e+00 4.087621e+00 3.459550e+00 2.655092e+00 2.759765e+00 2.419579e+00 2.287253e+00
<GCONST> 1.052486e+02
<STATE> 3
<MEAN> 25
 -1.123707e-01 -4.335803e-01 -1.062903e-01 -1.567287e-01 -4.236237e-01 -2.261953e-01 -2.781238e-01 -6.857491e-01 -2.120418e-01 -1.008880e-01 -5.002362e-01 -2.776891e-01 1.091754e-02 -2.502070e-03 -2.351397e-03 -5.626885e-03 2.968032e-04 -5.658080e-03 1.176332e-03 -1.861979e-02 3.879506e-03 1.620461e-02 -6.064287e-03 -1.705989e-02 8.780059e-03
<VARIANCE> 25
 5.276881e+01 3.795381e+01 4.359525e+01 3.528860e+01 6.283853e+01 5.956799e+01 4.381027e+01 5.900401e+01 4.648205e+01 3.472508e+01 3.340494e+01 3.321467e+01 2.893159e+00 2.144199e+00 2.222025e+00 2.238030e+00 4.248031e+00 3.667002e+00 3.401515e+00 4.064553e+00 3.416376e+00 2.653008e+00 2.747811e+00 2.406406e+00 2.256554e+00
<GCONST> 1.050797e+02
<STATE> 4
<MEAN> 25
 1.341999e-01 -8.944733e-02 -1.551472e-02 3.483652e-03 -1.076489e-01 2.444014e-02 -1.854190e-01 -1.362278e-01 1.080733e-01 1.806712e-03 9.159643e-03 -1.514418e-01 2.359813e-03 4.455461e-03 1.249909e-03 1.369427e-04 2.972299e-03 1.865152e-03 2.324081e-03 2.763784e-03 2.179728e-03 2.123569e-03 3.372828e-03 6.065794e-04 -3.183331e-03
<VARIANCE> 25
 5.896082e+01 3.961669e+01 4.282774e+01 4.105166e+01 5.910967e+01 6.756516e+01 4.199923e+01 6.156392e+01 4.607083e+01 3.647050e+01 3.361518e+01 3.032059e+01 3.076433e+00 2.306912e+00 2.228708e+00 2.468498e+00 3.701577e+00 3.613471e+00 3.160274e+00 3.850168e+00 3.491858e+00 2.762943e+00 2.677855e+00 2.329696e+00 2.428511e+00
<GCONST> 1.054204e+02
<TRANSP> 5
 0.000000e+00 1.000000e+00 0.000000e+00 0.000000e+00 0.000000e+00
 0.000000e+00 8.505817e-01 1.494183e-01 0.000000e+00 0.000000e+00
 0.000000e+00 0.000000e+00 8.505816e-01 1.494183e-01 0.000000e+00
 0.000000e+00 0.000000e+00 0.000000e+00 9.950715e-01 4.928475e-03
 0.000000e+00 0.000000e+00 0.000000e+00 0.000000e+00 0.000000e+00
<ENDHMM>
~h "l2_u"
<BEGINHMM>
<NUMSTATES> 5
<STATE> 2
<MEAN> 25
 1.216588e-01 -4.839959e-01 6.257734e-02 -2.251375e-01 -9.369019e-01 -2.146599e-01 -2.003572e-01 -6.826150e-01 -2.389966e-01 6.200189e-02 -4.016889e-01 -4.542054e-01 1.721236e-02 1.070660e-02 -6.416013e-03 2.974147e-03 -6.771831e-03 -3.587051e-03 -4.912443e-03 1.354182e-03 6.803574e-03 1.557470e-02 -4.030719e-03 -5.329195e-03 3.343255e-03
<VARIANCE> 25
 4.438472e+01 4.170074e+01 5.370880e+01 4.311105e+01 5.419208e+01 5.842540e+01 4.394250e+01 6.380690e+01 5.317915e+01 4.810820e+01 4.171247e+01 3.085890e+01 2.886194e+00 2.627276e+00 2.433666e+00 2.492283e+00 3.333340e+00 3.845994e+00 3.244529e+00 4.292531e+00 3.566894e+00 3.008196e+00 2.949482e+00 2.362768e+00 1.494178e+00
<GCONST> 1.059535e+02
<STATE> 3
<MEAN> 25
 2.171355e-01 -4.159340e-01 2.403024e-02 -1.961619e-01 -9.449205e-01 -2.315819e-01 -2.496033e-01 -6.677803e-01 -2.066030e-01 1.683576e-01 -4.196953e-01 -4.726368e-01 1.342256e-02 1.024876e-02 -5.684713e-03 4.214653e-03 -7.714829e-05 -2.049264e-03 -7.175656e-03 2.469592e-03 4.697823e-03 1.579478e-02 -2.212979e-03 -2.084394e-03 -2.876999e-03
<VARIANCE> 25
 4.459228e+01 4.182128e+01 5.437343e+01 4.317368e+01 5.458736e+01 5.915225e+01 4.446021e+01 6.334305e+01 5.394105e+01 4.715340e+01 4.183237e+01 3.054944e+01 2.926514e+00 2.653994e+00 2.471723e+00 2.510511e+00 3.354397e+00 3.874152e+00 3.269574e+00 4.316352e+00 3.600373e+00 3.010669e+00 2.947505e+00 2.360243e+00 1.493548e+00
<GCONST> 1.060674e+02
<STATE> 4
<MEAN> 25
 2.666245e-01 5.582738e-02 1.864291e-01 1.597196e-01 -3.546480e-01 -2.410132e-01 -3.563388e-02 9.893868e-02 -3.514175e-02 9.654447e-02 -2.182307e-01 -2.657439e-01 5.156795e-04 4.219642e-03 -7.327398e-04 1.546390e-03 6.099879e-03 1.439964e-03 1.400863e-03 5.245451e-03 2.336303e-03 -8.154217e-04 2.932864e-03 2.847620e-03 -3.062159e-03
<VARIANCE> 25
 5.590273e+01 4.243909e+01 5.370094e+01 3.920012e+01 5.426443e+01 6.051096e+01 4.877824e+01 5.806847e+01 4.968066e+01 3.748478e+01 3.727757e+01 2.904528e+01 3.415054e+00 2.892921e+00 2.441205e+00 2.388793e+00 3.360229e+00 3.680325e+00 3.509590e+00 3.908698e+00 3.592799e+00 2.762690e+00 2.649568e+00 2.324655e+00 1.809643e+00
<GCONST> 1.058268e+02
<TRANSP> 5
 0.000000e+00 1.000000e+00 0.000000e+00 0.000000e+00 0.000000e+00
 0.000000e+00 8.525275e-01 1.474725e-01 0.000000e+00 0.000000e+00
 0.000000e+00 0.000000e+00 8.525276e-01 1.474724e-01 0.000000e+00
 0.000000e+00 0.000000e+00 0.000000e+00 9.952355e-01 4.764517e-03
 0.000000e+00 0.000000e+00 0.000000e+00 0.000000e+00 0.000000e+00
<ENDHMM>
~h "l3_i"
<BEGINHMM>
<NUMSTATES> 5
<STATE> 2
<MEAN> 25
 -2.557009e-01 -7.483713e-01 -6.046667e-01 -3.300994e-01 -1.353206e-01 -2.414847e-01 1.094691e-03 -2.764294e-01 -1.244894e-01 -4.001519e-01 -3.488316e-01 2.288919e-01 1.135523e-02 1.192987e-02 5.887075e-03 -7.277652e-03 -1.948809e-03 -6.749201e-03 2.093805e-03 -4.150052e-03 -3.082259e-03 1.221697e-03 -2.966684e-03 -6.315357e-03 1.482337e-02
<VARIANCE> 25
 5.053465e+01 3.990913e+01 3.737851e+01 3.403615e+01 6.014406e+01 5.573851e+01 5.018655e+01 5.862886e+01 4.320223e+01 3.761753e+01 3.822558e+01 4.101755e+01 2.988305e+00 2.393138e+00 1.923397e+00 2.296336e+00 3.472293e+00 3.591091e+00 3.527953e+00 3.760284e+00 3.115395e+00 2.586024e+00 2.672411e+00 2.447148e+00 2.354229e+00
<GCONST> 1.049417e+02
<STATE> 3
<MEAN> 25
 -1.757404e-01 -6.705831e-01 -5.554729e-01 -3.647068e-01 -1.379996e-01 -2.826749e-01 7.167624e-03 -2.929023e-01 -1.422344e-01 -3.828060e-01 -3.498584e-01 1.934153e-01 1.190512e-02 1.136644e-02 7.256058e-03 -4.942106e-03 -2.620209e-04 -5.626558e-03 8.155807e-04 -2.233242e-03 -2.554821e-03 2.614866e-03 1.878360e-04 -4.937307e-03 8.829646e-03
<VARIANCE> 25
 5.067356e+01 4.010528e+01 3.757992e+01 3.420776e+01 6.047353e+01 5.606117e+01 5.003925e+01 5.857948e+01 4.322678e+01 3.758272e+01 3.829657e+01 4.124354e+01 2.992379e+00 2.394120e+00 1.920780e+00 2.312675e+00 3.489119e+00 3.581280e+00 3.515978e+00 3.743641e+00 3.120142e+00 2.585893e+00 2.662599e+00 2.452265e+00 2.334079e+00
<GCONST> 1.049673e+02
<STATE> 4
<MEAN> 25
 2.590055e-01 1.944515e-01 1.208126e-01 -1.007442e-01 -1.662527e-01 1.270890e-02 1.841672e-01 -1.962624e-01 -1.014869e-01 -8.397453e-02 -1.011327e-01 -1.223357e-01 3.883287e-03 7.734044e-03 5.558508e-03 2.494345e-03 8.590207e-05 2.033793e-03 7.046852e-04 8.757208e-04 9.119997e-04 3.538829e-03 2.490415e-03 -2.855418e-03 -2.049275e-03
<VARIANCE> 25
 4.934149e+01 3.797289e+01 4.181384e+01 3.185331e+01 6.450610e+01 5.206009e+01 4.995798e+01 5.646891e+01 4.491045e+01 3.902829e+01 3.765063e+01 3.972461e+01 2.939255e+00 2.165757e+00 1.960942e+00 2.142905e+00 3.459322e+00 3.367975e+00 3.444658e+00 3.739350e+00 3.174812e+00 2.717102e+00 2.588984e+00 2.416137e+00 2.272482e+00
<GCONST> 1.046270e+02
<TRANSP> 5
 0.000000e+00 1.000000e+00 0.000000e+00 0.000000e+00 0.000000e+00
 0.000000e+00 8.534747e-01 1.465253e-01 0.000000e+00 0.000000e+00
 0.000000e+00 0.000000e+00 8.534748e-01 1.465252e-01 0.000000e+00
 0.000000e+00 0.000000e+00 0.000000e+00 9.953236e-01 4.676404e-03
 0.000000e+00 0.000000e+00 0.000000e+00 0.000000e+00 0.000000e+00
<ENDHMM>
~h "l3_u"
<BEGINHMM>
<NUMSTATES> 5
<STATE> 2
<MEAN> 25
 -5.508266e-02 -1.064956e-01 -8.783120e-02 -3.264483e-01 -2.586469e-01 -3.371837e-01 -2.212950e-02 -7.660742e-01 -3.238791e-01 1.774096e-02 -2.126313e-01 1.298877e-01 1.662324e-02 7.704931e-03 -5.963852e-03 -8.330598e-03 -4.772919e-03 1.139444e-03 -4.565685e-03 -1.467772e-02 6.146695e-03 4.097231e-03 -6.857152e-03 -8.821032e-03 1.503199e-02
<VARIANCE> 25
 4.950668e+01 4.238065e+01 4.890704e+01 3.688620e+01 6.144090e+01 5.802944e+01 4.681289e+01 5.972471e+01 5.062646e+01 4.176045e+01 3.437807e+01 3.928642e+01 2.909500e+00 2.387390e+00 2.222725e+00 2.331846e+00 3.950109e+00 3.773498e+00 3.326219e+00 3.891865e+00 3.745287e+00 2.997199e+00 2.576034e+00 2.598757e+00 1.814737e+00
<GCONST> 1.058346e+02
<STATE> 3
<MEAN> 25
 4.372679e-02 -7.660259e-02 -1.330922e-01 -3.777002e-01 -2.806565e-01 -2.984134e-01 -5.136993e-02 -8.358003e-01 -2.769194e-01 3.329938e-02 -2.335016e-01 9.113503e-02 1.444843e-02 3.907886e-03 -6.499037e-03 -7.198878e-03 -3.206712e-03 6.125557e-03 -4.603849e-03 -9.561889e-03 7.053200e-03 2.038686e-03 -2.653661e-03 -5.326808e-03 7.026339e-03
<VARIANCE> 25
 4.957497e+01 4.213956e+01 4.915271e+01 3.719233e+01 6.124774e+01 5.838776e+01 4.703502e+01 5.993768e+01 5.105787e+01 4.183093e+01 3.453918e+01 3.928872e+01 2.894751e+00 2.387641e+00 2.218758e+00 2.334238e+00 3.927888e+00 3.773802e+00 3.352271e+00 3.897150e+00 3.768762e+00 2.993400e+00 2.585276e+00 2.600767e+00 1.770429e+00
<GCONST> 1.058522e+02
<STATE> 4
<MEAN> 25
 4.757003e-01 1.615995e-01 -4.446375e-01 -1.998074e-01 1.523731e-02 -2.643916e-03 9.372222e-02 -3.701653e-01 1.858041e-01 -1.572341e-01 -2.492378e-01 -3.853127e-01 3.077273e-03 2.487093e-03 8.683079e-04 3.094671e-03 1.290763e-03 3.036662e-03 1.743692e-05 5.952413e-03 3.229087e-03 -5.880145e-04 1.068993e-03 -3.328509e-03 -5.274112e-03
<VARIANCE> 25
 4.335023e+01 4.031742e+01 4.797713e+01 3.737352e+01 6.085116e+01 5.555188e+01 4.598506e+01 6.275212e+01 4.607240e+01 4.255388e+01 3.438138e+01 3.389296e+01 2.467691e+00 2.197867e+00 2.173491e+00 2.277293e+00 3.755685e+00 3.624163e+00 3.118201e+00 4.050743e+00 3.430488e+00 3.173139e+00 2.567427e+00 2.289623e+00 1.604388e+00
<GCONST> 1.047083e+02
<TRANSP> 5
 0.000000e+00 1.000000e+00 0.000000e+00 0.000000e+00 0.000000e+00
 0.000000e+00 8.531866e-01 1.468134e-01 0.000000e+00 0.000000e+00
 0.000000e+00 0.000000e+00 8.531865e-01 1.468135e-01 0.000000e+00
 0.000000e+00 0.000000e+00 0.000000e+00 9.942434e-01 5.756525e-03
 0.000000e+00 0.000000e+00 0.000000e+00 0.000000e+00 0.000000e+00
<ENDHMM>
~h "l4_i"
<BEGINHMM>
<NUMSTATES> 5
<STATE> 2
<MEAN> 25
 1.984609e-01 -8.165336e-02 -3.388951e-01 -1.895506e-01 -9.794377e-02 1.370526e-01 -3.336356e-01 -2.962254e-01 1.310755e-01 1.227141e-01 -1.114530e-02 2.863078e-02 3.692039e-03 2.516382e-03 -3.284300e-03 -4.576162e-03 -4.381789e-04 1.942260e-03 1.064511e-03 -7.048487e-04 5.258728e-03 1.389595e-04 1.332123e-05 -2.109772e-03 6.644355e-03
<VARIANCE> 25
 5.100116e+01 4.147470e+01 4.768678e+01 3.725663e+01 6.095846e+01 5.513110e+01 5.060190e+01 6.486919e+01 5.282331e+01 3.785452e+01 3.636987e+01 3.226483e+01 2.761133e+00 2.100500e+00 2.013094e+00 2.087115e+00 3.665652e+00 3.263726e+00 3.176164e+00 3.674597e+00 3.170013e+00 2.620455e+00 2.507338e+00 2.213099e+00 1.946075e+00
<GCONST> 1.045998e+02
<STATE> 3
<MEAN> 25
 2.207498e-01 -7.231228e-02 -3.448257e-01 -2.194144e-01 -1.120054e-01 1.459741e-01 -3.194257e-01 -3.102953e-01 1.551292e-01 1.266026e-01 -5.089206e-03 1.288354e-02 3.174233e-03 1.249877e-03 -6.457469e-04 -4.328871e-03 -2.150617e-03 1.264955e-03 2.159323e-03 -2.050836e-03 3.311625e-03 5.261071e-04 9.657490e-04 -2.214023e-03 3.771792e-03
<VARIANCE> 25
 5.105029e+01 4.137650e+01 4.808541e+01 3.742808e+01 6.123333e+01 5.545111e+01 5.079170e+01 6.506954e+01 5.299875e+01 3.784135e+01 3.644960e+01 3.227867e+01 2.753895e+00 2.096958e+00 2.025503e+00 2.085916e+00 3.669942e+00 3.262977e+00 3.182151e+00 3.654927e+00 3.177282e+00 2.612247e+00 2.506521e+00 2.215168e+00 1.937011e+00
<GCONST> 1.046278e+02
<STATE> 4
<MEAN> 25
 2.809083e-01 1.957263e-01 2.005127e-01 2.857755e-02 -3.617658e-01 -1.723189e-01 -5.038539e-02 -4.255549e-01 -1.570063e-01 5.528481e-03 -1.165841e-03 -2.869609e-01 -9.237195e-04 1.014682e-03 2.035580e-03 1.543678e-03 5.991261e-04 -1.079510e-03 2.247151e-03 2.123019e-03 -8.252275e-04 -9.451465e-04 -5.997950e-06 -4.300510e-04 -1.710675e-03
<VARIANCE> 25
 4.992815e+01 3.941705e+01 4.835562e+01 3.496172e+01 6.673297e+01 5.530423e+01 5.066802e+01 6.485030e+01 4.919925e+01 3.683690e+01 3.537053e+01 3.196110e+01 2.858336e+00 2.055945e+00 2.041815e+00 2.055481e+00 3.956325e+00 3.186486e+00 3.211638e+00 3.762789e+00 3.265121e+00 2.662846e+00 2.565974e+00 2.292235e+00 2.050644e+00
<GCONST> 1.046924e+02
<TRANSP> 5
 0.000000e+00 1.000000e+00 0.000000e+00 0.000000e+00 0.000000e+00
 0.000000e+00 8.546841e-01 1.453158e-01 0.000000e+00 0.000000e+00
 0.000000e+00 0.000000e+00 8.546841e-01 1.453159e-01 0.000000e+00
 0.000000e+00 0.000000e+00 0.000000e+00 9.963548e-01 3.645206e-03
 0.000000e+00 0.000000e+00 0.000000e+00 0.000000e+00 0.000000e+00
<ENDHMM>
~h "l4_u"
<BEGINHMM>
<NUMSTATES> 5
<STATE> 2
<MEAN> 25
 -3.919245e-01 -1.212863e-01 1.999957e-01 -2.767440e-02 -8.878232e-01 -1.379327e+00 -1.381149e-01 -2.327241e-02 -6.557955e-01 8.428515e-03 -3.111743e-01 -8.245705e-02 1.398089e-02 2.466790e-02 -5.785446e-03 -4.215777e-02 -5.364084e-03 3.072244e-02 -2.782992e-02 -4.154474e-02 6.047674e-02 -3.516060e-02 -1.528326e-02 -3.935379e-03 3.173695e-02
<VARIANCE> 25
 4.311787e+01 4.457780e+01 4.267485e+01 4.489837e+01 6.243058e+01 6.668568e+01 4.687959e+01 7.286195e+01 4.978518e+01 4.021885e+01 4.077969e+01 4.755605e+01 2.408022e+00 2.614537e+00 2.248693e+00 2.694054e+00 3.773547e+00 4.156875e+00 3.242606e+00 4.446536e+00 3.694266e+00 2.986681e+00 2.994473e+00 2.838865e+00 2.087218e+00
<GCONST> 1.070480e+02
<STATE> 3
<MEAN> 25
 -2.844809e-01 2.283681e-02 1.676949e-01 -2.698552e-01 -8.968477e-01 -1.043603e+00 -2.805059e-01 -2.603669e-01 -3.583309e-01 -1.551666e-01 -3.436470e-01 -3.340131e-02 2.818782e-02 1.662660e-02 -1.401167e-02 -4.213592e-02 -2.256150e-03 6.638825e-02 -3.002504e-02 -3.825945e-02 5.737872e-02 -3.263485e-02 -2.292966e-03 1.479976e-02 7.026091e-04
<VARIANCE> 25
 4.432208e+01 4.417196e+01 4.309355e+01 4.798095e+01 6.206137e+01 6.772810e+01 4.709175e+01 7.367987e+01 4.843777e+01 4.098914e+01 4.095615e+01 4.753813e+01 2.451820e+00 2.533466e+00 2.244507e+00 2.717824e+00 3.708420e+00 4.080334e+00 3.290532e+00 4.420306e+00 3.689504e+00 3.053114e+00 2.961375e+00 2.774746e+00 1.879060e+00
<GCONST> 1.070112e+02
<STATE> 4
<MEAN> 25
 4.524279e-01 9.417464e-02 1.090588e-01 -7.558519e-02 -5.137670e-02 -1.543421e-01 4.930584e-02 -4.364125e-01 5.843495e-02 1.156591e-02 -5.305887e-02 8.001474e-02 7.239634e-03 1.081056e-03 -2.509630e-03 -8.676447e-04 7.739480e-03 1.539775e-02 -3.079353e-04 -4.037143e-03 9.963937e-03 -2.482874e-03 1.967674e-03 -6.343052e-04 -8.756045e-03
<VARIANCE> 25
 4.139156e+01 3.909031e+01 4.914543e+01 3.380062e+01 7.718448e+01 5.576326e+01 4.478263e+01 6.969966e+01 4.108533e+01 4.115141e+01 3.815895e+01 4.709886e+01 2.354202e+00 1.833953e+00 2.240484e+00 2.038992e+00 3.799859e+00 3.345954e+00 3.271980e+00 3.916399e+00 3.175205e+00 2.960258e+00 2.633506e+00 2.551337e+00 1.748290e+00
<GCONST> 1.048707e+02
<TRANSP> 5
 0.000000e+00 1.000000e+00 0.000000e+00 0.000000e+00 0.000000e+00
 0.000000e+00 8.450967e-01 1.549033e-01 0.000000e+00 0.000000e+00
 0.000000e+00 0.000000e+00 8.450968e-01 1.549031e-01 0.000000e+00
 0.000000e+00 0.000000e+00 0.000000e+00 9.935033e-01 6.496691e-03
 0.000000e+00 0.000000e+00 0.000000e+00 0.000000e+00 0.000000e+00
<ENDHMM>
~h "l5_i"
<BEGINHMM>
<NUMSTATES> 5
<STATE> 2
<MEAN> 25
 1.767244e-01 -3.816786e-01 -6.227150e-02 -3.877017e-01 -5.410721e-01 -1.632268e-01 -2.088840e-01 -5.768985e-01 -3.371416e-01 -1.515242e-01 -1.463617e-01 -3.259779e-01 1.646086e-02 5.438915e-03 6.571039e-03 -2.158384e-03 -1.001646e-02 1.476199e-03 -9.128819e-03 -1.150970e-02 -4.136593e-03 -1.444440e-03 -3.899512e-03 -1.065244e-02 8.754215e-03
<VARIANCE> 25
 4.687745e+01 4.193402e+01 4.646126e+01 3.850894e+01 6.479773e+01 5.326868e+01 5.183781e+01 6.812008e+01 5.075440e+01 4.467465e+01 3.799983e+01 3.272305e+01 2.729807e+00 2.485824e+00 2.157081e+00 2.313187e+00 3.519528e+00 3.749734e+00 3.461264e+00 3.665099e+00 3.571515e+00 3.122002e+00 2.491930e+00 2.406614e+00 1.558692e+00
<GCONST> 1.054775e+02
<STATE> 3
<MEAN> 25
 2.530984e-01 -3.366917e-01 -2.343689e-02 -3.861940e-01 -5.890703e-01 -1.354813e-01 -2.875428e-01 -6.174361e-01 -3.457456e-01 -1.416919e-01 -1.667865e-01 -3.746873e-01 1.084506e-02 6.628663e-03 4.917701e-03 -6.343612e-04 -6.323946e-03 5.482911e-03 -1.153619e-02 -6.512108e-03 -1.436067e-04 1.991098e-03 -3.107904e-03 -7.100027e-03 2.095854e-03
<VARIANCE> 25
 4.646740e+01 4.216249e+01 4.690481e+01 3.808865e+01 6.520554e+01 5.364820e+01 5.084798e+01 6.793391e+01 5.098911e+01 4.405117e+01 3.759024e+01 3.270581e+01 2.736148e+00 2.490376e+00 2.159615e+00 2.308767e+00 3.537576e+00 3.793964e+00 3.431857e+00 3.665108e+00 3.567491e+00 3.097837e+00 2.486464e+00 2.419135e+00 1.540582e+00
<GCONST> 1.054373e+02
<STATE> 4
<MEAN> 25
 4.564929e-01 2.140699e-02 -2.843393e-02 4.192830e-02 -1.186927e-01 4.898796e-03 -2.362049e-01 -1.600312e-01 9.497204e-02 -2.068606e-01 -5.761426e-02 -8.294696e-02 4.055897e-04 2.476077e-03 5.632751e-04 2.096117e-03 3.106683e-03 8.210316e-04 1.110806e-03 3.163719e-03 2.258795e-03 3.786485e-04 6.105894e-04 1.629510e-03 -3.138373e-03
<VARIANCE> 25
 4.331391e+01 4.227727e+01 4.649639e+01 3.439669e+01 6.823750e+01 5.112217e+01 4.765702e+01 6.384246e+01 4.405026e+01 4.414577e+01 3.863797e+01 3.427054e+01 2.394697e+00 2.157639e+00 1.986713e+00 2.042091e+00 3.729656e+00 3.222115e+00 3.154184e+00 3.414749e+00 3.107670e+00 2.952775e+00 2.480426e+00 2.340948e+00 1.298311e+00
<GCONST> 1.039186e+02
<TRANSP> 5
 0.000000e+00 1.000000e+00 0.000000e+00 0.000000e+00 0.000000e+00
 0.000000e+00 8.526398e-01 1.473602e-01 0.000000e+00 0.000000e+00
 0.000000e+00 0.000000e+00 8.526397e-01 1.473603e-01 0.000000e+00
 0.000000e+00 0.000000e+00 0.000000e+00 9.960419e-01 3.958097e-03
 0.000000e+00 0.000000e+00 0.000000e+00 0.000000e+00 0.000000e+00
<ENDHMM>
~h "l5_u"
<BEGINHMM>
<NUMSTATES> 5
<STATE> 2
<MEAN> 25
 2.167187e-01 -3.550956e-01 -2.583441e-01 -1.301600e-01 -1.927736e-01 5.300477e-01 -1.042442e+00 -2.111182e-01 -3.401058e-01 -2.540120e-02 -3.113949e-01 4.113813e-01 1.722473e-02 -4.906867e-03 -4.149854e-03 -3.803072e-03 1.316294e-03 -9.688160e-03 5.381715e-03 -1.534656e-02 -7.271642e-03 9.052293e-03 -1.527317e-02 -2.014424e-02 1.661269e-02
<VARIANCE> 25
 4.628638e+01 3.681683e+01 4.254693e+01 3.961596e+01 6.885717e+01 5.272281e+01 5.080706e+01 6.188962e+01 5.296880e+01 3.428983e+01 3.783500e+01 3.170914e+01 2.970788e+00 2.318660e+00 2.268663e+00 2.966098e+00 4.010461e+00 4.315601e+00 3.770270e+00 4.347823e+00 3.702716e+00 3.297567e+00 3.119532e+00 2.594723e+00 2.215309e+00
<GCONST> 1.065355e+02
<STATE> 3
<MEAN> 25
 3.188834e-01 -4.155236e-01 -2.801680e-01 -1.123389e-01 -1.275580e-01 4.648527e-01 -9.976497e-01 -3.143892e-01 -3.865041e-01 1.457862e-02 -3.792028e-01 2.881040e-01 1.469080e-02 -9.827455e-03 -2.409646e-03 3.001384e-03 1.009243e-02 -1.083554e-02 9.663054e-03 -1.528149e-02 -5.864220e-03 6.768988e-03 -8.958109e-03 -1.810038e-02 7.197161e-03
<VARIANCE> 25
 4.602295e+01 3.663385e+01 4.340741e+01 3.895606e+01 6.948849e+01 5.311674e+01 5.096742e+01 6.338576e+01 5.459030e+01 3.392552e+01 3.799861e+01 3.182984e+01 2.976537e+00 2.305023e+00 2.285596e+00 2.945443e+00 4.055331e+00 4.207388e+00 3.795649e+00 4.401085e+00 3.740927e+00 3.300756e+00 3.175102e+00 2.587217e+00 2.196390e+00
<GCONST> 1.066177e+02
<STATE> 4
<MEAN> 25
 4.896737e-01 1.555429e-01 -1.119253e-01 2.435525e-02 -3.350032e-01 1.351891e-01 -1.913547e-01 -6.053597e-01 4.745724e-02 -1.473368e-01 -2.891105e-01 -1.352811e-01 9.699845e-04 4.903673e-03 2.951679e-03 2.819814e-04 3.157129e-04 -5.321684e-03 1.170186e-02 5.423888e-04 3.970957e-03 8.666813e-04 1.544978e-03 -5.888426e-03 -3.852029e-03
<VARIANCE> 25
 5.348821e+01 3.663869e+01 4.643875e+01 3.642649e+01 7.245564e+01 5.152705e+01 4.913391e+01 5.927533e+01 4.821496e+01 3.125616e+01 3.952551e+01 2.957366e+01 2.997894e+00 2.198323e+00 2.237791e+00 2.778277e+00 4.235627e+00 3.830237e+00 3.809582e+00 4.057874e+00 3.634450e+00 2.895457e+00 3.075240e+00 2.452263e+00 2.725105e+00
<GCONST> 1.061585e+02
<TRANSP> 5
 0.000000e+00 1.000000e+00 0.000000e+00 0.000000e+00 0.000000e+00
 0.000000e+00 8.501901e-01 1.498099e-01 0.000000e+00 0.000000e+00
 0.000000e+00 0.000000e+00 8.501897e-01 1.498103e-01 0.000000e+00
 0.000000e+00 0.000000e+00 0.000000e+00 9.935720e-01 6.428023e-03
 0.000000e+00 0.000000e+00 0.000000e+00 0.000000e+00 0.000000e+00
<ENDHMM>
~h "sil"
<BEGINHMM>
<NUMSTATES> 5
<STATE> 2
<MEAN> 25
 -2.028031e+00 -1.459854e+00 1.738267e-01 6.230806e-01 1.242711e+00 4.801238e-01 4.205620e-01 1.804840e+00 -1.338731e-01 7.593893e-02 7.474077e-01 1.536453e+00 7.603291e-02 4.093132e-02 -6.415285e-03 -2.146224e-02 -6.756636e-02 1.250228e-02 2.567436e-02 -6.451608e-02 -3.966542e-03 -1.301770e-02 -2.115941e-02 1.757324e-03 4.836653e-02
<VARIANCE> 25
 4.424077e+01 3.800435e+01 3.686037e+01 3.016566e+01 4.700940e+01 4.407611e+01 4.029259e+01 5.808590e+01 4.110129e+01 3.442942e+01 3.146720e+01 3.186069e+01 2.051668e+00 1.807878e+00 1.673880e+00 1.846567e+00 2.879889e+00 2.861213e+00 2.745519e+00 3.127021e+00 3.022605e+00 2.528733e+00 2.225937e+00 2.079715e+00 1.480121e+00
<GCONST> 1.006044e+02
<STATE> 3
<MEAN> 25
 -1.509126e+00 -1.065438e+00 1.788078e-01 4.785868e-01 7.983620e-01 3.914891e-01 4.834557e-01 1.330443e+00 -1.688429e-01 1.194180e-02 6.560851e-01 1.265767e+00 7.045317e-02 6.096517e-02 1.682711e-03 -1.994957e-02 -6.211561e-02 -1.674534e-02 8.615674e-03 -6.916772e-02 -6.392776e-03 -8.161254e-03 -1.286891e-02 -4.454781e-02 9.365530e-02
<VARIANCE> 25
 4.518752e+01 3.911951e+01 3.849051e+01 3.262841e+01 5.003873e+01 4.656561e+01 4.293178e+01 5.638226e+01 4.213967e+01 3.557587e+01 3.287887e+01 3.217794e+01 2.282979e+00 2.057562e+00 1.822135e+00 1.995781e+00 3.116252e+00 3.164214e+00 2.915652e+00 3.335372e+00 3.110778e+00 2.671368e+00 2.364019e+00 2.169022e+00 1.889231e+00
<GCONST> 1.021717e+02
<STATE> 4
<MEAN> 25
 -4.999784e-02 4.110677e-02 -1.617398e-02 -2.377155e-02 2.972709e-02 -5.060164e-03 1.808877e-02 4.930096e-02 7.419967e-03 2.464079e-02 6.235857e-03 -1.674916e-02 -2.495332e-03 4.021832e-03 -1.742717e-03 -1.302552e-03 2.822927e-03 -6.486539e-04 -3.800923e-04 -3.175233e-04 2.450248e-03 2.393452e-03 9.396709e-04 -1.150810e-03 -3.946519e-03
<VARIANCE> 25
 5.008922e+01 4.110085e+01 4.709555e+01 3.550086e+01 6.405328e+01 5.390384e+01 4.620394e+01 6.149466e+01 4.498170e+01 3.854369e+01 3.629043e+01 3.408802e+01 2.705301e+00 2.148159e+00 2.078710e+00 2.177040e+00 3.551962e+00 3.347317e+00 3.173938e+00 3.711896e+00 3.195215e+00 2.751108e+00 2.563045e+00 2.341603e+00 1.881644e+00
<GCONST> 1.044855e+02
<TRANSP> 5
 0.000000e+00 1.000000e+00 0.000000e+00 0.000000e+00 0.000000e+00
 0.000000e+00 8.518723e-01 1.481277e-01 0.000000e+00 0.000000e+00
 0.000000e+00 0.000000e+00 8.518717e-01 1.481283e-01 0.000000e+00
 0.000000e+00 0.000000e+00 0.000000e+00 9.951481e-01 4.851935e-03
 0.000000e+00 0.000000e+00 0.000000e+00 0.000000e+00 0.000000e+00
<ENDHMM>
