~o
<STREAMINFO> 1 25
<VECSIZE> 25<NULLD><MFCC_D_N_Z_0><DIAGC>
~s "silst"
<MEAN> 25
 -2.793136e+00 3.821752e+00 -3.223555e+00 1.958117e+00 -6.467682e-01 1.235238e+00 2.949878e-01 1.190736e-01 -8.004614e-01 1.252778e-01 6.363260e-01 -5.975287e-01 -1.046673e-01 -4.997945e-02 7.402457e-03 7.402935e-02 -1.863514e-02 2.476387e-02 -2.056626e-02 -3.192444e-02 -4.463305e-02 -3.420390e-03 -7.019667e-03 -5.572762e-02 4.788899e-01
<VARIANCE> 25
 1.254078e+01 1.294851e+01 1.428080e+01 1.476000e+01 1.711901e+01 1.471886e+01 1.415373e+01 1.413674e+01 1.228668e+01 1.109680e+01 9.540447e+00 1.130415e+01 6.152147e-01 1.065212e+00 8.720096e-01 9.201005e-01 1.040203e+00 1.094445e+00 1.175350e+00 1.190190e+00 1.197471e+00 1.060519e+00 9.689922e-01 9.597631e-01 3.074785e+00
<GCONST> 7.792382e+01
~h "ek"
<BEGINHMM>
<NUMSTATES> 5
<STATE> 2
<MEAN> 25
 -1.904693e+00 2.184954e+00 -3.686028e+00 1.950463e-01 -3.529465e+00 3.252737e+00 3.072570e+00 1.975177e+00 1.166276e-01 7.277566e-01 1.353722e+00 2.097048e+00 -1.027804e-03 5.420632e-02 -1.215458e-02 -3.765089e-02 -1.757107e-02 -1.500367e-02 -9.434231e-03 7.105067e-03 -5.403066e-03 -2.686722e-02 -8.833040e-03 -1.104153e-02 1.252334e-02
<VARIANCE> 25
 2.948850e+00 9.860620e+00 7.331146e+00 6.064614e+00 7.791627e+00 1.301580e+01 1.039544e+01 8.754478e+00 9.969010e+00 1.162677e+01 8.240525e+00 7.955004e+00 1.678637e-01 7.003498e-01 4.428681e-01 5.797783e-01 7.663546e-01 9.527991e-01 1.089210e+00 8.756852e-01 9.918841e-01 1.282144e+00 9.089277e-01 7.734236e-01 2.113417e-01
<GCONST> 6.564884e+01
<STATE> 3
<MEAN> 25
 -3.215764e+00 2.248025e+00 -2.789532e+00 -2.641006e+00 -1.836729e+00 3.082102e+00 2.864373e-01 3.573806e+00 8.029447e-01 -1.660935e-01 -3.807743e-01 2.433554e+00 -2.408623e-01 -9.373462e-01 1.117506e+00 1.870903e-01 1.655348e+00 -1.272566e+00 -1.806570e+00 -5.268707e-01 3.758094e-01 1.221988e-01 -7.883444e-01 -4.364745e-01 1.296966e+00
<VARIANCE> 25
 5.247662e+00 4.988232e+00 5.763553e+00 8.257010e+00 1.372224e+01 1.255100e+01 8.232175e+00 4.123416e+00 6.387757e+00 2.748024e+00 5.730067e+00 8.157597e+00 1.034653e+00 1.501165e+00 4.717725e-01 1.220163e+00 1.821246e+00 1.767424e+00 9.909343e-01 3.341577e+00 3.424249e-01 1.339623e+00 4.350287e-01 9.514601e-01 8.200042e-01
<GCONST> 6.885245e+01
<STATE> 4
<MEAN> 25
 5.208516e+00 -7.293263e+00 1.368517e+01 1.188406e+00 1.363838e+01 -1.302114e+01 -1.085154e+01 -7.026880e+00 4.086770e-01 -3.345102e-01 -3.491822e+00 -6.730472e+00 5.057558e-01 -4.633477e-01 6.665298e-01 1.387489e-02 7.164454e-01 -4.481288e-01 -1.632774e-01 -3.117968e-01 -1.983767e-01 2.795402e-01 -8.686797e-02 -3.772034e-01 2.884647e-01
<VARIANCE> 25
 6.788956e+01 5.953553e+01 4.240583e+01 4.439362e+01 4.995382e+01 4.737126e+01 4.093009e+01 7.098587e+01 4.250800e+01 4.967157e+01 3.356563e+01 3.908499e+01 1.416818e+00 1.810616e+00 1.708142e+00 1.893903e+00 2.287747e+00 3.534829e+00 2.744636e+00 4.010010e+00 3.359133e+00 2.956970e+00 1.860641e+00 1.990171e+00 2.989330e+00
<GCONST> 1.036744e+02
<TRANSP> 5
 0.000000e+00 1.000000e+00 0.000000e+00 0.000000e+00 0.000000e+00
 0.000000e+00 9.890243e-01 1.097563e-02 0.000000e+00 0.000000e+00
 0.000000e+00 0.000000e+00 7.043398e-01 2.956602e-01 0.000000e+00
 0.000000e+00 0.000000e+00 0.000000e+00 9.657046e-01 3.429544e-02
 0.000000e+00 0.000000e+00 0.000000e+00 0.000000e+00 0.000000e+00
<ENDHMM>
~h "sp"
<BEGINHMM>
<NUMSTATES> 3
<STATE> 2
~s "silst"
<TRANSP> 3
 0.000000e+00 8.782713e-02 9.121729e-01
 0.000000e+00 8.778949e-01 1.221051e-01
 0.000000e+00 0.000000e+00 0.000000e+00
<ENDHMM>
~h "saat"
<BEGINHMM>
<NUMSTATES> 5
<STATE> 2
<MEAN> 25
 -1.707440e+00 4.140867e+00 -4.551044e+00 3.695211e+00 6.465424e-01 6.168450e-01 -6.701396e-01 7.527753e-01 -1.613119e+00 -1.782368e-01 -5.400252e-01 -1.710373e+00 -7.175816e-03 -2.002830e-02 -7.645223e-03 4.032061e-03 -1.627154e-02 -4.987042e-03 -2.244759e-03 -1.309022e-02 8.233746e-03 1.229081e-02 4.466482e-03 2.042603e-02 3.484410e-02
<VARIANCE> 25
 2.302728e+00 4.188571e+00 6.168535e+00 6.712727e+00 7.742938e+00 9.780196e+00 7.894019e+00 8.704433e+00 1.105537e+01 8.783790e+00 6.303402e+00 6.914413e+00 7.170865e-02 2.055838e-01 2.865857e-01 3.956765e-01 5.209228e-01 6.480440e-01 7.093242e-01 8.575342e-01 8.743829e-01 8.760844e-01 7.024184e-01 6.560250e-01 5.524750e-02
<GCONST> 5.693019e+01
<STATE> 3
<MEAN> 25
 -2.654200e+00 2.853167e+00 -2.816770e+00 3.895216e+00 -1.072851e+00 2.845113e+00 -9.294742e-01 -3.014893e-01 -1.275429e+00 4.079004e-01 -1.001672e+00 -1.814203e+00 1.798477e-01 -2.924345e-01 5.382008e-01 1.321927e-01 2.472200e-02 2.708036e-01 -4.677223e-02 -7.104563e-02 1.290697e-01 -1.626866e-02 -9.774890e-02 -3.078386e-02 3.516581e-01
<VARIANCE> 25
 7.891110e+00 6.892166e+00 1.244511e+01 1.219686e+01 8.869718e+00 1.256176e+01 9.783917e+00 8.598051e+00 1.287764e+01 1.099463e+01 1.293835e+01 6.541402e+00 1.636705e+00 2.144847e+00 1.746041e+00 1.346580e+00 1.474112e+00 1.726383e+00 1.190986e+00 1.045256e+00 1.523898e+00 1.355881e+00 1.725139e+00 8.750152e-01 9.945621e-01
<GCONST> 7.789825e+01
<STATE> 4
<MEAN> 25
 -1.137053e+00 -7.487617e+00 9.391131e+00 -5.601545e+00 2.574799e+00 -7.404635e-01 2.052629e+00 -2.736708e+00 3.374260e+00 4.832421e-01 8.433762e-01 1.313164e+00 4.093229e-01 -3.021550e-01 2.912470e-01 -4.845018e-01 8.983891e-02 -3.108992e-01 3.916899e-03 -7.643628e-02 -1.159323e-02 -8.524327e-03 -2.701630e-02 2.165883e-01 3.216737e-01
<VARIANCE> 25
 2.073744e+02 6.431450e+01 3.847733e+01 8.809623e+01 5.088480e+01 1.266004e+02 4.971540e+01 5.530340e+01 4.179283e+01 2.387299e+01 2.833117e+01 3.075158e+01 7.037651e+00 3.885922e+00 3.052976e+00 3.218742e+00 2.493673e+00 4.425682e+00 3.411471e+00 4.154479e+00 3.306572e+00 2.386111e+00 2.587032e+00 2.433879e+00 1.979116e+00
<GCONST> 1.091733e+02
<TRANSP> 5
 0.000000e+00 1.000000e+00 0.000000e+00 0.000000e+00 0.000000e+00
 0.000000e+00 9.843944e-01 1.560561e-02 0.000000e+00 0.000000e+00
 0.000000e+00 0.000000e+00 8.756995e-01 1.243005e-01 0.000000e+00
 0.000000e+00 0.000000e+00 0.000000e+00 9.748198e-01 2.518026e-02
 0.000000e+00 0.000000e+00 0.000000e+00 0.000000e+00 0.000000e+00
<ENDHMM>
~h "saha"
<BEGINHMM>
<NUMSTATES> 5
<STATE> 2
<MEAN> 25
 -2.747907e+00 4.936721e+00 -5.043500e+00 4.730755e+00 1.018263e+00 1.115636e+00 -1.696292e+00 7.456936e-01 -1.986029e+00 -5.699700e-01 8.224370e-01 -1.715272e+00 -7.195510e-04 -4.095107e-02 8.691655e-03 -8.195207e-03 -3.569860e-02 1.557587e-02 2.079751e-02 1.988401e-02 2.035348e-03 -4.826542e-03 3.312519e-02 3.393291e-02 4.944153e-02
<VARIANCE> 25
 3.768136e+00 5.425112e+00 1.328190e+01 7.808690e+00 1.232052e+01 1.161698e+01 1.385877e+01 1.229903e+01 7.602295e+00 8.541257e+00 8.652920e+00 7.059034e+00 1.038670e-01 3.814977e-01 4.674384e-01 4.122794e-01 6.033826e-01 6.606600e-01 7.797590e-01 7.845642e-01 8.139526e-01 7.749152e-01 7.798629e-01 6.574025e-01 1.172471e-01
<GCONST> 6.243554e+01
<STATE> 3
<MEAN> 25
 -1.219127e+01 -5.168040e+00 1.070232e+01 -9.555383e-01 8.824992e-01 4.461645e+00 -3.165354e+00 -3.189253e+00 3.355018e+00 -1.452134e+00 5.415165e+00 -2.253034e+00 -7.504990e-01 -5.691990e-01 7.818316e-01 -1.869169e-01 1.049829e-01 2.293450e-02 -1.183350e-01 2.490095e-01 2.562624e-01 -5.842973e-02 -2.423325e-02 7.831623e-02 9.889772e-01
<VARIANCE> 25
 5.278547e+01 3.354578e+01 8.273192e+01 2.133140e+01 3.805903e+01 2.462555e+01 1.613643e+01 2.488556e+01 1.598169e+01 1.090260e+01 9.424383e+00 1.026727e+01 9.086372e-01 4.531247e+00 3.432065e+00 1.956608e+00 4.586612e+00 1.440250e+00 2.560026e+00 2.055292e+00 1.847970e+00 1.343258e+00 1.005048e+00 1.314336e+00 1.660868e+00
<GCONST> 9.203571e+01
<STATE> 4
<MEAN> 25
 5.951982e+00 -7.149558e+00 7.288962e+00 -7.751242e+00 1.345782e+00 -4.824204e+00 3.853970e+00 5.526859e-01 8.607674e-02 1.069094e+00 -2.840497e+00 3.998989e+00 5.151328e-01 -1.104178e-01 5.003009e-03 -3.449643e-01 -4.898388e-02 -7.622300e-02 1.159550e-01 -7.309496e-02 1.094575e-01 2.915239e-02 -3.100346e-01 1.514861e-01 -1.038732e-02
<VARIANCE> 25
 1.772082e+02 3.630395e+01 3.489408e+01 1.015283e+02 6.105733e+01 6.107592e+01 8.100157e+01 8.170961e+01 5.935748e+01 5.781432e+01 5.680980e+01 4.914574e+01 4.374940e+00 2.876445e+00 2.975515e+00 3.307356e+00 3.893135e+00 3.741888e+00 4.802135e+00 4.536257e+00 3.858015e+00 6.029797e+00 3.783277e+00 3.594804e+00 1.222201e+00
<GCONST> 1.125223e+02
<TRANSP> 5
 0.000000e+00 1.000000e+00 0.000000e+00 0.000000e+00 0.000000e+00
 0.000000e+00 9.855499e-01 1.445018e-02 0.000000e+00 0.000000e+00
 0.000000e+00 0.000000e+00 8.927040e-01 1.072961e-01 0.000000e+00
 0.000000e+00 0.000000e+00 0.000000e+00 9.740709e-01 2.592914e-02
 0.000000e+00 0.000000e+00 0.000000e+00 0.000000e+00 0.000000e+00
<ENDHMM>
~h "char"
<BEGINHMM>
<NUMSTATES> 5
<STATE> 2
<MEAN> 25
 -2.699281e+00 4.351077e+00 -2.850033e+00 1.838750e+00 -1.468055e-01 1.751336e+00 2.630290e-01 3.439824e-02 1.379860e-01 2.684277e-01 -1.802046e-01 -2.140944e+00 -8.036175e-03 1.776166e-02 2.952487e-02 -1.095620e-03 -1.745838e-02 1.637650e-02 4.225283e-02 3.774601e-02 4.001512e-02 2.673184e-02 1.222105e-02 6.937510e-03 6.351805e-03
<VARIANCE> 25
 1.792019e+00 4.480494e+00 3.464072e+00 4.919339e+00 4.788491e+00 5.799356e+00 5.567548e+00 7.668213e+00 8.125093e+00 1.092043e+01 6.602876e+00 6.385943e+00 9.368218e-02 3.214450e-01 2.992099e-01 4.757591e-01 4.447803e-01 5.147210e-01 5.874111e-01 6.463895e-01 1.046022e+00 1.099774e+00 7.704160e-01 7.453576e-01 6.994242e-02
<GCONST> 5.520119e+01
<STATE> 3
<MEAN> 25
 -3.257491e+00 2.033087e+00 -3.962501e+00 2.744701e+00 -2.033842e+00 1.696049e-01 -1.961078e-02 6.952616e-01 4.629235e-01 2.238512e+00 1.681731e+00 -4.067057e+00 -7.809069e-01 -1.398151e+00 1.687695e+00 -3.446578e-01 -5.355894e-01 7.393966e-01 -3.801635e-01 3.384033e-01 5.231096e-01 -7.455714e-01 3.689049e-01 -7.993996e-02 1.000515e+00
<VARIANCE> 25
 6.957505e+00 1.654651e+01 1.306800e+01 2.431214e+01 4.059772e+00 1.723395e+01 1.459538e+01 8.612561e+00 5.362946e+00 1.043018e+01 6.692924e+00 4.429912e+00 1.291311e+00 5.764070e+00 2.888759e+00 2.897943e+00 7.300658e-01 2.409807e+00 4.044164e+00 1.760353e+00 1.558806e+00 2.426352e+00 1.379722e+00 1.116131e+00 1.802033e+00
<GCONST> 8.196049e+01
<STATE> 4
<MEAN> 25
 3.760663e+00 -8.373423e+00 8.365711e+00 -6.688579e+00 2.624310e+00 -3.431787e+00 -1.420431e-01 3.237036e-01 1.353536e+00 2.199713e+00 -1.559474e+00 5.287548e+00 4.380905e-01 -1.512800e-01 1.342996e-01 -2.326367e-01 1.290447e-01 -2.070515e-01 -5.472774e-02 4.680806e-02 -5.528016e-02 9.415284e-02 -9.587217e-02 2.233900e-01 2.485502e-01
<VARIANCE> 25
 1.217376e+02 2.554083e+01 4.322244e+01 8.762231e+01 9.243771e+01 6.500078e+01 5.559041e+01 6.370845e+01 7.712426e+01 4.180165e+01 5.429491e+01 7.262701e+01 5.101256e+00 2.602265e+00 4.041618e+00 3.350957e+00 6.339775e+00 6.239993e+00 5.735014e+00 4.720003e+00 5.907283e+00 3.629070e+00 4.621729e+00 3.997211e+00 2.491288e+00
<GCONST> 1.145222e+02
<TRANSP> 5
 0.000000e+00 1.000000e+00 0.000000e+00 0.000000e+00 0.000000e+00
 0.000000e+00 9.819561e-01 1.804392e-02 0.000000e+00 0.000000e+00
 0.000000e+00 0.000000e+00 6.945652e-01 3.054348e-01 0.000000e+00
 0.000000e+00 0.000000e+00 0.000000e+00 9.675208e-01 3.247916e-02
 0.000000e+00 0.000000e+00 0.000000e+00 0.000000e+00 0.000000e+00
<ENDHMM>
~h "teen"
<BEGINHMM>
<NUMSTATES> 5
<STATE> 2
<MEAN> 25
 -2.349643e+00 3.388635e+00 -5.785038e+00 -1.675568e+00 -3.832566e+00 2.434191e+00 1.517147e+00 -2.267998e-01 -1.469590e+00 2.420819e+00 1.936556e-01 1.793161e+00 9.536623e-03 -2.466203e-03 -3.974438e-03 5.077264e-03 4.785484e-03 -1.130691e-04 2.039167e-02 1.980105e-02 9.004917e-03 -1.071557e-03 2.223845e-02 1.554844e-02 3.996778e-02
<VARIANCE> 25
 1.218468e+00 3.324010e+00 6.751819e+00 4.206464e+00 5.034625e+00 8.440495e+00 8.112394e+00 9.693511e+00 6.901867e+00 7.791689e+00 5.937938e+00 4.858456e+00 8.054703e-02 2.070436e-01 3.482066e-01 4.699410e-01 5.885211e-01 7.199394e-01 9.485840e-01 7.475213e-01 6.410941e-01 1.024580e+00 6.964182e-01 5.512733e-01 6.770155e-02
<GCONST> 5.497666e+01
<STATE> 3
<MEAN> 25
 -2.597937e+00 4.396223e-01 -5.307710e+00 -8.201472e-01 -4.081505e+00 6.921291e-01 2.735775e+00 2.313958e+00 -1.482142e+00 1.476463e+00 -5.428035e-01 2.010200e+00 1.357521e-02 -3.568427e-01 1.276518e-02 -1.276975e-02 -8.567786e-02 5.990367e-02 7.186809e-02 -2.592932e-01 5.058008e-02 -1.678532e-02 -5.985564e-02 -1.418611e-01 2.491887e-01
<VARIANCE> 25
 2.160511e+00 1.827320e+01 9.423400e+00 7.365900e+00 5.060212e+00 9.510374e+00 1.133622e+01 9.787428e+00 9.029468e+00 7.432413e+00 9.439646e+00 7.497076e+00 3.521645e-01 3.848601e+00 1.472991e+00 1.436383e+00 7.122755e-01 1.183002e+00 1.555201e+00 8.191251e-01 1.450669e+00 1.090466e+00 1.533815e+00 9.741527e-01 1.677229e+00
<GCONST> 7.341311e+01
<STATE> 4
<MEAN> 25
 4.005030e+00 -8.404860e+00 1.711849e+01 3.420436e+00 1.187021e+01 -1.105217e+01 -2.998167e+00 -3.116407e+00 5.848973e+00 -6.534118e+00 -1.813227e+00 -6.768247e+00 3.535368e-01 -5.016523e-02 5.072139e-01 2.204488e-01 3.671348e-01 -2.775908e-01 -2.530027e-01 4.425294e-02 1.749726e-01 -2.007193e-01 1.671873e-04 -1.609259e-01 1.143801e-01
<VARIANCE> 25
 2.709529e+01 3.725853e+01 1.417335e+02 4.533128e+01 1.217988e+02 1.049479e+02 4.096936e+01 7.998707e+01 6.991686e+01 6.569669e+01 4.475786e+01 3.764238e+01 1.362418e+00 2.639634e+00 5.369247e+00 4.030459e+00 5.484409e+00 5.401477e+00 4.247531e+00 4.139467e+00 3.239239e+00 5.571196e+00 4.923130e+00 3.068444e+00 3.216275e+00
<GCONST> 1.124306e+02
<TRANSP> 5
 0.000000e+00 1.000000e+00 0.000000e+00 0.000000e+00 0.000000e+00
 0.000000e+00 9.886320e-01 1.136803e-02 0.000000e+00 0.000000e+00
 0.000000e+00 0.000000e+00 9.539564e-01 4.604359e-02 0.000000e+00
 0.000000e+00 0.000000e+00 0.000000e+00 9.730729e-01 2.692707e-02
 0.000000e+00 0.000000e+00 0.000000e+00 0.000000e+00 0.000000e+00
<ENDHMM>
~h "don"
<BEGINHMM>
<NUMSTATES> 5
<STATE> 2
<MEAN> 25
 -6.804081e+00 3.330587e+00 -5.962871e+00 9.365534e-01 -8.451108e-01 -4.598164e-01 4.016802e+00 -1.137081e+00 2.344276e-01 2.246497e+00 -7.660778e-02 9.686922e-01 -2.524211e-02 -8.271475e-02 -3.646352e-02 -2.679378e-02 -1.138965e-02 -2.138676e-02 -3.299057e-03 -5.658218e-03 1.332274e-02 2.076238e-02 4.233705e-02 3.592971e-02 4.560860e-02
<VARIANCE> 25
 2.615927e+00 7.662152e+00 5.924744e+00 3.271926e+00 8.835265e+00 6.402568e+00 7.249201e+00 8.489674e+00 9.278009e+00 9.736636e+00 7.536002e+00 7.141778e+00 8.352392e-02 2.771583e-01 3.740629e-01 3.728912e-01 4.835830e-01 4.544042e-01 7.205677e-01 7.970711e-01 8.959663e-01 1.008072e+00 6.918138e-01 6.725054e-01 8.921784e-02
<GCONST> 5.746467e+01
<STATE> 3
<MEAN> 25
 -5.791745e+00 -3.167421e+00 -6.812837e+00 -7.434232e-01 1.242313e+00 -1.694863e+00 3.204260e+00 -3.829304e+00 4.388916e-01 -1.020039e+00 2.462022e+00 2.709680e+00 6.354196e-02 -2.315945e-02 3.558849e-04 1.517641e-01 -1.818348e-02 6.099190e-02 -5.145492e-02 1.717697e-02 8.150289e-02 1.494028e-03 -1.029770e-01 -2.472068e-02 5.477603e-03
<VARIANCE> 25
 5.645667e+00 4.012572e+01 3.111087e+01 1.369246e+01 1.270157e+01 4.720831e+01 1.957916e+01 1.403407e+01 1.880076e+01 1.457504e+01 1.012490e+01 1.476394e+01 7.201486e-01 2.447007e+00 1.577382e+00 1.272400e+00 1.578530e+00 2.905721e+00 1.355974e+00 1.552244e+00 1.549198e+00 1.282457e+00 1.167883e+00 1.319359e+00 1.414312e-01
<GCONST> 8.275042e+01
<STATE> 4
<MEAN> 25
 1.162688e+01 -6.310621e+00 9.830410e+00 -1.791942e+00 -5.674220e-01 -1.124310e+00 -6.533854e+00 2.688608e+00 -2.888393e+00 -4.265213e+00 7.264143e-01 -2.565097e+00 3.653731e-01 -2.481016e-01 1.910751e-01 2.708858e-01 2.055721e-03 1.405528e-01 -2.749342e-01 9.306005e-02 -8.151927e-03 -2.534297e-01 -5.551581e-02 -7.126836e-02 1.084950e-01
<VARIANCE> 25
 8.334136e+01 6.780448e+01 6.393994e+01 1.232262e+02 5.422819e+01 8.119162e+01 8.385927e+01 8.070025e+01 8.638448e+01 5.133858e+01 5.208674e+01 4.665862e+01 5.482459e+00 3.911728e+00 3.659593e+00 6.526274e+00 4.969444e+00 6.184797e+00 6.774119e+00 4.960947e+00 6.958121e+00 5.990871e+00 5.989744e+00 5.261396e+00 1.985362e+00
<GCONST> 1.180066e+02
<TRANSP> 5
 0.000000e+00 1.000000e+00 0.000000e+00 0.000000e+00 0.000000e+00
 0.000000e+00 9.857728e-01 1.422717e-02 0.000000e+00 0.000000e+00
 0.000000e+00 0.000000e+00 9.460703e-01 5.392974e-02 0.000000e+00
 0.000000e+00 0.000000e+00 0.000000e+00 9.601715e-01 3.982847e-02
 0.000000e+00 0.000000e+00 0.000000e+00 0.000000e+00 0.000000e+00
<ENDHMM>
~h "nau"
<BEGINHMM>
<NUMSTATES> 5
<STATE> 2
<MEAN> 25
 -6.918853e+00 3.143413e+00 -5.245530e+00 1.225152e+00 -2.328650e-01 1.237812e+00 1.974260e+00 -6.569488e-01 1.490464e+00 3.339129e-01 1.373069e+00 1.878169e-01 1.209858e-02 7.402841e-03 -2.538305e-02 6.083387e-03 2.494142e-02 -1.448520e-02 2.094336e-02 4.781394e-02 2.755278e-02 7.896574e-03 1.069529e-02 1.185015e-03 -6.861389e-04
<VARIANCE> 25
 3.281510e+00 3.920592e+00 3.896423e+00 4.582047e+00 1.064841e+01 1.500658e+01 1.087264e+01 9.288451e+00 9.098772e+00 9.495504e+00 7.962665e+00 7.654343e+00 5.852131e-02 2.297738e-01 2.961464e-01 3.607642e-01 4.298331e-01 6.497305e-01 7.508945e-01 9.229564e-01 8.466346e-01 7.969684e-01 6.341617e-01 6.147241e-01 5.158101e-02
<GCONST> 5.715384e+01
<STATE> 3
<MEAN> 25
 -4.287532e+00 -2.664013e+00 -6.953183e+00 5.310668e+00 2.586011e+00 1.374009e+00 -3.161131e-02 1.245087e+00 1.702676e+00 -4.182363e+00 5.182401e-01 1.196491e+00 3.262474e-01 -2.443381e-01 3.504889e-01 8.071478e-01 4.307180e-01 3.606831e-01 -1.508165e-01 -2.401310e-01 1.092181e-01 -2.852603e-01 -4.164764e-01 -2.145697e-01 4.024189e-01
<VARIANCE> 25
 6.723656e+00 2.252477e+01 9.734288e+00 1.742627e+01 6.261079e+00 1.215614e+01 1.105054e+01 1.419045e+01 1.529338e+01 2.074314e+01 2.314198e+01 1.791568e+01 4.476176e-01 9.192376e-01 7.364856e-01 1.239758e+00 6.870089e-01 1.617581e+00 1.189830e+00 1.801665e+00 1.830280e+00 1.916204e+00 2.048087e+00 9.365858e-01 1.344763e-01
<GCONST> 7.706391e+01
<STATE> 4
<MEAN> 25
 1.414250e+01 -5.948744e+00 3.538593e+00 1.303895e+01 2.479362e+00 9.013486e+00 -8.575763e+00 -5.301847e+00 2.090568e+00 -6.528581e-01 -4.699172e+00 -3.856780e+00 1.499211e+00 -7.751505e-01 8.080924e-01 -1.371095e-01 3.194413e-01 9.957072e-02 -5.691283e-01 7.943344e-02 -5.061347e-01 -3.661042e-01 -2.080324e-01 -1.631809e-01 3.732415e-01
<VARIANCE> 25
 1.036162e+02 7.322669e+01 3.390442e+01 6.641356e+01 4.607576e+01 7.166977e+01 1.049648e+02 8.865445e+01 7.812431e+01 6.919567e+01 6.332918e+01 3.599022e+01 5.370979e+00 3.313641e+00 2.237823e+00 6.738643e+00 5.186736e+00 6.040235e+00 7.572903e+00 4.752545e+00 3.816525e+00 5.152563e+00 3.179051e+00 2.175616e+00 1.278030e+00
<GCONST> 1.139465e+02
<TRANSP> 5
 0.000000e+00 1.000000e+00 0.000000e+00 0.000000e+00 0.000000e+00
 0.000000e+00 9.861137e-01 1.388627e-02 0.000000e+00 0.000000e+00
 0.000000e+00 0.000000e+00 8.630365e-01 1.369635e-01 0.000000e+00
 0.000000e+00 0.000000e+00 0.000000e+00 9.236109e-01 7.638910e-02
 0.000000e+00 0.000000e+00 0.000000e+00 0.000000e+00 0.000000e+00
<ENDHMM>
~h "sil"
<BEGINHMM>
<NUMSTATES> 5
<STATE> 2
<MEAN> 25
 1.862365e+00 1.043431e+00 5.660394e-01 1.268086e+00 2.620846e+00 1.750223e+00 3.841708e-01 1.769150e+00 1.146082e+00 -1.746833e-02 1.538978e+00 1.724298e+00 -2.408988e+00 5.349736e-01 -1.340506e+00 -1.173893e-01 -1.683294e+00 -3.368198e-01 1.712068e-01 -5.310376e-01 -2.849257e-01 -5.381138e-01 1.918704e-01 -4.756093e-01 5.588473e+00
<VARIANCE> 25
 1.164781e+02 4.956390e+01 4.366314e+01 4.620967e+01 8.113217e+01 4.535699e+01 3.491878e+01 4.863698e+01 3.723878e+01 3.493296e+01 2.828156e+01 3.038620e+01 1.218770e+01 7.508642e+00 6.328237e+00 7.435837e+00 8.130896e+00 8.065862e+00 5.748591e+00 6.944274e+00 5.330705e+00 4.040826e+00 5.423419e+00 4.244107e+00 4.064395e+01
<GCONST> 1.179417e+02
<STATE> 3
~s "silst"
<STATE> 4
<MEAN> 25
 9.702777e+00 -7.369660e+00 8.261677e+00 -6.589403e+00 -2.793460e+00 -2.996681e+00 -1.745516e+00 -2.000353e-01 -7.557700e-01 -1.050597e+00 -8.316963e-01 1.288524e+00 2.786658e-01 2.411470e-02 1.740709e-01 2.840953e-02 -5.665177e-02 1.656072e-01 5.650598e-02 -7.721683e-03 -1.538089e-01 1.416194e-01 -1.850557e-01 5.468278e-02 -2.755537e-01
<VARIANCE> 25
 1.524099e+02 6.486438e+01 8.537360e+01 1.038325e+02 1.327716e+02 1.020060e+02 8.626589e+01 7.489710e+01 8.459038e+01 8.060916e+01 6.403004e+01 5.835924e+01 3.350641e+00 2.866081e+00 3.630809e+00 5.027202e+00 5.397559e+00 4.769290e+00 4.719398e+00 4.710944e+00 5.600075e+00 6.465198e+00 4.815926e+00 3.349894e+00 1.414525e+00
<GCONST> 1.178092e+02
<TRANSP> 5
 0.000000e+00 1.000000e+00 0.000000e+00 0.000000e+00 0.000000e+00
 0.000000e+00 6.530964e-01 2.188062e-01 1.280974e-01 0.000000e+00
 0.000000e+00 0.000000e+00 9.284909e-01 7.150910e-02 0.000000e+00
 0.000000e+00 6.936338e-02 0.000000e+00 8.180260e-01 1.126106e-01
 0.000000e+00 0.000000e+00 0.000000e+00 0.000000e+00 0.000000e+00
<ENDHMM>
~h "shunya"
<BEGINHMM>
<NUMSTATES> 5
<STATE> 2
<MEAN> 25
 -5.814858e+00 7.685899e+00 -5.930794e+00 9.686233e-02 -4.999309e+00 1.738311e+00 3.094918e+00 4.641907e-01 -9.788994e-01 8.391584e-01 -3.392724e-01 1.290223e+00 -2.431413e-03 -1.337359e-02 -2.802611e-02 2.468570e-03 3.497680e-03 -1.939202e-02 -2.737933e-02 -6.962263e-03 -7.762984e-03 -1.474540e-02 4.088460e-05 1.674085e-02 2.911225e-02
<VARIANCE> 25
 1.781308e+00 8.332398e+00 4.700942e+00 7.176845e+00 1.055607e+01 9.790244e+00 1.296276e+01 1.115193e+01 8.498852e+00 8.714736e+00 6.303883e+00 7.014901e+00 1.151195e-01 4.353292e-01 3.622252e-01 4.801808e-01 5.544538e-01 6.255819e-01 8.969120e-01 7.190151e-01 6.999046e-01 7.734421e-01 5.751016e-01 6.354825e-01 1.428727e-01
<GCONST> 6.006285e+01
<STATE> 3
<MEAN> 25
 -5.226676e+00 5.554810e+00 -4.712906e+00 8.734851e-01 -2.975001e+00 1.743284e+00 1.340347e-01 4.296985e-01 8.165928e-01 -3.018174e-01 1.315510e-01 2.253354e+00 7.130368e-01 -1.666551e+00 1.144937e+00 4.059231e-01 8.859150e-01 3.251860e-01 -6.384108e-01 1.557542e-01 -1.730507e-01 -6.100144e-01 1.315832e-01 -3.823078e-01 6.907368e-01
<VARIANCE> 25
 7.856323e+00 1.425593e+01 1.163032e+01 2.088373e+01 2.603902e+01 1.228539e+01 2.131937e+01 1.252204e+01 1.436054e+01 1.835630e+01 2.120708e+01 8.409969e+00 1.670041e+00 9.074409e+00 3.658519e+00 4.300557e+00 2.389500e+00 2.373247e+00 3.934818e+00 2.627368e+00 2.572671e+00 2.311966e+00 2.271648e+00 1.392577e+00 5.924956e-01
<GCONST> 9.022792e+01
<STATE> 4
<MEAN> 25
 8.859992e+00 -1.186740e+01 8.530556e+00 6.993129e-01 6.615683e+00 -2.313186e+00 -4.854492e+00 -4.507099e-01 1.726498e+00 -1.544534e+00 -3.710285e-01 -2.358529e+00 2.402018e-01 -6.557363e-02 1.366430e-01 -1.492428e-01 7.723331e-02 -1.508605e-01 -6.905904e-02 -1.213793e-01 4.442385e-02 6.952476e-02 4.445696e-02 -6.718987e-02 1.496945e-01
<VARIANCE> 25
 2.791284e+02 4.419709e+01 3.983782e+01 8.085947e+01 1.231843e+02 1.238247e+02 6.462845e+01 5.893328e+01 7.501004e+01 4.749243e+01 6.458776e+01 3.731884e+01 6.304310e+00 4.086497e+00 4.170577e+00 6.254334e+00 7.487287e+00 7.737878e+00 3.467889e+00 4.211796e+00 6.746257e+00 5.233935e+00 5.631858e+00 3.112636e+00 2.436885e+00
<GCONST> 1.178579e+02
<TRANSP> 5
 0.000000e+00 1.000000e+00 0.000000e+00 0.000000e+00 0.000000e+00
 0.000000e+00 9.854984e-01 1.450156e-02 0.000000e+00 0.000000e+00
 0.000000e+00 0.000000e+00 8.135943e-01 1.864057e-01 0.000000e+00
 0.000000e+00 0.000000e+00 0.000000e+00 9.827507e-01 1.724938e-02
 0.000000e+00 0.000000e+00 0.000000e+00 0.000000e+00 0.000000e+00
<ENDHMM>
~h "pach"
<BEGINHMM>
<NUMSTATES> 5
<STATE> 2
<MEAN> 25
 -4.007625e+00 4.823315e+00 -3.902974e+00 4.048760e+00 1.859757e-01 2.225071e+00 -2.645922e-01 -7.373402e-01 -7.444696e-01 -2.180174e-02 2.140767e-01 -2.437073e+00 -8.277175e-03 1.639271e-02 -4.611364e-03 8.577844e-03 6.273111e-03 2.349522e-03 2.093471e-03 1.200319e-02 3.579589e-02 3.603891e-02 3.418291e-03 -2.862487e-02 -6.467319e-05
<VARIANCE> 25
 3.425104e+00 2.651456e+00 6.101219e+00 5.741916e+00 5.532023e+00 6.674961e+00 5.545424e+00 7.256837e+00 8.362971e+00 6.811455e+00 8.833843e+00 7.074816e+00 7.811529e-02 1.805404e-01 2.645307e-01 3.774524e-01 4.858413e-01 5.851932e-01 6.190053e-01 7.761704e-01 7.329410e-01 7.247502e-01 6.452183e-01 7.878685e-01 5.158101e-02
<GCONST> 5.436083e+01
<STATE> 3
<MEAN> 25
 -4.434143e+00 2.858805e+00 -3.069158e+00 5.479087e+00 1.894495e-01 1.146379e+00 9.056450e-01 1.952028e-02 1.242198e-01 7.378272e-01 1.686936e+00 -3.489519e+00 5.380315e-01 -7.064257e-01 3.944037e-01 -4.087995e-01 -4.539815e-01 -6.434948e-01 -4.214212e-01 2.279611e-01 -1.168347e-01 -2.398171e-01 -3.610806e-01 1.699888e-01 1.584554e+00
<VARIANCE> 25
 4.260602e+00 1.535168e+01 1.137897e+01 4.154266e+00 4.914785e+00 3.727335e+00 1.122792e+01 5.892216e+00 1.125292e+01 1.170227e+01 6.071517e+00 6.499572e+00 1.266968e+00 2.919386e+00 1.890816e+00 1.824937e+00 1.502368e+00 9.729941e-01 1.277878e+00 8.369725e-01 8.721129e-01 1.529414e+00 1.043160e+00 8.610992e-01 5.242594e+00
<GCONST> 7.447023e+01
<STATE> 4
<MEAN> 25
 1.496310e+01 -1.520671e+01 8.713084e+00 -1.570977e+01 2.448901e+00 -1.058961e+01 4.053955e-01 3.892230e+00 3.357288e+00 2.223712e+00 -3.223380e+00 6.056526e+00 5.076375e-01 -4.486016e-01 6.843064e-01 -5.600137e-01 4.564513e-01 -3.653530e-01 1.013604e-02 -1.282960e-01 -2.303542e-01 -3.268883e-02 -1.192783e-01 4.572542e-01 1.151464e-01
<VARIANCE> 25
 3.459067e+01 5.826031e+01 2.766720e+01 5.274281e+01 3.619452e+01 4.763959e+01 2.172978e+01 4.840176e+01 4.018755e+01 4.527371e+01 7.372636e+01 4.141958e+01 3.337597e+00 3.746653e+00 2.035088e+00 4.295797e+00 3.333543e+00 2.580010e+00 2.245816e+00 5.094243e+00 4.349455e+00 4.492150e+00 3.592888e+00 2.279007e+00 3.041843e+00
<GCONST> 1.062531e+02
<TRANSP> 5
 0.000000e+00 1.000000e+00 0.000000e+00 0.000000e+00 0.000000e+00
 0.000000e+00 9.867218e-01 1.327818e-02 0.000000e+00 0.000000e+00
 0.000000e+00 0.000000e+00 7.240383e-01 2.759618e-01 0.000000e+00
 0.000000e+00 0.000000e+00 0.000000e+00 9.416038e-01 5.839616e-02
 0.000000e+00 0.000000e+00 0.000000e+00 0.000000e+00 0.000000e+00
<ENDHMM>
~h "aath"
<BEGINHMM>
<NUMSTATES> 5
<STATE> 2
<MEAN> 25
 -4.697294e+00 3.755500e+00 -1.769934e+00 4.528053e+00 8.961667e-01 1.471256e+00 -1.076796e+00 -3.719552e-02 -1.000386e+00 -2.173880e-01 1.061712e+00 -2.302650e+00 5.912304e-03 4.013505e-02 -2.657773e-02 -1.750728e-02 -4.230529e-03 -4.803554e-03 5.343779e-03 -2.160497e-03 1.741321e-02 2.989210e-03 -1.494606e-02 -9.388933e-03 3.815914e-03
<VARIANCE> 25
 3.066931e+00 6.752998e+00 5.120185e+00 1.074968e+01 9.893725e+00 1.077075e+01 8.460865e+00 9.435060e+00 7.907178e+00 1.112617e+01 1.054376e+01 6.400404e+00 1.619148e-01 3.266700e-01 2.953300e-01 4.980911e-01 5.149276e-01 6.486596e-01 8.426956e-01 8.390075e-01 8.986311e-01 6.066802e-01 7.312458e-01 6.537023e-01 9.967662e-02
<GCONST> 6.077329e+01
<STATE> 3
<MEAN> 25
 -5.537203e+00 1.698261e+00 -1.134664e+00 2.102421e+00 -8.929437e-01 2.156580e+00 4.365071e-01 8.657300e-01 -1.069284e+00 -1.735685e+00 9.348488e-01 -1.391199e+00 1.333028e-02 -3.116483e-01 2.035382e-02 -3.169866e-01 -4.218650e-01 5.073126e-02 3.653523e-01 1.582172e-01 2.526202e-01 -1.801065e-01 -2.594353e-01 8.911660e-02 4.672046e-01
<VARIANCE> 25
 1.228342e+01 3.430988e+01 2.268135e+01 1.587664e+01 2.286504e+01 2.519639e+01 2.221089e+01 1.335502e+01 1.817036e+01 2.266373e+01 1.458794e+01 1.016253e+01 1.061113e+00 3.531479e+00 1.767586e+00 1.886975e+00 2.346279e+00 2.453202e+00 2.270511e+00 1.720189e+00 3.032689e+00 2.527280e+00 2.411321e+00 1.311513e+00 1.933174e+00
<GCONST> 9.043067e+01
<STATE> 4
<MEAN> 25
 1.097332e+01 -8.647656e+00 2.677446e+00 -1.076717e+01 -3.244411e+00 -4.387810e+00 3.104777e+00 2.324770e+00 3.410396e+00 1.984995e+00 -5.436114e+00 5.261871e+00 7.387620e-01 -2.148718e-01 1.325442e-01 -1.074504e-01 4.499803e-01 -1.202532e-01 -3.057824e-01 -4.319916e-01 -3.095108e-01 2.624409e-01 1.871557e-01 2.064422e-01 -1.042746e-02
<VARIANCE> 25
 8.086061e+01 7.036189e+01 4.294868e+01 5.162197e+01 1.368123e+02 8.818290e+01 6.747254e+01 7.349200e+01 9.491190e+01 9.832858e+01 1.076134e+02 5.931688e+01 2.721853e+00 2.551419e+00 2.616354e+00 4.716722e+00 7.087408e+00 6.808484e+00 4.511353e+00 7.126437e+00 6.375364e+00 5.380018e+00 6.672362e+00 5.528360e+00 2.324207e+00
<GCONST> 1.178910e+02
<TRANSP> 5
 0.000000e+00 1.000000e+00 0.000000e+00 0.000000e+00 0.000000e+00
 0.000000e+00 9.819360e-01 1.806405e-02 0.000000e+00 0.000000e+00
 0.000000e+00 0.000000e+00 9.233353e-01 7.666472e-02 0.000000e+00
 0.000000e+00 0.000000e+00 0.000000e+00 9.631696e-01 3.683044e-02
 0.000000e+00 0.000000e+00 0.000000e+00 0.000000e+00 0.000000e+00
<ENDHMM>
