~o
<STREAMINFO> 1 25
<VECSIZE> 25<NULLD><MFCC_D_N_Z_0><DIAGC>
~s "silst"
<MEAN> 25
 -7.222718e+00 3.684723e+00 -1.702164e+00 -3.256824e+00 2.738112e+00 -4.217838e-01 -6.736674e-01 2.762354e+00 -2.451048e+00 8.726138e-02 2.158225e+00 -1.160295e+00 1.047397e-01 -3.525599e-01 -7.471628e-02 2.297500e-01 -3.200577e-01 1.371827e-02 4.034561e-02 -3.257211e-01 4.714545e-02 -7.528367e-02 -2.051848e-01 1.273014e-01 1.360570e+00
<VARIANCE> 25
 6.010185e+01 4.795274e+01 1.512950e+01 2.960738e+01 4.343464e+01 1.671413e+01 1.674917e+01 2.719945e+01 2.036990e+01 1.628390e+01 1.444476e+01 1.659634e+01 2.222542e+00 1.974272e+00 9.863645e-01 1.381767e+00 1.436877e+00 1.403579e+00 1.305102e+00 1.750270e+00 1.997863e+00 1.432541e+00 1.308549e+00 1.069669e+00 4.821440e+00
<GCONST> 9.028758e+01
~h "ek"
<BEGINHMM>
<NUMSTATES> 5
<STATE> 2
<MEAN> 25
 -9.578428e-01 2.243678e+00 -3.023210e-01 -4.039415e-01 -7.289060e-01 -1.056717e+00 -1.589211e+00 -3.104664e+00 -7.926183e-01 -2.766477e-02 -2.421508e+00 -7.521192e-01 9.902560e-01 -5.584798e-01 2.476989e-01 1.653714e+00 4.926248e-01 -1.380577e+00 -2.571431e+00 -1.635214e+00 -6.199867e-01 -3.696215e-01 -2.644988e-01 -6.815313e-01 9.583244e-01
<VARIANCE> 25
 4.210033e+00 3.955189e+00 4.124906e+00 3.371977e+00 3.236491e+00 1.172395e+01 2.133658e+01 1.192492e+01 5.769470e+00 1.024325e+01 3.804537e+00 3.808629e+00 8.540227e-01 1.973010e+00 3.178965e-01 2.663273e+00 4.110400e+00 7.026212e-01 2.208930e+00 9.372712e-01 1.442939e+00 8.573948e-01 9.282811e-01 4.370424e-01 2.851488e-01
<GCONST> 6.751935e+01
<STATE> 3
<MEAN> 25
 7.628025e+00 -5.986608e+00 4.615966e-01 1.398923e+01 7.321433e+00 -7.341753e+00 -1.551711e+01 -1.057047e+01 -4.294159e+00 -3.184124e+00 -5.346396e-01 -1.271779e+00 2.341179e+00 -2.513826e+00 7.730542e-01 3.087997e+00 6.820835e-01 -1.104052e+00 -2.113789e+00 -1.994530e+00 -1.204927e+00 -7.211902e-01 8.956308e-01 4.723827e-01 3.290867e+00
<VARIANCE> 25
 3.441896e+01 2.185170e+01 4.306979e+00 4.917510e+01 2.448698e+01 3.683324e+01 5.454571e+01 2.789058e+01 1.394382e+01 8.680334e+00 1.543961e+01 1.875173e+01 2.242344e+00 2.125892e+00 4.776953e-01 4.113913e+00 5.023517e+00 1.608175e+00 4.708160e+00 2.642234e+00 1.556283e+00 9.729244e-01 1.642833e+00 1.229279e+00 2.169163e+00
<GCONST> 9.126111e+01
<STATE> 4
<MEAN> 25
 6.532910e+00 -6.546103e+00 2.669743e+00 7.739215e+00 2.742854e-01 -2.345706e+00 -4.592589e+00 -4.824403e+00 -1.170993e+00 -1.966953e+00 -6.153930e-01 -2.538811e-01 -1.476330e-01 2.305109e-01 -6.318348e-02 -3.061707e-01 -7.379673e-02 2.220200e-01 3.969234e-01 2.969090e-01 1.251364e-01 5.178084e-02 -5.216193e-02 8.692858e-04 -2.393656e-01
<VARIANCE> 25
 2.634515e+01 6.081673e+01 1.584746e+01 1.200904e+02 9.370690e+01 9.796661e+01 1.661847e+02 4.100267e+01 2.170801e+01 2.575116e+01 1.636409e+01 1.838308e+01 1.668471e+00 4.201544e+00 1.394932e+00 4.656452e+00 5.945724e+00 3.547769e+00 3.823869e+00 2.566625e+00 1.579096e+00 2.284287e+00 1.720380e+00 1.446008e+00 3.389475e+00
<GCONST> 1.034278e+02
<TRANSP> 5
 0.000000e+00 1.000000e+00 0.000000e+00 0.000000e+00 0.000000e+00
 0.000000e+00 6.376254e-01 3.623746e-01 0.000000e+00 0.000000e+00
 0.000000e+00 0.000000e+00 7.147019e-01 2.852981e-01 0.000000e+00
 0.000000e+00 0.000000e+00 0.000000e+00 9.780638e-01 2.193626e-02
 0.000000e+00 0.000000e+00 0.000000e+00 0.000000e+00 0.000000e+00
<ENDHMM>
~h "saat"
<BEGINHMM>
<NUMSTATES> 5
<STATE> 2
<MEAN> 25
 -3.198506e+00 -9.282784e-01 2.722243e-01 5.325390e-01 -2.639243e+00 -1.548281e+00 2.540247e+00 1.054423e+00 -3.011908e+00 8.627980e-02 2.064677e+00 -2.009592e+00 5.664673e-02 -3.308637e+00 2.119217e+00 1.523770e+00 -2.704792e+00 1.072434e+00 1.541894e+00 -1.979839e+00 -1.272299e+00 7.618532e-03 9.748020e-01 6.168531e-01 1.657990e+00
<VARIANCE> 25
 2.564380e+00 3.088676e+01 3.388262e+01 1.841359e+01 1.933044e+01 1.217135e+01 2.355082e+01 3.555373e+01 1.754844e+01 1.427175e+01 9.425699e+00 1.370525e+01 7.901706e-01 1.985835e+00 3.360998e+00 1.629946e+00 7.189944e-01 4.180665e+00 2.259564e+00 4.863766e+00 1.570665e+00 2.170107e+00 1.051143e+00 1.160112e+00 8.927627e-01
<GCONST> 8.629050e+01
<STATE> 3
<MEAN> 25
 -1.590645e+00 -1.699824e+01 1.188415e+01 6.242206e+00 -1.359689e+01 6.260271e+00 3.244895e+00 -8.876053e+00 8.556820e-01 -5.933780e-02 1.374863e+00 2.428885e+00 1.341821e+00 -3.653966e-01 -1.206330e-01 -1.625093e-02 -3.823102e-01 -3.638587e-01 -6.199034e-01 -2.297904e-01 2.402163e-01 -5.939035e-01 -3.801335e-01 3.886201e-01 1.296071e+00
<VARIANCE> 25
 1.886724e+01 3.360086e+01 3.314038e+01 1.587405e+01 1.930473e+01 2.212120e+01 1.804223e+01 1.582167e+01 1.357301e+01 1.053515e+01 1.561143e+01 8.591829e+00 4.466979e+00 4.970243e+00 4.164803e+00 1.237643e+00 2.594417e+00 3.711900e+00 1.862582e+00 2.988688e+00 1.816262e+00 1.283841e+00 9.854550e-01 8.042972e-01 8.620493e-01
<GCONST> 8.942445e+01
<STATE> 4
<MEAN> 25
 1.067940e+01 -5.570313e+00 -1.084494e+00 -1.969664e+00 -9.977341e+00 -3.907170e+00 -7.843447e-01 -1.567266e+00 3.392990e+00 6.340256e-01 -5.614661e-01 2.638843e+00 -3.180519e-01 3.319065e-01 -1.137107e-01 -6.557311e-02 3.040119e-01 3.226800e-02 7.557702e-02 1.344314e-01 5.257577e-02 2.257910e-01 -3.396317e-03 -1.611720e-01 -4.403285e-01
<VARIANCE> 25
 5.124429e+01 7.293971e+01 1.401671e+01 2.018194e+01 4.150289e+01 1.646882e+01 2.074634e+01 4.127960e+01 3.286235e+01 4.708239e+01 1.713206e+01 2.722223e+01 1.497559e+00 7.639138e+00 2.187698e+00 2.743279e+00 2.852239e+00 1.719807e+00 1.435463e+00 3.658006e+00 3.571255e+00 2.772097e+00 1.868380e+00 1.493859e+00 3.428801e+00
<GCONST> 9.861640e+01
<TRANSP> 5
 0.000000e+00 1.000000e+00 0.000000e+00 0.000000e+00 0.000000e+00
 0.000000e+00 7.007387e-01 2.992613e-01 0.000000e+00 0.000000e+00
 0.000000e+00 0.000000e+00 9.230372e-01 7.696280e-02 0.000000e+00
 0.000000e+00 0.000000e+00 0.000000e+00 9.729477e-01 2.705229e-02
 0.000000e+00 0.000000e+00 0.000000e+00 0.000000e+00 0.000000e+00
<ENDHMM>
~h "saha"
<BEGINHMM>
<NUMSTATES> 5
<STATE> 2
<MEAN> 25
 -4.122573e+00 -6.621871e+00 5.482718e+00 4.236547e+00 -5.903856e+00 2.916849e+00 5.482172e+00 -3.276047e+00 -2.311275e+00 7.052926e-01 2.426431e+00 2.486838e-01 -6.767314e-02 -3.051810e+00 2.088447e+00 1.117717e+00 -2.139848e+00 1.556509e+00 1.312305e+00 -7.765797e-01 9.926279e-01 6.299464e-02 -1.087597e-01 6.711834e-01 1.492134e+00
<VARIANCE> 25
 6.607570e+00 7.704285e+01 3.297882e+01 2.080560e+01 3.422806e+01 2.307381e+01 1.319963e+01 3.219502e+01 1.173044e+01 2.859727e+01 1.174858e+01 2.569192e+01 3.657559e-01 2.963543e+00 1.044314e+00 1.894060e+00 2.638329e+00 1.513194e+00 8.777832e-01 1.771967e+00 1.211092e+00 2.887437e+00 8.484809e-01 2.277803e+00 8.500553e-01
<GCONST> 8.729686e+01
<STATE> 3
<MEAN> 25
 3.243782e+00 -1.758888e+01 6.807269e+00 5.995531e+00 -9.371610e+00 5.188779e-01 -1.550080e+00 -5.612415e+00 2.036461e-02 -4.049796e+00 1.640259e+00 4.628346e+00 1.577894e+00 6.032048e-01 -1.176016e+00 -6.616796e-01 2.908266e-01 -1.114256e+00 -1.027629e+00 2.685819e-01 -5.484114e-02 -3.872712e-01 -8.997475e-02 1.576432e-01 1.274069e+00
<VARIANCE> 25
 9.625304e+01 6.808645e+01 7.854019e+01 3.409418e+01 3.727813e+01 8.120824e+01 4.723946e+01 3.878273e+01 3.818967e+01 4.400172e+01 1.654597e+01 1.918658e+01 4.227569e+00 6.508538e+00 3.735058e+00 1.757317e+00 3.482766e+00 5.702607e+00 2.208596e+00 2.648962e+00 5.305215e+00 3.753804e+00 2.388966e+00 1.520749e+00 1.258178e+00
<GCONST> 1.058060e+02
<STATE> 4
<MEAN> 25
 1.202521e+01 -1.932419e+00 -1.256709e-01 -1.632670e+00 -6.895546e+00 -1.406111e+00 1.334130e+00 1.327231e+00 7.200964e+00 2.882797e+00 -3.022480e+00 3.244245e-01 -3.746528e-01 2.295910e-01 1.904894e-01 7.814267e-02 1.293437e-01 2.122214e-01 2.107592e-01 1.030129e-01 7.324035e-02 2.152657e-01 3.356772e-02 -1.611018e-01 -5.012159e-01
<VARIANCE> 25
 4.795399e+01 3.447960e+01 5.289817e+01 4.918019e+01 6.667250e+01 3.195757e+01 2.496700e+01 4.787384e+01 2.704040e+01 3.910439e+01 2.134072e+01 1.645409e+01 9.074699e-01 2.128973e+00 1.748736e+00 1.281369e+00 1.882344e+00 2.015707e+00 1.620611e+00 1.482327e+00 2.036016e+00 1.783088e+00 1.132367e+00 1.377277e+00 8.887945e-01
<GCONST> 9.408763e+01
<TRANSP> 5
 0.000000e+00 1.000000e+00 0.000000e+00 0.000000e+00 0.000000e+00
 0.000000e+00 8.354671e-01 1.645329e-01 0.000000e+00 0.000000e+00
 0.000000e+00 0.000000e+00 9.285818e-01 7.141820e-02 0.000000e+00
 0.000000e+00 0.000000e+00 0.000000e+00 9.776831e-01 2.231690e-02
 0.000000e+00 0.000000e+00 0.000000e+00 0.000000e+00 0.000000e+00
<ENDHMM>
~h "char"
<BEGINHMM>
<NUMSTATES> 5
<STATE> 2
<MEAN> 25
 -4.139899e+00 4.238436e+00 6.302589e-01 1.792372e-02 1.574390e+00 2.431141e-01 2.450912e+00 2.791922e+00 6.658240e-01 1.975403e+00 -4.152687e-01 -1.302365e+00 9.770325e-01 -3.440234e+00 -2.318419e-02 9.023701e-01 -2.362514e+00 -1.289241e+00 -2.636556e-01 2.365045e-02 4.364335e-02 -2.033944e+00 -1.470780e+00 -3.235494e-01 1.981270e+00
<VARIANCE> 25
 1.059610e+00 4.270322e-01 1.482093e+00 1.742098e+00 5.142106e+00 5.451180e+00 4.782555e+00 5.872243e+00 2.259675e+00 1.865693e+00 3.168977e+00 6.823347e+00 3.950790e-01 4.969109e-01 4.022546e-01 5.065915e-01 1.119916e+00 8.571522e-01 1.901334e-01 1.893963e+00 5.121832e+00 3.057746e+00 4.939675e-01 5.581321e-01 6.631021e-01
<GCONST> 5.405453e+01
<STATE> 3
<MEAN> 25
 -2.623741e+00 3.320490e+00 -1.768962e-01 6.328948e-01 1.369280e+00 5.335995e-01 2.220429e+00 -3.474663e-01 -3.087988e+00 -9.851040e-01 -2.007645e+00 -3.343122e+00 4.088762e-01 -7.119733e+00 1.467414e+00 2.023744e+00 -3.879057e+00 -1.497946e+00 -9.906315e-01 -2.674768e-01 9.327331e-01 -2.883897e+00 -1.170209e+00 7.134653e-01 3.494120e+00
<VARIANCE> 25
 7.225919e-01 3.746978e+00 1.557702e+00 1.372766e+00 3.915583e-01 6.182016e+00 3.588369e+00 4.705360e+00 2.185931e+00 1.041932e+01 1.566286e+01 7.894248e+00 6.577652e-01 1.663332e+00 6.308720e-01 1.816712e+00 2.581250e+00 1.303136e+00 5.258253e-01 1.776060e+00 4.430623e+00 3.449108e+00 8.889700e-01 8.000723e-01 6.351494e-01
<GCONST> 6.265953e+01
<STATE> 4
<MEAN> 25
 1.228216e+01 -1.069680e+01 -1.388602e+00 1.384991e+00 -7.577034e+00 -3.750467e+00 -3.492569e+00 -3.326277e+00 2.063730e+00 -3.172165e+00 -5.903825e-01 5.011850e+00 2.348157e-01 2.861164e-01 -8.439794e-04 -9.016646e-02 4.839843e-02 7.252703e-02 5.302195e-02 1.188556e-02 6.335973e-02 1.175879e-01 1.108460e-01 5.144089e-02 7.194708e-02
<VARIANCE> 25
 5.417255e+01 6.821007e+01 4.510785e+01 5.255693e+01 4.301735e+01 2.048551e+01 3.274729e+01 5.876240e+01 6.214345e+01 5.049930e+01 2.311617e+01 3.126654e+01 2.971984e+00 7.002607e+00 3.611397e+00 3.998983e+00 4.993802e+00 2.230072e+00 2.184434e+00 4.087745e+00 4.903060e+00 3.143590e+00 1.775903e+00 2.465910e+00 2.995449e+00
<GCONST> 1.065252e+02
<TRANSP> 5
 0.000000e+00 1.000000e+00 0.000000e+00 0.000000e+00 0.000000e+00
 0.000000e+00 2.677234e-03 9.973228e-01 0.000000e+00 0.000000e+00
 0.000000e+00 0.000000e+00 6.462907e-19 1.000000e+00 0.000000e+00
 0.000000e+00 0.000000e+00 0.000000e+00 9.732190e-01 2.678102e-02
 0.000000e+00 0.000000e+00 0.000000e+00 0.000000e+00 0.000000e+00
<ENDHMM>
~h "teen"
<BEGINHMM>
<NUMSTATES> 5
<STATE> 2
<MEAN> 25
 -2.559870e+00 -2.325597e-01 -2.672733e+00 -3.875274e+00 -3.808709e+00 -1.970938e+00 -6.330439e-01 5.520735e-01 1.665024e-01 2.844655e+00 2.693881e+00 3.242741e-01 1.488647e+00 -4.388356e+00 1.950047e+00 2.194346e+00 -2.594757e+00 -7.139226e-01 -1.462985e+00 -1.797604e+00 1.141659e+00 3.197154e-01 -6.329446e-01 -7.048443e-01 3.148081e+00
<VARIANCE> 25
 3.345977e+00 1.161996e+01 6.303075e+00 3.584218e+00 3.185578e+01 7.185520e+00 7.324056e+00 1.152942e+01 3.868682e+00 8.069671e+00 2.048431e+01 8.233087e+00 1.118627e+00 2.381685e+00 1.930728e+00 3.973465e+00 4.457966e+00 4.654104e-01 7.775405e-01 1.542652e+00 2.948451e-01 2.020324e+00 1.705933e+00 7.137898e-01 2.862720e+00
<GCONST> 7.582304e+01
<STATE> 3
<MEAN> 25
 6.137474e+00 -1.628200e+01 7.431283e+00 1.497917e+01 -1.991657e+00 -3.872777e+00 -8.234881e+00 -7.797875e+00 1.289987e+00 -1.351509e+00 -7.976274e-01 -1.638538e+00 2.744290e+00 -1.589510e+00 2.061114e+00 5.411673e+00 3.476872e+00 -8.449935e-01 -3.450153e+00 -1.886181e+00 -9.522833e-01 -2.423692e+00 -6.073028e-01 6.211367e-01 3.613509e+00
<VARIANCE> 25
 2.071574e+01 1.167408e+01 2.171285e+01 7.847414e+01 1.141788e+02 1.316799e+01 7.218611e+01 2.807238e+01 2.102032e+01 3.065481e+01 1.734785e+01 1.575327e+01 4.727089e-01 6.870675e+00 3.118876e+00 2.918574e+00 5.640518e+00 2.681973e+00 6.862507e+00 4.341469e+00 2.033825e+00 2.057379e+00 2.238214e+00 2.189020e+00 2.078344e+00
<GCONST> 9.913368e+01
<STATE> 4
<MEAN> 25
 1.001276e+01 -3.800099e+00 7.852542e+00 1.330268e+01 4.674985e+00 -2.195640e+00 -9.311581e+00 -6.561962e+00 1.106257e+00 -3.607116e+00 -3.518472e+00 -9.007514e-02 -1.858341e-01 4.221448e-01 -1.647215e-01 -5.255219e-01 -1.410265e-01 2.238093e-01 4.422201e-01 2.344266e-01 7.744566e-02 1.941138e-01 1.982296e-02 -9.293407e-02 -3.926610e-01
<VARIANCE> 25
 2.261592e+01 7.065504e+01 1.839068e+01 6.045182e+01 1.543311e+01 7.713155e+01 1.022895e+02 3.786100e+01 3.008774e+01 2.219132e+01 2.691507e+01 2.109186e+01 9.710827e-01 1.059910e+00 1.232360e+00 1.421981e+00 1.061105e+00 4.036188e+00 1.717285e+00 1.862101e+00 1.457320e+00 1.676399e+00 1.534982e+00 1.719716e+00 7.973946e-01
<GCONST> 9.337064e+01
<TRANSP> 5
 0.000000e+00 1.000000e+00 0.000000e+00 0.000000e+00 0.000000e+00
 0.000000e+00 5.734186e-01 4.265815e-01 0.000000e+00 0.000000e+00
 0.000000e+00 0.000000e+00 7.499375e-01 2.500625e-01 0.000000e+00
 0.000000e+00 0.000000e+00 0.000000e+00 9.747015e-01 2.529848e-02
 0.000000e+00 0.000000e+00 0.000000e+00 0.000000e+00 0.000000e+00
<ENDHMM>
~h "don"
<BEGINHMM>
<NUMSTATES> 5
<STATE> 2
<MEAN> 25
 2.033035e+00 5.709791e+00 5.087624e+00 4.836866e+00 3.017031e+00 3.507341e+00 4.188344e+00 -2.165619e+00 -3.368395e+00 4.646365e-01 -1.538112e+00 -3.399975e+00 1.631462e+00 1.138238e+00 1.574793e+00 1.520885e+00 1.179734e+00 7.999873e-01 -1.934044e-01 -6.282303e-01 -6.229749e-02 -4.606727e-01 -5.617230e-01 -3.961360e-01 1.047800e+00
<VARIANCE> 25
 1.648983e+01 1.250324e+01 1.742032e+01 1.366672e+01 1.008045e+01 9.020731e+00 6.290516e+00 1.118190e+01 1.505264e+01 7.513467e+00 1.139481e+01 1.503268e+01 1.001229e+00 1.301322e+00 1.110836e+00 1.606438e+00 2.367151e+00 1.472136e+00 1.488819e+00 2.123674e+00 7.316905e-01 4.165893e-01 2.632638e+00 2.668134e+00 4.446560e-01
<GCONST> 7.857748e+01
<STATE> 3
<MEAN> 25
 1.054154e+01 -1.034340e-01 6.627293e+00 1.073744e+01 3.358673e+00 -1.952748e+00 -1.166822e+00 7.719697e-01 -1.346952e+00 -5.898017e+00 -2.493562e+00 1.376940e-01 1.272242e+00 -2.485510e+00 -5.616493e-01 -4.617138e-01 -1.884143e+00 -2.088277e+00 -1.420260e+00 1.103271e+00 7.704973e-01 -2.514320e+00 -1.302051e+00 1.201018e+00 2.603978e+00
<VARIANCE> 25
 1.054819e+01 6.065020e+01 7.579729e+00 1.439625e+01 3.806327e+01 6.847112e+01 2.742479e+01 4.483414e+01 1.260642e+01 8.557672e+01 2.483466e+01 1.417859e+01 7.648849e-01 4.471694e+00 1.102591e+00 5.824240e+00 2.324296e+00 5.429903e+00 6.436617e+00 4.365925e+00 2.615185e+00 7.025407e+00 4.019222e+00 9.742357e-01 2.365539e+00
<GCONST> 9.902558e+01
<STATE> 4
<MEAN> 25
 1.275247e+01 -3.235305e+00 5.053993e+00 4.314029e+00 -2.748747e+00 -4.454092e+00 -1.150501e+01 -2.849938e+00 9.363205e+00 -5.548102e+00 -1.022943e+01 7.990905e-01 -3.099637e-01 3.983375e-01 3.534723e-02 4.273506e-02 2.937544e-01 3.189045e-01 1.898457e-01 -2.388089e-01 -7.698302e-02 5.807210e-01 3.342865e-01 -1.864058e-01 -5.676841e-01
<VARIANCE> 25
 1.355013e+01 1.853653e+01 1.925293e+01 2.151437e+01 1.179731e+02 1.028387e+02 3.811291e+01 6.366581e+01 6.669717e+01 4.417768e+01 3.957602e+01 1.882763e+01 4.047907e-01 7.051256e-01 1.365865e+00 1.897132e+00 4.916770e+00 3.788318e+00 2.917081e+00 3.755318e+00 5.023108e+00 2.992964e+00 2.260923e+00 1.854371e+00 3.783879e-01
<GCONST> 9.748772e+01
<TRANSP> 5
 0.000000e+00 1.000000e+00 0.000000e+00 0.000000e+00 0.000000e+00
 0.000000e+00 8.383377e-01 1.616623e-01 0.000000e+00 0.000000e+00
 0.000000e+00 0.000000e+00 8.505264e-01 1.494736e-01 0.000000e+00
 0.000000e+00 0.000000e+00 0.000000e+00 9.642636e-01 3.573638e-02
 0.000000e+00 0.000000e+00 0.000000e+00 0.000000e+00 0.000000e+00
<ENDHMM>
~h "nau"
<BEGINHMM>
<NUMSTATES> 5
<STATE> 2
<MEAN> 25
 -3.697288e+00 -2.063167e+00 -1.857984e+00 -7.382961e-01 -9.934773e-01 7.006116e-01 2.822438e+00 5.351929e-01 -1.419234e+00 -2.645795e-01 3.067986e-01 4.821234e-01 -4.206685e-02 1.994499e-02 -2.990170e-03 -1.711129e-02 1.430090e-02 -2.978652e-02 -3.434886e-02 1.973070e-02 2.614067e-02 3.421880e-02 1.789011e-02 -2.555357e-02 -4.478121e-02
<VARIANCE> 25
 2.467792e+00 5.826825e+00 2.930446e+00 5.610098e+00 6.724534e+00 1.079641e+01 1.123413e+01 9.812854e+00 9.908968e+00 1.524999e+01 8.666368e+00 7.235083e+00 9.410739e-02 4.597794e-01 3.060094e-01 4.786415e-01 8.241007e-01 1.356869e+00 1.413331e+00 1.096297e+00 1.174896e+00 1.456732e+00 9.970158e-01 8.587352e-01 6.165827e-02
<GCONST> 6.264075e+01
<STATE> 3
<MEAN> 25
 -4.936161e+00 9.642920e-01 -2.216751e+00 -1.544017e+00 -3.592488e-01 -1.168274e+00 1.696170e+00 1.620314e+00 1.204414e+00 5.255973e+00 2.835271e+00 -1.292824e+00 2.104417e-01 2.791506e-01 1.947353e-01 2.060501e-01 1.121800e-01 -1.158809e-01 -2.805559e-02 9.803687e-02 1.356342e-01 1.163213e-01 5.343256e-02 -8.706932e-02 8.829895e-02
<VARIANCE> 25
 8.577355e-01 1.433591e+00 2.898786e+00 4.156908e+00 3.779602e+00 9.609518e+00 4.098545e+00 1.238920e+01 7.088558e+00 6.230241e+00 7.703575e+00 5.103930e+00 3.611283e-01 3.442163e-01 4.833261e-01 6.426370e-01 6.603805e-01 7.247718e-01 5.541323e-01 1.189566e+00 7.077011e-01 7.717758e-01 1.217037e+00 8.240587e-01 1.416085e-01
<GCONST> 5.665771e+01
<STATE> 4
<MEAN> 25
 1.308489e+01 3.138322e-01 3.808591e+00 5.694037e+00 8.492559e-02 -5.150858e+00 -8.680831e+00 -2.481690e+00 3.787030e+00 -2.688175e+00 -3.026839e+00 1.077003e+00 2.011828e-01 2.111348e-02 1.472234e-01 8.505411e-02 -6.448753e-02 3.179110e-02 -2.709511e-02 -1.443461e-01 -5.501233e-02 -7.746277e-02 -7.800237e-02 5.094324e-02 1.717518e-01
<VARIANCE> 25
 4.045934e+01 4.667673e+01 2.498213e+01 4.065061e+01 8.240057e+01 1.167890e+02 6.381044e+01 6.840784e+01 4.540782e+01 4.722662e+01 1.340436e+01 3.454566e+01 1.884390e+00 1.992294e+00 1.370132e+00 3.768772e+00 4.143600e+00 5.348478e+00 3.541987e+00 4.752396e+00 2.405492e+00 3.516845e+00 1.903615e+00 2.509288e+00 1.978912e+00
<GCONST> 1.050434e+02
<TRANSP> 5
 0.000000e+00 1.000000e+00 0.000000e+00 0.000000e+00 0.000000e+00
 0.000000e+00 9.839236e-01 1.607638e-02 0.000000e+00 0.000000e+00
 0.000000e+00 0.000000e+00 8.892224e-01 1.107776e-01 0.000000e+00
 0.000000e+00 0.000000e+00 0.000000e+00 9.761776e-01 2.382237e-02
 0.000000e+00 0.000000e+00 0.000000e+00 0.000000e+00 0.000000e+00
<ENDHMM>
~h "sil"
<BEGINHMM>
<NUMSTATES> 5
<STATE> 2
<MEAN> 25
 1.018791e+00 9.639097e+00 1.876997e+00 -5.163943e+00 8.906250e+00 -5.748270e-01 -5.879104e-01 6.989150e+00 -7.281059e-01 1.082903e+00 5.088768e+00 -2.899658e+00 -1.003861e+00 -2.585405e-01 -2.957011e-01 -1.171983e-01 -1.743881e-01 4.365569e-02 1.852679e-02 4.003806e-02 -1.345536e-01 1.139224e-01 -7.731177e-03 1.452450e-02 1.230869e+00
<VARIANCE> 25
 4.778394e+00 2.206468e+01 7.168823e+00 1.720422e+01 2.611877e+01 4.387172e+00 9.468112e+00 1.881207e+01 3.970366e+00 4.557558e+00 8.540549e+00 4.187031e+00 3.059804e+00 4.022097e-01 4.810777e-01 2.132264e-01 3.394513e-01 3.321514e-01 3.657460e-01 2.915078e-01 3.378215e-01 3.219955e-01 3.262284e-01 3.294449e-01 7.152772e+00
<GCONST> 6.284402e+01
<STATE> 3
~s "silst"
<STATE> 4
<MEAN> 25
 -1.986839e+00 8.258429e-01 -6.515171e-01 -5.496240e-01 7.732054e-02 9.103179e-01 1.673166e+00 1.777464e-01 -5.260431e-01 4.481825e-01 -8.614323e-02 -1.989184e-01 -5.964561e-02 1.627773e-02 -3.274151e-02 -4.571901e-02 1.040689e-02 -8.329652e-03 -3.610201e-03 2.535270e-02 -1.510260e-02 8.710494e-03 1.572013e-02 -1.094832e-02 -4.907553e-02
<VARIANCE> 25
 5.095861e+00 4.871264e+00 5.961963e+00 7.738500e+00 9.306055e+00 9.371000e+00 1.044094e+01 1.080142e+01 1.066760e+01 9.858910e+00 8.621494e+00 7.740946e+00 1.346092e-01 2.798223e-01 3.684168e-01 5.223744e-01 6.431454e-01 7.746735e-01 9.166577e-01 9.509768e-01 9.894593e-01 9.497579e-01 9.254766e-01 8.341369e-01 7.684984e-02
<GCONST> 6.239267e+01
<TRANSP> 5
 0.000000e+00 1.000000e+00 0.000000e+00 0.000000e+00 0.000000e+00
 0.000000e+00 6.877699e-01 2.150058e-01 9.722421e-02 0.000000e+00
 0.000000e+00 0.000000e+00 9.304752e-01 6.952477e-02 0.000000e+00
 0.000000e+00 6.202582e-03 0.000000e+00 9.763780e-01 1.741940e-02
 0.000000e+00 0.000000e+00 0.000000e+00 0.000000e+00 0.000000e+00
<ENDHMM>
~h "shunya"
<BEGINHMM>
<NUMSTATES> 5
<STATE> 2
<MEAN> 25
 -4.301841e+00 -5.195251e+00 3.867642e-01 2.328643e+00 -9.760581e-01 -2.843683e-01 1.912557e+00 5.208028e+00 6.694788e+00 -6.698960e-02 -4.191392e+00 -2.327748e+00 -1.196810e-01 -4.126887e+00 1.568291e+00 2.766244e+00 -3.268231e-01 4.184129e-01 -1.180948e+00 -1.521301e+00 2.490053e+00 3.894788e-02 -1.370015e+00 4.524074e-01 1.674008e+00
<VARIANCE> 25
 6.000040e+00 3.864891e+01 1.275712e+01 3.003076e+01 1.328710e+01 1.453468e+01 2.217921e+01 3.931597e+01 1.544620e+01 8.180000e+00 1.053991e+01 1.087097e+01 1.066658e-01 1.887269e+00 1.217122e+00 1.311337e+00 8.116692e-01 5.733881e+00 2.599025e+00 8.439365e+00 9.601789e-01 2.988421e+00 2.292958e+00 8.402495e-01 4.031380e-01
<GCONST> 8.324776e+01
<STATE> 3
<MEAN> 25
 7.513454e-01 -2.415766e+01 6.050011e+00 9.295607e+00 -2.296714e+00 6.720219e+00 -7.294260e+00 -7.457991e+00 1.172857e+01 1.890117e+00 -1.530230e+00 1.818458e+00 1.177255e+00 7.788110e-02 2.978231e-01 2.614017e-01 2.505715e-01 3.134263e-01 -3.877478e-01 -7.123258e-01 -9.153099e-01 -9.169973e-01 1.104240e-01 7.403404e-01 1.098963e+00
<VARIANCE> 25
 2.774651e+01 5.450105e+01 8.037879e+00 2.404914e+01 2.337458e+01 2.839486e+01 2.077500e+01 3.161473e+01 2.466402e+01 2.760703e+01 2.464405e+01 1.527048e+01 2.854562e+00 1.345820e+01 2.046997e+00 2.565037e+00 4.337636e+00 1.805420e+00 1.716439e+00 1.099276e+00 4.469943e+00 3.507768e+00 2.305710e+00 8.646337e-01 1.585088e+00
<GCONST> 9.587444e+01
<STATE> 4
<MEAN> 25
 1.427913e+01 -4.279408e+00 2.623595e+00 8.520596e+00 5.341635e+00 7.317492e-01 -1.095299e+01 -9.180017e+00 1.745035e+00 -4.564608e+00 -4.310019e+00 4.489030e+00 -1.733011e-01 3.923764e-01 -1.164787e-01 -2.316909e-01 -1.125173e-01 -1.313639e-01 2.613560e-01 2.608845e-01 5.291460e-02 2.756101e-01 8.633307e-02 -2.200929e-01 -3.549178e-01
<VARIANCE> 25
 1.539040e+01 3.698031e+01 3.514336e+01 3.649994e+01 4.107112e+01 8.869804e+01 7.256799e+01 9.124180e+01 3.735286e+01 3.881797e+01 3.074132e+01 5.563651e+01 1.365544e+00 2.327584e+00 1.805380e+00 1.987063e+00 2.286321e+00 3.633269e+00 1.704346e+00 2.640363e+00 2.583353e+00 2.402624e+00 2.209848e+00 3.478040e+00 1.366487e+00
<GCONST> 1.014024e+02
<TRANSP> 5
 0.000000e+00 1.000000e+00 0.000000e+00 0.000000e+00 0.000000e+00
 0.000000e+00 6.681824e-01 3.318177e-01 0.000000e+00 0.000000e+00
 0.000000e+00 0.000000e+00 9.166744e-01 8.332562e-02 0.000000e+00
 0.000000e+00 0.000000e+00 0.000000e+00 9.729755e-01 2.702453e-02
 0.000000e+00 0.000000e+00 0.000000e+00 0.000000e+00 0.000000e+00
<ENDHMM>
~h "pach"
<BEGINHMM>
<NUMSTATES> 5
<STATE> 2
<MEAN> 25
 -2.749285e+00 2.011559e+00 -9.661710e-01 7.991290e-02 2.432184e+00 8.918992e-01 6.112101e-01 5.255866e-01 -9.020431e-01 1.271501e-01 -2.618501e-01 -6.014228e-01 -3.678605e-02 3.186580e-02 -4.741669e-03 -9.410815e-03 2.050876e-02 -3.017888e-03 -2.018420e-02 4.759510e-03 -1.223233e-02 -6.237243e-03 3.814717e-02 1.160045e-02 -3.560631e-02
<VARIANCE> 25
 1.214937e+00 4.051523e+00 2.497133e+00 3.384785e+00 5.480955e+00 7.396753e+00 6.062746e+00 6.445899e+00 6.917253e+00 5.746803e+00 8.206270e+00 5.318090e+00 7.627939e-02 2.524569e-01 2.544900e-01 3.638520e-01 6.736292e-01 8.438810e-01 7.172374e-01 6.962590e-01 8.382773e-01 7.314185e-01 9.305344e-01 6.800104e-01 3.363771e-02
<GCONST> 5.257424e+01
<STATE> 3
<MEAN> 25
 -3.904631e+00 4.879276e-01 -1.268984e+00 1.065183e+00 2.725504e+00 -1.056768e+00 -7.094715e-01 1.314895e+00 -3.879109e-01 3.423119e-02 1.196988e+00 -1.020524e+00 1.040958e-01 3.430592e-02 -2.503258e-02 -1.133495e-01 -1.690361e-01 -2.245293e-01 -1.736174e-01 -7.211164e-02 -4.252519e-02 -9.394485e-02 2.167761e-02 -2.098137e-02 5.130345e-02
<VARIANCE> 25
 1.734058e+00 3.733385e+01 7.703012e+00 2.845470e+01 2.570799e+01 1.044970e+01 1.688985e+01 7.799875e+00 1.332724e+01 7.840820e+00 1.893538e+01 1.019272e+01 3.971250e-01 4.665292e+00 1.456295e+00 3.455413e+00 3.776727e+00 1.501183e+00 2.651087e+00 8.025230e-01 1.979841e+00 8.325630e-01 3.385967e+00 1.892885e+00 4.098940e-01
<GCONST> 8.208150e+01
<STATE> 4
<MEAN> 25
 8.442396e+00 -7.201797e+00 1.826574e+00 7.952713e-01 -9.125130e+00 -2.722693e+00 -8.934931e-01 -2.704173e+00 3.524000e+00 6.178205e-01 -7.758369e-01 2.078997e+00 8.641614e-02 -1.207174e-01 9.500951e-02 1.261432e-01 -3.785339e-02 8.691257e-02 1.220990e-01 -1.400321e-02 3.479737e-02 1.526298e-02 -5.153812e-02 3.559688e-02 1.231350e-01
<VARIANCE> 25
 6.986641e+01 1.002927e+02 3.867872e+01 3.075675e+01 5.394229e+01 4.325652e+01 2.212533e+01 3.233336e+01 3.984533e+01 3.510783e+01 2.163752e+01 2.066073e+01 3.163835e+00 6.141665e+00 1.944656e+00 2.017990e+00 4.006207e+00 3.102900e+00 1.951138e+00 2.730836e+00 3.221203e+00 3.009691e+00 2.016087e+00 1.973972e+00 3.881639e+00
<GCONST> 1.030933e+02
<TRANSP> 5
 0.000000e+00 1.000000e+00 0.000000e+00 0.000000e+00 0.000000e+00
 0.000000e+00 9.837531e-01 1.624689e-02 0.000000e+00 0.000000e+00
 0.000000e+00 0.000000e+00 9.151309e-01 8.486917e-02 0.000000e+00
 0.000000e+00 0.000000e+00 0.000000e+00 9.806641e-01 1.933585e-02
 0.000000e+00 0.000000e+00 0.000000e+00 0.000000e+00 0.000000e+00
<ENDHMM>
~h "aath"
<BEGINHMM>
<NUMSTATES> 5
<STATE> 2
<MEAN> 25
 4.626393e+00 4.340603e-01 -2.695066e+00 -6.795999e+00 -8.648993e+00 -1.668019e+00 2.431771e+00 3.623658e+00 6.729954e+00 2.307501e+00 -4.409404e+00 -3.048413e+00 3.815739e+00 -1.249873e+00 -9.961575e-01 -9.227076e-01 -2.563055e+00 -1.685364e+00 -5.562370e-01 1.114121e+00 1.962394e+00 -3.201690e-01 -1.678935e+00 -4.984492e-01 3.553604e+00
<VARIANCE> 25
 4.664241e+01 8.203066e+00 1.465558e+01 9.751247e+00 5.846624e+01 4.718612e+01 1.990454e+01 4.539361e+01 1.660426e+01 1.508285e+01 3.414680e+01 1.207056e+01 2.331874e+00 1.683128e+00 1.958442e+00 2.182323e+00 3.036476e+00 4.146155e+00 2.451465e+00 6.524213e+00 2.136377e+00 1.294372e+00 1.333362e+00 2.098366e+00 2.744978e+00
<GCONST> 9.431041e+01
<STATE> 3
<MEAN> 25
 1.896998e+01 -1.024279e+01 -5.056154e+00 -4.529221e+00 -1.445039e+01 -1.036913e+01 -2.379021e+00 5.521163e+00 1.210299e+01 6.666461e-02 -5.003092e+00 1.023650e+00 2.333114e-01 -3.582525e-01 -2.054996e-01 2.012635e-01 7.677893e-01 1.003912e-02 -8.633650e-02 -6.720924e-01 -7.069781e-01 -1.082711e-01 6.735234e-01 5.594200e-01 8.862955e-01
<VARIANCE> 25
 1.603284e+01 1.555863e+01 3.875633e+01 1.147391e+01 6.463198e+01 2.177560e+01 1.391154e+01 5.961789e+01 2.488060e+01 2.325662e+01 2.619816e+01 1.184484e+01 2.288366e+00 3.234329e+00 1.399894e+00 1.994355e+00 3.533614e+00 2.855123e+00 1.536941e+00 2.946910e+00 4.122689e+00 1.564869e+00 1.298850e+00 1.120483e+00 2.054401e+00
<GCONST> 9.344189e+01
<STATE> 4
<MEAN> 25
 9.077345e+00 -1.390128e+00 1.551436e+00 2.452619e+00 -1.132213e+00 1.515655e+00 5.813238e-01 -3.556172e+00 -6.550339e-01 -9.930342e-02 2.696120e+00 4.129482e+00 -4.758039e-01 3.175655e-01 4.006799e-01 2.710586e-01 9.716100e-02 3.287348e-01 1.201136e-01 3.359471e-02 4.009779e-02 1.200240e-01 -9.813196e-02 -1.684076e-01 -7.448020e-01
<VARIANCE> 25
 2.968678e+01 5.498941e+01 3.272002e+01 4.644757e+01 3.676698e+01 3.108140e+01 2.193610e+01 3.520599e+01 3.268418e+01 2.419848e+01 2.019938e+01 2.333926e+01 1.841542e+00 7.133307e+00 1.406630e+00 2.656529e+00 3.766893e+00 4.586545e+00 3.558356e+00 5.349519e+00 4.855720e+00 3.504726e+00 2.126060e+00 2.417158e+00 2.693960e+00
<GCONST> 1.023420e+02
<TRANSP> 5
 0.000000e+00 1.000000e+00 0.000000e+00 0.000000e+00 0.000000e+00
 0.000000e+00 7.683912e-01 2.316088e-01 0.000000e+00 0.000000e+00
 0.000000e+00 0.000000e+00 9.274130e-01 7.258704e-02 0.000000e+00
 0.000000e+00 0.000000e+00 0.000000e+00 9.676244e-01 3.237563e-02
 0.000000e+00 0.000000e+00 0.000000e+00 0.000000e+00 0.000000e+00
<ENDHMM>
