~o
<STREAMINFO> 1 25
<VECSIZE> 25<NULLD><MFCC_D_N_Z_0><DIAGC>
~h "ek"
<BEGINHMM>
<NUMSTATES> 5
<STATE> 2
<MEAN> 25
 -1.024760e+00 1.195641e+00 -2.007113e+00 3.788639e-02 -2.031749e+00 2.103481e+00 1.667962e+00 7.164541e-01 -2.301205e-01 8.852994e-01 7.281196e-01 1.234584e+00 3.027886e-02 1.153993e-02 6.749236e-02 -2.298429e-02 4.567333e-02 -7.888182e-02 -4.269013e-02 -4.651899e-02 -6.805994e-04 -1.137390e-02 -3.886066e-02 -7.037359e-02 6.951445e-02
<VARIANCE> 25
 1.421146e+01 2.082832e+01 3.803996e+01 1.096513e+01 3.913684e+01 4.296867e+01 2.808541e+01 3.229610e+01 1.187150e+01 1.527976e+01 1.487521e+01 1.888074e+01 3.911943e-01 9.651595e-01 9.056327e-01 7.830262e-01 1.302103e+00 1.523409e+00 1.233108e+00 1.441740e+00 1.271111e+00 1.571043e+00 1.059658e+00 1.131465e+00 8.374867e-01
<GCONST> 8.338522e+01
<STATE> 3
<MEAN> 25
 -8.108564e-01 1.165579e+00 -1.540055e+00 -7.778518e-02 -1.682714e+00 1.565185e+00 1.358316e+00 3.930739e-01 -2.246436e-01 8.033805e-01 4.528943e-01 7.690383e-01 3.105636e-02 -6.210942e-03 7.493097e-02 -1.773048e-02 5.806719e-02 -8.978125e-02 -5.153175e-02 -4.869182e-02 4.417643e-03 -1.634808e-02 -4.501527e-02 -7.476792e-02 7.565796e-02
<VARIANCE> 25
 1.674956e+01 2.284410e+01 4.535850e+01 1.261298e+01 4.767535e+01 5.027069e+01 3.259390e+01 3.715837e+01 1.280388e+01 1.690442e+01 1.605107e+01 2.116623e+01 4.516889e-01 1.034075e+00 1.031610e+00 8.772681e-01 1.487575e+00 1.720037e+00 1.359112e+00 1.626224e+00 1.390375e+00 1.688097e+00 1.121659e+00 1.199353e+00 9.669570e-01
<GCONST> 8.631764e+01
<STATE> 4
<MEAN> 25
 9.548372e-02 1.295686e-02 7.869874e-01 1.630768e-01 4.713299e-01 -7.861255e-01 -4.164570e-01 -6.295441e-01 -2.382782e-01 2.198849e-01 -2.539870e-01 -6.882243e-01 3.685022e-02 -4.649024e-02 9.059106e-02 -6.675687e-03 8.116654e-02 -9.350109e-02 -7.443438e-02 -3.950963e-02 4.934710e-03 -3.285889e-02 -3.219378e-02 -6.355848e-02 1.184513e-01
<VARIANCE> 25
 2.739911e+01 3.704337e+01 7.259399e+01 1.972924e+01 7.564185e+01 6.713946e+01 5.574435e+01 4.989928e+01 1.861056e+01 2.414831e+01 2.048440e+01 3.035395e+01 6.909852e-01 1.599869e+00 1.596195e+00 1.273417e+00 2.157645e+00 2.417596e+00 2.005867e+00 2.336870e+00 1.985705e+00 2.279839e+00 1.450386e+00 1.376350e+00 1.609051e+00
<GCONST> 9.582388e+01
<TRANSP> 5
 0.000000e+00 1.000000e+00 0.000000e+00 0.000000e+00 0.000000e+00
 0.000000e+00 8.402839e-01 1.597161e-01 0.000000e+00 0.000000e+00
 0.000000e+00 0.000000e+00 8.402840e-01 1.597160e-01 0.000000e+00
 0.000000e+00 0.000000e+00 0.000000e+00 9.757450e-01 2.425504e-02
 0.000000e+00 0.000000e+00 0.000000e+00 0.000000e+00 0.000000e+00
<ENDHMM>
~h "saat"
<BEGINHMM>
<NUMSTATES> 5
<STATE> 2
<MEAN> 25
 -1.958289e+00 2.063768e+00 -1.794827e+00 2.495367e+00 2.969219e-01 8.352183e-01 -2.064030e-01 3.722960e-02 -8.449551e-01 -2.336629e-01 -2.109079e-01 -1.237338e+00 1.953528e-02 -7.716297e-02 9.867372e-02 -7.050718e-02 2.076641e-03 -1.235502e-02 1.271002e-02 -2.596266e-02 3.940767e-02 8.803334e-03 -2.205834e-03 2.704659e-02 1.373183e-01
<VARIANCE> 25
 3.810509e+01 3.182885e+01 4.481543e+01 2.887803e+01 1.979597e+01 2.805944e+01 1.870687e+01 1.853216e+01 2.013107e+01 1.333467e+01 1.268912e+01 1.230138e+01 1.693808e+00 1.366236e+00 1.258350e+00 1.255391e+00 1.217361e+00 1.515105e+00 1.683468e+00 1.618895e+00 1.517136e+00 1.314102e+00 1.266471e+00 1.067206e+00 6.647829e-01
<GCONST> 8.651860e+01
<STATE> 3
<MEAN> 25
 -1.826783e+00 1.535708e+00 -1.089889e+00 1.983619e+00 3.258303e-01 7.757811e-01 -1.062496e-01 -1.422575e-01 -5.537265e-01 -1.591418e-01 -2.291143e-01 -1.055780e+00 3.010178e-02 -8.547553e-02 1.084789e-01 -8.577579e-02 2.441026e-03 -1.361161e-02 1.494820e-02 -2.627805e-02 4.543805e-02 1.232658e-02 -2.396984e-03 3.144809e-02 1.394059e-01
<VARIANCE> 25
 4.895983e+01 3.783739e+01 5.136502e+01 3.589146e+01 2.249835e+01 3.397394e+01 2.063856e+01 2.117795e+01 2.248158e+01 1.445850e+01 1.404178e+01 1.422753e+01 2.052663e+00 1.555244e+00 1.453382e+00 1.444150e+00 1.334339e+00 1.754913e+00 1.817878e+00 1.840409e+00 1.659511e+00 1.419011e+00 1.391615e+00 1.197376e+00 7.477387e-01
<GCONST> 8.982811e+01
<STATE> 4
<MEAN> 25
 -7.718008e-01 -1.372701e+00 2.124959e+00 -7.347804e-01 1.387653e-01 2.494997e-01 3.846941e-01 -8.097582e-01 6.921442e-01 -1.762013e-02 -2.547188e-03 -2.415132e-05 9.444042e-02 -1.135834e-01 9.324314e-02 -1.261659e-01 -1.806268e-02 -4.496811e-02 9.256210e-03 -1.165192e-02 4.207293e-02 1.039006e-02 9.750187e-03 5.549458e-02 1.554700e-01
<VARIANCE> 25
 1.082655e+02 6.232339e+01 6.794867e+01 6.456477e+01 4.225438e+01 6.231647e+01 3.279975e+01 3.410320e+01 3.167460e+01 2.208169e+01 2.124946e+01 2.274798e+01 3.909640e+00 2.654505e+00 2.376043e+00 2.499633e+00 2.100718e+00 2.972583e+00 2.808958e+00 3.182770e+00 2.390159e+00 2.109585e+00 2.030247e+00 1.899397e+00 1.238353e+00
<GCONST> 1.021020e+02
<TRANSP> 5
 0.000000e+00 1.000000e+00 0.000000e+00 0.000000e+00 0.000000e+00
 0.000000e+00 8.416033e-01 1.583966e-01 0.000000e+00 0.000000e+00
 0.000000e+00 0.000000e+00 8.416035e-01 1.583965e-01 0.000000e+00
 0.000000e+00 0.000000e+00 0.000000e+00 9.752828e-01 2.471723e-02
 0.000000e+00 0.000000e+00 0.000000e+00 0.000000e+00 0.000000e+00
<ENDHMM>
~h "saha"
<BEGINHMM>
<NUMSTATES> 5
<STATE> 2
<MEAN> 25
 -3.284235e+00 1.663496e+00 -1.532398e+00 2.999636e+00 6.949221e-02 1.484161e+00 -1.217433e+00 -1.257930e-01 -7.262778e-01 -3.978261e-01 1.301841e+00 -1.469195e+00 2.743533e-02 -1.222192e-01 1.314570e-01 -1.038401e-01 9.583876e-03 -3.051062e-02 6.926943e-03 2.888878e-02 1.732830e-02 1.598819e-02 -2.036980e-02 3.817055e-02 2.006025e-01
<VARIANCE> 25
 6.700673e+01 4.121685e+01 7.033208e+01 3.528482e+01 3.516723e+01 2.652830e+01 2.366253e+01 2.823191e+01 2.406916e+01 1.811673e+01 2.083227e+01 1.693502e+01 1.684534e+00 1.593825e+00 1.661809e+00 1.102999e+00 2.018043e+00 1.522123e+00 1.758787e+00 1.939400e+00 1.708866e+00 1.834512e+00 1.452977e+00 1.269851e+00 7.891628e-01
<GCONST> 9.243471e+01
<STATE> 3
<MEAN> 25
 -3.064213e+00 9.093202e-01 -6.342421e-01 2.305491e+00 1.243832e-01 1.272446e+00 -1.153308e+00 3.987562e-02 -6.170775e-01 -3.157660e-01 1.126519e+00 -1.204192e+00 5.140614e-02 -1.213593e-01 1.400075e-01 -1.189231e-01 8.900084e-03 -3.907189e-02 1.180546e-02 3.193611e-02 1.556456e-02 1.546578e-02 -3.678110e-02 4.822562e-02 1.915397e-01
<VARIANCE> 25
 8.129935e+01 4.324029e+01 7.518978e+01 4.072495e+01 3.869397e+01 3.004993e+01 2.540553e+01 3.042294e+01 2.689338e+01 2.075750e+01 2.395592e+01 1.976781e+01 1.955614e+00 1.703676e+00 1.792174e+00 1.247886e+00 2.198089e+00 1.677168e+00 1.958100e+00 2.138975e+00 1.865072e+00 2.163214e+00 1.635895e+00 1.457960e+00 7.975856e-01
<GCONST> 9.511579e+01
<STATE> 4
<MEAN> 25
 -1.369336e-01 -1.876375e+00 2.009416e+00 -7.470744e-01 -4.737715e-01 1.574673e-01 -2.356852e-01 2.763685e-01 -4.924907e-02 1.736250e-01 -1.385019e-01 6.967947e-02 1.220505e-01 -8.368388e-02 7.196601e-02 -1.211652e-01 -1.342274e-03 -5.897701e-02 3.750790e-02 1.450225e-02 1.291445e-02 2.155868e-02 -5.017728e-02 5.344168e-02 1.005345e-01
<VARIANCE> 25
 1.346783e+02 6.053488e+01 7.203312e+01 6.247075e+01 7.327305e+01 4.306982e+01 3.661892e+01 4.066771e+01 4.792052e+01 2.986823e+01 3.279557e+01 2.673789e+01 3.018368e+00 2.186374e+00 2.092924e+00 2.073245e+00 3.122893e+00 2.466670e+00 2.747108e+00 3.062064e+00 2.971235e+00 3.250697e+00 2.435006e+00 1.999991e+00 9.076858e-01
<GCONST> 1.040506e+02
<TRANSP> 5
 0.000000e+00 1.000000e+00 0.000000e+00 0.000000e+00 0.000000e+00
 0.000000e+00 8.404197e-01 1.595803e-01 0.000000e+00 0.000000e+00
 0.000000e+00 0.000000e+00 8.404198e-01 1.595802e-01 0.000000e+00
 0.000000e+00 0.000000e+00 0.000000e+00 9.775457e-01 2.245434e-02
 0.000000e+00 0.000000e+00 0.000000e+00 0.000000e+00 0.000000e+00
<ENDHMM>
~h "char"
<BEGINHMM>
<NUMSTATES> 5
<STATE> 2
<MEAN> 25
 -1.797935e+00 1.924707e+00 -1.496297e+00 1.858415e+00 -1.166845e+00 1.503898e+00 5.999109e-01 2.759159e-01 -5.742025e-02 5.397141e-01 -3.332042e-02 -1.424308e+00 4.575292e-02 -7.841530e-02 6.527132e-02 -6.630322e-02 9.166159e-03 -4.381386e-02 1.281294e-02 -9.027116e-03 1.221276e-02 -9.216682e-03 1.559557e-03 4.166421e-02 1.121718e-01
<VARIANCE> 25
 6.492239e+01 4.293719e+01 3.612551e+01 4.204461e+01 3.752239e+01 3.123611e+01 2.158128e+01 2.752818e+01 2.665402e+01 2.322527e+01 2.139402e+01 2.951158e+01 3.166199e+00 1.418240e+00 1.481267e+00 1.512240e+00 1.928525e+00 2.112293e+00 2.172992e+00 1.868828e+00 2.240764e+00 2.093849e+00 1.938445e+00 1.774704e+00 8.653131e-01
<GCONST> 9.528626e+01
<STATE> 3
<MEAN> 25
 -1.530781e+00 1.385994e+00 -1.053465e+00 1.375434e+00 -1.062030e+00 1.205954e+00 6.587448e-01 1.800758e-01 4.171109e-02 4.877292e-01 -2.912722e-02 -1.129346e+00 4.354026e-02 -8.739790e-02 7.067842e-02 -7.872985e-02 1.752730e-02 -4.959485e-02 8.366864e-03 -1.741207e-02 1.646528e-02 -1.064363e-02 8.997619e-04 4.854612e-02 1.110298e-01
<VARIANCE> 25
 6.888845e+01 4.704425e+01 3.933712e+01 4.662366e+01 4.095823e+01 3.403210e+01 2.314284e+01 2.961135e+01 2.907782e+01 2.447242e+01 2.318076e+01 3.256782e+01 3.155779e+00 1.511449e+00 1.599002e+00 1.665567e+00 2.109999e+00 2.268378e+00 2.320035e+00 2.054026e+00 2.422235e+00 2.192424e+00 2.076085e+00 1.857585e+00 9.300874e-01
<GCONST> 9.712463e+01
<STATE> 4
<MEAN> 25
 8.829432e-01 -1.756966e+00 1.042033e+00 -1.035757e+00 -5.824234e-01 -6.123698e-01 4.852903e-01 -3.869038e-01 6.083016e-01 4.464072e-01 -1.862696e-01 7.748017e-01 6.161748e-02 -7.437918e-02 5.223932e-02 -6.415856e-02 1.900334e-02 -4.926090e-02 -9.058826e-03 -1.265455e-02 8.891255e-03 -8.473647e-03 -1.675921e-03 4.608615e-02 1.010924e-01
<VARIANCE> 25
 9.754298e+01 6.402304e+01 4.628613e+01 5.736549e+01 7.098106e+01 4.369840e+01 3.644986e+01 4.095573e+01 3.933654e+01 3.642986e+01 3.818332e+01 4.752982e+01 2.908538e+00 2.065134e+00 1.977383e+00 2.257130e+00 3.297102e+00 2.744966e+00 3.132364e+00 2.682144e+00 2.994114e+00 2.974530e+00 2.878550e+00 2.271194e+00 1.223140e+00
<GCONST> 1.045759e+02
<TRANSP> 5
 0.000000e+00 1.000000e+00 0.000000e+00 0.000000e+00 0.000000e+00
 0.000000e+00 8.423666e-01 1.576333e-01 0.000000e+00 0.000000e+00
 0.000000e+00 0.000000e+00 8.423666e-01 1.576333e-01 0.000000e+00
 0.000000e+00 0.000000e+00 0.000000e+00 9.799653e-01 2.003475e-02
 0.000000e+00 0.000000e+00 0.000000e+00 0.000000e+00 0.000000e+00
<ENDHMM>
~h "teen"
<BEGINHMM>
<NUMSTATES> 5
<STATE> 2
<MEAN> 25
 -1.821586e+00 2.091672e+00 -4.069933e+00 -1.257378e+00 -2.755835e+00 1.452601e+00 1.251605e+00 -5.034606e-01 -8.495483e-01 1.655188e+00 -1.104992e-01 1.059622e+00 2.709305e-02 -4.137408e-02 7.242467e-02 1.690507e-02 4.198139e-02 -2.581526e-02 -7.732122e-03 -7.125586e-03 2.224176e-02 -2.071310e-02 -5.938098e-03 -2.611238e-02 7.251006e-02
<VARIANCE> 25
 9.164183e+00 1.750365e+01 4.935304e+01 1.052501e+01 3.388357e+01 2.948735e+01 1.546672e+01 1.985948e+01 1.657561e+01 1.702727e+01 9.485437e+00 1.444716e+01 2.651253e-01 9.490265e-01 9.899761e-01 9.873371e-01 1.210492e+00 1.394735e+00 1.319821e+00 1.132611e+00 9.743472e-01 1.398881e+00 1.061737e+00 7.926897e-01 6.160442e-01
<GCONST> 7.965054e+01
<STATE> 3
<MEAN> 25
 -1.626806e+00 1.799724e+00 -3.545951e+00 -1.135066e+00 -2.452228e+00 1.268806e+00 1.195564e+00 -5.432332e-01 -6.894140e-01 1.498634e+00 -1.506645e-01 8.845870e-01 3.270002e-02 -4.914694e-02 8.835085e-02 2.217556e-02 5.168312e-02 -3.283668e-02 -1.093969e-02 -2.796005e-03 2.446706e-02 -2.718601e-02 -6.287925e-03 -2.788965e-02 7.281813e-02
<VARIANCE> 25
 1.125116e+01 2.053114e+01 6.223928e+01 1.204324e+01 4.077789e+01 3.543650e+01 1.766090e+01 2.137240e+01 1.895845e+01 1.983236e+01 1.060484e+01 1.692634e+01 3.180143e-01 1.079394e+00 1.146957e+00 1.081669e+00 1.352832e+00 1.570720e+00 1.436584e+00 1.244856e+00 1.057798e+00 1.514966e+00 1.168147e+00 8.573815e-01 7.101258e-01
<GCONST> 8.295011e+01
<STATE> 4
<MEAN> 25
 -8.957892e-02 -2.729775e-01 2.891297e-01 -1.196886e-01 7.061230e-02 -1.499131e-01 2.834995e-01 -9.278764e-01 5.035630e-01 4.804231e-02 -4.550640e-01 -5.804427e-01 6.329420e-02 -7.790105e-02 1.571591e-01 4.760034e-02 1.013699e-01 -5.918724e-02 -4.596893e-02 6.821066e-03 3.563299e-02 -6.095735e-02 -7.381658e-03 -4.925153e-02 1.061962e-01
<VARIANCE> 25
 2.592412e+01 3.649718e+01 1.300336e+02 2.056596e+01 8.510137e+01 7.701306e+01 3.325162e+01 3.605160e+01 3.574118e+01 3.574107e+01 1.766057e+01 3.290154e+01 6.778815e-01 1.873495e+00 2.124466e+00 1.747304e+00 2.344351e+00 2.816466e+00 2.186200e+00 1.990030e+00 1.688214e+00 2.203087e+00 1.868770e+00 1.272836e+00 1.409869e+00
<GCONST> 9.751707e+01
<TRANSP> 5
 0.000000e+00 1.000000e+00 0.000000e+00 0.000000e+00 0.000000e+00
 0.000000e+00 8.445733e-01 1.554267e-01 0.000000e+00 0.000000e+00
 0.000000e+00 0.000000e+00 8.445731e-01 1.554268e-01 0.000000e+00
 0.000000e+00 0.000000e+00 0.000000e+00 9.797844e-01 2.021556e-02
 0.000000e+00 0.000000e+00 0.000000e+00 0.000000e+00 0.000000e+00
<ENDHMM>
~h "don"
<BEGINHMM>
<NUMSTATES> 5
<STATE> 2
<MEAN> 25
 -2.923009e+00 2.118928e+00 -2.158243e+00 2.749234e-01 -7.140997e-01 -6.450871e-02 1.471094e+00 -3.713026e-01 7.161152e-01 1.503504e+00 -8.380558e-01 -1.435941e-03 7.308511e-02 -6.194038e-02 2.875868e-02 -3.647485e-02 -1.710447e-02 -7.433278e-03 -4.474859e-02 -9.163260e-03 -2.420180e-03 -1.625836e-02 8.982765e-03 -2.968329e-02 4.312330e-02
<VARIANCE> 25
 7.303168e+01 2.717744e+01 6.838866e+01 3.281125e+01 2.401322e+01 2.343126e+01 6.257139e+01 2.687937e+01 2.072483e+01 2.429450e+01 2.341562e+01 1.838247e+01 1.195254e+00 1.254340e+00 1.414944e+00 1.619799e+00 1.591082e+00 1.788769e+00 1.954059e+00 1.650301e+00 1.914998e+00 2.752670e+00 2.150835e+00 1.398941e+00 5.061843e-01
<GCONST> 9.283709e+01
<STATE> 3
<MEAN> 25
 -2.462388e+00 1.745507e+00 -1.933848e+00 1.093163e-01 -7.969461e-01 -7.923654e-02 1.206773e+00 -4.615004e-01 6.967167e-01 1.380008e+00 -7.221752e-01 -1.548288e-01 8.368595e-02 -6.492560e-02 4.725037e-02 -2.952260e-02 -1.242675e-02 -3.257351e-03 -4.896425e-02 -9.487901e-03 -8.534702e-03 -2.492870e-02 1.980437e-02 -2.516486e-02 3.633067e-02
<VARIANCE> 25
 7.916537e+01 3.006530e+01 7.279151e+01 3.675040e+01 2.393855e+01 2.609401e+01 6.514648e+01 2.955985e+01 2.314499e+01 2.664916e+01 2.448933e+01 2.015733e+01 1.386590e+00 1.383770e+00 1.521645e+00 1.789169e+00 1.641963e+00 1.892139e+00 2.095777e+00 1.822602e+00 2.119326e+00 2.924489e+00 2.268007e+00 1.567360e+00 5.046771e-01
<GCONST> 9.477585e+01
<STATE> 4
<MEAN> 25
 -6.372702e-01 -1.874756e-02 -5.936546e-01 -2.957924e-01 -2.491572e-01 -4.448355e-01 5.813426e-01 -9.085800e-01 1.511980e-01 3.456141e-01 2.627895e-01 -1.912437e-01 1.189044e-01 -8.914825e-02 9.129163e-02 -3.856909e-02 1.702169e-02 -6.456222e-03 -6.614438e-02 3.156848e-03 -3.795587e-02 -5.746228e-02 3.171444e-02 -1.266949e-02 6.642476e-02
<VARIANCE> 25
 9.479227e+01 4.546496e+01 8.445593e+01 6.108514e+01 2.481153e+01 4.458806e+01 6.469050e+01 3.657818e+01 3.107136e+01 3.279510e+01 2.580403e+01 2.953727e+01 2.206980e+00 2.137574e+00 2.121050e+00 2.581303e+00 1.776480e+00 2.485170e+00 2.730074e+00 2.528114e+00 2.790915e+00 3.143505e+00 2.545371e+00 2.290624e+00 8.014842e-01
<GCONST> 1.015864e+02
<TRANSP> 5
 0.000000e+00 1.000000e+00 0.000000e+00 0.000000e+00 0.000000e+00
 0.000000e+00 8.414634e-01 1.585366e-01 0.000000e+00 0.000000e+00
 0.000000e+00 0.000000e+00 8.414631e-01 1.585368e-01 0.000000e+00
 0.000000e+00 0.000000e+00 0.000000e+00 9.763139e-01 2.368598e-02
 0.000000e+00 0.000000e+00 0.000000e+00 0.000000e+00 0.000000e+00
<ENDHMM>
~h "nau"
<BEGINHMM>
<NUMSTATES> 5
<STATE> 2
<MEAN> 25
 -5.708951e+00 2.127292e+00 -4.568379e+00 1.503494e+00 2.923182e-02 1.631879e+00 1.400779e+00 -1.092205e+00 1.311261e+00 2.970402e-01 7.437494e-01 4.835118e-02 9.647879e-02 -4.578904e-02 5.047548e-02 8.633206e-03 1.239678e-02 -2.950280e-02 -3.001559e-02 1.430310e-02 -1.218035e-02 -2.142321e-02 -1.463171e-02 -9.225611e-03 6.287238e-02
<VARIANCE> 25
 3.453231e+01 1.770369e+01 1.615175e+01 2.320784e+01 1.654226e+01 2.374664e+01 1.996556e+01 1.531076e+01 1.520061e+01 1.710251e+01 1.504108e+01 1.147629e+01 6.854494e-01 8.630059e-01 6.975972e-01 1.131979e+00 1.070067e+00 1.219747e+00 1.357971e+00 1.318167e+00 1.450300e+00 1.277166e+00 1.171598e+00 8.786477e-01 4.002759e-01
<GCONST> 8.051393e+01
<STATE> 3
<MEAN> 25
 -5.008794e+00 1.789233e+00 -4.194756e+00 1.528629e+00 1.211862e-01 1.436631e+00 1.189546e+00 -1.016074e+00 1.215288e+00 1.389993e-01 6.522402e-01 7.987798e-03 1.268371e-01 -6.096821e-02 7.422937e-02 -5.335746e-03 1.259929e-02 -3.863643e-02 -3.721891e-02 1.727341e-02 -1.998324e-02 -2.592586e-02 -1.615083e-02 -4.488410e-03 6.456754e-02
<VARIANCE> 25
 4.761185e+01 2.198441e+01 2.269715e+01 3.100962e+01 1.831446e+01 2.722466e+01 2.312498e+01 1.744571e+01 1.755509e+01 2.009116e+01 1.702456e+01 1.278436e+01 8.730050e-01 9.930162e-01 8.336753e-01 1.397073e+00 1.195385e+00 1.409961e+00 1.550979e+00 1.419268e+00 1.619319e+00 1.473507e+00 1.314684e+00 9.705876e-01 4.552181e-01
<GCONST> 8.456432e+01
<STATE> 4
<MEAN> 25
 -9.880285e-01 -1.025233e-01 -1.882147e+00 1.194366e+00 6.407004e-01 6.146924e-01 2.316227e-01 -8.249419e-01 6.436209e-01 -5.246617e-01 4.008637e-04 -5.611647e-02 2.439764e-01 -1.067778e-01 1.807688e-01 -6.777753e-02 5.432762e-03 -6.947588e-02 -6.051264e-02 3.704223e-02 -5.208992e-02 -2.120503e-02 -3.748858e-02 8.839648e-04 1.121739e-01
<VARIANCE> 25
 1.067396e+02 3.825074e+01 5.723700e+01 7.239327e+01 2.906505e+01 4.902460e+01 4.150652e+01 3.111072e+01 3.009311e+01 3.657804e+01 3.064529e+01 1.990958e+01 1.779655e+00 1.405493e+00 1.484555e+00 2.753874e+00 1.956471e+00 2.534000e+00 2.591726e+00 1.919592e+00 2.321112e+00 2.643702e+00 2.237128e+00 1.507254e+00 8.064324e-01
<GCONST> 9.877837e+01
<TRANSP> 5
 0.000000e+00 1.000000e+00 0.000000e+00 0.000000e+00 0.000000e+00
 0.000000e+00 8.407457e-01 1.592543e-01 0.000000e+00 0.000000e+00
 0.000000e+00 0.000000e+00 8.407454e-01 1.592546e-01 0.000000e+00
 0.000000e+00 0.000000e+00 0.000000e+00 9.747685e-01 2.523156e-02
 0.000000e+00 0.000000e+00 0.000000e+00 0.000000e+00 0.000000e+00
<ENDHMM>
~h "sil"
<BEGINHMM>
<NUMSTATES> 5
<STATE> 2
<MEAN> 25
 1.161257e-02 7.051849e-01 2.302741e-01 2.030479e-01 1.990321e+00 6.518299e-01 4.567413e-01 1.383195e+00 1.029813e+00 3.537986e-01 6.586289e-01 7.540888e-01 -8.161234e-01 -2.389271e-01 -2.306819e-01 -1.284907e-01 -6.666286e-01 -2.242990e-01 -8.512742e-02 -5.095428e-01 -2.976456e-01 -1.395577e-01 -1.945659e-01 -2.280923e-01 3.609130e+00
<VARIANCE> 25
 1.053113e+02 5.937519e+01 5.364884e+01 5.243003e+01 6.085502e+01 4.982983e+01 3.510038e+01 3.852647e+01 3.385920e+01 2.768887e+01 2.741667e+01 2.661049e+01 7.241208e+00 2.017402e+00 1.897262e+00 2.368022e+00 3.491546e+00 2.725999e+00 2.232017e+00 2.942319e+00 2.595926e+00 2.357377e+00 2.205776e+00 1.741156e+00 2.924704e+01
<GCONST> 1.061443e+02
<STATE> 3
<MEAN> 25
 -3.526407e-01 3.191963e-01 -2.399120e-01 9.592797e-02 9.419032e-02 1.564845e-01 9.581722e-02 5.316909e-02 1.238633e-02 3.896425e-02 1.409245e-01 7.885889e-02 -1.972454e-03 -3.108912e-02 -6.294366e-02 6.180750e-03 -2.473942e-01 -4.853655e-02 -4.643947e-02 -1.719549e-01 -1.439381e-01 -3.668191e-02 -6.370397e-02 -9.279123e-02 1.273161e+00
<VARIANCE> 25
 8.722295e+01 5.715216e+01 5.910466e+01 5.283418e+01 4.976268e+01 4.917860e+01 3.643563e+01 3.196472e+01 3.259088e+01 2.818417e+01 2.667477e+01 2.674703e+01 2.452339e+00 1.789857e+00 1.847765e+00 2.248620e+00 2.993524e+00 2.665711e+00 2.280816e+00 2.575098e+00 2.626863e+00 2.371318e+00 2.191396e+00 1.737582e+00 1.157974e+01
<GCONST> 1.031298e+02
<STATE> 4
<MEAN> 25
 4.844154e-01 4.245016e-02 7.449599e-02 -1.348210e-01 -1.944615e-01 -1.911364e-01 -2.125391e-01 -7.141580e-02 -3.114532e-01 -5.587566e-02 -4.500615e-02 -5.850545e-02 -5.514296e-03 1.307222e-02 8.708583e-03 3.369009e-03 -5.118400e-03 1.186096e-02 9.384602e-03 -4.005104e-03 -1.754155e-02 -6.251074e-04 3.124248e-03 -9.049233e-04 5.290455e-02
<VARIANCE> 25
 9.024866e+01 5.858831e+01 6.630528e+01 5.416603e+01 5.327923e+01 5.011791e+01 3.862722e+01 3.282727e+01 3.363813e+01 3.041328e+01 2.769467e+01 2.833736e+01 1.995286e+00 1.847434e+00 2.010441e+00 2.293384e+00 2.679198e+00 2.709445e+00 2.325670e+00 2.414507e+00 2.612677e+00 2.558489e+00 2.310229e+00 1.853856e+00 1.450586e+00
<GCONST> 1.016046e+02
<TRANSP> 5
 0.000000e+00 1.000000e+00 0.000000e+00 0.000000e+00 0.000000e+00
 0.000000e+00 8.414235e-01 1.585766e-01 0.000000e+00 0.000000e+00
 0.000000e+00 0.000000e+00 8.414232e-01 1.585768e-01 0.000000e+00
 0.000000e+00 0.000000e+00 0.000000e+00 9.765668e-01 2.343325e-02
 0.000000e+00 0.000000e+00 0.000000e+00 0.000000e+00 0.000000e+00
<ENDHMM>
~h "shunya"
<BEGINHMM>
<NUMSTATES> 5
<STATE> 2
<MEAN> 25
 -4.263196e+00 3.465577e+00 -3.020778e+00 2.087655e-01 -2.745750e+00 8.449852e-01 1.725968e+00 3.901630e-01 -3.123755e-01 1.533029e-01 -1.014827e-01 8.327780e-01 8.291428e-02 -1.346524e-01 8.792207e-02 1.229175e-02 7.946183e-02 -3.392284e-02 -5.159071e-02 4.491299e-03 7.060710e-03 -2.669935e-02 8.593537e-04 -1.697071e-02 1.164455e-01
<VARIANCE> 25
 7.038416e+01 8.596297e+01 4.459672e+01 2.271587e+01 4.799166e+01 2.812374e+01 2.549180e+01 1.772962e+01 2.273615e+01 1.609847e+01 1.694860e+01 1.101718e+01 1.767175e+00 2.145860e+00 1.634524e+00 1.955354e+00 1.819037e+00 1.724846e+00 1.620821e+00 1.588856e+00 1.858551e+00 1.560664e+00 1.445700e+00 1.021795e+00 8.151059e-01
<GCONST> 9.186394e+01
<STATE> 3
<MEAN> 25
 -3.683326e+00 2.501781e+00 -2.387529e+00 3.007824e-01 -2.162721e+00 6.150743e-01 1.365212e+00 4.294728e-01 -2.427363e-01 -2.347994e-03 -7.712986e-02 7.251085e-01 1.020528e-01 -1.557228e-01 1.039221e-01 1.421213e-02 9.550428e-02 -3.619985e-02 -6.084065e-02 5.296294e-03 1.056783e-02 -2.298608e-02 2.768349e-03 -1.890568e-02 1.170254e-01
<VARIANCE> 25
 8.726914e+01 9.806163e+01 5.181451e+01 2.645504e+01 5.564882e+01 3.310996e+01 2.906315e+01 1.969896e+01 2.598778e+01 1.776288e+01 1.953488e+01 1.251687e+01 2.097064e+00 2.427624e+00 1.863518e+00 2.294297e+00 2.123338e+00 2.046464e+00 1.798868e+00 1.787604e+00 2.124993e+00 1.728804e+00 1.672741e+00 1.146896e+00 8.961425e-01
<GCONST> 9.528814e+01
<STATE> 4
<MEAN> 25
 8.357047e-02 -2.537077e+00 1.033038e+00 5.948986e-01 8.850904e-01 -3.075153e-01 -5.066119e-01 2.869676e-01 8.553211e-02 -6.605768e-01 -4.390319e-02 1.284380e-01 1.835757e-01 -1.678261e-01 1.310671e-01 3.810572e-03 1.134432e-01 -2.723550e-02 -8.177228e-02 -1.160127e-02 7.494997e-03 -1.394864e-02 -3.856311e-03 -3.944594e-02 1.259904e-01
<VARIANCE> 25
 1.836409e+02 1.220864e+02 7.215280e+01 4.616873e+01 8.573616e+01 6.003973e+01 4.491007e+01 2.941473e+01 4.239349e+01 2.738950e+01 3.427478e+01 2.046386e+01 3.688476e+00 3.391916e+00 2.842921e+00 3.856566e+00 3.663126e+00 3.660511e+00 2.448416e+00 2.470454e+00 3.293522e+00 2.628682e+00 2.967682e+00 1.741888e+00 1.484816e+00
<GCONST> 1.069319e+02
<TRANSP> 5
 0.000000e+00 1.000000e+00 0.000000e+00 0.000000e+00 0.000000e+00
 0.000000e+00 8.419950e-01 1.580050e-01 0.000000e+00 0.000000e+00
 0.000000e+00 0.000000e+00 8.419951e-01 1.580049e-01 0.000000e+00
 0.000000e+00 0.000000e+00 0.000000e+00 9.764100e-01 2.359001e-02
 0.000000e+00 0.000000e+00 0.000000e+00 0.000000e+00 0.000000e+00
<ENDHMM>
~h "pach"
<BEGINHMM>
<NUMSTATES> 5
<STATE> 2
<MEAN> 25
 -2.214592e+00 3.510496e+00 -3.011865e+00 2.853655e+00 -4.075132e-01 1.108719e+00 -2.949196e-01 -7.280718e-01 -1.067500e+00 -3.102628e-01 2.482191e-01 -1.375521e+00 7.036126e-02 -4.840308e-02 3.877977e-02 -6.720008e-02 8.886777e-03 -3.548203e-02 -1.084113e-02 2.395492e-02 3.004843e-02 1.381296e-02 -1.300795e-02 2.046382e-02 7.019731e-02
<VARIANCE> 25
 4.271739e+01 3.428552e+01 1.990045e+01 3.496411e+01 1.993764e+01 1.964477e+01 1.012701e+01 1.422837e+01 1.929879e+01 1.347223e+01 1.408785e+01 1.453016e+01 1.816201e+00 1.208715e+00 7.517093e-01 1.527239e+00 1.526512e+00 1.214514e+00 1.138491e+00 1.136127e+00 1.387613e+00 1.171673e+00 1.026074e+00 9.042184e-01 7.981873e-01
<GCONST> 8.358908e+01
<STATE> 3
<MEAN> 25
 -1.737596e+00 3.130663e+00 -2.706165e+00 2.387114e+00 -3.444165e-01 8.872736e-01 -3.122967e-01 -5.342398e-01 -8.351704e-01 -2.027553e-01 1.285263e-01 -1.254650e+00 8.164111e-02 -6.910832e-02 5.563113e-02 -8.049303e-02 1.054063e-02 -3.791265e-02 -2.203817e-03 3.173469e-02 3.831275e-02 1.713378e-02 -2.046449e-02 2.315368e-02 7.494122e-02
<VARIANCE> 25
 5.109868e+01 4.282649e+01 2.338882e+01 4.302535e+01 2.185934e+01 2.306720e+01 1.063743e+01 1.567971e+01 1.993246e+01 1.413983e+01 1.565662e+01 1.609154e+01 2.073057e+00 1.395824e+00 8.504992e-01 1.722195e+00 1.698747e+00 1.338589e+00 1.229919e+00 1.244653e+00 1.481888e+00 1.279427e+00 1.122250e+00 9.621161e-01 9.495288e-01
<GCONST> 8.641837e+01
<STATE> 4
<MEAN> 25
 7.745033e-01 -6.825519e-03 -3.782944e-01 -1.941941e-01 -5.163204e-01 -1.937957e-01 -2.648378e-01 3.216189e-01 9.968466e-02 1.813379e-01 -2.878648e-01 -1.833679e-01 1.003920e-01 -1.295727e-01 9.471977e-02 -1.097588e-01 9.304509e-03 -5.564732e-02 3.368164e-03 3.189655e-02 3.357564e-02 1.029541e-02 -1.351334e-02 4.811201e-02 1.215970e-01
<VARIANCE> 25
 9.465842e+01 8.321079e+01 4.116195e+01 7.948576e+01 3.920092e+01 3.815110e+01 1.472793e+01 2.595917e+01 2.285313e+01 2.241064e+01 2.395217e+01 2.293712e+01 2.629754e+00 2.129553e+00 1.448414e+00 2.535691e+00 2.463506e+00 1.992183e+00 1.598965e+00 1.840466e+00 1.898643e+00 2.075338e+00 1.643034e+00 1.171099e+00 1.629221e+00
<GCONST> 9.702341e+01
<TRANSP> 5
 0.000000e+00 1.000000e+00 0.000000e+00 0.000000e+00 0.000000e+00
 0.000000e+00 8.431479e-01 1.568521e-01 0.000000e+00 0.000000e+00
 0.000000e+00 0.000000e+00 8.431481e-01 1.568519e-01 0.000000e+00
 0.000000e+00 0.000000e+00 0.000000e+00 9.795012e-01 2.049876e-02
 0.000000e+00 0.000000e+00 0.000000e+00 0.000000e+00 0.000000e+00
<ENDHMM>
~h "aath"
<BEGINHMM>
<NUMSTATES> 5
<STATE> 2
<MEAN> 25
 -2.849345e+00 1.164114e+00 -2.729441e-01 1.874771e+00 6.588644e-01 3.508332e-01 -1.989030e-01 6.949558e-03 -1.367871e-01 -4.676667e-01 6.780059e-02 -1.566335e+00 6.139974e-02 -1.438543e-02 -2.298724e-02 -4.576950e-02 -3.375052e-02 -1.586428e-03 2.019037e-02 2.846992e-02 4.080493e-03 1.504667e-02 -3.668962e-02 5.124370e-02 8.114174e-02
<VARIANCE> 25
 3.547212e+01 4.484325e+01 2.304883e+01 4.844465e+01 2.743437e+01 2.823697e+01 1.920284e+01 1.930328e+01 2.281155e+01 2.078452e+01 2.183014e+01 1.704540e+01 8.006868e-01 1.127740e+00 8.686599e-01 1.611400e+00 1.614587e+00 1.709579e+00 1.574590e+00 1.742633e+00 1.757370e+00 1.555218e+00 1.603352e+00 1.278488e+00 7.508390e-01
<GCONST> 8.868089e+01
<STATE> 3
<MEAN> 25
 -2.412794e+00 1.068318e+00 -4.124708e-01 1.550014e+00 3.816824e-01 3.354818e-01 -5.842338e-02 1.963472e-01 -5.600449e-02 -4.089695e-01 -1.425065e-01 -1.218207e+00 7.797782e-02 -1.834820e-02 -2.158523e-02 -5.664520e-02 -4.710252e-02 -3.471781e-03 2.199596e-02 2.862991e-02 1.275988e-02 1.147460e-02 -3.300872e-02 5.916069e-02 8.359104e-02
<VARIANCE> 25
 4.339373e+01 4.779076e+01 2.346389e+01 5.356657e+01 3.171220e+01 3.044985e+01 2.180192e+01 2.094949e+01 2.499264e+01 2.265736e+01 2.497740e+01 1.908453e+01 9.710185e-01 1.305948e+00 9.740831e-01 1.724227e+00 1.833989e+00 1.885818e+00 1.705996e+00 1.944711e+00 1.960063e+00 1.705034e+00 1.798230e+00 1.416464e+00 8.338330e-01
<GCONST> 9.137923e+01
<STATE> 4
<MEAN> 25
 3.626838e-01 -5.435901e-01 -1.170881e-01 -9.355276e-01 -8.488177e-01 -3.984173e-01 5.189596e-01 6.048773e-01 6.837156e-01 -3.101124e-01 -7.551442e-01 2.881550e-01 1.302773e-01 -6.432619e-02 3.190340e-03 -9.606826e-02 -5.109743e-02 -2.510832e-02 1.488221e-02 2.802350e-03 1.543655e-02 1.871411e-02 -1.880832e-02 7.043681e-02 1.116123e-01
<VARIANCE> 25
 7.964761e+01 6.611937e+01 2.915509e+01 7.281121e+01 5.163432e+01 4.458642e+01 3.157330e+01 3.093453e+01 3.806271e+01 3.545915e+01 4.188758e+01 2.990115e+01 1.853766e+00 2.183501e+00 1.490585e+00 2.319322e+00 3.180476e+00 3.038181e+00 2.364504e+00 2.900148e+00 2.918442e+00 2.581974e+00 2.860886e+00 2.251090e+00 1.392030e+00
<GCONST> 1.021879e+02
<TRANSP> 5
 0.000000e+00 1.000000e+00 0.000000e+00 0.000000e+00 0.000000e+00
 0.000000e+00 8.396053e-01 1.603947e-01 0.000000e+00 0.000000e+00
 0.000000e+00 0.000000e+00 8.396052e-01 1.603948e-01 0.000000e+00
 0.000000e+00 0.000000e+00 0.000000e+00 9.727817e-01 2.721836e-02
 0.000000e+00 0.000000e+00 0.000000e+00 0.000000e+00 0.000000e+00
<ENDHMM>
