~h "aath"
<BEGINHMM>
<NUMSTATES> 5
<STATE> 2
<MEAN> 25
 -9.240035e-09 -5.626155e-08 2.648810e-08 -4.068182e-08 -7.576829e-08 2.546143e-08 -5.656955e-08 5.251420e-08 -2.854144e-08 -2.464009e-09 -1.745340e-09 4.455750e-08 -2.865925e-02 -4.470564e-02 1.151112e-02 -2.769403e-02 -6.533387e-02 -2.910553e-02 -1.224882e-02 -5.294847e-02 -3.955880e-02 -1.623348e-02 -2.224221e-02 -1.952394e-02 4.356629e-01
<VARIANCE> 25
 9.218033e+01 5.970988e+01 6.301728e+01 5.388884e+01 5.330537e+01 4.918639e+01 3.710493e+01 3.312921e+01 3.305447e+01 2.912746e+01 2.746313e+01 2.719883e+01 2.580799e+00 1.925350e+00 1.928154e+00 2.286868e+00 2.714991e+00 2.645789e+00 2.308103e+00 2.458935e+00 2.544337e+00 2.468822e+00 2.243048e+00 1.779293e+00 5.158102e+00
<GCONST> 1.028193e+02
<STATE> 3
<MEAN> 25
 -9.240035e-09 -5.626155e-08 2.648810e-08 -4.068182e-08 -7.576829e-08 2.546143e-08 -5.656955e-08 5.251420e-08 -2.854144e-08 -2.464009e-09 -1.745340e-09 4.455750e-08 -2.865925e-02 -4.470564e-02 1.151112e-02 -2.769403e-02 -6.533387e-02 -2.910553e-02 -1.224882e-02 -5.294847e-02 -3.955880e-02 -1.623348e-02 -2.224221e-02 -1.952394e-02 4.356629e-01
<VARIANCE> 25
 9.218033e+01 5.970988e+01 6.301728e+01 5.388884e+01 5.330537e+01 4.918639e+01 3.710493e+01 3.312921e+01 3.305447e+01 2.912746e+01 2.746313e+01 2.719883e+01 2.580799e+00 1.925350e+00 1.928154e+00 2.286868e+00 2.714991e+00 2.645789e+00 2.308103e+00 2.458935e+00 2.544337e+00 2.468822e+00 2.243048e+00 1.779293e+00 5.158102e+00
<GCONST> 1.028193e+02
<STATE> 4
<MEAN> 25
 -9.240035e-09 -5.626155e-08 2.648810e-08 -4.068182e-08 -7.576829e-08 2.546143e-08 -5.656955e-08 5.251420e-08 -2.854144e-08 -2.464009e-09 -1.745340e-09 4.455750e-08 -2.865925e-02 -4.470564e-02 1.151112e-02 -2.769403e-02 -6.533387e-02 -2.910553e-02 -1.224882e-02 -5.294847e-02 -3.955880e-02 -1.623348e-02 -2.224221e-02 -1.952394e-02 4.356629e-01
<VARIANCE> 25
 9.218033e+01 5.970988e+01 6.301728e+01 5.388884e+01 5.330537e+01 4.918639e+01 3.710493e+01 3.312921e+01 3.305447e+01 2.912746e+01 2.746313e+01 2.719883e+01 2.580799e+00 1.925350e+00 1.928154e+00 2.286868e+00 2.714991e+00 2.645789e+00 2.308103e+00 2.458935e+00 2.544337e+00 2.468822e+00 2.243048e+00 1.779293e+00 5.158102e+00
<GCONST> 1.028193e+02
<TRANSP> 5
 0.000000e+00 1.000000e+00 0.000000e+00 0.000000e+00 0.000000e+00
 0.000000e+00 6.000000e-01 4.000000e-01 0.000000e+00 0.000000e+00
 0.000000e+00 0.000000e+00 6.000000e-01 4.000000e-01 0.000000e+00
 0.000000e+00 0.000000e+00 0.000000e+00 7.000000e-01 3.000000e-01
 0.000000e+00 0.000000e+00 0.000000e+00 0.000000e+00 0.000000e+00
<ENDHMM>
~h "char"
<BEGINHMM>
<NUMSTATES> 5
<STATE> 2
<MEAN> 25
 -9.240035e-09 -5.626155e-08 2.648810e-08 -4.068182e-08 -7.576829e-08 2.546143e-08 -5.656955e-08 5.251420e-08 -2.854144e-08 -2.464009e-09 -1.745340e-09 4.455750e-08 -2.865925e-02 -4.470564e-02 1.151112e-02 -2.769403e-02 -6.533387e-02 -2.910553e-02 -1.224882e-02 -5.294847e-02 -3.955880e-02 -1.623348e-02 -2.224221e-02 -1.952394e-02 4.356629e-01
<VARIANCE> 25
 9.218033e+01 5.970988e+01 6.301728e+01 5.388884e+01 5.330537e+01 4.918639e+01 3.710493e+01 3.312921e+01 3.305447e+01 2.912746e+01 2.746313e+01 2.719883e+01 2.580799e+00 1.925350e+00 1.928154e+00 2.286868e+00 2.714991e+00 2.645789e+00 2.308103e+00 2.458935e+00 2.544337e+00 2.468822e+00 2.243048e+00 1.779293e+00 5.158102e+00
<GCONST> 1.028193e+02
<STATE> 3
<MEAN> 25
 -9.240035e-09 -5.626155e-08 2.648810e-08 -4.068182e-08 -7.576829e-08 2.546143e-08 -5.656955e-08 5.251420e-08 -2.854144e-08 -2.464009e-09 -1.745340e-09 4.455750e-08 -2.865925e-02 -4.470564e-02 1.151112e-02 -2.769403e-02 -6.533387e-02 -2.910553e-02 -1.224882e-02 -5.294847e-02 -3.955880e-02 -1.623348e-02 -2.224221e-02 -1.952394e-02 4.356629e-01
<VARIANCE> 25
 9.218033e+01 5.970988e+01 6.301728e+01 5.388884e+01 5.330537e+01 4.918639e+01 3.710493e+01 3.312921e+01 3.305447e+01 2.912746e+01 2.746313e+01 2.719883e+01 2.580799e+00 1.925350e+00 1.928154e+00 2.286868e+00 2.714991e+00 2.645789e+00 2.308103e+00 2.458935e+00 2.544337e+00 2.468822e+00 2.243048e+00 1.779293e+00 5.158102e+00
<GCONST> 1.028193e+02
<STATE> 4
<MEAN> 25
 -9.240035e-09 -5.626155e-08 2.648810e-08 -4.068182e-08 -7.576829e-08 2.546143e-08 -5.656955e-08 5.251420e-08 -2.854144e-08 -2.464009e-09 -1.745340e-09 4.455750e-08 -2.865925e-02 -4.470564e-02 1.151112e-02 -2.769403e-02 -6.533387e-02 -2.910553e-02 -1.224882e-02 -5.294847e-02 -3.955880e-02 -1.623348e-02 -2.224221e-02 -1.952394e-02 4.356629e-01
<VARIANCE> 25
 9.218033e+01 5.970988e+01 6.301728e+01 5.388884e+01 5.330537e+01 4.918639e+01 3.710493e+01 3.312921e+01 3.305447e+01 2.912746e+01 2.746313e+01 2.719883e+01 2.580799e+00 1.925350e+00 1.928154e+00 2.286868e+00 2.714991e+00 2.645789e+00 2.308103e+00 2.458935e+00 2.544337e+00 2.468822e+00 2.243048e+00 1.779293e+00 5.158102e+00
<GCONST> 1.028193e+02
<TRANSP> 5
 0.000000e+00 1.000000e+00 0.000000e+00 0.000000e+00 0.000000e+00
 0.000000e+00 6.000000e-01 4.000000e-01 0.000000e+00 0.000000e+00
 0.000000e+00 0.000000e+00 6.000000e-01 4.000000e-01 0.000000e+00
 0.000000e+00 0.000000e+00 0.000000e+00 7.000000e-01 3.000000e-01
 0.000000e+00 0.000000e+00 0.000000e+00 0.000000e+00 0.000000e+00
<ENDHMM>
~h "don"
<BEGINHMM>
<NUMSTATES> 5
<STATE> 2
<MEAN> 25
 -9.240035e-09 -5.626155e-08 2.648810e-08 -4.068182e-08 -7.576829e-08 2.546143e-08 -5.656955e-08 5.251420e-08 -2.854144e-08 -2.464009e-09 -1.745340e-09 4.455750e-08 -2.865925e-02 -4.470564e-02 1.151112e-02 -2.769403e-02 -6.533387e-02 -2.910553e-02 -1.224882e-02 -5.294847e-02 -3.955880e-02 -1.623348e-02 -2.224221e-02 -1.952394e-02 4.356629e-01
<VARIANCE> 25
 9.218033e+01 5.970988e+01 6.301728e+01 5.388884e+01 5.330537e+01 4.918639e+01 3.710493e+01 3.312921e+01 3.305447e+01 2.912746e+01 2.746313e+01 2.719883e+01 2.580799e+00 1.925350e+00 1.928154e+00 2.286868e+00 2.714991e+00 2.645789e+00 2.308103e+00 2.458935e+00 2.544337e+00 2.468822e+00 2.243048e+00 1.779293e+00 5.158102e+00
<GCONST> 1.028193e+02
<STATE> 3
<MEAN> 25
 -9.240035e-09 -5.626155e-08 2.648810e-08 -4.068182e-08 -7.576829e-08 2.546143e-08 -5.656955e-08 5.251420e-08 -2.854144e-08 -2.464009e-09 -1.745340e-09 4.455750e-08 -2.865925e-02 -4.470564e-02 1.151112e-02 -2.769403e-02 -6.533387e-02 -2.910553e-02 -1.224882e-02 -5.294847e-02 -3.955880e-02 -1.623348e-02 -2.224221e-02 -1.952394e-02 4.356629e-01
<VARIANCE> 25
 9.218033e+01 5.970988e+01 6.301728e+01 5.388884e+01 5.330537e+01 4.918639e+01 3.710493e+01 3.312921e+01 3.305447e+01 2.912746e+01 2.746313e+01 2.719883e+01 2.580799e+00 1.925350e+00 1.928154e+00 2.286868e+00 2.714991e+00 2.645789e+00 2.308103e+00 2.458935e+00 2.544337e+00 2.468822e+00 2.243048e+00 1.779293e+00 5.158102e+00
<GCONST> 1.028193e+02
<STATE> 4
<MEAN> 25
 -9.240035e-09 -5.626155e-08 2.648810e-08 -4.068182e-08 -7.576829e-08 2.546143e-08 -5.656955e-08 5.251420e-08 -2.854144e-08 -2.464009e-09 -1.745340e-09 4.455750e-08 -2.865925e-02 -4.470564e-02 1.151112e-02 -2.769403e-02 -6.533387e-02 -2.910553e-02 -1.224882e-02 -5.294847e-02 -3.955880e-02 -1.623348e-02 -2.224221e-02 -1.952394e-02 4.356629e-01
<VARIANCE> 25
 9.218033e+01 5.970988e+01 6.301728e+01 5.388884e+01 5.330537e+01 4.918639e+01 3.710493e+01 3.312921e+01 3.305447e+01 2.912746e+01 2.746313e+01 2.719883e+01 2.580799e+00 1.925350e+00 1.928154e+00 2.286868e+00 2.714991e+00 2.645789e+00 2.308103e+00 2.458935e+00 2.544337e+00 2.468822e+00 2.243048e+00 1.779293e+00 5.158102e+00
<GCONST> 1.028193e+02
<TRANSP> 5
 0.000000e+00 1.000000e+00 0.000000e+00 0.000000e+00 0.000000e+00
 0.000000e+00 6.000000e-01 4.000000e-01 0.000000e+00 0.000000e+00
 0.000000e+00 0.000000e+00 6.000000e-01 4.000000e-01 0.000000e+00
 0.000000e+00 0.000000e+00 0.000000e+00 7.000000e-01 3.000000e-01
 0.000000e+00 0.000000e+00 0.000000e+00 0.000000e+00 0.000000e+00
<ENDHMM>
~h "ek"
<BEGINHMM>
<NUMSTATES> 5
<STATE> 2
<MEAN> 25
 -9.240035e-09 -5.626155e-08 2.648810e-08 -4.068182e-08 -7.576829e-08 2.546143e-08 -5.656955e-08 5.251420e-08 -2.854144e-08 -2.464009e-09 -1.745340e-09 4.455750e-08 -2.865925e-02 -4.470564e-02 1.151112e-02 -2.769403e-02 -6.533387e-02 -2.910553e-02 -1.224882e-02 -5.294847e-02 -3.955880e-02 -1.623348e-02 -2.224221e-02 -1.952394e-02 4.356629e-01
<VARIANCE> 25
 9.218033e+01 5.970988e+01 6.301728e+01 5.388884e+01 5.330537e+01 4.918639e+01 3.710493e+01 3.312921e+01 3.305447e+01 2.912746e+01 2.746313e+01 2.719883e+01 2.580799e+00 1.925350e+00 1.928154e+00 2.286868e+00 2.714991e+00 2.645789e+00 2.308103e+00 2.458935e+00 2.544337e+00 2.468822e+00 2.243048e+00 1.779293e+00 5.158102e+00
<GCONST> 1.028193e+02
<STATE> 3
<MEAN> 25
 -9.240035e-09 -5.626155e-08 2.648810e-08 -4.068182e-08 -7.576829e-08 2.546143e-08 -5.656955e-08 5.251420e-08 -2.854144e-08 -2.464009e-09 -1.745340e-09 4.455750e-08 -2.865925e-02 -4.470564e-02 1.151112e-02 -2.769403e-02 -6.533387e-02 -2.910553e-02 -1.224882e-02 -5.294847e-02 -3.955880e-02 -1.623348e-02 -2.224221e-02 -1.952394e-02 4.356629e-01
<VARIANCE> 25
 9.218033e+01 5.970988e+01 6.301728e+01 5.388884e+01 5.330537e+01 4.918639e+01 3.710493e+01 3.312921e+01 3.305447e+01 2.912746e+01 2.746313e+01 2.719883e+01 2.580799e+00 1.925350e+00 1.928154e+00 2.286868e+00 2.714991e+00 2.645789e+00 2.308103e+00 2.458935e+00 2.544337e+00 2.468822e+00 2.243048e+00 1.779293e+00 5.158102e+00
<GCONST> 1.028193e+02
<STATE> 4
<MEAN> 25
 -9.240035e-09 -5.626155e-08 2.648810e-08 -4.068182e-08 -7.576829e-08 2.546143e-08 -5.656955e-08 5.251420e-08 -2.854144e-08 -2.464009e-09 -1.745340e-09 4.455750e-08 -2.865925e-02 -4.470564e-02 1.151112e-02 -2.769403e-02 -6.533387e-02 -2.910553e-02 -1.224882e-02 -5.294847e-02 -3.955880e-02 -1.623348e-02 -2.224221e-02 -1.952394e-02 4.356629e-01
<VARIANCE> 25
 9.218033e+01 5.970988e+01 6.301728e+01 5.388884e+01 5.330537e+01 4.918639e+01 3.710493e+01 3.312921e+01 3.305447e+01 2.912746e+01 2.746313e+01 2.719883e+01 2.580799e+00 1.925350e+00 1.928154e+00 2.286868e+00 2.714991e+00 2.645789e+00 2.308103e+00 2.458935e+00 2.544337e+00 2.468822e+00 2.243048e+00 1.779293e+00 5.158102e+00
<GCONST> 1.028193e+02
<TRANSP> 5
 0.000000e+00 1.000000e+00 0.000000e+00 0.000000e+00 0.000000e+00
 0.000000e+00 6.000000e-01 4.000000e-01 0.000000e+00 0.000000e+00
 0.000000e+00 0.000000e+00 6.000000e-01 4.000000e-01 0.000000e+00
 0.000000e+00 0.000000e+00 0.000000e+00 7.000000e-01 3.000000e-01
 0.000000e+00 0.000000e+00 0.000000e+00 0.000000e+00 0.000000e+00
<ENDHMM>
~h "nau"
<BEGINHMM>
<NUMSTATES> 5
<STATE> 2
<MEAN> 25
 -9.240035e-09 -5.626155e-08 2.648810e-08 -4.068182e-08 -7.576829e-08 2.546143e-08 -5.656955e-08 5.251420e-08 -2.854144e-08 -2.464009e-09 -1.745340e-09 4.455750e-08 -2.865925e-02 -4.470564e-02 1.151112e-02 -2.769403e-02 -6.533387e-02 -2.910553e-02 -1.224882e-02 -5.294847e-02 -3.955880e-02 -1.623348e-02 -2.224221e-02 -1.952394e-02 4.356629e-01
<VARIANCE> 25
 9.218033e+01 5.970988e+01 6.301728e+01 5.388884e+01 5.330537e+01 4.918639e+01 3.710493e+01 3.312921e+01 3.305447e+01 2.912746e+01 2.746313e+01 2.719883e+01 2.580799e+00 1.925350e+00 1.928154e+00 2.286868e+00 2.714991e+00 2.645789e+00 2.308103e+00 2.458935e+00 2.544337e+00 2.468822e+00 2.243048e+00 1.779293e+00 5.158102e+00
<GCONST> 1.028193e+02
<STATE> 3
<MEAN> 25
 -9.240035e-09 -5.626155e-08 2.648810e-08 -4.068182e-08 -7.576829e-08 2.546143e-08 -5.656955e-08 5.251420e-08 -2.854144e-08 -2.464009e-09 -1.745340e-09 4.455750e-08 -2.865925e-02 -4.470564e-02 1.151112e-02 -2.769403e-02 -6.533387e-02 -2.910553e-02 -1.224882e-02 -5.294847e-02 -3.955880e-02 -1.623348e-02 -2.224221e-02 -1.952394e-02 4.356629e-01
<VARIANCE> 25
 9.218033e+01 5.970988e+01 6.301728e+01 5.388884e+01 5.330537e+01 4.918639e+01 3.710493e+01 3.312921e+01 3.305447e+01 2.912746e+01 2.746313e+01 2.719883e+01 2.580799e+00 1.925350e+00 1.928154e+00 2.286868e+00 2.714991e+00 2.645789e+00 2.308103e+00 2.458935e+00 2.544337e+00 2.468822e+00 2.243048e+00 1.779293e+00 5.158102e+00
<GCONST> 1.028193e+02
<STATE> 4
<MEAN> 25
 -9.240035e-09 -5.626155e-08 2.648810e-08 -4.068182e-08 -7.576829e-08 2.546143e-08 -5.656955e-08 5.251420e-08 -2.854144e-08 -2.464009e-09 -1.745340e-09 4.455750e-08 -2.865925e-02 -4.470564e-02 1.151112e-02 -2.769403e-02 -6.533387e-02 -2.910553e-02 -1.224882e-02 -5.294847e-02 -3.955880e-02 -1.623348e-02 -2.224221e-02 -1.952394e-02 4.356629e-01
<VARIANCE> 25
 9.218033e+01 5.970988e+01 6.301728e+01 5.388884e+01 5.330537e+01 4.918639e+01 3.710493e+01 3.312921e+01 3.305447e+01 2.912746e+01 2.746313e+01 2.719883e+01 2.580799e+00 1.925350e+00 1.928154e+00 2.286868e+00 2.714991e+00 2.645789e+00 2.308103e+00 2.458935e+00 2.544337e+00 2.468822e+00 2.243048e+00 1.779293e+00 5.158102e+00
<GCONST> 1.028193e+02
<TRANSP> 5
 0.000000e+00 1.000000e+00 0.000000e+00 0.000000e+00 0.000000e+00
 0.000000e+00 6.000000e-01 4.000000e-01 0.000000e+00 0.000000e+00
 0.000000e+00 0.000000e+00 6.000000e-01 4.000000e-01 0.000000e+00
 0.000000e+00 0.000000e+00 0.000000e+00 7.000000e-01 3.000000e-01
 0.000000e+00 0.000000e+00 0.000000e+00 0.000000e+00 0.000000e+00
<ENDHMM>
~h "pach"
<BEGINHMM>
<NUMSTATES> 5
<STATE> 2
<MEAN> 25
 -9.240035e-09 -5.626155e-08 2.648810e-08 -4.068182e-08 -7.576829e-08 2.546143e-08 -5.656955e-08 5.251420e-08 -2.854144e-08 -2.464009e-09 -1.745340e-09 4.455750e-08 -2.865925e-02 -4.470564e-02 1.151112e-02 -2.769403e-02 -6.533387e-02 -2.910553e-02 -1.224882e-02 -5.294847e-02 -3.955880e-02 -1.623348e-02 -2.224221e-02 -1.952394e-02 4.356629e-01
<VARIANCE> 25
 9.218033e+01 5.970988e+01 6.301728e+01 5.388884e+01 5.330537e+01 4.918639e+01 3.710493e+01 3.312921e+01 3.305447e+01 2.912746e+01 2.746313e+01 2.719883e+01 2.580799e+00 1.925350e+00 1.928154e+00 2.286868e+00 2.714991e+00 2.645789e+00 2.308103e+00 2.458935e+00 2.544337e+00 2.468822e+00 2.243048e+00 1.779293e+00 5.158102e+00
<GCONST> 1.028193e+02
<STATE> 3
<MEAN> 25
 -9.240035e-09 -5.626155e-08 2.648810e-08 -4.068182e-08 -7.576829e-08 2.546143e-08 -5.656955e-08 5.251420e-08 -2.854144e-08 -2.464009e-09 -1.745340e-09 4.455750e-08 -2.865925e-02 -4.470564e-02 1.151112e-02 -2.769403e-02 -6.533387e-02 -2.910553e-02 -1.224882e-02 -5.294847e-02 -3.955880e-02 -1.623348e-02 -2.224221e-02 -1.952394e-02 4.356629e-01
<VARIANCE> 25
 9.218033e+01 5.970988e+01 6.301728e+01 5.388884e+01 5.330537e+01 4.918639e+01 3.710493e+01 3.312921e+01 3.305447e+01 2.912746e+01 2.746313e+01 2.719883e+01 2.580799e+00 1.925350e+00 1.928154e+00 2.286868e+00 2.714991e+00 2.645789e+00 2.308103e+00 2.458935e+00 2.544337e+00 2.468822e+00 2.243048e+00 1.779293e+00 5.158102e+00
<GCONST> 1.028193e+02
<STATE> 4
<MEAN> 25
 -9.240035e-09 -5.626155e-08 2.648810e-08 -4.068182e-08 -7.576829e-08 2.546143e-08 -5.656955e-08 5.251420e-08 -2.854144e-08 -2.464009e-09 -1.745340e-09 4.455750e-08 -2.865925e-02 -4.470564e-02 1.151112e-02 -2.769403e-02 -6.533387e-02 -2.910553e-02 -1.224882e-02 -5.294847e-02 -3.955880e-02 -1.623348e-02 -2.224221e-02 -1.952394e-02 4.356629e-01
<VARIANCE> 25
 9.218033e+01 5.970988e+01 6.301728e+01 5.388884e+01 5.330537e+01 4.918639e+01 3.710493e+01 3.312921e+01 3.305447e+01 2.912746e+01 2.746313e+01 2.719883e+01 2.580799e+00 1.925350e+00 1.928154e+00 2.286868e+00 2.714991e+00 2.645789e+00 2.308103e+00 2.458935e+00 2.544337e+00 2.468822e+00 2.243048e+00 1.779293e+00 5.158102e+00
<GCONST> 1.028193e+02
<TRANSP> 5
 0.000000e+00 1.000000e+00 0.000000e+00 0.000000e+00 0.000000e+00
 0.000000e+00 6.000000e-01 4.000000e-01 0.000000e+00 0.000000e+00
 0.000000e+00 0.000000e+00 6.000000e-01 4.000000e-01 0.000000e+00
 0.000000e+00 0.000000e+00 0.000000e+00 7.000000e-01 3.000000e-01
 0.000000e+00 0.000000e+00 0.000000e+00 0.000000e+00 0.000000e+00
<ENDHMM>
~h "saat"
<BEGINHMM>
<NUMSTATES> 5
<STATE> 2
<MEAN> 25
 -9.240035e-09 -5.626155e-08 2.648810e-08 -4.068182e-08 -7.576829e-08 2.546143e-08 -5.656955e-08 5.251420e-08 -2.854144e-08 -2.464009e-09 -1.745340e-09 4.455750e-08 -2.865925e-02 -4.470564e-02 1.151112e-02 -2.769403e-02 -6.533387e-02 -2.910553e-02 -1.224882e-02 -5.294847e-02 -3.955880e-02 -1.623348e-02 -2.224221e-02 -1.952394e-02 4.356629e-01
<VARIANCE> 25
 9.218033e+01 5.970988e+01 6.301728e+01 5.388884e+01 5.330537e+01 4.918639e+01 3.710493e+01 3.312921e+01 3.305447e+01 2.912746e+01 2.746313e+01 2.719883e+01 2.580799e+00 1.925350e+00 1.928154e+00 2.286868e+00 2.714991e+00 2.645789e+00 2.308103e+00 2.458935e+00 2.544337e+00 2.468822e+00 2.243048e+00 1.779293e+00 5.158102e+00
<GCONST> 1.028193e+02
<STATE> 3
<MEAN> 25
 -9.240035e-09 -5.626155e-08 2.648810e-08 -4.068182e-08 -7.576829e-08 2.546143e-08 -5.656955e-08 5.251420e-08 -2.854144e-08 -2.464009e-09 -1.745340e-09 4.455750e-08 -2.865925e-02 -4.470564e-02 1.151112e-02 -2.769403e-02 -6.533387e-02 -2.910553e-02 -1.224882e-02 -5.294847e-02 -3.955880e-02 -1.623348e-02 -2.224221e-02 -1.952394e-02 4.356629e-01
<VARIANCE> 25
 9.218033e+01 5.970988e+01 6.301728e+01 5.388884e+01 5.330537e+01 4.918639e+01 3.710493e+01 3.312921e+01 3.305447e+01 2.912746e+01 2.746313e+01 2.719883e+01 2.580799e+00 1.925350e+00 1.928154e+00 2.286868e+00 2.714991e+00 2.645789e+00 2.308103e+00 2.458935e+00 2.544337e+00 2.468822e+00 2.243048e+00 1.779293e+00 5.158102e+00
<GCONST> 1.028193e+02
<STATE> 4
<MEAN> 25
 -9.240035e-09 -5.626155e-08 2.648810e-08 -4.068182e-08 -7.576829e-08 2.546143e-08 -5.656955e-08 5.251420e-08 -2.854144e-08 -2.464009e-09 -1.745340e-09 4.455750e-08 -2.865925e-02 -4.470564e-02 1.151112e-02 -2.769403e-02 -6.533387e-02 -2.910553e-02 -1.224882e-02 -5.294847e-02 -3.955880e-02 -1.623348e-02 -2.224221e-02 -1.952394e-02 4.356629e-01
<VARIANCE> 25
 9.218033e+01 5.970988e+01 6.301728e+01 5.388884e+01 5.330537e+01 4.918639e+01 3.710493e+01 3.312921e+01 3.305447e+01 2.912746e+01 2.746313e+01 2.719883e+01 2.580799e+00 1.925350e+00 1.928154e+00 2.286868e+00 2.714991e+00 2.645789e+00 2.308103e+00 2.458935e+00 2.544337e+00 2.468822e+00 2.243048e+00 1.779293e+00 5.158102e+00
<GCONST> 1.028193e+02
<TRANSP> 5
 0.000000e+00 1.000000e+00 0.000000e+00 0.000000e+00 0.000000e+00
 0.000000e+00 6.000000e-01 4.000000e-01 0.000000e+00 0.000000e+00
 0.000000e+00 0.000000e+00 6.000000e-01 4.000000e-01 0.000000e+00
 0.000000e+00 0.000000e+00 0.000000e+00 7.000000e-01 3.000000e-01
 0.000000e+00 0.000000e+00 0.000000e+00 0.000000e+00 0.000000e+00
<ENDHMM>
~h "saha"
<BEGINHMM>
<NUMSTATES> 5
<STATE> 2
<MEAN> 25
 -9.240035e-09 -5.626155e-08 2.648810e-08 -4.068182e-08 -7.576829e-08 2.546143e-08 -5.656955e-08 5.251420e-08 -2.854144e-08 -2.464009e-09 -1.745340e-09 4.455750e-08 -2.865925e-02 -4.470564e-02 1.151112e-02 -2.769403e-02 -6.533387e-02 -2.910553e-02 -1.224882e-02 -5.294847e-02 -3.955880e-02 -1.623348e-02 -2.224221e-02 -1.952394e-02 4.356629e-01
<VARIANCE> 25
 9.218033e+01 5.970988e+01 6.301728e+01 5.388884e+01 5.330537e+01 4.918639e+01 3.710493e+01 3.312921e+01 3.305447e+01 2.912746e+01 2.746313e+01 2.719883e+01 2.580799e+00 1.925350e+00 1.928154e+00 2.286868e+00 2.714991e+00 2.645789e+00 2.308103e+00 2.458935e+00 2.544337e+00 2.468822e+00 2.243048e+00 1.779293e+00 5.158102e+00
<GCONST> 1.028193e+02
<STATE> 3
<MEAN> 25
 -9.240035e-09 -5.626155e-08 2.648810e-08 -4.068182e-08 -7.576829e-08 2.546143e-08 -5.656955e-08 5.251420e-08 -2.854144e-08 -2.464009e-09 -1.745340e-09 4.455750e-08 -2.865925e-02 -4.470564e-02 1.151112e-02 -2.769403e-02 -6.533387e-02 -2.910553e-02 -1.224882e-02 -5.294847e-02 -3.955880e-02 -1.623348e-02 -2.224221e-02 -1.952394e-02 4.356629e-01
<VARIANCE> 25
 9.218033e+01 5.970988e+01 6.301728e+01 5.388884e+01 5.330537e+01 4.918639e+01 3.710493e+01 3.312921e+01 3.305447e+01 2.912746e+01 2.746313e+01 2.719883e+01 2.580799e+00 1.925350e+00 1.928154e+00 2.286868e+00 2.714991e+00 2.645789e+00 2.308103e+00 2.458935e+00 2.544337e+00 2.468822e+00 2.243048e+00 1.779293e+00 5.158102e+00
<GCONST> 1.028193e+02
<STATE> 4
<MEAN> 25
 -9.240035e-09 -5.626155e-08 2.648810e-08 -4.068182e-08 -7.576829e-08 2.546143e-08 -5.656955e-08 5.251420e-08 -2.854144e-08 -2.464009e-09 -1.745340e-09 4.455750e-08 -2.865925e-02 -4.470564e-02 1.151112e-02 -2.769403e-02 -6.533387e-02 -2.910553e-02 -1.224882e-02 -5.294847e-02 -3.955880e-02 -1.623348e-02 -2.224221e-02 -1.952394e-02 4.356629e-01
<VARIANCE> 25
 9.218033e+01 5.970988e+01 6.301728e+01 5.388884e+01 5.330537e+01 4.918639e+01 3.710493e+01 3.312921e+01 3.305447e+01 2.912746e+01 2.746313e+01 2.719883e+01 2.580799e+00 1.925350e+00 1.928154e+00 2.286868e+00 2.714991e+00 2.645789e+00 2.308103e+00 2.458935e+00 2.544337e+00 2.468822e+00 2.243048e+00 1.779293e+00 5.158102e+00
<GCONST> 1.028193e+02
<TRANSP> 5
 0.000000e+00 1.000000e+00 0.000000e+00 0.000000e+00 0.000000e+00
 0.000000e+00 6.000000e-01 4.000000e-01 0.000000e+00 0.000000e+00
 0.000000e+00 0.000000e+00 6.000000e-01 4.000000e-01 0.000000e+00
 0.000000e+00 0.000000e+00 0.000000e+00 7.000000e-01 3.000000e-01
 0.000000e+00 0.000000e+00 0.000000e+00 0.000000e+00 0.000000e+00
<ENDHMM>
~h "sil"
<BEGINHMM>
<NUMSTATES> 5
<STATE> 2
<MEAN> 25
 -9.240035e-09 -5.626155e-08 2.648810e-08 -4.068182e-08 -7.576829e-08 2.546143e-08 -5.656955e-08 5.251420e-08 -2.854144e-08 -2.464009e-09 -1.745340e-09 4.455750e-08 -2.865925e-02 -4.470564e-02 1.151112e-02 -2.769403e-02 -6.533387e-02 -2.910553e-02 -1.224882e-02 -5.294847e-02 -3.955880e-02 -1.623348e-02 -2.224221e-02 -1.952394e-02 4.356629e-01
<VARIANCE> 25
 9.218033e+01 5.970988e+01 6.301728e+01 5.388884e+01 5.330537e+01 4.918639e+01 3.710493e+01 3.312921e+01 3.305447e+01 2.912746e+01 2.746313e+01 2.719883e+01 2.580799e+00 1.925350e+00 1.928154e+00 2.286868e+00 2.714991e+00 2.645789e+00 2.308103e+00 2.458935e+00 2.544337e+00 2.468822e+00 2.243048e+00 1.779293e+00 5.158102e+00
<GCONST> 1.028193e+02
<STATE> 3
<MEAN> 25
 -9.240035e-09 -5.626155e-08 2.648810e-08 -4.068182e-08 -7.576829e-08 2.546143e-08 -5.656955e-08 5.251420e-08 -2.854144e-08 -2.464009e-09 -1.745340e-09 4.455750e-08 -2.865925e-02 -4.470564e-02 1.151112e-02 -2.769403e-02 -6.533387e-02 -2.910553e-02 -1.224882e-02 -5.294847e-02 -3.955880e-02 -1.623348e-02 -2.224221e-02 -1.952394e-02 4.356629e-01
<VARIANCE> 25
 9.218033e+01 5.970988e+01 6.301728e+01 5.388884e+01 5.330537e+01 4.918639e+01 3.710493e+01 3.312921e+01 3.305447e+01 2.912746e+01 2.746313e+01 2.719883e+01 2.580799e+00 1.925350e+00 1.928154e+00 2.286868e+00 2.714991e+00 2.645789e+00 2.308103e+00 2.458935e+00 2.544337e+00 2.468822e+00 2.243048e+00 1.779293e+00 5.158102e+00
<GCONST> 1.028193e+02
<STATE> 4
<MEAN> 25
 -9.240035e-09 -5.626155e-08 2.648810e-08 -4.068182e-08 -7.576829e-08 2.546143e-08 -5.656955e-08 5.251420e-08 -2.854144e-08 -2.464009e-09 -1.745340e-09 4.455750e-08 -2.865925e-02 -4.470564e-02 1.151112e-02 -2.769403e-02 -6.533387e-02 -2.910553e-02 -1.224882e-02 -5.294847e-02 -3.955880e-02 -1.623348e-02 -2.224221e-02 -1.952394e-02 4.356629e-01
<VARIANCE> 25
 9.218033e+01 5.970988e+01 6.301728e+01 5.388884e+01 5.330537e+01 4.918639e+01 3.710493e+01 3.312921e+01 3.305447e+01 2.912746e+01 2.746313e+01 2.719883e+01 2.580799e+00 1.925350e+00 1.928154e+00 2.286868e+00 2.714991e+00 2.645789e+00 2.308103e+00 2.458935e+00 2.544337e+00 2.468822e+00 2.243048e+00 1.779293e+00 5.158102e+00
<GCONST> 1.028193e+02
<TRANSP> 5
 0.000000e+00 1.000000e+00 0.000000e+00 0.000000e+00 0.000000e+00
 0.000000e+00 6.000000e-01 4.000000e-01 0.000000e+00 0.000000e+00
 0.000000e+00 0.000000e+00 6.000000e-01 4.000000e-01 0.000000e+00
 0.000000e+00 0.000000e+00 0.000000e+00 7.000000e-01 3.000000e-01
 0.000000e+00 0.000000e+00 0.000000e+00 0.000000e+00 0.000000e+00
<ENDHMM>
~h "shunya"
<BEGINHMM>
<NUMSTATES> 5
<STATE> 2
<MEAN> 25
 -9.240035e-09 -5.626155e-08 2.648810e-08 -4.068182e-08 -7.576829e-08 2.546143e-08 -5.656955e-08 5.251420e-08 -2.854144e-08 -2.464009e-09 -1.745340e-09 4.455750e-08 -2.865925e-02 -4.470564e-02 1.151112e-02 -2.769403e-02 -6.533387e-02 -2.910553e-02 -1.224882e-02 -5.294847e-02 -3.955880e-02 -1.623348e-02 -2.224221e-02 -1.952394e-02 4.356629e-01
<VARIANCE> 25
 9.218033e+01 5.970988e+01 6.301728e+01 5.388884e+01 5.330537e+01 4.918639e+01 3.710493e+01 3.312921e+01 3.305447e+01 2.912746e+01 2.746313e+01 2.719883e+01 2.580799e+00 1.925350e+00 1.928154e+00 2.286868e+00 2.714991e+00 2.645789e+00 2.308103e+00 2.458935e+00 2.544337e+00 2.468822e+00 2.243048e+00 1.779293e+00 5.158102e+00
<GCONST> 1.028193e+02
<STATE> 3
<MEAN> 25
 -9.240035e-09 -5.626155e-08 2.648810e-08 -4.068182e-08 -7.576829e-08 2.546143e-08 -5.656955e-08 5.251420e-08 -2.854144e-08 -2.464009e-09 -1.745340e-09 4.455750e-08 -2.865925e-02 -4.470564e-02 1.151112e-02 -2.769403e-02 -6.533387e-02 -2.910553e-02 -1.224882e-02 -5.294847e-02 -3.955880e-02 -1.623348e-02 -2.224221e-02 -1.952394e-02 4.356629e-01
<VARIANCE> 25
 9.218033e+01 5.970988e+01 6.301728e+01 5.388884e+01 5.330537e+01 4.918639e+01 3.710493e+01 3.312921e+01 3.305447e+01 2.912746e+01 2.746313e+01 2.719883e+01 2.580799e+00 1.925350e+00 1.928154e+00 2.286868e+00 2.714991e+00 2.645789e+00 2.308103e+00 2.458935e+00 2.544337e+00 2.468822e+00 2.243048e+00 1.779293e+00 5.158102e+00
<GCONST> 1.028193e+02
<STATE> 4
<MEAN> 25
 -9.240035e-09 -5.626155e-08 2.648810e-08 -4.068182e-08 -7.576829e-08 2.546143e-08 -5.656955e-08 5.251420e-08 -2.854144e-08 -2.464009e-09 -1.745340e-09 4.455750e-08 -2.865925e-02 -4.470564e-02 1.151112e-02 -2.769403e-02 -6.533387e-02 -2.910553e-02 -1.224882e-02 -5.294847e-02 -3.955880e-02 -1.623348e-02 -2.224221e-02 -1.952394e-02 4.356629e-01
<VARIANCE> 25
 9.218033e+01 5.970988e+01 6.301728e+01 5.388884e+01 5.330537e+01 4.918639e+01 3.710493e+01 3.312921e+01 3.305447e+01 2.912746e+01 2.746313e+01 2.719883e+01 2.580799e+00 1.925350e+00 1.928154e+00 2.286868e+00 2.714991e+00 2.645789e+00 2.308103e+00 2.458935e+00 2.544337e+00 2.468822e+00 2.243048e+00 1.779293e+00 5.158102e+00
<GCONST> 1.028193e+02
<TRANSP> 5
 0.000000e+00 1.000000e+00 0.000000e+00 0.000000e+00 0.000000e+00
 0.000000e+00 6.000000e-01 4.000000e-01 0.000000e+00 0.000000e+00
 0.000000e+00 0.000000e+00 6.000000e-01 4.000000e-01 0.000000e+00
 0.000000e+00 0.000000e+00 0.000000e+00 7.000000e-01 3.000000e-01
 0.000000e+00 0.000000e+00 0.000000e+00 0.000000e+00 0.000000e+00
<ENDHMM>
~h "teen"
<BEGINHMM>
<NUMSTATES> 5
<STATE> 2
<MEAN> 25
 -9.240035e-09 -5.626155e-08 2.648810e-08 -4.068182e-08 -7.576829e-08 2.546143e-08 -5.656955e-08 5.251420e-08 -2.854144e-08 -2.464009e-09 -1.745340e-09 4.455750e-08 -2.865925e-02 -4.470564e-02 1.151112e-02 -2.769403e-02 -6.533387e-02 -2.910553e-02 -1.224882e-02 -5.294847e-02 -3.955880e-02 -1.623348e-02 -2.224221e-02 -1.952394e-02 4.356629e-01
<VARIANCE> 25
 9.218033e+01 5.970988e+01 6.301728e+01 5.388884e+01 5.330537e+01 4.918639e+01 3.710493e+01 3.312921e+01 3.305447e+01 2.912746e+01 2.746313e+01 2.719883e+01 2.580799e+00 1.925350e+00 1.928154e+00 2.286868e+00 2.714991e+00 2.645789e+00 2.308103e+00 2.458935e+00 2.544337e+00 2.468822e+00 2.243048e+00 1.779293e+00 5.158102e+00
<GCONST> 1.028193e+02
<STATE> 3
<MEAN> 25
 -9.240035e-09 -5.626155e-08 2.648810e-08 -4.068182e-08 -7.576829e-08 2.546143e-08 -5.656955e-08 5.251420e-08 -2.854144e-08 -2.464009e-09 -1.745340e-09 4.455750e-08 -2.865925e-02 -4.470564e-02 1.151112e-02 -2.769403e-02 -6.533387e-02 -2.910553e-02 -1.224882e-02 -5.294847e-02 -3.955880e-02 -1.623348e-02 -2.224221e-02 -1.952394e-02 4.356629e-01
<VARIANCE> 25
 9.218033e+01 5.970988e+01 6.301728e+01 5.388884e+01 5.330537e+01 4.918639e+01 3.710493e+01 3.312921e+01 3.305447e+01 2.912746e+01 2.746313e+01 2.719883e+01 2.580799e+00 1.925350e+00 1.928154e+00 2.286868e+00 2.714991e+00 2.645789e+00 2.308103e+00 2.458935e+00 2.544337e+00 2.468822e+00 2.243048e+00 1.779293e+00 5.158102e+00
<GCONST> 1.028193e+02
<STATE> 4
<MEAN> 25
 -9.240035e-09 -5.626155e-08 2.648810e-08 -4.068182e-08 -7.576829e-08 2.546143e-08 -5.656955e-08 5.251420e-08 -2.854144e-08 -2.464009e-09 -1.745340e-09 4.455750e-08 -2.865925e-02 -4.470564e-02 1.151112e-02 -2.769403e-02 -6.533387e-02 -2.910553e-02 -1.224882e-02 -5.294847e-02 -3.955880e-02 -1.623348e-02 -2.224221e-02 -1.952394e-02 4.356629e-01
<VARIANCE> 25
 9.218033e+01 5.970988e+01 6.301728e+01 5.388884e+01 5.330537e+01 4.918639e+01 3.710493e+01 3.312921e+01 3.305447e+01 2.912746e+01 2.746313e+01 2.719883e+01 2.580799e+00 1.925350e+00 1.928154e+00 2.286868e+00 2.714991e+00 2.645789e+00 2.308103e+00 2.458935e+00 2.544337e+00 2.468822e+00 2.243048e+00 1.779293e+00 5.158102e+00
<GCONST> 1.028193e+02
<TRANSP> 5
 0.000000e+00 1.000000e+00 0.000000e+00 0.000000e+00 0.000000e+00
 0.000000e+00 6.000000e-01 4.000000e-01 0.000000e+00 0.000000e+00
 0.000000e+00 0.000000e+00 6.000000e-01 4.000000e-01 0.000000e+00
 0.000000e+00 0.000000e+00 0.000000e+00 7.000000e-01 3.000000e-01
 0.000000e+00 0.000000e+00 0.000000e+00 0.000000e+00 0.000000e+00
<ENDHMM>

