~o
<STREAMINFO> 1 25
<VECSIZE> 25<NULLD><MFCC_D_N_Z_0><DIAGC>
~h "l1_i"
<BEGINHMM>
<NUMSTATES> 5
<STATE> 2
<MEAN> 25
 1.871195e+00 -1.820215e+00 -4.564216e+00 -4.765843e+00 1.463407e+00 3.842881e+00 -6.144581e-01 -3.473687e+00 1.836631e+00 2.146792e-03 -1.605777e+00 -1.887489e+00 4.527567e-02 1.180677e-03 -1.860964e-02 -4.685644e-02 -1.799799e-03 -9.123096e-03 -3.126785e-02 1.949103e-02 5.076849e-02 4.572324e-02 -1.555993e-02 -4.901193e-02 2.079519e-02
<VARIANCE> 25
 4.375004e+01 4.428007e+01 3.633252e+01 6.894342e+01 4.606192e+01 7.738766e+01 3.629361e+01 6.449379e+01 4.915215e+01 3.260337e+01 3.200216e+01 3.366930e+01 3.322711e+00 3.107386e+00 2.164939e+00 3.558440e+00 2.899370e+00 3.962469e+00 3.278281e+00 4.363469e+00 4.202335e+00 2.869032e+00 2.609424e+00 2.886309e+00 2.298465e+00
<GCONST> 1.064599e+02
<STATE> 3
<MEAN> 25
 1.763027e+00 -1.277145e+00 -2.622446e+00 -2.755584e+00 5.842394e-01 1.169701e+00 -2.001293e-01 -1.247761e+00 2.764340e+00 5.578508e-01 -1.329970e+00 -1.700151e+00 -5.242572e-02 4.371542e-02 1.226976e-01 7.811356e-02 -3.606537e-02 -8.990471e-02 3.177841e-02 5.432815e-02 -2.815131e-02 7.986951e-03 2.761294e-02 2.952616e-02 -5.262719e-03
<VARIANCE> 25
 4.677272e+01 4.889687e+01 4.266752e+01 5.215727e+01 4.684961e+01 7.545898e+01 3.937914e+01 5.096627e+01 5.819210e+01 3.177951e+01 3.446158e+01 3.045581e+01 3.716150e+00 3.630845e+00 2.350906e+00 2.818129e+00 3.413872e+00 4.200677e+00 3.520139e+00 4.070861e+00 4.440196e+00 2.861667e+00 3.146592e+00 2.782842e+00 2.407171e+00
<GCONST> 1.070521e+02
<STATE> 4
<MEAN> 25
 2.802315e-01 5.750375e-01 9.193220e-01 4.562667e-02 -3.686036e-01 -5.529830e-02 -4.188480e-01 -5.455192e-01 -1.905169e-01 3.850829e-01 1.751149e-01 -6.022748e-03 -1.929107e-02 6.339597e-03 -4.030353e-03 5.661109e-03 1.227819e-02 5.491811e-03 2.298627e-03 7.856649e-03 1.105006e-03 -4.141296e-03 5.620465e-03 3.808064e-03 -9.533713e-03
<VARIANCE> 25
 4.903159e+01 3.912949e+01 6.590279e+01 3.453967e+01 7.154526e+01 4.841219e+01 4.006230e+01 6.322087e+01 4.350806e+01 3.509429e+01 3.271022e+01 2.873181e+01 2.579552e+00 1.912829e+00 2.194931e+00 2.064168e+00 3.389727e+00 2.910871e+00 2.757311e+00 3.578445e+00 2.928790e+00 2.609566e+00 2.374095e+00 2.202645e+00 1.681537e+00
<GCONST> 1.032936e+02
<TRANSP> 5
 0.000000e+00 1.000000e+00 0.000000e+00 0.000000e+00 0.000000e+00
 0.000000e+00 9.731938e-01 2.680624e-02 0.000000e+00 0.000000e+00
 0.000000e+00 0.000000e+00 9.647846e-01 3.521533e-02 0.000000e+00
 0.000000e+00 0.000000e+00 0.000000e+00 9.967755e-01 3.224496e-03
 0.000000e+00 0.000000e+00 0.000000e+00 0.000000e+00 0.000000e+00
<ENDHMM>
~h "l1_u"
<BEGINHMM>
<NUMSTATES> 5
<STATE> 2
<MEAN> 25
 -2.202207e+00 -8.076446e-01 -2.876651e-01 1.786413e+00 -1.750094e+00 -3.738513e+00 1.407850e+00 -8.084472e-01 8.514702e-01 -3.906842e-02 2.708211e+00 6.099518e+00 1.462205e-01 -5.659840e-02 -1.042923e-01 4.838497e-03 8.842296e-02 -9.128904e-03 5.711110e-02 3.486975e-02 6.786320e-02 4.650009e-02 -8.818563e-02 2.818965e-02 -1.050018e-02
<VARIANCE> 25
 1.831154e+01 2.978721e+01 2.004062e+01 1.787362e+01 6.694198e+01 4.898636e+01 8.919363e+01 4.709812e+01 2.951260e+01 3.504138e+01 4.657867e+01 6.674333e+01 8.270459e-01 1.213100e+00 1.089705e+00 1.443143e+00 2.476595e+00 2.214184e+00 4.364974e+00 3.476271e+00 2.512221e+00 2.459620e+00 3.014058e+00 2.546285e+00 5.444513e-01
<GCONST> 9.767983e+01
<STATE> 3
<MEAN> 25
 1.187398e+00 -6.912368e-01 -2.388454e+00 9.152578e-01 -3.449384e-01 -8.460116e-01 9.128608e-01 -8.837017e-01 9.675480e-01 4.958307e-01 -8.716351e-01 2.513343e+00 1.828004e-01 -8.051650e-02 -1.533902e-01 -2.160594e-02 9.064440e-02 4.850931e-02 -9.592854e-02 4.913304e-03 2.942501e-02 1.116001e-02 -9.687069e-02 -1.433619e-01 -1.000972e-01
<VARIANCE> 25
 2.239843e+01 2.678343e+01 2.535062e+01 2.351346e+01 4.707880e+01 6.844992e+01 8.159724e+01 4.610398e+01 3.440216e+01 3.909710e+01 5.780537e+01 7.323676e+01 9.539325e-01 1.256342e+00 1.431797e+00 1.631641e+00 2.253816e+00 2.292390e+00 4.671870e+00 2.851506e+00 2.608923e+00 2.840840e+00 3.032301e+00 2.177444e+00 6.299360e-01
<GCONST> 9.928919e+01
<STATE> 4
<MEAN> 25
 1.974461e+00 9.377248e-01 -8.590969e-01 -4.870038e-01 -1.323710e+00 2.703516e-01 -1.639215e-01 -2.737658e+00 -7.902578e-01 7.171635e-01 -1.553040e+00 -2.164793e+00 -3.076352e-02 9.332164e-03 9.104684e-03 -7.567351e-03 -1.145010e-02 3.981625e-02 1.071527e-02 1.653644e-02 -1.438258e-02 -4.309068e-02 -3.079436e-02 2.633669e-03 -1.844713e-02
<VARIANCE> 25
 3.371858e+01 2.504583e+01 3.635476e+01 2.527509e+01 9.401978e+01 5.126385e+01 7.581608e+01 5.115217e+01 5.813538e+01 4.735149e+01 3.349028e+01 5.665667e+01 1.611679e+00 1.325734e+00 1.825105e+00 2.099720e+00 4.155530e+00 3.411062e+00 4.382196e+00 3.577896e+00 3.411483e+00 2.825709e+00 2.746377e+00 2.832986e+00 8.442934e-01
<GCONST> 1.033758e+02
<TRANSP> 5
 0.000000e+00 1.000000e+00 0.000000e+00 0.000000e+00 0.000000e+00
 0.000000e+00 9.649908e-01 3.500924e-02 0.000000e+00 0.000000e+00
 0.000000e+00 0.000000e+00 9.495821e-01 5.041791e-02 0.000000e+00
 0.000000e+00 0.000000e+00 0.000000e+00 9.916693e-01 8.330701e-03
 0.000000e+00 0.000000e+00 0.000000e+00 0.000000e+00 0.000000e+00
<ENDHMM>
~h "l2_i"
<BEGINHMM>
<NUMSTATES> 5
<STATE> 2
<MEAN> 25
 9.108264e-01 -2.063453e+00 -6.102521e-01 1.257817e-01 -2.378362e+00 -3.074508e+00 -1.382541e+00 -1.378462e+00 -6.312215e-01 -1.882755e+00 -2.597848e+00 -1.565035e+00 1.695866e-01 -7.980387e-02 9.350840e-02 -5.611023e-02 -1.852289e-01 -1.161877e-01 -1.417848e-01 3.280764e-02 7.256488e-02 -1.320527e-01 -1.137202e-01 -1.255917e-01 3.616061e-01
<VARIANCE> 25
 2.554402e+01 4.094709e+01 4.464370e+01 3.065956e+01 7.114464e+01 5.230657e+01 4.406728e+01 6.400811e+01 5.934694e+01 4.515876e+01 3.402839e+01 3.571690e+01 2.565325e+00 1.995627e+00 2.726751e+00 2.639924e+00 5.444568e+00 4.065512e+00 4.550946e+00 5.349615e+00 4.750043e+00 3.494965e+00 3.592200e+00 3.569323e+00 6.449640e+00
<GCONST> 1.084053e+02
<STATE> 3
<MEAN> 25
 1.977375e+00 -2.112894e+00 -6.601920e-01 -1.286028e+00 -2.510936e+00 -1.675263e+00 -2.401604e+00 -2.345704e+00 4.010522e-01 -2.010309e+00 -2.973555e+00 -3.216975e+00 -2.969560e-02 1.020344e-01 1.890691e-02 -7.033645e-02 5.030945e-02 9.029835e-02 1.722231e-03 1.391203e-01 9.217053e-02 2.968233e-02 6.624662e-02 -4.391992e-03 -4.295857e-02
<VARIANCE> 25
 2.214304e+01 3.225708e+01 4.584490e+01 3.665852e+01 7.247128e+01 5.424564e+01 4.093144e+01 5.607088e+01 4.738227e+01 3.400630e+01 3.587612e+01 4.061248e+01 1.901764e+00 1.610308e+00 2.418252e+00 2.656457e+00 5.330884e+00 3.668710e+00 3.535682e+00 4.706206e+00 3.715779e+00 2.573674e+00 3.178780e+00 3.608891e+00 3.409450e+00
<GCONST> 1.053180e+02
<STATE> 4
<MEAN> 25
 3.582786e-01 4.296082e-02 1.779248e-01 -2.338365e-01 -3.291923e-02 2.903143e-01 -7.037100e-01 -6.434948e-01 1.454436e-01 -2.611575e-01 1.007415e-01 -2.527320e-01 -1.607607e-02 1.028398e-03 -5.055469e-03 4.050524e-03 1.674430e-02 5.500757e-04 -1.976022e-03 1.098141e-02 2.488659e-03 5.511490e-03 -1.484503e-03 1.104491e-02 1.658348e-03
<VARIANCE> 25
 6.423717e+01 4.154625e+01 4.227924e+01 4.905283e+01 5.609519e+01 7.615374e+01 4.317091e+01 6.132124e+01 5.228319e+01 3.549098e+01 3.283493e+01 3.193934e+01 3.537808e+00 2.547524e+00 2.286300e+00 2.921486e+00 3.610024e+00 3.999663e+00 3.288939e+00 4.011068e+00 3.724108e+00 2.680470e+00 2.664686e+00 2.383887e+00 2.711201e+00
<GCONST> 1.066901e+02
<TRANSP> 5
 0.000000e+00 1.000000e+00 0.000000e+00 0.000000e+00 0.000000e+00
 0.000000e+00 9.198641e-01 8.013599e-02 0.000000e+00 0.000000e+00
 0.000000e+00 0.000000e+00 9.192257e-01 8.077434e-02 0.000000e+00
 0.000000e+00 0.000000e+00 0.000000e+00 9.971683e-01 2.831742e-03
 0.000000e+00 0.000000e+00 0.000000e+00 0.000000e+00 0.000000e+00
<ENDHMM>
~h "l2_u"
<BEGINHMM>
<NUMSTATES> 5
<STATE> 2
<MEAN> 25
 8.207049e-01 -2.220340e+00 -2.152204e+00 -1.231554e+00 -3.745222e-01 -8.098326e-01 -2.605645e+00 -3.506482e+00 -1.432416e+00 3.679799e-01 -2.606009e+00 -2.081955e+00 1.785805e-01 -9.565891e-02 -3.504006e-02 -5.912124e-02 -1.766681e-02 -4.489065e-02 -3.865305e-02 -1.378859e-01 -5.645142e-02 5.477871e-03 -3.578321e-02 -5.492410e-02 -6.210801e-02
<VARIANCE> 25
 2.342243e+01 4.755381e+01 6.533459e+01 4.351503e+01 5.799837e+01 5.665260e+01 3.091996e+01 7.424676e+01 7.563178e+01 7.877388e+01 5.262106e+01 2.824901e+01 2.078999e+00 2.856927e+00 2.579815e+00 2.474895e+00 4.111877e+00 4.045098e+00 2.644542e+00 5.944027e+00 4.201944e+00 4.562611e+00 4.957097e+00 2.499260e+00 1.058882e+00
<GCONST> 1.074772e+02
<STATE> 3
<MEAN> 25
 1.813354e+00 -1.453343e+00 -1.643457e+00 -2.647626e+00 -1.710537e+00 1.762589e-01 -2.545203e+00 -4.894119e+00 -1.339887e+00 4.438242e-01 -1.302458e+00 -1.544932e+00 -5.366627e-02 8.531455e-02 5.634071e-02 5.915256e-02 4.264285e-02 1.777483e-02 4.944762e-02 5.011497e-02 7.728400e-02 -3.513746e-03 4.771677e-02 3.887790e-02 -8.943591e-02
<VARIANCE> 25
 2.616423e+01 4.251593e+01 6.379088e+01 6.432845e+01 6.140008e+01 8.767853e+01 4.587568e+01 6.246762e+01 4.900644e+01 6.194197e+01 5.123407e+01 3.361024e+01 2.002614e+00 2.715189e+00 2.850768e+00 3.371499e+00 4.058167e+00 4.731730e+00 3.471032e+00 5.088936e+00 3.687534e+00 4.100377e+00 4.220063e+00 3.225274e+00 1.245854e+00
<GCONST> 1.086314e+02
<STATE> 4
<MEAN> 25
 3.070901e-01 3.294556e-01 3.740095e-01 -2.477214e-02 -4.822325e-01 -2.490465e-01 2.068105e-01 -3.832325e-03 -1.628916e-01 1.287197e-01 -4.309109e-02 -2.869756e-01 -2.622895e-04 -2.321661e-03 -8.645743e-03 -3.671163e-04 1.749159e-02 -1.905050e-03 1.041420e-02 1.803794e-02 3.543140e-03 7.250736e-03 -6.408582e-04 1.095347e-02 -1.115174e-02
<VARIANCE> 25
 6.636295e+01 4.563885e+01 5.600190e+01 4.258557e+01 4.771895e+01 6.459379e+01 6.101249e+01 5.681774e+01 5.297239e+01 3.051245e+01 3.310728e+01 2.738559e+01 4.397776e+00 3.615215e+00 2.804295e+00 2.573121e+00 3.504345e+00 4.422551e+00 4.222779e+00 3.739335e+00 3.987558e+00 2.455006e+00 2.441154e+00 2.430739e+00 1.530638e+00
<GCONST> 1.068521e+02
<TRANSP> 5
 0.000000e+00 1.000000e+00 0.000000e+00 0.000000e+00 0.000000e+00
 0.000000e+00 9.621645e-01 3.783551e-02 0.000000e+00 0.000000e+00
 0.000000e+00 0.000000e+00 9.670910e-01 3.290897e-02 0.000000e+00
 0.000000e+00 0.000000e+00 0.000000e+00 9.968200e-01 3.179947e-03
 0.000000e+00 0.000000e+00 0.000000e+00 0.000000e+00 0.000000e+00
<ENDHMM>
~h "l3_i"
<BEGINHMM>
<NUMSTATES> 5
<STATE> 2
<MEAN> 25
 -1.913047e+00 -2.823472e+00 -2.573035e+00 -1.422256e+00 1.516379e+00 -1.314063e+00 -1.051298e+00 -7.171104e-01 -7.285146e-02 -1.905514e+00 -3.405948e+00 -6.199777e-01 1.019018e-01 -7.701466e-02 -2.924685e-02 -9.299521e-02 -4.144964e-03 -5.645974e-02 -3.402369e-02 1.134717e-02 3.942123e-02 -4.461764e-02 -1.014666e-01 -5.181041e-02 1.899677e-01
<VARIANCE> 25
 6.413289e+01 3.900210e+01 3.512621e+01 3.898087e+01 6.937656e+01 6.674417e+01 4.363579e+01 6.375787e+01 4.566372e+01 3.581375e+01 4.129905e+01 4.672110e+01 3.740458e+00 2.881590e+00 2.197231e+00 2.899243e+00 3.705142e+00 4.368959e+00 3.707686e+00 4.590720e+00 3.207377e+00 2.538602e+00 3.156658e+00 2.950226e+00 4.096457e+00
<GCONST> 1.079161e+02
<STATE> 3
<MEAN> 25
 3.588960e-01 -3.098806e+00 -2.839687e+00 -2.368656e+00 7.109653e-01 -2.380441e-01 -7.902571e-01 -9.381283e-01 7.368660e-01 -2.087684e+00 -2.467752e+00 -3.994986e-01 1.094448e-01 8.232216e-02 2.215868e-02 -5.286307e-02 -3.206507e-02 8.256096e-02 8.125816e-03 -3.051461e-02 1.828370e-02 -1.932743e-02 6.044585e-02 2.587511e-02 -2.702180e-02
<VARIANCE> 25
 5.045352e+01 4.088262e+01 2.595606e+01 4.213670e+01 5.882037e+01 7.830825e+01 4.819490e+01 7.109540e+01 4.152454e+01 3.549357e+01 4.257166e+01 4.630731e+01 3.079498e+00 2.799359e+00 1.821301e+00 2.945775e+00 3.539622e+00 3.808907e+00 3.440876e+00 4.422682e+00 2.679332e+00 2.383918e+00 2.917722e+00 2.404083e+00 2.615871e+00
<GCONST> 1.059543e+02
<STATE> 4
<MEAN> 25
 8.152118e-01 8.440771e-01 6.237957e-01 -2.905079e-01 -1.172802e+00 3.017496e-01 4.343744e-01 -1.056885e+00 8.907297e-02 4.226381e-01 -2.925928e-02 -5.872773e-01 -3.081414e-02 7.581884e-03 -3.978405e-04 8.720621e-03 2.232262e-02 -6.217498e-03 1.372011e-02 1.638946e-02 -3.628469e-03 1.330457e-03 -3.073863e-04 2.113227e-03 -1.253430e-02
<VARIANCE> 25
 5.157244e+01 3.530346e+01 4.035664e+01 3.147293e+01 6.434636e+01 5.474881e+01 5.245893e+01 5.405915e+01 4.641409e+01 3.346562e+01 3.681118e+01 3.720211e+01 3.276422e+00 2.064890e+00 1.907372e+00 2.178489e+00 3.415023e+00 3.481818e+00 3.597758e+00 3.830562e+00 3.310866e+00 2.701613e+00 2.765242e+00 2.489694e+00 3.101403e+00
<GCONST> 1.049757e+02
<TRANSP> 5
 0.000000e+00 1.000000e+00 0.000000e+00 0.000000e+00 0.000000e+00
 0.000000e+00 9.714235e-01 2.857654e-02 0.000000e+00 0.000000e+00
 0.000000e+00 0.000000e+00 9.647335e-01 3.526649e-02 0.000000e+00
 0.000000e+00 0.000000e+00 0.000000e+00 9.957508e-01 4.249142e-03
 0.000000e+00 0.000000e+00 0.000000e+00 0.000000e+00 0.000000e+00
<ENDHMM>
~h "l3_u"
<BEGINHMM>
<NUMSTATES> 5
<STATE> 2
<MEAN> 25
 -1.879488e+00 8.118076e-02 1.468768e+00 1.371569e-01 -1.139088e+00 -1.075852e+00 -8.965483e-01 -2.588887e+00 -1.814268e+00 3.312175e-01 -1.621094e-01 9.684219e-01 2.962412e-02 -5.439923e-02 4.238713e-02 -4.243687e-02 -1.237484e-01 -5.605359e-02 1.731729e-02 -8.482292e-02 -9.590074e-02 7.058587e-04 -7.635709e-02 -4.230755e-02 9.768362e-02
<VARIANCE> 25
 7.308083e+01 4.603376e+01 5.492257e+01 3.060911e+01 5.902427e+01 6.601576e+01 5.281343e+01 4.931183e+01 7.350993e+01 3.610023e+01 3.433189e+01 5.773342e+01 4.799137e+00 3.513783e+00 2.460282e+00 2.378130e+00 5.106107e+00 4.836290e+00 4.911989e+00 4.033097e+00 5.783911e+00 2.854104e+00 2.895196e+00 4.030796e+00 1.656366e+00
<GCONST> 1.096535e+02
<STATE> 3
<MEAN> 25
 -1.113587e+00 2.725506e-01 9.605224e-01 -4.018810e-02 -9.424803e-01 -1.288023e-01 -7.216265e-02 -2.727525e+00 -1.298669e+00 7.841583e-01 2.707496e-01 8.565747e-01 1.334054e-01 -7.272559e-02 -7.091904e-02 -3.161526e-02 -7.377658e-03 -4.810285e-02 -2.318182e-02 3.329837e-02 6.890918e-02 -3.143131e-02 -4.450334e-02 -5.161929e-02 5.256319e-02
<VARIANCE> 25
 7.669225e+01 4.745759e+01 5.320163e+01 3.417245e+01 5.719026e+01 7.029704e+01 5.985239e+01 4.989848e+01 8.035162e+01 3.356989e+01 3.403225e+01 4.615685e+01 5.100941e+00 3.888888e+00 2.351439e+00 2.539725e+00 4.435406e+00 5.203879e+00 4.350296e+00 3.542663e+00 5.802516e+00 2.913204e+00 2.587455e+00 2.841084e+00 1.383706e+00
<GCONST> 1.090084e+02
<STATE> 4
<MEAN> 25
 1.223392e+00 3.569715e-01 -4.140008e-01 -4.745535e-01 -4.727415e-02 -2.334497e-02 -6.427697e-02 -5.027304e-01 3.678042e-01 -3.374783e-01 -5.250462e-01 -8.855181e-01 -1.411346e-02 1.063832e-02 5.785847e-03 -1.052567e-04 1.256202e-02 1.919990e-02 2.313861e-03 2.185355e-02 5.743574e-03 2.412210e-03 1.382982e-02 -7.113628e-04 -2.044002e-02
<VARIANCE> 25
 3.384999e+01 3.567673e+01 5.354599e+01 3.884209e+01 6.663712e+01 5.697954e+01 4.845799e+01 6.724590e+01 4.506348e+01 4.887749e+01 3.495318e+01 3.102119e+01 2.000390e+00 1.862978e+00 2.312903e+00 2.236298e+00 3.945578e+00 3.477241e+00 2.936531e+00 4.662967e+00 3.109071e+00 3.509704e+00 2.694700e+00 2.154900e+00 1.371439e+00
<GCONST> 1.043598e+02
<TRANSP> 5
 0.000000e+00 1.000000e+00 0.000000e+00 0.000000e+00 0.000000e+00
 0.000000e+00 9.616121e-01 3.838794e-02 0.000000e+00 0.000000e+00
 0.000000e+00 0.000000e+00 9.662952e-01 3.370481e-02 0.000000e+00
 0.000000e+00 0.000000e+00 0.000000e+00 9.961564e-01 3.843635e-03
 0.000000e+00 0.000000e+00 0.000000e+00 0.000000e+00 0.000000e+00
<ENDHMM>
~h "l4_i"
<BEGINHMM>
<NUMSTATES> 5
<STATE> 2
<MEAN> 25
 1.988253e+00 4.208895e-01 -3.496766e+00 -5.146722e+00 -2.192168e-01 4.683404e+00 -1.792579e+00 -2.554272e+00 2.397517e+00 -5.340173e-01 -5.468993e-01 -6.083677e-01 2.805868e-02 -1.144160e-01 -8.189237e-02 -7.888266e-02 1.181909e-01 1.115428e-01 -1.585004e-02 2.534290e-02 2.401780e-01 7.945747e-02 -9.647238e-02 -3.740491e-02 5.918910e-02
<VARIANCE> 25
 6.935266e+01 4.859943e+01 3.130584e+01 7.514481e+01 3.823572e+01 6.698756e+01 6.332670e+01 6.489648e+01 1.055210e+02 3.560114e+01 4.526776e+01 2.775877e+01 3.386970e+00 2.668414e+00 1.575450e+00 3.011031e+00 2.414300e+00 3.624084e+00 3.226729e+00 3.431923e+00 3.686753e+00 2.054916e+00 2.609314e+00 2.327985e+00 1.604125e+00
<GCONST> 1.060033e+02
<STATE> 3
<MEAN> 25
 2.954628e+00 -1.527166e+00 -4.311504e+00 -4.044248e+00 1.118065e+00 6.490776e+00 -2.960910e+00 -1.620801e+00 4.487411e+00 -5.203789e-02 -3.904116e-01 -1.083161e+00 1.453311e-02 -1.046946e-02 5.433800e-02 1.097635e-01 -2.392844e-02 -5.583386e-02 -5.353186e-03 8.507799e-02 2.331775e-03 2.562654e-02 1.960062e-02 4.464593e-04 -8.288101e-02
<VARIANCE> 25
 4.619114e+01 4.798124e+01 3.912577e+01 6.770224e+01 3.312231e+01 5.867466e+01 6.550127e+01 5.155686e+01 6.757489e+01 3.205695e+01 4.437716e+01 2.756266e+01 2.154258e+00 2.118551e+00 1.926537e+00 2.461947e+00 2.735528e+00 3.182607e+00 2.999210e+00 2.884729e+00 3.139209e+00 2.086358e+00 2.044005e+00 1.727412e+00 1.226429e+00
<GCONST> 1.027610e+02
<STATE> 4
<MEAN> 25
 7.896100e-01 9.581494e-01 9.793519e-01 2.134648e-01 -6.148901e-01 -7.470733e-01 -1.435327e-01 -7.942388e-01 -9.914558e-01 3.453094e-01 1.976158e-01 -9.713612e-01 -1.136192e-02 -1.425195e-04 -6.826636e-03 3.919343e-03 1.642649e-02 -1.417986e-03 5.704901e-03 1.754534e-03 -3.511254e-03 -1.392871e-03 -1.429455e-03 -1.387773e-03 3.980021e-04
<VARIANCE> 25
 5.476001e+01 3.496251e+01 5.002003e+01 3.285976e+01 7.281607e+01 5.706298e+01 5.045610e+01 6.205344e+01 4.735111e+01 3.684012e+01 3.504018e+01 2.700249e+01 3.492096e+00 2.110056e+00 2.074789e+00 2.272474e+00 4.421051e+00 3.555674e+00 3.302281e+00 4.169916e+00 3.365906e+00 2.707234e+00 2.733849e+00 2.320103e+00 2.839769e+00
<GCONST> 1.056327e+02
<TRANSP> 5
 0.000000e+00 1.000000e+00 0.000000e+00 0.000000e+00 0.000000e+00
 0.000000e+00 9.407283e-01 5.927164e-02 0.000000e+00 0.000000e+00
 0.000000e+00 0.000000e+00 9.655820e-01 3.441793e-02 0.000000e+00
 0.000000e+00 0.000000e+00 0.000000e+00 9.964882e-01 3.511785e-03
 0.000000e+00 0.000000e+00 0.000000e+00 0.000000e+00 0.000000e+00
<ENDHMM>
~h "l4_u"
<BEGINHMM>
<NUMSTATES> 5
<STATE> 2
<MEAN> 25
 -1.038545e+00 -7.463459e-01 3.506026e-01 -3.127318e-01 -2.368629e+00 -3.378935e+00 -1.583338e+00 1.235076e+00 -4.075775e+00 -3.200955e-01 -5.789524e-02 -8.098611e-01 2.939051e-02 -6.244534e-02 -4.580034e-03 -9.457660e-02 -3.056304e-02 -9.046501e-02 -7.484931e-02 -3.761875e-02 4.212249e-02 6.281111e-02 -4.292528e-02 -8.251445e-02 2.650251e-01
<VARIANCE> 25
 4.266617e+01 4.625936e+01 4.104228e+01 4.335386e+01 5.716109e+01 6.490453e+01 4.085104e+01 8.810040e+01 6.731161e+01 4.781587e+01 4.856136e+01 5.434429e+01 2.812521e+00 3.199767e+00 2.796023e+00 3.194690e+00 5.172244e+00 5.345287e+00 3.347483e+00 5.453540e+00 5.148702e+00 3.085449e+00 3.457666e+00 4.537874e+00 4.682467e+00
<GCONST> 1.110538e+02
<STATE> 3
<MEAN> 25
 -5.105478e-01 9.777586e-02 -1.605682e+00 -5.189519e+00 -1.691928e+00 1.970977e+00 -1.006961e+00 -1.887208e+00 -5.828356e-01 -1.125929e-01 -1.153443e+00 1.404641e-01 9.220770e-03 -5.052993e-02 -1.759014e-02 -9.399599e-02 2.846451e-02 1.096958e-01 5.261753e-02 1.443658e-01 1.498879e-01 3.376008e-02 2.071519e-02 4.874867e-02 3.822549e-02
<VARIANCE> 25
 5.730908e+01 3.688315e+01 3.432361e+01 7.727861e+01 5.680677e+01 8.675108e+01 4.713180e+01 1.112914e+02 4.597600e+01 4.302310e+01 5.077798e+01 4.586182e+01 3.380013e+00 2.750764e+00 2.145190e+00 4.563815e+00 3.895870e+00 5.426205e+00 3.624583e+00 6.158293e+00 3.962151e+00 3.584133e+00 3.758537e+00 3.000786e+00 1.984191e+00
<GCONST> 1.103264e+02
<STATE> 4
<MEAN> 25
 5.012974e-01 9.259027e-02 -6.575702e-02 -1.467468e-02 -5.223969e-02 -1.063099e-01 -2.162430e-01 -8.354601e-01 3.112890e-01 -2.725724e-02 -4.502602e-01 -6.065475e-02 -1.920102e-02 1.378919e-02 5.849089e-03 5.955468e-03 2.241501e-02 1.596889e-02 2.380731e-03 -5.483692e-03 1.095944e-03 5.753835e-03 4.297826e-03 -3.205273e-03 -2.435428e-02
<VARIANCE> 25
 3.171692e+01 3.857418e+01 5.291285e+01 2.664479e+01 9.889046e+01 5.238119e+01 4.997838e+01 6.533923e+01 3.564812e+01 4.525973e+01 4.328632e+01 5.607001e+01 1.662370e+00 1.536533e+00 2.147696e+00 1.579884e+00 4.304035e+00 3.128531e+00 3.570524e+00 3.472991e+00 2.881637e+00 3.006722e+00 2.757988e+00 2.490449e+00 1.101816e+00
<GCONST> 1.035924e+02
<TRANSP> 5
 0.000000e+00 1.000000e+00 0.000000e+00 0.000000e+00 0.000000e+00
 0.000000e+00 9.529893e-01 4.701067e-02 0.000000e+00 0.000000e+00
 0.000000e+00 0.000000e+00 9.569297e-01 4.307027e-02 0.000000e+00
 0.000000e+00 0.000000e+00 0.000000e+00 9.957488e-01 4.251172e-03
 0.000000e+00 0.000000e+00 0.000000e+00 0.000000e+00 0.000000e+00
<ENDHMM>
~h "l5_i"
<BEGINHMM>
<NUMSTATES> 5
<STATE> 2
<MEAN> 25
 3.306046e-01 -1.003862e+00 -1.215634e+00 -1.994860e+00 -1.047010e-01 -9.678517e-01 -1.054771e+00 -2.589593e+00 -3.483619e-01 -7.710580e-01 -1.389090e+00 -1.583951e+00 9.895768e-02 -5.190413e-02 -1.087759e-03 3.149679e-03 -2.642193e-02 2.043646e-03 -2.068384e-02 -3.745215e-02 -3.952285e-02 -6.300148e-02 2.145689e-02 -4.254971e-02 -1.987452e-04
<VARIANCE> 25
 5.233537e+01 4.605077e+01 4.260725e+01 5.689888e+01 6.151215e+01 8.022465e+01 6.715312e+01 7.054562e+01 6.622079e+01 4.142081e+01 4.968195e+01 2.933574e+01 3.720248e+00 3.495414e+00 2.884200e+00 3.319308e+00 4.301326e+00 5.387792e+00 5.062028e+00 4.756094e+00 5.650185e+00 4.094542e+00 3.246871e+00 2.742567e+00 1.615671e+00
<GCONST> 1.106523e+02
<STATE> 3
<MEAN> 25
 1.373249e+00 4.381128e-01 1.429052e-02 -1.825137e+00 5.358863e-02 1.120161e+00 -4.041500e-01 -2.817083e+00 -1.153618e+00 -6.385021e-01 2.253165e-01 -1.477960e+00 5.079590e-02 -1.653625e-02 -8.928334e-02 5.725078e-02 6.615565e-02 1.057705e-02 -6.920991e-02 8.908958e-02 5.753447e-02 -1.064155e-02 -1.706303e-02 1.256931e-02 -3.101682e-02
<VARIANCE> 25
 4.749892e+01 4.339708e+01 4.965608e+01 6.302390e+01 5.723113e+01 8.903640e+01 6.158659e+01 7.328271e+01 6.164421e+01 3.598334e+01 3.461731e+01 2.962317e+01 3.438702e+00 3.440144e+00 2.908324e+00 3.419894e+00 4.112391e+00 5.378013e+00 4.548480e+00 4.267382e+00 4.715358e+00 3.169638e+00 2.660277e+00 2.812565e+00 1.646527e+00
<GCONST> 1.092605e+02
<STATE> 4
<MEAN> 25
 1.064922e+00 2.205951e-01 -2.966046e-01 1.128716e-01 -6.065223e-01 -2.477571e-01 -3.002036e-01 -6.004157e-01 9.811055e-02 -4.308485e-01 -3.927374e-01 -5.658807e-01 -8.557766e-03 7.543508e-03 7.472074e-04 7.673398e-03 1.734840e-03 2.470284e-03 5.124921e-03 1.166012e-02 2.493190e-03 2.431826e-03 5.146903e-03 9.518852e-03 -1.152239e-02
<VARIANCE> 25
 3.635786e+01 4.129464e+01 5.022108e+01 3.215165e+01 7.773141e+01 4.629175e+01 4.724405e+01 6.673154e+01 3.946678e+01 4.998901e+01 4.000342e+01 3.562835e+01 1.943105e+00 1.832149e+00 1.958289e+00 1.848921e+00 3.913592e+00 2.865297e+00 2.946934e+00 3.346736e+00 2.750976e+00 2.989448e+00 2.389189e+00 2.331864e+00 1.188014e+00
<GCONST> 1.030008e+02
<TRANSP> 5
 0.000000e+00 1.000000e+00 0.000000e+00 0.000000e+00 0.000000e+00
 0.000000e+00 9.731259e-01 2.687406e-02 0.000000e+00 0.000000e+00
 0.000000e+00 0.000000e+00 9.627810e-01 3.721906e-02 0.000000e+00
 0.000000e+00 0.000000e+00 0.000000e+00 9.974425e-01 2.557541e-03
 0.000000e+00 0.000000e+00 0.000000e+00 0.000000e+00 0.000000e+00
<ENDHMM>
~h "l5_u"
<BEGINHMM>
<NUMSTATES> 5
<STATE> 2
<MEAN> 25
 1.569026e-01 -8.277134e-01 -2.025995e-01 -1.142955e+00 -6.586151e-01 1.222219e+00 -1.200719e+00 -4.654162e-01 -7.802397e-01 -1.832740e-02 -1.374766e+00 4.185785e-01 1.065119e-01 -3.857875e-02 2.249704e-02 -2.277327e-01 -1.534324e-01 -3.647608e-02 1.019313e-01 -1.067649e-01 -4.286737e-02 7.154260e-02 -3.251842e-02 -5.199117e-02 2.308352e-01
<VARIANCE> 25
 3.711663e+01 3.074795e+01 3.920003e+01 4.788096e+01 5.524502e+01 5.737693e+01 6.282320e+01 6.339949e+01 4.843620e+01 4.126852e+01 3.293425e+01 2.404172e+01 4.012633e+00 3.077808e+00 2.852666e+00 4.286543e+00 4.800423e+00 6.778991e+00 4.282628e+00 5.525110e+00 3.944439e+00 4.146724e+00 3.469373e+00 3.115697e+00 2.694113e+00
<GCONST> 1.089800e+02
<STATE> 3
<MEAN> 25
 1.302699e+00 -9.036143e-01 -3.009480e-01 -5.222603e-01 -1.486841e+00 6.766977e-01 -1.934709e+00 -2.284367e+00 -1.127541e+00 -1.011155e-02 -1.058502e+00 -5.454113e-01 5.970552e-02 -1.283416e-02 3.803337e-03 1.254498e-02 6.228928e-04 -3.038964e-02 4.481335e-03 -9.463634e-04 2.413802e-02 -8.038957e-03 2.514327e-02 -1.908574e-02 3.822482e-02
<VARIANCE> 25
 3.154438e+01 3.805376e+01 5.410658e+01 3.543250e+01 6.800584e+01 7.634044e+01 5.338687e+01 6.438650e+01 9.757574e+01 4.021547e+01 3.209048e+01 2.344215e+01 2.617173e+00 2.864561e+00 2.707208e+00 3.095672e+00 4.923281e+00 5.243149e+00 4.984382e+00 4.946007e+00 6.474016e+00 3.597061e+00 3.843677e+00 2.559821e+00 1.464761e+00
<GCONST> 1.086033e+02
<STATE> 4
<MEAN> 25
 6.329223e-01 4.571456e-01 2.228764e-01 -1.228122e-01 -1.814223e-01 5.414553e-02 2.476684e-01 -5.057628e-01 2.352100e-01 -1.973526e-01 -1.658238e-01 -3.525190e-01 -1.144127e-02 1.029588e-02 4.700558e-03 3.869523e-03 8.014725e-03 -3.375144e-03 2.150971e-03 1.069543e-02 1.223362e-02 3.398571e-03 5.225525e-03 7.465679e-03 -1.626402e-02
<VARIANCE> 25
 6.072462e+01 3.267692e+01 4.439738e+01 4.042830e+01 6.284051e+01 5.281285e+01 4.616657e+01 5.882177e+01 4.696204e+01 2.868736e+01 4.059199e+01 2.805640e+01 3.451501e+00 2.329749e+00 2.137373e+00 3.066796e+00 3.919262e+00 3.814008e+00 3.585363e+00 4.173867e+00 3.650906e+00 2.799591e+00 2.939065e+00 2.376548e+00 3.416361e+00
<GCONST> 1.061622e+02
<TRANSP> 5
 0.000000e+00 1.000000e+00 0.000000e+00 0.000000e+00 0.000000e+00
 0.000000e+00 9.381393e-01 6.186066e-02 0.000000e+00 0.000000e+00
 0.000000e+00 0.000000e+00 9.744139e-01 2.558618e-02 0.000000e+00
 0.000000e+00 0.000000e+00 0.000000e+00 9.965556e-01 3.444423e-03
 0.000000e+00 0.000000e+00 0.000000e+00 0.000000e+00 0.000000e+00
<ENDHMM>
~h "sil"
<BEGINHMM>
<NUMSTATES> 5
<STATE> 2
<MEAN> 25
 -3.342932e+00 -2.716372e+00 -6.893039e-01 6.414154e-01 2.912011e+00 7.207320e-01 6.846231e-01 3.858436e+00 2.676453e-01 5.795423e-02 1.287361e+00 3.019145e+00 -2.727881e-04 1.092551e-02 -2.353299e-02 1.423644e-02 -7.490467e-03 2.930384e-02 3.124718e-02 -1.713401e-02 -1.927697e-02 1.681472e-02 1.181010e-02 1.057695e-02 -6.457043e-02
<VARIANCE> 25
 3.206510e+01 3.275788e+01 2.537800e+01 2.058074e+01 3.570826e+01 2.944356e+01 3.238574e+01 3.830574e+01 2.717400e+01 3.268819e+01 2.953262e+01 2.801007e+01 1.019675e+00 1.005152e+00 1.000769e+00 1.113634e+00 1.757694e+00 1.804397e+00 2.034438e+00 2.176337e+00 1.874821e+00 1.986117e+00 1.811290e+00 1.647577e+00 7.418336e-01
<GCONST> 9.163511e+01
<STATE> 3
<MEAN> 25
 -2.756608e+00 -1.178384e+00 -8.837879e-01 1.011185e+00 1.368098e+00 5.230528e-02 2.041081e+00 3.121126e+00 -3.291605e-01 -5.693418e-01 6.553587e-01 2.255379e+00 2.890006e-01 1.354807e-01 1.602534e-01 -6.992552e-02 -2.762499e-01 -2.545314e-01 -1.006391e-01 -1.932864e-01 -5.605199e-02 -1.817295e-01 -1.151731e-01 -2.445039e-01 6.547074e-01
<VARIANCE> 25
 4.487500e+01 3.432317e+01 2.615695e+01 2.258499e+01 4.527628e+01 4.315313e+01 3.914792e+01 3.343185e+01 3.118783e+01 3.987447e+01 3.071855e+01 2.715003e+01 2.664285e+00 2.146136e+00 1.744140e+00 1.702580e+00 3.159472e+00 3.410029e+00 3.207503e+00 2.758393e+00 2.664742e+00 2.773055e+00 2.335791e+00 2.363984e+00 4.119291e+00
<GCONST> 1.007881e+02
<STATE> 4
<MEAN> 25
 3.907550e-01 8.662014e-01 4.043244e-01 2.977469e-01 -6.035432e-01 -3.138466e-01 1.467306e-01 -2.973708e-01 -7.797267e-02 1.248121e-01 -5.857106e-02 -5.144806e-01 -5.898728e-03 2.408658e-03 -6.855193e-04 -6.709044e-03 4.678553e-03 2.814096e-03 -5.510568e-03 -7.282182e-03 7.223030e-03 6.787060e-03 3.188587e-03 4.118962e-03 -1.184524e-02
<VARIANCE> 25
 5.231347e+01 4.192355e+01 5.011953e+01 3.501690e+01 6.528902e+01 5.554469e+01 4.688460e+01 6.194362e+01 4.834620e+01 3.853662e+01 3.598219e+01 3.126483e+01 3.083673e+00 2.426002e+00 2.335547e+00 2.316607e+00 3.901617e+00 3.567224e+00 3.325917e+00 4.033459e+00 3.477915e+00 2.901495e+00 2.691195e+00 2.451467e+00 1.948449e+00
<GCONST> 1.056313e+02
<TRANSP> 5
 0.000000e+00 1.000000e+00 0.000000e+00 0.000000e+00 0.000000e+00
 0.000000e+00 9.761821e-01 2.381788e-02 0.000000e+00 0.000000e+00
 0.000000e+00 0.000000e+00 8.522761e-01 1.477239e-01 0.000000e+00
 0.000000e+00 0.000000e+00 0.000000e+00 9.906093e-01 9.390689e-03
 0.000000e+00 0.000000e+00 0.000000e+00 0.000000e+00 0.000000e+00
<ENDHMM>
