~h "l1_i"
<BEGINHMM>
<NUMSTATES> 5
<STATE> 2
<MEAN> 25
 2.896123e-09 -8.814474e-08 2.262499e-09 1.780945e-08 -2.690890e-08 -3.073537e-08 -4.630087e-08 4.076826e-08 -3.793086e-08 -2.219227e-08 -2.907250e-08 1.348227e-08 2.175035e-03 5.799086e-03 -5.665438e-04 -1.265695e-03 -2.278046e-04 1.599196e-04 9.951082e-04 -2.477094e-03 1.977250e-03 1.210079e-03 3.049036e-04 -1.899891e-03 -4.893650e-04
<VARIANCE> 25
 4.961947e+01 4.076768e+01 4.714408e+01 3.557149e+01 6.387944e+01 5.417780e+01 4.617735e+01 6.163993e+01 4.533423e+01 3.848210e+01 3.606818e+01 3.413860e+01 2.696224e+00 2.156739e+00 2.087234e+00 2.183880e+00 3.571928e+00 3.352768e+00 3.182806e+00 3.708635e+00 3.223705e+00 2.767817e+00 2.563612e+00 2.337480e+00 1.874477e+00
<GCONST> 1.045032e+02
<STATE> 3
<MEAN> 25
 2.896123e-09 -8.814474e-08 2.262499e-09 1.780945e-08 -2.690890e-08 -3.073537e-08 -4.630087e-08 4.076826e-08 -3.793086e-08 -2.219227e-08 -2.907250e-08 1.348227e-08 2.175035e-03 5.799086e-03 -5.665438e-04 -1.265695e-03 -2.278046e-04 1.599196e-04 9.951082e-04 -2.477094e-03 1.977250e-03 1.210079e-03 3.049036e-04 -1.899891e-03 -4.893650e-04
<VARIANCE> 25
 4.961947e+01 4.076768e+01 4.714408e+01 3.557149e+01 6.387944e+01 5.417780e+01 4.617735e+01 6.163993e+01 4.533423e+01 3.848210e+01 3.606818e+01 3.413860e+01 2.696224e+00 2.156739e+00 2.087234e+00 2.183880e+00 3.571928e+00 3.352768e+00 3.182806e+00 3.708635e+00 3.223705e+00 2.767817e+00 2.563612e+00 2.337480e+00 1.874477e+00
<GCONST> 1.045032e+02
<STATE> 4
<MEAN> 25
 2.896123e-09 -8.814474e-08 2.262499e-09 1.780945e-08 -2.690890e-08 -3.073537e-08 -4.630087e-08 4.076826e-08 -3.793086e-08 -2.219227e-08 -2.907250e-08 1.348227e-08 2.175035e-03 5.799086e-03 -5.665438e-04 -1.265695e-03 -2.278046e-04 1.599196e-04 9.951082e-04 -2.477094e-03 1.977250e-03 1.210079e-03 3.049036e-04 -1.899891e-03 -4.893650e-04
<VARIANCE> 25
 4.961947e+01 4.076768e+01 4.714408e+01 3.557149e+01 6.387944e+01 5.417780e+01 4.617735e+01 6.163993e+01 4.533423e+01 3.848210e+01 3.606818e+01 3.413860e+01 2.696224e+00 2.156739e+00 2.087234e+00 2.183880e+00 3.571928e+00 3.352768e+00 3.182806e+00 3.708635e+00 3.223705e+00 2.767817e+00 2.563612e+00 2.337480e+00 1.874477e+00
<GCONST> 1.045032e+02
<TRANSP> 5
 0.000000e+00 1.000000e+00 0.000000e+00 0.000000e+00 0.000000e+00
 0.000000e+00 6.000000e-01 4.000000e-01 0.000000e+00 0.000000e+00
 0.000000e+00 0.000000e+00 6.000000e-01 4.000000e-01 0.000000e+00
 0.000000e+00 0.000000e+00 0.000000e+00 7.000000e-01 3.000000e-01
 0.000000e+00 0.000000e+00 0.000000e+00 0.000000e+00 0.000000e+00
<ENDHMM>
~h "l1_u"
<BEGINHMM>
<NUMSTATES> 5
<STATE> 2
<MEAN> 25
 2.896123e-09 -8.814474e-08 2.262499e-09 1.780945e-08 -2.690890e-08 -3.073537e-08 -4.630087e-08 4.076826e-08 -3.793086e-08 -2.219227e-08 -2.907250e-08 1.348227e-08 2.175035e-03 5.799086e-03 -5.665438e-04 -1.265695e-03 -2.278046e-04 1.599196e-04 9.951082e-04 -2.477094e-03 1.977250e-03 1.210079e-03 3.049036e-04 -1.899891e-03 -4.893650e-04
<VARIANCE> 25
 4.961947e+01 4.076768e+01 4.714408e+01 3.557149e+01 6.387944e+01 5.417780e+01 4.617735e+01 6.163993e+01 4.533423e+01 3.848210e+01 3.606818e+01 3.413860e+01 2.696224e+00 2.156739e+00 2.087234e+00 2.183880e+00 3.571928e+00 3.352768e+00 3.182806e+00 3.708635e+00 3.223705e+00 2.767817e+00 2.563612e+00 2.337480e+00 1.874477e+00
<GCONST> 1.045032e+02
<STATE> 3
<MEAN> 25
 2.896123e-09 -8.814474e-08 2.262499e-09 1.780945e-08 -2.690890e-08 -3.073537e-08 -4.630087e-08 4.076826e-08 -3.793086e-08 -2.219227e-08 -2.907250e-08 1.348227e-08 2.175035e-03 5.799086e-03 -5.665438e-04 -1.265695e-03 -2.278046e-04 1.599196e-04 9.951082e-04 -2.477094e-03 1.977250e-03 1.210079e-03 3.049036e-04 -1.899891e-03 -4.893650e-04
<VARIANCE> 25
 4.961947e+01 4.076768e+01 4.714408e+01 3.557149e+01 6.387944e+01 5.417780e+01 4.617735e+01 6.163993e+01 4.533423e+01 3.848210e+01 3.606818e+01 3.413860e+01 2.696224e+00 2.156739e+00 2.087234e+00 2.183880e+00 3.571928e+00 3.352768e+00 3.182806e+00 3.708635e+00 3.223705e+00 2.767817e+00 2.563612e+00 2.337480e+00 1.874477e+00
<GCONST> 1.045032e+02
<STATE> 4
<MEAN> 25
 2.896123e-09 -8.814474e-08 2.262499e-09 1.780945e-08 -2.690890e-08 -3.073537e-08 -4.630087e-08 4.076826e-08 -3.793086e-08 -2.219227e-08 -2.907250e-08 1.348227e-08 2.175035e-03 5.799086e-03 -5.665438e-04 -1.265695e-03 -2.278046e-04 1.599196e-04 9.951082e-04 -2.477094e-03 1.977250e-03 1.210079e-03 3.049036e-04 -1.899891e-03 -4.893650e-04
<VARIANCE> 25
 4.961947e+01 4.076768e+01 4.714408e+01 3.557149e+01 6.387944e+01 5.417780e+01 4.617735e+01 6.163993e+01 4.533423e+01 3.848210e+01 3.606818e+01 3.413860e+01 2.696224e+00 2.156739e+00 2.087234e+00 2.183880e+00 3.571928e+00 3.352768e+00 3.182806e+00 3.708635e+00 3.223705e+00 2.767817e+00 2.563612e+00 2.337480e+00 1.874477e+00
<GCONST> 1.045032e+02
<TRANSP> 5
 0.000000e+00 1.000000e+00 0.000000e+00 0.000000e+00 0.000000e+00
 0.000000e+00 6.000000e-01 4.000000e-01 0.000000e+00 0.000000e+00
 0.000000e+00 0.000000e+00 6.000000e-01 4.000000e-01 0.000000e+00
 0.000000e+00 0.000000e+00 0.000000e+00 7.000000e-01 3.000000e-01
 0.000000e+00 0.000000e+00 0.000000e+00 0.000000e+00 0.000000e+00
<ENDHMM>
~h "l2_i"
<BEGINHMM>
<NUMSTATES> 5
<STATE> 2
<MEAN> 25
 2.896123e-09 -8.814474e-08 2.262499e-09 1.780945e-08 -2.690890e-08 -3.073537e-08 -4.630087e-08 4.076826e-08 -3.793086e-08 -2.219227e-08 -2.907250e-08 1.348227e-08 2.175035e-03 5.799086e-03 -5.665438e-04 -1.265695e-03 -2.278046e-04 1.599196e-04 9.951082e-04 -2.477094e-03 1.977250e-03 1.210079e-03 3.049036e-04 -1.899891e-03 -4.893650e-04
<VARIANCE> 25
 4.961947e+01 4.076768e+01 4.714408e+01 3.557149e+01 6.387944e+01 5.417780e+01 4.617735e+01 6.163993e+01 4.533423e+01 3.848210e+01 3.606818e+01 3.413860e+01 2.696224e+00 2.156739e+00 2.087234e+00 2.183880e+00 3.571928e+00 3.352768e+00 3.182806e+00 3.708635e+00 3.223705e+00 2.767817e+00 2.563612e+00 2.337480e+00 1.874477e+00
<GCONST> 1.045032e+02
<STATE> 3
<MEAN> 25
 2.896123e-09 -8.814474e-08 2.262499e-09 1.780945e-08 -2.690890e-08 -3.073537e-08 -4.630087e-08 4.076826e-08 -3.793086e-08 -2.219227e-08 -2.907250e-08 1.348227e-08 2.175035e-03 5.799086e-03 -5.665438e-04 -1.265695e-03 -2.278046e-04 1.599196e-04 9.951082e-04 -2.477094e-03 1.977250e-03 1.210079e-03 3.049036e-04 -1.899891e-03 -4.893650e-04
<VARIANCE> 25
 4.961947e+01 4.076768e+01 4.714408e+01 3.557149e+01 6.387944e+01 5.417780e+01 4.617735e+01 6.163993e+01 4.533423e+01 3.848210e+01 3.606818e+01 3.413860e+01 2.696224e+00 2.156739e+00 2.087234e+00 2.183880e+00 3.571928e+00 3.352768e+00 3.182806e+00 3.708635e+00 3.223705e+00 2.767817e+00 2.563612e+00 2.337480e+00 1.874477e+00
<GCONST> 1.045032e+02
<STATE> 4
<MEAN> 25
 2.896123e-09 -8.814474e-08 2.262499e-09 1.780945e-08 -2.690890e-08 -3.073537e-08 -4.630087e-08 4.076826e-08 -3.793086e-08 -2.219227e-08 -2.907250e-08 1.348227e-08 2.175035e-03 5.799086e-03 -5.665438e-04 -1.265695e-03 -2.278046e-04 1.599196e-04 9.951082e-04 -2.477094e-03 1.977250e-03 1.210079e-03 3.049036e-04 -1.899891e-03 -4.893650e-04
<VARIANCE> 25
 4.961947e+01 4.076768e+01 4.714408e+01 3.557149e+01 6.387944e+01 5.417780e+01 4.617735e+01 6.163993e+01 4.533423e+01 3.848210e+01 3.606818e+01 3.413860e+01 2.696224e+00 2.156739e+00 2.087234e+00 2.183880e+00 3.571928e+00 3.352768e+00 3.182806e+00 3.708635e+00 3.223705e+00 2.767817e+00 2.563612e+00 2.337480e+00 1.874477e+00
<GCONST> 1.045032e+02
<TRANSP> 5
 0.000000e+00 1.000000e+00 0.000000e+00 0.000000e+00 0.000000e+00
 0.000000e+00 6.000000e-01 4.000000e-01 0.000000e+00 0.000000e+00
 0.000000e+00 0.000000e+00 6.000000e-01 4.000000e-01 0.000000e+00
 0.000000e+00 0.000000e+00 0.000000e+00 7.000000e-01 3.000000e-01
 0.000000e+00 0.000000e+00 0.000000e+00 0.000000e+00 0.000000e+00
<ENDHMM>
~h "l2_u"
<BEGINHMM>
<NUMSTATES> 5
<STATE> 2
<MEAN> 25
 2.896123e-09 -8.814474e-08 2.262499e-09 1.780945e-08 -2.690890e-08 -3.073537e-08 -4.630087e-08 4.076826e-08 -3.793086e-08 -2.219227e-08 -2.907250e-08 1.348227e-08 2.175035e-03 5.799086e-03 -5.665438e-04 -1.265695e-03 -2.278046e-04 1.599196e-04 9.951082e-04 -2.477094e-03 1.977250e-03 1.210079e-03 3.049036e-04 -1.899891e-03 -4.893650e-04
<VARIANCE> 25
 4.961947e+01 4.076768e+01 4.714408e+01 3.557149e+01 6.387944e+01 5.417780e+01 4.617735e+01 6.163993e+01 4.533423e+01 3.848210e+01 3.606818e+01 3.413860e+01 2.696224e+00 2.156739e+00 2.087234e+00 2.183880e+00 3.571928e+00 3.352768e+00 3.182806e+00 3.708635e+00 3.223705e+00 2.767817e+00 2.563612e+00 2.337480e+00 1.874477e+00
<GCONST> 1.045032e+02
<STATE> 3
<MEAN> 25
 2.896123e-09 -8.814474e-08 2.262499e-09 1.780945e-08 -2.690890e-08 -3.073537e-08 -4.630087e-08 4.076826e-08 -3.793086e-08 -2.219227e-08 -2.907250e-08 1.348227e-08 2.175035e-03 5.799086e-03 -5.665438e-04 -1.265695e-03 -2.278046e-04 1.599196e-04 9.951082e-04 -2.477094e-03 1.977250e-03 1.210079e-03 3.049036e-04 -1.899891e-03 -4.893650e-04
<VARIANCE> 25
 4.961947e+01 4.076768e+01 4.714408e+01 3.557149e+01 6.387944e+01 5.417780e+01 4.617735e+01 6.163993e+01 4.533423e+01 3.848210e+01 3.606818e+01 3.413860e+01 2.696224e+00 2.156739e+00 2.087234e+00 2.183880e+00 3.571928e+00 3.352768e+00 3.182806e+00 3.708635e+00 3.223705e+00 2.767817e+00 2.563612e+00 2.337480e+00 1.874477e+00
<GCONST> 1.045032e+02
<STATE> 4
<MEAN> 25
 2.896123e-09 -8.814474e-08 2.262499e-09 1.780945e-08 -2.690890e-08 -3.073537e-08 -4.630087e-08 4.076826e-08 -3.793086e-08 -2.219227e-08 -2.907250e-08 1.348227e-08 2.175035e-03 5.799086e-03 -5.665438e-04 -1.265695e-03 -2.278046e-04 1.599196e-04 9.951082e-04 -2.477094e-03 1.977250e-03 1.210079e-03 3.049036e-04 -1.899891e-03 -4.893650e-04
<VARIANCE> 25
 4.961947e+01 4.076768e+01 4.714408e+01 3.557149e+01 6.387944e+01 5.417780e+01 4.617735e+01 6.163993e+01 4.533423e+01 3.848210e+01 3.606818e+01 3.413860e+01 2.696224e+00 2.156739e+00 2.087234e+00 2.183880e+00 3.571928e+00 3.352768e+00 3.182806e+00 3.708635e+00 3.223705e+00 2.767817e+00 2.563612e+00 2.337480e+00 1.874477e+00
<GCONST> 1.045032e+02
<TRANSP> 5
 0.000000e+00 1.000000e+00 0.000000e+00 0.000000e+00 0.000000e+00
 0.000000e+00 6.000000e-01 4.000000e-01 0.000000e+00 0.000000e+00
 0.000000e+00 0.000000e+00 6.000000e-01 4.000000e-01 0.000000e+00
 0.000000e+00 0.000000e+00 0.000000e+00 7.000000e-01 3.000000e-01
 0.000000e+00 0.000000e+00 0.000000e+00 0.000000e+00 0.000000e+00
<ENDHMM>
~h "l3_i"
<BEGINHMM>
<NUMSTATES> 5
<STATE> 2
<MEAN> 25
 2.896123e-09 -8.814474e-08 2.262499e-09 1.780945e-08 -2.690890e-08 -3.073537e-08 -4.630087e-08 4.076826e-08 -3.793086e-08 -2.219227e-08 -2.907250e-08 1.348227e-08 2.175035e-03 5.799086e-03 -5.665438e-04 -1.265695e-03 -2.278046e-04 1.599196e-04 9.951082e-04 -2.477094e-03 1.977250e-03 1.210079e-03 3.049036e-04 -1.899891e-03 -4.893650e-04
<VARIANCE> 25
 4.961947e+01 4.076768e+01 4.714408e+01 3.557149e+01 6.387944e+01 5.417780e+01 4.617735e+01 6.163993e+01 4.533423e+01 3.848210e+01 3.606818e+01 3.413860e+01 2.696224e+00 2.156739e+00 2.087234e+00 2.183880e+00 3.571928e+00 3.352768e+00 3.182806e+00 3.708635e+00 3.223705e+00 2.767817e+00 2.563612e+00 2.337480e+00 1.874477e+00
<GCONST> 1.045032e+02
<STATE> 3
<MEAN> 25
 2.896123e-09 -8.814474e-08 2.262499e-09 1.780945e-08 -2.690890e-08 -3.073537e-08 -4.630087e-08 4.076826e-08 -3.793086e-08 -2.219227e-08 -2.907250e-08 1.348227e-08 2.175035e-03 5.799086e-03 -5.665438e-04 -1.265695e-03 -2.278046e-04 1.599196e-04 9.951082e-04 -2.477094e-03 1.977250e-03 1.210079e-03 3.049036e-04 -1.899891e-03 -4.893650e-04
<VARIANCE> 25
 4.961947e+01 4.076768e+01 4.714408e+01 3.557149e+01 6.387944e+01 5.417780e+01 4.617735e+01 6.163993e+01 4.533423e+01 3.848210e+01 3.606818e+01 3.413860e+01 2.696224e+00 2.156739e+00 2.087234e+00 2.183880e+00 3.571928e+00 3.352768e+00 3.182806e+00 3.708635e+00 3.223705e+00 2.767817e+00 2.563612e+00 2.337480e+00 1.874477e+00
<GCONST> 1.045032e+02
<STATE> 4
<MEAN> 25
 2.896123e-09 -8.814474e-08 2.262499e-09 1.780945e-08 -2.690890e-08 -3.073537e-08 -4.630087e-08 4.076826e-08 -3.793086e-08 -2.219227e-08 -2.907250e-08 1.348227e-08 2.175035e-03 5.799086e-03 -5.665438e-04 -1.265695e-03 -2.278046e-04 1.599196e-04 9.951082e-04 -2.477094e-03 1.977250e-03 1.210079e-03 3.049036e-04 -1.899891e-03 -4.893650e-04
<VARIANCE> 25
 4.961947e+01 4.076768e+01 4.714408e+01 3.557149e+01 6.387944e+01 5.417780e+01 4.617735e+01 6.163993e+01 4.533423e+01 3.848210e+01 3.606818e+01 3.413860e+01 2.696224e+00 2.156739e+00 2.087234e+00 2.183880e+00 3.571928e+00 3.352768e+00 3.182806e+00 3.708635e+00 3.223705e+00 2.767817e+00 2.563612e+00 2.337480e+00 1.874477e+00
<GCONST> 1.045032e+02
<TRANSP> 5
 0.000000e+00 1.000000e+00 0.000000e+00 0.000000e+00 0.000000e+00
 0.000000e+00 6.000000e-01 4.000000e-01 0.000000e+00 0.000000e+00
 0.000000e+00 0.000000e+00 6.000000e-01 4.000000e-01 0.000000e+00
 0.000000e+00 0.000000e+00 0.000000e+00 7.000000e-01 3.000000e-01
 0.000000e+00 0.000000e+00 0.000000e+00 0.000000e+00 0.000000e+00
<ENDHMM>
~h "l3_u"
<BEGINHMM>
<NUMSTATES> 5
<STATE> 2
<MEAN> 25
 2.896123e-09 -8.814474e-08 2.262499e-09 1.780945e-08 -2.690890e-08 -3.073537e-08 -4.630087e-08 4.076826e-08 -3.793086e-08 -2.219227e-08 -2.907250e-08 1.348227e-08 2.175035e-03 5.799086e-03 -5.665438e-04 -1.265695e-03 -2.278046e-04 1.599196e-04 9.951082e-04 -2.477094e-03 1.977250e-03 1.210079e-03 3.049036e-04 -1.899891e-03 -4.893650e-04
<VARIANCE> 25
 4.961947e+01 4.076768e+01 4.714408e+01 3.557149e+01 6.387944e+01 5.417780e+01 4.617735e+01 6.163993e+01 4.533423e+01 3.848210e+01 3.606818e+01 3.413860e+01 2.696224e+00 2.156739e+00 2.087234e+00 2.183880e+00 3.571928e+00 3.352768e+00 3.182806e+00 3.708635e+00 3.223705e+00 2.767817e+00 2.563612e+00 2.337480e+00 1.874477e+00
<GCONST> 1.045032e+02
<STATE> 3
<MEAN> 25
 2.896123e-09 -8.814474e-08 2.262499e-09 1.780945e-08 -2.690890e-08 -3.073537e-08 -4.630087e-08 4.076826e-08 -3.793086e-08 -2.219227e-08 -2.907250e-08 1.348227e-08 2.175035e-03 5.799086e-03 -5.665438e-04 -1.265695e-03 -2.278046e-04 1.599196e-04 9.951082e-04 -2.477094e-03 1.977250e-03 1.210079e-03 3.049036e-04 -1.899891e-03 -4.893650e-04
<VARIANCE> 25
 4.961947e+01 4.076768e+01 4.714408e+01 3.557149e+01 6.387944e+01 5.417780e+01 4.617735e+01 6.163993e+01 4.533423e+01 3.848210e+01 3.606818e+01 3.413860e+01 2.696224e+00 2.156739e+00 2.087234e+00 2.183880e+00 3.571928e+00 3.352768e+00 3.182806e+00 3.708635e+00 3.223705e+00 2.767817e+00 2.563612e+00 2.337480e+00 1.874477e+00
<GCONST> 1.045032e+02
<STATE> 4
<MEAN> 25
 2.896123e-09 -8.814474e-08 2.262499e-09 1.780945e-08 -2.690890e-08 -3.073537e-08 -4.630087e-08 4.076826e-08 -3.793086e-08 -2.219227e-08 -2.907250e-08 1.348227e-08 2.175035e-03 5.799086e-03 -5.665438e-04 -1.265695e-03 -2.278046e-04 1.599196e-04 9.951082e-04 -2.477094e-03 1.977250e-03 1.210079e-03 3.049036e-04 -1.899891e-03 -4.893650e-04
<VARIANCE> 25
 4.961947e+01 4.076768e+01 4.714408e+01 3.557149e+01 6.387944e+01 5.417780e+01 4.617735e+01 6.163993e+01 4.533423e+01 3.848210e+01 3.606818e+01 3.413860e+01 2.696224e+00 2.156739e+00 2.087234e+00 2.183880e+00 3.571928e+00 3.352768e+00 3.182806e+00 3.708635e+00 3.223705e+00 2.767817e+00 2.563612e+00 2.337480e+00 1.874477e+00
<GCONST> 1.045032e+02
<TRANSP> 5
 0.000000e+00 1.000000e+00 0.000000e+00 0.000000e+00 0.000000e+00
 0.000000e+00 6.000000e-01 4.000000e-01 0.000000e+00 0.000000e+00
 0.000000e+00 0.000000e+00 6.000000e-01 4.000000e-01 0.000000e+00
 0.000000e+00 0.000000e+00 0.000000e+00 7.000000e-01 3.000000e-01
 0.000000e+00 0.000000e+00 0.000000e+00 0.000000e+00 0.000000e+00
<ENDHMM>
~h "l4_i"
<BEGINHMM>
<NUMSTATES> 5
<STATE> 2
<MEAN> 25
 2.896123e-09 -8.814474e-08 2.262499e-09 1.780945e-08 -2.690890e-08 -3.073537e-08 -4.630087e-08 4.076826e-08 -3.793086e-08 -2.219227e-08 -2.907250e-08 1.348227e-08 2.175035e-03 5.799086e-03 -5.665438e-04 -1.265695e-03 -2.278046e-04 1.599196e-04 9.951082e-04 -2.477094e-03 1.977250e-03 1.210079e-03 3.049036e-04 -1.899891e-03 -4.893650e-04
<VARIANCE> 25
 4.961947e+01 4.076768e+01 4.714408e+01 3.557149e+01 6.387944e+01 5.417780e+01 4.617735e+01 6.163993e+01 4.533423e+01 3.848210e+01 3.606818e+01 3.413860e+01 2.696224e+00 2.156739e+00 2.087234e+00 2.183880e+00 3.571928e+00 3.352768e+00 3.182806e+00 3.708635e+00 3.223705e+00 2.767817e+00 2.563612e+00 2.337480e+00 1.874477e+00
<GCONST> 1.045032e+02
<STATE> 3
<MEAN> 25
 2.896123e-09 -8.814474e-08 2.262499e-09 1.780945e-08 -2.690890e-08 -3.073537e-08 -4.630087e-08 4.076826e-08 -3.793086e-08 -2.219227e-08 -2.907250e-08 1.348227e-08 2.175035e-03 5.799086e-03 -5.665438e-04 -1.265695e-03 -2.278046e-04 1.599196e-04 9.951082e-04 -2.477094e-03 1.977250e-03 1.210079e-03 3.049036e-04 -1.899891e-03 -4.893650e-04
<VARIANCE> 25
 4.961947e+01 4.076768e+01 4.714408e+01 3.557149e+01 6.387944e+01 5.417780e+01 4.617735e+01 6.163993e+01 4.533423e+01 3.848210e+01 3.606818e+01 3.413860e+01 2.696224e+00 2.156739e+00 2.087234e+00 2.183880e+00 3.571928e+00 3.352768e+00 3.182806e+00 3.708635e+00 3.223705e+00 2.767817e+00 2.563612e+00 2.337480e+00 1.874477e+00
<GCONST> 1.045032e+02
<STATE> 4
<MEAN> 25
 2.896123e-09 -8.814474e-08 2.262499e-09 1.780945e-08 -2.690890e-08 -3.073537e-08 -4.630087e-08 4.076826e-08 -3.793086e-08 -2.219227e-08 -2.907250e-08 1.348227e-08 2.175035e-03 5.799086e-03 -5.665438e-04 -1.265695e-03 -2.278046e-04 1.599196e-04 9.951082e-04 -2.477094e-03 1.977250e-03 1.210079e-03 3.049036e-04 -1.899891e-03 -4.893650e-04
<VARIANCE> 25
 4.961947e+01 4.076768e+01 4.714408e+01 3.557149e+01 6.387944e+01 5.417780e+01 4.617735e+01 6.163993e+01 4.533423e+01 3.848210e+01 3.606818e+01 3.413860e+01 2.696224e+00 2.156739e+00 2.087234e+00 2.183880e+00 3.571928e+00 3.352768e+00 3.182806e+00 3.708635e+00 3.223705e+00 2.767817e+00 2.563612e+00 2.337480e+00 1.874477e+00
<GCONST> 1.045032e+02
<TRANSP> 5
 0.000000e+00 1.000000e+00 0.000000e+00 0.000000e+00 0.000000e+00
 0.000000e+00 6.000000e-01 4.000000e-01 0.000000e+00 0.000000e+00
 0.000000e+00 0.000000e+00 6.000000e-01 4.000000e-01 0.000000e+00
 0.000000e+00 0.000000e+00 0.000000e+00 7.000000e-01 3.000000e-01
 0.000000e+00 0.000000e+00 0.000000e+00 0.000000e+00 0.000000e+00
<ENDHMM>
~h "l4_u"
<BEGINHMM>
<NUMSTATES> 5
<STATE> 2
<MEAN> 25
 2.896123e-09 -8.814474e-08 2.262499e-09 1.780945e-08 -2.690890e-08 -3.073537e-08 -4.630087e-08 4.076826e-08 -3.793086e-08 -2.219227e-08 -2.907250e-08 1.348227e-08 2.175035e-03 5.799086e-03 -5.665438e-04 -1.265695e-03 -2.278046e-04 1.599196e-04 9.951082e-04 -2.477094e-03 1.977250e-03 1.210079e-03 3.049036e-04 -1.899891e-03 -4.893650e-04
<VARIANCE> 25
 4.961947e+01 4.076768e+01 4.714408e+01 3.557149e+01 6.387944e+01 5.417780e+01 4.617735e+01 6.163993e+01 4.533423e+01 3.848210e+01 3.606818e+01 3.413860e+01 2.696224e+00 2.156739e+00 2.087234e+00 2.183880e+00 3.571928e+00 3.352768e+00 3.182806e+00 3.708635e+00 3.223705e+00 2.767817e+00 2.563612e+00 2.337480e+00 1.874477e+00
<GCONST> 1.045032e+02
<STATE> 3
<MEAN> 25
 2.896123e-09 -8.814474e-08 2.262499e-09 1.780945e-08 -2.690890e-08 -3.073537e-08 -4.630087e-08 4.076826e-08 -3.793086e-08 -2.219227e-08 -2.907250e-08 1.348227e-08 2.175035e-03 5.799086e-03 -5.665438e-04 -1.265695e-03 -2.278046e-04 1.599196e-04 9.951082e-04 -2.477094e-03 1.977250e-03 1.210079e-03 3.049036e-04 -1.899891e-03 -4.893650e-04
<VARIANCE> 25
 4.961947e+01 4.076768e+01 4.714408e+01 3.557149e+01 6.387944e+01 5.417780e+01 4.617735e+01 6.163993e+01 4.533423e+01 3.848210e+01 3.606818e+01 3.413860e+01 2.696224e+00 2.156739e+00 2.087234e+00 2.183880e+00 3.571928e+00 3.352768e+00 3.182806e+00 3.708635e+00 3.223705e+00 2.767817e+00 2.563612e+00 2.337480e+00 1.874477e+00
<GCONST> 1.045032e+02
<STATE> 4
<MEAN> 25
 2.896123e-09 -8.814474e-08 2.262499e-09 1.780945e-08 -2.690890e-08 -3.073537e-08 -4.630087e-08 4.076826e-08 -3.793086e-08 -2.219227e-08 -2.907250e-08 1.348227e-08 2.175035e-03 5.799086e-03 -5.665438e-04 -1.265695e-03 -2.278046e-04 1.599196e-04 9.951082e-04 -2.477094e-03 1.977250e-03 1.210079e-03 3.049036e-04 -1.899891e-03 -4.893650e-04
<VARIANCE> 25
 4.961947e+01 4.076768e+01 4.714408e+01 3.557149e+01 6.387944e+01 5.417780e+01 4.617735e+01 6.163993e+01 4.533423e+01 3.848210e+01 3.606818e+01 3.413860e+01 2.696224e+00 2.156739e+00 2.087234e+00 2.183880e+00 3.571928e+00 3.352768e+00 3.182806e+00 3.708635e+00 3.223705e+00 2.767817e+00 2.563612e+00 2.337480e+00 1.874477e+00
<GCONST> 1.045032e+02
<TRANSP> 5
 0.000000e+00 1.000000e+00 0.000000e+00 0.000000e+00 0.000000e+00
 0.000000e+00 6.000000e-01 4.000000e-01 0.000000e+00 0.000000e+00
 0.000000e+00 0.000000e+00 6.000000e-01 4.000000e-01 0.000000e+00
 0.000000e+00 0.000000e+00 0.000000e+00 7.000000e-01 3.000000e-01
 0.000000e+00 0.000000e+00 0.000000e+00 0.000000e+00 0.000000e+00
<ENDHMM>
~h "l5_i"
<BEGINHMM>
<NUMSTATES> 5
<STATE> 2
<MEAN> 25
 2.896123e-09 -8.814474e-08 2.262499e-09 1.780945e-08 -2.690890e-08 -3.073537e-08 -4.630087e-08 4.076826e-08 -3.793086e-08 -2.219227e-08 -2.907250e-08 1.348227e-08 2.175035e-03 5.799086e-03 -5.665438e-04 -1.265695e-03 -2.278046e-04 1.599196e-04 9.951082e-04 -2.477094e-03 1.977250e-03 1.210079e-03 3.049036e-04 -1.899891e-03 -4.893650e-04
<VARIANCE> 25
 4.961947e+01 4.076768e+01 4.714408e+01 3.557149e+01 6.387944e+01 5.417780e+01 4.617735e+01 6.163993e+01 4.533423e+01 3.848210e+01 3.606818e+01 3.413860e+01 2.696224e+00 2.156739e+00 2.087234e+00 2.183880e+00 3.571928e+00 3.352768e+00 3.182806e+00 3.708635e+00 3.223705e+00 2.767817e+00 2.563612e+00 2.337480e+00 1.874477e+00
<GCONST> 1.045032e+02
<STATE> 3
<MEAN> 25
 2.896123e-09 -8.814474e-08 2.262499e-09 1.780945e-08 -2.690890e-08 -3.073537e-08 -4.630087e-08 4.076826e-08 -3.793086e-08 -2.219227e-08 -2.907250e-08 1.348227e-08 2.175035e-03 5.799086e-03 -5.665438e-04 -1.265695e-03 -2.278046e-04 1.599196e-04 9.951082e-04 -2.477094e-03 1.977250e-03 1.210079e-03 3.049036e-04 -1.899891e-03 -4.893650e-04
<VARIANCE> 25
 4.961947e+01 4.076768e+01 4.714408e+01 3.557149e+01 6.387944e+01 5.417780e+01 4.617735e+01 6.163993e+01 4.533423e+01 3.848210e+01 3.606818e+01 3.413860e+01 2.696224e+00 2.156739e+00 2.087234e+00 2.183880e+00 3.571928e+00 3.352768e+00 3.182806e+00 3.708635e+00 3.223705e+00 2.767817e+00 2.563612e+00 2.337480e+00 1.874477e+00
<GCONST> 1.045032e+02
<STATE> 4
<MEAN> 25
 2.896123e-09 -8.814474e-08 2.262499e-09 1.780945e-08 -2.690890e-08 -3.073537e-08 -4.630087e-08 4.076826e-08 -3.793086e-08 -2.219227e-08 -2.907250e-08 1.348227e-08 2.175035e-03 5.799086e-03 -5.665438e-04 -1.265695e-03 -2.278046e-04 1.599196e-04 9.951082e-04 -2.477094e-03 1.977250e-03 1.210079e-03 3.049036e-04 -1.899891e-03 -4.893650e-04
<VARIANCE> 25
 4.961947e+01 4.076768e+01 4.714408e+01 3.557149e+01 6.387944e+01 5.417780e+01 4.617735e+01 6.163993e+01 4.533423e+01 3.848210e+01 3.606818e+01 3.413860e+01 2.696224e+00 2.156739e+00 2.087234e+00 2.183880e+00 3.571928e+00 3.352768e+00 3.182806e+00 3.708635e+00 3.223705e+00 2.767817e+00 2.563612e+00 2.337480e+00 1.874477e+00
<GCONST> 1.045032e+02
<TRANSP> 5
 0.000000e+00 1.000000e+00 0.000000e+00 0.000000e+00 0.000000e+00
 0.000000e+00 6.000000e-01 4.000000e-01 0.000000e+00 0.000000e+00
 0.000000e+00 0.000000e+00 6.000000e-01 4.000000e-01 0.000000e+00
 0.000000e+00 0.000000e+00 0.000000e+00 7.000000e-01 3.000000e-01
 0.000000e+00 0.000000e+00 0.000000e+00 0.000000e+00 0.000000e+00
<ENDHMM>
~h "l5_u"
<BEGINHMM>
<NUMSTATES> 5
<STATE> 2
<MEAN> 25
 2.896123e-09 -8.814474e-08 2.262499e-09 1.780945e-08 -2.690890e-08 -3.073537e-08 -4.630087e-08 4.076826e-08 -3.793086e-08 -2.219227e-08 -2.907250e-08 1.348227e-08 2.175035e-03 5.799086e-03 -5.665438e-04 -1.265695e-03 -2.278046e-04 1.599196e-04 9.951082e-04 -2.477094e-03 1.977250e-03 1.210079e-03 3.049036e-04 -1.899891e-03 -4.893650e-04
<VARIANCE> 25
 4.961947e+01 4.076768e+01 4.714408e+01 3.557149e+01 6.387944e+01 5.417780e+01 4.617735e+01 6.163993e+01 4.533423e+01 3.848210e+01 3.606818e+01 3.413860e+01 2.696224e+00 2.156739e+00 2.087234e+00 2.183880e+00 3.571928e+00 3.352768e+00 3.182806e+00 3.708635e+00 3.223705e+00 2.767817e+00 2.563612e+00 2.337480e+00 1.874477e+00
<GCONST> 1.045032e+02
<STATE> 3
<MEAN> 25
 2.896123e-09 -8.814474e-08 2.262499e-09 1.780945e-08 -2.690890e-08 -3.073537e-08 -4.630087e-08 4.076826e-08 -3.793086e-08 -2.219227e-08 -2.907250e-08 1.348227e-08 2.175035e-03 5.799086e-03 -5.665438e-04 -1.265695e-03 -2.278046e-04 1.599196e-04 9.951082e-04 -2.477094e-03 1.977250e-03 1.210079e-03 3.049036e-04 -1.899891e-03 -4.893650e-04
<VARIANCE> 25
 4.961947e+01 4.076768e+01 4.714408e+01 3.557149e+01 6.387944e+01 5.417780e+01 4.617735e+01 6.163993e+01 4.533423e+01 3.848210e+01 3.606818e+01 3.413860e+01 2.696224e+00 2.156739e+00 2.087234e+00 2.183880e+00 3.571928e+00 3.352768e+00 3.182806e+00 3.708635e+00 3.223705e+00 2.767817e+00 2.563612e+00 2.337480e+00 1.874477e+00
<GCONST> 1.045032e+02
<STATE> 4
<MEAN> 25
 2.896123e-09 -8.814474e-08 2.262499e-09 1.780945e-08 -2.690890e-08 -3.073537e-08 -4.630087e-08 4.076826e-08 -3.793086e-08 -2.219227e-08 -2.907250e-08 1.348227e-08 2.175035e-03 5.799086e-03 -5.665438e-04 -1.265695e-03 -2.278046e-04 1.599196e-04 9.951082e-04 -2.477094e-03 1.977250e-03 1.210079e-03 3.049036e-04 -1.899891e-03 -4.893650e-04
<VARIANCE> 25
 4.961947e+01 4.076768e+01 4.714408e+01 3.557149e+01 6.387944e+01 5.417780e+01 4.617735e+01 6.163993e+01 4.533423e+01 3.848210e+01 3.606818e+01 3.413860e+01 2.696224e+00 2.156739e+00 2.087234e+00 2.183880e+00 3.571928e+00 3.352768e+00 3.182806e+00 3.708635e+00 3.223705e+00 2.767817e+00 2.563612e+00 2.337480e+00 1.874477e+00
<GCONST> 1.045032e+02
<TRANSP> 5
 0.000000e+00 1.000000e+00 0.000000e+00 0.000000e+00 0.000000e+00
 0.000000e+00 6.000000e-01 4.000000e-01 0.000000e+00 0.000000e+00
 0.000000e+00 0.000000e+00 6.000000e-01 4.000000e-01 0.000000e+00
 0.000000e+00 0.000000e+00 0.000000e+00 7.000000e-01 3.000000e-01
 0.000000e+00 0.000000e+00 0.000000e+00 0.000000e+00 0.000000e+00
<ENDHMM>
~h "sil"
<BEGINHMM>
<NUMSTATES> 5
<STATE> 2
<MEAN> 25
 2.896123e-09 -8.814474e-08 2.262499e-09 1.780945e-08 -2.690890e-08 -3.073537e-08 -4.630087e-08 4.076826e-08 -3.793086e-08 -2.219227e-08 -2.907250e-08 1.348227e-08 2.175035e-03 5.799086e-03 -5.665438e-04 -1.265695e-03 -2.278046e-04 1.599196e-04 9.951082e-04 -2.477094e-03 1.977250e-03 1.210079e-03 3.049036e-04 -1.899891e-03 -4.893650e-04
<VARIANCE> 25
 4.961947e+01 4.076768e+01 4.714408e+01 3.557149e+01 6.387944e+01 5.417780e+01 4.617735e+01 6.163993e+01 4.533423e+01 3.848210e+01 3.606818e+01 3.413860e+01 2.696224e+00 2.156739e+00 2.087234e+00 2.183880e+00 3.571928e+00 3.352768e+00 3.182806e+00 3.708635e+00 3.223705e+00 2.767817e+00 2.563612e+00 2.337480e+00 1.874477e+00
<GCONST> 1.045032e+02
<STATE> 3
<MEAN> 25
 2.896123e-09 -8.814474e-08 2.262499e-09 1.780945e-08 -2.690890e-08 -3.073537e-08 -4.630087e-08 4.076826e-08 -3.793086e-08 -2.219227e-08 -2.907250e-08 1.348227e-08 2.175035e-03 5.799086e-03 -5.665438e-04 -1.265695e-03 -2.278046e-04 1.599196e-04 9.951082e-04 -2.477094e-03 1.977250e-03 1.210079e-03 3.049036e-04 -1.899891e-03 -4.893650e-04
<VARIANCE> 25
 4.961947e+01 4.076768e+01 4.714408e+01 3.557149e+01 6.387944e+01 5.417780e+01 4.617735e+01 6.163993e+01 4.533423e+01 3.848210e+01 3.606818e+01 3.413860e+01 2.696224e+00 2.156739e+00 2.087234e+00 2.183880e+00 3.571928e+00 3.352768e+00 3.182806e+00 3.708635e+00 3.223705e+00 2.767817e+00 2.563612e+00 2.337480e+00 1.874477e+00
<GCONST> 1.045032e+02
<STATE> 4
<MEAN> 25
 2.896123e-09 -8.814474e-08 2.262499e-09 1.780945e-08 -2.690890e-08 -3.073537e-08 -4.630087e-08 4.076826e-08 -3.793086e-08 -2.219227e-08 -2.907250e-08 1.348227e-08 2.175035e-03 5.799086e-03 -5.665438e-04 -1.265695e-03 -2.278046e-04 1.599196e-04 9.951082e-04 -2.477094e-03 1.977250e-03 1.210079e-03 3.049036e-04 -1.899891e-03 -4.893650e-04
<VARIANCE> 25
 4.961947e+01 4.076768e+01 4.714408e+01 3.557149e+01 6.387944e+01 5.417780e+01 4.617735e+01 6.163993e+01 4.533423e+01 3.848210e+01 3.606818e+01 3.413860e+01 2.696224e+00 2.156739e+00 2.087234e+00 2.183880e+00 3.571928e+00 3.352768e+00 3.182806e+00 3.708635e+00 3.223705e+00 2.767817e+00 2.563612e+00 2.337480e+00 1.874477e+00
<GCONST> 1.045032e+02
<TRANSP> 5
 0.000000e+00 1.000000e+00 0.000000e+00 0.000000e+00 0.000000e+00
 0.000000e+00 6.000000e-01 4.000000e-01 0.000000e+00 0.000000e+00
 0.000000e+00 0.000000e+00 6.000000e-01 4.000000e-01 0.000000e+00
 0.000000e+00 0.000000e+00 0.000000e+00 7.000000e-01 3.000000e-01
 0.000000e+00 0.000000e+00 0.000000e+00 0.000000e+00 0.000000e+00
<ENDHMM>

