~o
<STREAMINFO> 1 25
<VECSIZE> 25<NULLD><MFCC_D_N_Z_0><DIAGC>
~h "proto"
<BEGINHMM>
<NUMSTATES> 5
<STATE> 2
<MEAN> 25
 6.696418e-09 -1.044886e-08 -7.320811e-09 -2.028711e-08 -9.352928e-09 7.518671e-09 2.036496e-08 -1.232569e-10 -1.522709e-08 -2.017359e-08 -1.727218e-10 -9.064247e-09 1.891865e-03 2.483753e-03 3.506897e-04 -5.364707e-04 -1.782758e-04 -1.871199e-04 4.156201e-04 -5.807247e-04 7.015333e-04 2.388335e-04 -5.643913e-05 -7.286892e-04 9.841868e-05
<VARIANCE> 25
 5.663757e+01 4.143244e+01 5.642428e+01 4.670409e+01 5.956516e+01 5.735656e+01 4.798367e+01 4.991732e+01 4.265371e+01 3.657069e+01 3.506260e+01 3.104715e+01 2.701484e+00 2.194689e+00 2.510747e+00 2.560661e+00 3.288232e+00 3.483302e+00 3.129365e+00 3.304563e+00 2.950975e+00 2.641880e+00 2.487829e+00 2.204661e+00 1.763992e+00
<GCONST> 1.045853e+02
<STATE> 3
<MEAN> 25
 6.696418e-09 -1.044886e-08 -7.320811e-09 -2.028711e-08 -9.352928e-09 7.518671e-09 2.036496e-08 -1.232569e-10 -1.522709e-08 -2.017359e-08 -1.727218e-10 -9.064247e-09 1.891865e-03 2.483753e-03 3.506897e-04 -5.364707e-04 -1.782758e-04 -1.871199e-04 4.156201e-04 -5.807247e-04 7.015333e-04 2.388335e-04 -5.643913e-05 -7.286892e-04 9.841868e-05
<VARIANCE> 25
 5.663757e+01 4.143244e+01 5.642428e+01 4.670409e+01 5.956516e+01 5.735656e+01 4.798367e+01 4.991732e+01 4.265371e+01 3.657069e+01 3.506260e+01 3.104715e+01 2.701484e+00 2.194689e+00 2.510747e+00 2.560661e+00 3.288232e+00 3.483302e+00 3.129365e+00 3.304563e+00 2.950975e+00 2.641880e+00 2.487829e+00 2.204661e+00 1.763992e+00
<GCONST> 1.045853e+02
<STATE> 4
<MEAN> 25
 6.696418e-09 -1.044886e-08 -7.320811e-09 -2.028711e-08 -9.352928e-09 7.518671e-09 2.036496e-08 -1.232569e-10 -1.522709e-08 -2.017359e-08 -1.727218e-10 -9.064247e-09 1.891865e-03 2.483753e-03 3.506897e-04 -5.364707e-04 -1.782758e-04 -1.871199e-04 4.156201e-04 -5.807247e-04 7.015333e-04 2.388335e-04 -5.643913e-05 -7.286892e-04 9.841868e-05
<VARIANCE> 25
 5.663757e+01 4.143244e+01 5.642428e+01 4.670409e+01 5.956516e+01 5.735656e+01 4.798367e+01 4.991732e+01 4.265371e+01 3.657069e+01 3.506260e+01 3.104715e+01 2.701484e+00 2.194689e+00 2.510747e+00 2.560661e+00 3.288232e+00 3.483302e+00 3.129365e+00 3.304563e+00 2.950975e+00 2.641880e+00 2.487829e+00 2.204661e+00 1.763992e+00
<GCONST> 1.045853e+02
<TRANSP> 5
 0.000000e+00 1.000000e+00 0.000000e+00 0.000000e+00 0.000000e+00
 0.000000e+00 6.000000e-01 4.000000e-01 0.000000e+00 0.000000e+00
 0.000000e+00 0.000000e+00 6.000000e-01 4.000000e-01 0.000000e+00
 0.000000e+00 0.000000e+00 0.000000e+00 7.000000e-01 3.000000e-01
 0.000000e+00 0.000000e+00 0.000000e+00 0.000000e+00 0.000000e+00
<ENDHMM>
