~o
<STREAMINFO> 1 14
<VECSIZE> 14<NULLD><USER><DIAGC>
~h "l1_i"
<BEGINHMM>
<NUMSTATES> 5
<STATE> 2
<MEAN> 14
 -2.544530e+03 -1.843347e+01 2.239864e+00 1.507999e+02 -3.188538e+02 -2.077276e+02 -4.590419e+02 -1.559483e+02 8.402425e+02 -1.786774e+02 1.199018e+01 4.788396e+01 -1.509070e+00 1.618169e+00
<VARIANCE> 14
 3.356938e+08 3.551769e+08 3.531560e+08 3.634282e+08 3.576276e+08 3.693318e+08 3.509913e+08 3.617038e+08 3.525788e+08 3.497779e+08 1.268551e+02 3.260286e+01 6.605744e-01 1.858412e+00
<GCONST> 2.311346e+02
<STATE> 3
<MEAN> 14
 -3.431864e+03 -3.914826e+02 -1.108644e+03 2.278469e+02 -1.225152e+02 -2.720346e+02 -4.350187e+02 1.017141e+02 -1.463301e+02 4.554680e+02 6.096933e+00 4.893330e+01 -1.514250e+00 1.484335e+00
<VARIANCE> 14
 3.494423e+08 3.481185e+08 3.626013e+08 3.562019e+08 3.487514e+08 3.516261e+08 3.656501e+08 3.553306e+08 3.846616e+08 3.748352e+08 4.257338e+01 5.947535e+01 4.883703e-01 1.088030e+00
<GCONST> 2.299380e+02
<STATE> 4
<MEAN> 14
 -9.548016e+02 3.956919e+02 1.473611e+02 2.013548e+02 -4.234803e+02 -9.727425e+01 -1.176533e+01 -2.454795e+02 -1.105238e+02 1.988597e+02 2.279579e+00 5.086873e+01 -1.428502e+00 1.746083e+00
<VARIANCE> 14
 3.478755e+08 3.561796e+08 3.532246e+08 3.576203e+08 3.510506e+08 3.559474e+08 3.523749e+08 3.585324e+08 3.592316e+08 3.515883e+08 7.549981e+00 5.618386e+01 5.431431e-01 2.030674e+00
<GCONST> 2.287363e+02
<TRANSP> 5
 0.000000e+00 1.000000e+00 0.000000e+00 0.000000e+00 0.000000e+00
 0.000000e+00 9.525612e-01 4.743881e-02 0.000000e+00 0.000000e+00
 0.000000e+00 0.000000e+00 8.922579e-01 1.077422e-01 0.000000e+00
 0.000000e+00 0.000000e+00 0.000000e+00 9.892203e-01 1.077975e-02
 0.000000e+00 0.000000e+00 0.000000e+00 0.000000e+00 0.000000e+00
<ENDHMM>
~h "l1_u"
<BEGINHMM>
<NUMSTATES> 5
<STATE> 2
<MEAN> 14
 -2.371693e+03 9.708698e+02 7.624865e+02 4.125057e+02 -6.741003e+01 -3.927714e+02 -7.466696e+02 -4.767419e+02 4.365401e+02 5.729309e+02 1.133960e+01 4.725111e+01 -1.397756e+00 1.592636e+00
<VARIANCE> 14
 3.288568e+08 3.652793e+08 3.724660e+08 3.614935e+08 3.762484e+08 3.490258e+08 3.502682e+08 3.492601e+08 3.590730e+08 3.367433e+08 1.408095e+02 4.019815e+01 4.226488e-01 1.523229e+00
<GCONST> 2.307957e+02
<STATE> 3
<MEAN> 14
 -3.294349e+03 1.413209e+03 -4.674633e+02 -4.756075e+01 1.152307e+03 1.282970e+03 -1.547920e+03 -2.723416e+03 2.211789e+03 -2.148350e+03 7.291299e+00 4.656307e+01 -1.288414e+00 1.348286e+00
<VARIANCE> 14
 3.046460e+08 3.335138e+08 3.428862e+08 3.487451e+08 3.487695e+08 3.428376e+08 3.479591e+08 3.859232e+08 3.265661e+08 3.571706e+08 4.442477e+01 3.492452e+01 2.002767e-01 4.118467e-01
<GCONST> 2.271240e+02
<STATE> 4
<MEAN> 14
 -5.770872e+02 -7.246869e+02 -1.773585e+02 -7.247884e+02 -4.011038e+01 -1.105334e+03 3.504654e+02 4.669862e+02 1.077418e+02 -2.036213e+02 6.666350e+00 4.850993e+01 -1.585945e+00 1.542769e+00
<VARIANCE> 14
 3.588856e+08 3.328377e+08 3.695516e+08 3.412377e+08 3.522520e+08 3.628608e+08 3.555997e+08 3.488185e+08 3.492291e+08 3.310713e+08 5.557137e+01 2.707677e+01 1.254017e+00 7.598050e-01
<GCONST> 2.297337e+02
<TRANSP> 5
 0.000000e+00 1.000000e+00 0.000000e+00 0.000000e+00 0.000000e+00
 0.000000e+00 9.373330e-01 6.266694e-02 0.000000e+00 0.000000e+00
 0.000000e+00 0.000000e+00 8.947225e-01 1.052775e-01 0.000000e+00
 0.000000e+00 0.000000e+00 0.000000e+00 9.456394e-01 5.436063e-02
 0.000000e+00 0.000000e+00 0.000000e+00 0.000000e+00 0.000000e+00
<ENDHMM>
~h "l2_i"
<BEGINHMM>
<NUMSTATES> 5
<STATE> 2
<MEAN> 14
 -4.645327e+03 6.158157e+02 4.121600e+02 1.138682e+03 -1.881099e+02 -8.945989e+02 -8.645370e+02 -8.728681e+01 1.108636e+03 1.338849e+03 1.274100e+01 4.878447e+01 -1.526098e+00 1.585132e+00
<VARIANCE> 14
 3.035368e+08 3.638732e+08 3.411269e+08 3.459099e+08 3.889731e+08 3.569011e+08 3.505340e+08 3.658362e+08 3.569240e+08 3.603003e+08 1.789965e+02 4.235933e+01 7.713146e-01 1.245076e+00
<GCONST> 2.314363e+02
<STATE> 3
<MEAN> 14
 -3.170740e+03 6.193669e+02 -3.401124e+02 -2.181968e+02 4.585331e+02 7.721996e+02 -2.896360e+02 8.084901e+02 -6.400073e+02 1.079964e+02 4.857354e+00 4.803491e+01 -1.514978e+00 1.376106e+00
<VARIANCE> 14
 3.365338e+08 3.474919e+08 3.552572e+08 3.472175e+08 3.400244e+08 3.459827e+08 3.555645e+08 3.481335e+08 3.382882e+08 3.478256e+08 2.505539e+01 3.838742e+01 5.793245e-01 3.542700e-01
<GCONST> 2.276401e+02
<STATE> 4
<MEAN> 14
 1.051252e+02 -7.545581e+02 3.895855e+02 -2.024841e+02 -7.255358e+02 4.987266e+02 -1.381442e+03 7.792178e+02 5.824139e+01 -4.316278e+01 7.823176e+00 4.949905e+01 -1.570317e+00 1.911296e+00
<VARIANCE> 14
 3.344252e+08 3.711485e+08 3.548228e+08 3.514660e+08 3.593431e+08 3.375894e+08 3.592470e+08 3.462840e+08 3.472831e+08 3.366855e+08 8.825111e+01 3.242522e+01 7.725422e-01 3.848547e+00
<GCONST> 2.315036e+02
<TRANSP> 5
 0.000000e+00 1.000000e+00 0.000000e+00 0.000000e+00 0.000000e+00
 0.000000e+00 9.244009e-01 7.559914e-02 0.000000e+00 0.000000e+00
 0.000000e+00 0.000000e+00 9.539595e-01 4.604054e-02 0.000000e+00
 0.000000e+00 0.000000e+00 0.000000e+00 9.527142e-01 4.728580e-02
 0.000000e+00 0.000000e+00 0.000000e+00 0.000000e+00 0.000000e+00
<ENDHMM>
~h "l2_u"
<BEGINHMM>
<NUMSTATES> 5
<STATE> 2
<MEAN> 14
 -2.637964e+03 -5.924275e+02 -3.865979e+02 -1.927040e+03 -3.494155e+02 5.207947e+02 5.777021e+02 8.391121e+02 4.282543e+02 1.446116e+03 4.586949e+00 4.684589e+01 -1.243816e+00 2.660871e+00
<VARIANCE> 14
 3.238728e+08 3.516830e+08 3.402822e+08 3.510935e+08 3.671516e+08 3.523017e+08 3.499746e+08 3.633208e+08 3.609862e+08 3.380877e+08 3.486062e+01 3.819001e+01 1.983221e-01 1.168777e+01
<GCONST> 2.304895e+02
<STATE> 3
<MEAN> 14
 -1.578754e+03 -9.426984e+02 -6.552910e+02 -1.631378e+02 -5.665761e+02 -6.133361e+02 7.746536e+02 1.199245e+03 5.030522e+02 1.058934e+02 2.822121e+00 4.807079e+01 -1.367783e+00 2.144766e+00
<VARIANCE> 14
 3.356386e+08 3.685122e+08 3.528508e+08 3.525564e+08 3.775189e+08 3.685391e+08 3.550736e+08 3.868158e+08 3.345269e+08 3.484377e+08 7.828258e+00 2.636493e+01 3.727221e-01 4.827756e+00
<GCONST> 2.285990e+02
<STATE> 4
<MEAN> 14
 -1.100256e+03 -6.460707e+02 7.632812e+01 5.562516e+02 -4.623718e+02 -6.370416e+02 -4.724798e+02 -6.989257e+02 -4.063931e+02 1.571094e+02 1.140660e+01 4.854810e+01 -1.535680e+00 1.651076e+00
<VARIANCE> 14
 3.470688e+08 3.639027e+08 3.463413e+08 3.659066e+08 3.869373e+08 3.638474e+08 3.501322e+08 3.558281e+08 3.574408e+08 3.560628e+08 1.554786e+02 3.050940e+01 7.917632e-01 1.959498e+00
<GCONST> 2.316272e+02
<TRANSP> 5
 0.000000e+00 1.000000e+00 0.000000e+00 0.000000e+00 0.000000e+00
 0.000000e+00 7.635899e-01 2.364100e-01 0.000000e+00 0.000000e+00
 0.000000e+00 0.000000e+00 8.977301e-01 1.022700e-01 0.000000e+00
 0.000000e+00 0.000000e+00 0.000000e+00 9.732537e-01 2.674620e-02
 0.000000e+00 0.000000e+00 0.000000e+00 0.000000e+00 0.000000e+00
<ENDHMM>
~h "l3_i"
<BEGINHMM>
<NUMSTATES> 5
<STATE> 2
<MEAN> 14
 -1.745350e+03 -6.278962e+02 -1.469276e+03 4.180663e+02 -1.162506e+03 -3.873306e+02 -5.906439e+01 -3.267570e+02 -2.967162e+02 -4.947092e+02 1.124409e+01 4.732523e+01 -1.453981e+00 1.586024e+00
<VARIANCE> 14
 3.377512e+08 3.664825e+08 3.470096e+08 3.540663e+08 3.610215e+08 3.590299e+08 3.649179e+08 3.618719e+08 3.630093e+08 3.569671e+08 1.407375e+02 3.634719e+01 4.854982e-01 1.761651e+00
<GCONST> 2.310496e+02
<STATE> 3
<MEAN> 14
 -2.236067e+03 1.003816e+03 -3.897557e+02 2.871374e+02 -7.758712e+02 -1.559891e+02 -7.731970e+01 6.411830e+02 4.455192e+02 9.654314e+01 6.876371e+00 4.713654e+01 -1.385103e+00 1.348913e+00
<VARIANCE> 14
 3.370289e+08 3.516495e+08 3.577442e+08 3.501698e+08 3.560301e+08 3.364324e+08 3.640173e+08 3.526611e+08 3.485113e+08 3.537875e+08 3.737188e+01 3.378460e+01 4.805036e-01 4.023789e-01
<GCONST> 2.279825e+02
<STATE> 4
<MEAN> 14
 -1.190455e+03 5.879877e+02 -1.392613e+02 -8.447229e+02 -1.721483e+02 -3.796949e+02 8.965056e+01 5.180744e+02 -1.573756e+02 -3.660208e+02 2.786081e+00 5.045177e+01 -1.448210e+00 1.627823e+00
<VARIANCE> 14
 3.496184e+08 3.625644e+08 3.523083e+08 3.548370e+08 3.575785e+08 3.541788e+08 3.529370e+08 3.641459e+08 3.578674e+08 3.502693e+08 1.284920e+01 5.055614e+01 5.706889e-01 1.152804e+00
<GCONST> 2.286811e+02
<TRANSP> 5
 0.000000e+00 1.000000e+00 0.000000e+00 0.000000e+00 0.000000e+00
 0.000000e+00 9.487091e-01 5.129091e-02 0.000000e+00 0.000000e+00
 0.000000e+00 0.000000e+00 9.078351e-01 9.216487e-02 0.000000e+00
 0.000000e+00 0.000000e+00 0.000000e+00 9.851478e-01 1.485216e-02
 0.000000e+00 0.000000e+00 0.000000e+00 0.000000e+00 0.000000e+00
<ENDHMM>
~h "l3_u"
<BEGINHMM>
<NUMSTATES> 5
<STATE> 2
<MEAN> 14
 -2.893559e+03 8.477497e+02 1.465204e+03 7.511072e+01 4.905896e+01 6.267764e+02 -9.224756e+01 4.486235e+02 4.828638e+02 -7.428622e+01 1.101957e+01 4.834181e+01 -1.480640e+00 1.623917e+00
<VARIANCE> 14
 3.447740e+08 3.556916e+08 3.624283e+08 3.692204e+08 3.544800e+08 3.452112e+08 3.544664e+08 3.473778e+08 3.733674e+08 3.513982e+08 1.298491e+02 3.025577e+01 6.289439e-01 1.506009e+00
<GCONST> 2.308487e+02
<STATE> 3
<MEAN> 14
 -3.276667e+03 -1.589418e+02 3.255282e+03 2.942920e+03 -4.101028e+03 -4.629944e+02 -1.071576e+03 5.103943e+00 -4.781159e+02 8.667969e+00 4.466362e+00 4.785478e+01 -1.358614e+00 3.530893e+00
<VARIANCE> 14
 3.537521e+08 3.704707e+08 3.481543e+08 3.733345e+08 3.467179e+08 3.467392e+08 3.679205e+08 3.431082e+08 3.751631e+08 3.431026e+08 2.288904e+01 2.860878e+01 3.204966e-01 2.072123e+01
<GCONST> 2.310299e+02
<STATE> 4
<MEAN> 14
 -1.220732e+03 4.955455e+02 1.986490e+01 -1.103809e+02 -4.556487e+01 2.671115e+02 2.748087e+02 5.421151e+02 -4.908428e+02 4.463145e+02 2.752652e+00 4.930318e+01 -1.384738e+00 1.685634e+00
<VARIANCE> 14
 3.427888e+08 3.687366e+08 3.519469e+08 3.651662e+08 3.534819e+08 3.557890e+08 3.385447e+08 3.613134e+08 3.644033e+08 3.625717e+08 1.022674e+01 3.676878e+01 4.093278e-01 1.617523e+00
<GCONST> 2.281618e+02
<TRANSP> 5
 0.000000e+00 1.000000e+00 0.000000e+00 0.000000e+00 0.000000e+00
 0.000000e+00 9.534611e-01 4.653900e-02 0.000000e+00 0.000000e+00
 0.000000e+00 0.000000e+00 7.523980e-01 2.476020e-01 0.000000e+00
 0.000000e+00 0.000000e+00 0.000000e+00 9.827901e-01 1.720988e-02
 0.000000e+00 0.000000e+00 0.000000e+00 0.000000e+00 0.000000e+00
<ENDHMM>
~h "l4_i"
<BEGINHMM>
<NUMSTATES> 5
<STATE> 2
<MEAN> 14
 -5.934113e+03 1.753857e+03 2.289889e+03 -8.735811e+02 1.049230e+02 5.098155e+02 -1.418981e+03 1.425666e+02 -1.053659e+03 -1.050415e+03 8.010139e+00 4.820772e+01 -1.925672e+00 2.344299e+00
<VARIANCE> 14
 2.951047e+08 3.606223e+08 3.791728e+08 3.685244e+08 3.391202e+08 3.874596e+08 3.557923e+08 3.336009e+08 3.731078e+08 3.418332e+08 7.105880e+01 3.016736e+01 4.562563e+00 7.862629e+00
<GCONST> 2.337847e+02
<STATE> 3
<MEAN> 14
 -2.530352e+03 2.640355e+02 -1.490889e+03 -7.997074e+02 -1.211249e+03 -3.934505e+02 -3.113391e+02 -8.415546e+02 9.908237e+02 9.909185e+02 3.846814e+00 4.784307e+01 -1.392781e+00 1.585789e+00
<VARIANCE> 14
 3.413435e+08 3.731909e+08 3.457750e+08 3.466405e+08 3.647176e+08 3.577063e+08 3.291148e+08 3.691219e+08 3.634889e+08 3.605873e+08 1.612786e+01 3.168326e+01 3.550226e-01 6.515815e-01
<GCONST> 2.273767e+02
<STATE> 4
<MEAN> 14
 -3.397800e+02 2.812062e+01 5.594392e+02 -1.100896e+03 1.130715e+02 5.383340e+02 -6.302097e+02 8.016639e+01 -3.670792e+00 4.572437e+01 8.792074e+00 4.982774e+01 -1.573562e+00 1.787743e+00
<VARIANCE> 14
 3.576617e+08 3.615426e+08 3.589616e+08 3.698315e+08 3.630641e+08 3.501390e+08 3.509735e+08 3.446524e+08 3.569704e+08 3.523905e+08 1.180510e+02 3.069006e+01 8.440543e-01 2.759845e+00
<GCONST> 2.316909e+02
<TRANSP> 5
 0.000000e+00 1.000000e+00 0.000000e+00 0.000000e+00 0.000000e+00
 0.000000e+00 8.591887e-01 1.408113e-01 0.000000e+00 0.000000e+00
 0.000000e+00 0.000000e+00 9.367315e-01 6.326851e-02 0.000000e+00
 0.000000e+00 0.000000e+00 0.000000e+00 9.824503e-01 1.754967e-02
 0.000000e+00 0.000000e+00 0.000000e+00 0.000000e+00 0.000000e+00
<ENDHMM>
~h "l4_u"
<BEGINHMM>
<NUMSTATES> 5
<STATE> 2
<MEAN> 14
 -3.894502e+03 3.565829e+02 -4.919110e+02 5.200466e+02 1.410465e+03 -8.730342e+02 -7.843902e+02 -4.331401e+02 -1.576927e+02 -6.489973e+02 1.305430e+01 4.697872e+01 -1.457474e+00 1.766285e+00
<VARIANCE> 14
 3.248151e+08 3.807665e+08 3.506067e+08 3.687055e+08 3.732283e+08 3.367882e+08 3.597913e+08 3.538790e+08 3.344420e+08 3.691228e+08 1.758112e+02 4.702016e+01 6.799703e-01 3.255080e+00
<GCONST> 2.324147e+02
<STATE> 3
<MEAN> 14
 -4.699918e+03 4.040038e+02 7.799822e+02 -3.909545e+02 -1.127446e+03 4.437666e+02 -2.904240e+01 -7.626653e+02 -1.497444e+03 -7.541050e+02 5.531254e+00 4.570540e+01 -1.362911e+00 1.482659e+00
<VARIANCE> 14
 3.054223e+08 3.520930e+08 3.792396e+08 3.564188e+08 3.648278e+08 3.727066e+08 3.460715e+08 3.627644e+08 3.399871e+08 3.575304e+08 2.635072e+01 3.620082e+01 5.531219e-01 6.042954e-01
<GCONST> 2.283187e+02
<STATE> 4
<MEAN> 14
 -1.205562e+03 3.982773e+02 -3.299143e+02 -2.830069e+02 -2.071224e+02 -6.182766e+02 5.611290e+02 -1.571283e+01 -1.459393e+02 1.108440e+02 2.137266e+00 5.058852e+01 -1.448127e+00 1.766927e+00
<VARIANCE> 14
 3.501466e+08 3.515700e+08 3.644943e+08 3.545762e+08 3.508722e+08 3.483663e+08 3.546686e+08 3.553965e+08 3.545188e+08 3.517934e+08 7.962977e+00 5.058982e+01 5.971267e-01 2.161651e+00
<GCONST> 2.288213e+02
<TRANSP> 5
 0.000000e+00 1.000000e+00 0.000000e+00 0.000000e+00 0.000000e+00
 0.000000e+00 9.129673e-01 8.703279e-02 0.000000e+00 0.000000e+00
 0.000000e+00 0.000000e+00 9.119025e-01 8.809738e-02 0.000000e+00
 0.000000e+00 0.000000e+00 0.000000e+00 9.831054e-01 1.689461e-02
 0.000000e+00 0.000000e+00 0.000000e+00 0.000000e+00 0.000000e+00
<ENDHMM>
~h "l5_i"
<BEGINHMM>
<NUMSTATES> 5
<STATE> 2
<MEAN> 14
 -2.068132e+03 -2.680371e+02 -3.513454e+02 2.376219e+02 1.875789e+02 -3.690038e+02 -1.075671e+02 8.286427e+02 -9.502728e+01 -6.150046e+02 1.216996e+01 4.769659e+01 -1.512259e+00 1.658891e+00
<VARIANCE> 14
 3.436924e+08 3.618634e+08 3.719604e+08 3.522904e+08 3.733018e+08 3.680481e+08 3.467829e+08 3.507165e+08 3.471784e+08 3.562891e+08 1.571117e+02 3.059272e+01 7.525680e-01 2.427622e+00
<GCONST> 2.317449e+02
<STATE> 3
<MEAN> 14
 -2.853531e+03 8.526973e+02 8.383885e+02 -6.157324e+02 3.579708e+02 -3.803536e+02 7.554140e+02 -1.511893e+02 6.285140e+02 5.928296e+02 4.832740e+00 4.696971e+01 -1.402753e+00 2.033453e+00
<VARIANCE> 14
 3.179304e+08 3.412524e+08 3.428384e+08 3.486030e+08 3.551283e+08 3.244518e+08 3.585484e+08 3.462271e+08 3.610104e+08 3.631565e+08 2.093730e+01 3.372038e+01 4.906495e-01 6.020509e+00
<GCONST> 2.299813e+02
<STATE> 4
<MEAN> 14
 -1.057926e+03 -2.687180e+00 1.821264e+02 3.390426e+02 -2.323921e+02 2.208313e+02 8.995326e+01 -8.938217e+01 -3.221847e+02 -1.816684e+02 2.569628e+00 4.908230e+01 -1.425481e+00 1.627630e+00
<VARIANCE> 14
 3.584308e+08 3.580281e+08 3.597447e+08 3.528972e+08 3.539242e+08 3.644855e+08 3.503994e+08 3.606035e+08 3.521868e+08 3.643608e+08 8.322671e+00 3.775375e+01 5.022007e-01 1.037304e+00
<GCONST> 2.277740e+02
<TRANSP> 5
 0.000000e+00 1.000000e+00 0.000000e+00 0.000000e+00 0.000000e+00
 0.000000e+00 9.572890e-01 4.271099e-02 0.000000e+00 0.000000e+00
 0.000000e+00 0.000000e+00 9.082947e-01 9.170529e-02 0.000000e+00
 0.000000e+00 0.000000e+00 0.000000e+00 9.876662e-01 1.233380e-02
 0.000000e+00 0.000000e+00 0.000000e+00 0.000000e+00 0.000000e+00
<ENDHMM>
~h "l5_u"
<BEGINHMM>
<NUMSTATES> 5
<STATE> 2
<MEAN> 14
 -4.272108e+03 1.096725e+03 9.043140e+02 -8.580253e+02 9.307726e+02 4.479500e+02 -5.177369e+02 -6.669219e+02 1.292404e+03 -1.129145e+02 8.750447e+00 4.516291e+01 -1.388340e+00 2.190675e+00
<VARIANCE> 14
 2.880003e+08 3.429492e+08 3.851450e+08 3.477732e+08 3.589252e+08 3.333524e+08 3.587768e+08 3.540293e+08 3.592524e+08 3.714472e+08 6.570192e+01 4.054889e+01 2.854087e-01 7.154089e+00
<GCONST> 2.310384e+02
<STATE> 3
<MEAN> 14
 -5.831334e+03 -7.118835e-01 -3.645992e+02 2.141987e+02 2.238578e+02 3.300094e+02 5.569554e+02 -1.029477e+03 -4.535428e+02 -2.589363e+02 1.035794e+01 4.589344e+01 -1.329083e+00 1.505014e+00
<VARIANCE> 14
 3.224990e+08 3.798142e+08 3.651114e+08 3.598224e+08 3.682172e+08 3.515789e+08 3.649024e+08 3.716977e+08 3.561424e+08 3.583280e+08 9.176283e+01 3.432160e+01 2.922567e-01 1.024771e+00
<GCONST> 2.295819e+02
<STATE> 4
<MEAN> 14
 -6.559874e+02 -4.673245e+02 3.617571e+02 1.935500e+02 2.637015e+02 3.663336e+02 -3.678265e+01 4.662846e+02 -5.166483e+02 -8.515017e+02 9.143962e+00 4.975760e+01 -1.644685e+00 1.742209e+00
<VARIANCE> 14
 3.559795e+08 3.672468e+08 3.640348e+08 3.594052e+08 3.788174e+08 3.616535e+08 3.412699e+08 3.459886e+08 3.517971e+08 3.576534e+08 1.042983e+02 2.846699e+01 1.252094e+00 2.693270e+00
<GCONST> 2.319090e+02
<TRANSP> 5
 0.000000e+00 1.000000e+00 0.000000e+00 0.000000e+00 0.000000e+00
 0.000000e+00 8.600683e-01 1.399317e-01 0.000000e+00 0.000000e+00
 0.000000e+00 0.000000e+00 8.838699e-01 1.161300e-01 0.000000e+00
 0.000000e+00 0.000000e+00 0.000000e+00 9.683880e-01 3.161200e-02
 0.000000e+00 0.000000e+00 0.000000e+00 0.000000e+00 0.000000e+00
<ENDHMM>
~h "sil"
<BEGINHMM>
<NUMSTATES> 5
<STATE> 2
<MEAN> 14
 -1.564036e+03 1.808409e+02 -1.535009e+02 1.904080e+02 -1.220449e+02 -1.270576e+01 2.558997e+02 -1.408709e+00 6.306675e+01 2.383159e+02 8.919997e-01 5.752521e+01 -1.577598e+00 1.744336e+00
<VARIANCE> 14
 3.262747e+08 3.585232e+08 3.529807e+08 3.526958e+08 3.546873e+08 3.550907e+08 3.549773e+08 3.530491e+08 3.588956e+08 3.562059e+08 2.707988e+00 7.494988e+01 1.011769e+00 1.415142e+00
<GCONST> 2.281999e+02
<STATE> 3
<MEAN> 14
 -3.114905e+03 -5.351317e+01 -6.740735e+02 6.773624e+01 -3.285382e+02 2.067059e+01 1.350553e+02 -2.147903e+02 4.589134e+02 7.587741e+01 2.917978e+00 5.098551e+01 -1.789365e+00 2.045264e+00
<VARIANCE> 14
 3.093419e+08 3.494329e+08 3.544154e+08 3.529970e+08 3.560266e+08 3.475990e+08 3.604406e+08 3.553870e+08 3.581977e+08 3.536908e+08 1.552641e+01 7.284978e+01 2.557244e+00 4.768008e+00
<GCONST> 2.319810e+02
<STATE> 4
<MEAN> 14
 -1.430670e+03 -1.818095e+02 -3.127635e+01 2.839819e+01 1.062004e+02 -1.202796e+02 2.151521e+02 1.340699e+02 -7.671602e+01 1.315733e+01 3.862278e+00 5.042487e+01 -1.451462e+00 1.638454e+00
<VARIANCE> 14
 3.463345e+08 3.579866e+08 3.568000e+08 3.573699e+08 3.588623e+08 3.545774e+08 3.539598e+08 3.575834e+08 3.623250e+08 3.585331e+08 2.833461e+01 6.130078e+01 5.622837e-01 1.273938e+00
<GCONST> 2.297725e+02
<TRANSP> 5
 0.000000e+00 1.000000e+00 0.000000e+00 0.000000e+00 0.000000e+00
 0.000000e+00 9.633886e-01 3.661142e-02 0.000000e+00 0.000000e+00
 0.000000e+00 0.000000e+00 8.197491e-01 1.802509e-01 0.000000e+00
 0.000000e+00 0.000000e+00 0.000000e+00 9.595930e-01 4.040704e-02
 0.000000e+00 0.000000e+00 0.000000e+00 0.000000e+00 0.000000e+00
<ENDHMM>
