~o
<STREAMINFO> 1 25
<VECSIZE> 25<NULLD><MFCC_D_N_Z_0><DIAGC>
~t "T_l1_i"
<TRANSP> 5
 0.000000e+00 1.000000e+00 0.000000e+00 0.000000e+00 0.000000e+00
 0.000000e+00 9.671987e-01 3.280133e-02 0.000000e+00 0.000000e+00
 0.000000e+00 0.000000e+00 9.898894e-01 1.011061e-02 0.000000e+00
 0.000000e+00 0.000000e+00 0.000000e+00 9.828342e-01 1.716579e-02
 0.000000e+00 0.000000e+00 0.000000e+00 0.000000e+00 0.000000e+00
~t "T_l1_u"
<TRANSP> 5
 0.000000e+00 1.000000e+00 0.000000e+00 0.000000e+00 0.000000e+00
 0.000000e+00 9.491673e-01 5.083270e-02 0.000000e+00 0.000000e+00
 0.000000e+00 0.000000e+00 9.475173e-01 5.248270e-02 0.000000e+00
 0.000000e+00 0.000000e+00 0.000000e+00 9.897009e-01 1.029909e-02
 0.000000e+00 0.000000e+00 0.000000e+00 0.000000e+00 0.000000e+00
~t "T_l2_i"
<TRANSP> 5
 0.000000e+00 1.000000e+00 0.000000e+00 0.000000e+00 0.000000e+00
 0.000000e+00 9.385205e-01 6.147954e-02 0.000000e+00 0.000000e+00
 0.000000e+00 0.000000e+00 9.725254e-01 2.747456e-02 0.000000e+00
 0.000000e+00 0.000000e+00 0.000000e+00 9.696324e-01 3.036765e-02
 0.000000e+00 0.000000e+00 0.000000e+00 0.000000e+00 0.000000e+00
~t "T_l2_u"
<TRANSP> 5
 0.000000e+00 1.000000e+00 0.000000e+00 0.000000e+00 0.000000e+00
 0.000000e+00 6.000000e-01 4.000000e-01 0.000000e+00 0.000000e+00
 0.000000e+00 0.000000e+00 6.000000e-01 4.000000e-01 0.000000e+00
 0.000000e+00 0.000000e+00 0.000000e+00 7.000000e-01 3.000000e-01
 0.000000e+00 0.000000e+00 0.000000e+00 0.000000e+00 0.000000e+00
~t "T_l3_i"
<TRANSP> 5
 0.000000e+00 1.000000e+00 0.000000e+00 0.000000e+00 0.000000e+00
 0.000000e+00 6.000000e-01 4.000000e-01 0.000000e+00 0.000000e+00
 0.000000e+00 0.000000e+00 6.000000e-01 4.000000e-01 0.000000e+00
 0.000000e+00 0.000000e+00 0.000000e+00 7.000000e-01 3.000000e-01
 0.000000e+00 0.000000e+00 0.000000e+00 0.000000e+00 0.000000e+00
~t "T_l3_u"
<TRANSP> 5
 0.000000e+00 1.000000e+00 0.000000e+00 0.000000e+00 0.000000e+00
 0.000000e+00 6.000000e-01 4.000000e-01 0.000000e+00 0.000000e+00
 0.000000e+00 0.000000e+00 6.000000e-01 4.000000e-01 0.000000e+00
 0.000000e+00 0.000000e+00 0.000000e+00 7.000000e-01 3.000000e-01
 0.000000e+00 0.000000e+00 0.000000e+00 0.000000e+00 0.000000e+00
~t "T_l4_i"
<TRANSP> 5
 0.000000e+00 1.000000e+00 0.000000e+00 0.000000e+00 0.000000e+00
 0.000000e+00 6.000000e-01 4.000000e-01 0.000000e+00 0.000000e+00
 0.000000e+00 0.000000e+00 6.000000e-01 4.000000e-01 0.000000e+00
 0.000000e+00 0.000000e+00 0.000000e+00 7.000000e-01 3.000000e-01
 0.000000e+00 0.000000e+00 0.000000e+00 0.000000e+00 0.000000e+00
~t "T_l4_u"
<TRANSP> 5
 0.000000e+00 1.000000e+00 0.000000e+00 0.000000e+00 0.000000e+00
 0.000000e+00 9.779691e-01 2.203086e-02 0.000000e+00 0.000000e+00
 0.000000e+00 0.000000e+00 9.826957e-01 1.730431e-02 0.000000e+00
 0.000000e+00 0.000000e+00 0.000000e+00 9.903229e-01 9.677110e-03
 0.000000e+00 0.000000e+00 0.000000e+00 0.000000e+00 0.000000e+00
~t "T_l5_i"
<TRANSP> 5
 0.000000e+00 1.000000e+00 0.000000e+00 0.000000e+00 0.000000e+00
 0.000000e+00 9.112599e-01 8.874007e-02 0.000000e+00 0.000000e+00
 0.000000e+00 0.000000e+00 9.839566e-01 1.604344e-02 0.000000e+00
 0.000000e+00 0.000000e+00 0.000000e+00 9.905865e-01 9.413461e-03
 0.000000e+00 0.000000e+00 0.000000e+00 0.000000e+00 0.000000e+00
~t "T_l5_u"
<TRANSP> 5
 0.000000e+00 1.000000e+00 0.000000e+00 0.000000e+00 0.000000e+00
 0.000000e+00 6.000000e-01 4.000000e-01 0.000000e+00 0.000000e+00
 0.000000e+00 0.000000e+00 6.000000e-01 4.000000e-01 0.000000e+00
 0.000000e+00 0.000000e+00 0.000000e+00 7.000000e-01 3.000000e-01
 0.000000e+00 0.000000e+00 0.000000e+00 0.000000e+00 0.000000e+00
~s "ST_l5_u_2_1"
<MEAN> 25
 -1.651109e-08 -2.268430e-07 1.259320e-08 1.165062e-07 -3.503200e-08 7.789977e-08 -6.306777e-08 1.437152e-07 -9.648429e-08 -8.998416e-08 1.010382e-07 -1.644749e-08 3.964178e-03 4.991033e-03 -2.259726e-03 -8.660138e-04 -1.980516e-03 2.296586e-03 -1.050157e-04 -6.062090e-03 -3.834328e-04 3.311979e-04 1.732379e-04 -2.677502e-03 -2.030911e-03
<VARIANCE> 25
 3.382748e+01 3.628031e+01 4.600648e+01 2.294502e+01 9.100511e+01 4.563913e+01 5.834692e+01 5.632589e+01 3.456791e+01 4.004803e+01 4.066158e+01 4.632240e+01 1.656153e+00 1.407841e+00 1.798202e+00 1.585461e+00 4.502382e+00 2.970210e+00 3.744460e+00 3.177201e+00 2.837936e+00 2.797859e+00 2.639533e+00 2.465156e+00 1.004578e+00
<GCONST> 1.021376e+02
~s "ST_l5_u_3_1"
<MEAN> 25
 -1.651109e-08 -2.268430e-07 1.259320e-08 1.165062e-07 -3.503200e-08 7.789977e-08 -6.306777e-08 1.437152e-07 -9.648429e-08 -8.998416e-08 1.010382e-07 -1.644749e-08 3.964178e-03 4.991033e-03 -2.259726e-03 -8.660138e-04 -1.980516e-03 2.296586e-03 -1.050157e-04 -6.062090e-03 -3.834328e-04 3.311979e-04 1.732379e-04 -2.677502e-03 -2.030911e-03
<VARIANCE> 25
 3.382748e+01 3.628031e+01 4.600648e+01 2.294502e+01 9.100511e+01 4.563913e+01 5.834692e+01 5.632589e+01 3.456791e+01 4.004803e+01 4.066158e+01 4.632240e+01 1.656153e+00 1.407841e+00 1.798202e+00 1.585461e+00 4.502382e+00 2.970210e+00 3.744460e+00 3.177201e+00 2.837936e+00 2.797859e+00 2.639533e+00 2.465156e+00 1.004578e+00
<GCONST> 1.021376e+02
~s "ST_l5_u_4_1"
<MEAN> 25
 -1.651109e-08 -2.268430e-07 1.259320e-08 1.165062e-07 -3.503200e-08 7.789977e-08 -6.306777e-08 1.437152e-07 -9.648429e-08 -8.998416e-08 1.010382e-07 -1.644749e-08 3.964178e-03 4.991033e-03 -2.259726e-03 -8.660138e-04 -1.980516e-03 2.296586e-03 -1.050157e-04 -6.062090e-03 -3.834328e-04 3.311979e-04 1.732379e-04 -2.677502e-03 -2.030911e-03
<VARIANCE> 25
 3.382748e+01 3.628031e+01 4.600648e+01 2.294502e+01 9.100511e+01 4.563913e+01 5.834692e+01 5.632589e+01 3.456791e+01 4.004803e+01 4.066158e+01 4.632240e+01 1.656153e+00 1.407841e+00 1.798202e+00 1.585461e+00 4.502382e+00 2.970210e+00 3.744460e+00 3.177201e+00 2.837936e+00 2.797859e+00 2.639533e+00 2.465156e+00 1.004578e+00
<GCONST> 1.021376e+02
~s "ST_l1_i_2_1"
<MEAN> 25
 -1.570743e-01 -1.108683e+00 7.728362e+00 -1.244438e+00 -1.043937e+01 -1.910034e+00 4.271117e+00 -3.531532e+00 1.109641e-01 2.688938e+00 6.170418e-01 3.072860e-01 5.536181e-02 1.886529e-01 1.796626e-01 1.334127e-01 -6.529231e-02 -1.628250e-03 -5.484036e-02 -1.680833e-01 -1.816835e-02 -1.703277e-02 1.968426e-01 -9.020742e-03 -1.233794e-01
<VARIANCE> 25
 3.856569e+00 1.473753e+01 3.500763e+01 1.436797e+01 3.482347e+01 1.512898e+01 4.640342e+01 9.019331e+01 2.607058e+01 2.256461e+01 1.034542e+01 1.505509e+01 1.685634e-01 6.744902e-01 1.517388e+00 9.996327e-01 2.906873e+00 1.626206e+00 2.455863e+00 2.608096e+00 2.579719e+00 2.122918e+00 1.143624e+00 1.367248e+00 3.155337e-01
<GCONST> 8.488614e+01
~s "ST_l1_i_3_1"
<MEAN> 25
 1.693073e+00 -9.833102e-01 1.482151e+00 5.412255e-01 -6.271920e+00 -1.516876e+00 3.690278e+00 3.448711e-01 -2.683953e+00 -5.784311e-01 -2.566078e+00 -1.652732e+00 9.251693e-04 8.879241e-03 -5.961100e-02 -3.968689e-02 5.431429e-02 7.310587e-02 1.353423e-02 1.267710e-01 4.473040e-02 -5.850820e-03 -8.149098e-02 -1.778362e-02 1.090706e-02
<VARIANCE> 25
 1.275795e+01 3.583198e+01 3.120425e+01 1.323296e+01 5.943061e+01 4.637487e+01 5.325901e+01 6.541573e+01 4.113752e+01 3.166681e+01 3.024377e+01 2.030654e+01 1.065298e+00 1.558610e+00 1.616774e+00 1.375511e+00 4.963070e+00 3.744099e+00 4.457816e+00 4.054976e+00 3.497676e+00 2.920581e+00 1.865264e+00 2.211191e+00 9.934362e-01
<GCONST> 9.862247e+01
~s "ST_l1_i_4_1"
<MEAN> 25
 1.846259e+00 2.788565e+00 -1.604427e-01 -2.561378e+00 9.896503e-01 2.750200e+00 -8.046407e-01 -9.587103e-01 2.419422e+00 6.395653e-01 -5.052896e-02 -3.848920e-01 4.805128e-02 -7.925851e-02 -4.185399e-02 2.449111e-02 9.475035e-02 -1.370343e-02 -1.004144e-01 -8.304534e-03 -7.176577e-02 5.793282e-03 4.570250e-02 2.381631e-02 -8.776857e-02
<VARIANCE> 25
 2.670694e+01 2.366109e+01 5.448090e+01 3.934129e+01 5.981406e+01 7.081483e+01 6.048236e+01 5.198322e+01 3.418758e+01 5.041386e+01 2.980805e+01 2.380014e+01 1.600261e+00 8.637190e-01 2.321079e+00 2.072546e+00 3.529930e+00 3.311695e+00 3.337508e+00 4.234444e+00 2.937103e+00 3.273773e+00 2.197322e+00 2.534137e+00 7.312970e-01
<GCONST> 1.011562e+02
~s "ST_l4_u_2_1"
<MEAN> 25
 -9.261079e-01 -3.347785e+00 -2.962818e-01 1.196359e+00 -4.851312e+00 -4.183730e+00 2.965565e+00 -1.390729e+00 1.917507e+00 5.889779e+00 5.848207e+00 1.420918e+01 6.760886e-02 -1.241466e-01 -1.973815e-01 -1.676484e-02 8.311886e-02 -6.360291e-02 2.701147e-01 3.379996e-02 9.740625e-03 5.696091e-02 -4.373345e-02 1.954967e-01 2.236850e-02
<VARIANCE> 25
 1.467822e+01 3.452603e+01 4.825476e+01 2.113564e+01 1.080950e+02 2.036764e+01 4.853544e+01 4.791146e+01 3.733419e+01 9.208356e+01 8.031851e+01 6.307966e+01 6.797751e-01 1.313691e+00 2.181194e+00 1.950602e+00 3.460927e+00 1.714078e+00 3.469025e+00 3.094592e+00 2.884727e+00 4.551060e+00 3.337601e+00 3.790449e+00 5.377330e-01
<GCONST> 1.012050e+02
~s "ST_l4_u_3_1"
<MEAN> 25
 -1.274742e-01 3.079847e-01 -1.122369e+00 1.514932e+00 -4.667967e+00 -5.100514e+00 3.165308e+00 -1.573220e+00 -1.656063e+00 9.143488e-01 -2.365527e+00 2.285551e+00 -6.105836e-03 1.314481e-01 1.162940e-01 1.127114e-02 7.283711e-02 4.576118e-03 -2.438682e-01 -5.094291e-02 5.903736e-02 -4.024686e-02 -5.114809e-02 -3.411450e-01 -4.093022e-02
<VARIANCE> 25
 2.643963e+01 1.793347e+01 2.569885e+01 1.229593e+01 4.397200e+01 3.138054e+01 6.724728e+01 4.651416e+01 4.249308e+01 5.072096e+01 6.766928e+01 6.000875e+01 1.903812e+00 1.596449e+00 2.040381e+00 1.112191e+00 2.577850e+00 3.497816e+00 6.544889e+00 4.644886e+00 3.603181e+00 3.588274e+00 3.856060e+00 3.990881e+00 1.158458e+00
<GCONST> 1.021117e+02
~s "ST_l4_u_4_1"
<MEAN> 25
 1.950483e+00 1.143506e+00 -1.882440e+00 -1.061197e+00 6.365976e+00 3.505295e+00 -3.959302e+00 -2.313195e+00 8.453221e-01 -2.341838e+00 -1.493963e+00 -5.734547e+00 -4.900445e-02 -4.114567e-02 3.904335e-02 2.606981e-02 2.551371e-02 1.026608e-01 8.683208e-02 4.612537e-02 -1.164845e-02 5.609118e-03 8.467640e-02 -1.809440e-02 1.875392e-02
<VARIANCE> 25
 4.467086e+01 2.301043e+01 5.472229e+01 2.944526e+01 1.021165e+02 5.600653e+01 3.663845e+01 3.451175e+01 3.321091e+01 3.438262e+01 3.251600e+01 2.305168e+01 1.999784e+00 1.260547e+00 2.591520e+00 1.680624e+00 3.932445e+00 3.429832e+00 3.528596e+00 2.739069e+00 3.312468e+00 3.102156e+00 2.949686e+00 2.253844e+00 7.031156e-01
<GCONST> 1.008591e+02
~s "ST_l3_u_2_1"
<MEAN> 25
 -1.651109e-08 -2.268430e-07 1.259320e-08 1.165062e-07 -3.503200e-08 7.789977e-08 -6.306777e-08 1.437152e-07 -9.648429e-08 -8.998416e-08 1.010382e-07 -1.644749e-08 3.964178e-03 4.991033e-03 -2.259726e-03 -8.660138e-04 -1.980516e-03 2.296586e-03 -1.050157e-04 -6.062090e-03 -3.834328e-04 3.311979e-04 1.732379e-04 -2.677502e-03 -2.030911e-03
<VARIANCE> 25
 3.382748e+01 3.628031e+01 4.600648e+01 2.294502e+01 9.100511e+01 4.563913e+01 5.834692e+01 5.632589e+01 3.456791e+01 4.004803e+01 4.066158e+01 4.632240e+01 1.656153e+00 1.407841e+00 1.798202e+00 1.585461e+00 4.502382e+00 2.970210e+00 3.744460e+00 3.177201e+00 2.837936e+00 2.797859e+00 2.639533e+00 2.465156e+00 1.004578e+00
<GCONST> 1.021376e+02
~s "ST_l3_u_3_1"
<MEAN> 25
 -1.651109e-08 -2.268430e-07 1.259320e-08 1.165062e-07 -3.503200e-08 7.789977e-08 -6.306777e-08 1.437152e-07 -9.648429e-08 -8.998416e-08 1.010382e-07 -1.644749e-08 3.964178e-03 4.991033e-03 -2.259726e-03 -8.660138e-04 -1.980516e-03 2.296586e-03 -1.050157e-04 -6.062090e-03 -3.834328e-04 3.311979e-04 1.732379e-04 -2.677502e-03 -2.030911e-03
<VARIANCE> 25
 3.382748e+01 3.628031e+01 4.600648e+01 2.294502e+01 9.100511e+01 4.563913e+01 5.834692e+01 5.632589e+01 3.456791e+01 4.004803e+01 4.066158e+01 4.632240e+01 1.656153e+00 1.407841e+00 1.798202e+00 1.585461e+00 4.502382e+00 2.970210e+00 3.744460e+00 3.177201e+00 2.837936e+00 2.797859e+00 2.639533e+00 2.465156e+00 1.004578e+00
<GCONST> 1.021376e+02
~s "ST_l3_u_4_1"
<MEAN> 25
 -1.651109e-08 -2.268430e-07 1.259320e-08 1.165062e-07 -3.503200e-08 7.789977e-08 -6.306777e-08 1.437152e-07 -9.648429e-08 -8.998416e-08 1.010382e-07 -1.644749e-08 3.964178e-03 4.991033e-03 -2.259726e-03 -8.660138e-04 -1.980516e-03 2.296586e-03 -1.050157e-04 -6.062090e-03 -3.834328e-04 3.311979e-04 1.732379e-04 -2.677502e-03 -2.030911e-03
<VARIANCE> 25
 3.382748e+01 3.628031e+01 4.600648e+01 2.294502e+01 9.100511e+01 4.563913e+01 5.834692e+01 5.632589e+01 3.456791e+01 4.004803e+01 4.066158e+01 4.632240e+01 1.656153e+00 1.407841e+00 1.798202e+00 1.585461e+00 4.502382e+00 2.970210e+00 3.744460e+00 3.177201e+00 2.837936e+00 2.797859e+00 2.639533e+00 2.465156e+00 1.004578e+00
<GCONST> 1.021376e+02
~s "ST_l2_u_2_1"
<MEAN> 25
 -1.651109e-08 -2.268430e-07 1.259320e-08 1.165062e-07 -3.503200e-08 7.789977e-08 -6.306777e-08 1.437152e-07 -9.648429e-08 -8.998416e-08 1.010382e-07 -1.644749e-08 3.964178e-03 4.991033e-03 -2.259726e-03 -8.660138e-04 -1.980516e-03 2.296586e-03 -1.050157e-04 -6.062090e-03 -3.834328e-04 3.311979e-04 1.732379e-04 -2.677502e-03 -2.030911e-03
<VARIANCE> 25
 3.382748e+01 3.628031e+01 4.600648e+01 2.294502e+01 9.100511e+01 4.563913e+01 5.834692e+01 5.632589e+01 3.456791e+01 4.004803e+01 4.066158e+01 4.632240e+01 1.656153e+00 1.407841e+00 1.798202e+00 1.585461e+00 4.502382e+00 2.970210e+00 3.744460e+00 3.177201e+00 2.837936e+00 2.797859e+00 2.639533e+00 2.465156e+00 1.004578e+00
<GCONST> 1.021376e+02
~s "ST_l2_u_3_1"
<MEAN> 25
 -1.651109e-08 -2.268430e-07 1.259320e-08 1.165062e-07 -3.503200e-08 7.789977e-08 -6.306777e-08 1.437152e-07 -9.648429e-08 -8.998416e-08 1.010382e-07 -1.644749e-08 3.964178e-03 4.991033e-03 -2.259726e-03 -8.660138e-04 -1.980516e-03 2.296586e-03 -1.050157e-04 -6.062090e-03 -3.834328e-04 3.311979e-04 1.732379e-04 -2.677502e-03 -2.030911e-03
<VARIANCE> 25
 3.382748e+01 3.628031e+01 4.600648e+01 2.294502e+01 9.100511e+01 4.563913e+01 5.834692e+01 5.632589e+01 3.456791e+01 4.004803e+01 4.066158e+01 4.632240e+01 1.656153e+00 1.407841e+00 1.798202e+00 1.585461e+00 4.502382e+00 2.970210e+00 3.744460e+00 3.177201e+00 2.837936e+00 2.797859e+00 2.639533e+00 2.465156e+00 1.004578e+00
<GCONST> 1.021376e+02
~s "ST_l2_u_4_1"
<MEAN> 25
 -1.651109e-08 -2.268430e-07 1.259320e-08 1.165062e-07 -3.503200e-08 7.789977e-08 -6.306777e-08 1.437152e-07 -9.648429e-08 -8.998416e-08 1.010382e-07 -1.644749e-08 3.964178e-03 4.991033e-03 -2.259726e-03 -8.660138e-04 -1.980516e-03 2.296586e-03 -1.050157e-04 -6.062090e-03 -3.834328e-04 3.311979e-04 1.732379e-04 -2.677502e-03 -2.030911e-03
<VARIANCE> 25
 3.382748e+01 3.628031e+01 4.600648e+01 2.294502e+01 9.100511e+01 4.563913e+01 5.834692e+01 5.632589e+01 3.456791e+01 4.004803e+01 4.066158e+01 4.632240e+01 1.656153e+00 1.407841e+00 1.798202e+00 1.585461e+00 4.502382e+00 2.970210e+00 3.744460e+00 3.177201e+00 2.837936e+00 2.797859e+00 2.639533e+00 2.465156e+00 1.004578e+00
<GCONST> 1.021376e+02
~s "ST_l1_u_2_1"
<MEAN> 25
 -4.433369e+00 5.449031e+00 -1.746178e+00 2.471456e+00 -3.522762e+00 -9.325848e+00 3.149476e+00 -3.993411e+00 1.052715e+00 1.114005e+00 2.892274e+00 1.330263e+01 2.860480e-01 -1.829629e-01 -1.232490e-01 -1.357730e-01 -1.054724e-01 -2.741029e-01 9.082531e-01 5.537354e-01 4.196341e-01 -5.882696e-02 -8.587376e-01 3.508852e-01 5.001392e-02
<VARIANCE> 25
 6.982525e+00 2.196999e+01 1.027155e+01 9.026123e+00 2.078222e+01 2.229514e+01 6.411292e+01 2.865114e+01 1.490652e+01 4.143837e+01 4.666050e+01 2.664303e+01 1.279957e+00 2.438302e+00 9.881586e-01 1.136622e+00 2.475179e+00 2.121489e+00 6.750532e+00 2.724619e+00 2.162857e+00 3.651133e+00 3.688479e+00 4.642431e+00 1.298431e-01
<GCONST> 9.140540e+01
~s "ST_l1_u_3_1"
<MEAN> 25
 3.403166e+00 -3.852569e+00 -4.163838e+00 2.966697e+00 -3.367689e+00 -2.722307e+00 6.438627e+00 1.888447e+00 1.742384e+00 -2.648487e-01 -7.263109e+00 5.084734e+00 4.158337e-01 -5.893676e-02 -2.595533e-01 7.015553e-02 1.197273e-01 1.324245e-01 -1.067014e+00 -5.303040e-01 -2.526274e-01 -1.067384e-01 4.446836e-01 -7.265788e-01 -3.511097e-01
<VARIANCE> 25
 1.275297e+01 9.423221e+00 1.591399e+01 1.201760e+01 1.400970e+01 9.307770e+01 5.222745e+01 5.428703e+01 2.959439e+01 2.209070e+01 4.424986e+01 2.653079e+01 1.516655e-01 1.321543e+00 4.987094e-01 1.136939e+00 1.394878e+00 2.789405e+00 2.761737e+00 2.513793e+00 2.321099e+00 1.691283e+00 2.760250e+00 1.743636e+00 1.135242e-01
<GCONST> 8.654813e+01
~s "ST_l1_u_4_1"
<MEAN> 25
 3.432646e+00 7.190515e-01 -2.612463e+00 -2.008512e+00 4.835297e-01 1.599487e+00 -1.445657e+00 -3.052791e+00 7.758144e-01 -5.157877e-01 -1.400379e+00 -4.554976e+00 -9.611100e-02 5.052630e-02 4.398298e-02 -4.762398e-02 4.186077e-02 5.496594e-02 1.560923e-03 6.598696e-02 -1.792398e-03 3.099351e-02 2.149156e-02 -7.013868e-02 3.527577e-02
<VARIANCE> 25
 1.772194e+01 1.776133e+01 3.427172e+01 2.136600e+01 9.001609e+01 4.855530e+01 5.648059e+01 3.545456e+01 4.912585e+01 4.077960e+01 2.671566e+01 2.593312e+01 9.925587e-01 6.543035e-01 1.342744e+00 1.539202e+00 3.482517e+00 2.715050e+00 3.541551e+00 2.503933e+00 3.617044e+00 2.307792e+00 2.487900e+00 1.922498e+00 5.030119e-01
<GCONST> 9.614626e+01
~s "ST_l5_i_2_1"
<MEAN> 25
 5.926210e+00 -5.949926e+00 -1.000177e+01 2.057266e+00 5.276695e-01 5.235697e+00 -9.393613e-01 1.191167e+00 2.786709e-01 1.239276e+00 -6.217971e+00 1.485864e+00 -1.863034e-01 2.254558e-02 2.509786e-01 7.353477e-02 -2.380297e-01 4.337718e-01 1.695215e-01 -3.237906e-01 -9.028106e-02 -2.883041e-03 4.293437e-01 1.228275e-01 7.367373e-02
<VARIANCE> 25
 2.962782e+01 1.229082e+01 1.822757e+01 9.637997e+00 6.063107e+01 2.869551e+01 4.993995e+01 7.177337e+01 1.297370e+01 7.118767e+00 1.901976e+01 1.631409e+01 4.584615e-01 5.491582e-01 1.435611e+00 1.518195e+00 5.052583e+00 2.223393e+00 3.900481e+00 3.887432e+00 1.194354e+00 7.977569e-01 8.199505e-01 1.219251e+00 3.033749e-01
<GCONST> 8.621844e+01
~s "ST_l5_i_3_1"
<MEAN> 25
 -3.197679e+00 2.434075e+00 -9.046469e-01 3.154760e+00 3.998680e+00 9.801650e-01 3.764020e-04 1.659596e+00 1.686739e+00 3.144716e+00 5.675242e+00 5.089479e-01 3.022966e-02 2.176180e-02 -6.793512e-03 -3.671628e-02 5.911555e-02 9.571169e-05 -1.241958e-01 1.438288e-02 2.832246e-02 5.075173e-02 5.489371e-02 5.495691e-02 -1.793476e-01
<VARIANCE> 25
 2.761051e+01 1.325104e+01 2.259387e+01 1.463555e+01 4.063127e+01 1.721062e+01 1.827901e+01 2.632365e+01 1.269407e+01 1.944514e+01 1.415800e+01 1.467881e+01 6.250357e-01 6.178215e-01 9.101256e-01 8.791102e-01 1.999754e+00 1.785871e+00 1.511666e+00 1.649875e+00 1.551361e+00 1.812832e+00 1.389652e+00 1.236350e+00 1.636779e-01
<GCONST> 8.199975e+01
~s "ST_l5_i_4_1"
<MEAN> 25
 2.143738e+00 1.167106e+00 7.612835e-01 8.462418e-01 -6.645463e+00 -3.267313e+00 2.172096e+00 -3.089597e+00 -7.238998e-01 -3.037394e+00 -4.452984e+00 -5.985469e-01 5.418783e-02 -4.363647e-02 -4.420919e-02 -4.608383e-02 -4.314596e-02 -3.231280e-02 1.302740e-01 -2.620674e-02 -2.743061e-02 -7.440989e-02 -1.457070e-01 2.377981e-02 1.049287e-01
<VARIANCE> 25
 2.638737e+01 5.254002e+01 5.593941e+01 2.672753e+01 9.334668e+01 2.513349e+01 6.163372e+01 3.431981e+01 2.969182e+01 4.069659e+01 3.629123e+01 3.243379e+01 1.298242e+00 2.431397e+00 1.870479e+00 1.982895e+00 7.078825e+00 2.431039e+00 4.752355e+00 2.925581e+00 2.628454e+00 3.094373e+00 2.805328e+00 3.251386e+00 2.598443e+00
<GCONST> 1.032759e+02
~s "ST_sil_2_1"
<MEAN> 25
 -3.160588e+00 -7.200115e-01 -7.461907e-02 2.620695e-01 4.334527e+00 2.232398e+00 -8.655244e-01 4.708398e+00 3.623027e-01 -2.685162e-01 3.342310e+00 7.267468e-01 -2.749205e-02 -1.043099e-01 -3.355500e-02 -2.540197e-02 6.665009e-02 6.179786e-02 1.216187e-02 9.434805e-02 3.679062e-02 5.651769e-02 1.024572e-01 1.261888e-01 -1.545327e-01
<VARIANCE> 25
 4.366644e+01 3.288438e+01 2.970967e+01 1.652248e+01 3.335325e+01 2.514994e+01 3.179272e+01 3.223214e+01 2.246318e+01 2.689951e+01 2.371008e+01 2.550383e+01 6.106928e-01 5.781862e-01 9.279315e-01 9.074686e-01 1.302896e+00 1.396649e+00 1.627322e+00 1.812972e+00 1.706745e+00 1.774131e+00 1.583564e+00 1.414366e+00 2.557410e-01
<GCONST> 8.690395e+01
~s "silst"
<MEAN> 25
 7.717299e-01 -4.773461e+00 -4.670169e+00 -2.618518e-01 1.898244e+00 5.506324e-01 3.001630e+00 -6.082467e-02 4.837809e-01 5.403028e-01 -1.509336e+00 4.404377e+00 9.319429e-02 2.749170e-02 8.521164e-02 2.176759e-02 -2.994000e-01 -2.270182e-01 8.839647e-02 -2.293345e-01 -2.270510e-02 3.307200e-02 -1.548751e-01 -6.937965e-02 6.106633e-02
<VARIANCE> 25
 1.620949e+01 2.424342e+01 3.056853e+01 2.776595e+01 1.085840e+02 6.231826e+01 8.592283e+01 4.826180e+01 4.060949e+01 5.213054e+01 4.794245e+01 5.997839e+01 1.081442e+00 1.653591e+00 1.671668e+00 1.782541e+00 5.570004e+00 3.450599e+00 5.677313e+00 3.473607e+00 3.219161e+00 3.289208e+00 2.922310e+00 3.380172e+00 1.338781e+00
<GCONST> 1.039886e+02
~s "ST_sil_3_1"
<MEAN> 25
 1.172128e+00 -4.641205e+00 -5.029684e+00 -4.410319e-01 2.273662e+00 1.119586e+00 2.565392e+00 -9.879593e-03 6.831368e-01 3.962204e-01 -1.475812e+00 3.753836e+00 6.485032e-02 4.208454e-02 1.009999e-01 2.974491e-02 -2.518274e-01 -2.028654e-01 6.814662e-02 -2.202227e-01 -2.905260e-02 4.322942e-02 -1.048511e-01 -6.554890e-02 2.340361e-02
<VARIANCE> 25
 1.651652e+01 2.351176e+01 3.042322e+01 2.878224e+01 1.081355e+02 6.457150e+01 8.460577e+01 4.779909e+01 4.055056e+01 5.127462e+01 4.628828e+01 6.245235e+01 9.781609e-01 1.586751e+00 1.664790e+00 1.805382e+00 5.476050e+00 3.485664e+00 5.479485e+00 3.444976e+00 3.163711e+00 3.189591e+00 2.893346e+00 3.288168e+00 1.281898e+00
<GCONST> 1.036887e+02
~s "ST_sil_4_1"
<MEAN> 25
 1.274344e+00 3.392662e+00 3.576072e+00 7.048056e-02 -4.201119e+00 -2.067962e+00 -1.198232e+00 -3.079999e+00 -7.859793e-01 -3.738180e-02 -1.177610e+00 -3.000739e+00 -1.546314e-02 6.163150e-02 -4.664941e-02 6.800658e-04 9.375436e-02 8.090457e-02 -5.772801e-02 5.196760e-02 -1.263548e-02 -6.346800e-02 -3.840625e-03 -4.489310e-02 9.600371e-02
<VARIANCE> 25
 2.889978e+01 2.214267e+01 3.870513e+01 2.312870e+01 8.559605e+01 3.830595e+01 5.411680e+01 5.611325e+01 3.773845e+01 4.070330e+01 3.641735e+01 2.971367e+01 2.917174e+00 1.857601e+00 2.505808e+00 1.957170e+00 6.229845e+00 3.849108e+00 4.075931e+00 3.923056e+00 3.311981e+00 3.257765e+00 3.239751e+00 2.645490e+00 1.363747e+00
<GCONST> 1.037091e+02
~s "ST_l4_i_2_1"
<MEAN> 25
 -1.651109e-08 -2.268430e-07 1.259320e-08 1.165062e-07 -3.503200e-08 7.789977e-08 -6.306777e-08 1.437152e-07 -9.648429e-08 -8.998416e-08 1.010382e-07 -1.644749e-08 3.964178e-03 4.991033e-03 -2.259726e-03 -8.660138e-04 -1.980516e-03 2.296586e-03 -1.050157e-04 -6.062090e-03 -3.834328e-04 3.311979e-04 1.732379e-04 -2.677502e-03 -2.030911e-03
<VARIANCE> 25
 3.382748e+01 3.628031e+01 4.600648e+01 2.294502e+01 9.100511e+01 4.563913e+01 5.834692e+01 5.632589e+01 3.456791e+01 4.004803e+01 4.066158e+01 4.632240e+01 1.656153e+00 1.407841e+00 1.798202e+00 1.585461e+00 4.502382e+00 2.970210e+00 3.744460e+00 3.177201e+00 2.837936e+00 2.797859e+00 2.639533e+00 2.465156e+00 1.004578e+00
<GCONST> 1.021376e+02
~s "ST_l4_i_3_1"
<MEAN> 25
 -1.651109e-08 -2.268430e-07 1.259320e-08 1.165062e-07 -3.503200e-08 7.789977e-08 -6.306777e-08 1.437152e-07 -9.648429e-08 -8.998416e-08 1.010382e-07 -1.644749e-08 3.964178e-03 4.991033e-03 -2.259726e-03 -8.660138e-04 -1.980516e-03 2.296586e-03 -1.050157e-04 -6.062090e-03 -3.834328e-04 3.311979e-04 1.732379e-04 -2.677502e-03 -2.030911e-03
<VARIANCE> 25
 3.382748e+01 3.628031e+01 4.600648e+01 2.294502e+01 9.100511e+01 4.563913e+01 5.834692e+01 5.632589e+01 3.456791e+01 4.004803e+01 4.066158e+01 4.632240e+01 1.656153e+00 1.407841e+00 1.798202e+00 1.585461e+00 4.502382e+00 2.970210e+00 3.744460e+00 3.177201e+00 2.837936e+00 2.797859e+00 2.639533e+00 2.465156e+00 1.004578e+00
<GCONST> 1.021376e+02
~s "ST_l4_i_4_1"
<MEAN> 25
 -1.651109e-08 -2.268430e-07 1.259320e-08 1.165062e-07 -3.503200e-08 7.789977e-08 -6.306777e-08 1.437152e-07 -9.648429e-08 -8.998416e-08 1.010382e-07 -1.644749e-08 3.964178e-03 4.991033e-03 -2.259726e-03 -8.660138e-04 -1.980516e-03 2.296586e-03 -1.050157e-04 -6.062090e-03 -3.834328e-04 3.311979e-04 1.732379e-04 -2.677502e-03 -2.030911e-03
<VARIANCE> 25
 3.382748e+01 3.628031e+01 4.600648e+01 2.294502e+01 9.100511e+01 4.563913e+01 5.834692e+01 5.632589e+01 3.456791e+01 4.004803e+01 4.066158e+01 4.632240e+01 1.656153e+00 1.407841e+00 1.798202e+00 1.585461e+00 4.502382e+00 2.970210e+00 3.744460e+00 3.177201e+00 2.837936e+00 2.797859e+00 2.639533e+00 2.465156e+00 1.004578e+00
<GCONST> 1.021376e+02
~s "ST_l3_i_2_1"
<MEAN> 25
 -1.651109e-08 -2.268430e-07 1.259320e-08 1.165062e-07 -3.503200e-08 7.789977e-08 -6.306777e-08 1.437152e-07 -9.648429e-08 -8.998416e-08 1.010382e-07 -1.644749e-08 3.964178e-03 4.991033e-03 -2.259726e-03 -8.660138e-04 -1.980516e-03 2.296586e-03 -1.050157e-04 -6.062090e-03 -3.834328e-04 3.311979e-04 1.732379e-04 -2.677502e-03 -2.030911e-03
<VARIANCE> 25
 3.382748e+01 3.628031e+01 4.600648e+01 2.294502e+01 9.100511e+01 4.563913e+01 5.834692e+01 5.632589e+01 3.456791e+01 4.004803e+01 4.066158e+01 4.632240e+01 1.656153e+00 1.407841e+00 1.798202e+00 1.585461e+00 4.502382e+00 2.970210e+00 3.744460e+00 3.177201e+00 2.837936e+00 2.797859e+00 2.639533e+00 2.465156e+00 1.004578e+00
<GCONST> 1.021376e+02
~s "ST_l3_i_3_1"
<MEAN> 25
 -1.651109e-08 -2.268430e-07 1.259320e-08 1.165062e-07 -3.503200e-08 7.789977e-08 -6.306777e-08 1.437152e-07 -9.648429e-08 -8.998416e-08 1.010382e-07 -1.644749e-08 3.964178e-03 4.991033e-03 -2.259726e-03 -8.660138e-04 -1.980516e-03 2.296586e-03 -1.050157e-04 -6.062090e-03 -3.834328e-04 3.311979e-04 1.732379e-04 -2.677502e-03 -2.030911e-03
<VARIANCE> 25
 3.382748e+01 3.628031e+01 4.600648e+01 2.294502e+01 9.100511e+01 4.563913e+01 5.834692e+01 5.632589e+01 3.456791e+01 4.004803e+01 4.066158e+01 4.632240e+01 1.656153e+00 1.407841e+00 1.798202e+00 1.585461e+00 4.502382e+00 2.970210e+00 3.744460e+00 3.177201e+00 2.837936e+00 2.797859e+00 2.639533e+00 2.465156e+00 1.004578e+00
<GCONST> 1.021376e+02
~s "ST_l3_i_4_1"
<MEAN> 25
 -1.651109e-08 -2.268430e-07 1.259320e-08 1.165062e-07 -3.503200e-08 7.789977e-08 -6.306777e-08 1.437152e-07 -9.648429e-08 -8.998416e-08 1.010382e-07 -1.644749e-08 3.964178e-03 4.991033e-03 -2.259726e-03 -8.660138e-04 -1.980516e-03 2.296586e-03 -1.050157e-04 -6.062090e-03 -3.834328e-04 3.311979e-04 1.732379e-04 -2.677502e-03 -2.030911e-03
<VARIANCE> 25
 3.382748e+01 3.628031e+01 4.600648e+01 2.294502e+01 9.100511e+01 4.563913e+01 5.834692e+01 5.632589e+01 3.456791e+01 4.004803e+01 4.066158e+01 4.632240e+01 1.656153e+00 1.407841e+00 1.798202e+00 1.585461e+00 4.502382e+00 2.970210e+00 3.744460e+00 3.177201e+00 2.837936e+00 2.797859e+00 2.639533e+00 2.465156e+00 1.004578e+00
<GCONST> 1.021376e+02
~s "ST_l2_i_2_1"
<MEAN> 25
 6.977127e-02 -4.009680e+00 -2.091567e+00 2.922833e+00 -1.055763e+00 -3.024633e+00 1.427112e+00 -1.484703e+00 -2.183041e+00 -2.695026e+00 -2.437347e+00 2.732936e+00 1.688119e-02 -4.251821e-01 -3.104030e-01 8.106320e-02 3.188444e-01 4.391275e-01 -1.204751e-01 -5.632859e-02 5.176471e-01 -8.669090e-02 -3.447171e-01 9.487124e-02 1.630222e-01
<VARIANCE> 25
 1.297291e+01 3.171598e+01 3.127287e+01 1.453681e+01 5.442001e+01 3.704167e+01 6.629665e+01 8.937602e+01 5.812479e+01 3.326313e+01 3.715643e+01 2.934869e+01 1.097541e+00 2.119978e+00 1.870179e+00 1.579574e+00 7.283930e+00 4.218069e+00 7.649993e+00 5.279060e+00 7.976393e+00 2.975116e+00 4.981228e+00 3.046058e+00 1.716241e+00
<GCONST> 1.044208e+02
~s "ST_l2_i_3_1"
<MEAN> 25
 1.849064e+00 -3.227498e+00 -3.557626e+00 1.506714e+00 1.589486e+00 4.806259e-01 7.602906e-02 -8.029417e-01 1.046098e+00 -1.574925e+00 -3.516461e+00 1.386907e-01 -1.071326e-02 2.322498e-01 2.905721e-01 -3.724102e-02 -3.967800e-01 -2.202195e-01 1.595567e-01 -1.052326e-01 -1.224577e-02 1.000571e-01 2.073456e-01 -1.799259e-02 -8.813884e-02
<VARIANCE> 25
 1.178891e+01 2.290021e+01 2.157994e+01 1.107353e+01 6.658910e+01 3.418872e+01 5.883728e+01 4.630318e+01 4.972643e+01 2.645935e+01 2.561607e+01 3.443795e+01 7.513856e-01 1.552555e+00 1.375905e+00 1.179684e+00 6.558207e+00 3.066728e+00 3.844222e+00 4.573418e+00 4.112658e+00 2.561181e+00 2.096773e+00 2.818588e+00 8.238590e-01
<GCONST> 9.707053e+01
~s "ST_l2_i_4_1"
<MEAN> 25
 -2.849331e+00 4.054862e+00 2.963894e+00 -2.268997e+00 -1.664850e-01 -1.541898e+00 -2.827103e+00 1.581995e+00 -3.726168e-01 1.167300e+00 2.340641e-01 -3.486306e+00 5.442247e-02 -1.632403e-03 4.240125e-03 -2.399499e-03 2.303891e-01 1.742467e-01 -1.303883e-01 1.876991e-01 -1.197163e-01 -1.200469e-01 -2.817814e-02 -1.573903e-01 -3.821485e-02
<VARIANCE> 25
 5.508812e+01 2.351434e+01 3.855953e+01 1.677321e+01 6.830280e+01 4.973927e+01 2.748960e+01 3.664739e+01 2.440395e+01 3.218912e+01 3.551051e+01 1.921658e+01 4.912571e+00 2.502944e+00 2.419199e+00 1.287580e+00 5.822875e+00 3.016933e+00 2.662889e+00 2.788129e+00 3.157970e+00 2.557866e+00 2.355016e+00 1.787606e+00 1.091864e+00
<GCONST> 9.995401e+01
~h "l2_i-l2_u+l3_i"
<BEGINHMM>
<NUMSTATES> 5
<STATE> 2
~s "ST_l2_u_2_1"
<STATE> 3
~s "ST_l2_u_3_1"
<STATE> 4
~s "ST_l2_u_4_1"
~t "T_l2_u"
<ENDHMM>
~h "l2_i-l2_u+l3_u"
<BEGINHMM>
<NUMSTATES> 5
<STATE> 2
~s "ST_l2_u_2_1"
<STATE> 3
~s "ST_l2_u_3_1"
<STATE> 4
~s "ST_l2_u_4_1"
~t "T_l2_u"
<ENDHMM>
~h "l1_u+l1_i"
<BEGINHMM>
<NUMSTATES> 5
<STATE> 2
~s "ST_l1_u_2_1"
<STATE> 3
~s "ST_l1_u_3_1"
<STATE> 4
~s "ST_l1_u_4_1"
~t "T_l1_u"
<ENDHMM>
~h "l1_u-l1_i+l2_i"
<BEGINHMM>
<NUMSTATES> 5
<STATE> 2
~s "ST_l1_i_2_1"
<STATE> 3
~s "ST_l1_i_3_1"
<STATE> 4
~s "ST_l1_i_4_1"
~t "T_l1_i"
<ENDHMM>
~h "l1_u-l1_i+l2_u"
<BEGINHMM>
<NUMSTATES> 5
<STATE> 2
~s "ST_l1_i_2_1"
<STATE> 3
~s "ST_l1_i_3_1"
<STATE> 4
~s "ST_l1_i_4_1"
~t "T_l1_i"
<ENDHMM>
~h "l3_i-l3_u+l4_i"
<BEGINHMM>
<NUMSTATES> 5
<STATE> 2
~s "ST_l3_u_2_1"
<STATE> 3
~s "ST_l3_u_3_1"
<STATE> 4
~s "ST_l3_u_4_1"
~t "T_l3_u"
<ENDHMM>
~h "l3_i-l3_u+l4_u"
<BEGINHMM>
<NUMSTATES> 5
<STATE> 2
~s "ST_l3_u_2_1"
<STATE> 3
~s "ST_l3_u_3_1"
<STATE> 4
~s "ST_l3_u_4_1"
~t "T_l3_u"
<ENDHMM>
~h "l4_u-l4_i+l5_i"
<BEGINHMM>
<NUMSTATES> 5
<STATE> 2
~s "ST_l4_i_2_1"
<STATE> 3
~s "ST_l4_i_3_1"
<STATE> 4
~s "ST_l4_i_4_1"
~t "T_l4_i"
<ENDHMM>
~h "l4_u-l4_i+l5_u"
<BEGINHMM>
<NUMSTATES> 5
<STATE> 2
~s "ST_l4_i_2_1"
<STATE> 3
~s "ST_l4_i_3_1"
<STATE> 4
~s "ST_l4_i_4_1"
~t "T_l4_i"
<ENDHMM>
~h "l1_u-l2_i+l2_u"
<BEGINHMM>
<NUMSTATES> 5
<STATE> 2
~s "ST_l2_i_2_1"
<STATE> 3
~s "ST_l2_i_3_1"
<STATE> 4
~s "ST_l2_i_4_1"
~t "T_l2_i"
<ENDHMM>
~h "l3_i-l4_u+l4_i"
<BEGINHMM>
<NUMSTATES> 5
<STATE> 2
~s "ST_l4_u_2_1"
<STATE> 3
~s "ST_l4_u_3_1"
<STATE> 4
~s "ST_l4_u_4_1"
~t "T_l4_u"
<ENDHMM>
~h "l4_u-l5_i+l5_u"
<BEGINHMM>
<NUMSTATES> 5
<STATE> 2
~s "ST_l5_i_2_1"
<STATE> 3
~s "ST_l5_i_3_1"
<STATE> 4
~s "ST_l5_i_4_1"
~t "T_l5_i"
<ENDHMM>
~h "l1_i-l2_u+l2_i"
<BEGINHMM>
<NUMSTATES> 5
<STATE> 2
~s "ST_l2_u_2_1"
<STATE> 3
~s "ST_l2_u_3_1"
<STATE> 4
~s "ST_l2_u_4_1"
~t "T_l2_u"
<ENDHMM>
~h "l2_u-l3_i+l3_u"
<BEGINHMM>
<NUMSTATES> 5
<STATE> 2
~s "ST_l3_i_2_1"
<STATE> 3
~s "ST_l3_i_3_1"
<STATE> 4
~s "ST_l3_i_4_1"
~t "T_l3_i"
<ENDHMM>
~h "l4_i-l5_u+l5_i"
<BEGINHMM>
<NUMSTATES> 5
<STATE> 2
~s "ST_l5_u_2_1"
<STATE> 3
~s "ST_l5_u_3_1"
<STATE> 4
~s "ST_l5_u_4_1"
~t "T_l5_u"
<ENDHMM>
~h "l2_u-l3_u+l3_i"
<BEGINHMM>
<NUMSTATES> 5
<STATE> 2
~s "ST_l3_u_2_1"
<STATE> 3
~s "ST_l3_u_3_1"
<STATE> 4
~s "ST_l3_u_4_1"
~t "T_l3_u"
<ENDHMM>
~h "l1_i-l2_i+l2_u"
<BEGINHMM>
<NUMSTATES> 5
<STATE> 2
~s "ST_l2_i_2_1"
<STATE> 3
~s "ST_l2_i_3_1"
<STATE> 4
~s "ST_l2_i_4_1"
~t "T_l2_i"
<ENDHMM>
~h "sil"
<BEGINHMM>
<NUMSTATES> 5
<STATE> 2
~s "ST_sil_2_1"
<STATE> 3
~s "ST_sil_3_1"
<STATE> 4
~s "ST_sil_4_1"
<TRANSP> 5
 0.000000e+00 1.000000e+00 0.000000e+00 0.000000e+00 0.000000e+00
 0.000000e+00 8.896098e-01 5.406381e-02 5.632631e-02 0.000000e+00
 0.000000e+00 0.000000e+00 9.393831e-01 6.061683e-02 0.000000e+00
 0.000000e+00 7.313818e-02 0.000000e+00 9.196211e-01 7.240793e-03
 0.000000e+00 0.000000e+00 0.000000e+00 0.000000e+00 0.000000e+00
<ENDHMM>
~h "l4_i-l5_i+l5_u"
<BEGINHMM>
<NUMSTATES> 5
<STATE> 2
~s "ST_l5_i_2_1"
<STATE> 3
~s "ST_l5_i_3_1"
<STATE> 4
~s "ST_l5_i_4_1"
~t "T_l5_i"
<ENDHMM>
~h "l2_i-l3_i+l3_u"
<BEGINHMM>
<NUMSTATES> 5
<STATE> 2
~s "ST_l3_i_2_1"
<STATE> 3
~s "ST_l3_i_3_1"
<STATE> 4
~s "ST_l3_i_4_1"
~t "T_l3_i"
<ENDHMM>
~h "l1_i-l1_u+l2_i"
<BEGINHMM>
<NUMSTATES> 5
<STATE> 2
~s "ST_l1_u_2_1"
<STATE> 3
~s "ST_l1_u_3_1"
<STATE> 4
~s "ST_l1_u_4_1"
~t "T_l1_u"
<ENDHMM>
~h "l1_i-l1_u+l2_u"
<BEGINHMM>
<NUMSTATES> 5
<STATE> 2
~s "ST_l1_u_2_1"
<STATE> 3
~s "ST_l1_u_3_1"
<STATE> 4
~s "ST_l1_u_4_1"
~t "T_l1_u"
<ENDHMM>
~h "l2_u-l2_i+l3_i"
<BEGINHMM>
<NUMSTATES> 5
<STATE> 2
~s "ST_l2_i_2_1"
<STATE> 3
~s "ST_l2_i_3_1"
<STATE> 4
~s "ST_l2_i_4_1"
~t "T_l2_i"
<ENDHMM>
~h "l2_u-l2_i+l3_u"
<BEGINHMM>
<NUMSTATES> 5
<STATE> 2
~s "ST_l2_i_2_1"
<STATE> 3
~s "ST_l2_i_3_1"
<STATE> 4
~s "ST_l2_i_4_1"
~t "T_l2_i"
<ENDHMM>
~h "l4_i-l4_u+l5_i"
<BEGINHMM>
<NUMSTATES> 5
<STATE> 2
~s "ST_l4_u_2_1"
<STATE> 3
~s "ST_l4_u_3_1"
<STATE> 4
~s "ST_l4_u_4_1"
~t "T_l4_u"
<ENDHMM>
~h "l4_i-l4_u+l5_u"
<BEGINHMM>
<NUMSTATES> 5
<STATE> 2
~s "ST_l4_u_2_1"
<STATE> 3
~s "ST_l4_u_3_1"
<STATE> 4
~s "ST_l4_u_4_1"
~t "T_l4_u"
<ENDHMM>
~h "l3_u-l3_i+l4_i"
<BEGINHMM>
<NUMSTATES> 5
<STATE> 2
~s "ST_l3_i_2_1"
<STATE> 3
~s "ST_l3_i_3_1"
<STATE> 4
~s "ST_l3_i_4_1"
~t "T_l3_i"
<ENDHMM>
~h "l3_u-l3_i+l4_u"
<BEGINHMM>
<NUMSTATES> 5
<STATE> 2
~s "ST_l3_i_2_1"
<STATE> 3
~s "ST_l3_i_3_1"
<STATE> 4
~s "ST_l3_i_4_1"
~t "T_l3_i"
<ENDHMM>
~h "l2_i-l3_u+l3_i"
<BEGINHMM>
<NUMSTATES> 5
<STATE> 2
~s "ST_l3_u_2_1"
<STATE> 3
~s "ST_l3_u_3_1"
<STATE> 4
~s "ST_l3_u_4_1"
~t "T_l3_u"
<ENDHMM>
~h "l3_u-l4_i+l4_u"
<BEGINHMM>
<NUMSTATES> 5
<STATE> 2
~s "ST_l4_i_2_1"
<STATE> 3
~s "ST_l4_i_3_1"
<STATE> 4
~s "ST_l4_i_4_1"
~t "T_l4_i"
<ENDHMM>
~h "l5_i-l5_u"
<BEGINHMM>
<NUMSTATES> 5
<STATE> 2
~s "ST_l5_u_2_1"
<STATE> 3
~s "ST_l5_u_3_1"
<STATE> 4
~s "ST_l5_u_4_1"
~t "T_l5_u"
<ENDHMM>
~h "l3_u-l4_u+l4_i"
<BEGINHMM>
<NUMSTATES> 5
<STATE> 2
~s "ST_l4_u_2_1"
<STATE> 3
~s "ST_l4_u_3_1"
<STATE> 4
~s "ST_l4_u_4_1"
~t "T_l4_u"
<ENDHMM>
~h "l5_u-l5_i"
<BEGINHMM>
<NUMSTATES> 5
<STATE> 2
~s "ST_l5_i_2_1"
<STATE> 3
~s "ST_l5_i_3_1"
<STATE> 4
~s "ST_l5_i_4_1"
~t "T_l5_i"
<ENDHMM>
~h "l1_i+l1_u"
<BEGINHMM>
<NUMSTATES> 5
<STATE> 2
~s "ST_l1_i_2_1"
<STATE> 3
~s "ST_l1_i_3_1"
<STATE> 4
~s "ST_l1_i_4_1"
~t "T_l1_i"
<ENDHMM>
~h "l1_u-l2_u+l2_i"
<BEGINHMM>
<NUMSTATES> 5
<STATE> 2
~s "ST_l2_u_2_1"
<STATE> 3
~s "ST_l2_u_3_1"
<STATE> 4
~s "ST_l2_u_4_1"
~t "T_l2_u"
<ENDHMM>
~h "l4_u-l5_u+l5_i"
<BEGINHMM>
<NUMSTATES> 5
<STATE> 2
~s "ST_l5_u_2_1"
<STATE> 3
~s "ST_l5_u_3_1"
<STATE> 4
~s "ST_l5_u_4_1"
~t "T_l5_u"
<ENDHMM>
~h "l3_i-l4_i+l4_u"
<BEGINHMM>
<NUMSTATES> 5
<STATE> 2
~s "ST_l4_i_2_1"
<STATE> 3
~s "ST_l4_i_3_1"
<STATE> 4
~s "ST_l4_i_4_1"
~t "T_l4_i"
<ENDHMM>
