~o
<STREAMINFO> 1 25
<VECSIZE> 25<NULLD><MFCC_D_N_Z_0><DIAGC>
~h "l1_i"
<BEGINHMM>
<NUMSTATES> 5
<STATE> 2
<MEAN> 25
 2.555290e+00 -2.139303e+00 -2.799132e+00 -2.779870e+00 -1.435084e+00 -1.587699e+00 -1.738237e+00 -2.088743e+00 -1.119758e+00 -2.131059e+00 -1.495492e+00 -1.636083e+00 1.552411e-01 -1.427727e-01 -7.861610e-02 -1.370710e-01 -1.082070e-01 -1.250361e-01 -6.552996e-02 -4.782404e-02 2.437830e-03 -4.502616e-02 -8.247276e-02 -6.770720e-02 1.885617e-01
<VARIANCE> 25
 4.109161e+01 5.570002e+01 7.420404e+01 6.619546e+01 7.345641e+01 7.335473e+01 5.548478e+01 7.237726e+01 5.587799e+01 5.533819e+01 4.834057e+01 4.149626e+01 2.876780e+00 3.418910e+00 3.648953e+00 4.144184e+00 4.808965e+00 5.060716e+00 4.254735e+00 4.776123e+00 3.988263e+00 3.943819e+00 3.513554e+00 3.204271e+00 2.867110e+00
<GCONST> 1.121484e+02
<STATE> 3
<MEAN> 25
 2.712673e+00 -1.649655e+00 -2.042580e+00 -3.342165e+00 -2.711994e+00 -2.190951e+00 -1.723785e+00 -1.648132e+00 -8.026371e-01 -1.768200e+00 -1.971363e+00 -1.724944e+00 -2.295040e-02 5.195272e-02 6.584928e-02 5.386077e-02 -1.137886e-02 -1.541020e-02 1.116876e-02 3.832532e-02 1.451557e-02 3.619303e-02 9.549944e-03 1.473752e-02 -4.358391e-02
<VARIANCE> 25
 4.110065e+01 5.007537e+01 7.858826e+01 6.528384e+01 7.182560e+01 7.121534e+01 5.467103e+01 7.523113e+01 5.640466e+01 5.437522e+01 4.820882e+01 3.815910e+01 2.435952e+00 3.088308e+00 3.360330e+00 3.944960e+00 4.386817e+00 4.428727e+00 3.940931e+00 4.595058e+00 3.636825e+00 3.703767e+00 3.498683e+00 2.925417e+00 1.963442e+00
<GCONST> 1.105936e+02
<STATE> 4
<MEAN> 25
 6.184564e-01 2.301299e-01 4.782819e-01 -3.256862e-01 -3.612252e-01 -2.755591e-01 -4.157867e-01 -4.229979e-01 -7.656735e-03 1.551019e-01 -8.061004e-02 -1.818457e-01 -1.956906e-02 2.779183e-03 6.537200e-03 7.834783e-03 1.694924e-02 1.809806e-02 9.013577e-03 6.922108e-03 7.976891e-03 4.334692e-03 5.806143e-03 5.430416e-03 -1.081977e-02
<VARIANCE> 25
 6.350582e+01 4.221598e+01 6.684799e+01 4.503156e+01 6.154788e+01 5.872850e+01 5.274562e+01 5.908693e+01 4.837841e+01 3.772987e+01 3.666909e+01 3.173949e+01 3.582088e+00 2.512609e+00 3.095317e+00 2.817228e+00 3.837688e+00 3.965282e+00 3.598392e+00 4.115876e+00 3.361494e+00 2.863454e+00 2.816646e+00 2.540777e+00 2.593105e+00
<GCONST> 1.076228e+02
<TRANSP> 5
 0.000000e+00 1.000000e+00 0.000000e+00 0.000000e+00 0.000000e+00
 0.000000e+00 9.535192e-01 4.648079e-02 0.000000e+00 0.000000e+00
 0.000000e+00 0.000000e+00 9.677998e-01 3.220025e-02 0.000000e+00
 0.000000e+00 0.000000e+00 0.000000e+00 9.958298e-01 4.170171e-03
 0.000000e+00 0.000000e+00 0.000000e+00 0.000000e+00 0.000000e+00
<ENDHMM>
~h "l1_u"
<BEGINHMM>
<NUMSTATES> 5
<STATE> 2
<MEAN> 25
 1.351621e+00 1.156658e+00 6.527549e-01 -6.719902e-01 -2.456606e+00 -3.068956e+00 -8.338138e-01 -1.132615e+00 -2.234660e+00 -2.252605e+00 -9.515017e-02 -2.867341e-01 2.612756e-01 5.889808e-02 -2.046360e-01 -1.610084e-01 -2.767617e-02 -2.841010e-01 -8.061177e-02 -1.215686e-01 -1.240794e-01 -3.988665e-02 -1.200088e-01 -9.137867e-02 2.542657e-01
<VARIANCE> 25
 6.045012e+01 4.844254e+01 6.087204e+01 5.886657e+01 7.874649e+01 5.996279e+01 5.306038e+01 6.266392e+01 4.866707e+01 4.276003e+01 4.959282e+01 5.004727e+01 4.357542e+00 3.574549e+00 4.176116e+00 3.948314e+00 4.695175e+00 5.566414e+00 5.028252e+00 5.084458e+00 4.448825e+00 3.974892e+00 3.978620e+00 3.562448e+00 2.638656e+00
<GCONST> 1.126870e+02
<STATE> 3
<MEAN> 25
 1.360825e+00 7.994369e-01 -1.536926e+00 -9.349220e-01 -8.916264e-01 -4.505469e+00 -9.880338e-01 -1.830719e+00 -2.458124e+00 -1.951046e+00 -1.477535e+00 -6.573007e-01 -9.390404e-03 -3.662431e-02 -9.006190e-02 -6.484604e-03 3.043570e-02 1.676434e-02 2.800627e-02 -7.753400e-03 6.011176e-02 3.176652e-02 -7.789052e-02 7.040021e-03 5.071375e-02
<VARIANCE> 25
 5.412254e+01 4.704063e+01 6.103476e+01 5.381651e+01 7.216779e+01 7.574875e+01 6.611275e+01 7.123366e+01 5.300572e+01 4.779889e+01 5.314041e+01 5.004636e+01 3.574684e+00 3.675853e+00 3.578882e+00 3.268138e+00 4.386205e+00 5.713029e+00 5.136660e+00 5.399430e+00 4.313693e+00 4.169486e+00 3.790223e+00 4.066365e+00 2.888752e+00
<GCONST> 1.129377e+02
<STATE> 4
<MEAN> 25
 1.277680e+00 4.101668e-01 -2.384228e-01 -8.964964e-01 -1.349102e+00 -9.966257e-01 -1.012023e+00 -1.262095e+00 -2.902985e-01 2.602797e-01 -6.584090e-01 -6.492572e-01 -2.166018e-02 1.231162e-02 1.285206e-02 2.652410e-02 1.778970e-02 2.345034e-02 -7.769145e-03 9.692492e-03 1.573355e-02 1.463652e-02 1.267745e-02 9.870616e-03 -2.771786e-02
<VARIANCE> 25
 6.423791e+01 4.010173e+01 6.938001e+01 5.831703e+01 6.531839e+01 6.089408e+01 5.978311e+01 5.076947e+01 4.657838e+01 4.003937e+01 3.813569e+01 4.071847e+01 3.098252e+00 2.350385e+00 3.121709e+00 2.781363e+00 3.764805e+00 3.994930e+00 3.643812e+00 3.502691e+00 3.075791e+00 2.780187e+00 2.769552e+00 2.757511e+00 1.293123e+00
<GCONST> 1.071319e+02
<TRANSP> 5
 0.000000e+00 1.000000e+00 0.000000e+00 0.000000e+00 0.000000e+00
 0.000000e+00 9.063468e-01 9.365316e-02 0.000000e+00 0.000000e+00
 0.000000e+00 0.000000e+00 9.525634e-01 4.743658e-02 0.000000e+00
 0.000000e+00 0.000000e+00 0.000000e+00 9.937133e-01 6.286751e-03
 0.000000e+00 0.000000e+00 0.000000e+00 0.000000e+00 0.000000e+00
<ENDHMM>
~h "l2_i"
<BEGINHMM>
<NUMSTATES> 5
<STATE> 2
<MEAN> 25
 1.284474e+00 -1.363147e+00 -1.619025e+00 -1.604830e+00 -1.725994e+00 -1.436756e+00 -6.401377e-01 -1.772860e+00 -8.357736e-01 -1.794954e+00 -9.762321e-01 -1.074656e+00 2.243019e-01 -1.033360e-01 -1.137144e-01 -1.406464e-01 -1.352928e-01 -1.474402e-01 -1.371234e-01 -1.199503e-01 -9.541622e-03 -1.217598e-01 -3.595108e-02 -7.228362e-02 3.523740e-01
<VARIANCE> 25
 6.837744e+01 4.738010e+01 7.751070e+01 4.843879e+01 7.125987e+01 6.985897e+01 5.514964e+01 6.637483e+01 5.816085e+01 4.459791e+01 4.578914e+01 4.041031e+01 4.696300e+00 3.458924e+00 4.759986e+00 4.057035e+00 4.804067e+00 5.720035e+00 4.531838e+00 4.833191e+00 4.805876e+00 3.764823e+00 3.867154e+00 3.606110e+00 4.472484e+00
<GCONST> 1.135402e+02
<STATE> 3
<MEAN> 25
 3.642253e+00 -2.008102e+00 -2.334751e+00 -1.956623e+00 -2.178467e+00 -2.136789e+00 -2.270641e+00 -1.666066e+00 -1.018202e+00 -1.902784e+00 -1.154876e+00 -1.742732e+00 -3.805780e-02 6.164450e-03 6.423623e-02 2.269528e-02 2.772560e-02 -4.340968e-03 -5.371296e-03 9.232542e-03 2.667682e-02 3.960653e-02 2.424196e-02 -7.060897e-03 -5.910125e-03
<VARIANCE> 25
 4.696290e+01 4.386056e+01 7.665636e+01 5.214975e+01 8.415733e+01 7.528749e+01 5.264941e+01 8.540340e+01 6.331114e+01 4.656063e+01 5.250424e+01 4.000800e+01 2.826176e+00 2.906995e+00 3.955794e+00 3.629341e+00 4.743240e+00 5.091642e+00 4.266655e+00 5.287617e+00 4.734007e+00 3.892255e+00 3.749213e+00 3.262523e+00 2.206402e+00
<GCONST> 1.119546e+02
<STATE> 4
<MEAN> 25
 4.781402e-01 1.592847e-01 2.732789e-01 -3.966553e-01 1.524572e-02 -1.347141e-01 -5.601004e-01 -6.631303e-01 5.947349e-02 -8.700646e-02 8.318154e-02 -3.050633e-01 -1.635541e-02 1.030703e-02 -4.531084e-03 7.669391e-03 1.644693e-02 5.277953e-03 6.580809e-03 1.247188e-02 6.730119e-03 5.848022e-03 -3.159756e-03 1.280959e-02 -9.217240e-03
<VARIANCE> 25
 7.139882e+01 4.425510e+01 5.862117e+01 5.280997e+01 6.018763e+01 6.511829e+01 5.095165e+01 5.426095e+01 4.581606e+01 3.863946e+01 3.535345e+01 3.411521e+01 3.769622e+00 2.548496e+00 2.898525e+00 2.992738e+00 3.710206e+00 3.957314e+00 3.541516e+00 3.709180e+00 3.395816e+00 2.857095e+00 2.711515e+00 2.488321e+00 2.524245e+00
<GCONST> 1.076077e+02
<TRANSP> 5
 0.000000e+00 1.000000e+00 0.000000e+00 0.000000e+00 0.000000e+00
 0.000000e+00 9.517276e-01 4.827234e-02 0.000000e+00 0.000000e+00
 0.000000e+00 0.000000e+00 9.669507e-01 3.304930e-02 0.000000e+00
 0.000000e+00 0.000000e+00 0.000000e+00 9.963346e-01 3.665386e-03
 0.000000e+00 0.000000e+00 0.000000e+00 0.000000e+00 0.000000e+00
<ENDHMM>
~h "l2_u"
<BEGINHMM>
<NUMSTATES> 5
<STATE> 2
<MEAN> 25
 1.601695e+00 -1.680234e+00 -2.498692e+00 -1.928728e+00 -1.096775e+00 -2.304074e+00 -1.870501e+00 -2.789789e+00 -2.136066e+00 -2.368236e+00 -2.653223e+00 -2.837375e+00 4.066481e-01 -2.184235e-01 -1.409551e-01 -2.109025e-01 -2.233296e-01 -1.716905e-01 -1.356456e-01 -1.877147e-01 -1.486436e-01 -8.442280e-02 -1.358420e-01 -1.765191e-01 2.446567e-01
<VARIANCE> 25
 4.040227e+01 5.974542e+01 5.999868e+01 4.242012e+01 6.561596e+01 5.228558e+01 4.947105e+01 5.393253e+01 6.132402e+01 6.263659e+01 4.738105e+01 3.281498e+01 3.094282e+00 2.838237e+00 2.806453e+00 3.382479e+00 4.376799e+00 4.042767e+00 3.793809e+00 4.739867e+00 4.586612e+00 4.052004e+00 4.084488e+00 2.721868e+00 1.792814e+00
<GCONST> 1.093107e+02
<STATE> 3
<MEAN> 25
 2.150762e+00 -1.633530e+00 -1.918456e+00 -2.674316e+00 -3.355721e+00 -2.983110e+00 -2.098503e+00 -3.504700e+00 -2.638240e+00 -2.707498e+00 -3.217443e+00 -3.349674e+00 2.700937e-02 7.200733e-03 4.907468e-02 2.480266e-02 -6.149823e-02 -5.404475e-02 -7.420249e-03 8.203355e-02 3.974544e-02 3.337076e-02 2.101233e-02 2.835885e-02 -3.069268e-02
<VARIANCE> 25
 2.901304e+01 4.758414e+01 5.975134e+01 4.328436e+01 6.977675e+01 5.716751e+01 5.091196e+01 6.420374e+01 5.589901e+01 6.067564e+01 4.433428e+01 3.073202e+01 1.940587e+00 2.457792e+00 2.671610e+00 3.100298e+00 3.834255e+00 4.229424e+00 3.348272e+00 4.281381e+00 3.979818e+00 3.596414e+00 3.421446e+00 2.628949e+00 1.437247e+00
<GCONST> 1.071105e+02
<STATE> 4
<MEAN> 25
 8.590970e-01 4.660415e-01 -2.654529e-02 -7.120815e-01 -6.354014e-01 -4.236207e-01 -4.919878e-01 -3.752992e-01 -1.864889e-01 1.930505e-02 -1.036514e-01 -4.965102e-01 -9.447969e-03 7.767046e-03 4.519233e-03 7.447809e-03 1.576811e-02 1.486329e-02 8.701907e-03 7.757184e-03 6.982283e-03 8.878756e-03 4.828290e-03 8.516389e-03 -1.652226e-02
<VARIANCE> 25
 6.508509e+01 4.729052e+01 7.494201e+01 5.945855e+01 5.903127e+01 6.637082e+01 5.849202e+01 4.851531e+01 4.671090e+01 3.757192e+01 3.728669e+01 2.761109e+01 3.595055e+00 2.947720e+00 3.391179e+00 3.373127e+00 3.633785e+00 4.389042e+00 3.846403e+00 3.587872e+00 3.397420e+00 2.952321e+00 2.794549e+00 2.309565e+00 1.750649e+00
<GCONST> 1.079341e+02
<TRANSP> 5
 0.000000e+00 1.000000e+00 0.000000e+00 0.000000e+00 0.000000e+00
 0.000000e+00 9.047863e-01 9.521373e-02 0.000000e+00 0.000000e+00
 0.000000e+00 0.000000e+00 9.454423e-01 5.455768e-02 0.000000e+00
 0.000000e+00 0.000000e+00 0.000000e+00 9.964423e-01 3.557708e-03
 0.000000e+00 0.000000e+00 0.000000e+00 0.000000e+00 0.000000e+00
<ENDHMM>
~h "l3_i"
<BEGINHMM>
<NUMSTATES> 5
<STATE> 2
<MEAN> 25
 8.526369e-01 -9.628284e-01 -1.659530e+00 -1.675963e+00 1.183036e-01 -7.883728e-01 -2.161660e+00 -2.624640e+00 -1.091539e+00 -1.396206e+00 -7.562408e-01 -1.648780e+00 1.536787e-01 -1.243755e-01 -1.168414e-01 -1.818058e-01 -8.002552e-02 -7.848885e-02 -1.264317e-01 -4.966744e-02 -1.610531e-02 -3.259439e-02 -1.089419e-01 -8.483120e-02 2.009407e-01
<VARIANCE> 25
 6.174189e+01 4.528425e+01 6.402647e+01 5.886907e+01 5.976503e+01 6.372589e+01 6.588847e+01 5.399262e+01 4.829988e+01 3.933311e+01 4.177583e+01 3.689130e+01 4.595103e+00 3.191647e+00 4.171131e+00 4.442916e+00 4.479111e+00 5.462546e+00 4.806290e+00 4.363122e+00 3.753308e+00 3.160422e+00 3.164006e+00 3.029773e+00 3.543708e+00
<GCONST> 1.112734e+02
<STATE> 3
<MEAN> 25
 2.033049e+00 -1.011735e+00 -2.563750e+00 -3.172844e+00 -1.611773e-01 -5.721517e-01 -2.165632e+00 -1.820554e+00 -1.226282e+00 -9.685665e-01 -5.566638e-01 -1.941084e+00 1.131362e-02 -4.528280e-03 3.508602e-02 -2.561704e-02 -3.718019e-02 1.310390e-03 4.931052e-02 6.112630e-02 2.518833e-02 8.441694e-03 -1.039258e-02 1.315689e-02 1.152989e-02
<VARIANCE> 25
 6.172412e+01 4.725525e+01 6.181721e+01 6.719975e+01 6.347359e+01 6.949734e+01 6.005062e+01 6.367400e+01 4.794510e+01 4.497257e+01 4.384122e+01 3.589914e+01 3.994905e+00 3.277152e+00 3.899586e+00 4.878412e+00 4.618671e+00 5.239917e+00 4.779351e+00 4.726976e+00 3.993402e+00 3.426300e+00 3.476898e+00 3.031284e+00 3.024346e+00
<GCONST> 1.118349e+02
<STATE> 4
<MEAN> 25
 1.059260e+00 5.633794e-01 2.381133e-01 -6.399574e-01 -1.343007e+00 -1.412476e+00 -5.845923e-01 8.542057e-02 -1.086990e-02 1.073444e-01 -9.442077e-01 -5.324919e-01 -4.813041e-02 2.456825e-02 5.805307e-03 3.780807e-02 2.974793e-02 1.331879e-02 1.732023e-02 1.180725e-02 1.259775e-02 5.441279e-03 9.385902e-04 1.513569e-02 -3.141759e-02
<VARIANCE> 25
 4.733615e+01 4.035034e+01 5.711205e+01 4.158586e+01 5.936175e+01 5.349990e+01 5.391660e+01 4.685175e+01 4.401606e+01 4.197309e+01 3.829969e+01 3.540863e+01 2.646771e+00 2.100259e+00 2.446571e+00 2.488896e+00 3.265206e+00 3.509774e+00 3.123860e+00 3.186217e+00 2.942475e+00 2.602611e+00 2.626330e+00 2.173760e+00 1.260359e+00
<GCONST> 1.041742e+02
<TRANSP> 5
 0.000000e+00 1.000000e+00 0.000000e+00 0.000000e+00 0.000000e+00
 0.000000e+00 9.400587e-01 5.994127e-02 0.000000e+00 0.000000e+00
 0.000000e+00 0.000000e+00 9.741773e-01 2.582265e-02 0.000000e+00
 0.000000e+00 0.000000e+00 0.000000e+00 9.923900e-01 7.610044e-03
 0.000000e+00 0.000000e+00 0.000000e+00 0.000000e+00 0.000000e+00
<ENDHMM>
~h "l3_u"
<BEGINHMM>
<NUMSTATES> 5
<STATE> 2
<MEAN> 25
 6.367249e-01 -2.580272e-01 3.282344e-01 -4.588419e-01 -1.428176e+00 -1.655821e+00 -5.574113e-01 -2.421280e+00 -2.158005e+00 7.215901e-02 -1.194730e-01 -2.700181e-01 4.374322e-01 -1.570486e-01 -1.165444e-01 -2.543230e-01 -3.545022e-01 -1.311035e-01 -1.318811e-01 -2.221341e-01 -1.707541e-01 -2.892671e-02 -9.934997e-02 -8.590077e-02 3.213478e-01
<VARIANCE> 25
 5.997610e+01 5.553902e+01 6.787214e+01 5.195264e+01 5.860313e+01 5.724383e+01 5.817556e+01 5.384766e+01 6.725426e+01 4.193503e+01 3.540778e+01 5.629725e+01 4.158499e+00 3.598999e+00 3.857755e+00 4.176402e+00 5.278336e+00 4.387136e+00 5.376135e+00 5.060324e+00 5.348320e+00 3.337966e+00 3.301488e+00 3.892512e+00 3.785587e+00
<GCONST> 1.126336e+02
<STATE> 3
<MEAN> 25
 3.188757e+00 -4.227816e-01 -4.410125e-01 -2.056058e+00 -2.798257e+00 -8.525499e-01 -1.286772e+00 -3.265432e+00 -3.986894e+00 -1.425622e+00 -6.010162e-01 -9.301481e-01 7.085658e-02 -7.286465e-02 -6.388701e-02 -3.190988e-02 -6.735582e-03 -2.018187e-02 -5.124522e-03 3.903928e-02 8.746397e-03 -4.243156e-02 -1.831945e-02 -8.355774e-04 5.438943e-02
<VARIANCE> 25
 4.568293e+01 4.358763e+01 7.542085e+01 5.987814e+01 6.079830e+01 6.821492e+01 6.110061e+01 6.386341e+01 8.035361e+01 5.478676e+01 3.861993e+01 5.952683e+01 2.458853e+00 2.792683e+00 3.658746e+00 4.346250e+00 4.697844e+00 4.783392e+00 4.876533e+00 5.706213e+00 5.127980e+00 3.852199e+00 3.672552e+00 3.685881e+00 2.820941e+00
<GCONST> 1.124456e+02
<STATE> 4
<MEAN> 25
 1.138748e+00 7.623795e-02 -3.225902e-01 -7.138600e-01 -6.494576e-01 -6.807286e-01 -8.268520e-01 -3.988513e-01 6.236997e-02 -2.876596e-01 -1.389655e-01 -7.327846e-01 -1.792007e-02 7.956211e-03 1.014994e-02 1.536493e-02 1.434484e-02 7.361276e-03 6.646721e-03 1.344096e-02 1.392163e-02 9.100687e-04 5.860572e-03 7.874930e-03 -1.483005e-02
<VARIANCE> 25
 5.702653e+01 4.933388e+01 7.219106e+01 5.594398e+01 6.486121e+01 5.968120e+01 5.353325e+01 5.735344e+01 4.727269e+01 4.433598e+01 3.747536e+01 3.100341e+01 3.116959e+00 2.765883e+00 3.095692e+00 3.378947e+00 3.969807e+00 4.029236e+00 3.469135e+00 3.941042e+00 3.389967e+00 3.242574e+00 2.792468e+00 2.281469e+00 1.972245e+00
<GCONST> 1.080066e+02
<TRANSP> 5
 0.000000e+00 1.000000e+00 0.000000e+00 0.000000e+00 0.000000e+00
 0.000000e+00 9.081595e-01 9.184056e-02 0.000000e+00 0.000000e+00
 0.000000e+00 0.000000e+00 9.421275e-01 5.787247e-02 0.000000e+00
 0.000000e+00 0.000000e+00 0.000000e+00 9.956920e-01 4.307958e-03
 0.000000e+00 0.000000e+00 0.000000e+00 0.000000e+00 0.000000e+00
<ENDHMM>
~h "l4_i"
<BEGINHMM>
<NUMSTATES> 5
<STATE> 2
<MEAN> 25
 3.890903e+00 -1.126800e+00 -2.589685e+00 -1.772041e+00 -4.470475e-01 -1.592962e+00 -2.433289e+00 -9.128885e-01 -1.028739e-01 -2.965184e+00 -2.541166e+00 -1.485823e+00 2.300035e-01 -1.167217e-01 -1.335209e-01 -9.104280e-02 -5.572598e-02 -1.467952e-01 -1.909977e-01 -1.220087e-02 6.663001e-02 -9.917193e-02 -1.349071e-01 -3.821480e-02 1.640627e-01
<VARIANCE> 25
 3.554046e+01 5.499888e+01 6.068826e+01 4.162647e+01 7.291094e+01 5.600404e+01 5.429250e+01 8.154155e+01 5.323768e+01 4.932278e+01 5.293203e+01 3.307225e+01 2.254464e+00 3.484666e+00 3.006836e+00 3.222515e+00 4.497282e+00 3.791400e+00 5.106389e+00 5.865167e+00 3.872609e+00 3.926513e+00 3.706827e+00 2.873348e+00 1.671154e+00
<GCONST> 1.095793e+02
<STATE> 3
<MEAN> 25
 4.527722e+00 -1.453719e+00 -2.882717e+00 -1.985601e+00 -9.219812e-01 -2.654762e+00 -3.440383e+00 -3.345221e-01 1.220294e-01 -3.292415e+00 -3.342752e+00 -1.594274e+00 -5.151243e-02 1.267261e-02 7.696490e-02 -5.572203e-03 -1.036707e-01 -1.022811e-01 5.111001e-02 6.373142e-02 -1.658448e-02 1.766748e-02 9.289145e-03 1.361303e-02 -1.548318e-02
<VARIANCE> 25
 3.267225e+01 4.847007e+01 6.174429e+01 4.840810e+01 8.097820e+01 5.542517e+01 5.771059e+01 8.731331e+01 5.644965e+01 4.935056e+01 6.623951e+01 3.653371e+01 1.632017e+00 3.204850e+00 3.008483e+00 3.031805e+00 4.868525e+00 3.600019e+00 4.946782e+00 5.591223e+00 3.942365e+00 3.875393e+00 3.774371e+00 2.725591e+00 1.501230e+00
<GCONST> 1.094874e+02
<STATE> 4
<MEAN> 25
 8.155177e-01 5.353561e-01 2.257671e-01 -7.191177e-01 -7.711887e-01 -5.084739e-01 -5.306107e-01 -4.721631e-01 -3.144067e-01 -3.071415e-02 -1.437540e-01 -5.892614e-01 -2.166282e-02 6.598168e-03 8.886399e-03 1.524519e-02 1.174163e-02 1.469263e-02 1.240206e-02 4.820045e-03 5.430154e-03 9.210241e-03 9.350905e-03 4.499959e-03 -1.555838e-02
<VARIANCE> 25
 6.873074e+01 4.459889e+01 6.673044e+01 5.368211e+01 6.760141e+01 6.677451e+01 5.132430e+01 5.141586e+01 4.761250e+01 3.791299e+01 3.746067e+01 3.137984e+01 3.571474e+00 2.607539e+00 3.046799e+00 2.917148e+00 3.985184e+00 4.016154e+00 3.383901e+00 3.578686e+00 3.248219e+00 2.795108e+00 2.719752e+00 2.384054e+00 1.988645e+00
<GCONST> 1.074653e+02
<TRANSP> 5
 0.000000e+00 1.000000e+00 0.000000e+00 0.000000e+00 0.000000e+00
 0.000000e+00 9.039732e-01 9.602678e-02 0.000000e+00 0.000000e+00
 0.000000e+00 0.000000e+00 9.267913e-01 7.320867e-02 0.000000e+00
 0.000000e+00 0.000000e+00 0.000000e+00 9.966789e-01 3.321071e-03
 0.000000e+00 0.000000e+00 0.000000e+00 0.000000e+00 0.000000e+00
<ENDHMM>
~h "l4_u"
<BEGINHMM>
<NUMSTATES> 5
<STATE> 2
<MEAN> 25
 1.106880e+00 3.358850e-01 -7.207500e-01 -4.503580e-01 -1.360316e+00 -1.830438e+00 -1.711876e+00 -1.013393e+00 -1.406918e+00 -1.214179e-01 -1.823742e-02 -6.626109e-01 1.123405e-01 -1.280777e-02 -4.085059e-02 -9.765802e-02 -9.386185e-02 -8.121360e-02 -1.089738e-01 -7.635057e-02 -5.692127e-03 -1.676669e-02 -1.917707e-02 -5.360227e-02 1.977011e-01
<VARIANCE> 25
 5.105858e+01 4.574041e+01 6.170320e+01 6.021667e+01 5.866750e+01 6.849999e+01 5.593325e+01 6.544090e+01 4.927388e+01 3.954459e+01 4.298229e+01 3.273845e+01 3.683332e+00 3.143274e+00 3.416449e+00 4.540065e+00 4.468771e+00 5.750631e+00 4.974833e+00 5.389772e+00 4.236493e+00 3.498254e+00 3.540571e+00 3.111943e+00 5.155088e+00
<GCONST> 1.117128e+02
<STATE> 3
<MEAN> 25
 2.559742e+00 -1.007086e-02 -1.725712e+00 -3.323503e+00 -1.849857e+00 -2.554593e-01 -1.564090e+00 -1.891908e+00 -1.330053e+00 -3.140575e-01 -2.927068e-01 -1.402118e+00 -6.136138e-03 -4.370030e-02 3.409992e-02 -1.689081e-03 -1.755572e-02 9.803381e-03 5.875469e-02 3.057167e-02 4.416730e-02 -8.731943e-03 2.008741e-03 1.034204e-02 1.537149e-02
<VARIANCE> 25
 5.508917e+01 4.395213e+01 5.913004e+01 8.417297e+01 5.453270e+01 8.733019e+01 6.202605e+01 6.655415e+01 5.490814e+01 5.078425e+01 4.266539e+01 3.808879e+01 3.408330e+00 3.040450e+00 3.267726e+00 5.026720e+00 4.171018e+00 5.423648e+00 4.562177e+00 5.113351e+00 4.257016e+00 3.990993e+00 3.512226e+00 3.133795e+00 2.878934e+00
<GCONST> 1.120664e+02
<STATE> 4
<MEAN> 25
 8.376476e-01 1.574397e-01 2.512756e-01 2.917159e-01 -3.766844e-01 -4.470836e-01 -3.416632e-01 -2.219899e-01 2.273687e-01 -1.481247e-01 -3.656252e-01 -4.160016e-01 -3.099964e-02 9.801343e-03 3.199006e-03 2.071746e-02 2.714718e-02 1.261373e-02 1.981314e-03 8.907946e-03 -2.444873e-05 -2.116843e-03 -1.325277e-03 -1.084535e-03 -2.103946e-02
<VARIANCE> 25
 5.566561e+01 4.623432e+01 6.720278e+01 4.822633e+01 7.486005e+01 5.844320e+01 4.988602e+01 5.585308e+01 4.263535e+01 4.505045e+01 4.050977e+01 3.400770e+01 3.316909e+00 2.569993e+00 3.145713e+00 3.049211e+00 4.121152e+00 3.939496e+00 3.606914e+00 4.093313e+00 3.222668e+00 3.167222e+00 2.956733e+00 2.404451e+00 2.616295e+00
<GCONST> 1.081179e+02
<TRANSP> 5
 0.000000e+00 1.000000e+00 0.000000e+00 0.000000e+00 0.000000e+00
 0.000000e+00 9.687757e-01 3.122428e-02 0.000000e+00 0.000000e+00
 0.000000e+00 0.000000e+00 9.755156e-01 2.448444e-02 0.000000e+00
 0.000000e+00 0.000000e+00 0.000000e+00 9.946095e-01 5.390484e-03
 0.000000e+00 0.000000e+00 0.000000e+00 0.000000e+00 0.000000e+00
<ENDHMM>
~h "l5_i"
<BEGINHMM>
<NUMSTATES> 5
<STATE> 2
<MEAN> 25
 4.151768e+00 -1.572333e+00 -3.015550e+00 -5.096913e+00 -1.749474e+00 1.053841e-01 -1.106860e+00 -2.276691e+00 -7.480238e-01 -1.306559e+00 -2.196849e+00 -1.814919e+00 1.925099e-01 -8.714626e-02 -1.058340e-01 -1.878164e-01 -4.503470e-02 2.312514e-02 -6.393608e-02 -4.218137e-02 5.014249e-03 -6.608731e-02 -6.538781e-02 -6.273846e-02 6.037168e-02
<VARIANCE> 25
 3.358370e+01 4.835271e+01 7.126527e+01 7.514733e+01 6.804945e+01 9.269303e+01 6.455746e+01 5.459275e+01 5.298349e+01 4.633296e+01 5.284496e+01 3.228457e+01 2.480645e+00 3.293362e+00 2.954361e+00 4.392654e+00 4.049165e+00 4.530489e+00 4.052480e+00 3.988491e+00 4.093290e+00 3.309457e+00 3.565129e+00 2.967547e+00 2.115145e+00
<GCONST> 1.101600e+02
<STATE> 3
<MEAN> 25
 4.094619e+00 -7.550033e-01 -3.088694e+00 -5.594661e+00 -1.816932e+00 -1.371558e-02 -1.041362e+00 -2.320378e+00 -5.845349e-01 -8.687322e-01 -2.545964e+00 -2.323628e+00 -3.102063e-02 1.156927e-02 4.557009e-02 9.793567e-02 1.164940e-02 -3.454670e-02 -4.632634e-03 4.007432e-02 4.267344e-02 1.575425e-02 2.359963e-02 9.910649e-04 -2.564880e-02
<VARIANCE> 25
 3.616801e+01 4.696025e+01 6.800376e+01 7.811993e+01 7.481686e+01 7.870816e+01 6.585728e+01 5.273783e+01 4.706136e+01 4.717899e+01 5.200833e+01 3.199533e+01 1.992798e+00 2.895013e+00 2.740499e+00 3.996812e+00 3.855613e+00 4.329616e+00 3.761957e+00 3.620795e+00 3.530584e+00 3.146882e+00 3.309760e+00 2.649120e+00 1.808678e+00
<GCONST> 1.086626e+02
<STATE> 4
<MEAN> 25
 9.573793e-01 3.440154e-01 1.144127e-01 5.322701e-03 -8.481222e-01 -6.051782e-01 -4.930120e-01 -4.736038e-01 9.680276e-02 -3.806893e-01 -2.632340e-01 -4.431327e-01 -3.097929e-02 9.493369e-03 1.363551e-02 1.919088e-02 1.267931e-02 9.405726e-03 1.291760e-02 1.329188e-02 -3.246341e-04 3.513124e-03 8.113919e-03 1.148885e-02 -1.821790e-02
<VARIANCE> 25
 4.523526e+01 3.957269e+01 5.541326e+01 3.865112e+01 6.984229e+01 5.288013e+01 4.646964e+01 5.765752e+01 4.756558e+01 4.050029e+01 3.490338e+01 3.157160e+01 2.470861e+00 2.033808e+00 2.276296e+00 2.181694e+00 3.749725e+00 3.215528e+00 3.006627e+00 3.289774e+00 2.902563e+00 2.665392e+00 2.361792e+00 2.277856e+00 1.244305e+00
<GCONST> 1.037278e+02
<TRANSP> 5
 0.000000e+00 1.000000e+00 0.000000e+00 0.000000e+00 0.000000e+00
 0.000000e+00 9.397299e-01 6.027009e-02 0.000000e+00 0.000000e+00
 0.000000e+00 0.000000e+00 9.660147e-01 3.398534e-02 0.000000e+00
 0.000000e+00 0.000000e+00 0.000000e+00 9.953027e-01 4.697376e-03
 0.000000e+00 0.000000e+00 0.000000e+00 0.000000e+00 0.000000e+00
<ENDHMM>
~h "l5_u"
<BEGINHMM>
<NUMSTATES> 5
<STATE> 2
<MEAN> 25
 1.277920e+00 -3.748599e-01 -1.698164e+00 -2.076588e+00 -2.891485e-01 -9.523340e-01 -3.382413e-01 -3.225620e-01 -6.009318e-01 -2.977832e-01 -1.060133e+00 -7.841252e-01 1.301743e-01 -8.461230e-02 -2.507310e-02 -1.335556e-01 -3.443546e-02 -1.186637e-01 -5.435512e-02 -5.200758e-02 -7.875360e-02 -4.087884e-03 -1.843794e-02 -6.893016e-02 2.353409e-01
<VARIANCE> 25
 5.933337e+01 5.010940e+01 5.533635e+01 6.274221e+01 6.145010e+01 7.281611e+01 6.262971e+01 5.726256e+01 5.035264e+01 3.247273e+01 3.112238e+01 2.928273e+01 4.272254e+00 3.681998e+00 3.668961e+00 4.377820e+00 4.722458e+00 6.105740e+00 5.398119e+00 5.882668e+00 4.004482e+00 3.201901e+00 3.214256e+00 2.764705e+00 3.811608e+00
<GCONST> 1.113276e+02
<STATE> 3
<MEAN> 25
 1.402692e+00 -1.151799e+00 -1.250923e+00 -1.910077e+00 -6.478419e-01 -1.374976e+00 -8.546248e-01 -5.302858e-01 -9.643770e-01 -6.076930e-01 -9.256715e-01 -1.283377e+00 -4.181768e-02 2.273963e-02 5.558079e-02 3.022227e-02 -6.356884e-03 -3.341771e-02 -4.406312e-03 -3.684923e-02 -5.303951e-03 -2.101312e-02 1.098067e-02 5.447212e-03 5.359376e-02
<VARIANCE> 25
 5.799857e+01 5.147353e+01 6.157970e+01 5.962893e+01 6.719216e+01 8.149628e+01 5.772976e+01 5.171186e+01 6.440202e+01 3.593483e+01 3.779694e+01 3.152819e+01 4.049129e+00 3.713257e+00 3.868776e+00 4.211316e+00 5.093216e+00 5.817725e+00 4.988142e+00 5.280762e+00 4.583910e+00 3.285454e+00 3.592481e+00 2.866252e+00 2.514255e+00
<GCONST> 1.117234e+02
<STATE> 4
<MEAN> 25
 1.189255e+00 8.699356e-01 -2.931680e-02 -1.156624e+00 -8.535023e-01 -8.227199e-01 -6.914877e-01 -1.246646e+00 -5.109485e-01 -3.078008e-01 -4.496020e-01 -6.366884e-01 -2.557651e-02 1.355426e-02 6.600732e-03 1.510806e-02 1.985033e-02 2.229682e-02 4.522636e-03 1.671714e-02 7.192936e-03 5.243532e-03 4.998852e-03 4.533186e-03 -3.851228e-02
<VARIANCE> 25
 6.149499e+01 4.057120e+01 6.119612e+01 7.110052e+01 5.831366e+01 7.098852e+01 4.943851e+01 4.281406e+01 4.235560e+01 3.538948e+01 3.638111e+01 2.923132e+01 3.266432e+00 2.618124e+00 2.798038e+00 3.473508e+00 3.263067e+00 4.101967e+00 3.387590e+00 3.249407e+00 3.032266e+00 2.793510e+00 2.859619e+00 2.285157e+00 2.008870e+00
<GCONST> 1.065391e+02
<TRANSP> 5
 0.000000e+00 1.000000e+00 0.000000e+00 0.000000e+00 0.000000e+00
 0.000000e+00 9.292476e-01 7.075238e-02 0.000000e+00 0.000000e+00
 0.000000e+00 0.000000e+00 9.523838e-01 4.761620e-02 0.000000e+00
 0.000000e+00 0.000000e+00 0.000000e+00 9.934902e-01 6.509759e-03
 0.000000e+00 0.000000e+00 0.000000e+00 0.000000e+00 0.000000e+00
<ENDHMM>
~h "sil"
<BEGINHMM>
<NUMSTATES> 5
<STATE> 2
<MEAN> 25
 -3.134574e+00 -1.140437e+00 1.403230e-01 1.700197e+00 2.364954e+00 2.131610e+00 1.640878e+00 1.844385e+00 4.738647e-01 5.359373e-01 1.039805e+00 1.780148e+00 -1.837905e-02 -3.075709e-03 -9.067975e-03 1.120613e-02 1.557405e-02 2.682252e-02 2.278635e-02 1.517072e-03 -5.195774e-03 4.765052e-03 1.167811e-02 1.611234e-02 -4.980199e-02
<VARIANCE> 25
 3.105857e+01 2.943707e+01 2.608461e+01 2.539660e+01 3.702777e+01 3.304402e+01 2.734043e+01 3.016805e+01 2.581749e+01 2.480635e+01 2.421221e+01 2.146590e+01 8.260906e-01 9.106011e-01 1.003995e+00 1.165089e+00 1.517042e+00 1.645514e+00 1.679638e+00 1.828943e+00 1.740763e+00 1.698171e+00 1.573784e+00 1.400573e+00 5.433908e-01
<GCONST> 8.897468e+01
<STATE> 3
<MEAN> 25
 -3.901562e+00 -5.299470e-01 8.280671e-02 1.755678e+00 2.061823e+00 2.040451e+00 1.770755e+00 1.896391e+00 6.217878e-01 2.408206e-01 8.153173e-01 1.753008e+00 1.347193e-01 7.438581e-02 5.820315e-02 -8.377513e-02 -1.412039e-01 -1.274322e-01 -8.090866e-02 -7.925904e-02 -2.259610e-02 -6.703687e-02 -5.833222e-02 -1.287317e-01 3.046051e-01
<VARIANCE> 25
 5.134186e+01 4.216467e+01 3.349037e+01 2.764145e+01 4.183047e+01 4.034317e+01 3.305764e+01 3.164049e+01 2.800336e+01 2.828756e+01 2.639273e+01 2.248034e+01 2.347130e+00 2.001949e+00 1.863847e+00 1.760809e+00 2.611208e+00 2.828125e+00 2.396667e+00 2.420966e+00 2.205496e+00 2.145269e+00 1.957514e+00 1.817143e+00 2.407285e+00
<GCONST> 9.809687e+01
<STATE> 4
<MEAN> 25
 5.915614e-01 4.893679e-01 1.769558e-01 -2.389705e-02 -4.691345e-01 -4.672865e-01 -1.234220e-01 -2.542957e-01 1.514787e-02 4.817254e-02 -1.186305e-01 -2.909257e-01 1.438167e-02 1.599423e-03 -2.081611e-03 -7.902677e-03 -5.955736e-03 -8.812746e-03 -8.025263e-03 -4.913623e-03 -1.617289e-03 -7.459024e-05 -2.133303e-03 -4.766849e-03 7.001509e-03
<VARIANCE> 25
 5.933415e+01 4.260964e+01 6.236006e+01 4.765826e+01 6.177776e+01 6.065582e+01 5.104414e+01 5.171840e+01 4.579730e+01 3.735276e+01 3.591549e+01 3.158589e+01 3.035106e+00 2.365634e+00 2.728274e+00 2.675879e+00 3.557009e+00 3.780202e+00 3.348998e+00 3.480188e+00 3.127091e+00 2.747045e+00 2.561669e+00 2.300700e+00 1.931505e+00
<GCONST> 1.059615e+02
<TRANSP> 5
 0.000000e+00 1.000000e+00 0.000000e+00 0.000000e+00 0.000000e+00
 0.000000e+00 9.829015e-01 1.709852e-02 0.000000e+00 0.000000e+00
 0.000000e+00 0.000000e+00 8.715627e-01 1.284373e-01 0.000000e+00
 0.000000e+00 0.000000e+00 0.000000e+00 9.908367e-01 9.163251e-03
 0.000000e+00 0.000000e+00 0.000000e+00 0.000000e+00 0.000000e+00
<ENDHMM>
