~o
<STREAMINFO> 1 25
<VECSIZE> 25<NULLD><MFCC_D_N_Z_0><DIAGC>
~s "silst"
<MEAN> 25
 -7.413214e+00 1.065162e+00 -1.170780e+00 1.757161e+00 3.381593e+00 1.550766e+00 1.516986e+00 2.563999e+00 1.418432e+00 2.107817e-01 4.550687e-01 1.894370e+00 2.752417e-01 -2.098009e-01 5.714376e-02 -1.940756e-01 -2.025651e-01 -2.459730e-01 -1.116004e-01 -7.456556e-02 -1.128285e-02 -1.207105e-01 -9.803193e-02 -1.378154e-01 5.993338e-01
<VARIANCE> 25
 6.841402e+01 5.469789e+01 3.519060e+01 2.595211e+01 3.821227e+01 3.878752e+01 3.228798e+01 2.647499e+01 2.469913e+01 2.682060e+01 2.511695e+01 2.017951e+01 5.450077e+00 3.080093e+00 2.210201e+00 2.215770e+00 3.291889e+00 3.630469e+00 2.805930e+00 2.623899e+00 2.394016e+00 2.391001e+00 2.226237e+00 1.993042e+00 4.061240e+00
<GCONST> 1.012903e+02
~h "l1_i"
<BEGINHMM>
<NUMSTATES> 5
<STATE> 2
<MEAN> 25
 2.943828e+00 -1.451561e+00 -4.067841e+00 -2.869035e+00 7.749111e-01 2.582224e-01 -2.119611e+00 -2.012333e+00 -1.567455e+00 -1.677221e+00 -1.083548e+00 -2.157689e+00 2.826905e-01 -2.283536e-01 -3.431993e-01 -3.894033e-01 -8.158010e-02 -6.454356e-02 -7.582808e-02 -6.348537e-02 4.471160e-02 -5.898349e-02 -8.915839e-02 -8.079125e-02 3.758634e-01
<VARIANCE> 25
 5.094372e+01 5.163801e+01 5.576877e+01 6.393634e+01 5.654502e+01 7.280775e+01 6.974154e+01 6.365974e+01 4.858751e+01 4.626751e+01 4.550485e+01 3.650752e+01 4.490180e+00 3.930935e+00 4.677691e+00 5.702133e+00 5.149616e+00 6.424993e+00 6.165441e+00 6.078875e+00 4.769080e+00 4.183377e+00 4.078796e+00 3.842440e+00 4.351637e+00
<GCONST> 1.143484e+02
<STATE> 3
<MEAN> 25
 5.292779e+00 -1.924931e+00 -4.392262e+00 -4.920997e+00 -3.177445e+00 -5.641656e-01 -1.412123e+00 -1.958103e+00 4.564693e-01 -1.903142e+00 -2.468816e+00 -1.687002e+00 -3.103120e-02 1.171830e-01 1.485082e-01 1.512222e-01 -6.009975e-03 -7.442727e-02 3.756901e-02 -1.506423e-02 3.376502e-02 5.918158e-02 -9.314085e-03 6.345388e-03 -1.304094e-01
<VARIANCE> 25
 1.507533e+01 3.964665e+01 8.159413e+01 6.423010e+01 5.825079e+01 9.573589e+01 6.414663e+01 9.151369e+01 6.469630e+01 5.983158e+01 4.579959e+01 3.967131e+01 6.667722e-01 2.145858e+00 2.760957e+00 2.847077e+00 3.532475e+00 3.178553e+00 3.037216e+00 4.125541e+00 3.381353e+00 3.315902e+00 2.829527e+00 2.398057e+00 9.246767e-01
<GCONST> 1.055945e+02
<STATE> 4
<MEAN> 25
 -1.671837e-01 6.174271e-01 7.916350e-01 1.583111e-01 1.850280e-01 -6.972694e-01 -8.665369e-01 -1.709284e-01 -1.817866e-01 -2.362701e-01 4.841138e-01 -3.237568e-01 -7.833327e-02 -7.537451e-03 1.108066e-02 1.996820e-02 3.016033e-02 4.773480e-02 3.150225e-02 3.700358e-02 3.224852e-04 3.623915e-03 2.406733e-02 1.666191e-02 -3.696139e-03
<VARIANCE> 25
 8.179150e+01 4.777567e+01 6.684437e+01 5.045590e+01 5.607716e+01 5.908979e+01 5.463543e+01 5.624091e+01 5.032050e+01 3.396460e+01 3.777261e+01 3.085899e+01 5.112976e+00 3.068224e+00 3.630351e+00 3.320553e+00 4.336446e+00 4.803699e+00 4.227346e+00 4.284363e+00 3.764176e+00 3.102607e+00 3.300110e+00 2.766151e+00 3.227158e+00
<GCONST> 1.099981e+02
<TRANSP> 5
 0.000000e+00 1.000000e+00 0.000000e+00 0.000000e+00 0.000000e+00
 0.000000e+00 9.551691e-01 4.483083e-02 0.000000e+00 0.000000e+00
 0.000000e+00 0.000000e+00 9.738576e-01 2.614235e-02 0.000000e+00
 0.000000e+00 0.000000e+00 0.000000e+00 9.893457e-01 1.065432e-02
 0.000000e+00 0.000000e+00 0.000000e+00 0.000000e+00 0.000000e+00
<ENDHMM>
~h "l1_u"
<BEGINHMM>
<NUMSTATES> 5
<STATE> 2
<MEAN> 25
 9.627057e-02 1.757660e+00 4.174419e+00 8.729396e-01 -3.472077e+00 -3.593865e+00 -1.077613e+00 -1.556415e+00 -2.971363e+00 -1.011057e+00 1.992505e+00 2.625181e-01 4.693149e-01 3.485188e-02 -2.259371e-01 -2.008684e-01 -1.107952e-01 -2.630232e-01 -1.793651e-01 -1.492423e-01 -2.024655e-01 -2.101151e-01 -7.231783e-02 -1.261745e-01 3.717650e-01
<VARIANCE> 25
 7.231956e+01 4.362716e+01 8.170840e+01 4.353249e+01 7.738097e+01 5.601657e+01 4.124030e+01 5.821822e+01 5.079825e+01 3.594284e+01 3.953847e+01 4.671227e+01 5.427203e+00 3.579081e+00 6.873085e+00 4.279321e+00 6.021286e+00 5.295239e+00 4.826114e+00 4.568967e+00 4.692272e+00 3.972599e+00 3.946793e+00 3.894776e+00 2.807100e+00
<GCONST> 1.129629e+02
<STATE> 3
<MEAN> 25
 4.579646e+00 -1.021999e+00 -4.712129e+00 -8.933678e-01 9.554065e-01 -3.897393e+00 -2.919985e+00 -1.092775e+00 -1.875379e+00 -2.228523e+00 -1.516236e+00 -8.465691e-01 -1.122700e-01 -3.153813e-02 5.325272e-02 4.717794e-02 6.077610e-02 3.840646e-02 -4.700196e-03 1.940298e-02 8.660156e-02 1.049269e-01 1.214147e-04 2.467495e-02 -4.254959e-02
<VARIANCE> 25
 4.077765e+01 3.789603e+01 7.033353e+01 5.230814e+01 7.333238e+01 7.837515e+01 8.712039e+01 8.216968e+01 6.728017e+01 5.890989e+01 5.393496e+01 5.753372e+01 2.679388e+00 2.973936e+00 4.032039e+00 3.185152e+00 4.210749e+00 4.977564e+00 6.047665e+00 5.491763e+00 4.922282e+00 4.405499e+00 3.942057e+00 3.972849e+00 2.557479e+00
<GCONST> 1.132985e+02
<STATE> 4
<MEAN> 25
 1.623039e+00 5.703858e-01 -1.594432e+00 -2.825388e+00 -1.512189e+00 1.331692e-03 -3.018990e-01 -3.524219e+00 2.507401e-01 9.477102e-01 -5.590263e-01 -1.737131e+00 -8.690815e-02 3.293654e-02 1.259276e-02 2.840784e-02 -2.637737e-02 7.013659e-02 4.617456e-02 3.388049e-02 1.708406e-02 2.522273e-02 1.270638e-02 1.759001e-02 -7.652725e-02
<VARIANCE> 25
 5.591085e+01 4.526350e+01 6.247116e+01 6.344248e+01 6.275324e+01 6.634655e+01 6.182891e+01 4.934180e+01 5.853569e+01 3.850418e+01 3.428093e+01 4.416109e+01 2.812721e+00 2.174509e+00 2.439654e+00 3.102635e+00 3.796355e+00 4.167191e+00 3.250242e+00 3.374751e+00 3.356877e+00 2.683343e+00 2.734299e+00 2.451318e+00 1.031573e+00
<GCONST> 1.065911e+02
<TRANSP> 5
 0.000000e+00 1.000000e+00 0.000000e+00 0.000000e+00 0.000000e+00
 0.000000e+00 9.467239e-01 5.327609e-02 0.000000e+00 0.000000e+00
 0.000000e+00 0.000000e+00 9.686210e-01 3.137903e-02 0.000000e+00
 0.000000e+00 0.000000e+00 0.000000e+00 9.775927e-01 2.240729e-02
 0.000000e+00 0.000000e+00 0.000000e+00 0.000000e+00 0.000000e+00
<ENDHMM>
~h "l2_i"
<BEGINHMM>
<NUMSTATES> 5
<STATE> 2
<MEAN> 25
 -1.645768e+00 2.773372e-01 -8.430299e-01 -1.111698e+00 6.469946e-01 8.767821e-01 1.432746e-01 -1.737324e+00 -7.127224e-01 -9.107910e-01 -2.599003e-03 -6.398458e-01 4.594825e-01 -1.612487e-01 -2.638873e-01 -3.514865e-01 -1.438188e-01 -1.489068e-01 -1.452097e-01 -1.418913e-01 1.156983e-02 -1.805285e-01 -9.821706e-02 -1.058843e-01 5.339434e-01
<VARIANCE> 25
 9.326141e+01 4.573304e+01 7.382065e+01 5.539435e+01 5.115173e+01 7.318427e+01 6.140209e+01 4.642426e+01 4.386485e+01 3.584022e+01 4.629149e+01 3.183521e+01 8.038674e+00 4.258896e+00 5.734063e+00 5.095331e+00 4.790418e+00 6.805071e+00 5.351172e+00 5.085077e+00 4.738957e+00 3.861537e+00 3.966217e+00 3.446276e+00 5.219699e+00
<GCONST> 1.143304e+02
<STATE> 3
<MEAN> 25
 5.718801e+00 -2.218995e+00 -2.578977e+00 -2.118125e+00 -2.788327e+00 -2.289834e+00 -2.273652e+00 -1.691581e+00 5.680557e-01 -1.918210e+00 -1.179919e+00 -1.994410e+00 -2.961447e-02 1.016919e-02 1.074744e-01 1.072748e-01 8.119747e-03 -4.944076e-02 4.826207e-03 3.069980e-03 9.014405e-03 5.095588e-02 9.402915e-03 1.178776e-02 -6.442285e-02
<VARIANCE> 25
 1.738089e+01 4.315514e+01 7.463321e+01 5.040442e+01 7.857777e+01 8.577592e+01 5.361255e+01 8.507408e+01 6.673513e+01 5.003849e+01 4.716070e+01 4.076501e+01 9.738930e-01 2.413284e+00 3.139424e+00 2.924366e+00 4.073243e+00 4.511346e+00 3.838506e+00 5.030151e+00 4.123907e+00 3.595625e+00 3.374569e+00 2.992914e+00 1.553267e+00
<GCONST> 1.081084e+02
<STATE> 4
<MEAN> 25
 1.626977e-01 4.587057e-01 3.398613e-01 -9.959717e-01 6.484956e-01 -2.813317e-01 -6.545224e-01 -1.697549e+00 4.127656e-01 2.315391e-01 6.059383e-01 -2.974964e-01 -1.039686e-01 4.544728e-02 -9.571223e-03 -1.483069e-02 6.542654e-02 4.639404e-02 4.598248e-02 5.935044e-02 -1.655956e-03 1.990275e-02 5.160360e-03 2.162394e-02 -2.724522e-02
<VARIANCE> 25
 8.451776e+01 4.872848e+01 6.703529e+01 6.411217e+01 6.286782e+01 6.068945e+01 5.524620e+01 5.065154e+01 4.044777e+01 3.748884e+01 3.416933e+01 3.053153e+01 5.222698e+00 3.272492e+00 3.433759e+00 3.930535e+00 4.169114e+00 4.367226e+00 3.782143e+00 3.725989e+00 3.209076e+00 2.902459e+00 2.779648e+00 2.505990e+00 2.276325e+00
<GCONST> 1.090773e+02
<TRANSP> 5
 0.000000e+00 1.000000e+00 0.000000e+00 0.000000e+00 0.000000e+00
 0.000000e+00 9.516448e-01 4.835514e-02 0.000000e+00 0.000000e+00
 0.000000e+00 0.000000e+00 9.800811e-01 1.991888e-02 0.000000e+00
 0.000000e+00 0.000000e+00 0.000000e+00 9.854284e-01 1.457158e-02
 0.000000e+00 0.000000e+00 0.000000e+00 0.000000e+00 0.000000e+00
<ENDHMM>
~h "l2_u"
<BEGINHMM>
<NUMSTATES> 5
<STATE> 2
<MEAN> 25
 3.374542e+00 -3.865014e+00 -6.306970e+00 -3.299887e+00 1.297886e+00 -8.086280e-01 -3.281864e+00 -1.996209e+00 1.720507e-01 -1.350295e+00 -2.246509e+00 -2.282853e+00 3.424784e-01 -3.292650e-01 -2.601408e-01 -2.900541e-01 -1.643115e-01 -2.191218e-01 -1.065982e-01 7.513528e-02 2.740659e-02 -3.491510e-02 -1.734338e-01 -1.189902e-01 3.435609e-01
<VARIANCE> 25
 4.283892e+01 5.902838e+01 6.700855e+01 5.293632e+01 7.075484e+01 7.061480e+01 7.509148e+01 4.862749e+01 4.972570e+01 7.403316e+01 5.063569e+01 3.200904e+01 3.505887e+00 3.988252e+00 4.942167e+00 4.414127e+00 5.534922e+00 5.346586e+00 5.933930e+00 5.733650e+00 4.691518e+00 5.453007e+00 4.961326e+00 3.108777e+00 2.770707e+00
<GCONST> 1.139093e+02
<STATE> 3
<MEAN> 25
 3.773749e+00 -2.265197e+00 -1.175494e+00 -3.684823e+00 -4.853824e+00 -1.847811e+00 -2.149046e+00 -1.911916e+00 -1.715134e+00 -1.138219e+00 -2.386718e+00 -3.393533e+00 -2.070116e-02 7.917371e-02 9.529058e-02 1.209271e-01 -8.242657e-03 -2.509319e-02 3.953240e-02 -3.935608e-02 2.567812e-02 5.706943e-02 4.718186e-02 -5.293823e-03 -1.352491e-01
<VARIANCE> 25
 1.600664e+01 3.482583e+01 6.337511e+01 4.647763e+01 6.341422e+01 6.338230e+01 5.050766e+01 7.073571e+01 6.510098e+01 5.676786e+01 5.277117e+01 3.388655e+01 7.213379e-01 1.803656e+00 2.374872e+00 2.474881e+00 2.971091e+00 3.307737e+00 3.063215e+00 4.333681e+00 3.516822e+00 3.366027e+00 3.252416e+00 2.554438e+00 9.506148e-01
<GCONST> 1.038854e+02
<STATE> 4
<MEAN> 25
 5.601447e-01 8.061571e-01 -1.158189e+00 -1.427153e+00 1.780445e-01 -2.751762e-01 3.283066e-01 -4.275776e-01 4.195706e-01 4.236097e-01 -5.267787e-02 -5.233866e-01 -6.442054e-02 2.130987e-02 -1.386733e-03 2.146166e-02 5.873042e-02 6.415045e-02 2.916793e-02 5.234976e-02 5.390736e-03 -1.178600e-02 1.243079e-02 3.353114e-02 -1.396998e-02
<VARIANCE> 25
 7.499056e+01 4.861142e+01 7.026731e+01 7.328372e+01 5.336316e+01 6.393632e+01 6.914174e+01 5.075149e+01 4.828809e+01 3.562650e+01 3.399097e+01 2.645098e+01 4.832795e+00 3.484236e+00 3.769145e+00 3.996652e+00 3.846668e+00 4.651338e+00 4.351151e+00 3.466720e+00 3.924760e+00 3.045278e+00 2.773362e+00 2.362854e+00 1.752928e+00
<GCONST> 1.093007e+02
<TRANSP> 5
 0.000000e+00 1.000000e+00 0.000000e+00 0.000000e+00 0.000000e+00
 0.000000e+00 9.528256e-01 4.717442e-02 0.000000e+00 0.000000e+00
 0.000000e+00 0.000000e+00 9.729429e-01 2.705704e-02 0.000000e+00
 0.000000e+00 0.000000e+00 0.000000e+00 9.862236e-01 1.377635e-02
 0.000000e+00 0.000000e+00 0.000000e+00 0.000000e+00 0.000000e+00
<ENDHMM>
~h "l3_i"
<BEGINHMM>
<NUMSTATES> 5
<STATE> 2
<MEAN> 25
 -1.527388e+00 -2.388446e-01 5.759516e-01 -5.381262e-01 8.048752e-02 -2.196357e+00 -2.373777e+00 -2.990552e+00 -1.019137e+00 -6.691957e-01 -5.304651e-01 -1.773342e+00 3.337924e-01 -1.136615e-01 -1.665815e-01 -2.689294e-01 -1.771215e-01 -1.589355e-01 -1.810211e-01 -8.561659e-02 2.844162e-02 -4.520197e-02 -9.713258e-02 -1.154909e-01 3.000683e-01
<VARIANCE> 25
 9.421170e+01 4.644976e+01 6.612920e+01 4.824446e+01 5.597638e+01 5.205483e+01 7.040894e+01 4.613574e+01 4.547395e+01 3.595429e+01 4.752338e+01 3.976888e+01 7.470666e+00 3.508455e+00 4.794216e+00 4.461311e+00 5.139274e+00 5.313652e+00 5.220560e+00 4.508845e+00 4.102118e+00 3.464765e+00 3.547071e+00 3.331216e+00 3.694914e+00
<GCONST> 1.126310e+02
<STATE> 3
<MEAN> 25
 4.587553e+00 -1.372708e+00 -5.337520e+00 -5.014591e+00 4.085682e-01 8.953112e-01 -1.858228e+00 -1.738554e+00 -2.382812e-02 -7.989858e-01 -2.763773e-01 -2.562190e+00 -2.868035e-02 6.216931e-03 4.100801e-02 4.472433e-02 1.763838e-02 1.076352e-02 4.795250e-02 8.938845e-02 1.143849e-02 -1.278383e-02 -1.843915e-02 3.327567e-02 -4.882505e-02
<VARIANCE> 25
 3.289411e+01 5.050704e+01 5.115625e+01 7.291763e+01 5.951984e+01 7.688502e+01 6.008408e+01 6.298636e+01 5.050800e+01 5.046331e+01 4.410155e+01 3.569882e+01 2.354866e+00 3.087112e+00 3.492425e+00 4.768422e+00 4.371902e+00 5.246478e+00 4.331645e+00 4.484270e+00 4.098262e+00 3.644119e+00 3.542734e+00 3.037777e+00 2.486641e+00
<GCONST> 1.103451e+02
<STATE> 4
<MEAN> 25
 1.834013e+00 6.924266e-01 1.065329e+00 -9.378588e-01 -3.791148e+00 -2.808459e+00 -4.142653e-03 -6.358453e-02 7.299789e-03 6.923733e-02 -1.989831e+00 -1.300390e+00 -8.339409e-02 2.835549e-02 6.355399e-02 6.166454e-02 4.271094e-02 4.231725e-02 4.862231e-02 1.618257e-02 1.602183e-02 4.217071e-02 1.091684e-02 -4.296389e-03 -9.495045e-02
<VARIANCE> 25
 3.064899e+01 3.776137e+01 4.998951e+01 3.257479e+01 6.614017e+01 4.343560e+01 6.070573e+01 5.167089e+01 4.187983e+01 4.689845e+01 3.343901e+01 4.769197e+01 1.649647e+00 1.627672e+00 2.029599e+00 1.957104e+00 3.276963e+00 2.827897e+00 3.660166e+00 3.395342e+00 2.723639e+00 2.934889e+00 2.515775e+00 2.126561e+00 1.006546e+00
<GCONST> 1.022431e+02
<TRANSP> 5
 0.000000e+00 1.000000e+00 0.000000e+00 0.000000e+00 0.000000e+00
 0.000000e+00 9.584858e-01 4.151421e-02 0.000000e+00 0.000000e+00
 0.000000e+00 0.000000e+00 9.782683e-01 2.173173e-02 0.000000e+00
 0.000000e+00 0.000000e+00 0.000000e+00 9.773395e-01 2.266048e-02
 0.000000e+00 0.000000e+00 0.000000e+00 0.000000e+00 0.000000e+00
<ENDHMM>
~h "l3_u"
<BEGINHMM>
<NUMSTATES> 5
<STATE> 2
<MEAN> 25
 -3.275374e+00 -1.811089e-01 2.528867e+00 1.322705e+00 -1.273790e-01 -1.352703e+00 -6.942706e-01 -3.006706e+00 -1.508216e+00 -2.299740e-01 1.639291e+00 4.630799e-01 8.787184e-01 -2.307383e-01 -1.818569e-01 -3.470203e-01 -5.756668e-01 -2.785755e-01 -1.936678e-01 -3.016646e-01 -1.405322e-01 -1.853235e-01 -1.885808e-01 -2.276232e-01 6.257748e-01
<VARIANCE> 25
 7.389947e+01 5.834142e+01 6.331677e+01 4.246871e+01 5.629766e+01 5.231159e+01 6.182526e+01 3.661277e+01 5.961703e+01 4.376128e+01 3.342570e+01 5.520335e+01 7.138190e+00 4.495898e+00 4.287236e+00 4.796350e+00 6.783278e+00 4.818173e+00 6.313012e+00 4.605686e+00 5.676943e+00 3.897669e+00 3.257829e+00 4.300170e+00 3.801007e+00
<GCONST> 1.137331e+02
<STATE> 3
<MEAN> 25
 5.214136e+00 -7.723504e-01 -2.007428e+00 -3.139034e+00 -2.575470e+00 -5.583102e-01 -2.543856e+00 -3.681238e+00 -2.845198e+00 -1.896020e+00 -5.984656e-01 -2.111829e+00 -9.718463e-03 1.458758e-03 -8.973610e-03 8.211369e-02 5.116695e-02 6.143688e-04 -1.221688e-02 2.092513e-02 1.579205e-02 -9.248792e-03 -8.393181e-03 -4.739831e-04 -8.896914e-02
<VARIANCE> 25
 1.786137e+01 4.208916e+01 7.788217e+01 7.525478e+01 6.638986e+01 7.468050e+01 5.987175e+01 6.785832e+01 7.326830e+01 6.310788e+01 4.133468e+01 4.881764e+01 1.103454e+00 2.642207e+00 3.496146e+00 4.152780e+00 3.931166e+00 4.706150e+00 4.241595e+00 5.353092e+00 4.412766e+00 4.327335e+00 3.475252e+00 3.149247e+00 1.823873e+00
<GCONST> 1.098418e+02
<STATE> 4
<MEAN> 25
 1.071246e+00 6.207314e-01 -1.140807e+00 -1.498133e+00 -4.364005e-01 -1.034398e+00 -6.405334e-01 -5.195476e-01 5.768209e-01 9.938360e-02 -5.232691e-01 -8.451074e-01 -7.687381e-02 2.604883e-02 1.442530e-02 9.025413e-04 3.459187e-02 8.474463e-03 5.009474e-02 1.354387e-02 1.433756e-02 1.001630e-02 3.359577e-03 1.391596e-02 -4.343772e-03
<VARIANCE> 25
 6.626716e+01 5.866255e+01 8.193381e+01 5.859239e+01 6.077539e+01 6.593572e+01 5.624535e+01 5.445602e+01 4.360738e+01 4.362098e+01 3.844891e+01 2.626006e+01 4.175105e+00 3.305939e+00 3.546119e+00 3.839068e+00 3.844409e+00 4.433961e+00 3.527549e+00 3.624654e+00 3.474778e+00 3.257222e+00 2.860835e+00 2.168266e+00 1.816966e+00
<GCONST> 1.089489e+02
<TRANSP> 5
 0.000000e+00 1.000000e+00 0.000000e+00 0.000000e+00 0.000000e+00
 0.000000e+00 9.066448e-01 9.335515e-02 0.000000e+00 0.000000e+00
 0.000000e+00 0.000000e+00 9.756572e-01 2.434286e-02 0.000000e+00
 0.000000e+00 0.000000e+00 0.000000e+00 9.866282e-01 1.337182e-02
 0.000000e+00 0.000000e+00 0.000000e+00 0.000000e+00 0.000000e+00
<ENDHMM>
~h "l4_i"
<BEGINHMM>
<NUMSTATES> 5
<STATE> 2
<MEAN> 25
 5.170343e+00 -3.741401e-01 -2.962317e+00 -3.980378e+00 -1.717907e+00 3.397498e-01 -7.338252e-01 -3.217961e+00 -1.628242e+00 -2.256763e+00 -2.326517e+00 -2.433702e+00 4.213173e-01 -3.107637e-01 -4.092614e-01 -3.789273e-01 4.698245e-03 -7.460686e-02 -1.965187e-01 3.739360e-02 2.526675e-01 -5.078111e-02 -1.672627e-01 -2.015816e-02 3.999248e-01
<VARIANCE> 25
 2.668154e+01 5.650529e+01 6.533483e+01 6.528637e+01 6.490025e+01 6.530617e+01 6.483502e+01 5.601171e+01 5.313195e+01 4.889331e+01 4.324940e+01 3.339085e+01 2.986146e+00 4.536425e+00 4.654851e+00 5.518048e+00 5.375750e+00 5.451425e+00 6.036506e+00 6.003648e+00 4.896533e+00 4.276874e+00 4.278544e+00 3.689206e+00 3.765848e+00
<GCONST> 1.132574e+02
<STATE> 3
<MEAN> 25
 5.429193e+00 -3.443819e+00 -2.729956e+00 -2.373454e+00 -2.217894e+00 -1.924374e+00 -1.115063e+00 1.013963e+00 1.175041e+00 -2.940908e+00 -2.883982e+00 -2.293668e+00 -2.377059e-02 1.250557e-01 1.299719e-01 1.322776e-01 -7.967959e-02 -1.016323e-01 3.900580e-02 4.209941e-02 -5.988887e-02 3.702741e-02 3.415631e-02 -9.599905e-03 -1.403846e-01
<VARIANCE> 25
 1.366821e+01 4.561486e+01 5.372081e+01 4.805292e+01 8.684293e+01 6.813964e+01 6.586929e+01 8.325966e+01 6.386301e+01 4.939161e+01 5.222256e+01 3.769974e+01 6.009158e-01 2.407323e+00 2.489817e+00 2.124276e+00 3.790395e+00 2.970454e+00 3.663064e+00 4.363325e+00 3.665274e+00 3.195439e+00 2.988022e+00 2.406002e+00 1.156129e+00
<GCONST> 1.049812e+02
<STATE> 4
<MEAN> 25
 3.785437e-01 1.440338e+00 6.991317e-01 -1.445367e+00 -4.522143e-01 -1.509521e-01 -7.066246e-01 -7.867408e-01 9.104270e-02 1.246128e-01 3.529465e-01 -4.512649e-01 -1.456150e-01 1.713433e-02 -3.508864e-03 1.791695e-02 8.785946e-02 9.025408e-02 2.248103e-02 9.966060e-03 2.426562e-02 2.214278e-02 3.621526e-02 4.225083e-02 -2.059115e-03
<VARIANCE> 25
 7.768749e+01 4.351238e+01 7.575539e+01 6.321106e+01 6.327031e+01 6.402531e+01 5.819917e+01 4.902975e+01 4.327585e+01 3.696387e+01 3.615067e+01 2.970584e+01 5.089565e+00 2.748060e+00 3.518942e+00 3.615390e+00 4.357296e+00 4.486273e+00 3.834981e+00 3.714265e+00 3.313368e+00 2.905459e+00 2.974869e+00 2.451878e+00 1.905581e+00
<GCONST> 1.088733e+02
<TRANSP> 5
 0.000000e+00 1.000000e+00 0.000000e+00 0.000000e+00 0.000000e+00
 0.000000e+00 9.413722e-01 5.862774e-02 0.000000e+00 0.000000e+00
 0.000000e+00 0.000000e+00 9.770319e-01 2.296811e-02 0.000000e+00
 0.000000e+00 0.000000e+00 0.000000e+00 9.855483e-01 1.445172e-02
 0.000000e+00 0.000000e+00 0.000000e+00 0.000000e+00 0.000000e+00
<ENDHMM>
~h "l4_u"
<BEGINHMM>
<NUMSTATES> 5
<STATE> 2
<MEAN> 25
 4.013029e-01 1.235099e-01 5.678294e-01 2.209465e-02 -1.301124e+00 -1.441714e+00 -1.620380e+00 -9.213752e-01 -1.411875e+00 -2.482660e-02 3.165924e-01 -8.227231e-01 1.200549e-01 -2.151540e-02 -4.563891e-02 -1.097687e-01 -6.714401e-02 -2.467200e-02 -8.015809e-02 -1.014749e-02 -1.177313e-02 -1.351868e-02 -2.363740e-02 -2.022849e-02 1.343587e-01
<VARIANCE> 25
 5.438761e+01 3.904533e+01 6.462289e+01 5.151124e+01 5.791197e+01 6.364870e+01 6.547929e+01 6.418098e+01 4.696828e+01 3.968833e+01 4.015297e+01 3.232131e+01 4.039313e+00 3.203520e+00 3.832272e+00 4.204790e+00 4.381564e+00 5.581659e+00 5.334620e+00 5.584018e+00 4.246350e+00 3.630788e+00 3.659712e+00 3.095601e+00 5.036841e+00
<GCONST> 1.116835e+02
<STATE> 3
<MEAN> 25
 5.973078e+00 -6.227295e-01 -4.521538e+00 -6.572832e+00 -4.187824e-01 2.612592e+00 -2.455096e+00 -1.920256e+00 -1.208276e+00 -7.218573e-01 -1.340870e+00 -2.127673e+00 -2.693159e-02 -6.071614e-02 7.759333e-02 1.163683e-01 -1.746497e-02 -5.060398e-02 1.126670e-01 1.737225e-02 2.491602e-02 -4.388976e-02 -2.846990e-02 -3.030331e-02 -3.553232e-02
<VARIANCE> 25
 1.869052e+01 3.922265e+01 5.260595e+01 8.804453e+01 9.287148e+01 8.671631e+01 6.433249e+01 6.470762e+01 6.597255e+01 6.251369e+01 4.746798e+01 4.376847e+01 1.226202e+00 2.380688e+00 2.897097e+00 4.614940e+00 4.029076e+00 4.492750e+00 3.959716e+00 4.232810e+00 4.026925e+00 4.272117e+00 3.572343e+00 3.287306e+00 1.331055e+00
<GCONST> 1.092500e+02
<STATE> 4
<MEAN> 25
 -3.984564e-02 2.482001e-01 1.654016e+00 7.995210e-01 -1.312448e+00 -8.608705e-01 4.457893e-01 2.993062e-01 2.079114e-01 -7.187368e-01 -4.986677e-01 -5.702375e-01 -2.653421e-01 1.184948e-01 -4.721231e-02 7.216055e-02 9.288618e-02 8.099248e-02 2.831893e-02 1.650024e-02 2.244005e-02 4.477505e-02 5.278003e-02 7.642861e-02 -8.506996e-02
<VARIANCE> 25
 5.804222e+01 5.354890e+01 7.091791e+01 4.930508e+01 7.307388e+01 5.545547e+01 4.583149e+01 4.801759e+01 3.484997e+01 5.064438e+01 3.113576e+01 2.993993e+01 4.818179e+00 3.271806e+00 3.676153e+00 3.389280e+00 5.390600e+00 4.540080e+00 3.545671e+00 3.845902e+00 3.015808e+00 3.396327e+00 2.853523e+00 2.343413e+00 2.343037e+00
<GCONST> 1.086340e+02
<TRANSP> 5
 0.000000e+00 1.000000e+00 0.000000e+00 0.000000e+00 0.000000e+00
 0.000000e+00 9.811867e-01 1.881325e-02 0.000000e+00 0.000000e+00
 0.000000e+00 0.000000e+00 9.712512e-01 2.874877e-02 0.000000e+00
 0.000000e+00 0.000000e+00 0.000000e+00 9.690402e-01 3.095981e-02
 0.000000e+00 0.000000e+00 0.000000e+00 0.000000e+00 0.000000e+00
<ENDHMM>
~h "l5_i"
<BEGINHMM>
<NUMSTATES> 5
<STATE> 2
<MEAN> 25
 3.396614e+00 1.672478e-03 -8.226830e-01 -2.511308e+00 -1.985605e+00 -1.092711e+00 -1.866575e+00 -1.654280e+00 -1.209475e+00 -5.478416e-01 -4.879586e-02 -1.219130e+00 2.173255e-01 -1.657764e-01 -1.920173e-01 -1.948887e-01 -4.691888e-02 2.420490e-02 -3.635863e-02 1.518250e-02 6.447430e-02 -1.011803e-01 -6.958704e-02 -1.303383e-02 1.599112e-01
<VARIANCE> 25
 3.747568e+01 5.463370e+01 6.740911e+01 6.449600e+01 5.488926e+01 7.191293e+01 6.089081e+01 5.718708e+01 5.780193e+01 4.445255e+01 5.423159e+01 3.750724e+01 3.325836e+00 4.123606e+00 4.335398e+00 5.014755e+00 4.203595e+00 5.573299e+00 4.922973e+00 4.709087e+00 5.024756e+00 4.137622e+00 3.995601e+00 3.872409e+00 3.419352e+00
<GCONST> 1.128521e+02
<STATE> 3
<MEAN> 25
 6.396411e+00 -2.360292e+00 -6.085689e+00 -6.271136e+00 -1.236475e+00 1.989003e+00 -1.049227e+00 -2.586780e+00 2.087405e+00 -8.438709e-01 -3.018198e+00 -2.307534e+00 -5.026203e-02 8.368623e-02 1.106004e-01 1.292091e-01 1.619103e-02 -4.124629e-02 1.660983e-02 4.250913e-02 4.999799e-02 5.901324e-02 2.857029e-03 5.123307e-05 -1.250365e-01
<VARIANCE> 25
 1.265730e+01 4.321541e+01 4.956571e+01 6.893465e+01 7.245397e+01 9.068979e+01 7.356966e+01 6.743918e+01 5.469284e+01 5.107862e+01 4.816198e+01 3.909253e+01 5.649180e-01 1.892635e+00 1.914586e+00 2.852311e+00 3.113435e+00 3.460137e+00 3.150973e+00 3.394612e+00 2.941230e+00 2.823289e+00 2.782706e+00 2.322894e+00 9.120275e-01
<GCONST> 1.035656e+02
<STATE> 4
<MEAN> 25
 1.455228e+00 8.817617e-01 2.080086e+00 -9.481364e-02 -3.282829e+00 -1.110238e+00 -4.802659e-01 -9.503294e-01 -5.033327e-01 -5.513377e-01 -7.829104e-01 -1.397577e+00 -2.351572e-01 7.160605e-02 3.604163e-02 6.935529e-02 8.881801e-02 6.268357e-02 9.309917e-02 2.584925e-02 -9.561075e-02 1.806558e-02 5.920257e-02 5.694269e-02 -7.348967e-02
<VARIANCE> 25
 3.633326e+01 4.282990e+01 5.796257e+01 3.445464e+01 8.332756e+01 4.065122e+01 4.387182e+01 5.723807e+01 5.565239e+01 4.847181e+01 3.360940e+01 2.745041e+01 2.834332e+00 2.270006e+00 2.491443e+00 1.970940e+00 4.398398e+00 3.035319e+00 3.562673e+00 3.550005e+00 3.320935e+00 2.947225e+00 2.266591e+00 2.306349e+00 1.169155e+00
<GCONST> 1.042533e+02
<TRANSP> 5
 0.000000e+00 1.000000e+00 0.000000e+00 0.000000e+00 0.000000e+00
 0.000000e+00 9.695929e-01 3.040711e-02 0.000000e+00 0.000000e+00
 0.000000e+00 0.000000e+00 9.758565e-01 2.414355e-02 0.000000e+00
 0.000000e+00 0.000000e+00 0.000000e+00 9.644516e-01 3.554844e-02
 0.000000e+00 0.000000e+00 0.000000e+00 0.000000e+00 0.000000e+00
<ENDHMM>
~h "l5_u"
<BEGINHMM>
<NUMSTATES> 5
<STATE> 2
<MEAN> 25
 9.580501e-01 1.310084e-01 -4.234294e+00 -3.367797e+00 2.158232e+00 1.436232e+00 -5.924213e-01 -1.792774e+00 -5.963857e-01 7.660167e-01 -4.015563e-01 -1.116241e+00 2.213943e-01 -1.863543e-01 -2.497191e-01 -3.372057e-01 -2.773068e-02 -1.825287e-01 -9.572269e-02 -7.368135e-02 -1.533697e-02 -2.568736e-02 -5.741104e-02 -1.612225e-01 3.951231e-01
<VARIANCE> 25
 7.509781e+01 5.159034e+01 4.739118e+01 7.487535e+01 4.420789e+01 5.650714e+01 6.952306e+01 5.736322e+01 4.147291e+01 2.884816e+01 3.031113e+01 2.879013e+01 5.347083e+00 3.870058e+00 3.519870e+00 5.335833e+00 4.406529e+00 5.694113e+00 6.187071e+00 5.285740e+00 3.449944e+00 3.417273e+00 3.225515e+00 3.159222e+00 3.868681e+00
<GCONST> 1.111705e+02
<STATE> 3
<MEAN> 25
 2.702597e+00 -1.336791e+00 -1.030597e+00 -1.689796e+00 -2.122140e+00 -3.179082e+00 -2.001362e+00 -1.350637e+00 -6.988458e-01 -1.141840e+00 -1.871999e+00 -1.703201e+00 -4.837167e-03 4.852686e-02 7.192010e-02 8.115505e-02 -3.017887e-02 6.458571e-03 1.406246e-02 -3.155081e-03 -3.591210e-02 9.889188e-03 8.159868e-03 2.520737e-02 -4.719574e-02
<VARIANCE> 25
 5.147885e+01 4.345499e+01 7.144736e+01 5.320299e+01 8.796405e+01 8.236040e+01 5.808195e+01 5.876894e+01 7.304779e+01 4.510547e+01 4.583571e+01 3.842857e+01 3.286630e+00 3.585343e+00 4.188544e+00 3.858550e+00 4.959287e+00 5.056805e+00 4.256993e+00 4.234310e+00 4.956172e+00 3.358707e+00 3.704829e+00 3.005965e+00 1.546521e+00
<GCONST> 1.115220e+02
<STATE> 4
<MEAN> 25
 3.348782e+00 1.742550e+00 -1.560974e+00 -3.632045e+00 -1.821297e+00 -3.716935e-01 -8.113472e-01 -2.958534e+00 -1.235096e+00 -7.701080e-01 -5.805463e-01 -1.142386e+00 -9.953852e-02 3.176456e-02 8.040573e-03 4.537211e-02 7.074509e-02 3.385193e-02 7.531816e-05 6.107857e-02 4.288805e-02 2.115118e-02 1.815553e-02 2.689523e-02 -5.493630e-02
<VARIANCE> 25
 4.106981e+01 3.459823e+01 5.916677e+01 9.790308e+01 5.176954e+01 6.929269e+01 5.927031e+01 4.234224e+01 4.068338e+01 3.675007e+01 3.979853e+01 3.113044e+01 2.381294e+00 2.087858e+00 2.509058e+00 4.106165e+00 2.950474e+00 3.710597e+00 3.443649e+00 3.571402e+00 3.215963e+00 2.886853e+00 2.971142e+00 2.358534e+00 1.996066e+00
<GCONST> 1.060206e+02
<TRANSP> 5
 0.000000e+00 1.000000e+00 0.000000e+00 0.000000e+00 0.000000e+00
 0.000000e+00 9.506629e-01 4.933719e-02 0.000000e+00 0.000000e+00
 0.000000e+00 0.000000e+00 9.809130e-01 1.908705e-02 0.000000e+00
 0.000000e+00 0.000000e+00 0.000000e+00 9.829927e-01 1.700725e-02
 0.000000e+00 0.000000e+00 0.000000e+00 0.000000e+00 0.000000e+00
<ENDHMM>
~h "sil"
<BEGINHMM>
<NUMSTATES> 5
<STATE> 2
<MEAN> 25
 -3.167880e+00 -8.880772e-01 3.889072e-01 2.071936e+00 2.612414e+00 2.404278e+00 1.892293e+00 1.737787e+00 4.703535e-01 5.714243e-01 9.122267e-01 1.773807e+00 -6.471629e-02 -7.114456e-03 -1.922623e-02 1.623414e-02 3.571500e-02 6.089971e-02 2.627641e-02 -2.922230e-03 -4.087321e-03 1.091174e-02 4.187928e-02 3.779519e-02 -1.199897e-01
<VARIANCE> 25
 2.825040e+01 2.741465e+01 2.065446e+01 2.131373e+01 2.995404e+01 2.958950e+01 2.386946e+01 2.909640e+01 2.377074e+01 2.464355e+01 2.314604e+01 1.980082e+01 3.127667e-01 5.048085e-01 6.353796e-01 7.959641e-01 1.026912e+00 1.186291e+00 1.302939e+00 1.436706e+00 1.436132e+00 1.402681e+00 1.315655e+00 1.207767e+00 1.883695e-01
<GCONST> 8.230807e+01
<STATE> 3
~s "silst"
<STATE> 4
<MEAN> 25
 2.563696e+00 4.532154e-01 6.710138e-01 -6.938136e-01 -1.874301e+00 -1.505324e+00 -9.734175e-01 -1.018981e+00 -4.887255e-01 -8.750729e-02 -3.192268e-01 -9.167253e-01 -1.704866e-02 5.908914e-02 3.482186e-03 3.485645e-02 2.189591e-02 2.066339e-02 7.252786e-03 1.091292e-02 1.409852e-03 2.011053e-02 -9.029236e-04 6.354357e-03 -6.954014e-02
<VARIANCE> 25
 4.401168e+01 4.305548e+01 7.454602e+01 5.329602e+01 6.832948e+01 6.627875e+01 5.588386e+01 5.762857e+01 5.238110e+01 4.138823e+01 4.014367e+01 3.376388e+01 3.199421e+00 2.671576e+00 3.297776e+00 3.183592e+00 4.265463e+00 4.375115e+00 3.843223e+00 4.159786e+00 3.607445e+00 3.109428e+00 2.924150e+00 2.594635e+00 1.875598e+00
<GCONST> 1.084380e+02
<TRANSP> 5
 0.000000e+00 1.000000e+00 0.000000e+00 0.000000e+00 0.000000e+00
 0.000000e+00 8.898473e-01 4.072823e-02 6.942445e-02 0.000000e+00
 0.000000e+00 0.000000e+00 8.895535e-01 1.104465e-01 0.000000e+00
 0.000000e+00 6.077353e-02 0.000000e+00 9.316709e-01 7.555546e-03
 0.000000e+00 0.000000e+00 0.000000e+00 0.000000e+00 0.000000e+00
<ENDHMM>
