~o
<STREAMINFO> 1 14
<VECSIZE> 14<NULLD><USER><DIAGC>
~s "silst"
<MEAN> 14
 -1.200133e+03 -8.799736e+00 -1.476327e+02 2.743949e+02 -2.277715e+02 1.528891e+02 3.805416e+02 6.639027e+00 -3.602645e+02 -9.786156e+00 4.112876e+00 4.980963e+01 -2.584512e+00 3.719794e+00
<VARIANCE> 14
 3.491207e+08 3.616237e+08 3.604577e+08 3.581740e+08 3.590915e+08 3.518156e+08 3.541308e+08 3.518546e+08 3.652837e+08 3.559299e+08 2.610595e+01 4.880220e+01 5.413982e+00 1.275972e+01
<GCONST> 2.340400e+02
~h "l1_i"
<BEGINHMM>
<NUMSTATES> 5
<STATE> 2
<MEAN> 14
 -2.882319e+03 -1.402999e+03 -2.340761e+02 -3.517390e+02 -4.336347e+02 -1.147170e+03 3.479743e+02 -2.879229e+02 1.285966e+03 -1.020444e+03 1.489000e+01 4.723360e+01 -1.643205e+00 1.717709e+00
<VARIANCE> 14
 3.557260e+08 3.439442e+08 3.544441e+08 3.699538e+08 3.461940e+08 3.652606e+08 3.322670e+08 3.582740e+08 3.614817e+08 3.372764e+08 1.618569e+02 2.780285e+01 1.164617e+00 2.685072e+00
<GCONST> 2.320819e+02
<STATE> 3
<MEAN> 14
 -2.005589e+03 -1.582003e+02 1.227596e+03 7.846209e+02 -1.470473e+03 9.742676e+00 -3.282547e+03 3.958250e+02 -1.152540e+03 1.696420e+03 5.959805e+00 4.517796e+01 -1.177799e+00 1.245394e+00
<VARIANCE> 14
 2.666654e+08 3.924450e+08 3.640861e+08 3.526818e+08 3.577557e+08 3.540454e+08 3.443549e+08 3.460374e+08 3.940483e+08 3.439355e+08 2.433101e+01 2.320166e+01 1.517976e-01 1.542137e-01
<GCONST> 2.250425e+02
<STATE> 4
<MEAN> 14
 -1.279596e+03 -8.423242e+02 2.603576e+02 7.221357e+02 2.793332e+02 -3.121801e+02 -8.796525e+02 6.055966e+02 1.415137e+02 -1.058796e+03 2.106222e+00 4.866885e+01 -1.235894e+00 1.643269e+00
<VARIANCE> 14
 3.417315e+08 3.542723e+08 3.504712e+08 3.512233e+08 3.408691e+08 3.455880e+08 3.632788e+08 3.432807e+08 3.764761e+08 3.505793e+08 2.111489e+00 2.367442e+01 3.213933e-01 8.064569e-01
<GCONST> 2.250727e+02
<TRANSP> 5
 0.000000e+00 1.000000e+00 0.000000e+00 0.000000e+00 0.000000e+00
 0.000000e+00 8.774752e-01 1.225248e-01 0.000000e+00 0.000000e+00
 0.000000e+00 0.000000e+00 7.658159e-01 2.341841e-01 0.000000e+00
 0.000000e+00 0.000000e+00 0.000000e+00 9.355062e-01 6.449387e-02
 0.000000e+00 0.000000e+00 0.000000e+00 0.000000e+00 0.000000e+00
<ENDHMM>
~h "l1_u"
<BEGINHMM>
<NUMSTATES> 5
<STATE> 2
<MEAN> 14
 -6.412077e+03 8.779990e+02 1.883465e+03 1.635897e+03 -1.293819e+03 3.570345e+02 4.739836e+02 -1.165900e+03 3.393925e+02 1.665664e+03 1.443227e+01 4.593862e+01 -1.534355e+00 2.094758e+00
<VARIANCE> 14
 3.115945e+08 3.234196e+08 3.718317e+08 3.792486e+08 3.792596e+08 3.247538e+08 3.563524e+08 3.543281e+08 3.727844e+08 3.241332e+08 2.324229e+02 3.318123e+01 7.077075e-01 3.436851e+00
<GCONST> 2.322716e+02
<STATE> 3
<MEAN> 14
 7.977101e+02 1.908335e+03 -1.360768e+03 -1.730916e+03 -1.076841e+03 2.776909e+02 -1.148278e+03 -2.544153e+03 2.434610e+03 -4.590585e+03 9.794582e+00 4.640105e+01 -1.160075e+00 1.184886e+00
<VARIANCE> 14
 3.222156e+08 3.716774e+08 3.279292e+08 3.119925e+08 3.550906e+08 3.478868e+08 3.298808e+08 3.818401e+08 3.228759e+08 2.956960e+08 5.606403e+01 2.182280e+01 9.899562e-02 1.500601e-01
<GCONST> 2.249490e+02
<STATE> 4
<MEAN> 14
 2.157021e+03 6.387536e+02 -9.724496e+02 -3.110247e+03 4.840235e+02 -2.172539e+03 2.096419e+03 3.517668e+03 -1.130244e+02 3.159817e+02 5.952226e+00 4.866964e+01 -2.102414e+00 1.623991e+00
<VARIANCE> 14
 3.304714e+08 3.032403e+08 3.308673e+08 3.392308e+08 3.113285e+08 3.414640e+08 3.550056e+08 3.580492e+08 3.561350e+08 2.802299e+08 3.762342e+01 1.494861e+01 3.647951e+00 1.249832e+00
<GCONST> 2.297160e+02
<TRANSP> 5
 0.000000e+00 1.000000e+00 0.000000e+00 0.000000e+00 0.000000e+00
 0.000000e+00 7.953240e-01 2.046760e-01 0.000000e+00 0.000000e+00
 0.000000e+00 0.000000e+00 8.363025e-01 1.636975e-01 0.000000e+00
 0.000000e+00 0.000000e+00 0.000000e+00 5.869754e-01 4.130247e-01
 0.000000e+00 0.000000e+00 0.000000e+00 0.000000e+00 0.000000e+00
<ENDHMM>
~h "l2_i"
<BEGINHMM>
<NUMSTATES> 5
<STATE> 2
<MEAN> 14
 -4.176603e+03 9.454080e+02 3.205504e+03 -1.556866e+03 -3.065370e+02 -1.218924e+03 -2.172889e+03 8.509746e+02 9.936737e+02 -4.780233e+02 1.783610e+01 4.595736e+01 -1.635389e+00 2.100253e+00
<VARIANCE> 14
 2.417643e+08 3.882077e+08 2.894603e+08 3.364726e+08 3.449704e+08 3.409344e+08 3.425830e+08 3.554013e+08 3.642383e+08 3.441302e+08 2.001650e+02 3.300236e+01 1.056737e+00 4.320392e+00
<GCONST> 2.322594e+02
<STATE> 3
<MEAN> 14
 -2.999186e+03 -6.563721e+02 -9.374386e+02 7.385245e+02 -2.876574e+02 1.076529e+03 6.443497e+01 5.470237e+02 -1.179711e+03 -1.764307e+01 3.941324e+00 4.905468e+01 -1.338516e+00 1.348056e+00
<VARIANCE> 14
 3.233028e+08 3.658629e+08 3.649908e+08 3.540044e+08 3.648141e+08 3.443181e+08 3.533577e+08 3.388388e+08 3.396783e+08 3.526572e+08 7.026445e+00 2.445449e+01 4.627399e-01 2.207300e-01
<GCONST> 2.253279e+02
<STATE> 4
<MEAN> 14
 -2.716262e+03 1.907825e+03 7.743547e+02 3.339746e+02 -1.821961e+03 2.045028e+02 9.687317e+00 -1.262511e+03 3.867194e+01 2.039722e+03 1.114574e+01 4.870900e+01 -1.865060e+00 1.968805e+00
<VARIANCE> 14
 3.247235e+08 3.577048e+08 3.640959e+08 3.260205e+08 3.984277e+08 3.654478e+08 3.196980e+08 3.255676e+08 3.515987e+08 3.454642e+08 1.222387e+02 2.967220e+01 2.564142e+00 5.062859e+00
<GCONST> 2.331411e+02
<TRANSP> 5
 0.000000e+00 1.000000e+00 0.000000e+00 0.000000e+00 0.000000e+00
 0.000000e+00 6.866970e-01 3.133030e-01 0.000000e+00 0.000000e+00
 0.000000e+00 0.000000e+00 9.126472e-01 8.735278e-02 0.000000e+00
 0.000000e+00 0.000000e+00 0.000000e+00 8.101860e-01 1.898139e-01
 0.000000e+00 0.000000e+00 0.000000e+00 0.000000e+00 0.000000e+00
<ENDHMM>
~h "l2_u"
<BEGINHMM>
<NUMSTATES> 5
<STATE> 2
<MEAN> 14
 -5.445341e+03 8.946195e+02 -3.767646e+03 5.340826e+03 1.787558e+03 -3.860967e+02 5.153650e+03 -3.801448e+02 -1.449058e+03 5.128539e+02 3.886589e+00 4.781388e+01 -1.132996e+00 4.779275e+00
<VARIANCE> 14
 2.831606e+08 3.297112e+08 3.301605e+08 3.187545e+08 3.411164e+08 3.409415e+08 2.943884e+08 3.363301e+08 3.585873e+08 3.701560e+08 1.440707e+01 2.579908e+01 1.082374e-01 1.328635e+01
<GCONST> 2.281380e+02
<STATE> 3
<MEAN> 14
 6.778762e+02 -1.205563e+03 -1.473603e+03 -1.971358e+03 2.186656e+02 -2.356726e+03 -4.962808e+02 1.070874e+03 -3.787250e+02 -3.337816e+01 2.291020e+00 4.921862e+01 -1.179277e+00 1.632454e+00
<VARIANCE> 14
 3.093122e+08 3.400245e+08 3.308740e+08 3.589577e+08 3.562474e+08 3.566702e+08 3.812567e+08 3.632553e+08 3.896039e+08 3.567584e+08 2.758763e+00 2.573135e+01 1.982283e-01 8.620631e-01
<GCONST> 2.250626e+02
<STATE> 4
<MEAN> 14
 -1.621080e+03 -8.831539e+02 -4.941810e+02 -4.988400e+02 3.999318e+02 -3.491378e+02 6.899337e+02 -1.386349e+03 -3.058514e+02 1.016885e+03 1.585671e+01 4.707103e+01 -1.437155e+00 1.605853e+00
<VARIANCE> 14
 3.614972e+08 3.764060e+08 3.716084e+08 3.651884e+08 3.843464e+08 3.531074e+08 3.358870e+08 3.579759e+08 3.520896e+08 3.553171e+08 2.079903e+02 2.360327e+01 5.704601e-01 1.640320e+00
<GCONST> 2.312095e+02
<TRANSP> 5
 0.000000e+00 1.000000e+00 0.000000e+00 0.000000e+00 0.000000e+00
 0.000000e+00 8.251934e-02 9.174806e-01 0.000000e+00 0.000000e+00
 0.000000e+00 0.000000e+00 8.945366e-01 1.054635e-01 0.000000e+00
 0.000000e+00 0.000000e+00 0.000000e+00 9.286693e-01 7.133063e-02
 0.000000e+00 0.000000e+00 0.000000e+00 0.000000e+00 0.000000e+00
<ENDHMM>
~h "l3_i"
<BEGINHMM>
<NUMSTATES> 5
<STATE> 2
<MEAN> 14
 -2.324867e+03 1.483768e+03 -1.725076e+03 7.518732e+02 5.362559e+02 -1.263041e+03 -1.483900e+03 -1.179166e+03 -1.253415e+03 1.502094e+02 1.613308e+01 4.505725e+01 -1.778232e+00 2.164468e+00
<VARIANCE> 14
 3.487944e+08 3.304669e+08 3.567527e+08 3.655981e+08 3.349174e+08 3.154689e+08 3.823472e+08 3.639182e+08 3.415209e+08 3.442416e+08 2.119426e+02 4.345867e+01 2.208863e+00 5.848054e+00
<GCONST> 2.340916e+02
<STATE> 3
<MEAN> 14
 -3.616220e+03 7.045543e+02 1.325275e+02 -1.249757e+03 -4.949129e+02 7.369154e+02 2.337321e+02 6.878965e+02 -8.417286e+02 -1.037384e+03 7.617372e+00 4.601215e+01 -1.218435e+00 1.169124e+00
<VARIANCE> 14
 3.178145e+08 3.399216e+08 3.453085e+08 3.604663e+08 3.502885e+08 3.371395e+08 3.551160e+08 3.605966e+08 3.401653e+08 3.538117e+08 3.214939e+01 2.947331e+01 1.142873e-01 1.213069e-01
<GCONST> 2.249205e+02
<STATE> 4
<MEAN> 14
 -3.241243e+03 -1.553532e+03 9.615959e+01 -8.157421e+02 -6.108702e+01 9.676979e+02 -4.184612e+02 1.187050e+03 -1.528477e+03 -3.122009e+02 2.441621e+00 4.825713e+01 -1.357009e+00 1.685589e+00
<VARIANCE> 14
 3.445828e+08 3.971631e+08 3.277810e+08 3.435315e+08 3.794026e+08 3.564346e+08 3.800471e+08 3.822762e+08 3.710760e+08 3.493192e+08 3.600687e+00 2.710765e+01 4.137320e-01 9.510109e-01
<GCONST> 2.264654e+02
<TRANSP> 5
 0.000000e+00 1.000000e+00 0.000000e+00 0.000000e+00 0.000000e+00
 0.000000e+00 7.990218e-01 2.009783e-01 0.000000e+00 0.000000e+00
 0.000000e+00 0.000000e+00 8.510264e-01 1.489737e-01 0.000000e+00
 0.000000e+00 0.000000e+00 0.000000e+00 8.894007e-01 1.105993e-01
 0.000000e+00 0.000000e+00 0.000000e+00 0.000000e+00 0.000000e+00
<ENDHMM>
~h "l3_u"
<BEGINHMM>
<NUMSTATES> 5
<STATE> 2
<MEAN> 14
 -2.196138e+03 1.577004e+03 8.885932e+02 -7.236464e+02 -4.441217e+02 7.562508e+02 3.353037e+02 -6.027229e+02 2.085588e+02 4.798539e+02 1.240343e+01 4.730663e+01 -1.465457e+00 1.649675e+00
<VARIANCE> 14
 3.508307e+08 3.431308e+08 3.484418e+08 3.760954e+08 3.424806e+08 3.613383e+08 3.263152e+08 3.449977e+08 3.806630e+08 3.493206e+08 1.450301e+02 2.696238e+01 5.571688e-01 1.420404e+00
<GCONST> 2.305599e+02
<STATE> 3
<MEAN> 14
 -1.887997e+03 2.443446e+03 -2.390837e+03 1.870809e+03 -6.160558e+02 3.209691e+02 -1.286749e+03 7.973411e+02 6.258101e+03 3.007907e+03 4.518032e+00 4.846036e+01 -1.189797e+00 4.909593e+00
<VARIANCE> 14
 3.470436e+08 4.371510e+08 2.944438e+08 3.199678e+08 3.833636e+08 3.650074e+08 3.734374e+08 3.473683e+08 3.059705e+08 2.909154e+08 1.264821e+01 2.653661e+01 1.719874e-01 2.830741e+01
<GCONST> 2.296858e+02
<STATE> 4
<MEAN> 14
 -2.089592e+03 1.688743e+03 7.136832e+02 -2.333475e+02 8.357593e+02 -2.333407e+02 6.417119e+02 -2.439208e+02 -1.209543e+03 -4.630389e+02 2.810260e+00 4.839300e+01 -1.221481e+00 1.536553e+00
<VARIANCE> 14
 3.165047e+08 3.638181e+08 3.651370e+08 3.750339e+08 3.591751e+08 3.333087e+08 3.395008e+08 3.585972e+08 3.473764e+08 3.763729e+08 4.221587e+00 2.619940e+01 2.133511e-01 3.909326e-01
<GCONST> 2.247721e+02
<TRANSP> 5
 0.000000e+00 1.000000e+00 0.000000e+00 0.000000e+00 0.000000e+00
 0.000000e+00 9.055078e-01 9.449220e-02 0.000000e+00 0.000000e+00
 0.000000e+00 0.000000e+00 9.196442e-02 9.080356e-01 0.000000e+00
 0.000000e+00 0.000000e+00 0.000000e+00 9.205008e-01 7.949918e-02
 0.000000e+00 0.000000e+00 0.000000e+00 0.000000e+00 0.000000e+00
<ENDHMM>
~h "l4_i"
<BEGINHMM>
<NUMSTATES> 5
<STATE> 2
<MEAN> 14
 -3.560053e+03 5.337110e+02 3.044422e+03 1.070016e+02 -5.463468e+02 3.921334e+03 -2.464733e+02 1.386807e+03 -7.896646e+02 1.499456e+03 9.402250e+00 4.881490e+01 -2.688414e+00 3.039102e+00
<VARIANCE> 14
 2.924761e+08 3.912837e+08 4.009103e+08 3.393177e+08 3.005254e+08 3.825948e+08 3.489628e+08 3.028037e+08 4.127028e+08 3.277436e+08 1.067856e+02 3.594522e+01 9.021392e+00 9.939923e+00
<GCONST> 2.351384e+02
<STATE> 3
<MEAN> 14
 -2.269391e+03 -2.079827e+02 -6.479457e+02 -1.730223e+03 -1.221108e+02 -1.359860e+03 -1.072340e+03 2.484211e+02 -5.373588e+02 1.109444e+03 2.848197e+00 4.917698e+01 -1.266238e+00 1.538591e+00
<VARIANCE> 14
 3.255731e+08 3.673512e+08 3.396764e+08 3.429140e+08 3.740540e+08 3.482815e+08 3.403155e+08 3.633270e+08 3.639582e+08 3.693862e+08 5.704123e+00 2.549710e+01 2.999104e-01 4.240852e-01
<GCONST> 2.254719e+02
<STATE> 4
<MEAN> 14
 -1.725061e+03 6.326832e+02 -1.602248e+03 -9.152156e+02 -1.578865e+03 3.501362e+02 -1.610079e+03 4.828535e+02 2.802267e+03 -1.588443e+03 1.526986e+01 4.767829e+01 -1.593292e+00 2.706813e+00
<VARIANCE> 14
 3.163081e+08 3.607079e+08 3.452747e+08 3.620723e+08 3.594953e+08 3.572092e+08 3.490625e+08 3.152540e+08 3.803614e+08 3.426908e+08 3.482057e+02 1.986798e+01 7.824799e-01 8.374304e+00
<GCONST> 2.331378e+02
<TRANSP> 5
 0.000000e+00 1.000000e+00 0.000000e+00 0.000000e+00 0.000000e+00
 0.000000e+00 6.092933e-01 3.907067e-01 0.000000e+00 0.000000e+00
 0.000000e+00 0.000000e+00 9.183582e-01 8.164179e-02 0.000000e+00
 0.000000e+00 0.000000e+00 0.000000e+00 7.533628e-01 2.466372e-01
 0.000000e+00 0.000000e+00 0.000000e+00 0.000000e+00 0.000000e+00
<ENDHMM>
~h "l4_u"
<BEGINHMM>
<NUMSTATES> 5
<STATE> 2
<MEAN> 14
 -1.268922e+03 5.625142e+02 -1.149974e+02 -1.311904e+03 1.072510e+03 -2.964219e+02 -6.904181e+02 2.435061e+01 2.749221e+02 -2.768546e+03 1.673280e+01 4.661790e+01 -1.550692e+00 2.029354e+00
<VARIANCE> 14
 3.242404e+08 3.781225e+08 3.532559e+08 3.814007e+08 3.761329e+08 3.054180e+08 3.514699e+08 3.453314e+08 3.352555e+08 3.333621e+08 2.261364e+02 4.372271e+01 8.065134e-01 4.690511e+00
<GCONST> 2.329250e+02
<STATE> 3
<MEAN> 14
 -7.432655e+02 4.306987e+02 1.953964e+03 9.395007e+02 8.111628e+02 1.498082e+03 -1.302940e+03 7.774253e+02 -1.613540e+03 2.104644e+03 6.826816e+00 4.480692e+01 -1.131262e+00 1.274381e+00
<VARIANCE> 14
 3.046484e+08 3.689435e+08 3.978000e+08 3.710972e+08 3.496235e+08 3.730177e+08 3.576707e+08 3.551878e+08 3.180679e+08 3.565244e+08 2.374475e+01 2.092681e+01 1.229241e-01 1.982788e-01
<GCONST> 2.250811e+02
<STATE> 4
<MEAN> 14
 -1.957403e+03 1.146076e+02 -9.737477e+02 -2.064717e+03 -1.613979e+03 -1.574694e+03 -3.511675e+02 1.317235e+03 -3.838841e+02 9.275844e+02 2.193220e+00 4.777440e+01 -1.276190e+00 1.940898e+00
<VARIANCE> 14
 3.049743e+08 3.634218e+08 3.649366e+08 3.394530e+08 3.122633e+08 3.642524e+08 3.849716e+08 3.506287e+08 3.509202e+08 3.381038e+08 2.727685e+00 2.266147e+01 4.310107e-01 1.682509e+00
<GCONST> 2.261695e+02
<TRANSP> 5
 0.000000e+00 1.000000e+00 0.000000e+00 0.000000e+00 0.000000e+00
 0.000000e+00 8.134758e-01 1.865242e-01 0.000000e+00 0.000000e+00
 0.000000e+00 0.000000e+00 8.095131e-01 1.904869e-01 0.000000e+00
 0.000000e+00 0.000000e+00 0.000000e+00 8.567545e-01 1.432454e-01
 0.000000e+00 0.000000e+00 0.000000e+00 0.000000e+00 0.000000e+00
<ENDHMM>
~h "l5_i"
<BEGINHMM>
<NUMSTATES> 5
<STATE> 2
<MEAN> 14
 -7.164961e+02 -1.603225e+03 -6.590007e+02 -9.074610e+02 1.293019e+03 -4.383193e+02 3.358081e+02 4.602007e+02 -1.217508e+01 -9.309940e+02 1.832328e+01 4.650805e+01 -1.546908e+00 1.354693e+00
<VARIANCE> 14
 3.456909e+08 3.697799e+08 3.817683e+08 3.530165e+08 3.695573e+08 3.725058e+08 3.560024e+08 3.595397e+08 3.509825e+08 3.357827e+08 2.479342e+02 2.471352e+01 7.272721e-01 7.492872e-01
<GCONST> 2.308381e+02
<STATE> 3
<MEAN> 14
 -6.885295e+02 2.608704e+00 9.776066e+02 -1.806870e+03 1.560544e+03 -7.247723e+02 9.139528e+02 -1.244494e+03 2.493284e+03 -2.243955e+03 5.790490e+00 4.658365e+01 -1.229264e+00 3.841749e+00
<VARIANCE> 14
 3.864744e+08 3.361977e+08 3.703654e+08 3.725293e+08 3.912082e+08 3.102017e+08 3.920156e+08 3.564498e+08 4.190320e+08 3.897943e+08 2.285750e+01 2.734704e+01 2.124593e-01 1.261907e+01
<GCONST> 2.304766e+02
<STATE> 4
<MEAN> 14
 -9.324742e+02 6.095778e+02 1.699953e+02 9.661597e+02 -4.934366e+01 -5.651375e+02 5.267854e+02 1.690506e+01 -1.156891e+03 -1.500814e+02 2.655405e+00 4.851254e+01 -1.328314e+00 1.517675e+00
<VARIANCE> 14
 3.434065e+08 3.496367e+08 3.527523e+08 3.444392e+08 3.418271e+08 3.514795e+08 3.233675e+08 3.472149e+08 3.418298e+08 3.645993e+08 3.361327e+00 2.506303e+01 4.073784e-01 5.352898e-01
<GCONST> 2.252579e+02
<TRANSP> 5
 0.000000e+00 1.000000e+00 0.000000e+00 0.000000e+00 0.000000e+00
 0.000000e+00 8.520746e-01 1.479254e-01 0.000000e+00 0.000000e+00
 0.000000e+00 0.000000e+00 4.825146e-01 5.174854e-01 0.000000e+00
 0.000000e+00 0.000000e+00 0.000000e+00 9.267030e-01 7.329707e-02
 0.000000e+00 0.000000e+00 0.000000e+00 0.000000e+00 0.000000e+00
<ENDHMM>
~h "l5_u"
<BEGINHMM>
<NUMSTATES> 5
<STATE> 2
<MEAN> 14
 -6.036166e+03 -3.271348e+02 -3.806927e+03 1.186466e+03 2.259368e+03 -7.154758e+02 2.773352e+03 4.797640e+02 -1.944163e+03 -1.352444e+03 1.767258e+01 4.760760e+01 -1.411569e+00 2.804182e+00
<VARIANCE> 14
 2.806306e+08 3.590311e+08 3.432812e+08 3.712879e+08 3.335893e+08 3.627544e+08 2.977306e+08 3.354264e+08 3.151736e+08 3.271596e+08 2.608512e+02 1.856898e+01 2.200932e-01 8.413886e+00
<GCONST> 2.310218e+02
<STATE> 3
<MEAN> 14
 -2.124390e+02 -6.851107e+02 2.349765e+03 3.384552e+02 -2.610294e+02 9.049626e+02 1.520022e+03 2.650649e+03 9.666400e+02 -1.729471e+03 1.040556e+01 4.556042e+01 -1.341603e+00 1.359168e+00
<VARIANCE> 14
 2.764255e+08 3.559456e+08 3.511554e+08 3.716238e+08 3.777446e+08 3.518681e+08 3.812860e+08 3.829981e+08 3.634298e+08 3.479009e+08 8.577008e+01 5.418770e+01 1.867101e-01 3.321095e-01
<GCONST> 2.282614e+02
<STATE> 4
<MEAN> 14
 -1.957400e+03 1.700050e+03 9.905973e+02 1.505386e+03 -4.281518e+02 1.445926e+03 -3.517604e+02 -1.514719e+03 4.687119e+02 -1.919123e+03 9.659910e+00 4.833792e+01 -1.812563e+00 2.311083e+00
<VARIANCE> 14
 2.968708e+08 3.716812e+08 4.080535e+08 3.684031e+08 3.650202e+08 3.970472e+08 3.323948e+08 3.149332e+08 3.508014e+08 3.593100e+08 8.459258e+01 2.967775e+01 1.823553e+00 5.341334e+00
<GCONST> 2.327089e+02
<TRANSP> 5
 0.000000e+00 1.000000e+00 0.000000e+00 0.000000e+00 0.000000e+00
 0.000000e+00 6.448399e-01 3.551601e-01 0.000000e+00 0.000000e+00
 0.000000e+00 0.000000e+00 8.746339e-01 1.253661e-01 0.000000e+00
 0.000000e+00 0.000000e+00 0.000000e+00 8.165038e-01 1.834961e-01
 0.000000e+00 0.000000e+00 0.000000e+00 0.000000e+00 0.000000e+00
<ENDHMM>
~h "sil"
<BEGINHMM>
<NUMSTATES> 5
<STATE> 2
<MEAN> 14
 -1.669091e+03 1.417886e+02 -7.266821e+01 4.209958e+01 -2.062671e+02 8.108099e+01 2.301759e+02 6.092374e+01 7.697545e+01 1.013052e+02 3.679122e-01 5.627505e+01 -1.517760e+00 1.689622e+00
<VARIANCE> 14
 3.370745e+08 3.586106e+08 3.539195e+08 3.535108e+08 3.571144e+08 3.562361e+08 3.551356e+08 3.568892e+08 3.569637e+08 3.560866e+08 4.165875e-01 7.713200e+01 3.927787e-01 5.351525e-01
<GCONST> 2.244914e+02
<STATE> 3
~s "silst"
<STATE> 4
<MEAN> 14
 -1.594698e+03 3.274449e+01 -5.681994e+01 6.283888e+01 1.460321e+01 -2.435026e+02 -8.157209e+01 -1.579393e+01 1.041152e+01 1.128067e+02 7.032743e+00 4.764673e+01 -1.317244e+00 1.342019e+00
<VARIANCE> 14
 3.415085e+08 3.562596e+08 3.570843e+08 3.582806e+08 3.583083e+08 3.544939e+08 3.524313e+08 3.564990e+08 3.589101e+08 3.576390e+08 4.684582e+01 2.731090e+01 2.667389e-01 3.580887e-01
<GCONST> 2.274152e+02
<TRANSP> 5
 0.000000e+00 1.000000e+00 0.000000e+00 0.000000e+00 0.000000e+00
 0.000000e+00 8.266416e-01 7.972600e-02 9.363235e-02 0.000000e+00
 0.000000e+00 0.000000e+00 4.699180e-01 5.300820e-01 0.000000e+00
 0.000000e+00 2.068233e-01 0.000000e+00 7.641525e-01 2.902417e-02
 0.000000e+00 0.000000e+00 0.000000e+00 0.000000e+00 0.000000e+00
<ENDHMM>
