~o
<STREAMINFO> 1 25
<VECSIZE> 25<NULLD><MFCC_D_N_Z_0><DIAGC>
~s "silst"
<MEAN> 25
 -1.470274e+00 -5.249723e+00 -3.161189e+00 5.899659e-01 1.035653e+00 -5.020444e-01 4.095885e+00 9.638381e-01 -7.450266e-01 1.370860e+00 7.417722e-01 7.077429e+00 8.242214e-02 -5.604105e-03 6.440809e-03 -2.548434e-04 -3.236318e-01 -2.214043e-01 1.727710e-01 -2.154275e-01 -6.245423e-02 -2.466733e-02 -2.144966e-01 1.677788e-03 2.239892e-01
<VARIANCE> 25
 1.765971e+01 2.761844e+01 2.677338e+01 2.027430e+01 9.805037e+01 4.469632e+01 8.947848e+01 4.425543e+01 3.622186e+01 5.836869e+01 4.772952e+01 5.775581e+01 1.546760e+00 1.563499e+00 1.634700e+00 1.668370e+00 4.673707e+00 3.135419e+00 6.040300e+00 3.417981e+00 3.175884e+00 3.609337e+00 2.881464e+00 3.471609e+00 1.593360e+00
<GCONST> 1.034875e+02
~h "l1_i"
<BEGINHMM>
<NUMSTATES> 5
<STATE> 2
<MEAN> 25
 -1.002115e-02 -4.143279e+00 2.504445e+00 -4.230436e-01 -3.700609e+00 -6.561577e-01 1.410684e+00 -1.401510e+00 7.153305e-01 -1.257849e-02 2.468756e-01 2.963293e+00 -2.256382e-02 1.934027e-01 1.276743e-01 5.247684e-02 -1.879538e-01 -1.520520e-01 1.112187e-01 -3.077336e-01 -1.277037e-01 1.088822e-01 1.007382e-01 -8.022534e-02 -1.249274e-01
<VARIANCE> 25
 4.488117e+00 4.476944e+01 8.030351e+01 1.614371e+01 1.304107e+02 2.167193e+01 8.075018e+01 7.042307e+01 2.895739e+01 3.950694e+01 1.507542e+01 2.453449e+01 3.545524e-01 9.395005e-01 1.659829e+00 1.091638e+00 5.667864e+00 2.665737e+00 4.633151e+00 2.632205e+00 2.826827e+00 2.178304e+00 1.400028e+00 1.812311e+00 4.321368e-01
<GCONST> 9.458649e+01
<STATE> 3
<MEAN> 25
 1.571778e+00 -1.378252e+00 3.930157e-01 6.974134e-01 -7.237650e+00 -1.354215e+00 3.960582e+00 -8.586547e-01 -1.156378e+00 -8.034397e-01 -1.870895e+00 -2.209092e+00 4.423121e-02 1.638702e-02 1.957070e-02 -2.303483e-02 -2.415851e-04 3.723624e-02 -6.540280e-03 1.243247e-01 1.629619e-02 -1.343798e-03 -1.268129e-02 -4.482873e-02 -3.384072e-03
<VARIANCE> 25
 1.324295e+01 3.422691e+01 3.450400e+01 1.402174e+01 5.864337e+01 4.767826e+01 5.227044e+01 8.599530e+01 3.715938e+01 3.212978e+01 2.748305e+01 1.854819e+01 9.458221e-01 1.470975e+00 1.542900e+00 1.370653e+00 4.616985e+00 3.103607e+00 4.670858e+00 4.197621e+00 3.268413e+00 2.795208e+00 1.557706e+00 1.706498e+00 7.521554e-01
<GCONST> 9.753310e+01
<STATE> 4
<MEAN> 25
 6.134732e-01 8.494366e-01 1.707742e-01 -7.852543e-01 -6.910086e-02 -9.159344e-02 2.906343e-01 -2.930750e-01 1.139154e-01 -7.973235e-01 -1.200865e+00 1.751491e-01 -1.289151e-02 -4.295958e-03 -2.001923e-02 -2.669051e-03 3.274813e-02 5.311547e-03 -1.368482e-04 2.261605e-02 -2.613845e-03 3.140058e-03 9.580448e-03 1.343180e-02 -1.194640e-02
<VARIANCE> 25
 2.313058e+01 3.228094e+01 5.192197e+01 2.523387e+01 1.062951e+02 4.723623e+01 6.194266e+01 4.563485e+01 4.143724e+01 4.385540e+01 3.232891e+01 3.274267e+01 1.458753e+00 1.320658e+00 1.782906e+00 1.399101e+00 3.954622e+00 2.634385e+00 3.096989e+00 3.077732e+00 2.869094e+00 2.907467e+00 2.158896e+00 2.328574e+00 9.353209e-01
<GCONST> 1.005157e+02
<TRANSP> 5
 0.000000e+00 1.000000e+00 0.000000e+00 0.000000e+00 0.000000e+00
 0.000000e+00 9.765554e-01 2.344459e-02 0.000000e+00 0.000000e+00
 0.000000e+00 0.000000e+00 9.866500e-01 1.335000e-02 0.000000e+00
 0.000000e+00 0.000000e+00 0.000000e+00 9.969785e-01 3.021536e-03
 0.000000e+00 0.000000e+00 0.000000e+00 0.000000e+00 0.000000e+00
<ENDHMM>
~h "l1_u"
<BEGINHMM>
<NUMSTATES> 5
<STATE> 2
<MEAN> 25
 -4.294685e+00 4.484931e+00 -1.871357e+00 2.817173e+00 -3.169891e+00 -8.466060e+00 2.561061e+00 -3.507770e+00 4.845004e-01 1.158433e+00 3.961001e+00 1.311700e+01 2.213907e-01 5.748086e-02 -4.456455e-02 -3.387902e-01 -9.056029e-02 -2.391993e-01 9.719219e-01 2.906645e-01 2.928221e-01 1.361314e-01 -8.474494e-01 3.742740e-01 1.796340e-02
<VARIANCE> 25
 6.912368e+00 3.154080e+01 1.072535e+01 1.190282e+01 1.975759e+01 2.639165e+01 4.397625e+01 3.151505e+01 1.632309e+01 3.961089e+01 3.157907e+01 2.409674e+01 1.197068e+00 1.978836e+00 1.179970e+00 1.531667e+00 2.428672e+00 1.793350e+00 6.760482e+00 2.361130e+00 2.292019e+00 3.219947e+00 3.540438e+00 4.388732e+00 1.190366e-01
<GCONST> 9.108752e+01
<STATE> 3
<MEAN> 25
 3.120245e+00 -3.193553e+00 -3.851977e+00 2.734732e+00 -3.497802e+00 -3.421686e+00 6.429095e+00 2.009812e+00 1.612044e+00 -4.672470e-01 -7.358779e+00 5.437737e+00 3.817660e-01 -1.244841e-01 -1.567475e-01 5.085026e-02 1.097400e-01 1.063597e-01 -8.708103e-01 -3.567007e-01 -2.581397e-01 -2.069528e-01 3.171462e-01 -7.489495e-01 -2.826763e-01
<VARIANCE> 25
 1.398715e+01 1.245076e+01 1.597319e+01 1.147131e+01 1.394522e+01 8.911109e+01 7.069658e+01 5.084362e+01 3.013579e+01 2.198340e+01 4.441262e+01 3.301991e+01 2.514450e-01 1.683605e+00 5.723480e-01 1.081907e+00 1.350568e+00 2.833632e+00 3.307438e+00 3.054800e+00 2.288659e+00 1.880974e+00 3.165317e+00 1.747915e+00 1.518647e-01
<GCONST> 8.901818e+01
<STATE> 4
<MEAN> 25
 2.468309e+00 9.011686e-01 -1.689665e+00 -1.352959e+00 -1.043830e+00 9.048059e-01 -6.392885e-01 -3.575872e+00 -2.146218e-01 7.587181e-01 -1.209608e+00 -3.912379e+00 -4.024882e-02 -1.010533e-02 2.219913e-02 -2.965820e-02 7.607883e-03 5.701286e-02 5.369021e-03 4.853380e-02 2.006961e-02 4.661722e-03 4.409404e-03 -1.136661e-02 2.322951e-02
<VARIANCE> 25
 2.601009e+01 2.210213e+01 3.455019e+01 2.077242e+01 9.958730e+01 4.967078e+01 6.640809e+01 4.234803e+01 5.562886e+01 4.920384e+01 2.955244e+01 4.943885e+01 1.177939e+00 9.992769e-01 1.444320e+00 1.680547e+00 4.208930e+00 3.067232e+00 3.708672e+00 3.048572e+00 3.286620e+00 2.607513e+00 2.759477e+00 2.477483e+00 6.316305e-01
<GCONST> 1.001711e+02
<TRANSP> 5
 0.000000e+00 1.000000e+00 0.000000e+00 0.000000e+00 0.000000e+00
 0.000000e+00 9.507579e-01 4.924214e-02 0.000000e+00 0.000000e+00
 0.000000e+00 0.000000e+00 9.533921e-01 4.660789e-02 0.000000e+00
 0.000000e+00 0.000000e+00 0.000000e+00 9.931638e-01 6.836185e-03
 0.000000e+00 0.000000e+00 0.000000e+00 0.000000e+00 0.000000e+00
<ENDHMM>
~h "l2_i"
<BEGINHMM>
<NUMSTATES> 5
<STATE> 2
<MEAN> 25
 -6.989133e-02 -4.224983e+00 -2.078833e+00 2.918736e+00 -6.264393e-01 -2.893589e+00 1.007417e+00 -1.732158e+00 -1.474123e+00 -2.702259e+00 -2.867381e+00 2.952296e+00 -5.211595e-03 -3.355739e-01 -3.236818e-01 9.950079e-02 2.757955e-01 3.649993e-01 -2.530897e-01 -7.726193e-02 5.450941e-01 -1.408508e-01 -2.510155e-01 8.568767e-02 1.321268e-01
<VARIANCE> 25
 1.192171e+01 3.531752e+01 3.119772e+01 1.425975e+01 6.851777e+01 4.466942e+01 7.381382e+01 8.092593e+01 6.331215e+01 3.320306e+01 3.895653e+01 2.849326e+01 9.487303e-01 1.904257e+00 1.813958e+00 1.581454e+00 7.102611e+00 4.063209e+00 7.792186e+00 4.981540e+00 8.035002e+00 3.141457e+00 4.584481e+00 3.100096e+00 1.712803e+00
<GCONST> 1.045591e+02
<STATE> 3
<MEAN> 25
 7.258948e-01 -3.532536e+00 -4.112503e+00 1.595560e+00 2.541339e+00 1.384808e+00 1.110312e-01 -5.140549e-01 2.797857e-01 -9.030433e-01 -3.535993e+00 1.680432e+00 -1.148363e-02 1.698277e-01 2.655111e-01 -8.848246e-02 -4.047454e-01 -4.756337e-02 2.356648e-01 -4.828371e-03 -4.395697e-02 4.296872e-02 1.903768e-01 -6.340603e-02 -7.416962e-02
<VARIANCE> 25
 1.044281e+01 2.004972e+01 2.296889e+01 1.236449e+01 6.521342e+01 2.717398e+01 5.543657e+01 4.929654e+01 5.250257e+01 2.329820e+01 2.610732e+01 2.420463e+01 1.159655e+00 1.405111e+00 1.609621e+00 1.272680e+00 6.814641e+00 2.938464e+00 3.293432e+00 4.671449e+00 3.938522e+00 2.500086e+00 2.418711e+00 2.739424e+00 7.824928e-01
<GCONST> 9.675961e+01
<STATE> 4
<MEAN> 25
 3.564073e-01 1.970698e+00 9.579453e-01 -5.024461e-01 -1.444315e+00 -9.555174e-01 6.247611e-01 3.153952e-01 -4.974315e-02 5.633311e-02 -2.031651e-01 -2.493975e+00 -1.430425e-03 2.782415e-03 -2.175966e-02 -1.972387e-03 8.410765e-02 4.122126e-02 -2.927419e-02 2.403146e-02 1.133484e-02 -4.052241e-02 -3.787129e-03 -9.376126e-03 1.952578e-02
<VARIANCE> 25
 4.177358e+01 3.161052e+01 3.646431e+01 1.905083e+01 6.474506e+01 5.486048e+01 4.903264e+01 4.345181e+01 2.956435e+01 2.917566e+01 2.994612e+01 2.238394e+01 2.519268e+00 1.996796e+00 1.889916e+00 1.371354e+00 4.681766e+00 3.143211e+00 3.468040e+00 2.974895e+00 2.915981e+00 2.515650e+00 2.347486e+00 1.949851e+00 9.749314e-01
<GCONST> 9.986217e+01
<TRANSP> 5
 0.000000e+00 1.000000e+00 0.000000e+00 0.000000e+00 0.000000e+00
 0.000000e+00 9.438559e-01 5.614408e-02 0.000000e+00 0.000000e+00
 0.000000e+00 0.000000e+00 9.662219e-01 3.377809e-02 0.000000e+00
 0.000000e+00 0.000000e+00 0.000000e+00 9.909970e-01 9.003023e-03
 0.000000e+00 0.000000e+00 0.000000e+00 0.000000e+00 0.000000e+00
<ENDHMM>
~h "l2_u"
<BEGINHMM>
<NUMSTATES> 5
<STATE> 2
<MEAN> 25
 -1.651109e-08 -2.268430e-07 1.259320e-08 1.165062e-07 -3.503200e-08 7.789977e-08 -6.306777e-08 1.437152e-07 -9.648429e-08 -8.998416e-08 1.010382e-07 -1.644749e-08 3.964178e-03 4.991033e-03 -2.259726e-03 -8.660138e-04 -1.980516e-03 2.296586e-03 -1.050157e-04 -6.062090e-03 -3.834328e-04 3.311979e-04 1.732379e-04 -2.677502e-03 -2.030911e-03
<VARIANCE> 25
 3.382748e+01 3.628031e+01 4.600648e+01 2.294502e+01 9.100511e+01 4.563913e+01 5.834692e+01 5.632589e+01 3.456791e+01 4.004803e+01 4.066158e+01 4.632240e+01 1.656153e+00 1.407841e+00 1.798202e+00 1.585461e+00 4.502382e+00 2.970210e+00 3.744460e+00 3.177201e+00 2.837936e+00 2.797859e+00 2.639533e+00 2.465156e+00 1.004578e+00
<GCONST> 1.021376e+02
<STATE> 3
<MEAN> 25
 -1.651109e-08 -2.268430e-07 1.259320e-08 1.165062e-07 -3.503200e-08 7.789977e-08 -6.306777e-08 1.437152e-07 -9.648429e-08 -8.998416e-08 1.010382e-07 -1.644749e-08 3.964178e-03 4.991033e-03 -2.259726e-03 -8.660138e-04 -1.980516e-03 2.296586e-03 -1.050157e-04 -6.062090e-03 -3.834328e-04 3.311979e-04 1.732379e-04 -2.677502e-03 -2.030911e-03
<VARIANCE> 25
 3.382748e+01 3.628031e+01 4.600648e+01 2.294502e+01 9.100511e+01 4.563913e+01 5.834692e+01 5.632589e+01 3.456791e+01 4.004803e+01 4.066158e+01 4.632240e+01 1.656153e+00 1.407841e+00 1.798202e+00 1.585461e+00 4.502382e+00 2.970210e+00 3.744460e+00 3.177201e+00 2.837936e+00 2.797859e+00 2.639533e+00 2.465156e+00 1.004578e+00
<GCONST> 1.021376e+02
<STATE> 4
<MEAN> 25
 -1.651109e-08 -2.268430e-07 1.259320e-08 1.165062e-07 -3.503200e-08 7.789977e-08 -6.306777e-08 1.437152e-07 -9.648429e-08 -8.998416e-08 1.010382e-07 -1.644749e-08 3.964178e-03 4.991033e-03 -2.259726e-03 -8.660138e-04 -1.980516e-03 2.296586e-03 -1.050157e-04 -6.062090e-03 -3.834328e-04 3.311979e-04 1.732379e-04 -2.677502e-03 -2.030911e-03
<VARIANCE> 25
 3.382748e+01 3.628031e+01 4.600648e+01 2.294502e+01 9.100511e+01 4.563913e+01 5.834692e+01 5.632589e+01 3.456791e+01 4.004803e+01 4.066158e+01 4.632240e+01 1.656153e+00 1.407841e+00 1.798202e+00 1.585461e+00 4.502382e+00 2.970210e+00 3.744460e+00 3.177201e+00 2.837936e+00 2.797859e+00 2.639533e+00 2.465156e+00 1.004578e+00
<GCONST> 1.021376e+02
<TRANSP> 5
 0.000000e+00 1.000000e+00 0.000000e+00 0.000000e+00 0.000000e+00
 0.000000e+00 6.000000e-01 4.000000e-01 0.000000e+00 0.000000e+00
 0.000000e+00 0.000000e+00 6.000000e-01 4.000000e-01 0.000000e+00
 0.000000e+00 0.000000e+00 0.000000e+00 7.000000e-01 3.000000e-01
 0.000000e+00 0.000000e+00 0.000000e+00 0.000000e+00 0.000000e+00
<ENDHMM>
~h "l3_i"
<BEGINHMM>
<NUMSTATES> 5
<STATE> 2
<MEAN> 25
 2.132367e+00 -1.334357e+00 -4.755857e+00 -1.597707e+00 8.896561e+00 2.510237e+00 -1.592911e+00 1.043838e-01 3.819971e-01 -9.317530e-01 -1.394904e+00 1.465250e-01 -8.710501e-02 -5.147000e-02 3.300184e-02 9.897761e-02 3.626365e-01 -3.146263e-01 -1.337004e-02 9.773470e-02 1.622858e-01 -2.220441e-01 2.951494e-01 -1.112654e-01 4.360903e-02
<VARIANCE> 25
 1.081778e+01 1.855125e+01 5.290977e+01 2.011941e+01 1.565363e+02 5.160945e+01 8.311423e+01 3.482338e+01 3.586165e+01 1.899332e+01 3.195757e+01 2.000187e+01 5.609896e-01 9.172493e-01 7.367932e-01 8.767499e-01 3.805001e+00 2.053503e+00 5.634443e+00 2.881422e+00 2.408478e+00 1.591047e+00 2.078587e+00 1.325768e+00 3.980141e-01
<GCONST> 9.334785e+01
<STATE> 3
<MEAN> 25
 1.990287e+00 -1.408059e+00 -4.672469e+00 -1.129200e+00 9.107271e+00 7.783337e-01 -1.100571e+00 -3.196923e-01 1.140695e+00 -2.026277e+00 -5.493268e-01 -6.935913e-01 -8.489632e-02 -9.440327e-02 9.935608e-02 1.209926e-01 -4.220319e-02 -3.153504e-01 1.325563e-01 2.803769e-03 -5.888248e-03 -2.611054e-01 2.644797e-01 -1.653895e-01 -4.426419e-02
<VARIANCE> 25
 1.350825e+01 1.972096e+01 5.246468e+01 1.977818e+01 1.509675e+02 4.823286e+01 7.024766e+01 3.491917e+01 4.040403e+01 2.064175e+01 2.697737e+01 2.804871e+01 5.647434e-01 7.675442e-01 8.162848e-01 8.689448e-01 3.424856e+00 2.255593e+00 4.978079e+00 2.564142e+00 2.395321e+00 1.846526e+00 1.539859e+00 1.393856e+00 3.042690e-01
<GCONST> 9.300248e+01
<STATE> 4
<MEAN> 25
 1.839866e+00 -1.721338e+00 -3.978328e+00 -8.832101e-01 8.405503e+00 -7.865473e-01 2.173383e-01 -7.543082e-01 8.260108e-01 -2.936743e+00 5.797448e-01 -1.669208e+00 -1.527655e-01 -1.953432e-01 3.942938e-01 2.363035e-02 -3.841125e-01 1.817123e-01 2.447120e-01 3.527576e-01 -1.590167e-01 1.293472e-01 4.671381e-01 5.591280e-02 -8.137979e-02
<VARIANCE> 25
 1.530375e+01 1.677429e+01 4.536965e+01 1.591265e+01 9.605888e+01 4.313512e+01 5.988927e+01 3.971788e+01 4.061390e+01 2.130591e+01 2.525531e+01 2.881392e+01 8.483807e-01 7.345601e-01 1.231751e+00 1.154334e+00 3.379029e+00 2.917413e+00 4.206832e+00 2.876748e+00 2.276516e+00 2.401505e+00 1.406844e+00 1.594565e+00 3.018063e-01
<GCONST> 9.350282e+01
<TRANSP> 5
 0.000000e+00 1.000000e+00 0.000000e+00 0.000000e+00 0.000000e+00
 0.000000e+00 7.266082e-01 2.733918e-01 0.000000e+00 0.000000e+00
 0.000000e+00 0.000000e+00 7.266084e-01 2.733916e-01 0.000000e+00
 0.000000e+00 0.000000e+00 0.000000e+00 8.391662e-01 1.608338e-01
 0.000000e+00 0.000000e+00 0.000000e+00 0.000000e+00 0.000000e+00
<ENDHMM>
~h "l3_u"
<BEGINHMM>
<NUMSTATES> 5
<STATE> 2
<MEAN> 25
 -1.651109e-08 -2.268430e-07 1.259320e-08 1.165062e-07 -3.503200e-08 7.789977e-08 -6.306777e-08 1.437152e-07 -9.648429e-08 -8.998416e-08 1.010382e-07 -1.644749e-08 3.964178e-03 4.991033e-03 -2.259726e-03 -8.660138e-04 -1.980516e-03 2.296586e-03 -1.050157e-04 -6.062090e-03 -3.834328e-04 3.311979e-04 1.732379e-04 -2.677502e-03 -2.030911e-03
<VARIANCE> 25
 3.382748e+01 3.628031e+01 4.600648e+01 2.294502e+01 9.100511e+01 4.563913e+01 5.834692e+01 5.632589e+01 3.456791e+01 4.004803e+01 4.066158e+01 4.632240e+01 1.656153e+00 1.407841e+00 1.798202e+00 1.585461e+00 4.502382e+00 2.970210e+00 3.744460e+00 3.177201e+00 2.837936e+00 2.797859e+00 2.639533e+00 2.465156e+00 1.004578e+00
<GCONST> 1.021376e+02
<STATE> 3
<MEAN> 25
 -1.651109e-08 -2.268430e-07 1.259320e-08 1.165062e-07 -3.503200e-08 7.789977e-08 -6.306777e-08 1.437152e-07 -9.648429e-08 -8.998416e-08 1.010382e-07 -1.644749e-08 3.964178e-03 4.991033e-03 -2.259726e-03 -8.660138e-04 -1.980516e-03 2.296586e-03 -1.050157e-04 -6.062090e-03 -3.834328e-04 3.311979e-04 1.732379e-04 -2.677502e-03 -2.030911e-03
<VARIANCE> 25
 3.382748e+01 3.628031e+01 4.600648e+01 2.294502e+01 9.100511e+01 4.563913e+01 5.834692e+01 5.632589e+01 3.456791e+01 4.004803e+01 4.066158e+01 4.632240e+01 1.656153e+00 1.407841e+00 1.798202e+00 1.585461e+00 4.502382e+00 2.970210e+00 3.744460e+00 3.177201e+00 2.837936e+00 2.797859e+00 2.639533e+00 2.465156e+00 1.004578e+00
<GCONST> 1.021376e+02
<STATE> 4
<MEAN> 25
 -1.651109e-08 -2.268430e-07 1.259320e-08 1.165062e-07 -3.503200e-08 7.789977e-08 -6.306777e-08 1.437152e-07 -9.648429e-08 -8.998416e-08 1.010382e-07 -1.644749e-08 3.964178e-03 4.991033e-03 -2.259726e-03 -8.660138e-04 -1.980516e-03 2.296586e-03 -1.050157e-04 -6.062090e-03 -3.834328e-04 3.311979e-04 1.732379e-04 -2.677502e-03 -2.030911e-03
<VARIANCE> 25
 3.382748e+01 3.628031e+01 4.600648e+01 2.294502e+01 9.100511e+01 4.563913e+01 5.834692e+01 5.632589e+01 3.456791e+01 4.004803e+01 4.066158e+01 4.632240e+01 1.656153e+00 1.407841e+00 1.798202e+00 1.585461e+00 4.502382e+00 2.970210e+00 3.744460e+00 3.177201e+00 2.837936e+00 2.797859e+00 2.639533e+00 2.465156e+00 1.004578e+00
<GCONST> 1.021376e+02
<TRANSP> 5
 0.000000e+00 1.000000e+00 0.000000e+00 0.000000e+00 0.000000e+00
 0.000000e+00 6.000000e-01 4.000000e-01 0.000000e+00 0.000000e+00
 0.000000e+00 0.000000e+00 6.000000e-01 4.000000e-01 0.000000e+00
 0.000000e+00 0.000000e+00 0.000000e+00 7.000000e-01 3.000000e-01
 0.000000e+00 0.000000e+00 0.000000e+00 0.000000e+00 0.000000e+00
<ENDHMM>
~h "l4_i"
<BEGINHMM>
<NUMSTATES> 5
<STATE> 2
<MEAN> 25
 -1.651109e-08 -2.268430e-07 1.259320e-08 1.165062e-07 -3.503200e-08 7.789977e-08 -6.306777e-08 1.437152e-07 -9.648429e-08 -8.998416e-08 1.010382e-07 -1.644749e-08 3.964178e-03 4.991033e-03 -2.259726e-03 -8.660138e-04 -1.980516e-03 2.296586e-03 -1.050157e-04 -6.062090e-03 -3.834328e-04 3.311979e-04 1.732379e-04 -2.677502e-03 -2.030911e-03
<VARIANCE> 25
 3.382748e+01 3.628031e+01 4.600648e+01 2.294502e+01 9.100511e+01 4.563913e+01 5.834692e+01 5.632589e+01 3.456791e+01 4.004803e+01 4.066158e+01 4.632240e+01 1.656153e+00 1.407841e+00 1.798202e+00 1.585461e+00 4.502382e+00 2.970210e+00 3.744460e+00 3.177201e+00 2.837936e+00 2.797859e+00 2.639533e+00 2.465156e+00 1.004578e+00
<GCONST> 1.021376e+02
<STATE> 3
<MEAN> 25
 -1.651109e-08 -2.268430e-07 1.259320e-08 1.165062e-07 -3.503200e-08 7.789977e-08 -6.306777e-08 1.437152e-07 -9.648429e-08 -8.998416e-08 1.010382e-07 -1.644749e-08 3.964178e-03 4.991033e-03 -2.259726e-03 -8.660138e-04 -1.980516e-03 2.296586e-03 -1.050157e-04 -6.062090e-03 -3.834328e-04 3.311979e-04 1.732379e-04 -2.677502e-03 -2.030911e-03
<VARIANCE> 25
 3.382748e+01 3.628031e+01 4.600648e+01 2.294502e+01 9.100511e+01 4.563913e+01 5.834692e+01 5.632589e+01 3.456791e+01 4.004803e+01 4.066158e+01 4.632240e+01 1.656153e+00 1.407841e+00 1.798202e+00 1.585461e+00 4.502382e+00 2.970210e+00 3.744460e+00 3.177201e+00 2.837936e+00 2.797859e+00 2.639533e+00 2.465156e+00 1.004578e+00
<GCONST> 1.021376e+02
<STATE> 4
<MEAN> 25
 -1.651109e-08 -2.268430e-07 1.259320e-08 1.165062e-07 -3.503200e-08 7.789977e-08 -6.306777e-08 1.437152e-07 -9.648429e-08 -8.998416e-08 1.010382e-07 -1.644749e-08 3.964178e-03 4.991033e-03 -2.259726e-03 -8.660138e-04 -1.980516e-03 2.296586e-03 -1.050157e-04 -6.062090e-03 -3.834328e-04 3.311979e-04 1.732379e-04 -2.677502e-03 -2.030911e-03
<VARIANCE> 25
 3.382748e+01 3.628031e+01 4.600648e+01 2.294502e+01 9.100511e+01 4.563913e+01 5.834692e+01 5.632589e+01 3.456791e+01 4.004803e+01 4.066158e+01 4.632240e+01 1.656153e+00 1.407841e+00 1.798202e+00 1.585461e+00 4.502382e+00 2.970210e+00 3.744460e+00 3.177201e+00 2.837936e+00 2.797859e+00 2.639533e+00 2.465156e+00 1.004578e+00
<GCONST> 1.021376e+02
<TRANSP> 5
 0.000000e+00 1.000000e+00 0.000000e+00 0.000000e+00 0.000000e+00
 0.000000e+00 6.000000e-01 4.000000e-01 0.000000e+00 0.000000e+00
 0.000000e+00 0.000000e+00 6.000000e-01 4.000000e-01 0.000000e+00
 0.000000e+00 0.000000e+00 0.000000e+00 7.000000e-01 3.000000e-01
 0.000000e+00 0.000000e+00 0.000000e+00 0.000000e+00 0.000000e+00
<ENDHMM>
~h "l4_u"
<BEGINHMM>
<NUMSTATES> 5
<STATE> 2
<MEAN> 25
 -9.008405e-01 -3.318045e+00 -3.168385e-01 1.210720e+00 -4.907091e+00 -4.203124e+00 2.951110e+00 -1.474469e+00 1.829499e+00 5.765254e+00 5.748181e+00 1.419771e+01 7.289936e-02 -1.183718e-01 -1.905781e-01 -1.810955e-02 1.010749e-01 -5.653249e-02 2.329555e-01 2.967145e-02 -3.475970e-02 4.660071e-02 -4.377074e-02 1.219767e-01 4.507736e-03
<VARIANCE> 25
 1.459368e+01 3.448775e+01 4.836329e+01 2.084446e+01 1.073290e+02 2.036136e+01 4.887486e+01 4.803087e+01 3.783138e+01 9.193284e+01 7.999861e+01 6.336613e+01 6.893692e-01 1.315525e+00 2.187974e+00 1.926917e+00 3.499899e+00 1.727324e+00 3.548699e+00 3.096104e+00 3.096836e+00 4.534295e+00 3.336278e+00 4.443289e+00 5.761842e-01
<GCONST> 1.015439e+02
<STATE> 3
<MEAN> 25
 -1.386621e-01 3.381413e-01 -9.804283e-01 1.548775e+00 -4.851170e+00 -4.983197e+00 3.390794e+00 -1.563640e+00 -1.817105e+00 1.046398e+00 -2.330736e+00 2.101204e+00 -2.111851e-02 1.060634e-01 8.606417e-02 6.133546e-03 3.938504e-02 1.862409e-02 -1.922211e-01 -4.084876e-02 1.083154e-01 -2.606712e-02 -7.074276e-02 -2.551234e-01 -2.203508e-02
<VARIANCE> 25
 2.690565e+01 1.807234e+01 2.541732e+01 1.232480e+01 4.260193e+01 3.132400e+01 6.649626e+01 4.759712e+01 4.226213e+01 5.139818e+01 6.957088e+01 5.889936e+01 1.838468e+00 1.616634e+00 2.034962e+00 1.067728e+00 2.572689e+00 3.527164e+00 6.603968e+00 4.701325e+00 3.468475e+00 3.641645e+00 3.834657e+00 3.558396e+00 1.154957e+00
<GCONST> 1.019384e+02
<STATE> 4
<MEAN> 25
 2.267156e+00 1.491317e+00 -1.266410e+00 -5.038809e-01 4.795863e+00 2.848193e+00 -3.296522e+00 -2.323476e+00 1.055778e+00 -1.306327e+00 -1.291345e+00 -5.681459e+00 -5.020572e-02 -2.115668e-02 3.165479e-02 1.123485e-02 4.762597e-02 7.623019e-02 2.384947e-02 3.834146e-02 -1.297487e-02 2.522433e-03 6.690618e-02 -3.091653e-02 -9.005530e-03
<VARIANCE> 25
 3.897274e+01 2.236123e+01 5.434399e+01 2.878075e+01 1.015952e+02 5.679208e+01 4.109437e+01 3.775631e+01 3.255337e+01 3.721860e+01 3.653976e+01 2.529694e+01 1.816427e+00 1.306411e+00 2.607188e+00 1.689098e+00 4.351002e+00 3.621618e+00 3.923472e+00 2.967352e+00 3.321662e+00 3.014890e+00 3.236842e+00 2.446140e+00 7.701535e-01
<GCONST> 1.016789e+02
<TRANSP> 5
 0.000000e+00 1.000000e+00 0.000000e+00 0.000000e+00 0.000000e+00
 0.000000e+00 9.782890e-01 2.171102e-02 0.000000e+00 0.000000e+00
 0.000000e+00 0.000000e+00 9.820862e-01 1.791384e-02 0.000000e+00
 0.000000e+00 0.000000e+00 0.000000e+00 9.931788e-01 6.821267e-03
 0.000000e+00 0.000000e+00 0.000000e+00 0.000000e+00 0.000000e+00
<ENDHMM>
~h "l5_i"
<BEGINHMM>
<NUMSTATES> 5
<STATE> 2
<MEAN> 25
 7.006458e+00 -6.491801e+00 -1.130923e+01 1.209408e+00 1.786190e+00 4.184658e+00 -2.977425e+00 3.075647e+00 8.833389e-01 1.646578e+00 -7.157995e+00 8.798360e-01 -1.204434e-01 -3.038153e-03 -2.088184e-01 1.337005e-01 2.761772e-01 7.369696e-01 -5.310658e-02 -6.272274e-01 9.566858e-03 2.389947e-01 3.125621e-01 4.712425e-01 1.181550e-01
<VARIANCE> 25
 2.251670e+01 8.386448e+00 7.779369e+00 9.216584e+00 6.084781e+01 3.598249e+01 3.313602e+01 6.715301e+01 1.095984e+01 6.307781e+00 1.853189e+01 1.345016e+01 4.685091e-01 5.835024e-01 1.149275e+00 1.704557e+00 5.288796e+00 2.282639e+00 3.951949e+00 3.563935e+00 1.318484e+00 7.067465e-01 8.810201e-01 1.024077e+00 3.376667e-01
<GCONST> 8.386612e+01
<STATE> 3
<MEAN> 25
 -2.324505e+00 1.813141e+00 -8.137715e-01 2.784747e+00 3.590916e+00 8.819738e-01 1.715918e-01 1.557542e+00 1.602788e+00 3.095888e+00 5.485333e+00 8.568730e-01 3.414643e-02 3.484559e-02 1.087031e-01 -3.189889e-02 4.669812e-03 9.377001e-03 -4.101027e-02 5.082159e-02 2.788200e-02 5.108856e-03 6.663691e-02 -1.979358e-02 -1.713580e-01
<VARIANCE> 25
 2.432190e+01 1.426265e+01 2.009429e+01 1.323493e+01 4.339489e+01 1.594146e+01 2.037514e+01 2.846229e+01 1.358089e+01 2.007837e+01 1.544404e+01 1.320195e+01 6.250869e-01 6.083054e-01 8.357283e-01 8.931146e-01 2.022104e+00 1.708238e+00 1.583665e+00 1.714051e+00 1.562411e+00 1.785935e+00 1.374460e+00 1.235553e+00 1.444368e-01
<GCONST> 8.180690e+01
<STATE> 4
<MEAN> 25
 1.392258e+00 1.488113e+00 -1.402958e-01 1.326131e-01 -3.728311e+00 -1.602948e+00 2.471904e+00 -2.685885e+00 -1.013122e+00 -1.641739e+00 -2.585423e+00 -1.140432e+00 4.337725e-03 1.481931e-02 -8.478222e-03 3.848865e-03 -2.083254e-02 -2.877506e-03 3.859556e-02 5.634923e-03 -1.630003e-02 -2.877987e-02 -1.711789e-02 -1.161848e-02 1.468200e-02
<VARIANCE> 25
 3.431073e+01 4.120617e+01 5.086603e+01 2.797097e+01 8.839029e+01 2.911361e+01 6.303600e+01 4.750059e+01 3.396513e+01 3.339005e+01 3.907578e+01 2.963789e+01 1.986606e+00 1.927373e+00 1.857396e+00 2.000681e+00 5.774719e+00 2.633394e+00 4.402764e+00 3.059076e+00 2.837003e+00 2.763927e+00 2.932840e+00 2.707098e+00 1.809276e+00
<GCONST> 1.031084e+02
<TRANSP> 5
 0.000000e+00 1.000000e+00 0.000000e+00 0.000000e+00 0.000000e+00
 0.000000e+00 8.962901e-01 1.037100e-01 0.000000e+00 0.000000e+00
 0.000000e+00 0.000000e+00 9.835194e-01 1.648065e-02 0.000000e+00
 0.000000e+00 0.000000e+00 0.000000e+00 9.955894e-01 4.410611e-03
 0.000000e+00 0.000000e+00 0.000000e+00 0.000000e+00 0.000000e+00
<ENDHMM>
~h "l5_u"
<BEGINHMM>
<NUMSTATES> 5
<STATE> 2
<MEAN> 25
 -1.651109e-08 -2.268430e-07 1.259320e-08 1.165062e-07 -3.503200e-08 7.789977e-08 -6.306777e-08 1.437152e-07 -9.648429e-08 -8.998416e-08 1.010382e-07 -1.644749e-08 3.964178e-03 4.991033e-03 -2.259726e-03 -8.660138e-04 -1.980516e-03 2.296586e-03 -1.050157e-04 -6.062090e-03 -3.834328e-04 3.311979e-04 1.732379e-04 -2.677502e-03 -2.030911e-03
<VARIANCE> 25
 3.382748e+01 3.628031e+01 4.600648e+01 2.294502e+01 9.100511e+01 4.563913e+01 5.834692e+01 5.632589e+01 3.456791e+01 4.004803e+01 4.066158e+01 4.632240e+01 1.656153e+00 1.407841e+00 1.798202e+00 1.585461e+00 4.502382e+00 2.970210e+00 3.744460e+00 3.177201e+00 2.837936e+00 2.797859e+00 2.639533e+00 2.465156e+00 1.004578e+00
<GCONST> 1.021376e+02
<STATE> 3
<MEAN> 25
 -1.651109e-08 -2.268430e-07 1.259320e-08 1.165062e-07 -3.503200e-08 7.789977e-08 -6.306777e-08 1.437152e-07 -9.648429e-08 -8.998416e-08 1.010382e-07 -1.644749e-08 3.964178e-03 4.991033e-03 -2.259726e-03 -8.660138e-04 -1.980516e-03 2.296586e-03 -1.050157e-04 -6.062090e-03 -3.834328e-04 3.311979e-04 1.732379e-04 -2.677502e-03 -2.030911e-03
<VARIANCE> 25
 3.382748e+01 3.628031e+01 4.600648e+01 2.294502e+01 9.100511e+01 4.563913e+01 5.834692e+01 5.632589e+01 3.456791e+01 4.004803e+01 4.066158e+01 4.632240e+01 1.656153e+00 1.407841e+00 1.798202e+00 1.585461e+00 4.502382e+00 2.970210e+00 3.744460e+00 3.177201e+00 2.837936e+00 2.797859e+00 2.639533e+00 2.465156e+00 1.004578e+00
<GCONST> 1.021376e+02
<STATE> 4
<MEAN> 25
 -1.651109e-08 -2.268430e-07 1.259320e-08 1.165062e-07 -3.503200e-08 7.789977e-08 -6.306777e-08 1.437152e-07 -9.648429e-08 -8.998416e-08 1.010382e-07 -1.644749e-08 3.964178e-03 4.991033e-03 -2.259726e-03 -8.660138e-04 -1.980516e-03 2.296586e-03 -1.050157e-04 -6.062090e-03 -3.834328e-04 3.311979e-04 1.732379e-04 -2.677502e-03 -2.030911e-03
<VARIANCE> 25
 3.382748e+01 3.628031e+01 4.600648e+01 2.294502e+01 9.100511e+01 4.563913e+01 5.834692e+01 5.632589e+01 3.456791e+01 4.004803e+01 4.066158e+01 4.632240e+01 1.656153e+00 1.407841e+00 1.798202e+00 1.585461e+00 4.502382e+00 2.970210e+00 3.744460e+00 3.177201e+00 2.837936e+00 2.797859e+00 2.639533e+00 2.465156e+00 1.004578e+00
<GCONST> 1.021376e+02
<TRANSP> 5
 0.000000e+00 1.000000e+00 0.000000e+00 0.000000e+00 0.000000e+00
 0.000000e+00 6.000000e-01 4.000000e-01 0.000000e+00 0.000000e+00
 0.000000e+00 0.000000e+00 6.000000e-01 4.000000e-01 0.000000e+00
 0.000000e+00 0.000000e+00 0.000000e+00 7.000000e-01 3.000000e-01
 0.000000e+00 0.000000e+00 0.000000e+00 0.000000e+00 0.000000e+00
<ENDHMM>
~h "sil"
<BEGINHMM>
<NUMSTATES> 5
<STATE> 2
<MEAN> 25
 -2.834535e+00 -2.315182e+00 5.075876e-01 1.409421e-01 5.234908e+00 2.097239e+00 -1.053375e+00 5.638387e+00 4.532658e-01 -1.120709e-01 3.597728e+00 1.620764e+00 -1.962230e-02 -3.750044e-02 1.398942e-02 -4.232805e-03 6.572312e-03 3.861769e-02 8.082188e-03 5.545789e-02 1.451546e-02 2.149284e-02 6.648879e-02 8.055981e-02 -1.240047e-01
<VARIANCE> 25
 3.045789e+01 2.252115e+01 2.621806e+01 1.435692e+01 2.828342e+01 2.241343e+01 2.894462e+01 2.852586e+01 2.081709e+01 2.450444e+01 1.916805e+01 2.261332e+01 4.178582e-01 4.862993e-01 8.104597e-01 8.464057e-01 1.104560e+00 1.265033e+00 1.432700e+00 1.689150e+00 1.556263e+00 1.683824e+00 1.475159e+00 1.341766e+00 2.087198e-01
<GCONST> 8.321017e+01
<STATE> 3
~s "silst"
<STATE> 4
<MEAN> 25
 1.097614e+00 2.036792e+00 8.876251e-01 -2.414056e-01 -1.925905e+00 -4.781763e-01 -9.272298e-01 -1.987239e+00 -1.983865e-02 -2.848160e-01 -1.253519e+00 -2.154976e+00 -4.883529e-03 2.725777e-02 -1.177758e-02 3.014133e-03 6.536482e-02 3.088730e-02 -5.064787e-02 1.463208e-02 4.123359e-03 2.010765e-03 2.354856e-02 -3.087917e-02 -4.485433e-03
<VARIANCE> 25
 3.501410e+01 3.168700e+01 5.573941e+01 2.673495e+01 9.936903e+01 5.247114e+01 5.591637e+01 5.512172e+01 3.831861e+01 4.067951e+01 3.978920e+01 3.296233e+01 2.210982e+00 1.702619e+00 2.217281e+00 1.858207e+00 5.793653e+00 3.631282e+00 3.958268e+00 3.664468e+00 3.149437e+00 3.043699e+00 3.004710e+00 2.641023e+00 1.180058e+00
<GCONST> 1.043479e+02
<TRANSP> 5
 0.000000e+00 1.000000e+00 0.000000e+00 0.000000e+00 0.000000e+00
 0.000000e+00 8.788375e-01 3.971540e-02 8.144710e-02 0.000000e+00
 0.000000e+00 0.000000e+00 9.371729e-01 6.282707e-02 0.000000e+00
 0.000000e+00 4.284066e-02 0.000000e+00 9.517260e-01 5.433375e-03
 0.000000e+00 0.000000e+00 0.000000e+00 0.000000e+00 0.000000e+00
<ENDHMM>
