~o
<STREAMINFO> 1 25
<VECSIZE> 25<NULLD><MFCC_D_N_Z_0><DIAGC>
~h "l1_i"
<BEGINHMM>
<NUMSTATES> 5
<STATE> 2
<MEAN> 25
 -1.651109e-08 -2.268430e-07 1.259320e-08 1.165062e-07 -3.503200e-08 7.789977e-08 -6.306777e-08 1.437152e-07 -9.648429e-08 -8.998416e-08 1.010382e-07 -1.644749e-08 3.964178e-03 4.991033e-03 -2.259726e-03 -8.660138e-04 -1.980516e-03 2.296586e-03 -1.050157e-04 -6.062090e-03 -3.834328e-04 3.311979e-04 1.732379e-04 -2.677502e-03 -2.030911e-03
<VARIANCE> 25
 3.382748e+01 3.628031e+01 4.600648e+01 2.294502e+01 9.100511e+01 4.563913e+01 5.834692e+01 5.632589e+01 3.456791e+01 4.004803e+01 4.066158e+01 4.632240e+01 1.656153e+00 1.407841e+00 1.798202e+00 1.585461e+00 4.502382e+00 2.970210e+00 3.744460e+00 3.177201e+00 2.837936e+00 2.797859e+00 2.639533e+00 2.465156e+00 1.004578e+00
<GCONST> 1.021376e+02
<STATE> 3
<MEAN> 25
 -1.651109e-08 -2.268430e-07 1.259320e-08 1.165062e-07 -3.503200e-08 7.789977e-08 -6.306777e-08 1.437152e-07 -9.648429e-08 -8.998416e-08 1.010382e-07 -1.644749e-08 3.964178e-03 4.991033e-03 -2.259726e-03 -8.660138e-04 -1.980516e-03 2.296586e-03 -1.050157e-04 -6.062090e-03 -3.834328e-04 3.311979e-04 1.732379e-04 -2.677502e-03 -2.030911e-03
<VARIANCE> 25
 3.382748e+01 3.628031e+01 4.600648e+01 2.294502e+01 9.100511e+01 4.563913e+01 5.834692e+01 5.632589e+01 3.456791e+01 4.004803e+01 4.066158e+01 4.632240e+01 1.656153e+00 1.407841e+00 1.798202e+00 1.585461e+00 4.502382e+00 2.970210e+00 3.744460e+00 3.177201e+00 2.837936e+00 2.797859e+00 2.639533e+00 2.465156e+00 1.004578e+00
<GCONST> 1.021376e+02
<STATE> 4
<MEAN> 25
 -1.651109e-08 -2.268430e-07 1.259320e-08 1.165062e-07 -3.503200e-08 7.789977e-08 -6.306777e-08 1.437152e-07 -9.648429e-08 -8.998416e-08 1.010382e-07 -1.644749e-08 3.964178e-03 4.991033e-03 -2.259726e-03 -8.660138e-04 -1.980516e-03 2.296586e-03 -1.050157e-04 -6.062090e-03 -3.834328e-04 3.311979e-04 1.732379e-04 -2.677502e-03 -2.030911e-03
<VARIANCE> 25
 3.382748e+01 3.628031e+01 4.600648e+01 2.294502e+01 9.100511e+01 4.563913e+01 5.834692e+01 5.632589e+01 3.456791e+01 4.004803e+01 4.066158e+01 4.632240e+01 1.656153e+00 1.407841e+00 1.798202e+00 1.585461e+00 4.502382e+00 2.970210e+00 3.744460e+00 3.177201e+00 2.837936e+00 2.797859e+00 2.639533e+00 2.465156e+00 1.004578e+00
<GCONST> 1.021376e+02
<TRANSP> 5
 0.000000e+00 1.000000e+00 0.000000e+00 0.000000e+00 0.000000e+00
 0.000000e+00 6.000000e-01 4.000000e-01 0.000000e+00 0.000000e+00
 0.000000e+00 0.000000e+00 6.000000e-01 4.000000e-01 0.000000e+00
 0.000000e+00 0.000000e+00 0.000000e+00 7.000000e-01 3.000000e-01
 0.000000e+00 0.000000e+00 0.000000e+00 0.000000e+00 0.000000e+00
<ENDHMM>
~h "l1_u"
<BEGINHMM>
<NUMSTATES> 5
<STATE> 2
<MEAN> 25
 -4.183472e+00 3.660005e+00 -1.723208e+00 2.953496e+00 -3.290541e+00 -8.722359e+00 3.067200e+00 -2.638569e+00 4.402132e-01 6.988679e-01 4.086103e+00 1.297376e+01 1.602029e-01 1.500855e-01 -4.605794e-02 -3.268427e-01 -1.492597e-02 -2.097052e-01 7.754970e-01 2.268980e-01 1.742049e-01 1.547995e-01 -7.586405e-01 2.442518e-01 -1.659743e-02
<VARIANCE> 25
 7.275239e+00 3.267044e+01 1.037576e+01 1.296847e+01 1.967402e+01 2.702926e+01 4.844009e+01 3.896831e+01 1.641610e+01 3.985180e+01 3.394381e+01 2.560488e+01 1.079466e+00 1.655746e+00 1.118626e+00 1.557067e+00 2.124314e+00 1.810138e+00 6.426744e+00 1.988588e+00 2.242223e+00 3.049943e+00 3.064853e+00 4.293299e+00 1.157977e-01
<GCONST> 9.076418e+01
<STATE> 3
<MEAN> 25
 2.394760e+00 -2.223561e+00 -3.448064e+00 2.272913e+00 -3.506777e+00 -3.047527e+00 5.238392e+00 1.482344e+00 1.045967e+00 -6.905854e-02 -6.577328e+00 5.525291e+00 3.906017e-01 -1.430833e-01 -1.203981e-01 2.221201e-02 6.865086e-02 1.014058e-01 -5.769302e-01 -2.540673e-01 -1.557743e-01 -1.684115e-01 2.017664e-01 -6.430866e-01 -2.199874e-01
<VARIANCE> 25
 1.401385e+01 2.275860e+01 1.571379e+01 1.240659e+01 1.302288e+01 7.880979e+01 7.538110e+01 4.548602e+01 2.995723e+01 2.385584e+01 4.742104e+01 3.885488e+01 3.763668e-01 1.766308e+00 7.071878e-01 1.113269e+00 1.294244e+00 2.701447e+00 4.356660e+00 3.290751e+00 2.292553e+00 2.029588e+00 3.641335e+00 1.718510e+00 1.953107e-01
<GCONST> 9.115432e+01
<STATE> 4
<MEAN> 25
 1.964782e+00 7.733849e-01 -1.413926e+00 -1.061768e+00 -8.677058e-01 7.058461e-01 6.912324e-02 -2.925826e+00 -4.240708e-01 1.012273e+00 -1.589271e+00 -2.864500e+00 -9.730751e-03 -1.721801e-02 2.600918e-02 -1.128350e-02 -2.913941e-03 4.131709e-02 1.857259e-02 5.162163e-02 1.807037e-02 -1.890882e-02 -1.016521e-02 1.072139e-02 2.206922e-02
<VARIANCE> 25
 2.728472e+01 2.161831e+01 3.238490e+01 2.088304e+01 9.785071e+01 4.863627e+01 7.513435e+01 4.703057e+01 5.181502e+01 5.032173e+01 3.238523e+01 5.807030e+01 1.139583e+00 9.786829e-01 1.515255e+00 1.870239e+00 4.143720e+00 3.040826e+00 4.218744e+00 3.625262e+00 3.053968e+00 2.694706e+00 2.733763e+00 2.674756e+00 7.930781e-01
<GCONST> 1.011641e+02
<TRANSP> 5
 0.000000e+00 1.000000e+00 0.000000e+00 0.000000e+00 0.000000e+00
 0.000000e+00 9.488889e-01 5.111109e-02 0.000000e+00 0.000000e+00
 0.000000e+00 0.000000e+00 9.564332e-01 4.356684e-02 0.000000e+00
 0.000000e+00 0.000000e+00 0.000000e+00 9.945714e-01 5.428533e-03
 0.000000e+00 0.000000e+00 0.000000e+00 0.000000e+00 0.000000e+00
<ENDHMM>
~h "l2_i"
<BEGINHMM>
<NUMSTATES> 5
<STATE> 2
<MEAN> 25
 3.069138e-01 -3.851783e+00 -2.159759e+00 2.291657e+00 -9.814936e-02 -1.902727e+00 7.562380e-01 -1.716033e+00 -8.745579e-01 -3.214957e+00 -2.913797e+00 3.082089e+00 2.324514e-03 -1.555148e-01 -2.577327e-01 4.299942e-03 3.103362e-01 2.098965e-01 -1.909124e-01 -3.408013e-02 2.615496e-01 -2.933302e-02 -1.482437e-01 5.390207e-02 3.014370e-02
<VARIANCE> 25
 1.184217e+01 3.093320e+01 2.927991e+01 1.412169e+01 5.822215e+01 3.889587e+01 6.976814e+01 6.985585e+01 5.503845e+01 3.278408e+01 3.718812e+01 3.120488e+01 1.136662e+00 1.847279e+00 1.717267e+00 1.397860e+00 6.802916e+00 3.791440e+00 7.098310e+00 5.111094e+00 6.357296e+00 2.841303e+00 4.109901e+00 3.044656e+00 1.832784e+00
<GCONST> 1.031317e+02
<STATE> 3
<MEAN> 25
 -1.694828e-01 -2.991474e+00 -3.834846e+00 1.018079e+00 3.051119e+00 1.319788e+00 1.853850e-01 6.893113e-02 -4.788272e-01 -3.872066e-01 -2.694792e+00 1.913574e+00 -4.547264e-02 8.606167e-02 2.229196e-01 -9.800867e-02 -3.263159e-01 4.662231e-02 1.835632e-01 -7.094258e-02 -6.767482e-03 3.817743e-02 1.104628e-01 -5.754821e-02 -1.971874e-03
<VARIANCE> 25
 1.840118e+01 2.128994e+01 2.583199e+01 1.453983e+01 6.423956e+01 2.432570e+01 4.998115e+01 5.552983e+01 4.873367e+01 2.156377e+01 3.184184e+01 2.041908e+01 1.751810e+00 1.415625e+00 1.820742e+00 1.345645e+00 6.587906e+00 2.708534e+00 3.314134e+00 4.789290e+00 3.707720e+00 2.365919e+00 2.673570e+00 2.521799e+00 7.395353e-01
<GCONST> 9.779224e+01
<STATE> 4
<MEAN> 25
 5.851887e-01 1.472134e+00 8.513210e-01 -2.816335e-01 -1.680248e+00 -8.273738e-01 7.722241e-01 1.520021e-01 1.378164e-01 1.076882e-01 -2.314204e-02 -2.331829e+00 1.226889e-02 1.913248e-03 -2.540312e-02 3.263433e-03 5.077428e-02 1.949202e-02 1.157344e-02 3.396723e-02 1.211698e-02 -2.274525e-02 1.213097e-02 -1.124612e-02 1.563518e-02
<VARIANCE> 25
 3.929406e+01 3.181377e+01 3.796045e+01 1.947614e+01 6.699366e+01 5.467184e+01 4.685749e+01 4.708780e+01 2.837500e+01 2.976691e+01 2.918179e+01 2.195884e+01 2.292436e+00 1.917084e+00 1.876149e+00 1.450875e+00 4.970585e+00 3.326473e+00 3.481194e+00 3.244444e+00 2.826504e+00 2.567592e+00 2.316448e+00 1.929806e+00 9.697637e-01
<GCONST> 9.995066e+01
<TRANSP> 5
 0.000000e+00 1.000000e+00 0.000000e+00 0.000000e+00 0.000000e+00
 0.000000e+00 9.580382e-01 4.196182e-02 0.000000e+00 0.000000e+00
 0.000000e+00 0.000000e+00 9.678228e-01 3.217715e-02 0.000000e+00
 0.000000e+00 0.000000e+00 0.000000e+00 9.922302e-01 7.769808e-03
 0.000000e+00 0.000000e+00 0.000000e+00 0.000000e+00 0.000000e+00
<ENDHMM>
~h "l2_u"
<BEGINHMM>
<NUMSTATES> 5
<STATE> 2
<MEAN> 25
 -1.651109e-08 -2.268430e-07 1.259320e-08 1.165062e-07 -3.503200e-08 7.789977e-08 -6.306777e-08 1.437152e-07 -9.648429e-08 -8.998416e-08 1.010382e-07 -1.644749e-08 3.964178e-03 4.991033e-03 -2.259726e-03 -8.660138e-04 -1.980516e-03 2.296586e-03 -1.050157e-04 -6.062090e-03 -3.834328e-04 3.311979e-04 1.732379e-04 -2.677502e-03 -2.030911e-03
<VARIANCE> 25
 3.382748e+01 3.628031e+01 4.600648e+01 2.294502e+01 9.100511e+01 4.563913e+01 5.834692e+01 5.632589e+01 3.456791e+01 4.004803e+01 4.066158e+01 4.632240e+01 1.656153e+00 1.407841e+00 1.798202e+00 1.585461e+00 4.502382e+00 2.970210e+00 3.744460e+00 3.177201e+00 2.837936e+00 2.797859e+00 2.639533e+00 2.465156e+00 1.004578e+00
<GCONST> 1.021376e+02
<STATE> 3
<MEAN> 25
 -1.651109e-08 -2.268430e-07 1.259320e-08 1.165062e-07 -3.503200e-08 7.789977e-08 -6.306777e-08 1.437152e-07 -9.648429e-08 -8.998416e-08 1.010382e-07 -1.644749e-08 3.964178e-03 4.991033e-03 -2.259726e-03 -8.660138e-04 -1.980516e-03 2.296586e-03 -1.050157e-04 -6.062090e-03 -3.834328e-04 3.311979e-04 1.732379e-04 -2.677502e-03 -2.030911e-03
<VARIANCE> 25
 3.382748e+01 3.628031e+01 4.600648e+01 2.294502e+01 9.100511e+01 4.563913e+01 5.834692e+01 5.632589e+01 3.456791e+01 4.004803e+01 4.066158e+01 4.632240e+01 1.656153e+00 1.407841e+00 1.798202e+00 1.585461e+00 4.502382e+00 2.970210e+00 3.744460e+00 3.177201e+00 2.837936e+00 2.797859e+00 2.639533e+00 2.465156e+00 1.004578e+00
<GCONST> 1.021376e+02
<STATE> 4
<MEAN> 25
 -1.651109e-08 -2.268430e-07 1.259320e-08 1.165062e-07 -3.503200e-08 7.789977e-08 -6.306777e-08 1.437152e-07 -9.648429e-08 -8.998416e-08 1.010382e-07 -1.644749e-08 3.964178e-03 4.991033e-03 -2.259726e-03 -8.660138e-04 -1.980516e-03 2.296586e-03 -1.050157e-04 -6.062090e-03 -3.834328e-04 3.311979e-04 1.732379e-04 -2.677502e-03 -2.030911e-03
<VARIANCE> 25
 3.382748e+01 3.628031e+01 4.600648e+01 2.294502e+01 9.100511e+01 4.563913e+01 5.834692e+01 5.632589e+01 3.456791e+01 4.004803e+01 4.066158e+01 4.632240e+01 1.656153e+00 1.407841e+00 1.798202e+00 1.585461e+00 4.502382e+00 2.970210e+00 3.744460e+00 3.177201e+00 2.837936e+00 2.797859e+00 2.639533e+00 2.465156e+00 1.004578e+00
<GCONST> 1.021376e+02
<TRANSP> 5
 0.000000e+00 1.000000e+00 0.000000e+00 0.000000e+00 0.000000e+00
 0.000000e+00 6.000000e-01 4.000000e-01 0.000000e+00 0.000000e+00
 0.000000e+00 0.000000e+00 6.000000e-01 4.000000e-01 0.000000e+00
 0.000000e+00 0.000000e+00 0.000000e+00 7.000000e-01 3.000000e-01
 0.000000e+00 0.000000e+00 0.000000e+00 0.000000e+00 0.000000e+00
<ENDHMM>
~h "l3_i"
<BEGINHMM>
<NUMSTATES> 5
<STATE> 2
<MEAN> 25
 -1.624782e-03 -1.379720e+00 -4.620452e-01 1.211642e+00 -2.776042e+00 -3.341298e+00 5.623646e+00 -1.801354e+00 -2.323317e+00 9.195895e-01 -1.659929e+00 6.477897e+00 2.447783e-02 -3.967696e-02 -1.135908e-01 -3.827258e-02 2.189543e-01 1.318092e-01 -9.086989e-02 4.663032e-02 8.245046e-02 8.482847e-02 5.938329e-02 9.957075e-03 -5.193871e-02
<VARIANCE> 25
 1.287709e+01 1.679786e+01 2.626337e+01 1.539944e+01 6.331134e+01 3.528661e+01 6.558983e+01 6.715832e+01 2.831638e+01 3.296840e+01 5.144830e+01 5.412358e+01 6.866697e-01 1.052328e+00 1.239057e+00 1.735645e+00 2.923213e+00 2.049877e+00 4.596717e+00 3.836661e+00 2.659244e+00 2.702254e+00 2.783956e+00 3.286785e+00 6.981561e-01
<GCONST> 9.712685e+01
<STATE> 3
<MEAN> 25
 -1.483205e+00 -3.665971e-01 -2.998694e+00 -3.008464e+00 6.359939e+00 8.592522e-01 -1.751403e+00 1.877863e+00 3.353912e-01 3.062319e+00 5.069306e+00 6.742444e+00 -5.249304e-02 2.260456e-02 3.192028e-02 5.615051e-03 -6.043336e-02 3.465571e-03 6.266125e-02 -2.087350e-02 6.008156e-02 -2.461131e-02 -3.680750e-02 5.537182e-02 1.675865e-02
<VARIANCE> 25
 2.485139e+01 2.630080e+01 3.269352e+01 1.901492e+01 6.230274e+01 6.031900e+01 4.771637e+01 4.915060e+01 2.507451e+01 7.200985e+01 5.642649e+01 6.974377e+01 1.093557e+00 1.072823e+00 9.293223e-01 1.619590e+00 2.457315e+00 2.875118e+00 3.249834e+00 2.841569e+00 1.759457e+00 3.428161e+00 3.305319e+00 2.551456e+00 6.752031e-01
<GCONST> 9.891328e+01
<STATE> 4
<MEAN> 25
 8.813275e-02 9.619901e-01 1.447539e+00 4.579988e-01 -2.736158e+00 -9.245510e-01 9.554410e-01 -5.308169e-01 -3.211614e-01 -1.471825e+00 -1.597838e+00 -1.553519e+00 -1.257042e-02 1.620879e-02 1.943342e-02 -3.790346e-03 8.945946e-03 -2.175036e-02 -1.097737e-02 2.101524e-02 -1.581395e-02 -1.965842e-03 2.141929e-03 -4.029050e-02 2.473232e-03
<VARIANCE> 25
 2.781018e+01 3.856072e+01 3.648790e+01 2.280908e+01 9.615447e+01 4.250396e+01 7.226953e+01 5.283737e+01 3.851775e+01 3.535343e+01 3.421924e+01 4.381088e+01 1.694081e+00 1.613288e+00 1.676232e+00 1.367605e+00 4.890840e+00 3.260518e+00 4.898484e+00 3.281036e+00 3.067325e+00 2.731229e+00 2.680446e+00 2.373237e+00 1.022695e+00
<GCONST> 1.021207e+02
<TRANSP> 5
 0.000000e+00 1.000000e+00 0.000000e+00 0.000000e+00 0.000000e+00
 0.000000e+00 9.844275e-01 1.557244e-02 0.000000e+00 0.000000e+00
 0.000000e+00 0.000000e+00 9.860719e-01 1.392810e-02 0.000000e+00
 0.000000e+00 0.000000e+00 0.000000e+00 9.967133e-01 3.286633e-03
 0.000000e+00 0.000000e+00 0.000000e+00 0.000000e+00 0.000000e+00
<ENDHMM>
~h "l3_u"
<BEGINHMM>
<NUMSTATES> 5
<STATE> 2
<MEAN> 25
 -1.651109e-08 -2.268430e-07 1.259320e-08 1.165062e-07 -3.503200e-08 7.789977e-08 -6.306777e-08 1.437152e-07 -9.648429e-08 -8.998416e-08 1.010382e-07 -1.644749e-08 3.964178e-03 4.991033e-03 -2.259726e-03 -8.660138e-04 -1.980516e-03 2.296586e-03 -1.050157e-04 -6.062090e-03 -3.834328e-04 3.311979e-04 1.732379e-04 -2.677502e-03 -2.030911e-03
<VARIANCE> 25
 3.382748e+01 3.628031e+01 4.600648e+01 2.294502e+01 9.100511e+01 4.563913e+01 5.834692e+01 5.632589e+01 3.456791e+01 4.004803e+01 4.066158e+01 4.632240e+01 1.656153e+00 1.407841e+00 1.798202e+00 1.585461e+00 4.502382e+00 2.970210e+00 3.744460e+00 3.177201e+00 2.837936e+00 2.797859e+00 2.639533e+00 2.465156e+00 1.004578e+00
<GCONST> 1.021376e+02
<STATE> 3
<MEAN> 25
 -1.651109e-08 -2.268430e-07 1.259320e-08 1.165062e-07 -3.503200e-08 7.789977e-08 -6.306777e-08 1.437152e-07 -9.648429e-08 -8.998416e-08 1.010382e-07 -1.644749e-08 3.964178e-03 4.991033e-03 -2.259726e-03 -8.660138e-04 -1.980516e-03 2.296586e-03 -1.050157e-04 -6.062090e-03 -3.834328e-04 3.311979e-04 1.732379e-04 -2.677502e-03 -2.030911e-03
<VARIANCE> 25
 3.382748e+01 3.628031e+01 4.600648e+01 2.294502e+01 9.100511e+01 4.563913e+01 5.834692e+01 5.632589e+01 3.456791e+01 4.004803e+01 4.066158e+01 4.632240e+01 1.656153e+00 1.407841e+00 1.798202e+00 1.585461e+00 4.502382e+00 2.970210e+00 3.744460e+00 3.177201e+00 2.837936e+00 2.797859e+00 2.639533e+00 2.465156e+00 1.004578e+00
<GCONST> 1.021376e+02
<STATE> 4
<MEAN> 25
 -1.651109e-08 -2.268430e-07 1.259320e-08 1.165062e-07 -3.503200e-08 7.789977e-08 -6.306777e-08 1.437152e-07 -9.648429e-08 -8.998416e-08 1.010382e-07 -1.644749e-08 3.964178e-03 4.991033e-03 -2.259726e-03 -8.660138e-04 -1.980516e-03 2.296586e-03 -1.050157e-04 -6.062090e-03 -3.834328e-04 3.311979e-04 1.732379e-04 -2.677502e-03 -2.030911e-03
<VARIANCE> 25
 3.382748e+01 3.628031e+01 4.600648e+01 2.294502e+01 9.100511e+01 4.563913e+01 5.834692e+01 5.632589e+01 3.456791e+01 4.004803e+01 4.066158e+01 4.632240e+01 1.656153e+00 1.407841e+00 1.798202e+00 1.585461e+00 4.502382e+00 2.970210e+00 3.744460e+00 3.177201e+00 2.837936e+00 2.797859e+00 2.639533e+00 2.465156e+00 1.004578e+00
<GCONST> 1.021376e+02
<TRANSP> 5
 0.000000e+00 1.000000e+00 0.000000e+00 0.000000e+00 0.000000e+00
 0.000000e+00 6.000000e-01 4.000000e-01 0.000000e+00 0.000000e+00
 0.000000e+00 0.000000e+00 6.000000e-01 4.000000e-01 0.000000e+00
 0.000000e+00 0.000000e+00 0.000000e+00 7.000000e-01 3.000000e-01
 0.000000e+00 0.000000e+00 0.000000e+00 0.000000e+00 0.000000e+00
<ENDHMM>
~h "l4_i"
<BEGINHMM>
<NUMSTATES> 5
<STATE> 2
<MEAN> 25
 -1.651109e-08 -2.268430e-07 1.259320e-08 1.165062e-07 -3.503200e-08 7.789977e-08 -6.306777e-08 1.437152e-07 -9.648429e-08 -8.998416e-08 1.010382e-07 -1.644749e-08 3.964178e-03 4.991033e-03 -2.259726e-03 -8.660138e-04 -1.980516e-03 2.296586e-03 -1.050157e-04 -6.062090e-03 -3.834328e-04 3.311979e-04 1.732379e-04 -2.677502e-03 -2.030911e-03
<VARIANCE> 25
 3.382748e+01 3.628031e+01 4.600648e+01 2.294502e+01 9.100511e+01 4.563913e+01 5.834692e+01 5.632589e+01 3.456791e+01 4.004803e+01 4.066158e+01 4.632240e+01 1.656153e+00 1.407841e+00 1.798202e+00 1.585461e+00 4.502382e+00 2.970210e+00 3.744460e+00 3.177201e+00 2.837936e+00 2.797859e+00 2.639533e+00 2.465156e+00 1.004578e+00
<GCONST> 1.021376e+02
<STATE> 3
<MEAN> 25
 -1.651109e-08 -2.268430e-07 1.259320e-08 1.165062e-07 -3.503200e-08 7.789977e-08 -6.306777e-08 1.437152e-07 -9.648429e-08 -8.998416e-08 1.010382e-07 -1.644749e-08 3.964178e-03 4.991033e-03 -2.259726e-03 -8.660138e-04 -1.980516e-03 2.296586e-03 -1.050157e-04 -6.062090e-03 -3.834328e-04 3.311979e-04 1.732379e-04 -2.677502e-03 -2.030911e-03
<VARIANCE> 25
 3.382748e+01 3.628031e+01 4.600648e+01 2.294502e+01 9.100511e+01 4.563913e+01 5.834692e+01 5.632589e+01 3.456791e+01 4.004803e+01 4.066158e+01 4.632240e+01 1.656153e+00 1.407841e+00 1.798202e+00 1.585461e+00 4.502382e+00 2.970210e+00 3.744460e+00 3.177201e+00 2.837936e+00 2.797859e+00 2.639533e+00 2.465156e+00 1.004578e+00
<GCONST> 1.021376e+02
<STATE> 4
<MEAN> 25
 -1.651109e-08 -2.268430e-07 1.259320e-08 1.165062e-07 -3.503200e-08 7.789977e-08 -6.306777e-08 1.437152e-07 -9.648429e-08 -8.998416e-08 1.010382e-07 -1.644749e-08 3.964178e-03 4.991033e-03 -2.259726e-03 -8.660138e-04 -1.980516e-03 2.296586e-03 -1.050157e-04 -6.062090e-03 -3.834328e-04 3.311979e-04 1.732379e-04 -2.677502e-03 -2.030911e-03
<VARIANCE> 25
 3.382748e+01 3.628031e+01 4.600648e+01 2.294502e+01 9.100511e+01 4.563913e+01 5.834692e+01 5.632589e+01 3.456791e+01 4.004803e+01 4.066158e+01 4.632240e+01 1.656153e+00 1.407841e+00 1.798202e+00 1.585461e+00 4.502382e+00 2.970210e+00 3.744460e+00 3.177201e+00 2.837936e+00 2.797859e+00 2.639533e+00 2.465156e+00 1.004578e+00
<GCONST> 1.021376e+02
<TRANSP> 5
 0.000000e+00 1.000000e+00 0.000000e+00 0.000000e+00 0.000000e+00
 0.000000e+00 6.000000e-01 4.000000e-01 0.000000e+00 0.000000e+00
 0.000000e+00 0.000000e+00 6.000000e-01 4.000000e-01 0.000000e+00
 0.000000e+00 0.000000e+00 0.000000e+00 7.000000e-01 3.000000e-01
 0.000000e+00 0.000000e+00 0.000000e+00 0.000000e+00 0.000000e+00
<ENDHMM>
~h "l4_u"
<BEGINHMM>
<NUMSTATES> 5
<STATE> 2
<MEAN> 25
 -9.327645e-01 -3.041626e+00 -1.818306e-01 1.275959e+00 -4.948539e+00 -4.057473e+00 2.639023e+00 -1.774375e+00 1.325067e+00 5.398144e+00 5.675935e+00 1.373470e+01 2.806009e-02 -1.020907e-01 -2.028121e-01 1.524451e-02 1.384427e-01 -5.390429e-02 2.055466e-01 8.752371e-02 -4.909813e-02 5.406069e-02 8.449823e-03 1.007015e-01 7.258378e-03
<VARIANCE> 25
 1.467858e+01 3.603196e+01 4.789533e+01 2.008570e+01 1.042863e+02 2.001086e+01 4.944970e+01 4.939993e+01 4.338509e+01 9.190847e+01 7.762428e+01 6.633493e+01 7.826226e-01 1.440434e+00 2.184975e+00 1.842247e+00 3.553626e+00 1.860585e+00 3.653277e+00 3.114711e+00 3.275295e+00 4.502866e+00 3.333360e+00 5.026576e+00 6.144507e-01
<GCONST> 1.022244e+02
<STATE> 3
<MEAN> 25
 -1.394819e-01 3.211586e-01 -4.800549e-01 1.402919e+00 -5.394221e+00 -5.021180e+00 3.778018e+00 -1.753327e+00 -2.110328e+00 1.273069e+00 -2.495501e+00 1.857925e+00 -6.354747e-02 4.384870e-02 8.801055e-02 -5.994968e-03 -3.257515e-02 7.928451e-02 -1.297732e-01 -3.931195e-02 9.589473e-02 -2.513731e-02 -5.882335e-02 -1.724051e-01 -8.855321e-03
<VARIANCE> 25
 2.704371e+01 1.831138e+01 2.251623e+01 1.295724e+01 4.088527e+01 2.770223e+01 6.915618e+01 4.762053e+01 3.836095e+01 5.465111e+01 7.079334e+01 6.258676e+01 1.665653e+00 1.515705e+00 1.829076e+00 1.127767e+00 2.592223e+00 2.839867e+00 6.615113e+00 4.534029e+00 3.233245e+00 3.779431e+00 3.554112e+00 3.259200e+00 1.013218e+00
<GCONST> 1.010172e+02
<STATE> 4
<MEAN> 25
 1.590814e+00 7.661163e-01 -1.487903e+00 -3.721341e-01 4.709928e+00 2.131536e+00 -2.106487e+00 -1.651827e+00 3.534653e-01 -9.512420e-01 -1.198128e+00 -4.721364e+00 -5.705494e-03 3.243101e-03 3.153406e-03 -1.534777e-02 6.393169e-02 2.727262e-02 9.959588e-03 4.316328e-02 -2.243826e-03 -3.576502e-04 2.296036e-02 -4.627782e-02 -2.663976e-02
<VARIANCE> 25
 4.230665e+01 2.677111e+01 5.206007e+01 2.819026e+01 9.055669e+01 5.937371e+01 4.784798e+01 4.053050e+01 3.836745e+01 3.529940e+01 3.725954e+01 3.148693e+01 1.964533e+00 1.359349e+00 2.632706e+00 1.628008e+00 4.068921e+00 3.726730e+00 3.890069e+00 3.241043e+00 3.228174e+00 2.771443e+00 3.288420e+00 2.444391e+00 8.202666e-01
<GCONST> 1.024773e+02
<TRANSP> 5
 0.000000e+00 1.000000e+00 0.000000e+00 0.000000e+00 0.000000e+00
 0.000000e+00 9.791476e-01 2.085236e-02 0.000000e+00 0.000000e+00
 0.000000e+00 0.000000e+00 9.802575e-01 1.974252e-02 0.000000e+00
 0.000000e+00 0.000000e+00 0.000000e+00 9.941512e-01 5.848837e-03
 0.000000e+00 0.000000e+00 0.000000e+00 0.000000e+00 0.000000e+00
<ENDHMM>
~h "l5_i"
<BEGINHMM>
<NUMSTATES> 5
<STATE> 2
<MEAN> 25
 8.020198e+00 -5.867614e+00 -9.614506e+00 8.836093e-01 -1.911870e+00 2.597337e+00 -4.297566e+00 6.817586e+00 1.212720e+00 2.466882e-01 -5.607935e+00 -8.985868e-01 1.714904e-01 -1.933638e-01 8.520106e-03 2.053211e-03 1.814459e-01 1.097037e+00 -2.996720e-01 -5.138748e-01 2.228024e-01 2.206059e-01 1.052308e-01 2.298722e-01 1.135641e-01
<VARIANCE> 25
 1.275616e+01 9.752361e+00 2.970811e+01 1.357055e+01 3.445897e+01 3.702820e+01 4.292176e+01 3.084362e+01 1.618160e+01 1.447904e+01 2.598679e+01 1.828341e+01 4.511563e-01 9.001754e-01 7.968262e-01 2.336406e+00 4.070558e+00 2.038487e+00 5.131510e+00 4.060620e+00 1.554853e+00 1.361294e+00 5.007637e-01 1.397351e+00 5.163398e-01
<GCONST> 8.733458e+01
<STATE> 3
<MEAN> 25
 -9.103792e-01 -4.966033e-01 -8.764942e-01 1.555149e+00 3.416823e+00 1.706636e+00 -1.286031e+00 2.050663e+00 1.556565e+00 2.052171e+00 3.871411e+00 1.675615e+00 -6.735344e-02 1.258034e-01 5.850140e-02 -6.994497e-03 -3.209746e-02 1.485284e-02 3.918860e-02 2.297545e-02 -1.513150e-02 4.306864e-02 7.728673e-02 -3.391438e-02 -1.613057e-01
<VARIANCE> 25
 2.464874e+01 2.412953e+01 4.383932e+01 1.072875e+01 4.744733e+01 2.250070e+01 2.060032e+01 3.813376e+01 1.460393e+01 2.364282e+01 2.537399e+01 1.899857e+01 6.157182e-01 6.228393e-01 8.131804e-01 8.214691e-01 2.111402e+00 1.663855e+00 1.505274e+00 1.781207e+00 1.550542e+00 1.610889e+00 1.350359e+00 1.270168e+00 1.449797e-01
<GCONST> 8.455518e+01
<STATE> 4
<MEAN> 25
 2.737859e-01 1.510339e+00 6.486486e-02 4.266562e-01 -2.121421e+00 -1.318257e+00 1.767253e+00 -1.837052e+00 -4.671822e-01 -9.153683e-01 -1.336152e+00 -6.376916e-01 -3.716477e-03 1.118070e-03 3.502313e-03 -6.149638e-03 -6.292389e-03 -9.118984e-04 -1.009334e-03 -6.387375e-03 -7.418613e-04 5.285623e-03 -3.280065e-03 -7.434417e-03 1.882463e-02
<VARIANCE> 25
 3.984157e+01 3.764484e+01 5.423656e+01 2.702374e+01 9.277320e+01 3.658727e+01 5.559679e+01 4.808041e+01 3.319891e+01 3.775050e+01 4.015374e+01 3.479950e+01 1.891266e+00 1.790257e+00 2.080280e+00 1.882276e+00 5.278015e+00 2.775291e+00 3.660810e+00 2.873514e+00 2.672321e+00 2.881818e+00 2.687776e+00 2.612937e+00 1.522097e+00
<GCONST> 1.029796e+02
<TRANSP> 5
 0.000000e+00 1.000000e+00 0.000000e+00 0.000000e+00 0.000000e+00
 0.000000e+00 8.620156e-01 1.379844e-01 0.000000e+00 0.000000e+00
 0.000000e+00 0.000000e+00 9.832909e-01 1.670910e-02 0.000000e+00
 0.000000e+00 0.000000e+00 0.000000e+00 9.975756e-01 2.424394e-03
 0.000000e+00 0.000000e+00 0.000000e+00 0.000000e+00 0.000000e+00
<ENDHMM>
~h "l5_u"
<BEGINHMM>
<NUMSTATES> 5
<STATE> 2
<MEAN> 25
 -1.651109e-08 -2.268430e-07 1.259320e-08 1.165062e-07 -3.503200e-08 7.789977e-08 -6.306777e-08 1.437152e-07 -9.648429e-08 -8.998416e-08 1.010382e-07 -1.644749e-08 3.964178e-03 4.991033e-03 -2.259726e-03 -8.660138e-04 -1.980516e-03 2.296586e-03 -1.050157e-04 -6.062090e-03 -3.834328e-04 3.311979e-04 1.732379e-04 -2.677502e-03 -2.030911e-03
<VARIANCE> 25
 3.382748e+01 3.628031e+01 4.600648e+01 2.294502e+01 9.100511e+01 4.563913e+01 5.834692e+01 5.632589e+01 3.456791e+01 4.004803e+01 4.066158e+01 4.632240e+01 1.656153e+00 1.407841e+00 1.798202e+00 1.585461e+00 4.502382e+00 2.970210e+00 3.744460e+00 3.177201e+00 2.837936e+00 2.797859e+00 2.639533e+00 2.465156e+00 1.004578e+00
<GCONST> 1.021376e+02
<STATE> 3
<MEAN> 25
 -1.651109e-08 -2.268430e-07 1.259320e-08 1.165062e-07 -3.503200e-08 7.789977e-08 -6.306777e-08 1.437152e-07 -9.648429e-08 -8.998416e-08 1.010382e-07 -1.644749e-08 3.964178e-03 4.991033e-03 -2.259726e-03 -8.660138e-04 -1.980516e-03 2.296586e-03 -1.050157e-04 -6.062090e-03 -3.834328e-04 3.311979e-04 1.732379e-04 -2.677502e-03 -2.030911e-03
<VARIANCE> 25
 3.382748e+01 3.628031e+01 4.600648e+01 2.294502e+01 9.100511e+01 4.563913e+01 5.834692e+01 5.632589e+01 3.456791e+01 4.004803e+01 4.066158e+01 4.632240e+01 1.656153e+00 1.407841e+00 1.798202e+00 1.585461e+00 4.502382e+00 2.970210e+00 3.744460e+00 3.177201e+00 2.837936e+00 2.797859e+00 2.639533e+00 2.465156e+00 1.004578e+00
<GCONST> 1.021376e+02
<STATE> 4
<MEAN> 25
 -1.651109e-08 -2.268430e-07 1.259320e-08 1.165062e-07 -3.503200e-08 7.789977e-08 -6.306777e-08 1.437152e-07 -9.648429e-08 -8.998416e-08 1.010382e-07 -1.644749e-08 3.964178e-03 4.991033e-03 -2.259726e-03 -8.660138e-04 -1.980516e-03 2.296586e-03 -1.050157e-04 -6.062090e-03 -3.834328e-04 3.311979e-04 1.732379e-04 -2.677502e-03 -2.030911e-03
<VARIANCE> 25
 3.382748e+01 3.628031e+01 4.600648e+01 2.294502e+01 9.100511e+01 4.563913e+01 5.834692e+01 5.632589e+01 3.456791e+01 4.004803e+01 4.066158e+01 4.632240e+01 1.656153e+00 1.407841e+00 1.798202e+00 1.585461e+00 4.502382e+00 2.970210e+00 3.744460e+00 3.177201e+00 2.837936e+00 2.797859e+00 2.639533e+00 2.465156e+00 1.004578e+00
<GCONST> 1.021376e+02
<TRANSP> 5
 0.000000e+00 1.000000e+00 0.000000e+00 0.000000e+00 0.000000e+00
 0.000000e+00 6.000000e-01 4.000000e-01 0.000000e+00 0.000000e+00
 0.000000e+00 0.000000e+00 6.000000e-01 4.000000e-01 0.000000e+00
 0.000000e+00 0.000000e+00 0.000000e+00 7.000000e-01 3.000000e-01
 0.000000e+00 0.000000e+00 0.000000e+00 0.000000e+00 0.000000e+00
<ENDHMM>
~h "sil"
<BEGINHMM>
<NUMSTATES> 5
<STATE> 2
<MEAN> 25
 -3.037469e+00 -3.816412e+00 1.586338e+00 1.338987e-01 5.160436e+00 1.596786e+00 -1.225962e+00 6.602782e+00 6.110553e-01 -6.300738e-01 3.728444e+00 2.097756e+00 -6.510710e-03 1.941965e-02 -3.550923e-03 1.775021e-02 -1.755049e-02 1.454322e-02 3.147662e-03 1.015026e-02 -7.529521e-03 -6.050342e-03 2.496243e-02 3.570282e-02 -6.451913e-02
<VARIANCE> 25
 2.030067e+01 1.802518e+01 2.340007e+01 1.476331e+01 2.733100e+01 2.376938e+01 3.019084e+01 2.884477e+01 2.084158e+01 2.383695e+01 1.894517e+01 2.490742e+01 5.166984e-01 5.579568e-01 8.746458e-01 9.172715e-01 1.298421e+00 1.420937e+00 1.619792e+00 1.803722e+00 1.671984e+00 1.880843e+00 1.619098e+00 1.434425e+00 2.826234e-01
<GCONST> 8.425031e+01
<STATE> 3
<MEAN> 25
 -3.077094e+00 -4.579043e+00 -1.063971e+00 1.834649e-01 6.140528e-01 -2.370010e-01 2.740568e+00 2.661743e+00 -1.033966e+00 1.092884e+00 2.354832e+00 5.284431e+00 4.616261e-02 2.585169e-02 9.249389e-03 -3.458527e-02 -1.586443e-01 -9.262202e-02 8.215508e-03 -1.934077e-01 -6.257953e-02 -2.506340e-02 -1.332783e-01 1.309838e-03 2.424352e-01
<VARIANCE> 25
 2.331502e+01 2.420063e+01 2.885757e+01 1.911487e+01 8.809250e+01 3.483098e+01 8.680547e+01 3.456297e+01 3.377132e+01 5.775649e+01 3.774443e+01 5.587270e+01 1.465618e+00 1.279892e+00 1.485509e+00 1.446590e+00 3.689719e+00 2.788795e+00 5.426931e+00 3.064505e+00 3.127672e+00 3.338994e+00 2.560452e+00 2.656426e+00 1.413597e+00
<GCONST> 1.010061e+02
<STATE> 4
<MEAN> 25
 5.523458e-01 7.666149e-01 6.473327e-02 -1.479072e-01 -4.917884e-01 1.092494e-01 -4.763359e-01 -8.194765e-01 7.974944e-02 5.515566e-02 -4.455551e-01 -7.298361e-01 5.769847e-03 3.209484e-03 -9.954876e-04 3.934608e-03 1.918691e-03 -8.381419e-04 -3.639359e-03 -2.396731e-03 1.457576e-04 2.798647e-03 8.454599e-03 -7.809915e-04 -1.081400e-02
<VARIANCE> 25
 3.475422e+01 3.683408e+01 5.177909e+01 2.460124e+01 9.672916e+01 4.882371e+01 5.751923e+01 5.654027e+01 3.572879e+01 4.005150e+01 3.985712e+01 4.076099e+01 1.867522e+00 1.500790e+00 1.967219e+00 1.699744e+00 5.064682e+00 3.228349e+00 3.753804e+00 3.352131e+00 2.964371e+00 2.898828e+00 2.744475e+00 2.566747e+00 1.072869e+00
<GCONST> 1.031956e+02
<TRANSP> 5
 0.000000e+00 1.000000e+00 0.000000e+00 0.000000e+00 0.000000e+00
 0.000000e+00 9.704986e-01 2.950147e-02 0.000000e+00 0.000000e+00
 0.000000e+00 0.000000e+00 9.474122e-01 5.258780e-02 0.000000e+00
 0.000000e+00 0.000000e+00 0.000000e+00 9.953840e-01 4.616027e-03
 0.000000e+00 0.000000e+00 0.000000e+00 0.000000e+00 0.000000e+00
<ENDHMM>
