~o
<STREAMINFO> 1 25
<VECSIZE> 25<NULLD><MFCC_D_N_Z_0><DIAGC>
~h "ek"
<BEGINHMM>
<NUMSTATES> 5
<STATE> 2
<MEAN> 25
 6.355839e-01 -1.036567e+00 3.765174e-01 1.578474e+00 -2.485563e-01 -1.221089e+00 -1.592363e+00 -1.220328e+00 -2.212873e-01 -4.480329e-01 -2.004272e-01 2.028616e-01 1.738229e-01 -1.502604e-01 5.966893e-02 1.904971e-01 -5.240630e-03 -2.387811e-03 -1.075524e-02 -9.395097e-02 1.763760e-02 -5.399858e-03 -4.256248e-02 -4.157465e-03 2.676932e-01
<VARIANCE> 25
 3.993457e+01 4.148012e+01 1.159591e+01 9.019886e+01 3.701789e+01 4.474763e+01 8.109000e+01 3.294111e+01 1.496063e+01 1.498239e+01 1.211053e+01 1.352806e+01 9.842340e-01 1.703301e+00 6.111079e-01 2.426330e+00 2.166839e+00 1.715577e+00 2.251372e+00 1.685344e+00 1.437236e+00 1.288073e+00 1.212704e+00 1.014055e+00 1.780659e+00
<GCONST> 9.108269e+01
<STATE> 3
<MEAN> 25
 1.559527e+00 -1.801818e+00 7.305954e-01 2.666899e+00 -9.448939e-02 -1.268530e+00 -1.764754e+00 -1.688874e+00 -1.825666e-01 -4.853532e-01 -3.693261e-01 1.293469e-01 1.362681e-01 -1.124313e-01 5.171355e-02 1.564559e-01 2.023124e-02 -2.065876e-03 -2.027417e-02 -6.967950e-02 4.386700e-03 -5.560270e-03 -2.590745e-02 -1.097326e-02 1.799410e-01
<VARIANCE> 25
 3.603825e+01 4.006107e+01 1.101421e+01 9.225829e+01 4.151665e+01 4.935358e+01 8.989789e+01 3.314701e+01 1.578887e+01 1.614683e+01 1.198122e+01 1.416374e+01 1.038614e+00 1.884647e+00 6.421033e-01 2.759897e+00 2.467387e+00 1.818169e+00 2.414617e+00 1.731268e+00 1.468693e+00 1.340225e+00 1.239247e+00 1.055488e+00 1.803918e+00
<GCONST> 9.215636e+01
<STATE> 4
<MEAN> 25
 2.840887e+00 -2.571074e+00 1.097602e+00 3.458251e+00 9.839071e-02 -6.330104e-01 -1.259977e+00 -1.910841e+00 -1.467636e-01 -4.670015e-01 -4.889096e-01 -4.670002e-03 5.172973e-03 -7.884689e-04 -5.483183e-03 -2.067359e-02 -1.175303e-02 4.483150e-02 5.672895e-02 1.287209e-02 5.702545e-03 7.010398e-03 -9.514973e-03 -2.467843e-03 9.329319e-04
<VARIANCE> 25
 2.852456e+01 4.228058e+01 1.256124e+01 7.971976e+01 4.493048e+01 5.537902e+01 1.022455e+02 3.554395e+01 1.644119e+01 1.894484e+01 1.202381e+01 1.295159e+01 1.070229e+00 2.310697e+00 8.381439e-01 2.918712e+00 3.178236e+00 2.245237e+00 2.747991e+00 1.957732e+00 1.452300e+00 1.552275e+00 1.270616e+00 1.145465e+00 1.961366e+00
<GCONST> 9.406765e+01
<TRANSP> 5
 0.000000e+00 1.000000e+00 0.000000e+00 0.000000e+00 0.000000e+00
 0.000000e+00 8.417888e-01 1.582112e-01 0.000000e+00 0.000000e+00
 0.000000e+00 0.000000e+00 8.417889e-01 1.582112e-01 0.000000e+00
 0.000000e+00 0.000000e+00 0.000000e+00 9.796028e-01 2.039722e-02
 0.000000e+00 0.000000e+00 0.000000e+00 0.000000e+00 0.000000e+00
<ENDHMM>
~h "saat"
<BEGINHMM>
<NUMSTATES> 5
<STATE> 2
<MEAN> 25
 -5.186060e-02 -7.411971e-01 4.851379e-01 7.080451e-01 -4.532104e-01 2.212073e-01 3.115719e-01 -9.123919e-02 1.162581e-02 -3.973592e-01 -3.725656e-02 5.127981e-01 7.996745e-02 -1.130230e-01 1.037318e-02 2.939821e-02 -1.174264e-01 1.502372e-03 1.908024e-02 -6.232285e-02 3.343073e-02 8.155970e-04 -2.834278e-02 2.839171e-02 2.249829e-01
<VARIANCE> 25
 4.955216e+01 6.359861e+01 2.291922e+01 1.701824e+01 6.186536e+01 1.866769e+01 1.343457e+01 2.472415e+01 1.950101e+01 1.854153e+01 1.092887e+01 1.501148e+01 1.124366e+00 2.474617e+00 1.263534e+00 1.066887e+00 1.474813e+00 1.259061e+00 1.197656e+00 1.738404e+00 1.738143e+00 1.566809e+00 1.087197e+00 1.023064e+00 1.520960e+00
<GCONST> 8.801868e+01
<STATE> 3
<MEAN> 25
 3.892477e-01 -1.381866e+00 5.603138e-01 8.155487e-01 -1.129555e+00 2.098826e-01 3.557941e-01 -4.374221e-01 2.153894e-01 -3.644852e-01 -1.668956e-01 6.513790e-01 6.383030e-02 -9.220704e-02 1.059717e-02 1.433582e-02 -9.776959e-02 -1.775027e-03 5.292220e-03 -5.056065e-02 3.000537e-02 5.911991e-03 -1.863779e-02 1.926191e-02 1.661965e-01
<VARIANCE> 25
 4.930076e+01 6.270133e+01 2.441391e+01 1.728188e+01 6.035879e+01 1.950399e+01 1.324893e+01 2.434972e+01 2.009608e+01 1.921284e+01 1.079906e+01 1.510546e+01 1.123370e+00 2.663257e+00 1.348861e+00 1.131963e+00 1.521213e+00 1.319515e+00 1.218906e+00 1.838541e+00 1.800719e+00 1.592767e+00 1.106842e+00 1.048116e+00 1.454120e+00
<GCONST> 8.852541e+01
<STATE> 4
<MEAN> 25
 1.034127e+00 -1.971448e+00 2.390601e-01 5.024249e-01 -1.974427e+00 1.336985e-01 2.233127e-01 -8.431298e-01 6.765841e-01 -1.664571e-01 -4.506230e-01 6.412185e-01 1.117224e-02 -2.984405e-03 -1.050166e-02 -9.861374e-03 -1.217142e-02 -4.721203e-03 -3.750642e-03 -8.596152e-03 6.816557e-03 9.263903e-03 -5.187834e-03 -5.124928e-03 1.556939e-02
<VARIANCE> 25
 5.361311e+01 5.783214e+01 2.104080e+01 1.692757e+01 6.032787e+01 2.108337e+01 1.315181e+01 2.427591e+01 2.051581e+01 2.142559e+01 1.166219e+01 1.560513e+01 1.047660e+00 3.096999e+00 1.319764e+00 1.434874e+00 1.565299e+00 1.380652e+00 1.171180e+00 2.040155e+00 2.137127e+00 1.679155e+00 1.193172e+00 1.168612e+00 1.326630e+00
<GCONST> 8.941573e+01
<TRANSP> 5
 0.000000e+00 1.000000e+00 0.000000e+00 0.000000e+00 0.000000e+00
 0.000000e+00 8.475724e-01 1.524276e-01 0.000000e+00 0.000000e+00
 0.000000e+00 0.000000e+00 8.475723e-01 1.524277e-01 0.000000e+00
 0.000000e+00 0.000000e+00 0.000000e+00 9.867439e-01 1.325616e-02
 0.000000e+00 0.000000e+00 0.000000e+00 0.000000e+00 0.000000e+00
<ENDHMM>
~h "saha"
<BEGINHMM>
<NUMSTATES> 5
<STATE> 2
<MEAN> 25
 8.631315e-01 -1.578795e+00 5.353701e-01 8.299552e-01 -1.221092e+00 9.922999e-02 4.489759e-02 -1.109031e+00 2.992598e-01 -2.242449e-02 -3.243563e-01 6.938446e-01 1.654183e-01 -1.453251e-01 3.081386e-02 4.874654e-02 -1.528694e-01 -7.199187e-03 5.229848e-02 -3.287235e-02 7.760619e-02 9.762902e-03 -3.316045e-02 3.270521e-02 2.643865e-01
<VARIANCE> 25
 8.197031e+01 7.299950e+01 3.658382e+01 3.140217e+01 6.160632e+01 2.473307e+01 2.030891e+01 2.704501e+01 3.454350e+01 2.606756e+01 1.568530e+01 1.384186e+01 1.243620e+00 2.219704e+00 1.655298e+00 1.230106e+00 1.718499e+00 2.118984e+00 1.452799e+00 1.378497e+00 1.876407e+00 1.630356e+00 1.170323e+00 1.110025e+00 1.000172e+00
<GCONST> 9.260436e+01
<STATE> 3
<MEAN> 25
 1.806145e+00 -2.374625e+00 7.207635e-01 1.016213e+00 -2.084684e+00 2.939895e-02 3.064858e-01 -1.167263e+00 7.777185e-01 5.337416e-02 -4.748875e-01 8.359050e-01 1.381218e-01 -1.141832e-01 2.520865e-02 2.349216e-02 -1.267312e-01 -1.069758e-02 3.772524e-02 -5.848525e-03 7.148916e-02 1.251487e-02 -2.216525e-02 1.862206e-02 1.894764e-01
<VARIANCE> 25
 8.113029e+01 7.166276e+01 3.948222e+01 3.320568e+01 5.895077e+01 2.629742e+01 2.051882e+01 2.770525e+01 3.519682e+01 2.779228e+01 1.614149e+01 1.414124e+01 1.321495e+00 2.369057e+00 1.805605e+00 1.295945e+00 1.788285e+00 2.294611e+00 1.501597e+00 1.420564e+00 1.965832e+00 1.707770e+00 1.178391e+00 1.143250e+00 9.320665e-01
<GCONST> 9.339845e+01
<STATE> 4
<MEAN> 25
 3.405755e+00 -2.512114e+00 7.522687e-01 7.792229e-01 -2.952662e+00 -1.302255e-01 8.114723e-01 -2.952493e-01 1.952154e+00 2.194853e-01 -7.829450e-01 7.491266e-01 -3.545431e-03 1.696799e-02 -1.274466e-02 -1.248748e-02 2.683926e-03 -1.861895e-03 1.072204e-02 2.212501e-02 4.551058e-03 -1.599405e-03 -1.421345e-03 -1.134643e-02 -1.788947e-02
<VARIANCE> 25
 7.582008e+01 5.485387e+01 4.035233e+01 3.302999e+01 5.332295e+01 2.681034e+01 2.116002e+01 3.347240e+01 3.551176e+01 3.042763e+01 1.717463e+01 1.443792e+01 1.187892e+00 2.172467e+00 1.735120e+00 1.199160e+00 1.683024e+00 2.019984e+00 1.502190e+00 1.504773e+00 1.893040e+00 1.727350e+00 1.165045e+00 1.204380e+00 8.924598e-01
<GCONST> 9.293123e+01
<TRANSP> 5
 0.000000e+00 1.000000e+00 0.000000e+00 0.000000e+00 0.000000e+00
 0.000000e+00 8.445640e-01 1.554359e-01 0.000000e+00 0.000000e+00
 0.000000e+00 0.000000e+00 8.445641e-01 1.554360e-01 0.000000e+00
 0.000000e+00 0.000000e+00 0.000000e+00 9.821856e-01 1.781437e-02
 0.000000e+00 0.000000e+00 0.000000e+00 0.000000e+00 0.000000e+00
<ENDHMM>
~h "char"
<BEGINHMM>
<NUMSTATES> 5
<STATE> 2
<MEAN> 25
 -5.524985e-01 -8.793887e-01 -4.879583e-01 3.251587e-01 -5.933590e-01 -4.004769e-01 1.943274e-01 -2.218001e-01 -4.176419e-01 -5.179090e-01 -5.288975e-01 -5.819555e-02 1.798192e-01 -1.379452e-01 -4.492199e-03 5.263826e-02 -1.292305e-01 -3.255302e-02 4.760914e-03 -8.083382e-02 4.512811e-02 1.827777e-03 -2.189633e-02 5.473335e-02 2.842414e-01
<VARIANCE> 25
 6.789429e+01 5.943230e+01 1.380870e+01 1.860120e+01 3.528626e+01 1.693524e+01 1.637957e+01 2.212947e+01 2.218602e+01 1.999123e+01 1.170040e+01 1.677548e+01 1.046136e+00 2.941944e+00 1.221987e+00 1.432341e+00 1.943717e+00 1.297096e+00 1.265205e+00 1.461270e+00 2.031990e+00 1.389771e+00 1.105232e+00 1.167311e+00 1.281945e+00
<GCONST> 8.822289e+01
<STATE> 3
<MEAN> 25
 4.795964e-01 -1.601778e+00 -5.092069e-01 5.461718e-01 -1.256554e+00 -6.191030e-01 1.457803e-01 -5.912746e-01 -1.884460e-01 -4.985421e-01 -5.470162e-01 2.691621e-01 1.503506e-01 -1.029369e-01 -1.811361e-03 3.157834e-02 -9.544232e-02 -3.067910e-02 -7.783673e-03 -5.372616e-02 3.397585e-02 4.894269e-03 -9.986050e-04 4.795482e-02 1.922074e-01
<VARIANCE> 25
 6.828787e+01 6.047982e+01 1.534077e+01 1.933301e+01 3.490765e+01 1.816446e+01 1.705715e+01 2.187644e+01 2.358657e+01 2.204866e+01 1.215425e+01 1.749669e+01 1.064736e+00 3.217302e+00 1.314415e+00 1.532120e+00 2.119278e+00 1.386629e+00 1.301158e+00 1.551664e+00 2.203626e+00 1.501585e+00 1.163194e+00 1.212129e+00 1.183309e+00
<GCONST> 8.937341e+01
<STATE> 4
<MEAN> 25
 3.105685e+00 -2.636217e+00 -4.619886e-01 5.929310e-01 -2.339008e+00 -1.036898e+00 -5.624192e-01 -1.189580e+00 7.673181e-01 -2.353958e-01 -1.784135e-01 1.338025e+00 4.504301e-02 1.438897e-03 1.112269e-02 1.201440e-03 -1.280097e-02 7.294604e-03 -3.197996e-03 -1.228052e-02 2.157974e-02 1.735701e-02 8.477947e-03 1.325524e-02 3.974271e-02
<VARIANCE> 25
 7.402287e+01 6.445895e+01 2.067924e+01 2.437616e+01 3.682495e+01 1.690411e+01 2.255457e+01 2.960584e+01 3.167188e+01 2.892192e+01 1.454493e+01 2.446523e+01 1.218125e+00 3.348151e+00 1.634027e+00 1.957725e+00 2.447774e+00 1.452101e+00 1.407475e+00 2.047903e+00 2.543908e+00 1.832071e+00 1.352608e+00 1.472535e+00 1.299201e+00
<GCONST> 9.365750e+01
<TRANSP> 5
 0.000000e+00 1.000000e+00 0.000000e+00 0.000000e+00 0.000000e+00
 0.000000e+00 8.430568e-01 1.569432e-01 0.000000e+00 0.000000e+00
 0.000000e+00 0.000000e+00 8.430567e-01 1.569433e-01 0.000000e+00
 0.000000e+00 0.000000e+00 0.000000e+00 9.793728e-01 2.062718e-02
 0.000000e+00 0.000000e+00 0.000000e+00 0.000000e+00 0.000000e+00
<ENDHMM>
~h "teen"
<BEGINHMM>
<NUMSTATES> 5
<STATE> 2
<MEAN> 25
 6.945095e-01 -9.253998e-01 9.022838e-02 8.299584e-01 -4.279405e-01 -2.927095e-01 -2.903038e-01 -5.183437e-01 -1.487585e-01 -3.008832e-01 -9.618888e-02 1.926702e-01 9.636511e-02 -5.181954e-02 4.034358e-02 8.726908e-02 -1.383481e-02 3.715678e-03 -4.660795e-03 -5.435299e-02 2.495833e-02 -7.563327e-03 -3.275342e-02 1.550795e-02 1.575123e-01
<VARIANCE> 25
 4.435529e+01 3.122842e+01 2.694414e+01 7.459183e+01 2.165089e+01 2.412250e+01 4.984985e+01 2.413400e+01 1.410126e+01 1.674903e+01 1.690950e+01 1.167980e+01 6.569805e-01 1.272719e+00 8.469598e-01 1.818174e+00 1.704375e+00 1.653365e+00 1.423118e+00 1.163382e+00 1.103513e+00 1.276088e+00 1.224018e+00 1.277514e+00 1.128746e+00
<GCONST> 8.759090e+01
<STATE> 3
<MEAN> 25
 1.223980e+00 -1.152222e+00 3.799275e-01 1.340247e+00 -4.180681e-01 -3.038651e-01 -4.009200e-01 -7.928829e-01 -2.842573e-02 -3.711246e-01 -2.757235e-01 2.518340e-01 7.507838e-02 -3.144074e-02 4.177255e-02 7.265969e-02 2.031088e-03 -1.744793e-03 -1.623453e-02 -3.904385e-02 1.687523e-02 -1.022404e-02 -2.562368e-02 8.350451e-03 9.774303e-02
<VARIANCE> 25
 4.181247e+01 3.165183e+01 2.769302e+01 7.557798e+01 2.231589e+01 2.536708e+01 5.238980e+01 2.424671e+01 1.452145e+01 1.742687e+01 1.736745e+01 1.175864e+01 6.324437e-01 1.333880e+00 8.813818e-01 1.898028e+00 1.748645e+00 1.723977e+00 1.455014e+00 1.197659e+00 1.150851e+00 1.338682e+00 1.241870e+00 1.278981e+00 1.017693e+00
<GCONST> 8.803559e+01
<STATE> 4
<MEAN> 25
 2.030626e+00 -1.298566e+00 1.314599e+00 2.617518e+00 2.378294e-01 -8.863504e-02 -1.022535e+00 -1.416774e+00 5.353749e-01 -4.072498e-01 -9.138822e-01 1.177296e-01 -4.784919e-03 8.160543e-03 2.120547e-03 -2.867751e-03 3.993765e-03 1.130961e-02 7.668987e-03 -1.061212e-03 9.703676e-03 7.165930e-03 -5.633665e-03 3.098771e-04 -7.165030e-03
<VARIANCE> 25
 3.477303e+01 3.394253e+01 2.836942e+01 7.294844e+01 2.133609e+01 3.151003e+01 6.236968e+01 2.819540e+01 1.853881e+01 1.641532e+01 1.821128e+01 1.253962e+01 6.014961e-01 1.447068e+00 9.283265e-01 1.990583e+00 1.523073e+00 2.094460e+00 1.628404e+00 1.367916e+00 1.465644e+00 1.366495e+00 1.272971e+00 1.296694e+00 9.400673e-01
<GCONST> 8.935754e+01
<TRANSP> 5
 0.000000e+00 1.000000e+00 0.000000e+00 0.000000e+00 0.000000e+00
 0.000000e+00 8.479741e-01 1.520260e-01 0.000000e+00 0.000000e+00
 0.000000e+00 0.000000e+00 8.479741e-01 1.520260e-01 0.000000e+00
 0.000000e+00 0.000000e+00 0.000000e+00 9.851145e-01 1.488549e-02
 0.000000e+00 0.000000e+00 0.000000e+00 0.000000e+00 0.000000e+00
<ENDHMM>
~h "don"
<BEGINHMM>
<NUMSTATES> 5
<STATE> 2
<MEAN> 25
 2.287691e-01 -3.955925e-01 6.420563e-01 5.737098e-01 -9.793918e-01 -3.536447e-01 -2.298200e-01 -2.679027e-01 4.231226e-01 -2.703300e-01 -7.919111e-01 -1.007868e-01 2.188862e-01 -7.000511e-02 7.739275e-02 1.298094e-01 -5.403644e-02 -1.546334e-02 -3.653246e-02 -6.827364e-02 8.117845e-02 -5.817636e-02 -1.029090e-01 3.574216e-02 2.915129e-01
<VARIANCE> 25
 6.756422e+01 2.119583e+01 2.337207e+01 2.834039e+01 3.404484e+01 3.676513e+01 4.778311e+01 2.373577e+01 4.468870e+01 3.344122e+01 4.360570e+01 1.196390e+01 7.093865e-01 1.461598e+00 8.616437e-01 1.491326e+00 2.060191e+00 2.093265e+00 1.877225e+00 2.049429e+00 1.994544e+00 2.335289e+00 1.705267e+00 1.157028e+00 1.124454e+00
<GCONST> 9.287334e+01
<STATE> 3
<MEAN> 25
 1.452939e+00 -6.597428e-01 1.162300e+00 1.293785e+00 -1.150467e+00 -5.157223e-01 -5.939078e-01 -5.320485e-01 9.312342e-01 -6.459348e-01 -1.385902e+00 6.355330e-02 1.816162e-01 -3.795453e-02 7.789405e-02 1.081700e-01 -2.290842e-02 -2.571731e-02 -5.744823e-02 -4.033400e-02 7.282739e-02 -5.750940e-02 -8.763868e-02 2.369635e-02 1.997958e-01
<VARIANCE> 25
 6.275178e+01 2.054082e+01 2.360018e+01 2.736715e+01 3.662754e+01 4.068005e+01 5.219445e+01 2.361529e+01 4.806208e+01 3.581337e+01 4.569960e+01 1.226473e+01 6.892637e-01 1.528872e+00 9.269590e-01 1.597275e+00 2.237010e+00 2.218823e+00 2.010179e+00 2.065950e+00 2.158882e+00 2.521585e+00 1.806345e+00 1.239999e+00 1.019442e+00
<GCONST> 9.377312e+01
<STATE> 4
<MEAN> 25
 3.725837e+00 -7.822837e-01 2.140433e+00 2.508202e+00 -5.449232e-01 -2.528496e-01 -1.559388e+00 -9.073505e-01 2.103347e+00 -1.261331e+00 -2.515431e+00 1.664876e-01 2.191918e-02 7.823110e-08 -8.435639e-03 1.166494e-02 1.704834e-02 8.331961e-03 1.511883e-03 -9.413952e-03 -3.500348e-03 -2.441969e-04 1.693007e-03 2.992290e-03 1.237394e-02
<VARIANCE> 25
 5.365387e+01 1.941223e+01 2.317247e+01 2.433340e+01 4.655127e+01 5.390431e+01 6.223143e+01 3.025894e+01 4.985021e+01 3.604321e+01 4.562213e+01 1.214002e+01 6.456999e-01 1.336850e+00 9.635972e-01 1.607488e+00 2.631123e+00 2.472161e+00 2.204598e+00 2.301845e+00 2.287160e+00 2.646518e+00 1.820096e+00 1.269785e+00 9.631730e-01
<GCONST> 9.479725e+01
<TRANSP> 5
 0.000000e+00 1.000000e+00 0.000000e+00 0.000000e+00 0.000000e+00
 0.000000e+00 8.420318e-01 1.579682e-01 0.000000e+00 0.000000e+00
 0.000000e+00 0.000000e+00 8.420318e-01 1.579682e-01 0.000000e+00
 0.000000e+00 0.000000e+00 0.000000e+00 9.786255e-01 2.137453e-02
 0.000000e+00 0.000000e+00 0.000000e+00 0.000000e+00 0.000000e+00
<ENDHMM>
~h "nau"
<BEGINHMM>
<NUMSTATES> 5
<STATE> 2
<MEAN> 25
 -8.864862e-01 -9.441924e-01 -9.549370e-01 3.396961e-02 -3.265715e-01 -8.895634e-02 5.844676e-01 2.016905e-01 -2.571776e-01 -2.935252e-01 -1.536297e-01 2.159418e-01 1.419526e-01 -5.714531e-02 3.804202e-02 7.721695e-02 -5.253161e-02 -2.882606e-02 -2.570212e-02 -5.570115e-02 3.898635e-02 -2.260833e-02 -4.263879e-02 3.225777e-02 2.027335e-01
<VARIANCE> 25
 6.002230e+01 1.692254e+01 1.093202e+01 2.348871e+01 2.426539e+01 3.522300e+01 3.862604e+01 2.500116e+01 1.907742e+01 2.336829e+01 1.194708e+01 1.331699e+01 6.416084e-01 7.474744e-01 5.213178e-01 1.272632e+00 1.588163e+00 1.958714e+00 1.617432e+00 1.820619e+00 1.246667e+00 1.753395e+00 1.179032e+00 1.177544e+00 7.520052e-01
<GCONST> 8.510640e+01
<STATE> 3
<MEAN> 25
 -9.453619e-02 -1.168229e+00 -6.929697e-01 4.556959e-01 -5.141310e-01 -3.293231e-01 3.083941e-01 -4.645469e-02 -4.213645e-02 -4.041163e-01 -3.414416e-01 3.643216e-01 1.140809e-01 -3.123487e-02 3.918703e-02 6.069569e-02 -2.658955e-02 -3.462451e-02 -4.071420e-02 -3.616907e-02 3.091383e-02 -1.524945e-02 -2.652521e-02 2.122868e-02 1.293397e-01
<VARIANCE> 25
 6.118349e+01 1.661587e+01 1.186518e+01 2.434682e+01 2.514725e+01 3.874233e+01 4.167070e+01 2.558208e+01 2.005994e+01 2.483971e+01 1.185520e+01 1.372872e+01 6.284624e-01 7.876933e-01 5.439434e-01 1.387002e+00 1.687991e+00 2.085732e+00 1.699645e+00 1.912567e+00 1.292491e+00 1.837522e+00 1.211961e+00 1.237250e+00 6.453825e-01
<GCONST> 8.597881e+01
<STATE> 4
<MEAN> 25
 3.015441e+00 -6.090790e-01 8.241423e-01 1.684475e+00 -6.239358e-01 -1.289021e+00 -1.735886e+00 -8.478929e-01 1.121378e+00 -4.689057e-01 -7.995573e-01 5.246960e-01 5.481322e-02 1.495483e-02 3.729513e-02 1.854710e-02 -8.535881e-03 -4.609921e-04 -2.286820e-02 -2.224603e-02 1.862177e-02 9.411686e-04 -1.038981e-02 2.319575e-03 4.565468e-02
<VARIANCE> 25
 8.069066e+01 2.180415e+01 1.749566e+01 2.876333e+01 3.636595e+01 6.039560e+01 5.906102e+01 3.567536e+01 2.759422e+01 3.059418e+01 1.396953e+01 1.796858e+01 8.308567e-01 1.010555e+00 7.477421e-01 1.787414e+00 2.166861e+00 2.746496e+00 2.091365e+00 2.516836e+00 1.583485e+00 2.059708e+00 1.359836e+00 1.525504e+00 8.230450e-01
<GCONST> 9.252903e+01
<TRANSP> 5
 0.000000e+00 1.000000e+00 0.000000e+00 0.000000e+00 0.000000e+00
 0.000000e+00 8.454250e-01 1.545750e-01 0.000000e+00 0.000000e+00
 0.000000e+00 0.000000e+00 8.454251e-01 1.545749e-01 0.000000e+00
 0.000000e+00 0.000000e+00 0.000000e+00 9.812328e-01 1.876712e-02
 0.000000e+00 0.000000e+00 0.000000e+00 0.000000e+00 0.000000e+00
<ENDHMM>
~h "sil"
<BEGINHMM>
<NUMSTATES> 5
<STATE> 2
<MEAN> 25
 -1.064367e+00 4.575275e+00 6.025162e-01 -2.773461e+00 4.139783e+00 -3.401188e-01 -4.915850e-01 3.483290e+00 -7.767347e-01 4.690146e-01 2.422782e+00 -1.414415e+00 -4.451895e-01 -1.174069e-01 -1.493264e-01 -1.260778e-02 -1.232932e-01 2.681787e-02 -2.386685e-02 -7.864451e-02 -9.297322e-02 -7.827817e-03 -7.843077e-02 1.129373e-02 9.095605e-01
<VARIANCE> 25
 5.847502e+01 5.769498e+01 1.515573e+01 3.415539e+01 5.273838e+01 1.721544e+01 2.306105e+01 3.835949e+01 1.764648e+01 1.389786e+01 2.087069e+01 1.359358e+01 2.342157e+00 1.150354e+00 7.705527e-01 8.669381e-01 1.109776e+00 1.009547e+00 1.003880e+00 1.136121e+00 1.133870e+00 1.033005e+00 8.857184e-01 8.162523e-01 5.764783e+00
<GCONST> 8.748486e+01
<STATE> 3
<MEAN> 25
 -3.409215e+00 3.539294e+00 -3.653860e-01 -2.527875e+00 2.958833e+00 -1.158610e-01 -4.881400e-01 2.552562e+00 -1.254809e+00 2.729261e-01 1.639024e+00 -1.188893e+00 -3.492596e-01 -1.644885e-01 -1.478851e-01 4.239179e-02 -1.863323e-01 3.480404e-02 3.331285e-03 -1.458186e-01 -6.774674e-02 -3.261615e-02 -1.239699e-01 3.703791e-02 1.130761e+00
<VARIANCE> 25
 7.067774e+01 4.608610e+01 1.475509e+01 3.188384e+01 4.313172e+01 1.753377e+01 2.364967e+01 3.384867e+01 1.977421e+01 1.461022e+01 1.823245e+01 1.404857e+01 2.564507e+00 1.170389e+00 8.375308e-01 9.403739e-01 1.189702e+00 1.112410e+00 1.174702e+00 1.344510e+00 1.298595e+00 1.176146e+00 1.063298e+00 9.499559e-01 5.948139e+00
<GCONST> 8.852898e+01
<STATE> 4
<MEAN> 25
 -8.286722e-01 8.401581e-02 -3.910549e-01 -2.432810e-01 -1.030449e-01 2.430956e-01 4.094602e-01 -7.886983e-02 -2.882640e-01 7.034743e-02 -2.706452e-02 -1.995548e-02 1.500607e-02 -4.282016e-02 -6.603308e-03 1.981749e-02 -4.087585e-02 -3.596116e-04 9.764096e-03 -2.825572e-02 1.124583e-02 1.260266e-03 -1.333770e-02 1.435863e-02 1.532664e-01
<VARIANCE> 25
 4.388789e+01 3.350806e+01 1.506168e+01 2.470483e+01 3.140513e+01 2.065885e+01 2.609158e+01 2.419423e+01 2.048936e+01 1.629835e+01 1.422794e+01 1.307926e+01 7.738844e-01 1.390815e+00 7.577546e-01 1.083283e+00 1.334763e+00 1.337024e+00 1.287234e+00 1.475605e+00 1.474493e+00 1.326936e+00 1.164729e+00 1.050537e+00 1.208967e+00
<GCONST> 8.527920e+01
<TRANSP> 5
 0.000000e+00 1.000000e+00 0.000000e+00 0.000000e+00 0.000000e+00
 0.000000e+00 8.451586e-01 1.548414e-01 0.000000e+00 0.000000e+00
 0.000000e+00 0.000000e+00 8.451582e-01 1.548418e-01 0.000000e+00
 0.000000e+00 0.000000e+00 0.000000e+00 9.828695e-01 1.713047e-02
 0.000000e+00 0.000000e+00 0.000000e+00 0.000000e+00 0.000000e+00
<ENDHMM>
~h "shunya"
<BEGINHMM>
<NUMSTATES> 5
<STATE> 2
<MEAN> 25
 2.800276e-01 -1.028366e+00 3.683026e-01 7.944283e-01 -2.473871e-01 2.994949e-01 -3.474900e-01 -5.108981e-01 6.469952e-01 -2.486103e-01 -7.770143e-01 -2.549386e-01 1.377137e-01 -1.223704e-01 4.020815e-02 1.223536e-01 -2.830177e-02 1.108394e-02 -1.963064e-03 -4.574171e-02 6.042066e-02 -1.649352e-02 -5.584588e-02 3.100460e-02 2.142603e-01
<VARIANCE> 25
 6.334243e+01 7.568079e+01 1.533310e+01 4.458066e+01 2.467073e+01 2.740292e+01 4.888007e+01 3.998326e+01 3.262462e+01 2.569031e+01 2.108848e+01 2.036448e+01 8.312255e-01 2.534578e+00 1.019415e+00 1.209217e+00 1.379516e+00 1.695203e+00 1.414651e+00 1.793407e+00 1.992772e+00 1.781425e+00 1.730810e+00 1.446430e+00 8.823428e-01
<GCONST> 9.263148e+01
<STATE> 3
<MEAN> 25
 1.018980e+00 -1.668897e+00 6.101391e-01 1.482805e+00 -2.941470e-01 3.376784e-01 -4.171743e-01 -7.003820e-01 9.559691e-01 -3.585471e-01 -1.053388e+00 -8.889374e-02 1.109505e-01 -9.287012e-02 3.472664e-02 1.015549e-01 -5.870778e-03 4.420051e-03 -1.029096e-02 -2.757101e-02 4.314081e-02 -1.680613e-02 -3.928185e-02 2.585428e-02 1.434666e-01
<VARIANCE> 25
 6.264375e+01 7.661308e+01 1.526434e+01 4.435958e+01 2.582091e+01 2.848523e+01 5.146700e+01 4.058836e+01 3.298482e+01 2.695135e+01 2.117752e+01 2.188304e+01 8.484223e-01 2.702270e+00 1.016568e+00 1.275245e+00 1.439732e+00 1.762761e+00 1.439445e+00 1.749546e+00 2.071401e+00 1.841290e+00 1.735794e+00 1.517850e+00 7.777196e-01
<GCONST> 9.311505e+01
<STATE> 4
<MEAN> 25
 1.994674e+00 -1.937763e+00 9.921386e-01 2.258664e+00 2.125919e-01 5.191382e-01 -1.196915e+00 -1.670104e+00 1.052295e+00 -3.378419e-01 -1.050627e+00 5.236188e-01 1.238790e-02 5.064469e-03 -5.502637e-03 4.413643e-03 -1.525667e-03 -8.290347e-03 3.877535e-03 -4.949717e-03 -1.115113e-02 1.059988e-03 7.397085e-03 1.320559e-02 5.562142e-03
<VARIANCE> 25
 5.943727e+01 6.879599e+01 1.785010e+01 3.921740e+01 2.765995e+01 3.551618e+01 7.068801e+01 6.378782e+01 3.078160e+01 2.339840e+01 1.941183e+01 2.488051e+01 7.893090e-01 2.520273e+00 8.921642e-01 1.287408e+00 1.531620e+00 1.791476e+00 1.249545e+00 1.756159e+00 2.006599e+00 1.760612e+00 1.473784e+00 1.491244e+00 7.343599e-01
<GCONST> 9.323985e+01
<TRANSP> 5
 0.000000e+00 1.000000e+00 0.000000e+00 0.000000e+00 0.000000e+00
 0.000000e+00 8.454070e-01 1.545930e-01 0.000000e+00 0.000000e+00
 0.000000e+00 0.000000e+00 8.454070e-01 1.545931e-01 0.000000e+00
 0.000000e+00 0.000000e+00 0.000000e+00 9.841152e-01 1.588482e-02
 0.000000e+00 0.000000e+00 0.000000e+00 0.000000e+00 0.000000e+00
<ENDHMM>
~h "pach"
<BEGINHMM>
<NUMSTATES> 5
<STATE> 2
<MEAN> 25
 -2.670690e-01 4.320530e-01 -4.998439e-01 4.285081e-03 8.191247e-02 -1.565661e-01 -4.995556e-03 7.123343e-02 -1.937959e-02 -1.358575e-02 -3.626757e-01 -2.094802e-01 1.131535e-01 -9.504986e-02 1.282793e-02 4.060137e-02 -1.017575e-01 -1.052911e-02 1.757678e-02 -5.690192e-02 4.288141e-02 4.941490e-03 -2.788207e-02 3.452519e-02 1.902354e-01
<VARIANCE> 25
 4.869104e+01 3.820073e+01 9.532303e+00 1.151775e+01 4.528671e+01 1.926027e+01 1.248278e+01 1.553233e+01 1.898369e+01 1.310167e+01 1.201189e+01 1.051225e+01 1.059329e+00 1.715870e+00 6.414614e-01 9.406407e-01 1.694033e+00 1.441298e+00 1.279431e+00 1.192253e+00 1.500242e+00 1.285333e+00 1.333600e+00 1.007570e+00 1.260604e+00
<GCONST> 8.315785e+01
<STATE> 3
<MEAN> 25
 3.500795e-01 -7.158579e-02 -4.251890e-01 1.448346e-01 -4.811002e-01 -2.737901e-01 3.580958e-02 -1.904859e-01 2.043264e-01 1.831897e-02 -4.641655e-01 -2.667699e-02 8.893002e-02 -7.648736e-02 1.196448e-02 2.086560e-02 -8.347984e-02 -1.699188e-02 5.848655e-03 -3.883073e-02 3.232926e-02 4.847281e-03 -1.364580e-02 2.754070e-02 1.236505e-01
<VARIANCE> 25
 4.863647e+01 4.059513e+01 1.038573e+01 1.174223e+01 4.716455e+01 2.076280e+01 1.269704e+01 1.539963e+01 1.957612e+01 1.373541e+01 1.227271e+01 1.070940e+01 1.091176e+00 1.931416e+00 6.715599e-01 1.007082e+00 1.830418e+00 1.511918e+00 1.313833e+00 1.256366e+00 1.582138e+00 1.344729e+00 1.374178e+00 1.045497e+00 1.206926e+00
<GCONST> 8.415279e+01
<STATE> 4
<MEAN> 25
 2.272833e+00 -1.806763e+00 2.308024e-01 4.670089e-01 -2.448624e+00 -7.970994e-01 -1.130621e-01 -8.744892e-01 1.003312e+00 2.559182e-01 -3.517974e-01 6.727408e-01 2.206835e-02 -3.737180e-02 1.587411e-02 1.369789e-02 -2.826556e-02 3.829338e-03 5.301066e-03 -1.747604e-02 8.340897e-03 9.564401e-04 9.360369e-04 1.397621e-02 3.740974e-02
<VARIANCE> 25
 5.961142e+01 5.937748e+01 1.841887e+01 1.600913e+01 5.670200e+01 2.524196e+01 1.487050e+01 2.038147e+01 2.645806e+01 1.893939e+01 1.459973e+01 1.375185e+01 1.397845e+00 2.729368e+00 1.014290e+00 1.243816e+00 2.147425e+00 1.751158e+00 1.485894e+00 1.619230e+00 1.977322e+00 1.736151e+00 1.532922e+00 1.333297e+00 1.626773e+00
<GCONST> 9.051324e+01
<TRANSP> 5
 0.000000e+00 1.000000e+00 0.000000e+00 0.000000e+00 0.000000e+00
 0.000000e+00 8.458887e-01 1.541113e-01 0.000000e+00 0.000000e+00
 0.000000e+00 0.000000e+00 8.458887e-01 1.541113e-01 0.000000e+00
 0.000000e+00 0.000000e+00 0.000000e+00 9.834320e-01 1.656803e-02
 0.000000e+00 0.000000e+00 0.000000e+00 0.000000e+00 0.000000e+00
<ENDHMM>
~h "aath"
<BEGINHMM>
<NUMSTATES> 5
<STATE> 2
<MEAN> 25
 1.774597e+00 -9.289699e-01 -2.366630e-01 2.361253e-01 -1.551412e+00 -7.976536e-01 -8.277185e-04 -1.280480e-01 6.363196e-01 -1.198405e-01 -3.363267e-01 4.686443e-01 1.086873e-01 -4.914724e-02 3.920935e-03 1.938318e-02 -6.570242e-02 5.801278e-04 1.546766e-02 -4.760043e-02 2.834316e-02 7.941098e-03 -1.441293e-02 2.635293e-02 1.535113e-01
<VARIANCE> 25
 6.744799e+01 2.425045e+01 1.650574e+01 1.825422e+01 4.126878e+01 2.601330e+01 1.285020e+01 2.859862e+01 3.152152e+01 1.412177e+01 1.602984e+01 1.485456e+01 1.315447e+00 1.868833e+00 7.724226e-01 1.110969e+00 1.848778e+00 1.941646e+00 1.599589e+00 2.334037e+00 2.254499e+00 1.489025e+00 1.271082e+00 1.258432e+00 1.543053e+00
<GCONST> 8.896786e+01
<STATE> 3
<MEAN> 25
 2.349526e+00 -1.149974e+00 -2.081744e-01 2.787562e-01 -1.869240e+00 -8.007092e-01 4.046151e-02 -3.408441e-01 7.976651e-01 -4.555402e-02 -3.702246e-01 5.967925e-01 8.082543e-02 -3.047247e-02 4.131522e-03 5.162705e-03 -4.438007e-02 3.676116e-05 5.553215e-03 -3.062040e-02 2.227740e-02 1.120025e-02 -4.403653e-03 1.763008e-02 9.425253e-02
<VARIANCE> 25
 6.445213e+01 2.448564e+01 1.747311e+01 1.887532e+01 4.078155e+01 2.753313e+01 1.296586e+01 2.886142e+01 3.233433e+01 1.447269e+01 1.642791e+01 1.499139e+01 1.325185e+00 1.992696e+00 7.941824e-01 1.155190e+00 1.913837e+00 2.013386e+00 1.642784e+00 2.403861e+00 2.335909e+00 1.520904e+00 1.292485e+00 1.282233e+00 1.493982e+00
<GCONST> 8.949432e+01
<STATE> 4
<MEAN> 25
 2.587686e+00 -1.232326e+00 1.344160e-01 5.095314e-01 -1.515114e+00 -7.210027e-02 1.919612e-01 -7.634202e-01 9.165743e-01 1.662082e-01 -2.348069e-01 8.810074e-01 -3.183016e-02 9.175282e-03 5.286802e-03 1.798111e-03 2.402081e-02 2.300969e-02 4.447586e-03 -1.013548e-02 -1.202471e-02 2.581772e-03 1.695039e-03 -4.935410e-03 -3.083971e-02
<VARIANCE> 25
 5.742412e+01 2.546818e+01 1.835030e+01 2.004463e+01 3.638582e+01 2.796186e+01 1.300648e+01 2.797494e+01 3.051717e+01 1.565565e+01 1.685242e+01 1.571916e+01 1.213419e+00 2.227262e+00 7.977419e-01 1.206671e+00 1.832902e+00 2.025377e+00 1.627531e+00 2.465166e+00 2.380018e+00 1.641032e+00 1.292398e+00 1.298660e+00 1.451938e+00
<GCONST> 8.962296e+01
<TRANSP> 5
 0.000000e+00 1.000000e+00 0.000000e+00 0.000000e+00 0.000000e+00
 0.000000e+00 8.475971e-01 1.524029e-01 0.000000e+00 0.000000e+00
 0.000000e+00 0.000000e+00 8.475973e-01 1.524027e-01 0.000000e+00
 0.000000e+00 0.000000e+00 0.000000e+00 9.844265e-01 1.557346e-02
 0.000000e+00 0.000000e+00 0.000000e+00 0.000000e+00 0.000000e+00
<ENDHMM>
