~o
<STREAMINFO> 1 25
<VECSIZE> 25<NULLD><MFCC_D_N_Z_0><DIAGC>
~s "silst"
<MEAN> 25
 -6.965391e+00 2.456805e+00 3.584797e-01 1.726189e+00 2.981835e+00 1.436515e+00 2.028970e-01 1.372051e+00 1.066166e+00 5.498408e-01 8.757190e-01 1.200570e+00 2.893892e-01 -1.847641e-01 -8.149726e-02 -3.230664e-01 -2.076832e-01 -2.744066e-01 -2.212709e-01 -1.012957e-01 -3.211567e-02 -1.359318e-01 -8.659007e-02 -9.113823e-02 6.601388e-01
<VARIANCE> 25
 6.570494e+01 4.428428e+01 4.320322e+01 3.159291e+01 3.669186e+01 4.317051e+01 3.662135e+01 3.061024e+01 2.724943e+01 2.564419e+01 2.470652e+01 2.175920e+01 8.332251e+00 3.470815e+00 3.261037e+00 3.190092e+00 4.429832e+00 4.939974e+00 3.687690e+00 3.392958e+00 3.026134e+00 2.696329e+00 2.639790e+00 2.386905e+00 3.314371e+00
<GCONST> 1.048249e+02
~h "l1_i"
<BEGINHMM>
<NUMSTATES> 5
<STATE> 2
<MEAN> 25
 4.491151e+00 4.884763e-02 -6.658669e+00 -5.847100e+00 9.019471e-01 2.879585e+00 -2.195478e+00 -2.522776e+00 -1.849074e+00 -2.006696e-01 -5.239614e-01 -1.648129e+00 4.005746e-01 -4.852253e-01 -6.697968e-01 -8.070049e-01 1.027346e-01 3.472260e-01 -6.738032e-02 -1.974550e-01 2.625341e-01 -4.637007e-02 -1.743439e-02 -5.226059e-02 7.374056e-01
<VARIANCE> 25
 4.693937e+01 3.705421e+01 5.138090e+01 7.002288e+01 4.221886e+01 6.589806e+01 7.083894e+01 6.926154e+01 3.478903e+01 4.477094e+01 4.560581e+01 3.879671e+01 4.014427e+00 3.422658e+00 4.746246e+00 7.092671e+00 5.087855e+00 6.262203e+00 6.322412e+00 7.276986e+00 4.133798e+00 4.577175e+00 4.023426e+00 4.312377e+00 4.473446e+00
<GCONST> 1.135738e+02
<STATE> 3
<MEAN> 25
 5.890456e+00 -3.468907e+00 -8.615329e+00 -7.238286e+00 1.445143e+00 4.341165e+00 -8.440825e-01 -3.617094e+00 2.713701e+00 -2.955941e+00 -1.961892e+00 -1.238406e+00 -6.195661e-02 1.231393e-01 2.200224e-01 2.069321e-01 -3.813668e-02 -2.174305e-01 1.037205e-02 1.626245e-02 4.788589e-03 -1.043401e-02 -1.318293e-02 -8.158091e-03 -2.166346e-01
<VARIANCE> 25
 1.076479e+01 4.251375e+01 3.412190e+01 6.306727e+01 6.561997e+01 1.083211e+02 7.643806e+01 7.064729e+01 4.871503e+01 5.899346e+01 4.786766e+01 4.116362e+01 3.736749e-01 1.461856e+00 1.472762e+00 2.007852e+00 2.364702e+00 2.673918e+00 2.604340e+00 2.735671e+00 2.436169e+00 2.494013e+00 2.345674e+00 1.949391e+00 5.723293e-01
<GCONST> 9.981339e+01
<STATE> 4
<MEAN> 25
 -1.500760e+00 -8.387837e-01 1.431793e+00 -8.935639e-01 1.084992e+00 -4.327249e-01 -9.536118e-01 -1.499465e+00 4.103285e-02 -1.287153e+00 5.837889e-01 -1.284519e+00 -3.753941e-01 5.307174e-02 1.320888e-01 1.284940e-01 7.738191e-02 1.631840e-01 1.379067e-01 1.156119e-01 -2.167224e-02 5.635156e-02 5.921894e-02 3.617344e-02 -2.100175e-02
<VARIANCE> 25
 9.229243e+01 4.266372e+01 5.908524e+01 6.066732e+01 4.826075e+01 3.958018e+01 6.595276e+01 7.417842e+01 4.534492e+01 3.176704e+01 4.286499e+01 3.412712e+01 6.109191e+00 3.106571e+00 3.624269e+00 3.735185e+00 3.373965e+00 3.559141e+00 4.938475e+00 4.833199e+00 3.808446e+00 3.111131e+00 4.041712e+00 3.217415e+00 2.579508e+00
<GCONST> 1.102128e+02
<TRANSP> 5
 0.000000e+00 1.000000e+00 0.000000e+00 0.000000e+00 0.000000e+00
 0.000000e+00 8.973563e-01 1.026436e-01 0.000000e+00 0.000000e+00
 0.000000e+00 0.000000e+00 9.594065e-01 4.059352e-02 0.000000e+00
 0.000000e+00 0.000000e+00 0.000000e+00 9.517845e-01 4.821553e-02
 0.000000e+00 0.000000e+00 0.000000e+00 0.000000e+00 0.000000e+00
<ENDHMM>
~h "l1_u"
<BEGINHMM>
<NUMSTATES> 5
<STATE> 2
<MEAN> 25
 -1.697814e+00 3.124127e-01 4.413621e+00 1.083556e+00 -1.439426e+00 -1.395115e+00 -5.911709e-02 -3.428468e+00 -3.094468e+00 -7.607909e-01 3.283185e+00 -5.874763e-01 3.230788e-01 -2.685520e-01 -5.508430e-01 -4.947426e-01 8.572184e-02 5.318445e-02 -1.888104e-03 2.289891e-02 -8.823676e-02 4.154167e-02 8.143533e-03 2.459773e-02 3.604406e-01
<VARIANCE> 25
 8.070447e+01 4.449703e+01 8.608138e+01 5.373340e+01 6.716885e+01 5.729589e+01 4.840083e+01 4.757626e+01 5.519897e+01 3.953009e+01 3.562384e+01 4.673119e+01 6.465137e+00 2.922925e+00 7.998573e+00 4.774989e+00 4.450576e+00 4.910415e+00 5.800458e+00 3.215313e+00 5.003617e+00 4.577263e+00 3.269744e+00 4.128240e+00 3.052622e+00
<GCONST> 1.131169e+02
<STATE> 3
<MEAN> 25
 7.092386e+00 -3.833711e+00 -1.040300e+01 -2.815435e+00 6.901349e+00 -1.193200e+00 -4.648329e+00 1.041427e-01 -1.268192e+00 -1.322615e+00 1.605039e-01 6.637661e-01 -4.080056e-02 -5.413084e-02 -8.072118e-02 -7.325746e-03 5.715092e-02 7.240360e-02 6.227787e-02 -1.154630e-01 1.808253e-01 1.184167e-01 3.573859e-02 -4.977949e-02 -9.884740e-02
<VARIANCE> 25
 2.100293e+01 3.165770e+01 4.476390e+01 5.187392e+01 6.514359e+01 6.481264e+01 1.069402e+02 7.199137e+01 6.325480e+01 4.525365e+01 5.167165e+01 7.087036e+01 1.578395e+00 2.257595e+00 3.625458e+00 2.811872e+00 3.752961e+00 3.969696e+00 5.745882e+00 5.621061e+00 3.994527e+00 3.414619e+00 3.447667e+00 3.169529e+00 1.382465e+00
<GCONST> 1.087558e+02
<STATE> 4
<MEAN> 25
 4.618163e+00 -4.402505e-01 -5.730136e+00 -8.314715e+00 -2.635594e-01 4.894309e+00 1.825039e+00 -4.834316e+00 1.981835e+00 8.665534e-01 6.775427e-01 -3.645933e+00 -2.956986e-01 2.518722e-01 1.764542e-01 9.340020e-02 -4.070609e-02 1.907651e-02 1.282241e-02 4.957785e-02 2.712742e-02 2.042392e-02 1.988647e-02 9.252640e-02 -1.193312e-01
<VARIANCE> 25
 4.313790e+01 3.358547e+01 4.548373e+01 6.842225e+01 3.658235e+01 6.574239e+01 3.712374e+01 3.386439e+01 4.911252e+01 3.025964e+01 2.456790e+01 2.472673e+01 1.539381e+00 1.580631e+00 1.407941e+00 3.340003e+00 1.931379e+00 3.011368e+00 1.969158e+00 1.945542e+00 2.683314e+00 2.237227e+00 1.795993e+00 1.677398e+00 6.007165e-01
<GCONST> 9.783018e+01
<TRANSP> 5
 0.000000e+00 1.000000e+00 0.000000e+00 0.000000e+00 0.000000e+00
 0.000000e+00 9.167024e-01 8.329759e-02 0.000000e+00 0.000000e+00
 0.000000e+00 0.000000e+00 9.397211e-01 6.027888e-02 0.000000e+00
 0.000000e+00 0.000000e+00 0.000000e+00 9.475275e-01 5.247252e-02
 0.000000e+00 0.000000e+00 0.000000e+00 0.000000e+00 0.000000e+00
<ENDHMM>
~h "l2_i"
<BEGINHMM>
<NUMSTATES> 5
<STATE> 2
<MEAN> 25
 -1.447182e+00 -4.421209e-01 -7.760760e-01 -1.453888e+00 2.404799e+00 2.341928e+00 1.666810e-01 -2.950312e+00 -1.132891e+00 -1.499828e+00 1.633315e+00 -6.534161e-01 3.528096e-01 -2.549103e-01 -4.139683e-01 -4.195781e-01 -1.369793e-02 2.748569e-02 -1.782623e-01 6.457211e-03 2.614070e-01 -8.365418e-02 -3.602534e-02 -4.735963e-02 4.653354e-01
<VARIANCE> 25
 9.354926e+01 4.054878e+01 6.417896e+01 6.323448e+01 4.861705e+01 6.367692e+01 7.007659e+01 5.738757e+01 4.904839e+01 4.472439e+01 3.777422e+01 3.702288e+01 8.102213e+00 3.965261e+00 5.505172e+00 5.819490e+00 3.953304e+00 6.503139e+00 5.527416e+00 5.405992e+00 5.577469e+00 4.370267e+00 3.833914e+00 4.004983e+00 3.810123e+00
<GCONST> 1.146135e+02
<STATE> 3
<MEAN> 25
 7.432278e+00 -3.268438e+00 -6.268964e+00 -4.666269e+00 -8.465496e-03 3.266265e+00 -1.204295e+00 -1.791937e+00 4.542589e+00 -1.482468e+00 -1.137899e+00 -1.916861e+00 -2.553828e-02 3.934587e-02 7.379557e-02 1.904831e-01 7.836968e-02 -1.213620e-02 -2.226578e-02 -9.288579e-03 -2.408657e-02 4.452399e-03 -5.758548e-02 8.786938e-03 -1.849993e-01
<VARIANCE> 25
 7.874740e+00 4.445291e+01 4.582638e+01 6.369179e+01 6.274480e+01 7.982628e+01 6.515637e+01 7.065037e+01 5.350227e+01 4.664815e+01 5.477296e+01 3.550011e+01 4.256936e-01 1.702963e+00 2.047256e+00 2.245349e+00 3.021429e+00 2.980862e+00 3.187779e+00 3.472895e+00 3.204685e+00 2.794896e+00 2.898772e+00 2.361641e+00 8.374547e-01
<GCONST> 1.018771e+02
<STATE> 4
<MEAN> 25
 -3.374525e+00 -1.967646e+00 3.337528e+00 -1.360977e-01 2.438291e+00 1.469973e-01 -4.138394e-02 -2.551377e+00 8.091922e-02 -1.191337e+00 6.190863e-01 -2.051209e+00 -3.488726e-01 9.768771e-02 1.589956e-01 -2.589289e-02 2.525966e-02 3.066432e-02 1.776388e-01 1.338595e-01 -5.741509e-02 2.145773e-02 3.165004e-02 2.924827e-02 -6.907090e-04
<VARIANCE> 25
 1.151013e+02 4.215930e+01 7.355392e+01 7.908678e+01 5.677343e+01 3.420254e+01 7.151773e+01 4.883685e+01 3.616049e+01 3.407517e+01 3.546779e+01 4.104139e+01 7.144690e+00 2.620317e+00 3.963086e+00 3.294298e+00 3.214331e+00 2.770212e+00 4.947967e+00 2.927735e+00 2.998430e+00 2.737393e+00 3.118793e+00 2.879419e+00 1.624274e+00
<GCONST> 1.083761e+02
<TRANSP> 5
 0.000000e+00 1.000000e+00 0.000000e+00 0.000000e+00 0.000000e+00
 0.000000e+00 9.349179e-01 6.508207e-02 0.000000e+00 0.000000e+00
 0.000000e+00 0.000000e+00 9.677079e-01 3.229214e-02 0.000000e+00
 0.000000e+00 0.000000e+00 0.000000e+00 9.544257e-01 4.557430e-02
 0.000000e+00 0.000000e+00 0.000000e+00 0.000000e+00 0.000000e+00
<ENDHMM>
~h "l2_u"
<BEGINHMM>
<NUMSTATES> 5
<STATE> 2
<MEAN> 25
 5.753102e+00 -5.312654e+00 -8.981483e+00 -4.776968e+00 4.301583e+00 9.482620e-01 -3.115793e+00 -1.630425e+00 7.422257e-01 -4.753438e-01 -2.636286e+00 -1.688086e+00 2.358062e-01 -2.876388e-01 -3.233343e-01 -1.597439e-01 2.430129e-03 -3.855979e-02 2.009339e-01 1.037840e-01 1.280063e-01 4.737202e-02 -2.693819e-01 -2.156172e-01 9.897402e-02
<VARIANCE> 25
 2.429326e+01 4.615468e+01 3.914550e+01 5.104852e+01 5.803180e+01 7.990690e+01 9.210931e+01 5.783358e+01 4.181335e+01 7.411349e+01 5.000128e+01 2.958039e+01 1.958532e+00 3.508750e+00 4.281477e+00 3.737868e+00 4.639071e+00 5.044970e+00 5.506402e+00 5.473892e+00 4.196646e+00 4.888710e+00 4.889787e+00 2.735350e+00 2.285918e+00
<GCONST> 1.106300e+02
<STATE> 3
<MEAN> 25
 4.643196e+00 -3.896910e+00 -5.273652e+00 -4.608798e+00 -1.735082e+00 9.303998e-01 -1.677300e+00 -1.376939e+00 1.097327e+00 -1.149775e+00 -4.001324e+00 -4.122256e+00 -4.935997e-02 9.812156e-02 1.501094e-01 3.132249e-02 -1.218427e-02 3.714300e-02 -2.456110e-02 -9.808236e-02 8.305717e-04 6.437246e-02 6.822421e-02 -4.444592e-02 -1.510685e-01
<VARIANCE> 25
 1.265054e+01 4.015138e+01 4.781347e+01 4.533604e+01 6.496452e+01 6.867621e+01 4.995542e+01 6.905315e+01 6.323782e+01 7.128030e+01 4.801807e+01 3.498252e+01 5.361456e-01 1.514564e+00 1.947398e+00 1.980939e+00 2.542922e+00 2.970920e+00 2.522033e+00 3.825138e+00 2.823127e+00 3.092438e+00 2.960024e+00 2.300933e+00 7.077351e-01
<GCONST> 1.014182e+02
<STATE> 4
<MEAN> 25
 6.936982e-01 9.637732e-01 -3.703149e+00 -3.624738e+00 1.851257e+00 2.364682e+00 6.132478e-02 -2.012512e+00 8.857843e-01 -4.089255e-01 -3.996346e-02 -4.183051e-01 -4.327854e-01 2.291032e-01 1.286669e-01 1.700596e-01 1.735684e-01 9.951814e-02 7.117445e-02 1.351280e-01 -3.510525e-02 -1.368302e-02 1.496394e-01 1.820129e-01 -5.127194e-02
<VARIANCE> 25
 9.062467e+01 4.055415e+01 7.921232e+01 1.110709e+02 4.865336e+01 5.912599e+01 1.153560e+02 4.370663e+01 5.937597e+01 3.864692e+01 3.530083e+01 2.904687e+01 5.215582e+00 2.991963e+00 4.105402e+00 5.187811e+00 2.968431e+00 3.924093e+00 6.258703e+00 2.927984e+00 4.342471e+00 3.349611e+00 2.732965e+00 2.466423e+00 1.454879e+00
<GCONST> 1.105297e+02
<TRANSP> 5
 0.000000e+00 1.000000e+00 0.000000e+00 0.000000e+00 0.000000e+00
 0.000000e+00 9.222510e-01 7.774893e-02 0.000000e+00 0.000000e+00
 0.000000e+00 0.000000e+00 9.621654e-01 3.783459e-02 0.000000e+00
 0.000000e+00 0.000000e+00 0.000000e+00 9.498280e-01 5.017197e-02
 0.000000e+00 0.000000e+00 0.000000e+00 0.000000e+00 0.000000e+00
<ENDHMM>
~h "l3_i"
<BEGINHMM>
<NUMSTATES> 5
<STATE> 2
<MEAN> 25
 -3.495146e+00 -4.015213e-01 1.298090e+00 -8.410475e-01 1.553027e+00 -7.142332e-02 -1.825326e+00 -3.482385e+00 6.696784e-02 1.469748e-01 1.287595e+00 -1.568695e+00 1.943667e-01 -1.468104e-01 -2.741753e-01 -4.593528e-01 -2.371525e-01 -4.810704e-02 4.681290e-02 3.396679e-02 -5.633125e-02 -9.068502e-02 -2.046720e-02 -3.587036e-02 2.201886e-01
<VARIANCE> 25
 1.051367e+02 3.905310e+01 6.621731e+01 5.362521e+01 3.771400e+01 4.036717e+01 8.095749e+01 3.093227e+01 3.199689e+01 3.625650e+01 4.080525e+01 3.473259e+01 9.180201e+00 3.303774e+00 5.473697e+00 5.454725e+00 3.955328e+00 4.317166e+00 5.678002e+00 3.830848e+00 3.624941e+00 3.256446e+00 3.985089e+00 3.013038e+00 2.689946e+00
<GCONST> 1.105780e+02
<STATE> 3
<MEAN> 25
 6.511564e+00 -8.270406e-01 -7.389049e+00 -9.456231e+00 3.960789e-01 3.465727e+00 2.850082e-02 -2.637814e+00 1.956616e-01 -6.224077e-01 2.156295e-01 -3.234404e+00 -8.567874e-02 1.963329e-02 4.712595e-02 1.393556e-01 3.150389e-02 -2.723505e-02 9.097426e-02 1.740963e-01 8.501352e-02 8.847572e-03 -3.120999e-02 3.788818e-02 -1.283757e-01
<VARIANCE> 25
 1.225226e+01 4.861463e+01 3.527373e+01 8.056713e+01 6.392412e+01 6.978192e+01 6.109470e+01 5.627007e+01 5.473929e+01 5.323978e+01 4.304996e+01 3.567115e+01 8.976161e-01 2.559348e+00 2.669612e+00 4.578294e+00 4.013562e+00 4.492901e+00 3.953438e+00 3.393373e+00 4.003520e+00 3.466452e+00 3.054645e+00 2.799913e+00 1.761562e+00
<GCONST> 1.063149e+02
<STATE> 4
<MEAN> 25
 9.841694e-01 1.414751e+00 2.586340e+00 -8.123478e-01 -4.848459e+00 -1.789966e+00 1.160017e+00 -5.117875e-01 -7.794998e-01 3.250150e-01 -1.807365e+00 -6.537761e-01 -5.909011e-02 5.558323e-02 4.573857e-02 2.037969e-02 7.083579e-03 5.212008e-03 3.317362e-02 2.466122e-02 -1.520589e-03 6.543798e-02 6.864202e-04 -4.636789e-02 -9.019178e-02
<VARIANCE> 25
 2.208258e+01 3.081819e+01 3.532197e+01 3.127326e+01 7.235060e+01 3.665186e+01 6.924500e+01 5.565873e+01 4.045049e+01 5.140873e+01 3.558157e+01 5.853821e+01 1.377409e+00 1.502839e+00 1.764164e+00 1.607541e+00 3.557482e+00 2.534055e+00 4.277348e+00 3.469256e+00 2.634760e+00 3.040115e+00 2.808426e+00 2.254182e+00 1.019819e+00
<GCONST> 1.015102e+02
<TRANSP> 5
 0.000000e+00 1.000000e+00 0.000000e+00 0.000000e+00 0.000000e+00
 0.000000e+00 9.211631e-01 7.883687e-02 0.000000e+00 0.000000e+00
 0.000000e+00 0.000000e+00 9.602126e-01 3.978737e-02 0.000000e+00
 0.000000e+00 0.000000e+00 0.000000e+00 9.605454e-01 3.945466e-02
 0.000000e+00 0.000000e+00 0.000000e+00 0.000000e+00 0.000000e+00
<ENDHMM>
~h "l3_u"
<BEGINHMM>
<NUMSTATES> 5
<STATE> 2
<MEAN> 25
 -5.678586e+00 -1.862417e+00 3.992081e+00 6.549133e-02 -1.020766e+00 -2.273108e-01 2.143903e+00 -3.114550e+00 -1.485049e+00 4.196350e-01 2.676008e+00 1.670416e+00 3.891969e-01 -1.286068e-01 -4.155031e-01 -4.682864e-01 -2.631766e-02 1.323948e-01 1.518486e-01 -1.677174e-01 -1.857014e-02 -1.608989e-01 4.313945e-02 -3.976738e-02 4.455122e-01
<VARIANCE> 25
 6.116115e+01 4.428138e+01 6.580122e+01 4.392224e+01 4.397693e+01 4.778476e+01 6.697366e+01 3.674579e+01 4.223293e+01 5.738682e+01 3.508224e+01 8.352998e+01 5.687424e+00 3.116463e+00 3.725504e+00 3.964638e+00 4.378328e+00 3.931929e+00 5.831794e+00 3.467981e+00 3.936415e+00 3.660249e+00 3.376721e+00 3.661747e+00 2.506650e+00
<GCONST> 1.105766e+02
<STATE> 3
<MEAN> 25
 5.955678e+00 -1.855340e+00 -5.560658e+00 -4.646869e+00 1.804319e+00 1.916679e+00 -1.208971e+00 -2.743320e+00 9.132073e-01 -1.911159e+00 -8.392826e-01 -1.602827e+00 1.163666e-02 1.017025e-01 4.955293e-02 1.223787e-01 4.950583e-02 3.635083e-02 9.311567e-03 2.459863e-02 3.205299e-02 2.258738e-02 -5.044530e-02 9.756709e-03 -1.864728e-01
<VARIANCE> 25
 9.001616e+00 4.179286e+01 4.678589e+01 9.533840e+01 5.367414e+01 8.737826e+01 5.706053e+01 7.265807e+01 6.006528e+01 6.212052e+01 3.814006e+01 4.258290e+01 5.195244e-01 2.006971e+00 2.343206e+00 3.341882e+00 2.797974e+00 3.936376e+00 3.161509e+00 4.568002e+00 3.366130e+00 3.791414e+00 2.775578e+00 2.411145e+00 1.024173e+00
<GCONST> 1.043208e+02
<STATE> 4
<MEAN> 25
 -4.208758e+00 6.503141e-01 -3.000021e+00 -2.249143e+00 3.499168e+00 1.236611e+00 2.244315e+00 -2.449341e+00 1.341319e+00 9.517156e-01 1.904721e-01 -2.573020e+00 -6.948749e-01 -9.937940e-02 5.956483e-02 -3.288156e-02 1.230692e-01 2.123990e-02 2.080321e-01 2.691148e-01 7.198016e-02 8.948904e-02 1.417941e-01 6.068404e-02 5.991240e-02
<VARIANCE> 25
 8.760796e+01 4.897153e+01 9.684316e+01 4.512628e+01 5.313128e+01 5.465628e+01 5.450673e+01 4.979176e+01 2.842883e+01 3.328962e+01 2.246204e+01 2.864431e+01 6.884329e+00 3.174804e+00 4.253511e+00 3.182331e+00 4.184410e+00 3.695660e+00 3.794179e+00 3.224019e+00 2.378491e+00 2.394032e+00 2.113399e+00 2.304297e+00 1.715074e+00
<GCONST> 1.066875e+02
<TRANSP> 5
 0.000000e+00 1.000000e+00 0.000000e+00 0.000000e+00 0.000000e+00
 0.000000e+00 9.072678e-01 9.273216e-02 0.000000e+00 0.000000e+00
 0.000000e+00 0.000000e+00 9.680769e-01 3.192302e-02 0.000000e+00
 0.000000e+00 0.000000e+00 0.000000e+00 9.199386e-01 8.006138e-02
 0.000000e+00 0.000000e+00 0.000000e+00 0.000000e+00 0.000000e+00
<ENDHMM>
~h "l4_i"
<BEGINHMM>
<NUMSTATES> 5
<STATE> 2
<MEAN> 25
 6.436635e+00 -2.330845e-01 -6.561714e+00 -5.971642e+00 -3.415403e-01 3.056241e+00 -2.157061e+00 -2.927826e+00 -2.070838e-01 -1.018485e+00 -1.548696e+00 -3.004491e+00 2.896908e-01 -6.740204e-01 -6.315688e-01 -6.852264e-01 1.375132e-02 1.603831e-01 -5.271571e-02 2.819062e-01 4.957782e-01 -4.112112e-02 -1.451211e-01 5.630220e-02 5.288125e-01
<VARIANCE> 25
 2.783425e+01 4.736235e+01 6.457204e+01 7.128892e+01 5.022131e+01 7.966615e+01 7.230839e+01 5.845770e+01 6.016064e+01 4.568748e+01 5.489108e+01 3.831037e+01 2.281867e+00 4.610964e+00 5.429239e+00 5.913334e+00 5.724770e+00 5.784242e+00 7.069069e+00 6.407408e+00 5.821188e+00 4.600791e+00 4.953669e+00 4.577244e+00 2.820662e+00
<GCONST> 1.143605e+02
<STATE> 3
<MEAN> 25
 6.249611e+00 -3.654780e+00 -5.064989e+00 -5.251490e+00 -1.674584e+00 1.244255e+00 1.026303e-01 1.702622e+00 3.175554e+00 -1.737730e+00 -3.397178e+00 -1.440536e+00 -5.140965e-02 1.665536e-01 1.580992e-01 1.532080e-01 -1.885228e-02 -1.468255e-01 4.930566e-02 -2.205931e-02 -1.417015e-01 3.383264e-02 -1.760897e-03 9.185866e-03 -2.112380e-01
<VARIANCE> 25
 1.039911e+01 4.787803e+01 4.686574e+01 5.228362e+01 9.137868e+01 9.365516e+01 6.119644e+01 8.483380e+01 5.358246e+01 5.213177e+01 5.089653e+01 3.839214e+01 3.826268e-01 1.675679e+00 1.645863e+00 1.671338e+00 2.778487e+00 2.293983e+00 2.743973e+00 3.009776e+00 2.513187e+00 2.441288e+00 2.239726e+00 1.917251e+00 5.435290e-01
<GCONST> 1.002759e+02
<STATE> 4
<MEAN> 25
 -3.655303e+00 6.001424e-01 3.097197e-01 -2.904123e+00 2.224790e+00 1.426476e+00 1.532403e+00 -2.755468e-01 3.536487e-01 -4.930918e-01 3.075504e-01 -1.415187e+00 -5.145062e-01 3.421735e-02 8.731792e-02 1.391892e-01 2.619902e-01 1.818961e-01 5.013760e-02 6.127121e-02 5.298777e-02 -2.885858e-02 9.600834e-02 8.653431e-02 1.009760e-02
<VARIANCE> 25
 9.726762e+01 4.671540e+01 7.921452e+01 6.320091e+01 5.172779e+01 5.183422e+01 6.970830e+01 4.756065e+01 3.697560e+01 4.262261e+01 4.118788e+01 3.474640e+01 7.321342e+00 2.787110e+00 3.696725e+00 3.778382e+00 3.823640e+00 3.417764e+00 4.913148e+00 3.765339e+00 2.887363e+00 3.327420e+00 3.109571e+00 2.803935e+00 1.731571e+00
<GCONST> 1.096337e+02
<TRANSP> 5
 0.000000e+00 1.000000e+00 0.000000e+00 0.000000e+00 0.000000e+00
 0.000000e+00 8.913330e-01 1.086669e-01 0.000000e+00 0.000000e+00
 0.000000e+00 0.000000e+00 9.659009e-01 3.409911e-02 0.000000e+00
 0.000000e+00 0.000000e+00 0.000000e+00 9.485918e-01 5.140824e-02
 0.000000e+00 0.000000e+00 0.000000e+00 0.000000e+00 0.000000e+00
<ENDHMM>
~h "l4_u"
<BEGINHMM>
<NUMSTATES> 5
<STATE> 2
<MEAN> 25
 5.688981e-01 8.574122e-02 4.936361e-01 2.716094e-02 -3.131780e-01 2.977505e-01 -9.697443e-01 -2.019018e+00 -8.919808e-01 5.066983e-01 2.341813e-01 -1.511546e+00 2.586481e-01 -2.208208e-01 -4.390145e-01 -6.174350e-01 3.947926e-02 2.886225e-01 -3.847868e-02 2.098105e-02 -4.948394e-03 -7.634874e-02 6.327870e-02 2.817406e-03 3.440885e-01
<VARIANCE> 25
 4.837270e+01 4.244733e+01 6.299741e+01 5.453356e+01 6.430582e+01 5.959840e+01 7.429482e+01 6.332608e+01 3.619937e+01 4.145788e+01 3.107759e+01 2.713529e+01 4.390080e+00 3.811606e+00 4.329106e+00 5.390157e+00 4.730464e+00 5.904949e+00 6.591492e+00 6.094221e+00 3.559594e+00 4.293003e+00 3.309650e+00 3.161039e+00 5.639446e+00
<GCONST> 1.122691e+02
<STATE> 3
<MEAN> 25
 6.778974e+00 -1.072635e+00 -6.567078e+00 -8.562499e+00 2.047047e+00 5.611445e+00 -2.849579e+00 -1.857067e+00 7.156758e-01 -2.086753e+00 -5.379984e-01 -2.075119e+00 -6.252789e-02 -8.036987e-02 2.559963e-02 2.168325e-01 2.988954e-02 -1.204145e-01 4.413303e-02 7.742292e-02 6.210270e-02 -5.342104e-02 -2.502338e-02 -4.403581e-03 -1.352760e-01
<VARIANCE> 25
 1.184725e+01 4.219759e+01 4.037840e+01 8.793861e+01 1.099150e+02 5.561683e+01 7.107919e+01 6.292616e+01 6.135193e+01 5.709372e+01 4.750391e+01 4.445658e+01 4.447721e-01 1.644283e+00 1.872812e+00 3.857210e+00 3.345191e+00 3.484787e+00 3.393310e+00 3.413150e+00 3.411419e+00 3.415623e+00 3.138856e+00 2.733029e+00 9.482991e-01
<GCONST> 1.043985e+02
<STATE> 4
<MEAN> 25
 -2.245871e-01 -1.161954e+00 2.785685e-01 1.114382e+00 -1.240774e+00 -1.193915e+00 1.301229e+00 1.043000e+00 -1.814536e-01 -1.713469e+00 -2.601803e-01 -1.545796e+00 -9.388696e-01 3.191256e-01 3.631974e-01 3.569269e-01 1.782819e-01 1.585281e-01 3.796348e-01 1.869762e-01 -2.918332e-02 1.716468e-01 1.830450e-01 1.147727e-01 -1.907600e-01
<VARIANCE> 25
 5.812734e+01 4.310435e+01 5.200946e+01 4.662956e+01 5.483575e+01 7.600443e+01 4.767639e+01 5.007008e+01 4.036061e+01 3.039111e+01 3.179241e+01 2.846049e+01 5.524128e+00 3.387908e+00 4.181498e+00 4.846663e+00 5.431467e+00 4.717637e+00 4.596659e+00 4.093374e+00 3.611712e+00 3.594410e+00 3.467111e+00 2.869860e+00 3.431200e+00
<GCONST> 1.098102e+02
<TRANSP> 5
 0.000000e+00 1.000000e+00 0.000000e+00 0.000000e+00 0.000000e+00
 0.000000e+00 9.341984e-01 6.580156e-02 0.000000e+00 0.000000e+00
 0.000000e+00 0.000000e+00 9.616314e-01 3.836862e-02 0.000000e+00
 0.000000e+00 0.000000e+00 0.000000e+00 9.009247e-01 9.907528e-02
 0.000000e+00 0.000000e+00 0.000000e+00 0.000000e+00 0.000000e+00
<ENDHMM>
~h "l5_i"
<BEGINHMM>
<NUMSTATES> 5
<STATE> 2
<MEAN> 25
 1.740891e+00 -2.821187e-02 -1.917307e+00 -5.786244e+00 -2.707352e+00 4.142537e-01 -5.614881e-01 -1.916332e+00 -1.666307e-01 -9.387565e-01 -7.468421e-01 -8.568126e-01 3.071606e-01 -3.895202e-01 -4.956723e-01 -5.604241e-01 1.377549e-01 2.987031e-01 3.940864e-02 -7.446782e-02 1.332873e-01 -1.062421e-01 2.173752e-02 1.722089e-01 4.099397e-01
<VARIANCE> 25
 7.029997e+01 5.083195e+01 6.871152e+01 8.063868e+01 5.102519e+01 5.566484e+01 6.060405e+01 7.107260e+01 5.417975e+01 4.934411e+01 5.488992e+01 4.323452e+01 4.219093e+00 4.079279e+00 4.757244e+00 6.343305e+00 4.085803e+00 5.064598e+00 4.790976e+00 5.226397e+00 4.650099e+00 4.920638e+00 4.087780e+00 4.190878e+00 3.445986e+00
<GCONST> 1.144423e+02
<STATE> 3
<MEAN> 25
 6.966899e+00 -2.971548e+00 -8.708966e+00 -9.109926e+00 5.165901e-01 5.331099e+00 3.440168e-01 -3.234769e+00 3.628527e+00 -1.138551e+00 -1.247265e+00 -1.692190e+00 -4.688695e-02 4.884394e-02 1.088138e-01 9.432521e-02 -2.939286e-02 -1.234775e-01 -1.904539e-02 7.671423e-02 9.647016e-02 1.004591e-01 -4.242815e-02 -7.170168e-02 -1.426812e-01
<VARIANCE> 25
 1.089938e+01 4.139888e+01 3.462179e+01 7.080138e+01 5.896572e+01 8.703370e+01 7.578306e+01 7.155970e+01 5.186084e+01 4.952572e+01 5.110200e+01 4.183085e+01 3.261166e-01 1.318851e+00 1.284563e+00 2.325714e+00 2.066532e+00 2.614981e+00 2.424879e+00 2.554977e+00 2.539253e+00 2.082695e+00 2.427772e+00 1.898736e+00 4.892549e-01
<GCONST> 9.876389e+01
<STATE> 4
<MEAN> 25
 7.939729e-01 2.001302e+00 3.016035e+00 -1.217919e+00 -5.266948e+00 -1.755843e+00 -6.507545e-02 -1.562861e+00 1.815151e-01 1.715698e+00 -7.962319e-01 -2.288340e+00 -5.410939e-01 3.570938e-01 1.543465e-01 4.149168e-01 2.654336e-01 1.773305e-01 1.583277e-01 5.426157e-02 -2.156786e-01 3.203073e-02 1.445574e-01 6.056666e-02 -3.125022e-01
<VARIANCE> 25
 4.322308e+01 4.434421e+01 5.956013e+01 4.726526e+01 8.033459e+01 4.343783e+01 4.115036e+01 7.673880e+01 4.949988e+01 4.150402e+01 3.736763e+01 2.142500e+01 2.748057e+00 2.286406e+00 2.626197e+00 2.785314e+00 4.643948e+00 3.082928e+00 3.467016e+00 4.211274e+00 2.771981e+00 3.023327e+00 2.688606e+00 1.988906e+00 1.182770e+00
<GCONST> 1.051170e+02
<TRANSP> 5
 0.000000e+00 1.000000e+00 0.000000e+00 0.000000e+00 0.000000e+00
 0.000000e+00 9.241537e-01 7.584631e-02 0.000000e+00 0.000000e+00
 0.000000e+00 0.000000e+00 9.647916e-01 3.520841e-02 0.000000e+00
 0.000000e+00 0.000000e+00 0.000000e+00 9.293987e-01 7.060131e-02
 0.000000e+00 0.000000e+00 0.000000e+00 0.000000e+00 0.000000e+00
<ENDHMM>
~h "l5_u"
<BEGINHMM>
<NUMSTATES> 5
<STATE> 2
<MEAN> 25
 2.594064e+00 -1.220053e+00 -5.846199e+00 -6.128727e+00 3.593183e+00 5.126347e+00 1.598997e+00 -1.913510e+00 -7.860192e-01 8.640289e-01 2.579271e-01 -1.875274e+00 4.809996e-01 -3.529363e-01 -8.041010e-01 -7.789901e-01 2.448332e-01 1.297535e-01 -9.195352e-02 -1.347701e-01 1.778764e-01 4.896305e-02 5.487643e-02 -1.340600e-01 6.522616e-01
<VARIANCE> 25
 6.738542e+01 4.312195e+01 4.512001e+01 7.154436e+01 4.306842e+01 4.173155e+01 4.835708e+01 4.699701e+01 3.189444e+01 3.644192e+01 3.776185e+01 2.882875e+01 5.431761e+00 3.391922e+00 4.616189e+00 7.764001e+00 5.014377e+00 4.937376e+00 5.205163e+00 5.537950e+00 3.556648e+00 4.017416e+00 4.809878e+00 3.206556e+00 4.145988e+00
<GCONST> 1.111552e+02
<STATE> 3
<MEAN> 25
 6.036676e+00 -3.154884e+00 -4.629292e+00 -2.351582e-01 6.723128e-01 -3.187644e+00 -3.994318e+00 3.139887e-01 1.371804e+00 -3.058158e+00 -2.114113e+00 -1.151836e+00 -2.189352e-02 1.442605e-01 9.896146e-02 9.820627e-02 -4.727590e-02 -8.922658e-03 2.194630e-02 -4.983805e-02 -1.527992e-01 -6.481523e-02 3.592019e-02 -3.056059e-02 -1.221282e-01
<VARIANCE> 25
 2.724904e+01 2.730774e+01 5.936681e+01 6.341957e+01 1.149405e+02 8.257430e+01 5.450257e+01 8.433580e+01 9.470663e+01 4.263602e+01 4.275356e+01 4.945936e+01 1.628200e+00 2.362446e+00 3.397521e+00 3.594113e+00 4.231309e+00 4.279808e+00 3.682790e+00 4.823484e+00 5.470287e+00 2.993730e+00 3.459561e+00 3.084150e+00 1.171159e+00
<GCONST> 1.092882e+02
<STATE> 4
<MEAN> 25
 7.382098e+00 3.289266e+00 -7.089307e+00 -1.136911e+01 -1.278699e-01 3.669553e+00 1.357823e+00 -4.963423e+00 -1.918299e+00 -4.253021e-01 1.117304e-02 -1.543924e+00 -6.011063e-02 9.303457e-02 1.306457e-01 1.665761e-01 7.779521e-02 -5.468073e-03 6.241873e-03 6.250378e-02 1.831306e-02 -9.250267e-04 -1.875862e-02 5.383519e-02 -1.568242e-01
<VARIANCE> 25
 1.216986e+01 3.696637e+01 4.147643e+01 9.803087e+01 4.852377e+01 4.614159e+01 5.779053e+01 3.580013e+01 3.528440e+01 3.717445e+01 4.226617e+01 3.149152e+01 5.257144e-01 1.612938e+00 2.339628e+00 4.400186e+00 2.005301e+00 2.979205e+00 3.207950e+00 2.737529e+00 2.481702e+00 2.473567e+00 2.668523e+00 2.024366e+00 9.300183e-01
<GCONST> 9.964329e+01
<TRANSP> 5
 0.000000e+00 1.000000e+00 0.000000e+00 0.000000e+00 0.000000e+00
 0.000000e+00 8.823989e-01 1.176011e-01 0.000000e+00 0.000000e+00
 0.000000e+00 0.000000e+00 9.434710e-01 5.652905e-02 0.000000e+00
 0.000000e+00 0.000000e+00 0.000000e+00 9.525720e-01 4.742804e-02
 0.000000e+00 0.000000e+00 0.000000e+00 0.000000e+00 0.000000e+00
<ENDHMM>
~h "sil"
<BEGINHMM>
<NUMSTATES> 5
<STATE> 2
<MEAN> 25
 -2.561944e+00 -7.651092e-01 4.668685e-01 1.878265e+00 2.120855e+00 1.946103e+00 1.746801e+00 1.346739e+00 3.865744e-01 4.500945e-01 7.053853e-01 1.463791e+00 -9.009743e-02 1.692292e-02 -1.115698e-02 2.931387e-02 5.941577e-02 8.018529e-02 2.412591e-02 7.173107e-03 5.909790e-03 1.940719e-02 4.547044e-02 4.547212e-02 -1.367608e-01
<VARIANCE> 25
 3.311966e+01 3.180795e+01 2.476847e+01 2.409262e+01 3.476801e+01 3.382876e+01 2.694415e+01 3.350050e+01 2.607101e+01 2.619631e+01 2.497005e+01 2.155235e+01 3.045062e-01 4.900020e-01 6.412729e-01 7.980832e-01 1.039886e+00 1.211549e+00 1.314806e+00 1.447247e+00 1.443679e+00 1.390254e+00 1.313654e+00 1.204205e+00 1.697084e-01
<GCONST> 8.367194e+01
<STATE> 3
~s "silst"
<STATE> 4
<MEAN> 25
 4.169645e+00 -2.877081e-01 3.139231e-01 -1.098917e+00 -2.847256e+00 -2.342386e+00 -1.171932e+00 -1.100805e+00 -9.157210e-01 -3.481416e-01 -7.189474e-01 -1.176081e+00 -4.598502e-02 7.519200e-02 4.748930e-02 1.238411e-01 4.155681e-02 6.077939e-02 7.341132e-02 3.042031e-02 6.390808e-03 4.554634e-02 5.261695e-03 5.825294e-03 -1.966356e-01
<VARIANCE> 25
 2.309320e+01 4.224747e+01 7.767413e+01 5.315347e+01 6.964769e+01 6.701768e+01 5.925356e+01 6.243013e+01 5.699018e+01 4.523728e+01 4.305807e+01 3.564027e+01 1.744609e+00 2.716446e+00 3.322273e+00 3.178401e+00 4.256154e+00 4.294842e+00 3.881448e+00 4.399632e+00 3.843053e+00 3.332302e+00 3.084198e+00 2.696538e+00 1.922403e+00
<GCONST> 1.079890e+02
<TRANSP> 5
 0.000000e+00 1.000000e+00 0.000000e+00 0.000000e+00 0.000000e+00
 0.000000e+00 8.833961e-01 7.999662e-02 3.660721e-02 0.000000e+00
 0.000000e+00 0.000000e+00 8.772637e-01 1.227364e-01 0.000000e+00
 0.000000e+00 7.188220e-02 0.000000e+00 9.205050e-01 7.612769e-03
 0.000000e+00 0.000000e+00 0.000000e+00 0.000000e+00 0.000000e+00
<ENDHMM>
