~o
<STREAMINFO> 1 25
<VECSIZE> 25<NULLD><MFCC_D_N_Z_0><DIAGC>
~s "silst"
<MEAN> 25
 -4.070324e+00 2.834735e-01 -1.433889e+00 7.408828e-01 2.712858e+00 -9.047009e-01 1.458802e+00 3.332756e+00 7.310913e-01 -7.615032e-01 -5.128940e-01 1.425892e+00 7.714223e-01 -1.994523e-01 1.997534e-01 -1.704835e-01 -5.644469e-01 -5.311693e-01 -2.364984e-01 -1.918905e-01 -2.183488e-02 -3.607252e-01 -2.252364e-01 -2.948281e-01 8.024865e-01
<VARIANCE> 25
 7.475228e+01 3.925755e+01 2.519361e+01 2.410482e+01 4.375094e+01 4.287745e+01 4.019512e+01 2.777782e+01 2.804407e+01 4.041040e+01 2.867638e+01 2.454983e+01 6.531627e+00 3.041457e+00 2.412670e+00 2.382459e+00 4.395184e+00 4.320428e+00 4.118335e+00 3.068633e+00 3.185060e+00 3.330441e+00 3.027052e+00 2.683459e+00 5.150582e+00
<GCONST> 1.047985e+02
~h "l1_i"
<BEGINHMM>
<NUMSTATES> 5
<STATE> 2
<MEAN> 25
 3.497178e+00 -2.309577e+00 -8.071371e+00 -6.926264e+00 4.156592e+00 7.921388e+00 9.467578e-02 -6.036460e+00 1.209415e+00 -1.667462e+00 -1.888340e+00 -1.940221e+00 -9.819679e-04 -4.650337e-02 -1.254779e-02 -1.095888e-02 4.310291e-02 -4.344652e-02 -1.123882e-02 9.940999e-03 7.630292e-02 1.005827e-01 -2.162252e-02 -1.968046e-02 -3.958904e-02
<VARIANCE> 25
 2.159428e+01 3.239672e+01 2.374077e+01 6.399318e+01 6.049738e+01 5.453224e+01 4.112758e+01 4.816844e+01 4.530104e+01 3.460701e+01 3.531885e+01 3.685548e+01 1.499893e+00 1.745366e+00 1.618981e+00 3.142115e+00 2.707977e+00 3.591132e+00 3.175449e+00 3.549625e+00 2.930045e+00 2.455544e+00 2.154898e+00 2.498814e+00 1.729620e+00
<GCONST> 1.015358e+02
<STATE> 3
<MEAN> 25
 1.716617e-01 -3.187109e-01 -1.160551e+00 -1.906331e-01 2.508291e-01 -1.359222e+00 -8.752886e-01 1.725649e-01 3.048740e+00 6.004522e-01 -6.473919e-01 -6.551381e-01 -2.955439e-02 2.299606e-02 1.611069e-01 8.569519e-02 -1.506006e-01 -1.173779e-01 7.529675e-02 7.436814e-02 -5.595459e-02 -4.498545e-03 1.024619e-01 6.845455e-02 4.902523e-02
<VARIANCE> 25
 6.290542e+01 5.705862e+01 3.790776e+01 3.382595e+01 4.029482e+01 6.248588e+01 4.128942e+01 3.940303e+01 5.622581e+01 2.956373e+01 3.714630e+01 2.991870e+01 4.798134e+00 4.355859e+00 2.598954e+00 2.777763e+00 4.155877e+00 4.861880e+00 3.851811e+00 4.049941e+00 5.262058e+00 3.109530e+00 3.774480e+00 2.982763e+00 2.362298e+00
<GCONST> 1.077893e+02
<STATE> 4
<MEAN> 25
 3.032117e-01 2.564645e+00 5.923119e+00 9.674240e-01 -5.909014e+00 -2.437175e+00 -4.048347e-03 -2.722579e+00 -3.698495e+00 1.641116e+00 1.278506e+00 -4.369431e-01 -1.493735e-01 6.307124e-02 -5.447476e-02 -1.344962e-02 1.570977e-01 7.111996e-02 1.269917e-02 2.949886e-02 2.194538e-02 -4.049188e-02 -1.622932e-03 5.191106e-02 -1.441734e-02
<VARIANCE> 25
 3.921316e+01 3.220942e+01 4.692230e+01 3.689449e+01 8.271829e+01 4.170488e+01 4.119074e+01 6.492238e+01 4.153739e+01 3.333802e+01 2.268157e+01 2.692337e+01 2.486089e+00 1.642776e+00 2.137956e+00 1.927224e+00 4.186935e+00 2.502102e+00 2.552920e+00 3.580463e+00 2.693681e+00 2.423165e+00 1.998358e+00 2.068019e+00 9.773150e-01
<GCONST> 1.008869e+02
<TRANSP> 5
 0.000000e+00 1.000000e+00 0.000000e+00 0.000000e+00 0.000000e+00
 0.000000e+00 9.755775e-01 2.442245e-02 0.000000e+00 0.000000e+00
 0.000000e+00 0.000000e+00 9.732229e-01 2.677708e-02 0.000000e+00
 0.000000e+00 0.000000e+00 0.000000e+00 9.764797e-01 2.352026e-02
 0.000000e+00 0.000000e+00 0.000000e+00 0.000000e+00 0.000000e+00
<ENDHMM>
~h "l1_u"
<BEGINHMM>
<NUMSTATES> 5
<STATE> 2
<MEAN> 25
 -3.738014e+00 6.668115e-01 1.135525e+00 3.369088e+00 -2.830352e+00 -5.761668e+00 1.055212e+00 -1.854264e+00 6.146902e-01 -1.068744e+00 4.069843e+00 8.720440e+00 6.726940e-02 2.419035e-02 -1.496233e-01 1.136236e-02 2.397499e-01 -1.182828e-01 2.375996e-01 1.757783e-01 3.383886e-01 -3.906132e-02 -3.266693e-01 2.363966e-01 -2.439792e-02
<VARIANCE> 25
 1.700839e+01 4.583540e+01 2.777575e+01 1.383454e+01 8.048693e+01 3.094003e+01 9.609205e+01 4.597394e+01 2.507487e+01 4.495973e+01 3.737079e+01 3.776190e+01 1.115252e+00 1.579678e+00 1.373216e+00 1.438740e+00 2.785858e+00 1.786264e+00 4.940524e+00 3.721605e+00 2.511496e+00 3.277478e+00 2.948885e+00 3.023599e+00 3.494489e-01
<GCONST> 9.805832e+01
<STATE> 3
<MEAN> 25
 4.185619e+00 -1.476854e+00 -3.346187e+00 1.022241e+00 -3.216867e+00 -2.712022e+00 1.393475e+00 1.958584e-01 2.524080e+00 8.872117e-01 -3.735874e+00 3.056377e-01 3.013962e-01 1.199800e-01 -2.329847e-01 -1.302194e-01 1.568555e-01 3.615965e-01 -6.423491e-01 -5.184108e-01 -7.877496e-02 1.839513e-01 3.202557e-01 -6.195070e-01 -2.233049e-01
<VARIANCE> 25
 1.424662e+01 1.636769e+01 1.918837e+01 1.936476e+01 1.134141e+01 6.572898e+01 6.686967e+01 4.134256e+01 3.435166e+01 3.191411e+01 5.182764e+01 6.334884e+01 4.407414e-01 1.094081e+00 7.270008e-01 1.141816e+00 1.213811e+00 2.141968e+00 2.320262e+00 1.798000e+00 2.052372e+00 1.853805e+00 2.107584e+00 1.701010e+00 2.081205e-01
<GCONST> 8.946306e+01
<STATE> 4
<MEAN> 25
 1.706393e+00 9.028645e-01 -1.138908e+00 -9.417316e-01 -1.018102e+00 7.653735e-01 1.341963e-01 -3.369100e+00 -1.387916e+00 8.137218e-01 -1.503326e+00 -2.513731e+00 -3.380992e-02 -2.206548e-02 1.648489e-02 9.452461e-03 -7.023816e-03 5.811233e-03 3.432496e-02 6.871688e-02 -1.791537e-02 -4.594204e-02 -6.221555e-02 3.642218e-02 -1.592339e-02
<VARIANCE> 25
 2.671061e+01 2.089824e+01 3.221687e+01 2.091203e+01 9.961970e+01 4.706239e+01 7.492458e+01 5.129472e+01 5.596936e+01 4.859498e+01 3.251458e+01 5.633173e+01 1.167762e+00 9.924145e-01 1.653432e+00 1.889350e+00 4.204047e+00 3.170816e+00 4.294063e+00 3.727215e+00 3.388060e+00 2.849513e+00 2.796859e+00 2.778384e+00 8.309225e-01
<GCONST> 1.016947e+02
<TRANSP> 5
 0.000000e+00 1.000000e+00 0.000000e+00 0.000000e+00 0.000000e+00
 0.000000e+00 9.668660e-01 3.313402e-02 0.000000e+00 0.000000e+00
 0.000000e+00 0.000000e+00 9.502413e-01 4.975869e-02 0.000000e+00
 0.000000e+00 0.000000e+00 0.000000e+00 9.909074e-01 9.092553e-03
 0.000000e+00 0.000000e+00 0.000000e+00 0.000000e+00 0.000000e+00
<ENDHMM>
~h "l2_i"
<BEGINHMM>
<NUMSTATES> 5
<STATE> 2
<MEAN> 25
 2.299581e+00 -3.472896e+00 -6.263744e-01 4.119974e-01 -2.412802e+00 6.623361e-01 1.880462e-01 -1.356868e+00 1.180642e-01 -4.084482e-01 -1.147635e+00 -7.454916e-01 1.471738e-01 -1.847550e-01 -2.076134e-01 -1.189367e-01 6.948404e-03 1.961756e-01 -1.388929e-01 -1.254324e-01 4.132619e-01 -1.832649e-01 -1.424480e-01 -1.797183e-01 2.937346e-01
<VARIANCE> 25
 1.787868e+01 3.012808e+01 3.776898e+01 3.578243e+01 5.874772e+01 6.278222e+01 4.255893e+01 8.399491e+01 6.067570e+01 4.400482e+01 4.010031e+01 3.521545e+01 2.125365e+00 2.112769e+00 3.285507e+00 3.622055e+00 5.634880e+00 5.012623e+00 4.967319e+00 6.440575e+00 5.618091e+00 3.858095e+00 4.446166e+00 3.434096e+00 5.469619e+00
<GCONST> 1.092683e+02
<STATE> 3
<MEAN> 25
 4.411291e+00 -1.960720e+00 -2.439273e+00 -1.381579e+00 -3.044336e-01 1.306476e+00 -9.162434e-01 -4.441293e+00 2.352126e+00 -3.892450e+00 -1.761870e+00 -3.545813e+00 -4.342185e-02 1.337437e-01 1.326616e-01 7.810380e-02 2.008940e-02 -6.739122e-02 -4.853483e-02 1.794532e-03 -1.551586e-01 4.824147e-02 1.737568e-02 -2.657786e-03 -2.053221e-01
<VARIANCE> 25
 8.450601e+00 2.920571e+01 3.743517e+01 3.640697e+01 4.149244e+01 6.845332e+01 3.685925e+01 5.069836e+01 4.859060e+01 3.965053e+01 3.409201e+01 3.665131e+01 4.418013e-01 1.706416e+00 1.481949e+00 2.544250e+00 2.555011e+00 3.392917e+00 2.530999e+00 4.125808e+00 3.159810e+00 2.893092e+00 2.631798e+00 2.114908e+00 1.551695e+00
<GCONST> 9.877078e+01
<STATE> 4
<MEAN> 25
 4.990131e-01 1.031672e+00 -5.389351e-02 -1.558131e+00 7.836850e-01 2.137450e+00 -1.652752e+00 -8.378348e-02 5.705436e-01 -8.310578e-02 8.232175e-01 -6.841158e-01 -6.847376e-02 2.207182e-02 -1.261038e-02 -1.493045e-02 3.640275e-02 1.104579e-02 3.628634e-02 7.951929e-02 4.634078e-03 7.612379e-03 1.072004e-02 2.855271e-02 2.855382e-02
<VARIANCE> 25
 7.191370e+01 4.904161e+01 4.348941e+01 6.480215e+01 5.450831e+01 9.114396e+01 4.443770e+01 6.071131e+01 5.338297e+01 3.252976e+01 2.774368e+01 2.921695e+01 4.755794e+00 3.308547e+00 2.931274e+00 3.385409e+00 4.126821e+00 4.505199e+00 3.521192e+00 3.889972e+00 4.394047e+00 2.834923e+00 2.218336e+00 2.369704e+00 1.900326e+00
<GCONST> 1.080419e+02
<TRANSP> 5
 0.000000e+00 1.000000e+00 0.000000e+00 0.000000e+00 0.000000e+00
 0.000000e+00 9.585431e-01 4.145689e-02 0.000000e+00 0.000000e+00
 0.000000e+00 0.000000e+00 9.753188e-01 2.468123e-02 0.000000e+00
 0.000000e+00 0.000000e+00 0.000000e+00 9.892099e-01 1.079011e-02
 0.000000e+00 0.000000e+00 0.000000e+00 0.000000e+00 0.000000e+00
<ENDHMM>
~h "l2_u"
<BEGINHMM>
<NUMSTATES> 5
<STATE> 2
<MEAN> 25
 3.376698e+00 -3.551752e+00 -4.617538e+00 3.041245e-01 1.690757e+00 -2.737619e-01 -2.684227e+00 -2.142487e+00 1.244100e+00 -2.920759e+00 -4.652678e+00 -1.107732e+00 5.049983e-02 -6.724823e-03 -3.173951e-02 3.508764e-02 -8.915693e-02 -4.007288e-02 -5.347478e-02 -2.091413e-01 -1.095586e-01 4.705796e-02 3.025209e-02 -6.230864e-02 -4.066240e-02
<VARIANCE> 25
 9.897430e+00 3.988626e+01 4.623786e+01 3.103816e+01 5.245098e+01 6.874828e+01 2.143697e+01 7.621420e+01 7.803525e+01 9.787879e+01 3.794675e+01 2.431963e+01 7.897952e-01 1.668911e+00 2.728271e+00 1.657428e+00 3.062984e+00 3.236417e+00 1.835729e+00 7.220933e+00 3.911500e+00 5.364163e+00 3.465257e+00 1.839574e+00 7.000926e-01
<GCONST> 1.017545e+02
<STATE> 3
<MEAN> 25
 3.871891e+00 -4.148774e-01 -1.691183e+00 -5.795683e+00 -4.272035e+00 4.184125e+00 -1.017065e-01 -7.185160e+00 -5.210499e-01 -5.123008e-01 -7.229986e-01 -1.245747e+00 -4.389401e-02 1.814590e-01 -3.290288e-02 3.450834e-02 8.703386e-02 1.139792e-01 9.539801e-02 2.049690e-02 1.215006e-01 4.599273e-03 3.869224e-02 2.670176e-04 -1.626616e-01
<VARIANCE> 25
 2.392589e+01 3.408710e+01 5.391587e+01 8.085176e+01 5.161356e+01 1.122888e+02 4.917253e+01 4.301865e+01 4.816913e+01 5.142820e+01 4.966549e+01 3.587869e+01 1.696543e+00 2.791108e+00 2.320731e+00 4.100621e+00 3.550979e+00 5.292124e+00 3.501484e+00 3.326887e+00 3.632291e+00 2.736690e+00 3.947744e+00 3.209244e+00 1.540078e+00
<GCONST> 1.071174e+02
<STATE> 4
<MEAN> 25
 -2.104151e-01 7.317976e-01 5.328336e-02 -2.881140e-01 1.051994e-01 2.571353e-01 -4.050564e-01 -6.469822e-02 6.553335e-01 5.785429e-02 2.260568e-01 -2.723916e-01 3.821738e-04 -1.892224e-02 -1.108166e-02 -2.926716e-03 3.635064e-02 2.574876e-03 1.111871e-02 6.507180e-02 1.277984e-02 2.106640e-02 3.008841e-02 2.277926e-02 8.761851e-03
<VARIANCE> 25
 7.656833e+01 4.931968e+01 5.564924e+01 4.941235e+01 4.650718e+01 6.176970e+01 7.346317e+01 5.321499e+01 5.374357e+01 2.639801e+01 2.877848e+01 2.608434e+01 5.594773e+00 3.869971e+00 2.941519e+00 3.272618e+00 3.597783e+00 4.810320e+00 4.838846e+00 3.416537e+00 4.488811e+00 2.336137e+00 2.220320e+00 2.316414e+00 1.596540e+00
<GCONST> 1.076669e+02
<TRANSP> 5
 0.000000e+00 1.000000e+00 0.000000e+00 0.000000e+00 0.000000e+00
 0.000000e+00 9.680892e-01 3.191075e-02 0.000000e+00 0.000000e+00
 0.000000e+00 0.000000e+00 9.672055e-01 3.279447e-02 0.000000e+00
 0.000000e+00 0.000000e+00 0.000000e+00 9.920942e-01 7.905870e-03
 0.000000e+00 0.000000e+00 0.000000e+00 0.000000e+00 0.000000e+00
<ENDHMM>
~h "l3_i"
<BEGINHMM>
<NUMSTATES> 5
<STATE> 2
<MEAN> 25
 -4.057302e+00 -2.955991e+00 -2.450442e+00 -1.660225e+00 3.034463e+00 -2.093834e+00 -2.661386e+00 3.060588e-01 -8.851162e-01 -3.491365e+00 -4.791214e+00 -1.170680e+00 1.462804e-01 -1.539437e-01 -1.369379e-01 -1.821821e-01 1.080554e-01 1.146486e-01 -1.085908e-01 -1.263592e-02 1.729190e-01 -1.001761e-01 -7.210442e-02 -9.093751e-02 3.422890e-01
<VARIANCE> 25
 7.684099e+01 4.113258e+01 3.676948e+01 4.391575e+01 7.570744e+01 6.831482e+01 2.940469e+01 6.168197e+01 5.088102e+01 2.966759e+01 3.350679e+01 3.818170e+01 4.705526e+00 3.045601e+00 2.632643e+00 3.609189e+00 4.700071e+00 4.218714e+00 3.471586e+00 4.529086e+00 3.491035e+00 2.408998e+00 3.249679e+00 3.406072e+00 4.028028e+00
<GCONST> 1.085032e+02
<STATE> 3
<MEAN> 25
 4.455872e+00 -2.694627e+00 -5.696814e+00 -3.095906e+00 2.492604e-01 3.850842e+00 -1.191236e+00 -2.705559e+00 3.147247e+00 -2.198584e+00 -2.269059e+00 -2.348853e+00 1.821044e-02 1.226957e-01 8.889166e-02 9.164789e-02 -8.694976e-02 6.169852e-03 1.211094e-01 -8.386182e-02 -1.719903e-01 3.232185e-02 3.428943e-02 4.991291e-02 -1.886413e-01
<VARIANCE> 25
 1.558009e+01 3.021728e+01 1.930960e+01 3.968284e+01 4.113846e+01 7.372963e+01 4.356605e+01 6.576668e+01 4.563377e+01 3.574417e+01 4.437245e+01 3.548053e+01 9.803611e-01 1.687613e+00 1.514561e+00 2.341742e+00 2.451917e+00 3.381047e+00 3.092716e+00 4.269783e+00 3.151220e+00 2.546583e+00 3.079120e+00 1.972265e+00 1.523487e+00
<GCONST> 1.002518e+02
<STATE> 4
<MEAN> 25
 1.880137e+00 1.837123e+00 1.386779e+00 -2.362758e-01 -3.008816e+00 1.752006e-01 -2.895927e-01 -1.500858e+00 1.161281e+00 1.243634e+00 -4.728977e-01 -2.448779e+00 -6.512462e-02 -3.820203e-03 -1.647112e-03 -5.626533e-03 5.017040e-02 1.065117e-02 3.480922e-03 8.262835e-02 1.050467e-02 3.584550e-02 7.859307e-03 2.236316e-02 -2.694313e-02
<VARIANCE> 25
 4.932835e+01 3.570084e+01 3.007688e+01 2.664929e+01 5.075778e+01 4.404892e+01 5.360103e+01 4.845861e+01 4.630867e+01 3.256879e+01 3.486822e+01 4.040106e+01 3.719125e+00 2.334647e+00 1.950552e+00 2.566292e+00 3.870937e+00 3.528599e+00 3.939098e+00 4.005163e+00 3.590860e+00 3.186718e+00 2.816488e+00 2.659043e+00 3.328180e+00
<GCONST> 1.050490e+02
<TRANSP> 5
 0.000000e+00 1.000000e+00 0.000000e+00 0.000000e+00 0.000000e+00
 0.000000e+00 9.675030e-01 3.249706e-02 0.000000e+00 0.000000e+00
 0.000000e+00 0.000000e+00 9.761199e-01 2.388006e-02 0.000000e+00
 0.000000e+00 0.000000e+00 0.000000e+00 9.872056e-01 1.279432e-02
 0.000000e+00 0.000000e+00 0.000000e+00 0.000000e+00 0.000000e+00
<ENDHMM>
~h "l3_u"
<BEGINHMM>
<NUMSTATES> 5
<STATE> 2
<MEAN> 25
 -2.177407e+00 2.307562e+00 6.405011e+00 1.762993e+00 -6.174580e+00 -3.652745e+00 5.145192e-03 -6.832597e+00 -6.250991e+00 2.878539e+00 -1.848032e+00 -1.113523e-01 -7.752074e-02 -1.506278e-01 2.916187e-02 -9.805449e-02 -7.963357e-02 -2.470114e-02 7.574417e-02 2.504212e-02 -6.478924e-02 6.845877e-03 1.120728e-02 -6.325308e-02 1.222406e-01
<VARIANCE> 25
 3.014512e+01 3.303689e+01 3.871414e+01 2.391273e+01 5.441511e+01 3.468696e+01 5.410535e+01 5.173060e+01 5.269799e+01 3.229973e+01 4.979457e+01 7.893887e+01 1.716322e+00 2.290683e+00 1.958302e+00 1.511769e+00 5.304162e+00 3.021577e+00 4.026542e+00 5.087362e+00 4.791854e+00 2.734283e+00 3.227262e+00 4.855714e+00 1.723079e+00
<GCONST> 1.049944e+02
<STATE> 3
<MEAN> 25
 -2.060045e+00 5.089025e-01 -3.179193e-01 -4.539866e-01 1.119449e+00 5.864058e-01 -3.489811e-01 -4.771585e-01 1.122521e+00 -2.216392e-01 -5.425775e-02 2.693667e-01 6.817953e-02 -6.552899e-02 -5.520912e-02 -2.923198e-02 8.070977e-03 -8.007611e-02 -2.711740e-02 6.748700e-02 9.189405e-02 -9.706702e-03 -1.534664e-02 1.694341e-02 4.979437e-02
<VARIANCE> 25
 1.044865e+02 5.112368e+01 5.601663e+01 4.009803e+01 4.692466e+01 6.966322e+01 5.373853e+01 4.216455e+01 6.349559e+01 2.712283e+01 2.740094e+01 2.334318e+01 6.901593e+00 4.431753e+00 2.587470e+00 2.995556e+00 4.303555e+00 5.710505e+00 4.116116e+00 3.341045e+00 5.463114e+00 2.767757e+00 2.310344e+00 2.062806e+00 1.361891e+00
<GCONST> 1.078551e+02
<STATE> 4
<MEAN> 25
 3.060567e+00 4.018515e-03 -1.176549e+00 -1.056578e+00 -1.122333e+00 -6.101118e-01 -1.164795e+00 -8.311135e-02 3.547370e-01 -8.863767e-01 -3.481388e-01 -1.557341e+00 5.810674e-03 6.261667e-03 -5.188999e-02 -3.042704e-03 6.284054e-02 5.497608e-02 9.777128e-03 -5.871659e-03 2.681115e-02 2.317012e-02 -1.307759e-02 -1.141326e-02 -4.811742e-02
<VARIANCE> 25
 2.412640e+01 3.745166e+01 5.975768e+01 4.449087e+01 5.981411e+01 6.154427e+01 6.035313e+01 7.210904e+01 5.371682e+01 5.101477e+01 3.981546e+01 3.300615e+01 1.577057e+00 1.736492e+00 2.590919e+00 2.341765e+00 3.409390e+00 3.319316e+00 3.391945e+00 4.698045e+00 3.358806e+00 3.892637e+00 2.948096e+00 2.269556e+00 1.192549e+00
<GCONST> 1.049778e+02
<TRANSP> 5
 0.000000e+00 1.000000e+00 0.000000e+00 0.000000e+00 0.000000e+00
 0.000000e+00 9.624617e-01 3.753832e-02 0.000000e+00 0.000000e+00
 0.000000e+00 0.000000e+00 9.820195e-01 1.798040e-02 0.000000e+00
 0.000000e+00 0.000000e+00 0.000000e+00 9.896382e-01 1.036178e-02
 0.000000e+00 0.000000e+00 0.000000e+00 0.000000e+00 0.000000e+00
<ENDHMM>
~h "l4_i"
<BEGINHMM>
<NUMSTATES> 5
<STATE> 2
<MEAN> 25
 1.245139e+00 1.173591e+00 -5.653797e+00 -1.020071e+01 3.728487e-01 8.378923e+00 1.781739e+00 -4.561765e+00 2.740491e+00 1.262647e-02 2.279948e+00 -7.304919e-01 3.170378e-01 -6.507366e-02 -3.617483e-01 -4.661311e-01 2.383670e-01 4.127025e-01 3.817159e-01 -1.171294e-01 2.722570e-01 1.583829e-01 -5.490479e-02 1.460365e-02 2.502384e-01
<VARIANCE> 25
 1.052721e+02 3.426149e+01 2.003304e+01 4.946823e+01 5.003051e+01 4.521987e+01 7.206257e+01 6.123507e+01 5.855866e+01 2.681866e+01 3.894592e+01 2.317884e+01 5.943578e+00 2.602778e+00 1.553179e+00 3.890562e+00 2.241821e+00 4.473244e+00 3.471919e+00 4.368133e+00 3.532137e+00 2.046337e+00 3.278158e+00 2.584523e+00 2.940104e+00
<GCONST> 1.060726e+02
<STATE> 3
<MEAN> 25
 5.136639e+00 -2.664110e+00 -7.456766e+00 -4.660478e+00 3.744780e+00 1.017070e+01 -3.340051e-01 -4.554929e+00 5.428026e+00 -1.464000e+00 -5.727674e-01 -2.124820e+00 -5.986020e-02 -1.391408e-01 1.405850e-01 2.632991e-01 -3.390043e-02 -1.873682e-01 7.826183e-03 2.604835e-01 -5.881533e-03 -5.428474e-02 6.356018e-03 7.722579e-02 -9.296961e-02
<VARIANCE> 25
 8.632005e+00 3.770789e+01 4.161069e+01 5.804722e+01 4.190808e+01 5.173039e+01 5.995943e+01 4.788756e+01 4.590788e+01 3.401547e+01 2.799295e+01 2.732192e+01 5.171192e-01 1.437640e+00 1.536613e+00 1.774471e+00 2.687696e+00 2.882255e+00 2.270260e+00 2.157931e+00 2.167275e+00 1.862893e+00 1.486382e+00 1.733527e+00 7.093759e-01
<GCONST> 9.550066e+01
<STATE> 4
<MEAN> 25
 -1.457453e+00 1.763306e+00 4.366060e+00 -3.058206e-01 -2.969243e+00 2.852441e-01 -1.396754e+00 -3.338086e+00 -1.979089e+00 5.819808e-01 2.680887e+00 7.569587e-02 -2.560398e-01 1.456297e-01 7.953857e-02 -2.787027e-02 6.288396e-03 -1.900332e-01 -1.870331e-01 -2.547986e-02 -1.449135e-01 -5.397915e-02 1.166254e-01 2.875956e-02 -1.119316e-01
<VARIANCE> 25
 6.683936e+01 2.709753e+01 4.052637e+01 3.094636e+01 6.596370e+01 5.818077e+01 4.903440e+01 6.277220e+01 4.577228e+01 3.560717e+01 2.541608e+01 2.327137e+01 4.866701e+00 1.975672e+00 2.665355e+00 2.303541e+00 6.496926e+00 4.331799e+00 2.911923e+00 4.119124e+00 3.393087e+00 3.438414e+00 3.019463e+00 2.240689e+00 2.998724e+00
<GCONST> 1.060131e+02
<TRANSP> 5
 0.000000e+00 1.000000e+00 0.000000e+00 0.000000e+00 0.000000e+00
 0.000000e+00 9.449608e-01 5.503917e-02 0.000000e+00 0.000000e+00
 0.000000e+00 0.000000e+00 9.721758e-01 2.782421e-02 0.000000e+00
 0.000000e+00 0.000000e+00 0.000000e+00 9.592795e-01 4.072046e-02
 0.000000e+00 0.000000e+00 0.000000e+00 0.000000e+00 0.000000e+00
<ENDHMM>
~h "l4_u"
<BEGINHMM>
<NUMSTATES> 5
<STATE> 2
<MEAN> 25
 -9.572848e-01 1.206929e+00 4.276875e+00 4.471487e-01 -4.884928e+00 -6.094378e+00 -2.776228e+00 -1.144922e+00 -6.278890e+00 -9.837513e-01 -8.159500e-01 -3.395613e+00 1.014810e-02 6.443441e-03 -1.732782e-02 -1.318784e-01 -7.263628e-02 2.692536e-02 7.768505e-02 -5.654459e-02 -4.365408e-02 5.724959e-03 -1.670919e-01 -4.645069e-02 7.688758e-02
<VARIANCE> 25
 2.228651e+01 2.878471e+01 2.916121e+01 3.373413e+01 5.867593e+01 4.825784e+01 3.405421e+01 8.706684e+01 6.042620e+01 4.609581e+01 5.108977e+01 3.777222e+01 2.187559e+00 2.648692e+00 3.184378e+00 2.618029e+00 5.626021e+00 4.879920e+00 3.204374e+00 6.499837e+00 6.183613e+00 3.351328e+00 3.908857e+00 4.828610e+00 3.460156e+00
<GCONST> 1.081794e+02
<STATE> 3
<MEAN> 25
 5.265182e-01 4.695517e-01 -3.127360e+00 -7.348626e+00 -1.713610e-01 5.002320e+00 1.002428e+00 -3.021690e+00 9.437023e-01 1.230270e+00 -1.027360e+00 3.824171e-02 5.130132e-02 -7.921682e-02 1.953407e-02 -1.662388e-02 -3.930951e-03 1.026980e-01 6.590500e-02 -2.395416e-02 5.795490e-02 5.087577e-02 -3.239910e-02 -3.806032e-03 9.427960e-02
<VARIANCE> 25
 8.250921e+01 2.636498e+01 2.902987e+01 5.386964e+01 4.760093e+01 7.275793e+01 4.286253e+01 7.785580e+01 3.968019e+01 3.006701e+01 3.769559e+01 3.122527e+01 3.578696e+00 2.159954e+00 2.210587e+00 4.932015e+00 2.721989e+00 5.484174e+00 3.609072e+00 5.197637e+00 3.827956e+00 2.874499e+00 3.400921e+00 2.937066e+00 2.604262e+00
<GCONST> 1.071305e+02
<STATE> 4
<MEAN> 25
 1.366144e+00 1.707150e-01 -1.071476e+00 9.056851e-02 4.533322e-01 -5.441622e-01 -9.287382e-01 -1.697303e+00 5.288665e-01 4.284006e-01 -4.974473e-01 2.620313e-02 6.420696e-04 -3.537187e-03 -1.759498e-02 2.950078e-02 5.634934e-02 2.514324e-02 1.731778e-02 -3.338000e-02 1.022781e-02 -1.954066e-02 2.262888e-02 -1.007613e-02 -2.994528e-02
<VARIANCE> 25
 3.199137e+01 3.055465e+01 4.637089e+01 2.473082e+01 1.038656e+02 5.574052e+01 5.685421e+01 5.495800e+01 3.691606e+01 5.790496e+01 5.940689e+01 9.335725e+01 1.461906e+00 1.475029e+00 2.419681e+00 1.642256e+00 3.642282e+00 3.473650e+00 4.286525e+00 3.825034e+00 3.177971e+00 3.559262e+00 3.432353e+00 3.191405e+00 8.378403e-01
<GCONST> 1.050014e+02
<TRANSP> 5
 0.000000e+00 1.000000e+00 0.000000e+00 0.000000e+00 0.000000e+00
 0.000000e+00 9.568118e-01 4.318824e-02 0.000000e+00 0.000000e+00
 0.000000e+00 0.000000e+00 9.644925e-01 3.550750e-02 0.000000e+00
 0.000000e+00 0.000000e+00 0.000000e+00 9.856352e-01 1.436472e-02
 0.000000e+00 0.000000e+00 0.000000e+00 0.000000e+00 0.000000e+00
<ENDHMM>
~h "l5_i"
<BEGINHMM>
<NUMSTATES> 5
<STATE> 2
<MEAN> 25
 1.806270e+00 -2.065278e+00 -3.263981e+00 -2.172915e+00 1.186214e+00 -1.253420e-01 -1.504156e+00 -2.458976e+00 2.424724e+00 -1.986296e-01 -2.719793e+00 -1.412649e+00 6.599431e-02 -4.104925e-02 1.279796e-02 -6.879898e-02 -3.531124e-02 3.176586e-02 7.178051e-03 -1.747643e-02 2.885358e-03 -3.932943e-02 -1.704817e-02 -4.853255e-02 -1.299184e-02
<VARIANCE> 25
 4.908417e+01 4.649724e+01 3.861390e+01 3.894503e+01 6.116039e+01 6.991599e+01 6.757315e+01 6.205725e+01 6.343675e+01 4.108386e+01 5.339330e+01 3.425842e+01 3.441055e+00 3.710814e+00 2.925318e+00 3.265856e+00 4.257987e+00 5.736195e+00 4.889086e+00 4.754338e+00 5.551169e+00 4.033387e+00 3.550342e+00 3.015315e+00 1.890108e+00
<GCONST> 1.103366e+02
<STATE> 3
<MEAN> 25
 2.103556e+00 1.089995e+00 -8.640121e-01 -3.140527e+00 4.357726e-01 4.413548e+00 -5.267472e-01 -3.416061e+00 -1.406122e-01 3.987407e-01 1.338166e+00 -1.631520e+00 -7.606822e-03 -1.768586e-02 -7.416460e-03 2.240102e-02 5.729043e-02 1.824745e-02 -8.410238e-03 3.917137e-02 6.466589e-02 4.876336e-02 3.411483e-02 2.475402e-02 1.416339e-02
<VARIANCE> 25
 5.191226e+01 5.416930e+01 4.177105e+01 7.364826e+01 4.596383e+01 8.546436e+01 4.372157e+01 5.956572e+01 5.260452e+01 3.054983e+01 3.118666e+01 3.189527e+01 3.496146e+00 3.629730e+00 1.887544e+00 2.887250e+00 3.639576e+00 4.426205e+00 3.137222e+00 3.099714e+00 4.000723e+00 2.616523e+00 2.492390e+00 3.106704e+00 1.366771e+00
<GCONST> 1.063436e+02
<STATE> 4
<MEAN> 25
 2.382527e+00 4.767527e-01 1.089412e+00 -8.212843e-01 -3.433496e+00 -1.800107e+00 -8.018864e-01 -3.759943e+00 -3.781480e-02 7.457954e-02 -1.119762e+00 -2.555434e+00 -4.010832e-02 3.308257e-02 1.949306e-02 2.889432e-02 3.558669e-02 -1.544617e-02 -1.162330e-02 1.744002e-02 -1.529718e-02 -2.327236e-02 2.629303e-02 6.071079e-02 -5.792313e-02
<VARIANCE> 25
 1.820894e+01 3.626667e+01 5.728310e+01 3.460005e+01 9.929855e+01 4.012062e+01 4.914704e+01 7.350796e+01 4.224740e+01 5.937896e+01 3.616644e+01 3.008495e+01 1.193792e+00 1.619958e+00 1.755169e+00 1.664847e+00 4.523337e+00 2.837427e+00 3.030983e+00 3.373308e+00 2.741870e+00 3.370993e+00 2.329147e+00 2.315399e+00 1.138396e+00
<GCONST> 1.019808e+02
<TRANSP> 5
 0.000000e+00 1.000000e+00 0.000000e+00 0.000000e+00 0.000000e+00
 0.000000e+00 9.815701e-01 1.842989e-02 0.000000e+00 0.000000e+00
 0.000000e+00 0.000000e+00 9.757752e-01 2.422478e-02 0.000000e+00
 0.000000e+00 0.000000e+00 0.000000e+00 9.821467e-01 1.785326e-02
 0.000000e+00 0.000000e+00 0.000000e+00 0.000000e+00 0.000000e+00
<ENDHMM>
~h "l5_u"
<BEGINHMM>
<NUMSTATES> 5
<STATE> 2
<MEAN> 25
 1.892839e+00 -9.160905e-01 -3.074489e+00 -3.770639e+00 -7.281126e-01 3.709001e+00 8.904098e-01 -1.311792e+00 3.422027e-02 -1.024203e+00 6.943476e-02 8.800961e-01 1.953331e-01 -7.579049e-02 -1.132927e-01 -1.557416e-01 -9.941689e-02 -1.006047e-01 1.036842e-02 -1.343993e-01 3.738378e-02 -6.648965e-03 -1.725598e-01 -1.130907e-01 2.204779e-01
<VARIANCE> 25
 4.237950e+01 2.598614e+01 2.631622e+01 6.204193e+01 3.782018e+01 4.424418e+01 5.477912e+01 6.549634e+01 2.666303e+01 3.120643e+01 4.928005e+01 2.360034e+01 4.025090e+00 2.770362e+00 2.228919e+00 5.615357e+00 3.248291e+00 5.512764e+00 3.871089e+00 5.216545e+00 2.728316e+00 3.809798e+00 4.769271e+00 3.137376e+00 3.874116e+00
<GCONST> 1.069700e+02
<STATE> 3
<MEAN> 25
 2.658048e+00 -1.955644e-01 -6.000837e-01 -7.429689e-01 -2.296007e+00 3.745419e-01 -1.319579e+00 -4.515761e+00 -9.048020e-01 -3.909596e-01 -2.011531e+00 -1.254439e+00 -2.602642e-02 7.138041e-02 3.866222e-02 8.875579e-02 3.388985e-02 2.030663e-02 3.539316e-02 2.352439e-02 -3.206608e-02 1.347354e-03 1.502289e-02 1.672065e-02 -6.495203e-02
<VARIANCE> 25
 2.254353e+01 3.638898e+01 5.308064e+01 3.219563e+01 7.097569e+01 5.665004e+01 5.286746e+01 6.330770e+01 8.443990e+01 3.699332e+01 3.620619e+01 2.498928e+01 1.586078e+00 2.371225e+00 2.775006e+00 2.444963e+00 5.062564e+00 4.189175e+00 5.134393e+00 5.235796e+00 5.294832e+00 3.008662e+00 3.978344e+00 2.430904e+00 1.197713e+00
<GCONST> 1.061728e+02
<STATE> 4
<MEAN> 25
 -1.398522e-01 2.596927e-01 -5.321219e-01 -3.999304e-01 7.834162e-01 4.890223e-01 -6.309349e-01 8.163704e-01 1.004241e+00 1.249311e-01 7.578069e-01 -3.594566e-01 -6.971623e-02 -2.081265e-02 -5.264255e-03 -3.912984e-02 3.070625e-02 9.570558e-03 9.397753e-03 6.869207e-02 2.621887e-02 2.020216e-02 1.013940e-02 3.038954e-02 1.594587e-03
<VARIANCE> 25
 6.895436e+01 3.358324e+01 4.426920e+01 4.644698e+01 4.677628e+01 6.581007e+01 4.305211e+01 5.292527e+01 4.595393e+01 2.657572e+01 3.743652e+01 2.609590e+01 4.605617e+00 2.643605e+00 2.364007e+00 3.871405e+00 3.824434e+00 4.288026e+00 3.151214e+00 3.819980e+00 3.867267e+00 2.666315e+00 2.819384e+00 2.477702e+00 4.075409e+00
<GCONST> 1.067592e+02
<TRANSP> 5
 0.000000e+00 1.000000e+00 0.000000e+00 0.000000e+00 0.000000e+00
 0.000000e+00 9.697509e-01 3.024910e-02 0.000000e+00 0.000000e+00
 0.000000e+00 0.000000e+00 9.836881e-01 1.631198e-02 0.000000e+00
 0.000000e+00 0.000000e+00 0.000000e+00 9.895845e-01 1.041546e-02
 0.000000e+00 0.000000e+00 0.000000e+00 0.000000e+00 0.000000e+00
<ENDHMM>
~h "sil"
<BEGINHMM>
<NUMSTATES> 5
<STATE> 2
<MEAN> 25
 -2.789185e+00 -2.373856e+00 -1.324798e+00 5.596831e-01 3.109729e+00 9.720006e-01 9.122796e-01 3.634620e+00 5.637335e-01 -6.780717e-02 8.164699e-01 2.513772e+00 -3.398253e-02 -1.950042e-02 -2.064767e-02 1.834922e-02 -1.200298e-02 3.374347e-02 4.028134e-02 -1.183211e-02 2.815202e-03 2.550319e-02 6.219939e-02 4.845531e-02 -1.502401e-01
<VARIANCE> 25
 3.766083e+01 3.535169e+01 2.484458e+01 1.943328e+01 3.396952e+01 2.963263e+01 3.153210e+01 3.783764e+01 2.514868e+01 3.616540e+01 3.073939e+01 2.536217e+01 3.985606e-01 6.271604e-01 7.404434e-01 8.627366e-01 1.222128e+00 1.329158e+00 1.556643e+00 1.649043e+00 1.542750e+00 1.600742e+00 1.466537e+00 1.347235e+00 2.672249e-01
<GCONST> 8.664947e+01
<STATE> 3
~s "silst"
<STATE> 4
<MEAN> 25
 1.789420e+00 1.259180e+00 1.532588e+00 2.608052e-01 -2.040993e+00 -7.748945e-01 -4.829796e-01 -1.706071e+00 -7.076460e-01 3.350281e-01 -2.568050e-02 -1.146062e+00 -1.521595e-01 7.228598e-02 -3.327882e-02 3.005602e-02 1.257872e-01 1.023633e-01 3.005936e-02 3.595005e-02 -2.224902e-04 7.118063e-02 1.945283e-02 3.538242e-02 -1.044001e-01
<VARIANCE> 25
 3.845362e+01 3.928568e+01 5.778961e+01 3.921103e+01 7.236240e+01 5.980643e+01 5.100820e+01 6.696126e+01 5.435290e+01 3.799922e+01 3.845085e+01 3.346052e+01 2.734831e+00 2.580946e+00 2.617200e+00 2.554887e+00 4.429392e+00 3.800780e+00 3.597114e+00 4.783523e+00 3.808323e+00 3.106612e+00 2.885549e+00 2.628102e+00 1.803094e+00
<GCONST> 1.069040e+02
<TRANSP> 5
 0.000000e+00 1.000000e+00 0.000000e+00 0.000000e+00 0.000000e+00
 0.000000e+00 8.612258e-01 5.774631e-02 8.102784e-02 0.000000e+00
 0.000000e+00 0.000000e+00 8.646080e-01 1.353920e-01 0.000000e+00
 0.000000e+00 6.907506e-02 0.000000e+00 9.239824e-01 6.942525e-03
 0.000000e+00 0.000000e+00 0.000000e+00 0.000000e+00 0.000000e+00
<ENDHMM>
