~o
<STREAMINFO> 1 25
<VECSIZE> 25<NULLD><MFCC_D_N_Z_0><DIAGC>
~h "l1_i"
<BEGINHMM>
<NUMSTATES> 5
<STATE> 2
<MEAN> 25
 -1.651109e-08 -2.268430e-07 1.259320e-08 1.165062e-07 -3.503200e-08 7.789977e-08 -6.306777e-08 1.437152e-07 -9.648429e-08 -8.998416e-08 1.010382e-07 -1.644749e-08 3.964178e-03 4.991033e-03 -2.259726e-03 -8.660138e-04 -1.980516e-03 2.296586e-03 -1.050157e-04 -6.062090e-03 -3.834328e-04 3.311979e-04 1.732379e-04 -2.677502e-03 -2.030911e-03
<VARIANCE> 25
 3.382748e+01 3.628031e+01 4.600648e+01 2.294502e+01 9.100511e+01 4.563913e+01 5.834692e+01 5.632589e+01 3.456791e+01 4.004803e+01 4.066158e+01 4.632240e+01 1.656153e+00 1.407841e+00 1.798202e+00 1.585461e+00 4.502382e+00 2.970210e+00 3.744460e+00 3.177201e+00 2.837936e+00 2.797859e+00 2.639533e+00 2.465156e+00 1.004578e+00
<GCONST> 1.021376e+02
<STATE> 3
<MEAN> 25
 -1.651109e-08 -2.268430e-07 1.259320e-08 1.165062e-07 -3.503200e-08 7.789977e-08 -6.306777e-08 1.437152e-07 -9.648429e-08 -8.998416e-08 1.010382e-07 -1.644749e-08 3.964178e-03 4.991033e-03 -2.259726e-03 -8.660138e-04 -1.980516e-03 2.296586e-03 -1.050157e-04 -6.062090e-03 -3.834328e-04 3.311979e-04 1.732379e-04 -2.677502e-03 -2.030911e-03
<VARIANCE> 25
 3.382748e+01 3.628031e+01 4.600648e+01 2.294502e+01 9.100511e+01 4.563913e+01 5.834692e+01 5.632589e+01 3.456791e+01 4.004803e+01 4.066158e+01 4.632240e+01 1.656153e+00 1.407841e+00 1.798202e+00 1.585461e+00 4.502382e+00 2.970210e+00 3.744460e+00 3.177201e+00 2.837936e+00 2.797859e+00 2.639533e+00 2.465156e+00 1.004578e+00
<GCONST> 1.021376e+02
<STATE> 4
<MEAN> 25
 -1.651109e-08 -2.268430e-07 1.259320e-08 1.165062e-07 -3.503200e-08 7.789977e-08 -6.306777e-08 1.437152e-07 -9.648429e-08 -8.998416e-08 1.010382e-07 -1.644749e-08 3.964178e-03 4.991033e-03 -2.259726e-03 -8.660138e-04 -1.980516e-03 2.296586e-03 -1.050157e-04 -6.062090e-03 -3.834328e-04 3.311979e-04 1.732379e-04 -2.677502e-03 -2.030911e-03
<VARIANCE> 25
 3.382748e+01 3.628031e+01 4.600648e+01 2.294502e+01 9.100511e+01 4.563913e+01 5.834692e+01 5.632589e+01 3.456791e+01 4.004803e+01 4.066158e+01 4.632240e+01 1.656153e+00 1.407841e+00 1.798202e+00 1.585461e+00 4.502382e+00 2.970210e+00 3.744460e+00 3.177201e+00 2.837936e+00 2.797859e+00 2.639533e+00 2.465156e+00 1.004578e+00
<GCONST> 1.021376e+02
<TRANSP> 5
 0.000000e+00 1.000000e+00 0.000000e+00 0.000000e+00 0.000000e+00
 0.000000e+00 6.000000e-01 4.000000e-01 0.000000e+00 0.000000e+00
 0.000000e+00 0.000000e+00 6.000000e-01 4.000000e-01 0.000000e+00
 0.000000e+00 0.000000e+00 0.000000e+00 7.000000e-01 3.000000e-01
 0.000000e+00 0.000000e+00 0.000000e+00 0.000000e+00 0.000000e+00
<ENDHMM>
~h "l1_u"
<BEGINHMM>
<NUMSTATES> 5
<STATE> 2
<MEAN> 25
 -6.656748e-01 -1.265606e-01 -6.618842e-01 -4.116045e-02 -3.341192e-01 -6.602975e-01 1.875818e-01 -5.243294e-02 2.534764e-01 -1.655076e-01 3.928398e-01 1.326678e+00 2.387223e-02 1.182131e-02 -2.564955e-02 -6.892309e-03 -5.362144e-03 2.036007e-02 1.976609e-02 -2.878147e-02 -9.223146e-03 7.141445e-03 -2.345688e-02 -2.531945e-02 1.918913e-02
<VARIANCE> 25
 2.859926e+01 2.559515e+01 2.805019e+01 2.032085e+01 7.119080e+01 5.245974e+01 6.867478e+01 6.247347e+01 4.029049e+01 3.997963e+01 3.946426e+01 6.175323e+01 9.698913e-01 1.029919e+00 1.265620e+00 1.614235e+00 2.946378e+00 2.508607e+00 3.841125e+00 3.112739e+00 2.733557e+00 2.645716e+00 2.579204e+00 2.262497e+00 6.164878e-01
<GCONST> 9.911459e+01
<STATE> 3
<MEAN> 25
 -4.774026e-01 -6.820941e-02 -8.214075e-01 -7.325384e-02 -3.762917e-01 -4.958795e-01 3.071348e-01 -2.622017e-01 1.953949e-01 -1.085918e-01 2.069483e-01 1.123750e+00 2.757543e-02 8.324239e-03 -2.259208e-02 -4.470375e-03 -5.679171e-03 2.461560e-02 1.691378e-02 -3.024954e-02 -8.448327e-03 8.107374e-03 -2.704784e-02 -3.022104e-02 1.799511e-02
<VARIANCE> 25
 2.893643e+01 2.599137e+01 2.810753e+01 2.065688e+01 7.279679e+01 5.293605e+01 7.066582e+01 6.188461e+01 4.122184e+01 4.106188e+01 3.975871e+01 6.251236e+01 9.784896e-01 1.039639e+00 1.282510e+00 1.660287e+00 3.026898e+00 2.543833e+00 3.936183e+00 3.177532e+00 2.776928e+00 2.659186e+00 2.617989e+00 2.248553e+00 6.407742e-01
<GCONST> 9.949356e+01
<STATE> 4
<MEAN> 25
 7.947141e-01 2.489893e-01 -1.280617e+00 -1.707775e-01 -4.399835e-01 2.842001e-01 7.578933e-01 -1.829388e+00 -2.931789e-01 3.564114e-01 -1.155407e+00 -1.698708e-01 1.406033e-02 4.384812e-03 7.335559e-03 -1.732270e-04 3.761281e-03 1.167019e-02 9.481279e-04 -3.484576e-03 -5.358939e-03 2.409759e-03 -1.126254e-02 -2.401459e-02 1.354250e-03
<VARIANCE> 25
 2.885734e+01 2.740407e+01 3.156731e+01 2.116718e+01 9.207161e+01 5.140265e+01 7.768338e+01 5.383648e+01 4.721619e+01 4.887227e+01 3.693456e+01 6.460069e+01 1.072124e+00 1.083115e+00 1.447150e+00 1.802360e+00 3.757160e+00 2.814756e+00 4.284113e+00 3.531978e+00 2.944214e+00 2.780746e+00 2.748269e+00 2.478679e+00 7.212993e-01
<GCONST> 1.013248e+02
<TRANSP> 5
 0.000000e+00 1.000000e+00 0.000000e+00 0.000000e+00 0.000000e+00
 0.000000e+00 8.515517e-01 1.484484e-01 0.000000e+00 0.000000e+00
 0.000000e+00 0.000000e+00 8.515516e-01 1.484484e-01 0.000000e+00
 0.000000e+00 0.000000e+00 0.000000e+00 9.906811e-01 9.318976e-03
 0.000000e+00 0.000000e+00 0.000000e+00 0.000000e+00 0.000000e+00
<ENDHMM>
~h "l2_i"
<BEGINHMM>
<NUMSTATES> 5
<STATE> 2
<MEAN> 25
 -4.475971e-01 -6.327764e-01 -1.011861e+00 1.400052e-01 3.017181e-02 -4.923739e-01 1.527548e-01 -3.983788e-01 -7.446824e-01 2.885992e-01 -8.253521e-01 6.108602e-01 7.240664e-03 4.432142e-03 -1.008395e-02 -7.815843e-03 -8.307133e-03 1.776221e-03 4.436055e-03 -1.941319e-02 1.641475e-02 3.397184e-02 -4.018261e-03 -3.188559e-02 8.722311e-03
<VARIANCE> 25
 3.209702e+01 3.438308e+01 3.806807e+01 2.197256e+01 6.892540e+01 4.697922e+01 5.356823e+01 5.196184e+01 3.980194e+01 3.142525e+01 3.523071e+01 3.704464e+01 1.962139e+00 1.749412e+00 1.774651e+00 1.510339e+00 5.698355e+00 3.308527e+00 3.935572e+00 4.070705e+00 3.657571e+00 2.657390e+00 2.841190e+00 2.497854e+00 1.085022e+00
<GCONST> 1.022474e+02
<STATE> 3
<MEAN> 25
 -3.624363e-01 -6.257471e-01 -9.769504e-01 1.287832e-01 -7.577071e-03 -5.248616e-01 1.746891e-01 -5.258530e-01 -7.116063e-01 4.625915e-01 -8.797933e-01 3.642788e-01 1.316474e-02 2.329153e-03 9.372283e-03 -2.365698e-03 -5.689411e-03 -4.211096e-03 2.908485e-03 -1.880188e-02 5.011322e-03 2.488639e-02 -6.878563e-03 -3.725938e-02 4.044029e-03
<VARIANCE> 25
 3.233563e+01 3.414457e+01 3.924324e+01 2.078506e+01 6.942187e+01 4.579517e+01 5.251018e+01 5.137241e+01 3.853422e+01 3.109191e+01 3.451202e+01 3.453703e+01 2.003614e+00 1.766181e+00 1.823370e+00 1.468217e+00 5.693839e+00 3.299018e+00 3.792903e+00 4.036191e+00 3.553411e+00 2.664678e+00 2.808148e+00 2.448211e+00 1.056053e+00
<GCONST> 1.019344e+02
<STATE> 4
<MEAN> 25
 4.285533e-01 2.434251e-01 -2.204995e-01 1.106419e-01 -5.526727e-01 -5.918267e-01 5.998777e-01 -3.165574e-01 -1.162631e-01 2.504601e-01 -6.697484e-01 -1.033965e+00 1.139751e-02 1.683634e-02 2.313973e-02 -4.613926e-03 -3.740418e-03 1.053200e-02 -5.262360e-04 3.048904e-03 1.789878e-02 -2.387208e-03 1.655730e-02 -1.841346e-02 -3.923886e-03
<VARIANCE> 25
 3.346024e+01 3.402200e+01 3.857195e+01 1.801216e+01 7.069135e+01 5.085993e+01 4.931961e+01 4.999657e+01 3.372264e+01 3.088661e+01 3.148151e+01 2.731450e+01 1.977590e+00 1.773200e+00 1.810609e+00 1.359751e+00 5.126303e+00 3.355706e+00 3.584068e+00 3.556786e+00 3.103017e+00 2.596582e+00 2.542544e+00 2.178033e+00 9.313098e-01
<GCONST> 1.005039e+02
<TRANSP> 5
 0.000000e+00 1.000000e+00 0.000000e+00 0.000000e+00 0.000000e+00
 0.000000e+00 8.462706e-01 1.537294e-01 0.000000e+00 0.000000e+00
 0.000000e+00 0.000000e+00 8.462706e-01 1.537294e-01 0.000000e+00
 0.000000e+00 0.000000e+00 0.000000e+00 9.861224e-01 1.387759e-02
 0.000000e+00 0.000000e+00 0.000000e+00 0.000000e+00 0.000000e+00
<ENDHMM>
~h "l2_u"
<BEGINHMM>
<NUMSTATES> 5
<STATE> 2
<MEAN> 25
 -1.651109e-08 -2.268430e-07 1.259320e-08 1.165062e-07 -3.503200e-08 7.789977e-08 -6.306777e-08 1.437152e-07 -9.648429e-08 -8.998416e-08 1.010382e-07 -1.644749e-08 3.964178e-03 4.991033e-03 -2.259726e-03 -8.660138e-04 -1.980516e-03 2.296586e-03 -1.050157e-04 -6.062090e-03 -3.834328e-04 3.311979e-04 1.732379e-04 -2.677502e-03 -2.030911e-03
<VARIANCE> 25
 3.382748e+01 3.628031e+01 4.600648e+01 2.294502e+01 9.100511e+01 4.563913e+01 5.834692e+01 5.632589e+01 3.456791e+01 4.004803e+01 4.066158e+01 4.632240e+01 1.656153e+00 1.407841e+00 1.798202e+00 1.585461e+00 4.502382e+00 2.970210e+00 3.744460e+00 3.177201e+00 2.837936e+00 2.797859e+00 2.639533e+00 2.465156e+00 1.004578e+00
<GCONST> 1.021376e+02
<STATE> 3
<MEAN> 25
 -1.651109e-08 -2.268430e-07 1.259320e-08 1.165062e-07 -3.503200e-08 7.789977e-08 -6.306777e-08 1.437152e-07 -9.648429e-08 -8.998416e-08 1.010382e-07 -1.644749e-08 3.964178e-03 4.991033e-03 -2.259726e-03 -8.660138e-04 -1.980516e-03 2.296586e-03 -1.050157e-04 -6.062090e-03 -3.834328e-04 3.311979e-04 1.732379e-04 -2.677502e-03 -2.030911e-03
<VARIANCE> 25
 3.382748e+01 3.628031e+01 4.600648e+01 2.294502e+01 9.100511e+01 4.563913e+01 5.834692e+01 5.632589e+01 3.456791e+01 4.004803e+01 4.066158e+01 4.632240e+01 1.656153e+00 1.407841e+00 1.798202e+00 1.585461e+00 4.502382e+00 2.970210e+00 3.744460e+00 3.177201e+00 2.837936e+00 2.797859e+00 2.639533e+00 2.465156e+00 1.004578e+00
<GCONST> 1.021376e+02
<STATE> 4
<MEAN> 25
 -1.651109e-08 -2.268430e-07 1.259320e-08 1.165062e-07 -3.503200e-08 7.789977e-08 -6.306777e-08 1.437152e-07 -9.648429e-08 -8.998416e-08 1.010382e-07 -1.644749e-08 3.964178e-03 4.991033e-03 -2.259726e-03 -8.660138e-04 -1.980516e-03 2.296586e-03 -1.050157e-04 -6.062090e-03 -3.834328e-04 3.311979e-04 1.732379e-04 -2.677502e-03 -2.030911e-03
<VARIANCE> 25
 3.382748e+01 3.628031e+01 4.600648e+01 2.294502e+01 9.100511e+01 4.563913e+01 5.834692e+01 5.632589e+01 3.456791e+01 4.004803e+01 4.066158e+01 4.632240e+01 1.656153e+00 1.407841e+00 1.798202e+00 1.585461e+00 4.502382e+00 2.970210e+00 3.744460e+00 3.177201e+00 2.837936e+00 2.797859e+00 2.639533e+00 2.465156e+00 1.004578e+00
<GCONST> 1.021376e+02
<TRANSP> 5
 0.000000e+00 1.000000e+00 0.000000e+00 0.000000e+00 0.000000e+00
 0.000000e+00 6.000000e-01 4.000000e-01 0.000000e+00 0.000000e+00
 0.000000e+00 0.000000e+00 6.000000e-01 4.000000e-01 0.000000e+00
 0.000000e+00 0.000000e+00 0.000000e+00 7.000000e-01 3.000000e-01
 0.000000e+00 0.000000e+00 0.000000e+00 0.000000e+00 0.000000e+00
<ENDHMM>
~h "l3_i"
<BEGINHMM>
<NUMSTATES> 5
<STATE> 2
<MEAN> 25
 -3.744851e-01 -6.893206e-01 -7.179729e-01 1.631724e-01 -9.668356e-02 -1.858968e-01 4.077363e-01 -6.304217e-01 -5.543890e-02 2.805779e-01 1.395662e-01 1.639444e+00 5.581701e-03 1.526859e-02 -2.709892e-03 -1.291851e-02 6.798678e-03 -3.025712e-03 6.927997e-03 -1.484156e-02 3.211182e-03 7.633987e-03 -1.134881e-02 -1.196679e-02 2.412420e-03
<VARIANCE> 25
 2.357876e+01 3.092170e+01 3.615251e+01 2.135060e+01 8.097382e+01 4.881698e+01 6.934271e+01 6.192847e+01 3.415026e+01 4.324942e+01 4.543652e+01 6.366332e+01 1.332197e+00 1.338399e+00 1.563516e+00 1.597446e+00 3.485398e+00 3.047052e+00 4.054441e+00 3.346848e+00 2.715477e+00 2.866585e+00 2.799907e+00 2.650549e+00 8.097456e-01
<GCONST> 1.014121e+02
<STATE> 3
<MEAN> 25
 -3.520673e-01 -5.897819e-01 -7.289349e-01 8.360815e-02 -1.725806e-02 -1.913756e-01 4.186942e-01 -7.163247e-01 -2.742266e-02 3.292955e-01 9.220935e-02 1.551616e+00 3.080985e-03 1.429091e-02 -1.432582e-03 -1.153564e-02 1.206441e-02 -5.982760e-04 1.089605e-03 -1.198677e-02 4.097992e-03 6.870356e-03 -6.312869e-03 -1.291780e-02 -2.154404e-03
<VARIANCE> 25
 2.384529e+01 3.108606e+01 3.620890e+01 2.108569e+01 8.097144e+01 4.886656e+01 6.870277e+01 6.226786e+01 3.418534e+01 4.331416e+01 4.527997e+01 6.477102e+01 1.342037e+00 1.340225e+00 1.564045e+00 1.607382e+00 3.489827e+00 3.010991e+00 4.019791e+00 3.355146e+00 2.703348e+00 2.857683e+00 2.780740e+00 2.649249e+00 8.095151e-01
<GCONST> 1.014145e+02
<STATE> 4
<MEAN> 25
 1.646857e-01 2.303323e-01 -4.178355e-02 3.595219e-02 -2.010377e-01 -1.858253e-01 6.467410e-01 -4.273307e-01 -2.719306e-01 -2.750032e-01 -7.780954e-01 -7.453447e-02 3.281355e-03 6.537354e-03 4.687666e-03 -1.340132e-03 -4.715726e-04 4.953471e-04 -1.720966e-03 2.572152e-03 -6.747409e-04 -1.512249e-03 -2.076431e-03 -1.241516e-02 1.030520e-03
<VARIANCE> 25
 2.844160e+01 3.264873e+01 3.917678e+01 2.200905e+01 8.902863e+01 4.635366e+01 6.450452e+01 5.845694e+01 3.806444e+01 4.449156e+01 4.186016e+01 5.568669e+01 1.612710e+00 1.478349e+00 1.737557e+00 1.598288e+00 3.932717e+00 3.009982e+00 3.971636e+00 3.326459e+00 2.939338e+00 2.826040e+00 2.550982e+00 2.504641e+00 9.516878e-01
<GCONST> 1.021538e+02
<TRANSP> 5
 0.000000e+00 1.000000e+00 0.000000e+00 0.000000e+00 0.000000e+00
 0.000000e+00 8.540624e-01 1.459376e-01 0.000000e+00 0.000000e+00
 0.000000e+00 0.000000e+00 8.540624e-01 1.459376e-01 0.000000e+00
 0.000000e+00 0.000000e+00 0.000000e+00 9.961924e-01 3.807597e-03
 0.000000e+00 0.000000e+00 0.000000e+00 0.000000e+00 0.000000e+00
<ENDHMM>
~h "l3_u"
<BEGINHMM>
<NUMSTATES> 5
<STATE> 2
<MEAN> 25
 -1.651109e-08 -2.268430e-07 1.259320e-08 1.165062e-07 -3.503200e-08 7.789977e-08 -6.306777e-08 1.437152e-07 -9.648429e-08 -8.998416e-08 1.010382e-07 -1.644749e-08 3.964178e-03 4.991033e-03 -2.259726e-03 -8.660138e-04 -1.980516e-03 2.296586e-03 -1.050157e-04 -6.062090e-03 -3.834328e-04 3.311979e-04 1.732379e-04 -2.677502e-03 -2.030911e-03
<VARIANCE> 25
 3.382748e+01 3.628031e+01 4.600648e+01 2.294502e+01 9.100511e+01 4.563913e+01 5.834692e+01 5.632589e+01 3.456791e+01 4.004803e+01 4.066158e+01 4.632240e+01 1.656153e+00 1.407841e+00 1.798202e+00 1.585461e+00 4.502382e+00 2.970210e+00 3.744460e+00 3.177201e+00 2.837936e+00 2.797859e+00 2.639533e+00 2.465156e+00 1.004578e+00
<GCONST> 1.021376e+02
<STATE> 3
<MEAN> 25
 -1.651109e-08 -2.268430e-07 1.259320e-08 1.165062e-07 -3.503200e-08 7.789977e-08 -6.306777e-08 1.437152e-07 -9.648429e-08 -8.998416e-08 1.010382e-07 -1.644749e-08 3.964178e-03 4.991033e-03 -2.259726e-03 -8.660138e-04 -1.980516e-03 2.296586e-03 -1.050157e-04 -6.062090e-03 -3.834328e-04 3.311979e-04 1.732379e-04 -2.677502e-03 -2.030911e-03
<VARIANCE> 25
 3.382748e+01 3.628031e+01 4.600648e+01 2.294502e+01 9.100511e+01 4.563913e+01 5.834692e+01 5.632589e+01 3.456791e+01 4.004803e+01 4.066158e+01 4.632240e+01 1.656153e+00 1.407841e+00 1.798202e+00 1.585461e+00 4.502382e+00 2.970210e+00 3.744460e+00 3.177201e+00 2.837936e+00 2.797859e+00 2.639533e+00 2.465156e+00 1.004578e+00
<GCONST> 1.021376e+02
<STATE> 4
<MEAN> 25
 -1.651109e-08 -2.268430e-07 1.259320e-08 1.165062e-07 -3.503200e-08 7.789977e-08 -6.306777e-08 1.437152e-07 -9.648429e-08 -8.998416e-08 1.010382e-07 -1.644749e-08 3.964178e-03 4.991033e-03 -2.259726e-03 -8.660138e-04 -1.980516e-03 2.296586e-03 -1.050157e-04 -6.062090e-03 -3.834328e-04 3.311979e-04 1.732379e-04 -2.677502e-03 -2.030911e-03
<VARIANCE> 25
 3.382748e+01 3.628031e+01 4.600648e+01 2.294502e+01 9.100511e+01 4.563913e+01 5.834692e+01 5.632589e+01 3.456791e+01 4.004803e+01 4.066158e+01 4.632240e+01 1.656153e+00 1.407841e+00 1.798202e+00 1.585461e+00 4.502382e+00 2.970210e+00 3.744460e+00 3.177201e+00 2.837936e+00 2.797859e+00 2.639533e+00 2.465156e+00 1.004578e+00
<GCONST> 1.021376e+02
<TRANSP> 5
 0.000000e+00 1.000000e+00 0.000000e+00 0.000000e+00 0.000000e+00
 0.000000e+00 6.000000e-01 4.000000e-01 0.000000e+00 0.000000e+00
 0.000000e+00 0.000000e+00 6.000000e-01 4.000000e-01 0.000000e+00
 0.000000e+00 0.000000e+00 0.000000e+00 7.000000e-01 3.000000e-01
 0.000000e+00 0.000000e+00 0.000000e+00 0.000000e+00 0.000000e+00
<ENDHMM>
~h "l4_i"
<BEGINHMM>
<NUMSTATES> 5
<STATE> 2
<MEAN> 25
 -1.651109e-08 -2.268430e-07 1.259320e-08 1.165062e-07 -3.503200e-08 7.789977e-08 -6.306777e-08 1.437152e-07 -9.648429e-08 -8.998416e-08 1.010382e-07 -1.644749e-08 3.964178e-03 4.991033e-03 -2.259726e-03 -8.660138e-04 -1.980516e-03 2.296586e-03 -1.050157e-04 -6.062090e-03 -3.834328e-04 3.311979e-04 1.732379e-04 -2.677502e-03 -2.030911e-03
<VARIANCE> 25
 3.382748e+01 3.628031e+01 4.600648e+01 2.294502e+01 9.100511e+01 4.563913e+01 5.834692e+01 5.632589e+01 3.456791e+01 4.004803e+01 4.066158e+01 4.632240e+01 1.656153e+00 1.407841e+00 1.798202e+00 1.585461e+00 4.502382e+00 2.970210e+00 3.744460e+00 3.177201e+00 2.837936e+00 2.797859e+00 2.639533e+00 2.465156e+00 1.004578e+00
<GCONST> 1.021376e+02
<STATE> 3
<MEAN> 25
 -1.651109e-08 -2.268430e-07 1.259320e-08 1.165062e-07 -3.503200e-08 7.789977e-08 -6.306777e-08 1.437152e-07 -9.648429e-08 -8.998416e-08 1.010382e-07 -1.644749e-08 3.964178e-03 4.991033e-03 -2.259726e-03 -8.660138e-04 -1.980516e-03 2.296586e-03 -1.050157e-04 -6.062090e-03 -3.834328e-04 3.311979e-04 1.732379e-04 -2.677502e-03 -2.030911e-03
<VARIANCE> 25
 3.382748e+01 3.628031e+01 4.600648e+01 2.294502e+01 9.100511e+01 4.563913e+01 5.834692e+01 5.632589e+01 3.456791e+01 4.004803e+01 4.066158e+01 4.632240e+01 1.656153e+00 1.407841e+00 1.798202e+00 1.585461e+00 4.502382e+00 2.970210e+00 3.744460e+00 3.177201e+00 2.837936e+00 2.797859e+00 2.639533e+00 2.465156e+00 1.004578e+00
<GCONST> 1.021376e+02
<STATE> 4
<MEAN> 25
 -1.651109e-08 -2.268430e-07 1.259320e-08 1.165062e-07 -3.503200e-08 7.789977e-08 -6.306777e-08 1.437152e-07 -9.648429e-08 -8.998416e-08 1.010382e-07 -1.644749e-08 3.964178e-03 4.991033e-03 -2.259726e-03 -8.660138e-04 -1.980516e-03 2.296586e-03 -1.050157e-04 -6.062090e-03 -3.834328e-04 3.311979e-04 1.732379e-04 -2.677502e-03 -2.030911e-03
<VARIANCE> 25
 3.382748e+01 3.628031e+01 4.600648e+01 2.294502e+01 9.100511e+01 4.563913e+01 5.834692e+01 5.632589e+01 3.456791e+01 4.004803e+01 4.066158e+01 4.632240e+01 1.656153e+00 1.407841e+00 1.798202e+00 1.585461e+00 4.502382e+00 2.970210e+00 3.744460e+00 3.177201e+00 2.837936e+00 2.797859e+00 2.639533e+00 2.465156e+00 1.004578e+00
<GCONST> 1.021376e+02
<TRANSP> 5
 0.000000e+00 1.000000e+00 0.000000e+00 0.000000e+00 0.000000e+00
 0.000000e+00 6.000000e-01 4.000000e-01 0.000000e+00 0.000000e+00
 0.000000e+00 0.000000e+00 6.000000e-01 4.000000e-01 0.000000e+00
 0.000000e+00 0.000000e+00 0.000000e+00 7.000000e-01 3.000000e-01
 0.000000e+00 0.000000e+00 0.000000e+00 0.000000e+00 0.000000e+00
<ENDHMM>
~h "l4_u"
<BEGINHMM>
<NUMSTATES> 5
<STATE> 2
<MEAN> 25
 -2.165489e-01 -6.972563e-01 -2.274002e-01 2.622176e-01 -1.571285e+00 -1.291860e+00 6.978433e-01 1.590789e-01 8.149695e-02 3.897334e-01 1.857959e-01 2.039417e+00 5.063119e-03 9.287288e-03 -1.007976e-02 2.841084e-03 1.643421e-02 -3.182005e-03 -4.338125e-03 -1.742752e-02 -7.429573e-04 7.008231e-03 -1.912025e-03 -9.235358e-03 8.234954e-03
<VARIANCE> 25
 3.017150e+01 3.565662e+01 4.601315e+01 2.259809e+01 9.851389e+01 4.289581e+01 5.755822e+01 5.046070e+01 3.659757e+01 5.023956e+01 5.889779e+01 7.254867e+01 1.593292e+00 1.539364e+00 2.004036e+00 1.513048e+00 4.340867e+00 2.859073e+00 4.064752e+00 3.219622e+00 3.037571e+00 3.152810e+00 2.961557e+00 2.783670e+00 1.018618e+00
<GCONST> 1.035583e+02
<STATE> 3
<MEAN> 25
 -1.897228e-01 -6.424577e-01 -3.017448e-01 2.613871e-01 -1.405514e+00 -1.285645e+00 6.407040e-01 8.270318e-02 1.003487e-01 4.507711e-01 1.976282e-01 1.938732e+00 3.693297e-03 7.977271e-03 -1.074951e-02 -3.165958e-04 2.492460e-02 1.614758e-03 -8.470040e-03 -1.048110e-02 2.941580e-03 9.007438e-03 2.151272e-03 -1.543544e-02 7.735034e-04
<VARIANCE> 25
 3.064936e+01 3.576738e+01 4.604588e+01 2.285236e+01 9.819256e+01 4.358097e+01 5.760274e+01 5.029110e+01 3.668630e+01 5.046481e+01 5.948742e+01 7.305480e+01 1.608951e+00 1.529278e+00 2.007864e+00 1.529524e+00 4.320924e+00 2.881999e+00 4.068032e+00 3.230806e+00 3.026817e+00 3.154849e+00 2.959116e+00 2.768824e+00 1.000390e+00
<GCONST> 1.036193e+02
<STATE> 4
<MEAN> 25
 2.287599e-01 -1.194315e-01 -3.939470e-01 9.937786e-02 1.572777e-01 -1.737357e-01 1.894688e-02 -2.721446e-01 -4.677638e-03 1.742017e-02 -3.436091e-02 3.421073e-01 2.250419e-03 4.986797e-03 1.018654e-03 -1.654375e-03 8.945808e-03 7.342560e-03 -4.038847e-03 -3.202147e-03 -6.709874e-04 -2.378675e-03 -2.041538e-03 -1.282944e-02 -2.750423e-03
<VARIANCE> 25
 3.138094e+01 3.612653e+01 5.002127e+01 2.197818e+01 1.025563e+02 5.186011e+01 5.094454e+01 5.795391e+01 3.627034e+01 4.354232e+01 4.467236e+01 5.932829e+01 1.600024e+00 1.473217e+00 2.064389e+00 1.411737e+00 4.418184e+00 3.152308e+00 3.576034e+00 3.078694e+00 2.865535e+00 2.929246e+00 2.779856e+00 2.585719e+00 1.060591e+00
<GCONST> 1.029176e+02
<TRANSP> 5
 0.000000e+00 1.000000e+00 0.000000e+00 0.000000e+00 0.000000e+00
 0.000000e+00 8.543183e-01 1.456818e-01 0.000000e+00 0.000000e+00
 0.000000e+00 0.000000e+00 8.543183e-01 1.456818e-01 0.000000e+00
 0.000000e+00 0.000000e+00 0.000000e+00 9.966869e-01 3.313091e-03
 0.000000e+00 0.000000e+00 0.000000e+00 0.000000e+00 0.000000e+00
<ENDHMM>
~h "l5_i"
<BEGINHMM>
<NUMSTATES> 5
<STATE> 2
<MEAN> 25
 2.109158e-01 -7.038815e-01 -8.949373e-01 -8.020085e-02 3.864349e-01 3.493651e-01 -4.230998e-01 3.095794e-02 2.113044e-01 1.383858e-01 -2.663012e-02 2.009145e-01 9.506147e-03 5.631737e-03 -2.368489e-03 9.768924e-04 -7.878505e-03 -1.767660e-03 -4.834228e-03 -9.021013e-03 -1.150473e-03 -1.976986e-03 -6.280649e-03 -5.232630e-03 1.857937e-03
<VARIANCE> 25
 4.118560e+01 4.070090e+01 4.861817e+01 2.619959e+01 8.810156e+01 4.379343e+01 5.174334e+01 5.240063e+01 3.002145e+01 3.711067e+01 4.280923e+01 4.260428e+01 1.803495e+00 1.475942e+00 1.726829e+00 1.706197e+00 4.507036e+00 2.920742e+00 3.444849e+00 2.765531e+00 2.516912e+00 2.669007e+00 2.538645e+00 2.474878e+00 1.072798e+00
<GCONST> 1.019127e+02
<STATE> 3
<MEAN> 25
 2.754149e-01 -6.675661e-01 -8.996542e-01 -6.903727e-02 3.305940e-01 3.339798e-01 -4.510281e-01 -2.595999e-02 2.049883e-01 1.229346e-01 -6.289545e-02 1.689329e-01 9.201519e-03 5.223042e-03 -4.977478e-04 1.663158e-03 -8.051799e-03 -2.244763e-03 -3.913742e-03 -8.109070e-03 -8.894064e-04 -2.194360e-03 -5.076920e-03 -4.555227e-03 -8.234659e-04
<VARIANCE> 25
 4.067446e+01 4.072468e+01 4.879018e+01 2.623530e+01 8.827515e+01 4.380859e+01 5.167594e+01 5.224561e+01 3.016199e+01 3.719419e+01 4.256227e+01 4.256627e+01 1.797917e+00 1.481930e+00 1.732726e+00 1.712382e+00 4.526576e+00 2.925094e+00 3.435665e+00 2.776326e+00 2.526809e+00 2.675729e+00 2.532684e+00 2.477307e+00 1.074500e+00
<GCONST> 1.019257e+02
<STATE> 4
<MEAN> 25
 3.248551e-01 2.920194e-01 1.766179e-03 2.021692e-01 -2.917084e-01 -3.130005e-01 -6.290460e-02 -4.501556e-01 -5.351278e-02 -2.527670e-01 -1.922818e-01 -9.494294e-02 -6.137439e-04 2.788940e-03 3.046997e-03 2.860425e-04 -1.695292e-03 -1.378937e-03 1.437483e-03 -6.151716e-04 -8.763691e-04 -5.967206e-04 -1.925601e-04 -8.713907e-04 -5.325867e-04
<VARIANCE> 25
 3.963192e+01 3.768383e+01 5.005649e+01 2.480058e+01 9.002166e+01 4.092781e+01 5.346480e+01 5.018741e+01 3.017197e+01 3.945866e+01 4.286055e+01 3.979518e+01 1.914793e+00 1.602396e+00 1.884231e+00 1.741101e+00 4.784928e+00 2.889712e+00 3.387421e+00 2.825600e+00 2.526222e+00 2.814742e+00 2.594052e+00 2.436429e+00 1.164540e+00
<GCONST> 1.021626e+02
<TRANSP> 5
 0.000000e+00 1.000000e+00 0.000000e+00 0.000000e+00 0.000000e+00
 0.000000e+00 8.559885e-01 1.440115e-01 0.000000e+00 0.000000e+00
 0.000000e+00 0.000000e+00 8.559884e-01 1.440116e-01 0.000000e+00
 0.000000e+00 0.000000e+00 0.000000e+00 9.980876e-01 1.912406e-03
 0.000000e+00 0.000000e+00 0.000000e+00 0.000000e+00 0.000000e+00
<ENDHMM>
~h "l5_u"
<BEGINHMM>
<NUMSTATES> 5
<STATE> 2
<MEAN> 25
 -1.651109e-08 -2.268430e-07 1.259320e-08 1.165062e-07 -3.503200e-08 7.789977e-08 -6.306777e-08 1.437152e-07 -9.648429e-08 -8.998416e-08 1.010382e-07 -1.644749e-08 3.964178e-03 4.991033e-03 -2.259726e-03 -8.660138e-04 -1.980516e-03 2.296586e-03 -1.050157e-04 -6.062090e-03 -3.834328e-04 3.311979e-04 1.732379e-04 -2.677502e-03 -2.030911e-03
<VARIANCE> 25
 3.382748e+01 3.628031e+01 4.600648e+01 2.294502e+01 9.100511e+01 4.563913e+01 5.834692e+01 5.632589e+01 3.456791e+01 4.004803e+01 4.066158e+01 4.632240e+01 1.656153e+00 1.407841e+00 1.798202e+00 1.585461e+00 4.502382e+00 2.970210e+00 3.744460e+00 3.177201e+00 2.837936e+00 2.797859e+00 2.639533e+00 2.465156e+00 1.004578e+00
<GCONST> 1.021376e+02
<STATE> 3
<MEAN> 25
 -1.651109e-08 -2.268430e-07 1.259320e-08 1.165062e-07 -3.503200e-08 7.789977e-08 -6.306777e-08 1.437152e-07 -9.648429e-08 -8.998416e-08 1.010382e-07 -1.644749e-08 3.964178e-03 4.991033e-03 -2.259726e-03 -8.660138e-04 -1.980516e-03 2.296586e-03 -1.050157e-04 -6.062090e-03 -3.834328e-04 3.311979e-04 1.732379e-04 -2.677502e-03 -2.030911e-03
<VARIANCE> 25
 3.382748e+01 3.628031e+01 4.600648e+01 2.294502e+01 9.100511e+01 4.563913e+01 5.834692e+01 5.632589e+01 3.456791e+01 4.004803e+01 4.066158e+01 4.632240e+01 1.656153e+00 1.407841e+00 1.798202e+00 1.585461e+00 4.502382e+00 2.970210e+00 3.744460e+00 3.177201e+00 2.837936e+00 2.797859e+00 2.639533e+00 2.465156e+00 1.004578e+00
<GCONST> 1.021376e+02
<STATE> 4
<MEAN> 25
 -1.651109e-08 -2.268430e-07 1.259320e-08 1.165062e-07 -3.503200e-08 7.789977e-08 -6.306777e-08 1.437152e-07 -9.648429e-08 -8.998416e-08 1.010382e-07 -1.644749e-08 3.964178e-03 4.991033e-03 -2.259726e-03 -8.660138e-04 -1.980516e-03 2.296586e-03 -1.050157e-04 -6.062090e-03 -3.834328e-04 3.311979e-04 1.732379e-04 -2.677502e-03 -2.030911e-03
<VARIANCE> 25
 3.382748e+01 3.628031e+01 4.600648e+01 2.294502e+01 9.100511e+01 4.563913e+01 5.834692e+01 5.632589e+01 3.456791e+01 4.004803e+01 4.066158e+01 4.632240e+01 1.656153e+00 1.407841e+00 1.798202e+00 1.585461e+00 4.502382e+00 2.970210e+00 3.744460e+00 3.177201e+00 2.837936e+00 2.797859e+00 2.639533e+00 2.465156e+00 1.004578e+00
<GCONST> 1.021376e+02
<TRANSP> 5
 0.000000e+00 1.000000e+00 0.000000e+00 0.000000e+00 0.000000e+00
 0.000000e+00 6.000000e-01 4.000000e-01 0.000000e+00 0.000000e+00
 0.000000e+00 0.000000e+00 6.000000e-01 4.000000e-01 0.000000e+00
 0.000000e+00 0.000000e+00 0.000000e+00 7.000000e-01 3.000000e-01
 0.000000e+00 0.000000e+00 0.000000e+00 0.000000e+00 0.000000e+00
<ENDHMM>
~h "sil"
<BEGINHMM>
<NUMSTATES> 5
<STATE> 2
<MEAN> 25
 -1.979711e+00 -1.891245e+00 1.832629e+00 2.128825e-01 1.647676e+00 2.809307e-01 -5.034655e-01 3.377116e+00 2.838263e-01 -3.880455e-01 1.607708e+00 8.855643e-01 -1.411642e-02 -2.725013e-02 1.442689e-02 2.010397e-02 -1.278887e-01 -1.867418e-03 8.218993e-02 -8.670843e-02 -4.148465e-02 3.347208e-03 -1.960216e-02 1.071563e-01 8.563375e-02
<VARIANCE> 25
 3.244333e+01 3.262836e+01 3.347404e+01 1.931925e+01 6.401558e+01 3.516509e+01 5.190422e+01 5.670961e+01 3.273546e+01 3.749605e+01 3.404025e+01 4.020102e+01 1.302647e+00 1.087612e+00 1.420502e+00 1.358338e+00 3.598199e+00 2.405045e+00 3.266362e+00 2.754790e+00 2.810931e+00 2.613840e+00 2.236048e+00 2.294509e+00 9.445633e-01
<GCONST> 9.835735e+01
<STATE> 3
<MEAN> 25
 -1.729730e+00 -1.773109e+00 1.696436e+00 1.157030e-01 8.895820e-01 4.338589e-01 -1.472486e-01 2.657157e+00 -9.303911e-02 -4.424518e-01 1.399835e+00 1.093686e+00 3.957049e-02 2.207545e-02 -2.462477e-02 -1.488054e-02 -1.072357e-01 2.434572e-02 4.471602e-02 -1.077936e-01 -5.455115e-02 -1.159455e-02 -2.913791e-02 2.343838e-02 6.579356e-02
<VARIANCE> 25
 3.171819e+01 3.354941e+01 3.360032e+01 2.014760e+01 6.900044e+01 3.728478e+01 5.496273e+01 5.412854e+01 3.197917e+01 3.638496e+01 3.519282e+01 4.172707e+01 1.317280e+00 1.196069e+00 1.473472e+00 1.347053e+00 3.817464e+00 2.527209e+00 3.340210e+00 2.971036e+00 2.818422e+00 2.800881e+00 2.410102e+00 2.281960e+00 1.005594e+00
<GCONST> 9.911459e+01
<STATE> 4
<MEAN> 25
 -1.065315e-01 -3.355511e-02 2.339564e-02 -3.775116e-02 5.620508e-02 9.914762e-02 -5.669836e-02 1.121395e-01 -8.028266e-03 7.168099e-02 1.716236e-01 -4.351649e-03 3.757377e-03 4.448346e-03 -5.317371e-03 -8.741707e-04 3.531768e-03 1.469020e-03 -3.276518e-03 -3.135624e-03 1.534042e-03 1.355360e-03 1.891299e-03 -3.144323e-03 -6.670063e-03
<VARIANCE> 25
 3.416431e+01 3.675117e+01 4.605497e+01 2.309587e+01 9.064624e+01 4.568103e+01 5.815339e+01 5.596449e+01 3.401825e+01 4.002261e+01 4.085726e+01 4.635579e+01 1.655185e+00 1.385300e+00 1.773156e+00 1.574105e+00 4.439429e+00 2.962739e+00 3.762698e+00 3.162023e+00 2.813647e+00 2.773152e+00 2.650047e+00 2.452133e+00 9.963213e-01
<GCONST> 1.020626e+02
<TRANSP> 5
 0.000000e+00 1.000000e+00 0.000000e+00 0.000000e+00 0.000000e+00
 0.000000e+00 8.526016e-01 1.473983e-01 0.000000e+00 0.000000e+00
 0.000000e+00 0.000000e+00 8.526018e-01 1.473982e-01 0.000000e+00
 0.000000e+00 0.000000e+00 0.000000e+00 9.957645e-01 4.235543e-03
 0.000000e+00 0.000000e+00 0.000000e+00 0.000000e+00 0.000000e+00
<ENDHMM>
