~o
<STREAMINFO> 1 25
<VECSIZE> 25<NULLD><MFCC_D_N_Z_0><DIAGC>
~s "silst"
<NUMMIXES> 4
<MIXTURE> 1 2.500000e-01
<MEAN> 25
 1.470399e+00 -2.719195e+00 -1.635871e+00 2.239927e+00 5.146507e+00 2.313337e+00 7.712702e+00 2.672504e+00 2.303749e+00 3.843076e+00 1.780628e+00 8.897046e+00 5.712754e-01 5.211338e-01 5.815287e-01 5.573244e-01 5.325656e-01 4.614418e-01 1.146597e+00 5.263705e-01 6.833300e-01 7.590464e-01 4.625181e-01 7.060320e-01 5.977911e-01
<VARIANCE> 25
 1.576532e+01 2.720152e+01 3.027498e+01 2.342546e+01 1.075128e+02 5.156853e+01 8.727466e+01 5.018021e+01 3.885489e+01 5.399139e+01 4.993222e+01 5.411939e+01 1.223657e+00 1.679305e+00 1.684056e+00 1.764111e+00 5.509113e+00 3.285222e+00 6.032812e+00 3.632652e+00 3.177412e+00 3.478558e+00 2.942724e+00 3.561628e+00 1.451534e+00
<GCONST> 1.040448e+02
<MIXTURE> 2 2.500000e-01
<MEAN> 25
 -1.178236e-01 -4.805398e+00 -3.836779e+00 3.039325e-01 9.989719e-01 -5.591121e-01 3.975866e+00 -1.610155e-01 -1.895990e-01 9.039226e-01 -1.045881e+00 5.954411e+00 1.287993e-01 2.781808e-03 6.244397e-02 2.604502e-02 -4.062944e-01 -2.635655e-01 1.641260e-01 -2.360102e-01 -2.968186e-02 1.301065e-02 -2.236567e-01 -4.885897e-02 1.158726e-01
<VARIANCE> 25
 1.576532e+01 2.720152e+01 3.027498e+01 2.342546e+01 1.075128e+02 5.156853e+01 8.727466e+01 5.018021e+01 3.885489e+01 5.399139e+01 4.993222e+01 5.411939e+01 1.223657e+00 1.679305e+00 1.684056e+00 1.764111e+00 5.509113e+00 3.285222e+00 6.032812e+00 3.632652e+00 3.177412e+00 3.478558e+00 2.942724e+00 3.561628e+00 1.451534e+00
<GCONST> 1.040448e+02
<MIXTURE> 3 2.500000e-01
<MEAN> 25
 -1.178236e-01 -4.805398e+00 -3.836779e+00 3.039325e-01 9.989719e-01 -5.591121e-01 3.975866e+00 -1.610155e-01 -1.895990e-01 9.039227e-01 -1.045881e+00 5.954411e+00 1.287993e-01 2.781808e-03 6.244397e-02 2.604502e-02 -4.062944e-01 -2.635655e-01 1.641260e-01 -2.360102e-01 -2.968186e-02 1.301065e-02 -2.236567e-01 -4.885897e-02 1.158726e-01
<VARIANCE> 25
 1.576532e+01 2.720152e+01 3.027498e+01 2.342546e+01 1.075128e+02 5.156853e+01 8.727466e+01 5.018021e+01 3.885489e+01 5.399139e+01 4.993222e+01 5.411939e+01 1.223657e+00 1.679305e+00 1.684056e+00 1.764111e+00 5.509113e+00 3.285222e+00 6.032812e+00 3.632652e+00 3.177412e+00 3.478558e+00 2.942724e+00 3.561628e+00 1.451534e+00
<GCONST> 1.040448e+02
<MIXTURE> 4 2.500000e-01
<MEAN> 25
 -1.706046e+00 -6.891601e+00 -6.037687e+00 -1.632062e+00 -3.148563e+00 -3.431561e+00 2.390296e-01 -2.994535e+00 -2.682947e+00 -2.035231e+00 -3.872391e+00 3.011775e+00 -3.136768e-01 -5.155702e-01 -4.566408e-01 -5.052344e-01 -1.345154e+00 -9.885728e-01 -8.183454e-01 -9.983909e-01 -7.426937e-01 -7.330251e-01 -9.098315e-01 -8.037500e-01 -3.660459e-01
<VARIANCE> 25
 1.576532e+01 2.720152e+01 3.027498e+01 2.342546e+01 1.075128e+02 5.156853e+01 8.727466e+01 5.018021e+01 3.885489e+01 5.399139e+01 4.993222e+01 5.411939e+01 1.223657e+00 1.679305e+00 1.684056e+00 1.764111e+00 5.509113e+00 3.285222e+00 6.032812e+00 3.632652e+00 3.177412e+00 3.478558e+00 2.942724e+00 3.561628e+00 1.451534e+00
<GCONST> 1.040448e+02
~h "l1_i"
<BEGINHMM>
<NUMSTATES> 5
<STATE> 2
<NUMMIXES> 4
<MIXTURE> 1 2.500000e-01
<MEAN> 25
 8.373860e-01 -1.466880e+00 6.088934e+00 1.184126e+00 8.672912e-01 1.205967e+00 5.005128e+00 1.955228e+00 2.867814e+00 2.501603e+00 1.799959e+00 4.944585e+00 2.156134e-01 5.811141e-01 6.430117e-01 4.704028e-01 7.643373e-01 5.010314e-01 9.722090e-01 3.412293e-01 5.448232e-01 6.992453e-01 5.740293e-01 4.582631e-01 1.380211e-01
<VARIANCE> 25
 4.488117e+00 4.476944e+01 8.030351e+01 1.614371e+01 1.304107e+02 2.167193e+01 8.075018e+01 7.042307e+01 2.895739e+01 3.950694e+01 1.507542e+01 2.453449e+01 3.545524e-01 9.395005e-01 1.659829e+00 1.091638e+00 5.667864e+00 2.665737e+00 4.633151e+00 2.632205e+00 2.826827e+00 2.178304e+00 1.400028e+00 1.812311e+00 4.321368e-01
<GCONST> 9.458649e+01
<MIXTURE> 2 2.500000e-01
<MEAN> 25
 -1.002115e-02 -4.143279e+00 2.504445e+00 -4.230436e-01 -3.700609e+00 -6.561577e-01 1.410684e+00 -1.401510e+00 7.153305e-01 -1.257849e-02 2.468756e-01 2.963293e+00 -2.256382e-02 1.934027e-01 1.276743e-01 5.247684e-02 -1.879538e-01 -1.520520e-01 1.112187e-01 -3.077336e-01 -1.277037e-01 1.088822e-01 1.007382e-01 -8.022535e-02 -1.249274e-01
<VARIANCE> 25
 4.488117e+00 4.476944e+01 8.030351e+01 1.614371e+01 1.304107e+02 2.167193e+01 8.075018e+01 7.042307e+01 2.895739e+01 3.950694e+01 1.507542e+01 2.453449e+01 3.545524e-01 9.395005e-01 1.659829e+00 1.091638e+00 5.667864e+00 2.665737e+00 4.633151e+00 2.632205e+00 2.826827e+00 2.178304e+00 1.400028e+00 1.812311e+00 4.321368e-01
<GCONST> 9.458649e+01
<MIXTURE> 3 2.500000e-01
<MEAN> 25
 -1.002115e-02 -4.143279e+00 2.504445e+00 -4.230436e-01 -3.700609e+00 -6.561577e-01 1.410684e+00 -1.401510e+00 7.153305e-01 -1.257849e-02 2.468756e-01 2.963293e+00 -2.256382e-02 1.934027e-01 1.276743e-01 5.247684e-02 -1.879538e-01 -1.520520e-01 1.112187e-01 -3.077336e-01 -1.277037e-01 1.088822e-01 1.007382e-01 -8.022535e-02 -1.249274e-01
<VARIANCE> 25
 4.488117e+00 4.476944e+01 8.030351e+01 1.614371e+01 1.304107e+02 2.167193e+01 8.075018e+01 7.042307e+01 2.895739e+01 3.950694e+01 1.507542e+01 2.453449e+01 3.545524e-01 9.395005e-01 1.659829e+00 1.091638e+00 5.667864e+00 2.665737e+00 4.633151e+00 2.632205e+00 2.826827e+00 2.178304e+00 1.400028e+00 1.812311e+00 4.321368e-01
<GCONST> 9.458649e+01
<MIXTURE> 4 2.500000e-01
<MEAN> 25
 -8.574283e-01 -6.819678e+00 -1.080044e+00 -2.030213e+00 -8.268509e+00 -2.518282e+00 -2.183760e+00 -4.758248e+00 -1.437153e+00 -2.526760e+00 -1.306208e+00 9.820009e-01 -2.607410e-01 -1.943087e-01 -3.876631e-01 -3.654491e-01 -1.140245e+00 -8.051354e-01 -7.497715e-01 -9.566965e-01 -8.002305e-01 -4.814810e-01 -3.725529e-01 -6.187138e-01 -3.878759e-01
<VARIANCE> 25
 4.488117e+00 4.476944e+01 8.030351e+01 1.614371e+01 1.304107e+02 2.167193e+01 8.075018e+01 7.042307e+01 2.895739e+01 3.950694e+01 1.507542e+01 2.453449e+01 3.545524e-01 9.395005e-01 1.659829e+00 1.091638e+00 5.667864e+00 2.665737e+00 4.633151e+00 2.632205e+00 2.826827e+00 2.178304e+00 1.400028e+00 1.812311e+00 4.321368e-01
<GCONST> 9.458649e+01
<STATE> 3
<NUMMIXES> 4
<MIXTURE> 1 2.500000e-01
<MEAN> 25
 3.027413e+00 9.618988e-01 2.742620e+00 2.195238e+00 -4.174492e+00 1.407763e+00 6.852514e+00 2.850691e+00 1.281962e+00 1.463886e+00 2.260762e-01 -4.863875e-01 4.332448e-01 5.015221e-01 5.164248e-01 4.452648e-01 8.592452e-01 7.419186e-01 8.579464e-01 9.438486e-01 7.394463e-01 6.674113e-01 4.865511e-01 4.777033e-01 3.435235e-01
<VARIANCE> 25
 1.324295e+01 3.422691e+01 3.450400e+01 1.402174e+01 5.864337e+01 4.767826e+01 5.227044e+01 8.599530e+01 3.715938e+01 3.212978e+01 2.748305e+01 1.854819e+01 9.458221e-01 1.470975e+00 1.542900e+00 1.370653e+00 4.616985e+00 3.103607e+00 4.670858e+00 4.197621e+00 3.268413e+00 2.795208e+00 1.557706e+00 1.706498e+00 7.521554e-01
<GCONST> 9.753310e+01
<MIXTURE> 2 2.500000e-01
<MEAN> 25
 1.571778e+00 -1.378252e+00 3.930157e-01 6.974134e-01 -7.237650e+00 -1.354215e+00 3.960582e+00 -8.586546e-01 -1.156378e+00 -8.034396e-01 -1.870895e+00 -2.209092e+00 4.423121e-02 1.638702e-02 1.957069e-02 -2.303484e-02 -2.415776e-04 3.723624e-02 -6.540269e-03 1.243247e-01 1.629618e-02 -1.343787e-03 -1.268129e-02 -4.482874e-02 -3.384069e-03
<VARIANCE> 25
 1.324295e+01 3.422691e+01 3.450400e+01 1.402174e+01 5.864337e+01 4.767826e+01 5.227044e+01 8.599530e+01 3.715938e+01 3.212978e+01 2.748305e+01 1.854819e+01 9.458221e-01 1.470975e+00 1.542900e+00 1.370653e+00 4.616985e+00 3.103607e+00 4.670858e+00 4.197621e+00 3.268413e+00 2.795208e+00 1.557706e+00 1.706498e+00 7.521554e-01
<GCONST> 9.753310e+01
<MIXTURE> 3 2.500000e-01
<MEAN> 25
 1.571778e+00 -1.378252e+00 3.930157e-01 6.974134e-01 -7.237650e+00 -1.354215e+00 3.960582e+00 -8.586547e-01 -1.156378e+00 -8.034397e-01 -1.870895e+00 -2.209092e+00 4.423121e-02 1.638703e-02 1.957069e-02 -2.303483e-02 -2.415776e-04 3.723624e-02 -6.540269e-03 1.243247e-01 1.629618e-02 -1.343787e-03 -1.268129e-02 -4.482873e-02 -3.384069e-03
<VARIANCE> 25
 1.324295e+01 3.422691e+01 3.450400e+01 1.402174e+01 5.864337e+01 4.767826e+01 5.227044e+01 8.599530e+01 3.715938e+01 3.212978e+01 2.748305e+01 1.854819e+01 9.458221e-01 1.470975e+00 1.542900e+00 1.370653e+00 4.616985e+00 3.103607e+00 4.670858e+00 4.197621e+00 3.268413e+00 2.795208e+00 1.557706e+00 1.706498e+00 7.521554e-01
<GCONST> 9.753310e+01
<MIXTURE> 4 2.500000e-01
<MEAN> 25
 1.161435e-01 -3.718403e+00 -1.956589e+00 -8.004112e-01 -1.030081e+01 -4.116193e+00 1.068650e+00 -4.568001e+00 -3.594718e+00 -3.070765e+00 -3.967866e+00 -3.931796e+00 -3.447824e-01 -4.687480e-01 -4.772834e-01 -4.913344e-01 -8.597284e-01 -6.674460e-01 -8.710270e-01 -6.951991e-01 -7.068540e-01 -6.700988e-01 -5.119137e-01 -5.673608e-01 -3.502917e-01
<VARIANCE> 25
 1.324295e+01 3.422691e+01 3.450400e+01 1.402174e+01 5.864337e+01 4.767826e+01 5.227044e+01 8.599530e+01 3.715938e+01 3.212978e+01 2.748305e+01 1.854819e+01 9.458221e-01 1.470975e+00 1.542900e+00 1.370653e+00 4.616985e+00 3.103607e+00 4.670858e+00 4.197621e+00 3.268413e+00 2.795208e+00 1.557706e+00 1.706498e+00 7.521554e-01
<GCONST> 9.753310e+01
<STATE> 4
<NUMMIXES> 4
<MIXTURE> 1 2.500000e-01
<MEAN> 25
 2.537244e+00 3.122089e+00 3.053050e+00 1.224079e+00 4.054880e+00 2.657551e+00 3.438781e+00 2.409068e+00 2.688786e+00 1.851613e+00 1.073476e+00 2.463997e+00 4.702239e-01 4.553836e-01 5.140828e-01 4.704654e-01 8.281974e-01 6.545431e-01 7.037937e-01 7.243547e-01 6.749222e-01 6.851919e-01 5.973077e-01 6.238184e-01 3.749016e-01
<VARIANCE> 25
 2.313058e+01 3.228094e+01 5.192197e+01 2.523387e+01 1.062951e+02 4.723623e+01 6.194266e+01 4.563485e+01 4.143724e+01 4.385540e+01 3.232891e+01 3.274267e+01 1.458753e+00 1.320658e+00 1.782906e+00 1.399101e+00 3.954622e+00 2.634385e+00 3.096989e+00 3.077732e+00 2.869094e+00 2.907467e+00 2.158896e+00 2.328574e+00 9.353209e-01
<GCONST> 1.005157e+02
<MIXTURE> 2 2.500000e-01
<MEAN> 25
 6.134732e-01 8.494366e-01 1.707742e-01 -7.852542e-01 -6.910086e-02 -9.159338e-02 2.906343e-01 -2.930750e-01 1.139154e-01 -7.973236e-01 -1.200865e+00 1.751491e-01 -1.289152e-02 -4.295960e-03 -2.001923e-02 -2.669051e-03 3.274813e-02 5.311549e-03 -1.368523e-04 2.261606e-02 -2.613842e-03 3.140062e-03 9.580433e-03 1.343179e-02 -1.194640e-02
<VARIANCE> 25
 2.313058e+01 3.228094e+01 5.192197e+01 2.523387e+01 1.062951e+02 4.723623e+01 6.194266e+01 4.563485e+01 4.143724e+01 4.385540e+01 3.232891e+01 3.274267e+01 1.458753e+00 1.320658e+00 1.782906e+00 1.399101e+00 3.954622e+00 2.634385e+00 3.096989e+00 3.077732e+00 2.869094e+00 2.907467e+00 2.158896e+00 2.328574e+00 9.353209e-01
<GCONST> 1.005157e+02
<MIXTURE> 3 2.500000e-01
<MEAN> 25
 6.134731e-01 8.494366e-01 1.707742e-01 -7.852543e-01 -6.910086e-02 -9.159338e-02 2.906343e-01 -2.930750e-01 1.139154e-01 -7.973235e-01 -1.200865e+00 1.751491e-01 -1.289152e-02 -4.295960e-03 -2.001923e-02 -2.669051e-03 3.274813e-02 5.311549e-03 -1.368523e-04 2.261606e-02 -2.613842e-03 3.140062e-03 9.580433e-03 1.343179e-02 -1.194640e-02
<VARIANCE> 25
 2.313058e+01 3.228094e+01 5.192197e+01 2.523387e+01 1.062951e+02 4.723623e+01 6.194266e+01 4.563485e+01 4.143724e+01 4.385540e+01 3.232891e+01 3.274267e+01 1.458753e+00 1.320658e+00 1.782906e+00 1.399101e+00 3.954622e+00 2.634385e+00 3.096989e+00 3.077732e+00 2.869094e+00 2.907467e+00 2.158896e+00 2.328574e+00 9.353209e-01
<GCONST> 1.005157e+02
<MIXTURE> 4 2.500000e-01
<MEAN> 25
 -1.310297e+00 -1.423216e+00 -2.711502e+00 -2.794587e+00 -4.193081e+00 -2.840738e+00 -2.857512e+00 -2.995218e+00 -2.460955e+00 -3.446260e+00 -3.475206e+00 -2.113699e+00 -4.960069e-01 -4.639755e-01 -5.541213e-01 -4.758034e-01 -7.627012e-01 -6.439200e-01 -7.040674e-01 -6.791226e-01 -6.801499e-01 -6.789118e-01 -5.781469e-01 -5.969548e-01 -3.987944e-01
<VARIANCE> 25
 2.313058e+01 3.228094e+01 5.192197e+01 2.523387e+01 1.062951e+02 4.723623e+01 6.194266e+01 4.563485e+01 4.143724e+01 4.385540e+01 3.232891e+01 3.274267e+01 1.458753e+00 1.320658e+00 1.782906e+00 1.399101e+00 3.954622e+00 2.634385e+00 3.096989e+00 3.077732e+00 2.869094e+00 2.907467e+00 2.158896e+00 2.328574e+00 9.353209e-01
<GCONST> 1.005157e+02
<TRANSP> 5
 0.000000e+00 1.000000e+00 0.000000e+00 0.000000e+00 0.000000e+00
 0.000000e+00 9.765554e-01 2.344459e-02 0.000000e+00 0.000000e+00
 0.000000e+00 0.000000e+00 9.866500e-01 1.335000e-02 0.000000e+00
 0.000000e+00 0.000000e+00 0.000000e+00 9.969785e-01 3.021536e-03
 0.000000e+00 0.000000e+00 0.000000e+00 0.000000e+00 0.000000e+00
<ENDHMM>
~h "l1_u"
<BEGINHMM>
<NUMSTATES> 5
<STATE> 2
<NUMMIXES> 4
<MIXTURE> 1 2.500000e-01
<MEAN> 25
 -3.429018e+00 7.389773e+00 -4.891689e-01 3.711958e+00 -1.656662e+00 -7.371947e+00 5.903791e+00 -2.050180e+00 2.570338e+00 3.733636e+00 5.727564e+00 1.536230e+01 7.445121e-01 4.562964e-01 2.657115e-01 2.814819e-01 5.241676e-01 3.178369e-01 1.948746e+00 1.181134e+00 1.000962e+00 7.226981e-01 -6.978148e-02 1.242625e+00 1.943318e-01
<VARIANCE> 25
 6.962496e+00 2.198307e+01 1.027326e+01 9.080737e+00 2.071999e+01 2.176066e+01 5.795681e+01 2.725029e+01 1.503683e+01 4.152999e+01 4.333749e+01 2.720963e+01 1.301441e+00 2.413415e+00 9.844241e-01 1.138625e+00 2.510179e+00 2.136391e+00 6.813254e+00 2.679183e+00 2.176211e+00 3.679597e+00 3.703655e+00 4.632523e+00 1.311602e-01
<GCONST> 9.123288e+01
<MIXTURE> 2 2.500000e-01
<MEAN> 25
 -4.484480e+00 5.514329e+00 -1.771246e+00 2.506588e+00 -3.477431e+00 -9.237880e+00 2.858616e+00 -4.138253e+00 1.019244e+00 1.155885e+00 3.094316e+00 1.327579e+01 2.881892e-01 -1.651104e-01 -1.311611e-01 -1.453436e-01 -1.095742e-01 -2.668191e-01 9.046574e-01 5.264061e-01 4.108829e-01 -4.459295e-02 -8.395768e-01 3.816932e-01 4.946763e-02
<VARIANCE> 25
 6.962496e+00 2.198307e+01 1.027326e+01 9.080737e+00 2.071999e+01 2.176066e+01 5.795681e+01 2.725029e+01 1.503683e+01 4.152999e+01 4.333749e+01 2.720963e+01 1.301441e+00 2.413415e+00 9.844241e-01 1.138625e+00 2.510179e+00 2.136391e+00 6.813254e+00 2.679183e+00 2.176211e+00 3.679597e+00 3.703655e+00 4.632523e+00 1.311602e-01
<GCONST> 9.123288e+01
<MIXTURE> 3 2.500000e-01
<MEAN> 25
 -4.484480e+00 5.514329e+00 -1.771246e+00 2.506588e+00 -3.477431e+00 -9.237880e+00 2.858616e+00 -4.138253e+00 1.019244e+00 1.155885e+00 3.094316e+00 1.327579e+01 2.881892e-01 -1.651104e-01 -1.311611e-01 -1.453436e-01 -1.095742e-01 -2.668191e-01 9.046574e-01 5.264061e-01 4.108829e-01 -4.459295e-02 -8.395768e-01 3.816932e-01 4.946763e-02
<VARIANCE> 25
 6.962496e+00 2.198307e+01 1.027326e+01 9.080737e+00 2.071999e+01 2.176066e+01 5.795681e+01 2.725029e+01 1.503683e+01 4.152999e+01 4.333749e+01 2.720963e+01 1.301441e+00 2.413415e+00 9.844241e-01 1.138625e+00 2.510179e+00 2.136391e+00 6.813254e+00 2.679183e+00 2.176211e+00 3.679597e+00 3.703655e+00 4.632523e+00 1.311602e-01
<GCONST> 9.123288e+01
<MIXTURE> 4 2.500000e-01
<MEAN> 25
 -5.539942e+00 3.638885e+00 -3.053323e+00 1.301218e+00 -5.298200e+00 -1.110381e+01 -1.865587e-01 -6.226326e+00 -5.318501e-01 -1.421866e+00 4.610674e-01 1.118928e+01 -1.681337e-01 -7.865172e-01 -5.280337e-01 -5.721691e-01 -7.433160e-01 -8.514750e-01 -1.394311e-01 -1.283223e-01 -1.791966e-01 -8.118839e-01 -1.609372e+00 -4.792387e-01 -9.539656e-02
<VARIANCE> 25
 6.962496e+00 2.198307e+01 1.027326e+01 9.080737e+00 2.071999e+01 2.176066e+01 5.795681e+01 2.725029e+01 1.503683e+01 4.152999e+01 4.333749e+01 2.720963e+01 1.301441e+00 2.413415e+00 9.844241e-01 1.138625e+00 2.510179e+00 2.136391e+00 6.813254e+00 2.679183e+00 2.176211e+00 3.679597e+00 3.703655e+00 4.632523e+00 1.311602e-01
<GCONST> 9.123288e+01
<STATE> 3
<NUMMIXES> 4
<MIXTURE> 1 2.500000e-01
<MEAN> 25
 4.846555e+00 -2.488874e+00 -2.506553e+00 4.314801e+00 -1.875644e+00 9.444861e-01 9.598195e+00 4.850240e+00 3.942457e+00 1.536251e+00 -4.671229e+00 7.191461e+00 5.705382e-01 3.920388e-01 4.494399e-02 4.968193e-01 5.932994e-01 7.835213e-01 -3.783655e-01 1.545804e-01 3.668898e-01 3.985710e-01 1.085809e+00 -2.153092e-01 -2.047234e-01
<VARIANCE> 25
 1.305841e+01 9.808771e+00 1.610253e+01 1.188030e+01 1.416133e+01 9.381574e+01 5.689405e+01 5.417511e+01 2.947724e+01 2.189544e+01 4.424838e+01 2.696228e+01 1.619635e-01 1.370109e+00 5.080093e-01 1.132481e+00 1.396770e+00 2.764415e+00 2.774701e+00 2.597126e+00 2.336245e+00 1.672766e+00 2.813266e+00 1.775510e+00 1.162687e-01
<GCONST> 8.692013e+01
<MIXTURE> 2 2.500000e-01
<MEAN> 25
 3.401098e+00 -3.741633e+00 -4.111671e+00 2.936088e+00 -3.380906e+00 -2.929855e+00 6.581069e+00 1.906090e+00 1.770739e+00 -3.354513e-01 -7.332007e+00 5.114452e+00 4.095595e-01 -7.616781e-02 -2.401551e-01 7.114701e-02 1.205593e-01 1.184601e-01 -1.044663e+00 -4.900436e-01 -2.445014e-01 -1.187709e-01 4.148972e-01 -7.483023e-01 -3.411162e-01
<VARIANCE> 25
 1.305841e+01 9.808771e+00 1.610253e+01 1.188030e+01 1.416133e+01 9.381574e+01 5.689405e+01 5.417511e+01 2.947724e+01 2.189544e+01 4.424838e+01 2.696228e+01 1.619635e-01 1.370109e+00 5.080093e-01 1.132481e+00 1.396770e+00 2.764415e+00 2.774701e+00 2.597126e+00 2.336245e+00 1.672766e+00 2.813266e+00 1.775510e+00 1.162687e-01
<GCONST> 8.692013e+01
<MIXTURE> 3 2.500000e-01
<MEAN> 25
 3.401098e+00 -3.741633e+00 -4.111671e+00 2.936088e+00 -3.380906e+00 -2.929855e+00 6.581069e+00 1.906090e+00 1.770739e+00 -3.354513e-01 -7.332007e+00 5.114451e+00 4.095595e-01 -7.616781e-02 -2.401551e-01 7.114699e-02 1.205593e-01 1.184601e-01 -1.044663e+00 -4.900436e-01 -2.445014e-01 -1.187709e-01 4.148972e-01 -7.483023e-01 -3.411162e-01
<VARIANCE> 25
 1.305841e+01 9.808771e+00 1.610253e+01 1.188030e+01 1.416133e+01 9.381574e+01 5.689405e+01 5.417511e+01 2.947724e+01 2.189544e+01 4.424838e+01 2.696228e+01 1.619635e-01 1.370109e+00 5.080093e-01 1.132481e+00 1.396770e+00 2.764415e+00 2.774701e+00 2.597126e+00 2.336245e+00 1.672766e+00 2.813266e+00 1.775510e+00 1.162687e-01
<GCONST> 8.692013e+01
<MIXTURE> 4 2.500000e-01
<MEAN> 25
 1.955641e+00 -4.994391e+00 -5.716789e+00 1.557376e+00 -4.886168e+00 -6.804196e+00 3.563943e+00 -1.038060e+00 -4.009789e-01 -2.207154e+00 -9.992785e+00 3.037443e+00 2.485808e-01 -5.443744e-01 -5.252542e-01 -3.545253e-01 -3.521808e-01 -5.466012e-01 -1.710960e+00 -1.134668e+00 -8.558927e-01 -6.361127e-01 -2.560145e-01 -1.281295e+00 -4.775090e-01
<VARIANCE> 25
 1.305841e+01 9.808771e+00 1.610253e+01 1.188030e+01 1.416133e+01 9.381574e+01 5.689405e+01 5.417511e+01 2.947724e+01 2.189544e+01 4.424838e+01 2.696228e+01 1.619635e-01 1.370109e+00 5.080093e-01 1.132481e+00 1.396770e+00 2.764415e+00 2.774701e+00 2.597126e+00 2.336245e+00 1.672766e+00 2.813266e+00 1.775510e+00 1.162687e-01
<GCONST> 8.692013e+01
<STATE> 4
<NUMMIXES> 4
<MIXTURE> 1 2.500000e-01
<MEAN> 25
 5.076890e+00 2.410899e+00 -2.682679e-01 -1.603201e-01 4.310001e+00 4.422468e+00 1.563730e+00 -7.379675e-01 3.539315e+00 2.017886e+00 6.960974e-01 -2.514678e+00 3.019155e-01 3.715084e-01 5.069081e-01 4.544771e-01 7.854857e-01 7.182750e-01 7.594156e-01 7.026140e-01 7.598215e-01 6.467990e-01 6.587031e-01 4.892139e-01 3.191035e-01
<VARIANCE> 25
 1.791336e+01 1.785622e+01 3.435909e+01 2.142208e+01 9.029141e+01 4.830042e+01 5.668357e+01 3.485351e+01 4.911148e+01 4.078917e+01 2.664192e+01 2.585839e+01 1.002874e+00 6.526534e-01 1.349269e+00 1.548070e+00 3.485690e+00 2.714065e+00 3.544694e+00 2.511466e+00 3.620413e+00 2.316440e+00 2.485498e+00 1.919182e+00 5.057489e-01
<GCONST> 9.617632e+01
<MIXTURE> 2 2.500000e-01
<MEAN> 25
 3.383923e+00 7.206340e-01 -2.612933e+00 -2.011680e+00 5.091289e-01 1.642528e+00 -1.447810e+00 -3.099442e+00 7.361321e-01 -5.367696e-01 -1.368535e+00 -4.548724e+00 -9.865892e-02 4.836054e-02 4.227598e-02 -4.320875e-02 3.868565e-02 5.929822e-02 6.321281e-03 6.870979e-02 -1.273811e-03 3.800482e-02 2.808455e-02 -6.492424e-02 3.463939e-02
<VARIANCE> 25
 1.791336e+01 1.785622e+01 3.435909e+01 2.142208e+01 9.029141e+01 4.830042e+01 5.668357e+01 3.485351e+01 4.911148e+01 4.078917e+01 2.664192e+01 2.585839e+01 1.002874e+00 6.526534e-01 1.349269e+00 1.548070e+00 3.485690e+00 2.714065e+00 3.544694e+00 2.511466e+00 3.620413e+00 2.316440e+00 2.485498e+00 1.919182e+00 5.057489e-01
<GCONST> 9.617632e+01
<MIXTURE> 3 2.500000e-01
<MEAN> 25
 3.383923e+00 7.206339e-01 -2.612933e+00 -2.011680e+00 5.091290e-01 1.642528e+00 -1.447810e+00 -3.099442e+00 7.361320e-01 -5.367696e-01 -1.368535e+00 -4.548724e+00 -9.865893e-02 4.836054e-02 4.227597e-02 -4.320875e-02 3.868565e-02 5.929822e-02 6.321281e-03 6.870979e-02 -1.273811e-03 3.800482e-02 2.808455e-02 -6.492424e-02 3.463939e-02
<VARIANCE> 25
 1.791336e+01 1.785622e+01 3.435909e+01 2.142208e+01 9.029141e+01 4.830042e+01 5.668357e+01 3.485351e+01 4.911148e+01 4.078917e+01 2.664192e+01 2.585839e+01 1.002874e+00 6.526534e-01 1.349269e+00 1.548070e+00 3.485690e+00 2.714065e+00 3.544694e+00 2.511466e+00 3.620413e+00 2.316440e+00 2.485498e+00 1.919182e+00 5.057489e-01
<GCONST> 9.617632e+01
<MIXTURE> 4 2.500000e-01
<MEAN> 25
 1.690956e+00 -9.696308e-01 -4.957598e+00 -3.863040e+00 -3.291743e+00 -1.137412e+00 -4.459350e+00 -5.460917e+00 -2.067051e+00 -3.091426e+00 -3.433167e+00 -6.582770e+00 -4.992333e-01 -2.747873e-01 -4.223562e-01 -5.408946e-01 -7.081145e-01 -5.996786e-01 -7.467730e-01 -5.651944e-01 -7.623692e-01 -5.707894e-01 -6.025339e-01 -6.190624e-01 -2.498247e-01
<VARIANCE> 25
 1.791336e+01 1.785622e+01 3.435909e+01 2.142208e+01 9.029141e+01 4.830042e+01 5.668357e+01 3.485351e+01 4.911148e+01 4.078917e+01 2.664192e+01 2.585839e+01 1.002874e+00 6.526534e-01 1.349269e+00 1.548070e+00 3.485690e+00 2.714065e+00 3.544694e+00 2.511466e+00 3.620413e+00 2.316440e+00 2.485498e+00 1.919182e+00 5.057489e-01
<GCONST> 9.617632e+01
<TRANSP> 5
 0.000000e+00 1.000000e+00 0.000000e+00 0.000000e+00 0.000000e+00
 0.000000e+00 9.487132e-01 5.128674e-02 0.000000e+00 0.000000e+00
 0.000000e+00 0.000000e+00 9.486874e-01 5.131258e-02 0.000000e+00
 0.000000e+00 0.000000e+00 0.000000e+00 9.896590e-01 1.034100e-02
 0.000000e+00 0.000000e+00 0.000000e+00 0.000000e+00 0.000000e+00
<ENDHMM>
~h "l2_i"
<BEGINHMM>
<NUMSTATES> 5
<STATE> 2
<NUMMIXES> 4
<MIXTURE> 1 2.500000e-01
<MEAN> 25
 1.496497e+00 -1.674460e+00 2.335591e-01 4.492230e+00 2.032562e+00 -6.433032e-01 4.562590e+00 2.304611e+00 8.669844e-01 -3.938763e-01 9.829116e-02 4.917463e+00 3.990077e-01 1.464154e-01 2.566084e-01 6.139773e-01 1.358571e+00 1.251089e+00 9.792073e-01 9.196335e-01 1.667976e+00 5.661327e-01 5.968740e-01 8.002594e-01 6.984992e-01
<VARIANCE> 25
 1.288096e+01 3.223394e+01 3.066291e+01 1.378971e+01 5.674177e+01 3.775810e+01 6.641092e+01 8.951685e+01 5.886032e+01 3.348907e+01 3.724997e+01 2.959730e+01 1.037241e+00 2.036078e+00 1.901603e+00 1.608917e+00 7.181170e+00 4.208341e+00 7.730708e+00 5.201142e+00 8.043127e+00 2.959124e+00 4.851946e+00 3.034787e+00 1.745959e+00
<GCONST> 1.043594e+02
<MIXTURE> 2 2.500000e-01
<MEAN> 25
 6.089497e-02 -3.945458e+00 -1.981405e+00 3.006850e+00 -9.805236e-01 -3.101208e+00 1.302874e+00 -1.479923e+00 -2.201835e+00 -2.708666e+00 -2.343019e+00 2.741327e+00 -8.372456e-03 -4.243495e-01 -2.949861e-01 1.066049e-01 2.866631e-01 4.305193e-01 -1.329587e-01 7.393003e-03 5.335596e-01 -1.219515e-01 -2.842113e-01 1.034337e-01 1.699602e-01
<VARIANCE> 25
 1.288096e+01 3.223394e+01 3.066291e+01 1.378971e+01 5.674177e+01 3.775810e+01 6.641092e+01 8.951685e+01 5.886032e+01 3.348907e+01 3.724997e+01 2.959730e+01 1.037241e+00 2.036078e+00 1.901603e+00 1.608917e+00 7.181170e+00 4.208341e+00 7.730708e+00 5.201142e+00 8.043127e+00 2.959124e+00 4.851946e+00 3.034787e+00 1.745959e+00
<GCONST> 1.043594e+02
<MIXTURE> 3 2.500000e-01
<MEAN> 25
 6.089497e-02 -3.945458e+00 -1.981405e+00 3.006850e+00 -9.805237e-01 -3.101208e+00 1.302874e+00 -1.479923e+00 -2.201835e+00 -2.708666e+00 -2.343019e+00 2.741327e+00 -8.372456e-03 -4.243495e-01 -2.949861e-01 1.066049e-01 2.866631e-01 4.305193e-01 -1.329587e-01 7.393003e-03 5.335597e-01 -1.219515e-01 -2.842113e-01 1.034337e-01 1.699602e-01
<VARIANCE> 25
 1.288096e+01 3.223394e+01 3.066291e+01 1.378971e+01 5.674177e+01 3.775810e+01 6.641092e+01 8.951685e+01 5.886032e+01 3.348907e+01 3.724997e+01 2.959730e+01 1.037241e+00 2.036078e+00 1.901603e+00 1.608917e+00 7.181170e+00 4.208341e+00 7.730708e+00 5.201142e+00 8.043127e+00 2.959124e+00 4.851946e+00 3.034787e+00 1.745959e+00
<GCONST> 1.043594e+02
<MIXTURE> 4 2.500000e-01
<MEAN> 25
 -1.374707e+00 -6.216456e+00 -4.196369e+00 1.521470e+00 -3.993609e+00 -5.559113e+00 -1.956842e+00 -5.264457e+00 -5.270654e+00 -5.023456e+00 -4.784329e+00 5.651910e-01 -4.157526e-01 -9.951143e-01 -8.465806e-01 -4.007675e-01 -7.852452e-01 -3.900504e-01 -1.245125e+00 -9.048475e-01 -6.008567e-01 -8.100357e-01 -1.165297e+00 -5.933919e-01 -3.585788e-01
<VARIANCE> 25
 1.288096e+01 3.223394e+01 3.066291e+01 1.378971e+01 5.674177e+01 3.775810e+01 6.641092e+01 8.951685e+01 5.886032e+01 3.348907e+01 3.724997e+01 2.959730e+01 1.037241e+00 2.036078e+00 1.901603e+00 1.608917e+00 7.181170e+00 4.208341e+00 7.730708e+00 5.201142e+00 8.043127e+00 2.959124e+00 4.851946e+00 3.034787e+00 1.745959e+00
<GCONST> 1.043594e+02
<STATE> 3
<NUMMIXES> 4
<MIXTURE> 1 2.500000e-01
<MEAN> 25
 3.019753e+00 -1.734229e+00 -2.069528e+00 2.949775e+00 5.037220e+00 3.321555e+00 3.027665e+00 2.274887e+00 4.092452e+00 3.324306e-01 -1.377952e+00 2.898906e+00 3.399938e-01 7.480030e-01 7.169804e-01 3.629732e-01 6.228367e-01 5.173375e-01 9.168684e-01 7.674631e-01 8.171636e-01 7.545639e-01 7.726402e-01 6.089081e-01 2.743126e-01
<VARIANCE> 25
 1.128528e+01 2.227552e+01 2.076561e+01 1.125585e+01 6.148452e+01 2.816916e+01 5.815218e+01 4.631861e+01 5.118153e+01 2.640304e+01 2.637413e+01 3.082302e+01 7.895147e-01 1.554699e+00 1.426948e+00 1.146020e+00 6.418143e+00 3.077594e+00 3.393951e+00 4.408664e+00 4.262759e+00 2.608390e+00 2.211106e+00 2.725852e+00 8.062317e-01
<GCONST> 9.656838e+01
<MIXTURE> 2 2.500000e-01
<MEAN> 25
 1.676010e+00 -3.622107e+00 -3.892300e+00 1.607785e+00 1.900737e+00 1.198570e+00 -2.263784e-02 -4.474244e-01 1.230801e+00 -1.722925e+00 -3.432182e+00 6.781663e-01 -1.542473e-02 2.492527e-01 2.391607e-01 -6.523606e-02 -3.905255e-01 -1.843854e-01 1.799612e-01 -7.240966e-02 -8.694410e-03 1.085434e-01 1.778487e-01 -5.149809e-02 -8.484897e-02
<VARIANCE> 25
 1.128528e+01 2.227552e+01 2.076561e+01 1.125585e+01 6.148452e+01 2.816916e+01 5.815218e+01 4.631861e+01 5.118153e+01 2.640304e+01 2.637413e+01 3.082302e+01 7.895147e-01 1.554699e+00 1.426948e+00 1.146020e+00 6.418143e+00 3.077594e+00 3.393951e+00 4.408664e+00 4.262759e+00 2.608390e+00 2.211106e+00 2.725852e+00 8.062317e-01
<GCONST> 9.656838e+01
<MIXTURE> 3 2.500000e-01
<MEAN> 25
 1.676010e+00 -3.622107e+00 -3.892300e+00 1.607785e+00 1.900737e+00 1.198570e+00 -2.263784e-02 -4.474244e-01 1.230801e+00 -1.722925e+00 -3.432182e+00 6.781663e-01 -1.542473e-02 2.492527e-01 2.391607e-01 -6.523606e-02 -3.905255e-01 -1.843854e-01 1.799612e-01 -7.240966e-02 -8.694410e-03 1.085434e-01 1.778487e-01 -5.149809e-02 -8.484896e-02
<VARIANCE> 25
 1.128528e+01 2.227552e+01 2.076561e+01 1.125585e+01 6.148452e+01 2.816916e+01 5.815218e+01 4.631861e+01 5.118153e+01 2.640304e+01 2.637413e+01 3.082302e+01 7.895147e-01 1.554699e+00 1.426948e+00 1.146020e+00 6.418143e+00 3.077594e+00 3.393951e+00 4.408664e+00 4.262759e+00 2.608390e+00 2.211106e+00 2.725852e+00 8.062317e-01
<GCONST> 9.656838e+01
<MIXTURE> 4 2.500000e-01
<MEAN> 25
 3.322672e-01 -5.509985e+00 -5.715072e+00 2.657954e-01 -1.235746e+00 -9.244151e-01 -3.072941e+00 -3.169736e+00 -1.630850e+00 -3.778280e+00 -5.486412e+00 -1.542573e+00 -3.708433e-01 -2.494976e-01 -2.386590e-01 -4.934454e-01 -1.403888e+00 -8.861083e-01 -5.569460e-01 -9.122825e-01 -8.345525e-01 -5.374771e-01 -4.169428e-01 -7.119043e-01 -4.440106e-01
<VARIANCE> 25
 1.128528e+01 2.227552e+01 2.076561e+01 1.125585e+01 6.148452e+01 2.816916e+01 5.815218e+01 4.631861e+01 5.118153e+01 2.640304e+01 2.637413e+01 3.082302e+01 7.895147e-01 1.554699e+00 1.426948e+00 1.146020e+00 6.418143e+00 3.077594e+00 3.393951e+00 4.408664e+00 4.262759e+00 2.608390e+00 2.211106e+00 2.725852e+00 8.062317e-01
<GCONST> 9.656838e+01
<STATE> 4
<NUMMIXES> 4
<MIXTURE> 1 2.500000e-01
<MEAN> 25
 1.135910e+00 5.395174e+00 5.295455e+00 -3.088449e-01 2.406688e+00 8.475597e-01 4.316006e-01 3.678701e+00 1.875643e+00 3.235102e+00 2.326200e+00 -1.797111e+00 8.313869e-01 6.042341e-01 6.676893e-01 4.353039e-01 1.156386e+00 7.575702e-01 6.830990e-01 8.076704e-01 6.442565e-01 5.335061e-01 5.786816e-01 5.099857e-01 4.334813e-01
<VARIANCE> 25
 5.432185e+01 2.291799e+01 3.536004e+01 1.586692e+01 7.254523e+01 4.834076e+01 3.583562e+01 3.871300e+01 2.620688e+01 3.192632e+01 3.330972e+01 2.048427e+01 4.239336e+00 2.325063e+00 2.339766e+00 1.212574e+00 6.269681e+00 2.888021e+00 3.317561e+00 3.104396e+00 3.086147e+00 2.532631e+00 2.227131e+00 1.978081e+00 1.145748e+00
<GCONST> 1.002905e+02
<MIXTURE> 2 2.500000e-01
<MEAN> 25
 -1.812224e+00 3.480264e+00 2.916883e+00 -1.902177e+00 -1.000251e+00 -1.933541e+00 -1.962914e+00 1.189910e+00 -1.720639e-01 9.749665e-01 1.761758e-02 -3.607493e+00 7.800967e-03 -5.692214e-03 5.583751e-02 -5.163878e-03 1.548126e-01 7.780308e-02 -4.546788e-02 1.028985e-01 -5.844089e-02 -1.030636e-01 -1.826140e-02 -5.259138e-02 5.322769e-03
<VARIANCE> 25
 5.432185e+01 2.291799e+01 3.536004e+01 1.586692e+01 7.254523e+01 4.834076e+01 3.583562e+01 3.871300e+01 2.620688e+01 3.192632e+01 3.330972e+01 2.048427e+01 4.239336e+00 2.325063e+00 2.339766e+00 1.212574e+00 6.269681e+00 2.888021e+00 3.317561e+00 3.104396e+00 3.086147e+00 2.532631e+00 2.227131e+00 1.978081e+00 1.145748e+00
<GCONST> 1.002905e+02
<MIXTURE> 3 2.500000e-01
<MEAN> 25
 -1.812224e+00 3.480264e+00 2.916883e+00 -1.902177e+00 -1.000251e+00 -1.933541e+00 -1.962914e+00 1.189910e+00 -1.720639e-01 9.749665e-01 1.761758e-02 -3.607493e+00 7.800967e-03 -5.692214e-03 5.583751e-02 -5.163878e-03 1.548126e-01 7.780308e-02 -4.546788e-02 1.028985e-01 -5.844089e-02 -1.030636e-01 -1.826140e-02 -5.259138e-02 5.322769e-03
<VARIANCE> 25
 5.432185e+01 2.291799e+01 3.536004e+01 1.586692e+01 7.254523e+01 4.834076e+01 3.583562e+01 3.871300e+01 2.620688e+01 3.192632e+01 3.330972e+01 2.048427e+01 4.239336e+00 2.325063e+00 2.339766e+00 1.212574e+00 6.269681e+00 2.888021e+00 3.317561e+00 3.104396e+00 3.086147e+00 2.532631e+00 2.227131e+00 1.978081e+00 1.145748e+00
<GCONST> 1.002905e+02
<MIXTURE> 4 2.500000e-01
<MEAN> 25
 -4.760358e+00 1.565355e+00 5.383108e-01 -3.495509e+00 -4.407190e+00 -4.714642e+00 -4.357429e+00 -1.298881e+00 -2.219770e+00 -1.285169e+00 -2.290966e+00 -5.417875e+00 -8.157849e-01 -6.156185e-01 -5.560142e-01 -4.456316e-01 -8.467606e-01 -6.019641e-01 -7.740349e-01 -6.018734e-01 -7.611382e-01 -7.396333e-01 -6.152045e-01 -6.151685e-01 -4.228357e-01
<VARIANCE> 25
 5.432185e+01 2.291799e+01 3.536004e+01 1.586692e+01 7.254523e+01 4.834076e+01 3.583562e+01 3.871300e+01 2.620688e+01 3.192632e+01 3.330972e+01 2.048427e+01 4.239336e+00 2.325063e+00 2.339766e+00 1.212574e+00 6.269681e+00 2.888021e+00 3.317561e+00 3.104396e+00 3.086147e+00 2.532631e+00 2.227131e+00 1.978081e+00 1.145748e+00
<GCONST> 1.002905e+02
<TRANSP> 5
 0.000000e+00 1.000000e+00 0.000000e+00 0.000000e+00 0.000000e+00
 0.000000e+00 9.380267e-01 6.197330e-02 0.000000e+00 0.000000e+00
 0.000000e+00 0.000000e+00 9.701280e-01 2.987199e-02 0.000000e+00
 0.000000e+00 0.000000e+00 0.000000e+00 9.742604e-01 2.573956e-02
 0.000000e+00 0.000000e+00 0.000000e+00 0.000000e+00 0.000000e+00
<ENDHMM>
~h "l2_u"
<BEGINHMM>
<NUMSTATES> 5
<STATE> 2
<NUMMIXES> 4
<MIXTURE> 1 2.500000e-01
<MEAN> 25
 2.326456e+00 2.409325e+00 2.713123e+00 1.916039e+00 3.815864e+00 2.702270e+00 3.055406e+00 3.002023e+00 2.351779e+00 2.531341e+00 2.550657e+00 2.722422e+00 5.187306e-01 4.796010e-01 5.341285e-01 5.027944e-01 8.467722e-01 6.916685e-01 7.739193e-01 7.069261e-01 6.734635e-01 6.694033e-01 6.500388e-01 6.253551e-01 3.988836e-01
<VARIANCE> 25
 3.382748e+01 3.628031e+01 4.600648e+01 2.294502e+01 9.100511e+01 4.563913e+01 5.834692e+01 5.632589e+01 3.456791e+01 4.004803e+01 4.066158e+01 4.632240e+01 1.656153e+00 1.407841e+00 1.798202e+00 1.585461e+00 4.502382e+00 2.970210e+00 3.744460e+00 3.177201e+00 2.837936e+00 2.797859e+00 2.639533e+00 2.465156e+00 1.004578e+00
<GCONST> 1.021376e+02
<MIXTURE> 2 2.500000e-01
<MEAN> 25
 0.000000e+00 -2.384186e-07 0.000000e+00 1.192093e-07 0.000000e+00 1.192093e-07 -1.192093e-07 1.192093e-07 -1.192093e-07 -1.192093e-07 1.192093e-07 0.000000e+00 3.964186e-03 4.991040e-03 -2.259731e-03 -8.660257e-04 -1.980513e-03 2.296597e-03 -1.050234e-04 -6.062090e-03 -3.834367e-04 3.311932e-04 1.732409e-04 -2.677500e-03 -2.030909e-03
<VARIANCE> 25
 3.382748e+01 3.628031e+01 4.600648e+01 2.294502e+01 9.100511e+01 4.563913e+01 5.834692e+01 5.632589e+01 3.456791e+01 4.004803e+01 4.066158e+01 4.632240e+01 1.656153e+00 1.407841e+00 1.798202e+00 1.585461e+00 4.502382e+00 2.970210e+00 3.744460e+00 3.177201e+00 2.837936e+00 2.797859e+00 2.639533e+00 2.465156e+00 1.004578e+00
<GCONST> 1.021376e+02
<MIXTURE> 3 2.500000e-01
<MEAN> 25
 0.000000e+00 -2.384186e-07 0.000000e+00 1.192093e-07 0.000000e+00 1.192093e-07 -1.192093e-07 1.192093e-07 -1.192093e-07 -1.192093e-07 1.192093e-07 0.000000e+00 3.964186e-03 4.991040e-03 -2.259731e-03 -8.660257e-04 -1.980513e-03 2.296597e-03 -1.050234e-04 -6.062090e-03 -3.834367e-04 3.311932e-04 1.732409e-04 -2.677500e-03 -2.030909e-03
<VARIANCE> 25
 3.382748e+01 3.628031e+01 4.600648e+01 2.294502e+01 9.100511e+01 4.563913e+01 5.834692e+01 5.632589e+01 3.456791e+01 4.004803e+01 4.066158e+01 4.632240e+01 1.656153e+00 1.407841e+00 1.798202e+00 1.585461e+00 4.502382e+00 2.970210e+00 3.744460e+00 3.177201e+00 2.837936e+00 2.797859e+00 2.639533e+00 2.465156e+00 1.004578e+00
<GCONST> 1.021376e+02
<MIXTURE> 4 2.500000e-01
<MEAN> 25
 -2.326456e+00 -2.409326e+00 -2.713123e+00 -1.916038e+00 -3.815864e+00 -2.702270e+00 -3.055407e+00 -3.002023e+00 -2.351779e+00 -2.531341e+00 -2.550657e+00 -2.722422e+00 -5.108023e-01 -4.696189e-01 -5.386479e-01 -5.045264e-01 -8.507332e-01 -6.870753e-01 -7.741293e-01 -7.190503e-01 -6.742304e-01 -6.687409e-01 -6.496924e-01 -6.307101e-01 -4.029455e-01
<VARIANCE> 25
 3.382748e+01 3.628031e+01 4.600648e+01 2.294502e+01 9.100511e+01 4.563913e+01 5.834692e+01 5.632589e+01 3.456791e+01 4.004803e+01 4.066158e+01 4.632240e+01 1.656153e+00 1.407841e+00 1.798202e+00 1.585461e+00 4.502382e+00 2.970210e+00 3.744460e+00 3.177201e+00 2.837936e+00 2.797859e+00 2.639533e+00 2.465156e+00 1.004578e+00
<GCONST> 1.021376e+02
<STATE> 3
<NUMMIXES> 4
<MIXTURE> 1 2.500000e-01
<MEAN> 25
 2.326456e+00 2.409325e+00 2.713123e+00 1.916039e+00 3.815864e+00 2.702270e+00 3.055406e+00 3.002023e+00 2.351779e+00 2.531341e+00 2.550657e+00 2.722422e+00 5.187306e-01 4.796010e-01 5.341285e-01 5.027944e-01 8.467722e-01 6.916685e-01 7.739193e-01 7.069261e-01 6.734635e-01 6.694033e-01 6.500388e-01 6.253551e-01 3.988836e-01
<VARIANCE> 25
 3.382748e+01 3.628031e+01 4.600648e+01 2.294502e+01 9.100511e+01 4.563913e+01 5.834692e+01 5.632589e+01 3.456791e+01 4.004803e+01 4.066158e+01 4.632240e+01 1.656153e+00 1.407841e+00 1.798202e+00 1.585461e+00 4.502382e+00 2.970210e+00 3.744460e+00 3.177201e+00 2.837936e+00 2.797859e+00 2.639533e+00 2.465156e+00 1.004578e+00
<GCONST> 1.021376e+02
<MIXTURE> 2 2.500000e-01
<MEAN> 25
 0.000000e+00 -2.384186e-07 0.000000e+00 1.192093e-07 0.000000e+00 1.192093e-07 -1.192093e-07 1.192093e-07 -1.192093e-07 -1.192093e-07 1.192093e-07 0.000000e+00 3.964186e-03 4.991040e-03 -2.259731e-03 -8.660257e-04 -1.980513e-03 2.296597e-03 -1.050234e-04 -6.062090e-03 -3.834367e-04 3.311932e-04 1.732409e-04 -2.677500e-03 -2.030909e-03
<VARIANCE> 25
 3.382748e+01 3.628031e+01 4.600648e+01 2.294502e+01 9.100511e+01 4.563913e+01 5.834692e+01 5.632589e+01 3.456791e+01 4.004803e+01 4.066158e+01 4.632240e+01 1.656153e+00 1.407841e+00 1.798202e+00 1.585461e+00 4.502382e+00 2.970210e+00 3.744460e+00 3.177201e+00 2.837936e+00 2.797859e+00 2.639533e+00 2.465156e+00 1.004578e+00
<GCONST> 1.021376e+02
<MIXTURE> 3 2.500000e-01
<MEAN> 25
 0.000000e+00 -2.384186e-07 0.000000e+00 1.192093e-07 0.000000e+00 1.192093e-07 -1.192093e-07 1.192093e-07 -1.192093e-07 -1.192093e-07 1.192093e-07 0.000000e+00 3.964186e-03 4.991040e-03 -2.259731e-03 -8.660257e-04 -1.980513e-03 2.296597e-03 -1.050234e-04 -6.062090e-03 -3.834367e-04 3.311932e-04 1.732409e-04 -2.677500e-03 -2.030909e-03
<VARIANCE> 25
 3.382748e+01 3.628031e+01 4.600648e+01 2.294502e+01 9.100511e+01 4.563913e+01 5.834692e+01 5.632589e+01 3.456791e+01 4.004803e+01 4.066158e+01 4.632240e+01 1.656153e+00 1.407841e+00 1.798202e+00 1.585461e+00 4.502382e+00 2.970210e+00 3.744460e+00 3.177201e+00 2.837936e+00 2.797859e+00 2.639533e+00 2.465156e+00 1.004578e+00
<GCONST> 1.021376e+02
<MIXTURE> 4 2.500000e-01
<MEAN> 25
 -2.326456e+00 -2.409326e+00 -2.713123e+00 -1.916038e+00 -3.815864e+00 -2.702270e+00 -3.055407e+00 -3.002023e+00 -2.351779e+00 -2.531341e+00 -2.550657e+00 -2.722422e+00 -5.108023e-01 -4.696189e-01 -5.386479e-01 -5.045264e-01 -8.507332e-01 -6.870753e-01 -7.741293e-01 -7.190503e-01 -6.742304e-01 -6.687409e-01 -6.496924e-01 -6.307101e-01 -4.029455e-01
<VARIANCE> 25
 3.382748e+01 3.628031e+01 4.600648e+01 2.294502e+01 9.100511e+01 4.563913e+01 5.834692e+01 5.632589e+01 3.456791e+01 4.004803e+01 4.066158e+01 4.632240e+01 1.656153e+00 1.407841e+00 1.798202e+00 1.585461e+00 4.502382e+00 2.970210e+00 3.744460e+00 3.177201e+00 2.837936e+00 2.797859e+00 2.639533e+00 2.465156e+00 1.004578e+00
<GCONST> 1.021376e+02
<STATE> 4
<NUMMIXES> 4
<MIXTURE> 1 2.500000e-01
<MEAN> 25
 2.326456e+00 2.409325e+00 2.713123e+00 1.916039e+00 3.815864e+00 2.702270e+00 3.055406e+00 3.002023e+00 2.351779e+00 2.531341e+00 2.550657e+00 2.722422e+00 5.187306e-01 4.796010e-01 5.341285e-01 5.027944e-01 8.467722e-01 6.916685e-01 7.739193e-01 7.069261e-01 6.734635e-01 6.694033e-01 6.500388e-01 6.253551e-01 3.988836e-01
<VARIANCE> 25
 3.382748e+01 3.628031e+01 4.600648e+01 2.294502e+01 9.100511e+01 4.563913e+01 5.834692e+01 5.632589e+01 3.456791e+01 4.004803e+01 4.066158e+01 4.632240e+01 1.656153e+00 1.407841e+00 1.798202e+00 1.585461e+00 4.502382e+00 2.970210e+00 3.744460e+00 3.177201e+00 2.837936e+00 2.797859e+00 2.639533e+00 2.465156e+00 1.004578e+00
<GCONST> 1.021376e+02
<MIXTURE> 2 2.500000e-01
<MEAN> 25
 0.000000e+00 -2.384186e-07 0.000000e+00 1.192093e-07 0.000000e+00 1.192093e-07 -1.192093e-07 1.192093e-07 -1.192093e-07 -1.192093e-07 1.192093e-07 0.000000e+00 3.964186e-03 4.991040e-03 -2.259731e-03 -8.660257e-04 -1.980513e-03 2.296597e-03 -1.050234e-04 -6.062090e-03 -3.834367e-04 3.311932e-04 1.732409e-04 -2.677500e-03 -2.030909e-03
<VARIANCE> 25
 3.382748e+01 3.628031e+01 4.600648e+01 2.294502e+01 9.100511e+01 4.563913e+01 5.834692e+01 5.632589e+01 3.456791e+01 4.004803e+01 4.066158e+01 4.632240e+01 1.656153e+00 1.407841e+00 1.798202e+00 1.585461e+00 4.502382e+00 2.970210e+00 3.744460e+00 3.177201e+00 2.837936e+00 2.797859e+00 2.639533e+00 2.465156e+00 1.004578e+00
<GCONST> 1.021376e+02
<MIXTURE> 3 2.500000e-01
<MEAN> 25
 0.000000e+00 -2.384186e-07 0.000000e+00 1.192093e-07 0.000000e+00 1.192093e-07 -1.192093e-07 1.192093e-07 -1.192093e-07 -1.192093e-07 1.192093e-07 0.000000e+00 3.964186e-03 4.991040e-03 -2.259731e-03 -8.660257e-04 -1.980513e-03 2.296597e-03 -1.050234e-04 -6.062090e-03 -3.834367e-04 3.311932e-04 1.732409e-04 -2.677500e-03 -2.030909e-03
<VARIANCE> 25
 3.382748e+01 3.628031e+01 4.600648e+01 2.294502e+01 9.100511e+01 4.563913e+01 5.834692e+01 5.632589e+01 3.456791e+01 4.004803e+01 4.066158e+01 4.632240e+01 1.656153e+00 1.407841e+00 1.798202e+00 1.585461e+00 4.502382e+00 2.970210e+00 3.744460e+00 3.177201e+00 2.837936e+00 2.797859e+00 2.639533e+00 2.465156e+00 1.004578e+00
<GCONST> 1.021376e+02
<MIXTURE> 4 2.500000e-01
<MEAN> 25
 -2.326456e+00 -2.409326e+00 -2.713123e+00 -1.916038e+00 -3.815864e+00 -2.702270e+00 -3.055407e+00 -3.002023e+00 -2.351779e+00 -2.531341e+00 -2.550657e+00 -2.722422e+00 -5.108023e-01 -4.696189e-01 -5.386479e-01 -5.045264e-01 -8.507332e-01 -6.870753e-01 -7.741293e-01 -7.190503e-01 -6.742304e-01 -6.687409e-01 -6.496924e-01 -6.307101e-01 -4.029455e-01
<VARIANCE> 25
 3.382748e+01 3.628031e+01 4.600648e+01 2.294502e+01 9.100511e+01 4.563913e+01 5.834692e+01 5.632589e+01 3.456791e+01 4.004803e+01 4.066158e+01 4.632240e+01 1.656153e+00 1.407841e+00 1.798202e+00 1.585461e+00 4.502382e+00 2.970210e+00 3.744460e+00 3.177201e+00 2.837936e+00 2.797859e+00 2.639533e+00 2.465156e+00 1.004578e+00
<GCONST> 1.021376e+02
<TRANSP> 5
 0.000000e+00 1.000000e+00 0.000000e+00 0.000000e+00 0.000000e+00
 0.000000e+00 6.000000e-01 4.000000e-01 0.000000e+00 0.000000e+00
 0.000000e+00 0.000000e+00 6.000000e-01 4.000000e-01 0.000000e+00
 0.000000e+00 0.000000e+00 0.000000e+00 7.000000e-01 3.000000e-01
 0.000000e+00 0.000000e+00 0.000000e+00 0.000000e+00 0.000000e+00
<ENDHMM>
~h "l3_i"
<BEGINHMM>
<NUMSTATES> 5
<STATE> 2
<NUMMIXES> 4
<MIXTURE> 1 2.500000e-01
<MEAN> 25
 3.574266e+00 1.405913e+00 -8.993657e+00 -4.300614e+00 1.898654e+01 8.705037e+00 2.415731e+00 2.607966e+00 1.507571e+00 1.589236e+00 2.263091e+00 1.364017e+00 6.138276e-02 4.564660e-01 1.733562e-01 -4.125097e-02 2.292648e+00 8.379647e-01 -4.683348e-01 1.012089e+00 6.376740e-01 4.387765e-01 1.549499e+00 2.795135e-01 1.387262e-02
<VARIANCE> 25
 3.043354e+00 2.410960e+01 2.761049e+00 2.204959e+01 2.796693e+01 1.861378e+01 4.899411e+01 1.913069e+01 1.427979e+01 1.237733e+01 2.998819e+01 4.160533e+00 4.120062e-01 6.902449e-01 5.464962e-01 7.881933e-01 4.672738e+00 1.763244e+00 5.878385e+00 2.921447e+00 3.234636e+00 2.099164e+00 2.729265e+00 6.075922e-01 1.101223e-01
<GCONST> 8.051815e+01
<MIXTURE> 2 2.500000e-01
<MEAN> 25
 2.876458e+00 -5.581482e-01 -9.658313e+00 -6.178894e+00 1.687119e+01 6.979289e+00 -3.841012e-01 8.584204e-01 -3.973126e-03 1.819793e-01 7.263196e-02 5.481218e-01 -1.953681e-01 1.241421e-01 -1.223453e-01 -3.963720e-01 1.427987e+00 3.068159e-01 -1.438150e+00 3.283999e-01 -8.172977e-02 -1.407632e-01 8.886794e-01 -3.227934e-02 -1.188661e-01
<VARIANCE> 25
 3.043354e+00 2.410960e+01 2.761049e+00 2.204959e+01 2.796693e+01 1.861378e+01 4.899411e+01 1.913069e+01 1.427979e+01 1.237733e+01 2.998819e+01 4.160533e+00 4.120062e-01 6.902449e-01 5.464962e-01 7.881933e-01 4.672738e+00 1.763244e+00 5.878385e+00 2.921447e+00 3.234636e+00 2.099164e+00 2.729265e+00 6.075922e-01 1.101223e-01
<GCONST> 8.051815e+01
<MIXTURE> 3 2.500000e-01
<MEAN> 25
 2.876458e+00 -5.581482e-01 -9.658313e+00 -6.178894e+00 1.687119e+01 6.979289e+00 -3.841012e-01 8.584204e-01 -3.973126e-03 1.819793e-01 7.263196e-02 5.481218e-01 -1.953681e-01 1.241421e-01 -1.223453e-01 -3.963720e-01 1.427987e+00 3.068159e-01 -1.438150e+00 3.283999e-01 -8.172977e-02 -1.407632e-01 8.886793e-01 -3.227934e-02 -1.188661e-01
<VARIANCE> 25
 3.043354e+00 2.410960e+01 2.761049e+00 2.204959e+01 2.796693e+01 1.861378e+01 4.899411e+01 1.913069e+01 1.427979e+01 1.237733e+01 2.998819e+01 4.160533e+00 4.120062e-01 6.902449e-01 5.464962e-01 7.881933e-01 4.672738e+00 1.763244e+00 5.878385e+00 2.921447e+00 3.234636e+00 2.099164e+00 2.729265e+00 6.075922e-01 1.101223e-01
<GCONST> 8.051815e+01
<MIXTURE> 4 2.500000e-01
<MEAN> 25
 2.178650e+00 -2.522209e+00 -1.032297e+01 -8.057174e+00 1.475584e+01 5.253541e+00 -3.183933e+00 -8.911254e-01 -1.515517e+00 -1.225278e+00 -2.117827e+00 -2.677736e-01 -4.521189e-01 -2.081818e-01 -4.180468e-01 -7.514930e-01 5.633262e-01 -2.243329e-01 -2.407965e+00 -3.552898e-01 -8.011335e-01 -7.203029e-01 2.278599e-01 -3.440722e-01 -2.516048e-01
<VARIANCE> 25
 3.043354e+00 2.410960e+01 2.761049e+00 2.204959e+01 2.796693e+01 1.861378e+01 4.899411e+01 1.913069e+01 1.427979e+01 1.237733e+01 2.998819e+01 4.160533e+00 4.120062e-01 6.902449e-01 5.464962e-01 7.881933e-01 4.672738e+00 1.763244e+00 5.878385e+00 2.921447e+00 3.234636e+00 2.099164e+00 2.729265e+00 6.075922e-01 1.101223e-01
<GCONST> 8.051815e+01
<STATE> 3
<NUMMIXES> 4
<MIXTURE> 1 2.500000e-01
<MEAN> 25
 2.008485e+00 -3.676931e+00 -8.564815e+00 -1.951723e+00 2.173121e+01 4.725055e+00 -3.610573e+00 1.074825e+00 6.845026e+00 -3.242758e+00 -4.402924e-01 -1.682374e+00 4.733216e-01 4.940170e-01 6.001091e-01 4.258408e-01 -1.512822e-01 3.144820e-01 1.754451e+00 -3.292165e-01 5.596628e-01 2.682868e-01 5.829039e-01 2.128080e-02 -7.410710e-02
<VARIANCE> 25
 5.728804e+00 8.482358e+00 7.734110e+00 1.423058e+01 2.118393e+01 4.662358e+01 5.964777e+01 1.567694e+01 1.064780e+01 1.394640e+01 5.594982e+00 4.057931e+00 3.168640e-01 2.885034e-01 7.531923e-01 1.537662e+00 3.591193e+00 4.473501e+00 5.552902e+00 1.975700e+00 2.418983e+00 1.637164e+00 1.193015e+00 8.106981e-01 2.459265e-01
<GCONST> 7.925717e+01
<MIXTURE> 2 2.500000e-01
<MEAN> 25
 1.051088e+00 -4.841911e+00 -9.677226e+00 -3.460661e+00 1.989017e+01 1.993796e+00 -6.699852e+00 -5.089399e-01 5.539787e+00 -4.736553e+00 -1.386441e+00 -2.488146e+00 2.481589e-01 2.791669e-01 2.529625e-01 -7.016924e-02 -9.092999e-01 -5.315441e-01 8.118672e-01 -8.914548e-01 -6.246045e-02 -2.435200e-01 1.460030e-01 -3.388743e-01 -2.724710e-01
<VARIANCE> 25
 5.728804e+00 8.482358e+00 7.734110e+00 1.423058e+01 2.118393e+01 4.662358e+01 5.964777e+01 1.567694e+01 1.064780e+01 1.394640e+01 5.594982e+00 4.057931e+00 3.168640e-01 2.885034e-01 7.531923e-01 1.537662e+00 3.591193e+00 4.473501e+00 5.552902e+00 1.975700e+00 2.418983e+00 1.637164e+00 1.193015e+00 8.106981e-01 2.459265e-01
<GCONST> 7.925717e+01
<MIXTURE> 3 2.500000e-01
<MEAN> 25
 1.051088e+00 -4.841911e+00 -9.677226e+00 -3.460661e+00 1.989017e+01 1.993796e+00 -6.699852e+00 -5.089400e-01 5.539787e+00 -4.736553e+00 -1.386441e+00 -2.488146e+00 2.481589e-01 2.791669e-01 2.529625e-01 -7.016924e-02 -9.093000e-01 -5.315441e-01 8.118672e-01 -8.914549e-01 -6.246044e-02 -2.435200e-01 1.460030e-01 -3.388743e-01 -2.724710e-01
<VARIANCE> 25
 5.728804e+00 8.482358e+00 7.734110e+00 1.423058e+01 2.118393e+01 4.662358e+01 5.964777e+01 1.567694e+01 1.064780e+01 1.394640e+01 5.594982e+00 4.057931e+00 3.168640e-01 2.885034e-01 7.531923e-01 1.537662e+00 3.591193e+00 4.473501e+00 5.552902e+00 1.975700e+00 2.418983e+00 1.637164e+00 1.193015e+00 8.106981e-01 2.459265e-01
<GCONST> 7.925717e+01
<MIXTURE> 4 2.500000e-01
<MEAN> 25
 9.369120e-02 -6.006891e+00 -1.078964e+01 -4.969599e+00 1.804913e+01 -7.374626e-01 -9.789131e+00 -2.092705e+00 4.234548e+00 -6.230349e+00 -2.332590e+00 -3.293918e+00 2.299621e-02 6.431685e-02 -9.418410e-02 -5.661793e-01 -1.667318e+00 -1.377570e+00 -1.307167e-01 -1.453693e+00 -6.845837e-01 -7.553269e-01 -2.908979e-01 -6.990294e-01 -4.708349e-01
<VARIANCE> 25
 5.728804e+00 8.482358e+00 7.734110e+00 1.423058e+01 2.118393e+01 4.662358e+01 5.964777e+01 1.567694e+01 1.064780e+01 1.394640e+01 5.594982e+00 4.057931e+00 3.168640e-01 2.885034e-01 7.531923e-01 1.537662e+00 3.591193e+00 4.473501e+00 5.552902e+00 1.975700e+00 2.418983e+00 1.637164e+00 1.193015e+00 8.106981e-01 2.459265e-01
<GCONST> 7.925717e+01
<STATE> 4
<NUMMIXES> 4
<MIXTURE> 1 2.500000e-01
<MEAN> 25
 4.725430e+00 3.991878e-02 -2.967568e+00 -1.349709e+00 9.445465e+00 2.625872e+00 3.699676e+00 1.601110e+00 6.621926e-01 -8.906153e-01 4.028048e+00 -8.530686e-01 1.874747e-01 -9.212239e-02 1.297880e+00 8.285109e-01 -6.191645e-01 8.827505e-01 1.313651e+00 2.256756e+00 4.746805e-01 8.769965e-01 9.186623e-01 7.831258e-01 3.069673e-01
<VARIANCE> 25
 3.975469e+00 7.442089e+00 6.864034e+00 8.054956e+00 2.899993e+01 2.012193e+01 8.000153e+01 6.997443e+01 3.577866e+01 2.009255e+01 4.017356e+01 2.367363e+01 6.350300e-01 7.685598e-01 8.841396e-01 9.062446e-01 1.812979e+00 3.921315e+00 4.746249e+00 4.964209e+00 3.350743e+00 2.998010e+00 3.307516e+00 1.006163e+00 5.329354e-01
<GCONST> 8.884357e+01
<MIXTURE> 2 2.500000e-01
<MEAN> 25
 3.927887e+00 -1.051289e+00 -4.015540e+00 -2.484959e+00 7.291402e+00 8.315731e-01 1.219332e-01 -1.744919e+00 -1.730418e+00 -2.683604e+00 1.492743e+00 -2.799291e+00 -1.312804e-01 -4.427926e-01 9.217650e-01 4.477234e-01 -1.157752e+00 9.065801e-02 4.422158e-01 1.365536e+00 -2.575209e-01 1.844060e-01 1.911992e-01 3.818951e-01 1.495759e-02
<VARIANCE> 25
 3.975469e+00 7.442089e+00 6.864034e+00 8.054956e+00 2.899993e+01 2.012193e+01 8.000153e+01 6.997443e+01 3.577866e+01 2.009255e+01 4.017356e+01 2.367363e+01 6.350300e-01 7.685598e-01 8.841396e-01 9.062446e-01 1.812979e+00 3.921315e+00 4.746249e+00 4.964209e+00 3.350743e+00 2.998010e+00 3.307516e+00 1.006163e+00 5.329354e-01
<GCONST> 8.884357e+01
<MIXTURE> 3 2.500000e-01
<MEAN> 25
 3.927887e+00 -1.051289e+00 -4.015540e+00 -2.484959e+00 7.291401e+00 8.315731e-01 1.219332e-01 -1.744919e+00 -1.730418e+00 -2.683604e+00 1.492743e+00 -2.799291e+00 -1.312804e-01 -4.427926e-01 9.217649e-01 4.477234e-01 -1.157752e+00 9.065801e-02 4.422158e-01 1.365536e+00 -2.575209e-01 1.844060e-01 1.911992e-01 3.818951e-01 1.495759e-02
<VARIANCE> 25
 3.975469e+00 7.442089e+00 6.864034e+00 8.054956e+00 2.899993e+01 2.012193e+01 8.000153e+01 6.997443e+01 3.577866e+01 2.009255e+01 4.017356e+01 2.367363e+01 6.350300e-01 7.685598e-01 8.841396e-01 9.062446e-01 1.812979e+00 3.921315e+00 4.746249e+00 4.964209e+00 3.350743e+00 2.998010e+00 3.307516e+00 1.006163e+00 5.329354e-01
<GCONST> 8.884357e+01
<MIXTURE> 4 2.500000e-01
<MEAN> 25
 3.130344e+00 -2.142497e+00 -5.063512e+00 -3.620209e+00 5.137339e+00 -9.627259e-01 -3.455810e+00 -5.090948e+00 -4.123029e+00 -4.476593e+00 -1.042562e+00 -4.745513e+00 -4.500355e-01 -7.934628e-01 5.456501e-01 6.693588e-02 -1.696340e+00 -7.014344e-01 -4.292197e-01 4.743158e-01 -9.897223e-01 -5.081845e-01 -5.362639e-01 -1.933563e-02 -2.770521e-01
<VARIANCE> 25
 3.975469e+00 7.442089e+00 6.864034e+00 8.054956e+00 2.899993e+01 2.012193e+01 8.000153e+01 6.997443e+01 3.577866e+01 2.009255e+01 4.017356e+01 2.367363e+01 6.350300e-01 7.685598e-01 8.841396e-01 9.062446e-01 1.812979e+00 3.921315e+00 4.746249e+00 4.964209e+00 3.350743e+00 2.998010e+00 3.307516e+00 1.006163e+00 5.329354e-01
<GCONST> 8.884357e+01
<TRANSP> 5
 0.000000e+00 1.000000e+00 0.000000e+00 0.000000e+00 0.000000e+00
 0.000000e+00 8.664158e-01 1.335842e-01 0.000000e+00 0.000000e+00
 0.000000e+00 0.000000e+00 8.624297e-01 1.375703e-01 0.000000e+00
 0.000000e+00 0.000000e+00 0.000000e+00 8.826224e-01 1.173776e-01
 0.000000e+00 0.000000e+00 0.000000e+00 0.000000e+00 0.000000e+00
<ENDHMM>
~h "l3_u"
<BEGINHMM>
<NUMSTATES> 5
<STATE> 2
<NUMMIXES> 4
<MIXTURE> 1 2.500000e-01
<MEAN> 25
 2.326456e+00 2.409325e+00 2.713123e+00 1.916039e+00 3.815864e+00 2.702270e+00 3.055406e+00 3.002023e+00 2.351779e+00 2.531341e+00 2.550657e+00 2.722422e+00 5.187306e-01 4.796010e-01 5.341285e-01 5.027944e-01 8.467722e-01 6.916685e-01 7.739193e-01 7.069261e-01 6.734635e-01 6.694033e-01 6.500388e-01 6.253551e-01 3.988836e-01
<VARIANCE> 25
 3.382748e+01 3.628031e+01 4.600648e+01 2.294502e+01 9.100511e+01 4.563913e+01 5.834692e+01 5.632589e+01 3.456791e+01 4.004803e+01 4.066158e+01 4.632240e+01 1.656153e+00 1.407841e+00 1.798202e+00 1.585461e+00 4.502382e+00 2.970210e+00 3.744460e+00 3.177201e+00 2.837936e+00 2.797859e+00 2.639533e+00 2.465156e+00 1.004578e+00
<GCONST> 1.021376e+02
<MIXTURE> 2 2.500000e-01
<MEAN> 25
 0.000000e+00 -2.384186e-07 0.000000e+00 1.192093e-07 0.000000e+00 1.192093e-07 -1.192093e-07 1.192093e-07 -1.192093e-07 -1.192093e-07 1.192093e-07 0.000000e+00 3.964186e-03 4.991040e-03 -2.259731e-03 -8.660257e-04 -1.980513e-03 2.296597e-03 -1.050234e-04 -6.062090e-03 -3.834367e-04 3.311932e-04 1.732409e-04 -2.677500e-03 -2.030909e-03
<VARIANCE> 25
 3.382748e+01 3.628031e+01 4.600648e+01 2.294502e+01 9.100511e+01 4.563913e+01 5.834692e+01 5.632589e+01 3.456791e+01 4.004803e+01 4.066158e+01 4.632240e+01 1.656153e+00 1.407841e+00 1.798202e+00 1.585461e+00 4.502382e+00 2.970210e+00 3.744460e+00 3.177201e+00 2.837936e+00 2.797859e+00 2.639533e+00 2.465156e+00 1.004578e+00
<GCONST> 1.021376e+02
<MIXTURE> 3 2.500000e-01
<MEAN> 25
 0.000000e+00 -2.384186e-07 0.000000e+00 1.192093e-07 0.000000e+00 1.192093e-07 -1.192093e-07 1.192093e-07 -1.192093e-07 -1.192093e-07 1.192093e-07 0.000000e+00 3.964186e-03 4.991040e-03 -2.259731e-03 -8.660257e-04 -1.980513e-03 2.296597e-03 -1.050234e-04 -6.062090e-03 -3.834367e-04 3.311932e-04 1.732409e-04 -2.677500e-03 -2.030909e-03
<VARIANCE> 25
 3.382748e+01 3.628031e+01 4.600648e+01 2.294502e+01 9.100511e+01 4.563913e+01 5.834692e+01 5.632589e+01 3.456791e+01 4.004803e+01 4.066158e+01 4.632240e+01 1.656153e+00 1.407841e+00 1.798202e+00 1.585461e+00 4.502382e+00 2.970210e+00 3.744460e+00 3.177201e+00 2.837936e+00 2.797859e+00 2.639533e+00 2.465156e+00 1.004578e+00
<GCONST> 1.021376e+02
<MIXTURE> 4 2.500000e-01
<MEAN> 25
 -2.326456e+00 -2.409326e+00 -2.713123e+00 -1.916038e+00 -3.815864e+00 -2.702270e+00 -3.055407e+00 -3.002023e+00 -2.351779e+00 -2.531341e+00 -2.550657e+00 -2.722422e+00 -5.108023e-01 -4.696189e-01 -5.386479e-01 -5.045264e-01 -8.507332e-01 -6.870753e-01 -7.741293e-01 -7.190503e-01 -6.742304e-01 -6.687409e-01 -6.496924e-01 -6.307101e-01 -4.029455e-01
<VARIANCE> 25
 3.382748e+01 3.628031e+01 4.600648e+01 2.294502e+01 9.100511e+01 4.563913e+01 5.834692e+01 5.632589e+01 3.456791e+01 4.004803e+01 4.066158e+01 4.632240e+01 1.656153e+00 1.407841e+00 1.798202e+00 1.585461e+00 4.502382e+00 2.970210e+00 3.744460e+00 3.177201e+00 2.837936e+00 2.797859e+00 2.639533e+00 2.465156e+00 1.004578e+00
<GCONST> 1.021376e+02
<STATE> 3
<NUMMIXES> 4
<MIXTURE> 1 2.500000e-01
<MEAN> 25
 2.326456e+00 2.409325e+00 2.713123e+00 1.916039e+00 3.815864e+00 2.702270e+00 3.055406e+00 3.002023e+00 2.351779e+00 2.531341e+00 2.550657e+00 2.722422e+00 5.187306e-01 4.796010e-01 5.341285e-01 5.027944e-01 8.467722e-01 6.916685e-01 7.739193e-01 7.069261e-01 6.734635e-01 6.694033e-01 6.500388e-01 6.253551e-01 3.988836e-01
<VARIANCE> 25
 3.382748e+01 3.628031e+01 4.600648e+01 2.294502e+01 9.100511e+01 4.563913e+01 5.834692e+01 5.632589e+01 3.456791e+01 4.004803e+01 4.066158e+01 4.632240e+01 1.656153e+00 1.407841e+00 1.798202e+00 1.585461e+00 4.502382e+00 2.970210e+00 3.744460e+00 3.177201e+00 2.837936e+00 2.797859e+00 2.639533e+00 2.465156e+00 1.004578e+00
<GCONST> 1.021376e+02
<MIXTURE> 2 2.500000e-01
<MEAN> 25
 0.000000e+00 -2.384186e-07 0.000000e+00 1.192093e-07 0.000000e+00 1.192093e-07 -1.192093e-07 1.192093e-07 -1.192093e-07 -1.192093e-07 1.192093e-07 0.000000e+00 3.964186e-03 4.991040e-03 -2.259731e-03 -8.660257e-04 -1.980513e-03 2.296597e-03 -1.050234e-04 -6.062090e-03 -3.834367e-04 3.311932e-04 1.732409e-04 -2.677500e-03 -2.030909e-03
<VARIANCE> 25
 3.382748e+01 3.628031e+01 4.600648e+01 2.294502e+01 9.100511e+01 4.563913e+01 5.834692e+01 5.632589e+01 3.456791e+01 4.004803e+01 4.066158e+01 4.632240e+01 1.656153e+00 1.407841e+00 1.798202e+00 1.585461e+00 4.502382e+00 2.970210e+00 3.744460e+00 3.177201e+00 2.837936e+00 2.797859e+00 2.639533e+00 2.465156e+00 1.004578e+00
<GCONST> 1.021376e+02
<MIXTURE> 3 2.500000e-01
<MEAN> 25
 0.000000e+00 -2.384186e-07 0.000000e+00 1.192093e-07 0.000000e+00 1.192093e-07 -1.192093e-07 1.192093e-07 -1.192093e-07 -1.192093e-07 1.192093e-07 0.000000e+00 3.964186e-03 4.991040e-03 -2.259731e-03 -8.660257e-04 -1.980513e-03 2.296597e-03 -1.050234e-04 -6.062090e-03 -3.834367e-04 3.311932e-04 1.732409e-04 -2.677500e-03 -2.030909e-03
<VARIANCE> 25
 3.382748e+01 3.628031e+01 4.600648e+01 2.294502e+01 9.100511e+01 4.563913e+01 5.834692e+01 5.632589e+01 3.456791e+01 4.004803e+01 4.066158e+01 4.632240e+01 1.656153e+00 1.407841e+00 1.798202e+00 1.585461e+00 4.502382e+00 2.970210e+00 3.744460e+00 3.177201e+00 2.837936e+00 2.797859e+00 2.639533e+00 2.465156e+00 1.004578e+00
<GCONST> 1.021376e+02
<MIXTURE> 4 2.500000e-01
<MEAN> 25
 -2.326456e+00 -2.409326e+00 -2.713123e+00 -1.916038e+00 -3.815864e+00 -2.702270e+00 -3.055407e+00 -3.002023e+00 -2.351779e+00 -2.531341e+00 -2.550657e+00 -2.722422e+00 -5.108023e-01 -4.696189e-01 -5.386479e-01 -5.045264e-01 -8.507332e-01 -6.870753e-01 -7.741293e-01 -7.190503e-01 -6.742304e-01 -6.687409e-01 -6.496924e-01 -6.307101e-01 -4.029455e-01
<VARIANCE> 25
 3.382748e+01 3.628031e+01 4.600648e+01 2.294502e+01 9.100511e+01 4.563913e+01 5.834692e+01 5.632589e+01 3.456791e+01 4.004803e+01 4.066158e+01 4.632240e+01 1.656153e+00 1.407841e+00 1.798202e+00 1.585461e+00 4.502382e+00 2.970210e+00 3.744460e+00 3.177201e+00 2.837936e+00 2.797859e+00 2.639533e+00 2.465156e+00 1.004578e+00
<GCONST> 1.021376e+02
<STATE> 4
<NUMMIXES> 4
<MIXTURE> 1 2.500000e-01
<MEAN> 25
 2.326456e+00 2.409325e+00 2.713123e+00 1.916039e+00 3.815864e+00 2.702270e+00 3.055406e+00 3.002023e+00 2.351779e+00 2.531341e+00 2.550657e+00 2.722422e+00 5.187306e-01 4.796010e-01 5.341285e-01 5.027944e-01 8.467722e-01 6.916685e-01 7.739193e-01 7.069261e-01 6.734635e-01 6.694033e-01 6.500388e-01 6.253551e-01 3.988836e-01
<VARIANCE> 25
 3.382748e+01 3.628031e+01 4.600648e+01 2.294502e+01 9.100511e+01 4.563913e+01 5.834692e+01 5.632589e+01 3.456791e+01 4.004803e+01 4.066158e+01 4.632240e+01 1.656153e+00 1.407841e+00 1.798202e+00 1.585461e+00 4.502382e+00 2.970210e+00 3.744460e+00 3.177201e+00 2.837936e+00 2.797859e+00 2.639533e+00 2.465156e+00 1.004578e+00
<GCONST> 1.021376e+02
<MIXTURE> 2 2.500000e-01
<MEAN> 25
 0.000000e+00 -2.384186e-07 0.000000e+00 1.192093e-07 0.000000e+00 1.192093e-07 -1.192093e-07 1.192093e-07 -1.192093e-07 -1.192093e-07 1.192093e-07 0.000000e+00 3.964186e-03 4.991040e-03 -2.259731e-03 -8.660257e-04 -1.980513e-03 2.296597e-03 -1.050234e-04 -6.062090e-03 -3.834367e-04 3.311932e-04 1.732409e-04 -2.677500e-03 -2.030909e-03
<VARIANCE> 25
 3.382748e+01 3.628031e+01 4.600648e+01 2.294502e+01 9.100511e+01 4.563913e+01 5.834692e+01 5.632589e+01 3.456791e+01 4.004803e+01 4.066158e+01 4.632240e+01 1.656153e+00 1.407841e+00 1.798202e+00 1.585461e+00 4.502382e+00 2.970210e+00 3.744460e+00 3.177201e+00 2.837936e+00 2.797859e+00 2.639533e+00 2.465156e+00 1.004578e+00
<GCONST> 1.021376e+02
<MIXTURE> 3 2.500000e-01
<MEAN> 25
 0.000000e+00 -2.384186e-07 0.000000e+00 1.192093e-07 0.000000e+00 1.192093e-07 -1.192093e-07 1.192093e-07 -1.192093e-07 -1.192093e-07 1.192093e-07 0.000000e+00 3.964186e-03 4.991040e-03 -2.259731e-03 -8.660257e-04 -1.980513e-03 2.296597e-03 -1.050234e-04 -6.062090e-03 -3.834367e-04 3.311932e-04 1.732409e-04 -2.677500e-03 -2.030909e-03
<VARIANCE> 25
 3.382748e+01 3.628031e+01 4.600648e+01 2.294502e+01 9.100511e+01 4.563913e+01 5.834692e+01 5.632589e+01 3.456791e+01 4.004803e+01 4.066158e+01 4.632240e+01 1.656153e+00 1.407841e+00 1.798202e+00 1.585461e+00 4.502382e+00 2.970210e+00 3.744460e+00 3.177201e+00 2.837936e+00 2.797859e+00 2.639533e+00 2.465156e+00 1.004578e+00
<GCONST> 1.021376e+02
<MIXTURE> 4 2.500000e-01
<MEAN> 25
 -2.326456e+00 -2.409326e+00 -2.713123e+00 -1.916038e+00 -3.815864e+00 -2.702270e+00 -3.055407e+00 -3.002023e+00 -2.351779e+00 -2.531341e+00 -2.550657e+00 -2.722422e+00 -5.108023e-01 -4.696189e-01 -5.386479e-01 -5.045264e-01 -8.507332e-01 -6.870753e-01 -7.741293e-01 -7.190503e-01 -6.742304e-01 -6.687409e-01 -6.496924e-01 -6.307101e-01 -4.029455e-01
<VARIANCE> 25
 3.382748e+01 3.628031e+01 4.600648e+01 2.294502e+01 9.100511e+01 4.563913e+01 5.834692e+01 5.632589e+01 3.456791e+01 4.004803e+01 4.066158e+01 4.632240e+01 1.656153e+00 1.407841e+00 1.798202e+00 1.585461e+00 4.502382e+00 2.970210e+00 3.744460e+00 3.177201e+00 2.837936e+00 2.797859e+00 2.639533e+00 2.465156e+00 1.004578e+00
<GCONST> 1.021376e+02
<TRANSP> 5
 0.000000e+00 1.000000e+00 0.000000e+00 0.000000e+00 0.000000e+00
 0.000000e+00 6.000000e-01 4.000000e-01 0.000000e+00 0.000000e+00
 0.000000e+00 0.000000e+00 6.000000e-01 4.000000e-01 0.000000e+00
 0.000000e+00 0.000000e+00 0.000000e+00 7.000000e-01 3.000000e-01
 0.000000e+00 0.000000e+00 0.000000e+00 0.000000e+00 0.000000e+00
<ENDHMM>
~h "l4_i"
<BEGINHMM>
<NUMSTATES> 5
<STATE> 2
<NUMMIXES> 4
<MIXTURE> 1 2.500000e-01
<MEAN> 25
 2.326456e+00 2.409325e+00 2.713123e+00 1.916039e+00 3.815864e+00 2.702270e+00 3.055406e+00 3.002023e+00 2.351779e+00 2.531341e+00 2.550657e+00 2.722422e+00 5.187306e-01 4.796010e-01 5.341285e-01 5.027944e-01 8.467722e-01 6.916685e-01 7.739193e-01 7.069261e-01 6.734635e-01 6.694033e-01 6.500388e-01 6.253551e-01 3.988836e-01
<VARIANCE> 25
 3.382748e+01 3.628031e+01 4.600648e+01 2.294502e+01 9.100511e+01 4.563913e+01 5.834692e+01 5.632589e+01 3.456791e+01 4.004803e+01 4.066158e+01 4.632240e+01 1.656153e+00 1.407841e+00 1.798202e+00 1.585461e+00 4.502382e+00 2.970210e+00 3.744460e+00 3.177201e+00 2.837936e+00 2.797859e+00 2.639533e+00 2.465156e+00 1.004578e+00
<GCONST> 1.021376e+02
<MIXTURE> 2 2.500000e-01
<MEAN> 25
 0.000000e+00 -2.384186e-07 0.000000e+00 1.192093e-07 0.000000e+00 1.192093e-07 -1.192093e-07 1.192093e-07 -1.192093e-07 -1.192093e-07 1.192093e-07 0.000000e+00 3.964186e-03 4.991040e-03 -2.259731e-03 -8.660257e-04 -1.980513e-03 2.296597e-03 -1.050234e-04 -6.062090e-03 -3.834367e-04 3.311932e-04 1.732409e-04 -2.677500e-03 -2.030909e-03
<VARIANCE> 25
 3.382748e+01 3.628031e+01 4.600648e+01 2.294502e+01 9.100511e+01 4.563913e+01 5.834692e+01 5.632589e+01 3.456791e+01 4.004803e+01 4.066158e+01 4.632240e+01 1.656153e+00 1.407841e+00 1.798202e+00 1.585461e+00 4.502382e+00 2.970210e+00 3.744460e+00 3.177201e+00 2.837936e+00 2.797859e+00 2.639533e+00 2.465156e+00 1.004578e+00
<GCONST> 1.021376e+02
<MIXTURE> 3 2.500000e-01
<MEAN> 25
 0.000000e+00 -2.384186e-07 0.000000e+00 1.192093e-07 0.000000e+00 1.192093e-07 -1.192093e-07 1.192093e-07 -1.192093e-07 -1.192093e-07 1.192093e-07 0.000000e+00 3.964186e-03 4.991040e-03 -2.259731e-03 -8.660257e-04 -1.980513e-03 2.296597e-03 -1.050234e-04 -6.062090e-03 -3.834367e-04 3.311932e-04 1.732409e-04 -2.677500e-03 -2.030909e-03
<VARIANCE> 25
 3.382748e+01 3.628031e+01 4.600648e+01 2.294502e+01 9.100511e+01 4.563913e+01 5.834692e+01 5.632589e+01 3.456791e+01 4.004803e+01 4.066158e+01 4.632240e+01 1.656153e+00 1.407841e+00 1.798202e+00 1.585461e+00 4.502382e+00 2.970210e+00 3.744460e+00 3.177201e+00 2.837936e+00 2.797859e+00 2.639533e+00 2.465156e+00 1.004578e+00
<GCONST> 1.021376e+02
<MIXTURE> 4 2.500000e-01
<MEAN> 25
 -2.326456e+00 -2.409326e+00 -2.713123e+00 -1.916038e+00 -3.815864e+00 -2.702270e+00 -3.055407e+00 -3.002023e+00 -2.351779e+00 -2.531341e+00 -2.550657e+00 -2.722422e+00 -5.108023e-01 -4.696189e-01 -5.386479e-01 -5.045264e-01 -8.507332e-01 -6.870753e-01 -7.741293e-01 -7.190503e-01 -6.742304e-01 -6.687409e-01 -6.496924e-01 -6.307101e-01 -4.029455e-01
<VARIANCE> 25
 3.382748e+01 3.628031e+01 4.600648e+01 2.294502e+01 9.100511e+01 4.563913e+01 5.834692e+01 5.632589e+01 3.456791e+01 4.004803e+01 4.066158e+01 4.632240e+01 1.656153e+00 1.407841e+00 1.798202e+00 1.585461e+00 4.502382e+00 2.970210e+00 3.744460e+00 3.177201e+00 2.837936e+00 2.797859e+00 2.639533e+00 2.465156e+00 1.004578e+00
<GCONST> 1.021376e+02
<STATE> 3
<NUMMIXES> 4
<MIXTURE> 1 2.500000e-01
<MEAN> 25
 2.326456e+00 2.409325e+00 2.713123e+00 1.916039e+00 3.815864e+00 2.702270e+00 3.055406e+00 3.002023e+00 2.351779e+00 2.531341e+00 2.550657e+00 2.722422e+00 5.187306e-01 4.796010e-01 5.341285e-01 5.027944e-01 8.467722e-01 6.916685e-01 7.739193e-01 7.069261e-01 6.734635e-01 6.694033e-01 6.500388e-01 6.253551e-01 3.988836e-01
<VARIANCE> 25
 3.382748e+01 3.628031e+01 4.600648e+01 2.294502e+01 9.100511e+01 4.563913e+01 5.834692e+01 5.632589e+01 3.456791e+01 4.004803e+01 4.066158e+01 4.632240e+01 1.656153e+00 1.407841e+00 1.798202e+00 1.585461e+00 4.502382e+00 2.970210e+00 3.744460e+00 3.177201e+00 2.837936e+00 2.797859e+00 2.639533e+00 2.465156e+00 1.004578e+00
<GCONST> 1.021376e+02
<MIXTURE> 2 2.500000e-01
<MEAN> 25
 0.000000e+00 -2.384186e-07 0.000000e+00 1.192093e-07 0.000000e+00 1.192093e-07 -1.192093e-07 1.192093e-07 -1.192093e-07 -1.192093e-07 1.192093e-07 0.000000e+00 3.964186e-03 4.991040e-03 -2.259731e-03 -8.660257e-04 -1.980513e-03 2.296597e-03 -1.050234e-04 -6.062090e-03 -3.834367e-04 3.311932e-04 1.732409e-04 -2.677500e-03 -2.030909e-03
<VARIANCE> 25
 3.382748e+01 3.628031e+01 4.600648e+01 2.294502e+01 9.100511e+01 4.563913e+01 5.834692e+01 5.632589e+01 3.456791e+01 4.004803e+01 4.066158e+01 4.632240e+01 1.656153e+00 1.407841e+00 1.798202e+00 1.585461e+00 4.502382e+00 2.970210e+00 3.744460e+00 3.177201e+00 2.837936e+00 2.797859e+00 2.639533e+00 2.465156e+00 1.004578e+00
<GCONST> 1.021376e+02
<MIXTURE> 3 2.500000e-01
<MEAN> 25
 0.000000e+00 -2.384186e-07 0.000000e+00 1.192093e-07 0.000000e+00 1.192093e-07 -1.192093e-07 1.192093e-07 -1.192093e-07 -1.192093e-07 1.192093e-07 0.000000e+00 3.964186e-03 4.991040e-03 -2.259731e-03 -8.660257e-04 -1.980513e-03 2.296597e-03 -1.050234e-04 -6.062090e-03 -3.834367e-04 3.311932e-04 1.732409e-04 -2.677500e-03 -2.030909e-03
<VARIANCE> 25
 3.382748e+01 3.628031e+01 4.600648e+01 2.294502e+01 9.100511e+01 4.563913e+01 5.834692e+01 5.632589e+01 3.456791e+01 4.004803e+01 4.066158e+01 4.632240e+01 1.656153e+00 1.407841e+00 1.798202e+00 1.585461e+00 4.502382e+00 2.970210e+00 3.744460e+00 3.177201e+00 2.837936e+00 2.797859e+00 2.639533e+00 2.465156e+00 1.004578e+00
<GCONST> 1.021376e+02
<MIXTURE> 4 2.500000e-01
<MEAN> 25
 -2.326456e+00 -2.409326e+00 -2.713123e+00 -1.916038e+00 -3.815864e+00 -2.702270e+00 -3.055407e+00 -3.002023e+00 -2.351779e+00 -2.531341e+00 -2.550657e+00 -2.722422e+00 -5.108023e-01 -4.696189e-01 -5.386479e-01 -5.045264e-01 -8.507332e-01 -6.870753e-01 -7.741293e-01 -7.190503e-01 -6.742304e-01 -6.687409e-01 -6.496924e-01 -6.307101e-01 -4.029455e-01
<VARIANCE> 25
 3.382748e+01 3.628031e+01 4.600648e+01 2.294502e+01 9.100511e+01 4.563913e+01 5.834692e+01 5.632589e+01 3.456791e+01 4.004803e+01 4.066158e+01 4.632240e+01 1.656153e+00 1.407841e+00 1.798202e+00 1.585461e+00 4.502382e+00 2.970210e+00 3.744460e+00 3.177201e+00 2.837936e+00 2.797859e+00 2.639533e+00 2.465156e+00 1.004578e+00
<GCONST> 1.021376e+02
<STATE> 4
<NUMMIXES> 4
<MIXTURE> 1 2.500000e-01
<MEAN> 25
 2.326456e+00 2.409325e+00 2.713123e+00 1.916039e+00 3.815864e+00 2.702270e+00 3.055406e+00 3.002023e+00 2.351779e+00 2.531341e+00 2.550657e+00 2.722422e+00 5.187306e-01 4.796010e-01 5.341285e-01 5.027944e-01 8.467722e-01 6.916685e-01 7.739193e-01 7.069261e-01 6.734635e-01 6.694033e-01 6.500388e-01 6.253551e-01 3.988836e-01
<VARIANCE> 25
 3.382748e+01 3.628031e+01 4.600648e+01 2.294502e+01 9.100511e+01 4.563913e+01 5.834692e+01 5.632589e+01 3.456791e+01 4.004803e+01 4.066158e+01 4.632240e+01 1.656153e+00 1.407841e+00 1.798202e+00 1.585461e+00 4.502382e+00 2.970210e+00 3.744460e+00 3.177201e+00 2.837936e+00 2.797859e+00 2.639533e+00 2.465156e+00 1.004578e+00
<GCONST> 1.021376e+02
<MIXTURE> 2 2.500000e-01
<MEAN> 25
 0.000000e+00 -2.384186e-07 0.000000e+00 1.192093e-07 0.000000e+00 1.192093e-07 -1.192093e-07 1.192093e-07 -1.192093e-07 -1.192093e-07 1.192093e-07 0.000000e+00 3.964186e-03 4.991040e-03 -2.259731e-03 -8.660257e-04 -1.980513e-03 2.296597e-03 -1.050234e-04 -6.062090e-03 -3.834367e-04 3.311932e-04 1.732409e-04 -2.677500e-03 -2.030909e-03
<VARIANCE> 25
 3.382748e+01 3.628031e+01 4.600648e+01 2.294502e+01 9.100511e+01 4.563913e+01 5.834692e+01 5.632589e+01 3.456791e+01 4.004803e+01 4.066158e+01 4.632240e+01 1.656153e+00 1.407841e+00 1.798202e+00 1.585461e+00 4.502382e+00 2.970210e+00 3.744460e+00 3.177201e+00 2.837936e+00 2.797859e+00 2.639533e+00 2.465156e+00 1.004578e+00
<GCONST> 1.021376e+02
<MIXTURE> 3 2.500000e-01
<MEAN> 25
 0.000000e+00 -2.384186e-07 0.000000e+00 1.192093e-07 0.000000e+00 1.192093e-07 -1.192093e-07 1.192093e-07 -1.192093e-07 -1.192093e-07 1.192093e-07 0.000000e+00 3.964186e-03 4.991040e-03 -2.259731e-03 -8.660257e-04 -1.980513e-03 2.296597e-03 -1.050234e-04 -6.062090e-03 -3.834367e-04 3.311932e-04 1.732409e-04 -2.677500e-03 -2.030909e-03
<VARIANCE> 25
 3.382748e+01 3.628031e+01 4.600648e+01 2.294502e+01 9.100511e+01 4.563913e+01 5.834692e+01 5.632589e+01 3.456791e+01 4.004803e+01 4.066158e+01 4.632240e+01 1.656153e+00 1.407841e+00 1.798202e+00 1.585461e+00 4.502382e+00 2.970210e+00 3.744460e+00 3.177201e+00 2.837936e+00 2.797859e+00 2.639533e+00 2.465156e+00 1.004578e+00
<GCONST> 1.021376e+02
<MIXTURE> 4 2.500000e-01
<MEAN> 25
 -2.326456e+00 -2.409326e+00 -2.713123e+00 -1.916038e+00 -3.815864e+00 -2.702270e+00 -3.055407e+00 -3.002023e+00 -2.351779e+00 -2.531341e+00 -2.550657e+00 -2.722422e+00 -5.108023e-01 -4.696189e-01 -5.386479e-01 -5.045264e-01 -8.507332e-01 -6.870753e-01 -7.741293e-01 -7.190503e-01 -6.742304e-01 -6.687409e-01 -6.496924e-01 -6.307101e-01 -4.029455e-01
<VARIANCE> 25
 3.382748e+01 3.628031e+01 4.600648e+01 2.294502e+01 9.100511e+01 4.563913e+01 5.834692e+01 5.632589e+01 3.456791e+01 4.004803e+01 4.066158e+01 4.632240e+01 1.656153e+00 1.407841e+00 1.798202e+00 1.585461e+00 4.502382e+00 2.970210e+00 3.744460e+00 3.177201e+00 2.837936e+00 2.797859e+00 2.639533e+00 2.465156e+00 1.004578e+00
<GCONST> 1.021376e+02
<TRANSP> 5
 0.000000e+00 1.000000e+00 0.000000e+00 0.000000e+00 0.000000e+00
 0.000000e+00 6.000000e-01 4.000000e-01 0.000000e+00 0.000000e+00
 0.000000e+00 0.000000e+00 6.000000e-01 4.000000e-01 0.000000e+00
 0.000000e+00 0.000000e+00 0.000000e+00 7.000000e-01 3.000000e-01
 0.000000e+00 0.000000e+00 0.000000e+00 0.000000e+00 0.000000e+00
<ENDHMM>
~h "l4_u"
<BEGINHMM>
<NUMSTATES> 5
<STATE> 2
<NUMMIXES> 4
<MIXTURE> 1 2.500000e-01
<MEAN> 25
 6.062698e-01 -9.976242e-01 2.482127e+00 3.035361e+00 -6.922536e-01 -2.378461e+00 5.752430e+00 1.377727e+00 4.361533e+00 9.728495e+00 9.433215e+00 1.738633e+01 3.973856e-01 3.343486e-01 3.934328e-01 5.419292e-01 8.273550e-01 4.601222e-01 1.015130e+00 7.373286e-01 6.889511e-01 9.102492e-01 6.870074e-01 9.740471e-01 3.155838e-01
<VARIANCE> 25
 1.467828e+01 3.452599e+01 4.825506e+01 2.113635e+01 1.080955e+02 2.036815e+01 4.853574e+01 4.790980e+01 3.733388e+01 9.208435e+01 8.032089e+01 6.308049e+01 6.797799e-01 1.313711e+00 2.181173e+00 1.950643e+00 3.460531e+00 1.714115e+00 3.469180e+00 3.094386e+00 2.884359e+00 4.551149e+00 3.337673e+00 3.789879e+00 5.376030e-01
<GCONST> 1.012045e+02
<MIXTURE> 2 2.500000e-01
<MEAN> 25
 -9.262199e-01 -3.347977e+00 -2.965078e-01 1.196389e+00 -4.851013e+00 -4.183705e+00 2.965726e+00 -1.390949e+00 1.917475e+00 5.890071e+00 5.848338e+00 1.420940e+01 6.759054e-02 -1.241203e-01 -1.973190e-01 -1.673248e-02 8.325490e-02 -6.357473e-02 2.701006e-01 3.369394e-02 9.615153e-03 5.691233e-02 -4.376450e-02 1.953426e-01 2.229809e-02
<VARIANCE> 25
 1.467828e+01 3.452599e+01 4.825506e+01 2.113635e+01 1.080955e+02 2.036815e+01 4.853574e+01 4.790980e+01 3.733388e+01 9.208435e+01 8.032089e+01 6.308049e+01 6.797799e-01 1.313711e+00 2.181173e+00 1.950643e+00 3.460531e+00 1.714115e+00 3.469180e+00 3.094386e+00 2.884359e+00 4.551149e+00 3.337673e+00 3.789879e+00 5.376030e-01
<GCONST> 1.012045e+02
<MIXTURE> 3 2.500000e-01
<MEAN> 25
 -9.262200e-01 -3.347977e+00 -2.965078e-01 1.196389e+00 -4.851013e+00 -4.183705e+00 2.965726e+00 -1.390949e+00 1.917475e+00 5.890071e+00 5.848338e+00 1.420940e+01 6.759053e-02 -1.241203e-01 -1.973190e-01 -1.673248e-02 8.325490e-02 -6.357472e-02 2.701006e-01 3.369394e-02 9.615153e-03 5.691233e-02 -4.376450e-02 1.953426e-01 2.229810e-02
<VARIANCE> 25
 1.467828e+01 3.452599e+01 4.825506e+01 2.113635e+01 1.080955e+02 2.036815e+01 4.853574e+01 4.790980e+01 3.733388e+01 9.208435e+01 8.032089e+01 6.308049e+01 6.797799e-01 1.313711e+00 2.181173e+00 1.950643e+00 3.460531e+00 1.714115e+00 3.469180e+00 3.094386e+00 2.884359e+00 4.551149e+00 3.337673e+00 3.789879e+00 5.376030e-01
<GCONST> 1.012045e+02
<MIXTURE> 4 2.500000e-01
<MEAN> 25
 -2.458710e+00 -5.698330e+00 -3.075142e+00 -6.425825e-01 -9.009773e+00 -5.988948e+00 1.790221e-01 -4.159625e+00 -5.265834e-01 2.051647e+00 2.263461e+00 1.103247e+01 -2.622045e-01 -5.825893e-01 -7.880708e-01 -5.753942e-01 -6.608452e-01 -5.872716e-01 -4.749288e-01 -6.699407e-01 -6.697209e-01 -7.964245e-01 -7.745365e-01 -5.833619e-01 -2.709876e-01
<VARIANCE> 25
 1.467828e+01 3.452599e+01 4.825506e+01 2.113635e+01 1.080955e+02 2.036815e+01 4.853574e+01 4.790980e+01 3.733388e+01 9.208435e+01 8.032089e+01 6.308049e+01 6.797799e-01 1.313711e+00 2.181173e+00 1.950643e+00 3.460531e+00 1.714115e+00 3.469180e+00 3.094386e+00 2.884359e+00 4.551149e+00 3.337673e+00 3.789879e+00 5.376030e-01
<GCONST> 1.012045e+02
<STATE> 3
<NUMMIXES> 4
<MIXTURE> 1 2.500000e-01
<MEAN> 25
 1.929284e+00 2.001893e+00 9.054123e-01 2.917546e+00 -2.015582e+00 -2.859743e+00 6.445549e+00 1.154833e+00 9.513671e-01 3.763135e+00 9.249518e-01 5.384184e+00 5.457978e-01 6.368493e-01 6.876463e-01 4.331107e-01 7.150580e-01 7.526814e-01 7.794576e-01 8.111478e-01 8.183315e-01 7.174664e-01 7.343294e-01 4.579525e-01 3.895950e-01
<VARIANCE> 25
 2.643966e+01 1.793355e+01 2.569895e+01 1.229597e+01 4.397166e+01 3.138014e+01 6.724635e+01 4.651435e+01 4.249306e+01 5.072089e+01 6.766954e+01 6.000916e+01 1.903803e+00 1.596456e+00 2.040362e+00 1.112177e+00 2.577849e+00 3.497826e+00 6.544913e+00 4.644887e+00 3.603158e+00 3.588284e+00 3.856077e+00 3.990894e+00 1.158463e+00
<GCONST> 1.021117e+02
<MIXTURE> 2 2.500000e-01
<MEAN> 25
 -1.274965e-01 3.079724e-01 -1.122353e+00 1.514922e+00 -4.668027e+00 -5.100462e+00 3.165394e+00 -1.573224e+00 -1.656101e+00 9.143908e-01 -2.365508e+00 2.285561e+00 -6.115735e-03 1.314455e-01 1.162814e-01 1.127152e-02 7.283071e-02 4.582316e-03 -2.438636e-01 -5.093220e-02 5.905211e-02 -4.024437e-02 -5.114645e-02 -3.411364e-01 -4.093271e-02
<VARIANCE> 25
 2.643966e+01 1.793355e+01 2.569895e+01 1.229597e+01 4.397166e+01 3.138014e+01 6.724635e+01 4.651435e+01 4.249306e+01 5.072089e+01 6.766954e+01 6.000916e+01 1.903803e+00 1.596456e+00 2.040362e+00 1.112177e+00 2.577849e+00 3.497826e+00 6.544913e+00 4.644887e+00 3.603158e+00 3.588284e+00 3.856077e+00 3.990894e+00 1.158463e+00
<GCONST> 1.021117e+02
<MIXTURE> 3 2.500000e-01
<MEAN> 25
 -1.274965e-01 3.079724e-01 -1.122353e+00 1.514922e+00 -4.668027e+00 -5.100462e+00 3.165394e+00 -1.573224e+00 -1.656101e+00 9.143907e-01 -2.365508e+00 2.285561e+00 -6.115735e-03 1.314455e-01 1.162814e-01 1.127152e-02 7.283071e-02 4.582316e-03 -2.438636e-01 -5.093220e-02 5.905211e-02 -4.024437e-02 -5.114645e-02 -3.411364e-01 -4.093270e-02
<VARIANCE> 25
 2.643966e+01 1.793355e+01 2.569895e+01 1.229597e+01 4.397166e+01 3.138014e+01 6.724635e+01 4.651435e+01 4.249306e+01 5.072089e+01 6.766954e+01 6.000916e+01 1.903803e+00 1.596456e+00 2.040362e+00 1.112177e+00 2.577849e+00 3.497826e+00 6.544913e+00 4.644887e+00 3.603158e+00 3.588284e+00 3.856077e+00 3.990894e+00 1.158463e+00
<GCONST> 1.021117e+02
<MIXTURE> 4 2.500000e-01
<MEAN> 25
 -2.184277e+00 -1.385949e+00 -3.150118e+00 1.122977e-01 -7.320472e+00 -7.341181e+00 -1.147609e-01 -4.301281e+00 -4.263569e+00 -1.934353e+00 -5.655968e+00 -8.130622e-01 -5.580292e-01 -3.739583e-01 -4.550835e-01 -4.105677e-01 -5.693965e-01 -7.435167e-01 -1.267185e+00 -9.130121e-01 -7.002273e-01 -7.979550e-01 -8.366223e-01 -1.140225e+00 -4.714604e-01
<VARIANCE> 25
 2.643966e+01 1.793355e+01 2.569895e+01 1.229597e+01 4.397166e+01 3.138014e+01 6.724635e+01 4.651435e+01 4.249306e+01 5.072089e+01 6.766954e+01 6.000916e+01 1.903803e+00 1.596456e+00 2.040362e+00 1.112177e+00 2.577849e+00 3.497826e+00 6.544913e+00 4.644887e+00 3.603158e+00 3.588284e+00 3.856077e+00 3.990894e+00 1.158463e+00
<GCONST> 1.021117e+02
<STATE> 4
<NUMMIXES> 4
<MIXTURE> 1 2.500000e-01
<MEAN> 25
 4.610834e+00 3.047483e+00 1.048532e+00 1.082086e+00 1.048672e+01 6.528075e+00 -1.574400e+00 3.558326e-02 3.140059e+00 -5.212951e-02 7.720822e-01 -3.817866e+00 5.183253e-01 4.062349e-01 6.828774e-01 5.452769e-01 8.160416e-01 8.431667e-01 8.384749e-01 7.077121e-01 7.163286e-01 7.103804e-01 7.708817e-01 5.811591e-01 3.540370e-01
<VARIANCE> 25
 4.493543e+01 2.303048e+01 5.474240e+01 2.944976e+01 1.019086e+02 5.596918e+01 3.642685e+01 3.433641e+01 3.322646e+01 3.421198e+01 3.230050e+01 2.298122e+01 2.010108e+00 1.257273e+00 2.590441e+00 1.680483e+00 3.907684e+00 3.416781e+00 3.508047e+00 2.731845e+00 3.310685e+00 3.106737e+00 2.933283e+00 2.242891e+00 6.995515e-01
<GCONST> 1.008074e+02
<MIXTURE> 2 2.500000e-01
<MEAN> 25
 1.929478e+00 1.127880e+00 -1.910992e+00 -1.088619e+00 6.448734e+00 3.535573e+00 -3.988587e+00 -2.308308e+00 8.343626e-01 -2.391770e+00 -1.501259e+00 -5.735415e+00 -4.878783e-02 -4.227781e-02 3.908357e-02 2.674317e-02 2.532706e-02 1.037852e-01 8.928359e-02 4.658031e-02 -1.148295e-02 5.342931e-03 8.580849e-02 -1.789236e-02 1.948017e-02
<VARIANCE> 25
 4.493543e+01 2.303048e+01 5.474240e+01 2.944976e+01 1.019086e+02 5.596918e+01 3.642685e+01 3.433641e+01 3.322646e+01 3.421198e+01 3.230050e+01 2.298122e+01 2.010108e+00 1.257273e+00 2.590441e+00 1.680483e+00 3.907684e+00 3.416781e+00 3.508047e+00 2.731845e+00 3.310685e+00 3.106737e+00 2.933283e+00 2.242891e+00 6.995515e-01
<GCONST> 1.008074e+02
<MIXTURE> 3 2.500000e-01
<MEAN> 25
 1.929478e+00 1.127880e+00 -1.910992e+00 -1.088619e+00 6.448734e+00 3.535573e+00 -3.988587e+00 -2.308308e+00 8.343626e-01 -2.391770e+00 -1.501259e+00 -5.735415e+00 -4.878783e-02 -4.227780e-02 3.908357e-02 2.674317e-02 2.532706e-02 1.037852e-01 8.928359e-02 4.658031e-02 -1.148295e-02 5.342931e-03 8.580849e-02 -1.789236e-02 1.948017e-02
<VARIANCE> 25
 4.493543e+01 2.303048e+01 5.474240e+01 2.944976e+01 1.019086e+02 5.596918e+01 3.642685e+01 3.433641e+01 3.322646e+01 3.421198e+01 3.230050e+01 2.298122e+01 2.010108e+00 1.257273e+00 2.590441e+00 1.680483e+00 3.907684e+00 3.416781e+00 3.508047e+00 2.731845e+00 3.310685e+00 3.106737e+00 2.933283e+00 2.242891e+00 6.995515e-01
<GCONST> 1.008074e+02
<MIXTURE> 4 2.500000e-01
<MEAN> 25
 -7.518777e-01 -7.917234e-01 -4.870516e+00 -3.259324e+00 2.410742e+00 5.430708e-01 -6.402773e+00 -4.652199e+00 -1.471333e+00 -4.731411e+00 -3.774600e+00 -7.652964e+00 -6.159009e-01 -4.907905e-01 -6.047103e-01 -4.917906e-01 -7.653875e-01 -6.355963e-01 -6.599077e-01 -6.145514e-01 -7.392945e-01 -6.996946e-01 -5.992647e-01 -6.169438e-01 -3.150766e-01
<VARIANCE> 25
 4.493543e+01 2.303048e+01 5.474240e+01 2.944976e+01 1.019086e+02 5.596918e+01 3.642685e+01 3.433641e+01 3.322646e+01 3.421198e+01 3.230050e+01 2.298122e+01 2.010108e+00 1.257273e+00 2.590441e+00 1.680483e+00 3.907684e+00 3.416781e+00 3.508047e+00 2.731845e+00 3.310685e+00 3.106737e+00 2.933283e+00 2.242891e+00 6.995515e-01
<GCONST> 1.008074e+02
<TRANSP> 5
 0.000000e+00 1.000000e+00 0.000000e+00 0.000000e+00 0.000000e+00
 0.000000e+00 9.779684e-01 2.203164e-02 0.000000e+00 0.000000e+00
 0.000000e+00 0.000000e+00 9.826956e-01 1.730441e-02 0.000000e+00
 0.000000e+00 0.000000e+00 0.000000e+00 9.901794e-01 9.820625e-03
 0.000000e+00 0.000000e+00 0.000000e+00 0.000000e+00 0.000000e+00
<ENDHMM>
~h "l5_i"
<BEGINHMM>
<NUMSTATES> 5
<STATE> 2
<NUMMIXES> 4
<MIXTURE> 1 2.500000e-01
<MEAN> 25
 8.247554e+00 -4.771454e+00 -8.919168e+00 3.230549e+00 4.013574e+00 7.362206e+00 1.173866e+00 4.940029e+00 2.061713e+00 2.507386e+00 -4.802733e+00 3.122228e+00 1.105056e-01 2.905031e-01 6.781313e-01 6.245524e-01 7.604550e-01 1.139518e+00 9.870059e-01 3.521254e-01 3.408482e-01 3.765511e-01 7.459404e-01 6.833467e-01 3.063502e-01
<VARIANCE> 25
 3.227751e+01 1.080387e+01 1.534290e+01 9.759021e+00 5.780991e+01 2.981361e+01 4.385084e+01 7.350504e+01 1.354050e+01 6.081802e+00 1.778072e+01 1.855925e+01 4.543661e-01 5.507082e-01 1.323561e+00 1.469888e+00 5.180528e+00 2.362125e+00 4.026395e+00 3.643510e+00 1.218065e+00 8.494267e-01 8.019051e-01 1.098690e+00 3.243982e-01
<GCONST> 8.580241e+01
<MIXTURE> 2 2.500000e-01
<MEAN> 25
 5.975021e+00 -6.086224e+00 -1.048597e+01 1.980972e+00 9.722611e-01 5.178133e+00 -1.474933e+00 1.510626e+00 5.898157e-01 1.520934e+00 -6.489421e+00 1.399010e+00 -1.591211e-01 -6.335735e-03 2.179468e-01 1.395966e-01 -1.499760e-01 5.247494e-01 1.843708e-01 -4.113938e-01 -1.006157e-01 7.893726e-03 3.877438e-01 2.640730e-01 7.852633e-02
<VARIANCE> 25
 3.227751e+01 1.080387e+01 1.534290e+01 9.759021e+00 5.780991e+01 2.981361e+01 4.385084e+01 7.350504e+01 1.354050e+01 6.081802e+00 1.778072e+01 1.855925e+01 4.543661e-01 5.507082e-01 1.323561e+00 1.469888e+00 5.180528e+00 2.362125e+00 4.026395e+00 3.643510e+00 1.218065e+00 8.494267e-01 8.019051e-01 1.098690e+00 3.243982e-01
<GCONST> 8.580241e+01
<MIXTURE> 3 2.500000e-01
<MEAN> 25
 5.975022e+00 -6.086224e+00 -1.048597e+01 1.980972e+00 9.722610e-01 5.178133e+00 -1.474933e+00 1.510626e+00 5.898157e-01 1.520934e+00 -6.489421e+00 1.399010e+00 -1.591211e-01 -6.335735e-03 2.179468e-01 1.395966e-01 -1.499760e-01 5.247494e-01 1.843708e-01 -4.113938e-01 -1.006157e-01 7.893726e-03 3.877438e-01 2.640730e-01 7.852634e-02
<VARIANCE> 25
 3.227751e+01 1.080387e+01 1.534290e+01 9.759021e+00 5.780991e+01 2.981361e+01 4.385084e+01 7.350504e+01 1.354050e+01 6.081802e+00 1.778072e+01 1.855925e+01 4.543661e-01 5.507082e-01 1.323561e+00 1.469888e+00 5.180528e+00 2.362125e+00 4.026395e+00 3.643510e+00 1.218065e+00 8.494267e-01 8.019051e-01 1.098690e+00 3.243982e-01
<GCONST> 8.580241e+01
<MIXTURE> 4 2.500000e-01
<MEAN> 25
 3.702490e+00 -7.400994e+00 -1.205277e+01 7.313948e-01 -2.069052e+00 2.994060e+00 -4.123732e+00 -1.918777e+00 -8.820811e-01 5.344816e-01 -8.176108e+00 -3.242080e-01 -4.287478e-01 -3.031746e-01 -2.422377e-01 -3.453591e-01 -1.060407e+00 -9.001887e-02 -6.182643e-01 -1.174913e+00 -5.420797e-01 -3.607637e-01 2.954718e-02 -1.552007e-01 -1.492975e-01
<VARIANCE> 25
 3.227751e+01 1.080387e+01 1.534290e+01 9.759021e+00 5.780991e+01 2.981361e+01 4.385084e+01 7.350504e+01 1.354050e+01 6.081802e+00 1.778072e+01 1.855925e+01 4.543661e-01 5.507082e-01 1.323561e+00 1.469888e+00 5.180528e+00 2.362125e+00 4.026395e+00 3.643510e+00 1.218065e+00 8.494267e-01 8.019051e-01 1.098690e+00 3.243982e-01
<GCONST> 8.580241e+01
<STATE> 3
<NUMMIXES> 4
<MIXTURE> 1 2.500000e-01
<MEAN> 25
 -9.544847e-01 3.747435e+00 1.065801e+00 4.589544e+00 6.473445e+00 2.592316e+00 1.823565e+00 3.734800e+00 3.072945e+00 4.889872e+00 7.190210e+00 2.119313e+00 3.518133e-01 3.483524e-01 4.063119e-01 3.305361e-01 6.088912e-01 5.124776e-01 3.706922e-01 5.279955e-01 5.163289e-01 5.663489e-01 5.429491e-01 4.823744e-01 -1.181489e-02
<VARIANCE> 25
 2.723914e+01 1.307647e+01 2.190377e+01 1.427593e+01 4.216499e+01 1.706667e+01 1.949426e+01 2.615698e+01 1.272717e+01 1.986672e+01 1.437563e+01 1.338785e+01 6.255904e-01 6.214542e-01 8.983120e-01 9.005754e-01 2.006193e+00 1.758781e+00 1.522413e+00 1.668665e+00 1.532413e+00 1.795756e+00 1.412212e+00 1.263964e+00 1.583875e-01
<GCONST> 8.195866e+01
<MIXTURE> 2 2.500000e-01
<MEAN> 25
 -3.042130e+00 2.300979e+00 -8.062571e-01 3.078204e+00 3.876062e+00 9.398429e-01 5.747217e-02 1.689044e+00 1.645939e+00 3.106988e+00 5.673602e+00 6.557363e-01 3.543621e-02 3.302297e-02 2.719460e-02 -4.905851e-02 4.233064e-02 -1.799855e-02 -1.228522e-01 1.128815e-02 2.116621e-02 3.032564e-02 6.760305e-02 3.266983e-02 -1.710066e-01
<VARIANCE> 25
 2.723914e+01 1.307647e+01 2.190377e+01 1.427593e+01 4.216499e+01 1.706667e+01 1.949426e+01 2.615698e+01 1.272717e+01 1.986672e+01 1.437563e+01 1.338785e+01 6.255904e-01 6.214542e-01 8.983120e-01 9.005754e-01 2.006193e+00 1.758781e+00 1.522413e+00 1.668665e+00 1.532413e+00 1.795756e+00 1.412212e+00 1.263964e+00 1.583875e-01
<GCONST> 8.195866e+01
<MIXTURE> 3 2.500000e-01
<MEAN> 25
 -3.042130e+00 2.300979e+00 -8.062572e-01 3.078204e+00 3.876062e+00 9.398429e-01 5.747217e-02 1.689044e+00 1.645939e+00 3.106988e+00 5.673602e+00 6.557364e-01 3.543621e-02 3.302297e-02 2.719460e-02 -4.905851e-02 4.233065e-02 -1.799855e-02 -1.228522e-01 1.128814e-02 2.116622e-02 3.032565e-02 6.760304e-02 3.266983e-02 -1.710066e-01
<VARIANCE> 25
 2.723914e+01 1.307647e+01 2.190377e+01 1.427593e+01 4.216499e+01 1.706667e+01 1.949426e+01 2.615698e+01 1.272717e+01 1.986672e+01 1.437563e+01 1.338785e+01 6.255904e-01 6.214542e-01 8.983120e-01 9.005754e-01 2.006193e+00 1.758781e+00 1.522413e+00 1.668665e+00 1.532413e+00 1.795756e+00 1.412212e+00 1.263964e+00 1.583875e-01
<GCONST> 8.195866e+01
<MIXTURE> 4 2.500000e-01
<MEAN> 25
 -5.129776e+00 8.545229e-01 -2.678316e+00 1.566864e+00 1.278679e+00 -7.126302e-01 -1.708620e+00 -3.567119e-01 2.189326e-01 1.324104e+00 4.156994e+00 -8.078401e-01 -2.809409e-01 -2.823065e-01 -3.519227e-01 -4.286531e-01 -5.242299e-01 -5.484747e-01 -6.163966e-01 -5.054191e-01 -4.739965e-01 -5.056976e-01 -4.077431e-01 -4.170348e-01 -3.301983e-01
<VARIANCE> 25
 2.723914e+01 1.307647e+01 2.190377e+01 1.427593e+01 4.216499e+01 1.706667e+01 1.949426e+01 2.615698e+01 1.272717e+01 1.986672e+01 1.437563e+01 1.338785e+01 6.255904e-01 6.214542e-01 8.983120e-01 9.005754e-01 2.006193e+00 1.758781e+00 1.522413e+00 1.668665e+00 1.532413e+00 1.795756e+00 1.412212e+00 1.263964e+00 1.583875e-01
<GCONST> 8.195866e+01
<STATE> 4
<NUMMIXES> 4
<MIXTURE> 1 2.500000e-01
<MEAN> 25
 4.131040e+00 3.797820e+00 3.465768e+00 3.053307e+00 -1.973952e+00 -9.762790e-01 5.294652e+00 -8.648058e-01 1.544026e+00 -7.292094e-01 -2.084213e+00 1.909232e+00 4.961088e-01 5.642930e-01 4.941106e-01 5.103282e-01 1.097202e+00 5.833464e-01 9.460814e-01 6.552814e-01 6.004176e-01 6.621473e-01 5.225449e-01 7.176294e-01 7.374399e-01
<VARIANCE> 25
 2.544767e+01 5.212085e+01 5.626347e+01 2.692476e+01 1.024797e+02 2.601158e+01 6.231735e+01 3.408584e+01 2.952012e+01 4.218338e+01 3.557373e+01 3.276125e+01 1.258651e+00 2.375418e+00 1.929136e+00 2.018653e+00 7.017176e+00 2.398812e+00 4.784266e+00 2.944344e+00 2.558058e+00 3.038352e+00 2.808262e+00 3.196318e+00 2.521553e+00
<GCONST> 1.032908e+02
<MIXTURE> 2 2.500000e-01
<MEAN> 25
 2.113213e+00 9.100293e-01 4.654088e-01 9.777439e-01 -6.023242e+00 -3.016341e+00 2.136999e+00 -3.200129e+00 -6.292713e-01 -3.327159e+00 -4.469962e+00 -3.802662e-01 4.735035e-02 -5.220270e-02 -6.146279e-02 -5.798903e-02 3.760386e-02 -3.617755e-02 7.116273e-02 -3.108224e-02 -3.933966e-02 -3.508747e-02 -1.477699e-01 2.499491e-03 1.022640e-01
<VARIANCE> 25
 2.544767e+01 5.212085e+01 5.626347e+01 2.692476e+01 1.024797e+02 2.601158e+01 6.231735e+01 3.408584e+01 2.952012e+01 4.218338e+01 3.557373e+01 3.276125e+01 1.258651e+00 2.375418e+00 1.929136e+00 2.018653e+00 7.017176e+00 2.398812e+00 4.784266e+00 2.944344e+00 2.558058e+00 3.038352e+00 2.808262e+00 3.196318e+00 2.521553e+00
<GCONST> 1.032908e+02
<MIXTURE> 3 2.500000e-01
<MEAN> 25
 2.113213e+00 9.100293e-01 4.654088e-01 9.777439e-01 -6.023242e+00 -3.016341e+00 2.136999e+00 -3.200129e+00 -6.292713e-01 -3.327159e+00 -4.469962e+00 -3.802662e-01 4.735035e-02 -5.220270e-02 -6.146279e-02 -5.798903e-02 3.760386e-02 -3.617755e-02 7.116273e-02 -3.108224e-02 -3.933966e-02 -3.508747e-02 -1.477699e-01 2.499491e-03 1.022640e-01
<VARIANCE> 25
 2.544767e+01 5.212085e+01 5.626347e+01 2.692476e+01 1.024797e+02 2.601158e+01 6.231735e+01 3.408584e+01 2.952012e+01 4.218338e+01 3.557373e+01 3.276125e+01 1.258651e+00 2.375418e+00 1.929136e+00 2.018653e+00 7.017176e+00 2.398812e+00 4.784266e+00 2.944344e+00 2.558058e+00 3.038352e+00 2.808262e+00 3.196318e+00 2.521553e+00
<GCONST> 1.032908e+02
<MIXTURE> 4 2.500000e-01
<MEAN> 25
 9.538579e-02 -1.977762e+00 -2.534950e+00 -1.097819e+00 -1.007253e+01 -5.056403e+00 -1.020655e+00 -5.535452e+00 -2.802568e+00 -5.925109e+00 -6.855711e+00 -2.669764e+00 -4.014081e-01 -6.686984e-01 -6.170362e-01 -6.263063e-01 -1.021994e+00 -6.557015e-01 -8.037559e-01 -7.174459e-01 -6.790969e-01 -7.323222e-01 -8.180847e-01 -7.126305e-01 -5.329120e-01
<VARIANCE> 25
 2.544767e+01 5.212085e+01 5.626347e+01 2.692476e+01 1.024797e+02 2.601158e+01 6.231735e+01 3.408584e+01 2.952012e+01 4.218338e+01 3.557373e+01 3.276125e+01 1.258651e+00 2.375418e+00 1.929136e+00 2.018653e+00 7.017176e+00 2.398812e+00 4.784266e+00 2.944344e+00 2.558058e+00 3.038352e+00 2.808262e+00 3.196318e+00 2.521553e+00
<GCONST> 1.032908e+02
<TRANSP> 5
 0.000000e+00 1.000000e+00 0.000000e+00 0.000000e+00 0.000000e+00
 0.000000e+00 9.078010e-01 9.219898e-02 0.000000e+00 0.000000e+00
 0.000000e+00 0.000000e+00 9.838392e-01 1.616081e-02 0.000000e+00
 0.000000e+00 0.000000e+00 0.000000e+00 9.909726e-01 9.027400e-03
 0.000000e+00 0.000000e+00 0.000000e+00 0.000000e+00 0.000000e+00
<ENDHMM>
~h "l5_u"
<BEGINHMM>
<NUMSTATES> 5
<STATE> 2
<NUMMIXES> 4
<MIXTURE> 1 2.500000e-01
<MEAN> 25
 2.326456e+00 2.409325e+00 2.713123e+00 1.916039e+00 3.815864e+00 2.702270e+00 3.055406e+00 3.002023e+00 2.351779e+00 2.531341e+00 2.550657e+00 2.722422e+00 5.187306e-01 4.796010e-01 5.341285e-01 5.027944e-01 8.467722e-01 6.916685e-01 7.739193e-01 7.069261e-01 6.734635e-01 6.694033e-01 6.500388e-01 6.253551e-01 3.988836e-01
<VARIANCE> 25
 3.382748e+01 3.628031e+01 4.600648e+01 2.294502e+01 9.100511e+01 4.563913e+01 5.834692e+01 5.632589e+01 3.456791e+01 4.004803e+01 4.066158e+01 4.632240e+01 1.656153e+00 1.407841e+00 1.798202e+00 1.585461e+00 4.502382e+00 2.970210e+00 3.744460e+00 3.177201e+00 2.837936e+00 2.797859e+00 2.639533e+00 2.465156e+00 1.004578e+00
<GCONST> 1.021376e+02
<MIXTURE> 2 2.500000e-01
<MEAN> 25
 0.000000e+00 -2.384186e-07 0.000000e+00 1.192093e-07 0.000000e+00 1.192093e-07 -1.192093e-07 1.192093e-07 -1.192093e-07 -1.192093e-07 1.192093e-07 0.000000e+00 3.964186e-03 4.991040e-03 -2.259731e-03 -8.660257e-04 -1.980513e-03 2.296597e-03 -1.050234e-04 -6.062090e-03 -3.834367e-04 3.311932e-04 1.732409e-04 -2.677500e-03 -2.030909e-03
<VARIANCE> 25
 3.382748e+01 3.628031e+01 4.600648e+01 2.294502e+01 9.100511e+01 4.563913e+01 5.834692e+01 5.632589e+01 3.456791e+01 4.004803e+01 4.066158e+01 4.632240e+01 1.656153e+00 1.407841e+00 1.798202e+00 1.585461e+00 4.502382e+00 2.970210e+00 3.744460e+00 3.177201e+00 2.837936e+00 2.797859e+00 2.639533e+00 2.465156e+00 1.004578e+00
<GCONST> 1.021376e+02
<MIXTURE> 3 2.500000e-01
<MEAN> 25
 0.000000e+00 -2.384186e-07 0.000000e+00 1.192093e-07 0.000000e+00 1.192093e-07 -1.192093e-07 1.192093e-07 -1.192093e-07 -1.192093e-07 1.192093e-07 0.000000e+00 3.964186e-03 4.991040e-03 -2.259731e-03 -8.660257e-04 -1.980513e-03 2.296597e-03 -1.050234e-04 -6.062090e-03 -3.834367e-04 3.311932e-04 1.732409e-04 -2.677500e-03 -2.030909e-03
<VARIANCE> 25
 3.382748e+01 3.628031e+01 4.600648e+01 2.294502e+01 9.100511e+01 4.563913e+01 5.834692e+01 5.632589e+01 3.456791e+01 4.004803e+01 4.066158e+01 4.632240e+01 1.656153e+00 1.407841e+00 1.798202e+00 1.585461e+00 4.502382e+00 2.970210e+00 3.744460e+00 3.177201e+00 2.837936e+00 2.797859e+00 2.639533e+00 2.465156e+00 1.004578e+00
<GCONST> 1.021376e+02
<MIXTURE> 4 2.500000e-01
<MEAN> 25
 -2.326456e+00 -2.409326e+00 -2.713123e+00 -1.916038e+00 -3.815864e+00 -2.702270e+00 -3.055407e+00 -3.002023e+00 -2.351779e+00 -2.531341e+00 -2.550657e+00 -2.722422e+00 -5.108023e-01 -4.696189e-01 -5.386479e-01 -5.045264e-01 -8.507332e-01 -6.870753e-01 -7.741293e-01 -7.190503e-01 -6.742304e-01 -6.687409e-01 -6.496924e-01 -6.307101e-01 -4.029455e-01
<VARIANCE> 25
 3.382748e+01 3.628031e+01 4.600648e+01 2.294502e+01 9.100511e+01 4.563913e+01 5.834692e+01 5.632589e+01 3.456791e+01 4.004803e+01 4.066158e+01 4.632240e+01 1.656153e+00 1.407841e+00 1.798202e+00 1.585461e+00 4.502382e+00 2.970210e+00 3.744460e+00 3.177201e+00 2.837936e+00 2.797859e+00 2.639533e+00 2.465156e+00 1.004578e+00
<GCONST> 1.021376e+02
<STATE> 3
<NUMMIXES> 4
<MIXTURE> 1 2.500000e-01
<MEAN> 25
 2.326456e+00 2.409325e+00 2.713123e+00 1.916039e+00 3.815864e+00 2.702270e+00 3.055406e+00 3.002023e+00 2.351779e+00 2.531341e+00 2.550657e+00 2.722422e+00 5.187306e-01 4.796010e-01 5.341285e-01 5.027944e-01 8.467722e-01 6.916685e-01 7.739193e-01 7.069261e-01 6.734635e-01 6.694033e-01 6.500388e-01 6.253551e-01 3.988836e-01
<VARIANCE> 25
 3.382748e+01 3.628031e+01 4.600648e+01 2.294502e+01 9.100511e+01 4.563913e+01 5.834692e+01 5.632589e+01 3.456791e+01 4.004803e+01 4.066158e+01 4.632240e+01 1.656153e+00 1.407841e+00 1.798202e+00 1.585461e+00 4.502382e+00 2.970210e+00 3.744460e+00 3.177201e+00 2.837936e+00 2.797859e+00 2.639533e+00 2.465156e+00 1.004578e+00
<GCONST> 1.021376e+02
<MIXTURE> 2 2.500000e-01
<MEAN> 25
 0.000000e+00 -2.384186e-07 0.000000e+00 1.192093e-07 0.000000e+00 1.192093e-07 -1.192093e-07 1.192093e-07 -1.192093e-07 -1.192093e-07 1.192093e-07 0.000000e+00 3.964186e-03 4.991040e-03 -2.259731e-03 -8.660257e-04 -1.980513e-03 2.296597e-03 -1.050234e-04 -6.062090e-03 -3.834367e-04 3.311932e-04 1.732409e-04 -2.677500e-03 -2.030909e-03
<VARIANCE> 25
 3.382748e+01 3.628031e+01 4.600648e+01 2.294502e+01 9.100511e+01 4.563913e+01 5.834692e+01 5.632589e+01 3.456791e+01 4.004803e+01 4.066158e+01 4.632240e+01 1.656153e+00 1.407841e+00 1.798202e+00 1.585461e+00 4.502382e+00 2.970210e+00 3.744460e+00 3.177201e+00 2.837936e+00 2.797859e+00 2.639533e+00 2.465156e+00 1.004578e+00
<GCONST> 1.021376e+02
<MIXTURE> 3 2.500000e-01
<MEAN> 25
 0.000000e+00 -2.384186e-07 0.000000e+00 1.192093e-07 0.000000e+00 1.192093e-07 -1.192093e-07 1.192093e-07 -1.192093e-07 -1.192093e-07 1.192093e-07 0.000000e+00 3.964186e-03 4.991040e-03 -2.259731e-03 -8.660257e-04 -1.980513e-03 2.296597e-03 -1.050234e-04 -6.062090e-03 -3.834367e-04 3.311932e-04 1.732409e-04 -2.677500e-03 -2.030909e-03
<VARIANCE> 25
 3.382748e+01 3.628031e+01 4.600648e+01 2.294502e+01 9.100511e+01 4.563913e+01 5.834692e+01 5.632589e+01 3.456791e+01 4.004803e+01 4.066158e+01 4.632240e+01 1.656153e+00 1.407841e+00 1.798202e+00 1.585461e+00 4.502382e+00 2.970210e+00 3.744460e+00 3.177201e+00 2.837936e+00 2.797859e+00 2.639533e+00 2.465156e+00 1.004578e+00
<GCONST> 1.021376e+02
<MIXTURE> 4 2.500000e-01
<MEAN> 25
 -2.326456e+00 -2.409326e+00 -2.713123e+00 -1.916038e+00 -3.815864e+00 -2.702270e+00 -3.055407e+00 -3.002023e+00 -2.351779e+00 -2.531341e+00 -2.550657e+00 -2.722422e+00 -5.108023e-01 -4.696189e-01 -5.386479e-01 -5.045264e-01 -8.507332e-01 -6.870753e-01 -7.741293e-01 -7.190503e-01 -6.742304e-01 -6.687409e-01 -6.496924e-01 -6.307101e-01 -4.029455e-01
<VARIANCE> 25
 3.382748e+01 3.628031e+01 4.600648e+01 2.294502e+01 9.100511e+01 4.563913e+01 5.834692e+01 5.632589e+01 3.456791e+01 4.004803e+01 4.066158e+01 4.632240e+01 1.656153e+00 1.407841e+00 1.798202e+00 1.585461e+00 4.502382e+00 2.970210e+00 3.744460e+00 3.177201e+00 2.837936e+00 2.797859e+00 2.639533e+00 2.465156e+00 1.004578e+00
<GCONST> 1.021376e+02
<STATE> 4
<NUMMIXES> 4
<MIXTURE> 1 2.500000e-01
<MEAN> 25
 2.326456e+00 2.409325e+00 2.713123e+00 1.916039e+00 3.815864e+00 2.702270e+00 3.055406e+00 3.002023e+00 2.351779e+00 2.531341e+00 2.550657e+00 2.722422e+00 5.187306e-01 4.796010e-01 5.341285e-01 5.027944e-01 8.467722e-01 6.916685e-01 7.739193e-01 7.069261e-01 6.734635e-01 6.694033e-01 6.500388e-01 6.253551e-01 3.988836e-01
<VARIANCE> 25
 3.382748e+01 3.628031e+01 4.600648e+01 2.294502e+01 9.100511e+01 4.563913e+01 5.834692e+01 5.632589e+01 3.456791e+01 4.004803e+01 4.066158e+01 4.632240e+01 1.656153e+00 1.407841e+00 1.798202e+00 1.585461e+00 4.502382e+00 2.970210e+00 3.744460e+00 3.177201e+00 2.837936e+00 2.797859e+00 2.639533e+00 2.465156e+00 1.004578e+00
<GCONST> 1.021376e+02
<MIXTURE> 2 2.500000e-01
<MEAN> 25
 0.000000e+00 -2.384186e-07 0.000000e+00 1.192093e-07 0.000000e+00 1.192093e-07 -1.192093e-07 1.192093e-07 -1.192093e-07 -1.192093e-07 1.192093e-07 0.000000e+00 3.964186e-03 4.991040e-03 -2.259731e-03 -8.660257e-04 -1.980513e-03 2.296597e-03 -1.050234e-04 -6.062090e-03 -3.834367e-04 3.311932e-04 1.732409e-04 -2.677500e-03 -2.030909e-03
<VARIANCE> 25
 3.382748e+01 3.628031e+01 4.600648e+01 2.294502e+01 9.100511e+01 4.563913e+01 5.834692e+01 5.632589e+01 3.456791e+01 4.004803e+01 4.066158e+01 4.632240e+01 1.656153e+00 1.407841e+00 1.798202e+00 1.585461e+00 4.502382e+00 2.970210e+00 3.744460e+00 3.177201e+00 2.837936e+00 2.797859e+00 2.639533e+00 2.465156e+00 1.004578e+00
<GCONST> 1.021376e+02
<MIXTURE> 3 2.500000e-01
<MEAN> 25
 0.000000e+00 -2.384186e-07 0.000000e+00 1.192093e-07 0.000000e+00 1.192093e-07 -1.192093e-07 1.192093e-07 -1.192093e-07 -1.192093e-07 1.192093e-07 0.000000e+00 3.964186e-03 4.991040e-03 -2.259731e-03 -8.660257e-04 -1.980513e-03 2.296597e-03 -1.050234e-04 -6.062090e-03 -3.834367e-04 3.311932e-04 1.732409e-04 -2.677500e-03 -2.030909e-03
<VARIANCE> 25
 3.382748e+01 3.628031e+01 4.600648e+01 2.294502e+01 9.100511e+01 4.563913e+01 5.834692e+01 5.632589e+01 3.456791e+01 4.004803e+01 4.066158e+01 4.632240e+01 1.656153e+00 1.407841e+00 1.798202e+00 1.585461e+00 4.502382e+00 2.970210e+00 3.744460e+00 3.177201e+00 2.837936e+00 2.797859e+00 2.639533e+00 2.465156e+00 1.004578e+00
<GCONST> 1.021376e+02
<MIXTURE> 4 2.500000e-01
<MEAN> 25
 -2.326456e+00 -2.409326e+00 -2.713123e+00 -1.916038e+00 -3.815864e+00 -2.702270e+00 -3.055407e+00 -3.002023e+00 -2.351779e+00 -2.531341e+00 -2.550657e+00 -2.722422e+00 -5.108023e-01 -4.696189e-01 -5.386479e-01 -5.045264e-01 -8.507332e-01 -6.870753e-01 -7.741293e-01 -7.190503e-01 -6.742304e-01 -6.687409e-01 -6.496924e-01 -6.307101e-01 -4.029455e-01
<VARIANCE> 25
 3.382748e+01 3.628031e+01 4.600648e+01 2.294502e+01 9.100511e+01 4.563913e+01 5.834692e+01 5.632589e+01 3.456791e+01 4.004803e+01 4.066158e+01 4.632240e+01 1.656153e+00 1.407841e+00 1.798202e+00 1.585461e+00 4.502382e+00 2.970210e+00 3.744460e+00 3.177201e+00 2.837936e+00 2.797859e+00 2.639533e+00 2.465156e+00 1.004578e+00
<GCONST> 1.021376e+02
<TRANSP> 5
 0.000000e+00 1.000000e+00 0.000000e+00 0.000000e+00 0.000000e+00
 0.000000e+00 6.000000e-01 4.000000e-01 0.000000e+00 0.000000e+00
 0.000000e+00 0.000000e+00 6.000000e-01 4.000000e-01 0.000000e+00
 0.000000e+00 0.000000e+00 0.000000e+00 7.000000e-01 3.000000e-01
 0.000000e+00 0.000000e+00 0.000000e+00 0.000000e+00 0.000000e+00
<ENDHMM>
~h "sil"
<BEGINHMM>
<NUMSTATES> 5
<STATE> 2
<NUMMIXES> 4
<MIXTURE> 1 2.500000e-01
<MEAN> 25
 -5.737057e-01 1.072183e+00 1.996157e+00 1.801937e+00 7.047684e+00 4.326986e+00 1.347796e+00 7.178046e+00 2.315742e+00 1.851895e+00 5.287581e+00 2.998102e+00 2.599920e-01 2.061849e-01 3.591042e-01 3.568376e-01 4.759288e-01 5.007166e-01 5.073091e-01 6.111588e-01 5.479991e-01 5.706122e-01 5.839133e-01 5.912698e-01 3.219050e-02
<VARIANCE> 25
 4.121894e+01 3.155025e+01 2.998223e+01 1.582351e+01 3.413178e+01 2.505686e+01 3.091825e+01 3.123049e+01 2.214356e+01 2.605067e+01 2.255631e+01 2.408009e+01 4.973902e-01 5.324435e-01 8.580956e-01 8.719612e-01 1.205180e+00 1.325616e+00 1.538351e+00 1.756289e+00 1.633866e+00 1.741611e+00 1.515960e+00 1.395993e+00 2.275073e-01
<GCONST> 8.571716e+01
<MIXTURE> 2 2.500000e-01
<MEAN> 25
 -3.141785e+00 -1.174601e+00 -1.940844e-01 2.107854e-01 4.710787e+00 2.324713e+00 -8.763714e-01 4.942676e+00 4.334636e-01 -1.896989e-01 3.387842e+00 1.035243e+00 -2.211159e-02 -8.569001e-02 -1.142962e-02 -1.667789e-02 3.680603e-02 4.017495e-02 1.118802e-02 8.105861e-02 3.670807e-02 4.273173e-02 9.141597e-02 1.186612e-01 -1.586004e-01
<VARIANCE> 25
 4.121894e+01 3.155025e+01 2.998223e+01 1.582351e+01 3.413178e+01 2.505686e+01 3.091825e+01 3.123049e+01 2.214356e+01 2.605067e+01 2.255631e+01 2.408009e+01 4.973902e-01 5.324435e-01 8.580956e-01 8.719612e-01 1.205180e+00 1.325616e+00 1.538351e+00 1.756289e+00 1.633866e+00 1.741611e+00 1.515960e+00 1.395993e+00 2.275073e-01
<GCONST> 8.571716e+01
<MIXTURE> 3 2.500000e-01
<MEAN> 25
 -3.141785e+00 -1.174601e+00 -1.940844e-01 2.107854e-01 4.710787e+00 2.324713e+00 -8.763714e-01 4.942676e+00 4.334636e-01 -1.896989e-01 3.387842e+00 1.035243e+00 -2.211159e-02 -8.569000e-02 -1.142962e-02 -1.667789e-02 3.680603e-02 4.017496e-02 1.118802e-02 8.105862e-02 3.670809e-02 4.273173e-02 9.141597e-02 1.186612e-01 -1.586004e-01
<VARIANCE> 25
 4.121894e+01 3.155025e+01 2.998223e+01 1.582351e+01 3.413178e+01 2.505686e+01 3.091825e+01 3.123049e+01 2.214356e+01 2.605067e+01 2.255631e+01 2.408009e+01 4.973902e-01 5.324435e-01 8.580956e-01 8.719612e-01 1.205180e+00 1.325616e+00 1.538351e+00 1.756289e+00 1.633866e+00 1.741611e+00 1.515960e+00 1.395993e+00 2.275073e-01
<GCONST> 8.571716e+01
<MIXTURE> 4 2.500000e-01
<MEAN> 25
 -5.709864e+00 -3.421385e+00 -2.384326e+00 -1.380366e+00 2.373890e+00 3.224399e-01 -3.100539e+00 2.707306e+00 -1.448814e+00 -2.231293e+00 1.488103e+00 -9.276158e-01 -3.042152e-01 -3.775649e-01 -3.819634e-01 -3.901933e-01 -4.023167e-01 -4.203666e-01 -4.849331e-01 -4.490416e-01 -4.745830e-01 -4.851487e-01 -4.010814e-01 -3.539474e-01 -3.493913e-01
<VARIANCE> 25
 4.121894e+01 3.155025e+01 2.998223e+01 1.582351e+01 3.413178e+01 2.505686e+01 3.091825e+01 3.123049e+01 2.214356e+01 2.605067e+01 2.255631e+01 2.408009e+01 4.973902e-01 5.324435e-01 8.580956e-01 8.719612e-01 1.205180e+00 1.325616e+00 1.538351e+00 1.756289e+00 1.633866e+00 1.741611e+00 1.515960e+00 1.395993e+00 2.275073e-01
<GCONST> 8.571716e+01
<STATE> 3
~s "silst"
<STATE> 4
<NUMMIXES> 4
<MIXTURE> 1 2.500000e-01
<MEAN> 25
 3.755725e+00 4.733017e+00 4.959611e+00 1.759865e+00 8.362353e-01 1.916303e+00 1.586556e+00 5.569527e-01 2.237881e+00 2.363070e+00 1.255733e+00 -8.687646e-01 6.091591e-01 5.907007e-01 5.883508e-01 5.597221e-01 1.110775e+00 8.657523e-01 7.110191e-01 8.058783e-01 7.111074e-01 6.752828e-01 7.473200e-01 6.020665e-01 4.934322e-01
<VARIANCE> 25
 3.021281e+01 2.591195e+01 5.068701e+01 2.682443e+01 9.077641e+01 4.993180e+01 5.282690e+01 5.555428e+01 3.925293e+01 4.069790e+01 3.703465e+01 2.854651e+01 2.578594e+00 1.768247e+00 2.385325e+00 1.952662e+00 5.869409e+00 3.804164e+00 3.903383e+00 3.758128e+00 3.264647e+00 3.119116e+00 3.137502e+00 2.599816e+00 1.263248e+00
<GCONST> 1.040686e+02
<MIXTURE> 2 2.500000e-01
<MEAN> 25
 1.557078e+00 2.696866e+00 2.111819e+00 -3.118277e-01 -2.974831e+00 -9.101942e-01 -1.320729e+00 -2.424437e+00 -2.682058e-01 -1.887268e-01 -1.178511e+00 -3.005922e+00 -3.316092e-02 5.879897e-02 -2.942917e-02 7.713437e-04 1.417007e-01 8.558160e-02 -7.926017e-02 3.044266e-02 -1.162603e-02 -3.115800e-02 3.880018e-02 -4.289132e-02 4.385494e-02
<VARIANCE> 25
