~o
<STREAMINFO> 1 25
<VECSIZE> 25<NULLD><MFCC_D_N_Z_0><DIAGC>
~s "ST_ek_2_1"
<MEAN> 25
 -1.567209e+00 2.669039e+00 -4.496192e+00 -4.656230e-01 -4.054594e+00 4.345390e+00 3.719017e+00 2.034926e+00 -1.672394e-01 1.347103e+00 1.432057e+00 2.219459e+00 -5.267492e-03 5.540150e-02 9.429902e-04 -1.883339e-02 -2.305800e-02 -3.296211e-02 -4.947126e-02 1.518953e-02 -1.041864e-02 -7.503092e-03 -1.721475e-02 -2.295872e-02 9.814868e-03
<VARIANCE> 25
 2.834653e+00 7.529688e+00 6.324400e+00 5.534101e+00 7.816782e+00 1.045556e+01 7.209708e+00 8.748187e+00 7.601733e+00 8.830242e+00 6.595515e+00 7.500998e+00 1.395129e-01 3.203895e-01 4.039911e-01 5.311559e-01 6.932498e-01 7.478101e-01 6.982567e-01 9.470681e-01 7.929358e-01 9.897630e-01 7.262608e-01 7.682388e-01 1.104205e-01
<GCONST> 6.047205e+01
~s "ST_ek_3_1"
<MEAN> 25
 -4.016182e+00 1.528301e+00 -1.743020e+00 -2.164851e+00 1.561430e-01 1.616794e+00 -6.838273e-01 4.207608e+00 1.071623e+00 2.317638e-01 -7.269672e-01 2.491128e+00 -6.834296e-02 -1.074626e+00 1.452550e+00 6.065469e-01 1.868870e+00 -1.766670e+00 -1.998617e+00 -1.031021e+00 2.838736e-01 1.223249e-01 -9.232463e-01 -7.153798e-01 1.706012e+00
<VARIANCE> 25
 6.044794e+00 1.482936e+01 7.231924e+00 7.811779e+00 1.614274e+01 1.656682e+01 9.396429e+00 5.170944e+00 8.471539e+00 3.620736e+00 7.331910e+00 8.817459e+00 1.355733e+00 2.229508e+00 6.247818e-01 2.380667e+00 2.171461e+00 1.815752e+00 1.000912e+00 3.069359e+00 8.595809e-01 1.651764e+00 4.488114e-01 8.530661e-01 1.124435e+00
<GCONST> 7.504665e+01
~s "ST_ek_4_1"
<MEAN> 25
 5.518803e+00 -7.532190e+00 1.406852e+01 1.198933e+00 1.393136e+01 -1.332971e+01 -1.080305e+01 -7.472809e+00 3.479016e-01 -1.537701e-01 -3.547109e+00 -6.993739e+00 4.691092e-01 -4.070315e-01 5.527460e-01 -3.191889e-02 5.943063e-01 -3.206068e-01 -1.140767e-01 -2.631267e-01 -2.146467e-01 2.350260e-01 -1.993682e-02 -3.246514e-01 1.902000e-01
<VARIANCE> 25
 6.598325e+01 5.928148e+01 3.944479e+01 4.478880e+01 4.889050e+01 4.506834e+01 4.277635e+01 6.932694e+01 4.251392e+01 5.302988e+01 3.376305e+01 3.821130e+01 1.480587e+00 1.889199e+00 2.030475e+00 1.739323e+00 2.521749e+00 3.759381e+00 2.667938e+00 3.992350e+00 3.387369e+00 3.172636e+00 2.020421e+00 2.146821e+00 2.973166e+00
<GCONST> 1.041080e+02
~s "ST_teen_2_1"
<MEAN> 25
 -2.301212e+00 3.446413e+00 -5.855500e+00 -1.721578e+00 -3.889786e+00 2.545564e+00 1.641108e+00 -3.952912e-01 -1.452335e+00 2.513207e+00 2.229072e-01 1.820839e+00 1.324019e-02 1.119896e-03 7.216490e-04 2.667025e-02 6.791790e-03 1.744080e-03 3.762937e-02 1.279249e-02 2.414768e-02 1.419698e-02 1.798633e-02 1.701749e-02 2.412020e-02
<VARIANCE> 25
 1.197259e+00 3.311134e+00 6.930653e+00 3.735163e+00 5.025510e+00 8.193337e+00 7.506419e+00 8.868533e+00 6.774770e+00 7.208067e+00 5.910391e+00 4.963915e+00 7.975898e-02 2.060288e-01 3.552351e-01 4.020471e-01 5.915396e-01 7.021709e-01 9.368947e-01 7.491428e-01 6.237357e-01 1.046985e+00 6.946095e-01 5.598780e-01 6.244969e-02
<GCONST> 5.433021e+01
~s "ST_teen_3_1"
<MEAN> 25
 -2.612443e+00 2.452754e-01 -5.278632e+00 -7.229636e-01 -4.038858e+00 6.285384e-01 2.819765e+00 2.339072e+00 -1.284707e+00 1.426933e+00 -5.600212e-01 1.954782e+00 -4.764040e-02 -3.381538e-01 6.988072e-02 7.429376e-02 -5.999244e-02 2.891100e-02 -2.314115e-02 -2.180570e-01 1.217895e-01 -2.601430e-02 -3.443504e-02 -9.921777e-02 3.431234e-01
<VARIANCE> 25
 2.113200e+00 2.176691e+01 9.483492e+00 7.267506e+00 5.000975e+00 9.480950e+00 1.180839e+01 1.050079e+01 1.085822e+01 7.840151e+00 9.663071e+00 7.631351e+00 2.806749e-01 3.846754e+00 1.626367e+00 1.093870e+00 8.417996e-01 1.185288e+00 1.522071e+00 7.456504e-01 1.519327e+00 1.059527e+00 1.477808e+00 9.095692e-01 2.112715e+00
<GCONST> 7.372935e+01
~s "ST_teen_4_1"
<MEAN> 25
 5.081680e+00 -1.136850e+01 2.046003e+01 6.018140e+00 1.534107e+01 -1.497699e+01 -2.514286e+00 -4.580019e+00 5.388259e+00 -6.837166e+00 -1.863198e+00 -6.397515e+00 5.639520e-01 -7.862718e-02 6.588886e-01 9.308247e-02 3.526056e-01 -3.539019e-01 -2.882838e-01 4.435335e-02 2.729260e-02 -2.397483e-01 1.268857e-01 -3.641246e-01 -6.363139e-02
<VARIANCE> 25
 2.912478e+01 2.682208e+01 8.651346e+01 2.219596e+01 9.601012e+01 7.055092e+01 2.684763e+01 1.115646e+02 7.098632e+01 5.929690e+01 3.203794e+01 2.691807e+01 1.622239e+00 2.328987e+00 5.018957e+00 2.631392e+00 5.519951e+00 6.859289e+00 3.704902e+00 4.359079e+00 3.867684e+00 7.481626e+00 4.692604e+00 3.534364e+00 1.985902e+00
<GCONST> 1.092839e+02
~s "ST_pach_2_1"
<MEAN> 25
 -3.411579e+00 4.880430e+00 -3.538423e+00 4.113101e+00 2.887467e-01 2.169805e+00 -2.549475e-01 -6.532977e-01 -7.762644e-01 -1.186517e-01 2.330862e-02 -2.335318e+00 -1.530142e-02 2.202333e-02 1.130844e-02 1.177504e-02 2.296812e-02 9.189919e-03 -1.225863e-03 1.404030e-02 2.362859e-02 -3.315598e-03 -2.797350e-02 -5.638811e-02 -4.569023e-03
<VARIANCE> 25
 2.174496e+00 2.525661e+00 6.821305e+00 5.769781e+00 6.134648e+00 6.870367e+00 5.454711e+00 7.124965e+00 8.417492e+00 6.150018e+00 8.815722e+00 7.281651e+00 7.837146e-02 1.913915e-01 2.634948e-01 3.996457e-01 4.690873e-01 5.873314e-01 5.888732e-01 7.293379e-01 6.960816e-01 6.151877e-01 6.462094e-01 7.967362e-01 5.158101e-02
<GCONST> 5.377134e+01
~s "ST_pach_3_1"
<MEAN> 25
 -3.035477e+00 2.441491e+00 -2.249745e+00 4.171762e+00 -5.652138e-01 3.167480e-01 1.579429e-02 5.725830e-01 3.604353e-01 -7.392136e-01 2.345108e-01 -3.901119e+00 1.352655e+00 -8.858452e-01 3.320439e-01 -1.236803e+00 -5.506821e-01 -8.685266e-01 -3.305432e-01 1.920008e-01 1.759968e-01 -4.127938e-01 -2.805362e-01 4.361492e-01 2.787270e+00
<VARIANCE> 25
 1.124308e+01 1.733330e+01 1.132088e+01 9.892803e+00 1.237122e+01 7.174549e+00 1.513973e+01 7.552445e+00 1.371255e+01 1.245797e+01 1.094124e+01 7.115480e+00 2.242776e+00 2.363271e+00 2.295793e+00 2.014424e+00 1.766139e+00 1.559816e+00 1.639409e+00 1.202831e+00 1.708216e+00 1.377833e+00 9.132295e-01 1.158090e+00 8.978743e+00
<GCONST> 8.265673e+01
~s "ST_pach_4_1"
<MEAN> 25
 1.562361e+01 -1.525434e+01 9.906884e+00 -1.570603e+01 2.652897e+00 -1.011941e+01 4.295669e-02 3.568722e+00 3.149018e+00 2.397307e+00 -3.487162e+00 6.296987e+00 2.386675e-01 -3.154190e-01 4.646544e-01 -3.129144e-01 2.840202e-01 -1.167567e-01 9.132623e-02 -1.595374e-01 -1.567181e-01 6.645938e-03 -2.284758e-03 3.973165e-01 -2.133408e-01
<VARIANCE> 25
 1.883698e+01 4.101591e+01 2.948295e+01 3.337883e+01 4.425093e+01 4.410957e+01 2.236082e+01 5.964267e+01 4.561329e+01 4.186718e+01 6.437760e+01 3.529037e+01 2.737903e+00 3.859266e+00 2.512134e+00 4.989213e+00 4.810903e+00 3.975866e+00 2.444316e+00 5.634817e+00 4.499331e+00 4.605362e+00 4.318354e+00 2.433723e+00 1.722493e+00
<GCONST> 1.059309e+02
~s "ST_saat_2_1"
<MEAN> 25
 -1.258519e+00 4.346280e+00 -4.156156e+00 3.052028e+00 1.095635e+00 2.369895e-01 -6.982481e-01 5.825871e-01 -1.348315e+00 2.490034e-01 -7.585717e-01 -1.722529e+00 -5.346060e-03 -1.916053e-02 -1.245146e-02 -6.188973e-03 -9.272937e-04 1.794416e-02 -1.088964e-03 -1.566289e-02 1.849397e-03 5.100388e-04 4.302472e-03 2.182758e-02 2.062340e-02
<VARIANCE> 25
 9.218032e-01 3.095324e+00 3.717012e+00 3.601821e+00 5.806734e+00 8.232914e+00 7.887226e+00 8.324360e+00 1.042920e+01 7.820810e+00 6.073509e+00 7.018129e+00 6.709184e-02 1.916013e-01 2.922765e-01 3.448755e-01 4.983853e-01 6.595318e-01 7.194185e-01 7.670988e-01 8.885297e-01 9.224213e-01 7.010975e-01 6.423928e-01 5.158101e-02
<GCONST> 5.347824e+01
~s "ST_saat_3_1"
<MEAN> 25
 -2.449938e+00 3.033928e+00 -3.068401e+00 4.055602e+00 -1.033204e+00 2.254912e+00 -5.560045e-01 -1.192425e-02 -1.394189e+00 4.432117e-01 -9.105566e-01 -1.730801e+00 2.259257e-01 -2.241763e-01 4.918884e-01 1.136961e-01 -6.419950e-02 1.747249e-01 -1.965702e-02 -4.706107e-02 1.424238e-01 -3.309841e-02 -1.453408e-01 1.754279e-02 3.455784e-01
<VARIANCE> 25
 7.889342e+00 5.800437e+00 9.634340e+00 1.102868e+01 9.212871e+00 1.396293e+01 1.162516e+01 8.590307e+00 1.179878e+01 1.152187e+01 1.315476e+01 6.960750e+00 1.674441e+00 2.053344e+00 1.672076e+00 1.371006e+00 1.500855e+00 1.831821e+00 1.263734e+00 1.228196e+00 1.531428e+00 1.465692e+00 1.899239e+00 8.814571e-01 9.776648e-01
<GCONST> 7.814306e+01
~s "ST_saat_4_1"
<MEAN> 25
 -9.929546e+00 -4.082601e+00 1.054202e+01 -2.618914e-01 1.030989e+00 4.494696e+00 1.743058e+00 -3.141008e+00 2.401640e+00 -9.231558e-02 4.108168e-01 -4.512336e-02 -2.126498e-01 -3.803655e-01 4.428261e-01 -3.824535e-01 1.958654e-01 -1.274726e-01 2.553789e-01 -2.854804e-01 1.877911e-01 -1.163356e-01 1.450701e-01 -7.119691e-03 6.671987e-01
<VARIANCE> 25
 7.529125e+01 4.283846e+01 3.963423e+01 3.213121e+01 3.053151e+01 6.402750e+01 4.731277e+01 3.729480e+01 3.890881e+01 1.767304e+01 2.619587e+01 1.802143e+01 5.458376e+00 4.087927e+00 3.272939e+00 2.514042e+00 2.101365e+00 3.024304e+00 2.493901e+00 2.900157e+00 2.512872e+00 1.458320e+00 2.029984e+00 1.469017e+00 2.063609e+00
<GCONST> 1.010758e+02
~s "ST_char_2_1"
<MEAN> 25
 -3.045184e+00 4.533773e+00 -2.375546e+00 1.724438e+00 3.462501e-02 2.052886e+00 4.005423e-01 2.448952e-01 -3.978849e-01 8.682141e-02 -6.012345e-02 -2.150555e+00 5.330652e-04 6.589938e-03 -3.367614e-03 -7.533931e-03 1.105040e-02 -2.997509e-03 -5.317616e-03 2.338612e-02 3.666614e-02 2.088080e-02 1.054364e-02 -3.271017e-03 3.667615e-03
<VARIANCE> 25
 1.538304e+00 2.721973e+00 3.614668e+00 4.278143e+00 5.012534e+00 6.189466e+00 5.085242e+00 8.955779e+00 9.137475e+00 9.725838e+00 6.703665e+00 6.347116e+00 6.951372e-02 2.324946e-01 2.977282e-01 3.861320e-01 4.820588e-01 5.675584e-01 5.067145e-01 7.970558e-01 9.892276e-01 9.809573e-01 8.596457e-01 8.347701e-01 5.158101e-02
<GCONST> 5.379124e+01
~s "ST_char_3_1"
<MEAN> 25
 -4.001280e+00 2.448252e+00 -2.959310e+00 3.334919e+00 -1.303067e+00 6.500006e-01 -5.033135e-01 1.130797e+00 5.219216e-01 1.419660e+00 1.854237e+00 -3.122352e+00 -7.393655e-01 -1.530859e+00 1.460277e+00 -1.026990e-01 -5.897063e-01 6.596441e-01 -3.974296e-01 2.461087e-01 4.761919e-01 -9.106061e-01 3.320631e-01 -3.327631e-01 1.124953e+00
<VARIANCE> 25
 9.761414e+00 1.328089e+01 1.244413e+01 2.589688e+01 8.252739e+00 2.455987e+01 1.331138e+01 1.131721e+01 4.902999e+00 1.455579e+01 6.229365e+00 7.170304e+00 2.072235e+00 4.432453e+00 2.448479e+00 2.802046e+00 1.479680e+00 3.974858e+00 3.347458e+00 2.091604e+00 1.430331e+00 2.506144e+00 1.149532e+00 1.771189e+00 2.301373e+00
<GCONST> 8.566322e+01
~s "ST_char_4_1"
<MEAN> 25
 4.081781e+00 -8.390646e+00 7.795132e+00 -7.095017e+00 2.135600e+00 -3.853807e+00 -1.193515e-01 7.245695e-01 1.347878e+00 2.093242e+00 -1.257142e+00 5.030597e+00 4.088438e-01 -8.308618e-02 4.892181e-02 -1.630001e-01 1.045062e-01 -1.982924e-01 -3.494298e-02 1.369066e-03 -5.940887e-02 8.109136e-02 -5.936633e-02 1.776563e-01 1.857591e-01
<VARIANCE> 25
 1.158573e+02 2.293417e+01 4.721473e+01 7.918971e+01 9.074212e+01 6.137895e+01 5.227015e+01 6.271227e+01 7.335687e+01 4.065892e+01 5.368718e+01 6.986063e+01 4.707177e+00 2.458599e+00 3.923542e+00 3.473880e+00 6.103936e+00 5.806847e+00 5.507387e+00 4.513064e+00 5.618050e+00 3.549099e+00 4.525518e+00 3.798427e+00 2.248478e+00
<GCONST> 1.134980e+02
~s "ST_aath_2_1"
<MEAN> 25
 -4.119254e+00 3.636060e+00 -1.172826e+00 3.853856e+00 1.616090e+00 8.667033e-01 -7.530322e-01 -4.256042e-02 -1.160330e+00 -3.556729e-01 6.261010e-01 -2.344487e+00 8.454306e-03 1.203156e-02 -1.788476e-02 -1.700731e-02 4.735673e-03 -6.675387e-03 1.550699e-02 1.724826e-02 6.874567e-04 1.208589e-02 3.462574e-04 -1.008605e-03 1.995371e-02
<VARIANCE> 25
 1.989618e+00 5.927841e+00 3.498487e+00 6.178968e+00 7.831595e+00 8.386278e+00 7.751152e+00 9.145106e+00 7.631379e+00 1.071112e+01 1.088781e+01 6.272480e+00 1.096191e-01 2.756755e-01 2.738791e-01 4.738256e-01 4.707483e-01 6.041483e-01 8.024974e-01 8.185465e-01 8.418398e-01 5.423651e-01 6.311285e-01 6.730309e-01 7.923888e-02
<GCONST> 5.716684e+01
~s "ST_aath_3_1"
<MEAN> 25
 -4.881495e+00 1.303226e+00 -1.347291e+00 7.717425e-01 -2.334794e+00 2.121665e+00 1.808683e+00 1.700275e+00 -1.384616e-01 -1.996422e+00 2.216519e-02 -1.186771e+00 1.900456e-01 -4.906597e-01 1.246723e-01 -4.802744e-01 -5.970311e-01 1.281625e-01 3.652531e-01 1.922415e-01 4.176180e-01 -1.165459e-01 -4.008113e-01 1.425197e-01 7.009313e-01
<VARIANCE> 25
 1.565895e+01 3.473259e+01 2.323822e+01 2.250923e+01 3.408687e+01 2.921964e+01 2.882007e+01 1.821124e+01 2.340664e+01 2.280618e+01 2.244744e+01 1.110928e+01 1.329360e+00 3.396404e+00 1.855342e+00 2.087931e+00 2.731776e+00 2.646485e+00 2.431296e+00 1.863442e+00 3.127242e+00 2.272355e+00 2.646050e+00 1.471596e+00 2.242337e+00
<GCONST> 9.394985e+01
~s "ST_aath_4_1"
<MEAN> 25
 1.308410e+01 -1.070230e+01 3.912800e+00 -1.161366e+01 -4.017460e+00 -4.568308e+00 2.552194e+00 1.407713e+00 3.943270e+00 2.461489e+00 -5.597542e+00 5.992628e+00 6.796352e-01 -8.079568e-02 -2.280136e-02 7.456250e-02 3.662791e-01 -2.192947e-02 -3.261922e-01 -4.307644e-01 -3.648753e-01 1.286471e-01 2.962403e-01 2.004064e-01 -1.593466e-01
<VARIANCE> 25
 7.428506e+01 6.141171e+01 4.281046e+01 5.854922e+01 1.405567e+02 9.547212e+01 6.887946e+01 8.488047e+01 1.039370e+02 1.002859e+02 1.007836e+02 5.848502e+01 3.591155e+00 3.265382e+00 3.001875e+00 6.020596e+00 9.430852e+00 9.015908e+00 4.997694e+00 7.873027e+00 7.141577e+00 6.362823e+00 6.874474e+00 5.835859e+00 2.216919e+00
<GCONST> 1.200867e+02
~s "ST_shunya_2_1"
<MEAN> 25
 -5.813715e+00 7.691527e+00 -5.930650e+00 1.086147e-01 -4.996299e+00 1.757152e+00 3.112838e+00 4.696760e-01 -9.648818e-01 8.507636e-01 -3.416087e-01 1.309018e+00 -2.900050e-03 -1.438354e-02 -2.789535e-02 4.999375e-03 4.100777e-03 -1.684408e-02 -2.622683e-02 -4.423931e-03 -5.087673e-03 -1.593165e-02 1.979842e-03 1.641964e-02 3.650421e-02
<VARIANCE> 25
 1.774429e+00 8.301071e+00 4.704655e+00 7.203829e+00 1.054824e+01 9.830688e+00 1.301023e+01 1.112079e+01 8.507868e+00 8.726323e+00 6.266453e+00 7.078046e+00 1.152163e-01 4.373090e-01 3.627611e-01 4.822266e-01 5.530137e-01 6.312218e-01 8.972988e-01 7.180938e-01 7.056990e-01 7.749671e-01 5.737606e-01 6.390159e-01 1.575819e-01
<GCONST> 6.019745e+01
~s "ST_shunya_3_1"
<MEAN> 25
 -5.009125e+00 4.391249e+00 -4.242114e+00 1.097154e+00 -2.369840e+00 2.152647e+00 -1.105414e-01 6.959268e-01 3.740748e-01 -8.097826e-01 1.686327e-01 1.876921e+00 8.082381e-01 -2.134387e+00 1.478863e+00 2.292872e-01 1.016079e+00 3.095095e-01 -3.827197e-01 -7.754257e-02 1.531224e-01 -7.026535e-01 3.428437e-01 -4.883123e-01 7.940838e-01
<VARIANCE> 25
 8.332073e+00 2.660945e+01 1.300883e+01 1.930712e+01 2.785641e+01 1.467815e+01 1.903169e+01 1.334344e+01 1.470325e+01 1.773586e+01 2.005844e+01 7.913713e+00 2.432981e+00 1.147335e+01 4.784934e+00 6.764510e+00 3.294391e+00 2.730666e+00 5.133141e+00 3.270306e+00 3.562276e+00 2.218632e+00 2.780650e+00 1.821720e+00 6.694072e-01
<GCONST> 9.416794e+01
~s "ST_shunya_4_1"
<MEAN> 25
 8.771766e+00 -1.289839e+01 8.546819e+00 1.493040e+00 6.244077e+00 -9.663712e-01 -5.162081e+00 5.520154e-01 1.322392e+00 -1.255614e+00 -7.508039e-01 -2.035168e+00 3.355210e-01 2.861144e-03 6.440341e-02 9.934689e-03 6.045737e-02 -1.172549e-01 -1.046958e-01 -3.694334e-02 -4.269018e-02 1.227751e-01 -6.100327e-02 -8.089441e-02 1.368355e-01
<VARIANCE> 25
 3.134850e+02 3.971895e+01 4.019334e+01 7.811870e+01 9.843785e+01 1.126728e+02 6.953305e+01 4.871321e+01 6.937132e+01 4.070031e+01 5.574594e+01 3.427899e+01 6.378443e+00 3.865688e+00 4.153120e+00 5.925713e+00 6.302026e+00 7.337919e+00 3.662539e+00 4.022195e+00 5.758268e+00 3.820346e+00 4.344040e+00 2.469498e+00 2.367179e+00
<GCONST> 1.156288e+02
~s "ST_don_2_1"
<MEAN> 25
 -7.002916e+00 3.293376e+00 -6.028103e+00 8.721803e-01 -8.553231e-01 -5.103926e-01 3.964117e+00 -1.240091e+00 3.453730e-01 2.343053e+00 -1.024577e-01 1.014668e+00 -1.351873e-02 -7.509353e-02 -1.600314e-02 -1.032898e-02 2.708435e-03 -2.795245e-02 -2.299698e-02 -1.892020e-02 1.991828e-02 2.282997e-02 4.965791e-02 1.548011e-02 3.234416e-02
<VARIANCE> 25
 2.217468e+00 7.040916e+00 5.008965e+00 3.035949e+00 9.095581e+00 6.234718e+00 6.963270e+00 8.386924e+00 9.424530e+00 1.008768e+01 7.690369e+00 7.503882e+00 7.329192e-02 2.376992e-01 2.861460e-01 3.613006e-01 5.094141e-01 4.507998e-01 6.956860e-01 7.246321e-01 9.224043e-01 1.011157e+00 7.055551e-01 6.898564e-01 6.057612e-02
<GCONST> 5.606295e+01
~s "ST_don_3_1"
<MEAN> 25
 -4.931261e+00 -6.232930e+00 -6.350478e+00 -5.489735e-02 2.214633e+00 -2.971649e+00 4.632618e+00 -4.694097e+00 1.375903e+00 -1.177840e+00 2.974441e+00 3.606204e+00 2.395760e-01 -6.502258e-02 -4.454273e-02 7.993893e-02 -3.313591e-02 1.932683e-01 -4.995457e-02 -5.812534e-02 1.233809e-01 -2.372126e-02 -2.511092e-01 3.477323e-02 5.173186e-02
<VARIANCE> 25
 6.437452e+00 4.062423e+01 4.462885e+01 2.041033e+01 1.564831e+01 6.723824e+01 2.010900e+01 1.622561e+01 2.544671e+01 1.770895e+01 1.151912e+01 1.820732e+01 1.353201e+00 3.580649e+00 2.494031e+00 1.696176e+00 2.267493e+00 4.000335e+00 1.163491e+00 1.920039e+00 2.264016e+00 1.561674e+00 1.887541e+00 1.831967e+00 1.631448e-01
<GCONST> 8.925026e+01
~s "ST_don_4_1"
<MEAN> 25
 1.142341e+01 -5.929293e+00 1.019373e+01 -2.208800e+00 -3.167505e-01 -1.970703e-01 -7.269224e+00 2.742612e+00 -3.192340e+00 -3.634955e+00 1.556155e+00 -3.240302e+00 3.243977e-01 -1.534350e-01 3.168067e-01 9.019301e-02 -1.451385e-01 3.147398e-02 -3.858353e-01 3.498133e-01 -1.690141e-01 -2.639489e-01 1.749690e-01 -2.360204e-01 1.596046e-01
<VARIANCE> 25
 8.505463e+01 7.096671e+01 6.588721e+01 1.289526e+02 5.526312e+01 7.469622e+01 8.160621e+01 8.100646e+01 9.206181e+01 4.874485e+01 4.629186e+01 3.553080e+01 5.854449e+00 4.038308e+00 3.526010e+00 6.543103e+00 4.885069e+00 5.957405e+00 6.227256e+00 4.305656e+00 7.182339e+00 6.428421e+00 5.809704e+00 4.060392e+00 2.075522e+00
<GCONST> 1.173209e+02
~s "ST_saha_2_1"
<MEAN> 25
 -2.264382e+00 4.677537e+00 -4.078716e+00 4.174984e+00 1.795511e+00 6.320390e-01 -1.586536e+00 5.546433e-01 -1.947818e+00 -9.221272e-01 6.905078e-01 -1.551041e+00 -9.537183e-03 -4.023541e-02 3.362778e-03 -2.361738e-02 -4.075150e-02 1.863409e-02 1.245121e-02 7.689831e-03 -1.150014e-02 2.099888e-03 3.391063e-02 2.279780e-02 3.681475e-02
<VARIANCE> 25
 1.682324e+00 4.599915e+00 5.710915e+00 5.640802e+00 7.128033e+00 9.842058e+00 1.403004e+01 1.198439e+01 7.586208e+00 7.327434e+00 8.578426e+00 6.993363e+00 8.155177e-02 2.922097e-01 4.454507e-01 4.190225e-01 4.712266e-01 6.665466e-01 7.861829e-01 7.310499e-01 7.962469e-01 7.526097e-01 7.338842e-01 6.651133e-01 7.679880e-02
<GCONST> 5.803020e+01
~s "ST_saha_3_1"
<MEAN> 25
 -1.181620e+01 -3.218039e+00 6.877995e+00 1.888535e+00 -5.098918e-02 1.993207e+00 1.395643e+00 -2.656158e-01 -6.081664e-01 -9.007400e-01 3.562401e+00 -1.761888e+00 -1.975865e-01 -3.902278e-01 5.576872e-01 -2.275519e-01 1.892750e-01 -1.516040e-01 2.559313e-01 -2.486841e-01 6.177209e-02 -7.070783e-02 1.345331e-01 -3.607865e-02 7.246763e-01
<VARIANCE> 25
 5.739705e+01 3.938485e+01 9.244700e+01 2.950787e+01 4.319153e+01 4.637980e+01 3.572423e+01 3.366374e+01 4.926709e+01 2.505441e+01 1.972862e+01 1.828714e+01 3.456236e+00 4.399520e+00 3.766399e+00 1.716757e+00 3.639665e+00 2.087306e+00 2.706409e+00 2.926884e+00 2.643951e+00 3.044120e+00 1.636367e+00 1.657654e+00 1.890278e+00
<GCONST> 1.016886e+02
~s "ST_saha_4_1"
<MEAN> 25
 1.288598e+01 -8.565496e+00 6.761957e+00 -1.163493e+01 2.150979e+00 -6.660947e+00 3.830081e+00 5.022672e-01 3.146177e-01 2.277652e+00 -5.138793e+00 6.187320e+00 5.111744e-01 9.997106e-02 -2.293571e-01 -2.174244e-01 -2.359143e-01 1.052340e-01 -2.858443e-02 1.360181e-01 1.763519e-01 4.618085e-02 -3.793792e-01 2.716834e-01 -2.884589e-01
<VARIANCE> 25
 3.451617e+01 2.883360e+01 3.134348e+01 6.645453e+01 6.446471e+01 4.071935e+01 1.006774e+02 9.703745e+01 5.932323e+01 6.098524e+01 5.290105e+01 3.983157e+01 4.328475e+00 2.927998e+00 2.195361e+00 4.116051e+00 3.812812e+00 4.031654e+00 5.146575e+00 5.156822e+00 4.105675e+00 6.407751e+00 4.489266e+00 4.217155e+00 5.833158e-01
<GCONST> 1.098216e+02
~s "ST_nau_2_1"
<MEAN> 25
 -6.915031e+00 3.148891e+00 -5.250724e+00 1.236250e+00 -2.338077e-01 1.216869e+00 1.964484e+00 -6.394778e-01 1.490343e+00 3.282408e-01 1.384691e+00 1.842467e-01 1.211764e-02 6.044054e-03 -2.650573e-02 3.628278e-03 2.417602e-02 -1.768783e-02 1.526991e-02 4.288602e-02 2.584669e-02 9.026270e-03 1.176862e-02 -2.034458e-03 -3.711198e-03
<VARIANCE> 25
 3.276196e+00 3.911397e+00 3.888090e+00 4.577872e+00 1.068041e+01 1.499345e+01 1.088216e+01 9.259426e+00 9.078438e+00 9.536202e+00 7.963820e+00 7.689662e+00 5.810706e-02 2.278376e-01 2.887006e-01 3.556953e-01 4.305079e-01 6.438493e-01 7.414469e-01 9.197647e-01 8.409143e-01 7.897947e-01 6.299092e-01 6.142924e-01 5.158101e-02
<GCONST> 5.705140e+01
~s "ST_nau_3_1"
<MEAN> 25
 -3.846312e+00 -1.607085e+00 -6.023144e+00 5.958709e+00 2.817569e+00 2.002350e+00 -1.312451e-03 4.703956e-01 2.040452e+00 -3.546346e+00 1.485586e-01 6.539265e-01 7.027690e-01 -8.199269e-02 5.122979e-01 1.076745e+00 4.689575e-01 4.585773e-01 -4.171482e-01 -4.634394e-01 1.260780e-01 -3.392183e-01 -3.851956e-01 -2.606113e-01 4.671752e-01
<VARIANCE> 25
 8.677350e+00 2.791163e+01 1.348456e+01 1.799027e+01 6.888357e+00 1.537166e+01 1.695343e+01 2.199213e+01 1.962905e+01 2.257006e+01 2.420467e+01 1.785178e+01 1.128219e+00 9.819452e-01 8.239576e-01 1.487811e+00 7.962363e-01 1.692131e+00 1.531897e+00 1.866014e+00 1.879984e+00 2.068489e+00 1.958325e+00 1.013995e+00 2.211526e-01
<GCONST> 8.186356e+01
~s "ST_nau_4_1"
<MEAN> 25
 1.650562e+01 -7.537169e+00 4.740485e+00 1.278883e+01 3.167769e+00 9.180890e+00 -9.490019e+00 -5.216188e+00 1.378672e+00 -1.081124e+00 -5.269867e+00 -4.209225e+00 8.866212e-01 -6.574208e-01 5.956738e-01 -6.827216e-01 1.824945e-01 -2.892529e-01 -1.020408e-01 3.009581e-01 -6.066625e-01 -5.720733e-01 9.843839e-02 -4.492721e-02 6.351788e-01
<VARIANCE> 25
 7.027652e+01 6.443866e+01 3.470314e+01 7.960373e+01 5.817928e+01 7.887184e+01 1.027243e+02 8.998808e+01 8.635300e+01 7.684584e+01 6.646246e+01 3.875628e+01 8.209724e+00 4.383276e+00 2.849801e+00 7.456716e+00 5.784898e+00 9.060814e+00 1.158076e+01 5.061561e+00 4.955815e+00 6.971591e+00 5.473950e+00 3.476448e+00 2.362856e+00
<GCONST> 1.185242e+02
~s "ST_sil_2_1"
<MEAN> 25
 -8.466049e-01 1.717401e+00 -1.138535e+00 1.899969e+00 6.426501e-01 1.772786e+00 8.389316e-01 1.128173e+00 6.633295e-01 -1.112792e-01 1.900971e+00 8.071207e-01 -1.270523e+00 8.690072e-02 -5.782527e-01 -2.157190e-01 -9.081455e-01 -4.991170e-01 1.858723e-02 -5.551068e-01 -3.377051e-01 -3.820472e-01 2.052888e-02 -3.740058e-01 4.496082e+00
<VARIANCE> 25
 7.949217e+01 3.888036e+01 3.303546e+01 3.535846e+01 5.957370e+01 3.406752e+01 2.803757e+01 3.619110e+01 2.750335e+01 2.495551e+01 1.758372e+01 2.046810e+01 1.176494e+01 6.131381e+00 5.674268e+00 5.105831e+00 6.298456e+00 5.603923e+00 4.357690e+00 4.294078e+00 3.985757e+00 3.133883e+00 3.339091e+00 2.415712e+00 3.099918e+01
<GCONST> 1.101858e+02
~s "silst"
<MEAN> 25
 -3.283922e+00 3.789239e+00 -3.834543e+00 2.473744e+00 -8.539188e-01 1.463701e+00 1.162203e-01 1.818492e-01 -7.923086e-01 1.836478e-01 6.718304e-01 -5.932999e-01 -1.078238e-01 4.281623e-02 9.369668e-03 4.724903e-02 2.741407e-02 2.206606e-02 8.088032e-03 8.550527e-03 -6.273656e-03 2.533329e-02 -1.405988e-02 -1.139955e-02 5.767079e-02
<VARIANCE> 25
 1.045724e+01 1.034229e+01 1.380582e+01 1.475225e+01 1.347660e+01 1.340247e+01 1.332035e+01 1.291266e+01 1.140785e+01 1.064788e+01 8.552506e+00 1.067830e+01 2.011160e-01 4.144561e-01 4.643574e-01 6.111225e-01 6.672896e-01 7.901509e-01 9.261132e-01 9.701387e-01 9.209940e-01 8.773344e-01 8.064207e-01 7.769216e-01 4.935908e-01
<GCONST> 6.972681e+01
~s "ST_sil_3_1"
<MEAN> 25
 -3.283922e+00 3.789239e+00 -3.834543e+00 2.473744e+00 -8.539188e-01 1.463701e+00 1.162203e-01 1.818492e-01 -7.923086e-01 1.836478e-01 6.718304e-01 -5.932999e-01 -1.078238e-01 4.281623e-02 9.369668e-03 4.724903e-02 2.741407e-02 2.206606e-02 8.088032e-03 8.550527e-03 -6.273656e-03 2.533329e-02 -1.405988e-02 -1.139955e-02 5.767079e-02
<VARIANCE> 25
 1.045724e+01 1.034229e+01 1.380582e+01 1.475225e+01 1.347660e+01 1.340247e+01 1.332035e+01 1.291266e+01 1.140785e+01 1.064788e+01 8.552506e+00 1.067830e+01 2.011160e-01 4.144561e-01 4.643574e-01 6.111225e-01 6.672896e-01 7.901509e-01 9.261132e-01 9.701387e-01 9.209940e-01 8.773344e-01 8.064207e-01 7.769216e-01 4.935908e-01
<GCONST> 6.972681e+01
~s "ST_sil_4_1"
<MEAN> 25
 1.074833e+01 -7.314033e+00 8.496868e+00 -7.188704e+00 -9.813411e-01 -4.305053e+00 -1.895220e+00 -7.478183e-01 1.823976e-01 -1.473403e+00 -6.118353e-01 9.132344e-01 2.263168e-01 3.041440e-02 -6.941981e-03 7.166950e-02 -1.689380e-01 2.522598e-01 4.825785e-03 1.003588e-01 -7.497066e-02 1.875085e-01 -1.670986e-01 1.148783e-01 -3.679684e-01
<VARIANCE> 25
 1.235491e+02 6.673967e+01 8.668653e+01 1.028192e+02 1.559226e+02 1.126157e+02 8.451968e+01 7.792445e+01 8.806251e+01 8.357139e+01 6.923287e+01 6.635574e+01 2.996554e+00 2.865332e+00 3.635550e+00 5.179097e+00 5.777254e+00 4.776855e+00 4.726645e+00 5.285512e+00 5.866950e+00 6.633358e+00 5.588317e+00 4.227457e+00 1.409246e+00
<GCONST> 1.187502e+02
~h "ek"
<BEGINHMM>
<NUMSTATES> 5
<STATE> 2
~s "ST_ek_2_1"
<STATE> 3
~s "ST_ek_3_1"
<STATE> 4
~s "ST_ek_4_1"
<TRANSP> 5
 0.000000e+00 1.000000e+00 0.000000e+00 0.000000e+00 0.000000e+00
 0.000000e+00 9.831354e-01 1.686461e-02 0.000000e+00 0.000000e+00
 0.000000e+00 0.000000e+00 7.019085e-01 2.980915e-01 0.000000e+00
 0.000000e+00 0.000000e+00 0.000000e+00 9.655133e-01 3.448673e-02
 0.000000e+00 0.000000e+00 0.000000e+00 0.000000e+00 0.000000e+00
<ENDHMM>
~h "sp"
<BEGINHMM>
<NUMSTATES> 3
<STATE> 2
~s "ST_sil_3_1"
<TRANSP> 3
 0.000000e+00 6.026133e-02 9.397387e-01
 0.000000e+00 9.432448e-01 5.675520e-02
 0.000000e+00 0.000000e+00 0.000000e+00
<ENDHMM>
~h "saat"
<BEGINHMM>
<NUMSTATES> 5
<STATE> 2
~s "ST_saat_2_1"
<STATE> 3
~s "ST_saat_3_1"
<STATE> 4
~s "ST_saat_4_1"
<TRANSP> 5
 0.000000e+00 1.000000e+00 0.000000e+00 0.000000e+00 0.000000e+00
 0.000000e+00 9.811268e-01 1.887314e-02 0.000000e+00 0.000000e+00
 0.000000e+00 0.000000e+00 8.811987e-01 1.188013e-01 0.000000e+00
 0.000000e+00 0.000000e+00 0.000000e+00 9.607530e-01 3.924697e-02
 0.000000e+00 0.000000e+00 0.000000e+00 0.000000e+00 0.000000e+00
<ENDHMM>
~h "saha"
<BEGINHMM>
<NUMSTATES> 5
<STATE> 2
~s "ST_saha_2_1"
<STATE> 3
~s "ST_saha_3_1"
<STATE> 4
~s "ST_saha_4_1"
<TRANSP> 5
 0.000000e+00 1.000000e+00 0.000000e+00 0.000000e+00 0.000000e+00
 0.000000e+00 9.835205e-01 1.647949e-02 0.000000e+00 0.000000e+00
 0.000000e+00 0.000000e+00 9.630443e-01 3.695571e-02 0.000000e+00
 0.000000e+00 0.000000e+00 0.000000e+00 9.657796e-01 3.422045e-02
 0.000000e+00 0.000000e+00 0.000000e+00 0.000000e+00 0.000000e+00
<ENDHMM>
~h "char"
<BEGINHMM>
<NUMSTATES> 5
<STATE> 2
~s "ST_char_2_1"
<STATE> 3
~s "ST_char_3_1"
<STATE> 4
~s "ST_char_4_1"
<TRANSP> 5
 0.000000e+00 1.000000e+00 0.000000e+00 0.000000e+00 0.000000e+00
 0.000000e+00 9.822698e-01 1.773020e-02 0.000000e+00 0.000000e+00
 0.000000e+00 0.000000e+00 7.826228e-01 2.173772e-01 0.000000e+00
 0.000000e+00 0.000000e+00 0.000000e+00 9.696164e-01 3.038362e-02
 0.000000e+00 0.000000e+00 0.000000e+00 0.000000e+00 0.000000e+00
<ENDHMM>
~h "teen"
<BEGINHMM>
<NUMSTATES> 5
<STATE> 2
~s "ST_teen_2_1"
<STATE> 3
~s "ST_teen_3_1"
<STATE> 4
~s "ST_teen_4_1"
<TRANSP> 5
 0.000000e+00 1.000000e+00 0.000000e+00 0.000000e+00 0.000000e+00
 0.000000e+00 9.880901e-01 1.190986e-02 0.000000e+00 0.000000e+00
 0.000000e+00 0.000000e+00 9.533836e-01 4.661640e-02 0.000000e+00
 0.000000e+00 0.000000e+00 0.000000e+00 9.542747e-01 4.572532e-02
 0.000000e+00 0.000000e+00 0.000000e+00 0.000000e+00 0.000000e+00
<ENDHMM>
~h "don"
<BEGINHMM>
<NUMSTATES> 5
<STATE> 2
~s "ST_don_2_1"
<STATE> 3
~s "ST_don_3_1"
<STATE> 4
~s "ST_don_4_1"
<TRANSP> 5
 0.000000e+00 1.000000e+00 0.000000e+00 0.000000e+00 0.000000e+00
 0.000000e+00 9.843629e-01 1.563711e-02 0.000000e+00 0.000000e+00
 0.000000e+00 0.000000e+00 9.114353e-01 8.856469e-02 0.000000e+00
 0.000000e+00 0.000000e+00 0.000000e+00 9.549359e-01 4.506411e-02
 0.000000e+00 0.000000e+00 0.000000e+00 0.000000e+00 0.000000e+00
<ENDHMM>
~h "nau"
<BEGINHMM>
<NUMSTATES> 5
<STATE> 2
~s "ST_nau_2_1"
<STATE> 3
~s "ST_nau_3_1"
<STATE> 4
~s "ST_nau_4_1"
<TRANSP> 5
 0.000000e+00 1.000000e+00 0.000000e+00 0.000000e+00 0.000000e+00
 0.000000e+00 9.860242e-01 1.397580e-02 0.000000e+00 0.000000e+00
 0.000000e+00 0.000000e+00 8.891249e-01 1.108751e-01 0.000000e+00
 0.000000e+00 0.000000e+00 0.000000e+00 9.197742e-01 8.022575e-02
 0.000000e+00 0.000000e+00 0.000000e+00 0.000000e+00 0.000000e+00
<ENDHMM>
~h "sil"
<BEGINHMM>
<NUMSTATES> 5
<STATE> 2
~s "ST_sil_2_1"
<STATE> 3
~s "ST_sil_3_1"
<STATE> 4
~s "ST_sil_4_1"
<TRANSP> 5
 0.000000e+00 1.000000e+00 0.000000e+00 0.000000e+00 0.000000e+00
 0.000000e+00 7.420618e-01 1.384544e-01 1.194838e-01 0.000000e+00
 0.000000e+00 0.000000e+00 9.311045e-01 6.889555e-02 0.000000e+00
 0.000000e+00 8.938175e-02 0.000000e+00 8.092769e-01 1.013414e-01
 0.000000e+00 0.000000e+00 0.000000e+00 0.000000e+00 0.000000e+00
<ENDHMM>
~h "shunya"
<BEGINHMM>
<NUMSTATES> 5
<STATE> 2
~s "ST_shunya_2_1"
<STATE> 3
~s "ST_shunya_3_1"
<STATE> 4
~s "ST_shunya_4_1"
<TRANSP> 5
 0.000000e+00 1.000000e+00 0.000000e+00 0.000000e+00 0.000000e+00
 0.000000e+00 9.855710e-01 1.442898e-02 0.000000e+00 0.000000e+00
 0.000000e+00 0.000000e+00 8.329868e-01 1.670132e-01 0.000000e+00
 0.000000e+00 0.000000e+00 0.000000e+00 9.802519e-01 1.974810e-02
 0.000000e+00 0.000000e+00 0.000000e+00 0.000000e+00 0.000000e+00
<ENDHMM>
~h "pach"
<BEGINHMM>
<NUMSTATES> 5
<STATE> 2
~s "ST_pach_2_1"
<STATE> 3
~s "ST_pach_3_1"
<STATE> 4
~s "ST_pach_4_1"
<TRANSP> 5
 0.000000e+00 1.000000e+00 0.000000e+00 0.000000e+00 0.000000e+00
 0.000000e+00 9.854598e-01 1.454024e-02 0.000000e+00 0.000000e+00
 0.000000e+00 0.000000e+00 8.215662e-01 1.784338e-01 0.000000e+00
 0.000000e+00 0.000000e+00 0.000000e+00 9.593358e-01 4.066415e-02
 0.000000e+00 0.000000e+00 0.000000e+00 0.000000e+00 0.000000e+00
<ENDHMM>
~h "aath"
<BEGINHMM>
<NUMSTATES> 5
<STATE> 2
~s "ST_aath_2_1"
<STATE> 3
~s "ST_aath_3_1"
<STATE> 4
~s "ST_aath_4_1"
<TRANSP> 5
 0.000000e+00 1.000000e+00 0.000000e+00 0.000000e+00 0.000000e+00
 0.000000e+00 9.805440e-01 1.945604e-02 0.000000e+00 0.000000e+00
 0.000000e+00 0.000000e+00 9.348433e-01 6.515671e-02 0.000000e+00
 0.000000e+00 0.000000e+00 0.000000e+00 9.629224e-01 3.707766e-02
 0.000000e+00 0.000000e+00 0.000000e+00 0.000000e+00 0.000000e+00
<ENDHMM>
