~o
<STREAMINFO> 1 25
<VECSIZE> 25<NULLD><MFCC_D_N_Z_0><DIAGC>
~h "ek"
<BEGINHMM>
<NUMSTATES> 5
<STATE> 2
<MEAN> 25
 -1.896051e+00 2.168226e+00 -3.662356e+00 1.677781e-01 -3.526017e+00 3.297303e+00 3.085734e+00 1.971051e+00 1.273180e-01 7.278433e-01 1.345815e+00 2.108031e+00 -1.065384e-02 4.904084e-02 -7.120766e-03 -3.703642e-02 1.785595e-03 -2.242126e-02 -2.024399e-02 1.900662e-02 1.882399e-03 -2.177532e-02 -1.259198e-02 -1.603600e-02 2.983140e-02
<VARIANCE> 25
 2.977593e+00 9.806745e+00 7.374248e+00 6.079834e+00 7.796605e+00 1.306446e+01 1.032526e+01 8.752986e+00 9.897099e+00 1.147718e+01 8.189281e+00 7.919918e+00 1.739899e-01 6.954532e-01 4.408606e-01 5.806893e-01 7.975544e-01 9.600919e-01 1.090676e+00 8.843217e-01 9.858704e-01 1.276709e+00 9.041294e-01 7.709826e-01 2.344321e-01
<GCONST> 6.579749e+01
<STATE> 3
<MEAN> 25
 -3.128166e+00 2.864185e+00 -3.205386e+00 -2.017593e+00 -2.301734e+00 2.545942e+00 9.292659e-01 3.366179e+00 2.301507e-01 -2.311947e-01 -2.480406e-01 1.885737e+00 -3.284119e-01 -5.533040e-01 7.157960e-01 -3.769201e-02 1.001970e+00 -7.870716e-01 -1.259652e+00 -2.785322e-01 3.469462e-01 -6.657635e-02 -7.232690e-01 1.452345e-01 7.194319e-01
<VARIANCE> 25
 2.395812e+00 2.556755e+00 6.168575e+00 9.434315e+00 1.555937e+01 1.072879e+01 6.455736e+00 3.066646e+00 5.914451e+00 5.837907e+00 4.619449e+00 7.704463e+00 6.062911e-01 6.379551e-01 3.456739e-01 8.063805e-01 1.276562e+00 1.962395e+00 1.187831e+00 1.565233e+00 3.178684e-01 1.050764e+00 6.409338e-01 7.013538e-01 2.298216e-01
<GCONST> 6.298473e+01
<STATE> 4
<MEAN> 25
 4.064935e+00 -4.393384e+00 1.244804e+01 2.514706e+00 1.127249e+01 -1.229400e+01 -8.930254e+00 -6.369537e+00 5.987977e-01 -1.409050e+00 -2.067384e+00 -7.997567e+00 4.293628e-01 -4.126446e-01 8.260903e-01 7.352895e-02 7.466561e-01 -6.599954e-01 -1.031760e-01 -6.341342e-01 -3.519535e-02 2.423601e-01 -2.433318e-01 -3.390572e-01 4.707630e-01
<VARIANCE> 25
 3.462508e+01 2.640294e+01 4.744725e+01 3.154775e+01 4.001543e+01 6.280501e+01 3.374392e+01 7.665146e+01 1.869927e+01 3.558243e+01 3.713812e+01 5.388209e+01 7.228507e-01 1.742276e+00 1.349248e+00 1.446272e+00 1.977413e+00 2.764989e+00 2.466518e+00 2.965451e+00 1.904944e+00 3.072418e+00 1.534072e+00 2.106336e+00 2.557019e+00
<GCONST> 9.833173e+01
<TRANSP> 5
 0.000000e+00 1.000000e+00 0.000000e+00 0.000000e+00 0.000000e+00
 0.000000e+00 9.891426e-01 1.085739e-02 0.000000e+00 0.000000e+00
 0.000000e+00 0.000000e+00 4.652047e-01 5.347953e-01 0.000000e+00
 0.000000e+00 0.000000e+00 0.000000e+00 9.422325e-01 5.776744e-02
 0.000000e+00 0.000000e+00 0.000000e+00 0.000000e+00 0.000000e+00
<ENDHMM>
~h "saat"
<BEGINHMM>
<NUMSTATES> 5
<STATE> 2
<MEAN> 25
 -1.814773e+00 3.938068e+00 -4.416776e+00 3.781415e+00 3.808019e-01 9.023480e-01 -6.429996e-01 7.024786e-01 -1.636754e+00 -1.313372e-01 -4.657515e-01 -1.748070e+00 -2.312254e-03 -2.124956e-02 5.356371e-03 9.537108e-03 -1.622862e-02 1.113497e-02 -4.534716e-03 -1.911315e-02 1.697487e-02 1.604383e-02 -5.066298e-03 1.209023e-02 6.638373e-02
<VARIANCE> 25
 3.291453e+00 6.477110e+00 7.010197e+00 7.182264e+00 8.924050e+00 1.048453e+01 8.982239e+00 8.745259e+00 1.139477e+01 9.151735e+00 7.185023e+00 6.969968e+00 2.590569e-01 4.049037e-01 4.664855e-01 5.257911e-01 7.228522e-01 7.325467e-01 9.266322e-01 8.666757e-01 9.597442e-01 9.346907e-01 8.005551e-01 6.889896e-01 1.921287e-01
<GCONST> 6.352016e+01
<STATE> 3
<MEAN> 25
 -2.405720e+00 2.208132e+00 -1.685012e+00 3.615499e+00 -6.406173e-02 3.570320e+00 -1.013104e+00 -1.161463e+00 -9.781560e-02 1.290311e-01 -1.664113e+00 -1.186773e+00 5.624999e-01 -6.440203e-01 1.386206e+00 2.572960e-01 -3.770369e-02 6.996404e-01 -3.291074e-02 -2.248928e-01 -7.414438e-03 -1.770249e-01 3.804024e-03 7.801396e-02 8.756885e-01
<VARIANCE> 25
 4.935301e+00 1.381221e+01 2.290261e+01 2.404643e+01 6.212741e+00 1.671936e+01 9.282775e+00 1.096133e+01 1.401911e+01 1.187543e+01 1.598852e+01 4.900738e+00 1.861874e+00 2.930409e+00 8.266078e-01 1.518934e+00 1.480140e+00 1.849578e+00 1.416672e+00 1.187343e+00 2.406288e+00 2.055021e+00 2.220174e+00 9.674366e-01 5.721361e-01
<GCONST> 8.047788e+01
<STATE> 4
<MEAN> 25
 1.761358e+00 -7.239155e+00 7.670945e+00 -5.712718e+00 4.441216e-01 -1.125153e+00 1.223992e+00 -1.805382e+00 2.914591e+00 -3.343148e-01 9.633610e-01 1.469241e+00 2.599760e-01 -1.499193e-01 1.263706e-01 -2.714816e-01 1.794454e-02 -1.833017e-01 3.545020e-03 -2.764223e-02 1.831859e-03 -9.959716e-03 -2.325451e-02 1.909265e-01 2.029018e-01
<VARIANCE> 25
 2.186425e+02 7.515901e+01 5.284797e+01 8.578953e+01 7.039111e+01 1.157090e+02 5.167645e+01 5.665097e+01 4.616521e+01 3.249168e+01 2.649158e+01 2.612086e+01 7.218766e+00 4.818011e+00 3.815594e+00 4.004124e+00 3.101148e+00 4.849376e+00 4.515804e+00 5.000075e+00 3.874344e+00 3.369896e+00 2.572713e+00 2.489476e+00 1.905414e+00
<GCONST> 1.120872e+02
<TRANSP> 5
 0.000000e+00 1.000000e+00 0.000000e+00 0.000000e+00 0.000000e+00
 0.000000e+00 9.864193e-01 1.358075e-02 0.000000e+00 0.000000e+00
 0.000000e+00 0.000000e+00 4.751396e-01 5.248604e-01 0.000000e+00
 0.000000e+00 0.000000e+00 0.000000e+00 9.800741e-01 1.992587e-02
 0.000000e+00 0.000000e+00 0.000000e+00 0.000000e+00 0.000000e+00
<ENDHMM>
~h "saha"
<BEGINHMM>
<NUMSTATES> 5
<STATE> 2
<MEAN> 25
 -2.812413e+00 4.598362e+00 -4.752540e+00 4.551064e+00 1.091024e+00 1.093940e+00 -1.736357e+00 5.253733e-01 -1.971166e+00 -6.837691e-01 1.073524e+00 -1.749651e+00 -2.412369e-02 -5.980801e-02 3.318647e-02 -1.176636e-02 -9.507807e-03 9.162873e-04 -1.298249e-03 3.537986e-02 2.570393e-02 -6.085359e-03 2.094200e-02 1.752851e-02 9.150761e-02
<VARIANCE> 25
 5.112024e+00 8.457494e+00 1.541535e+01 8.041462e+00 1.242563e+01 1.241416e+01 1.347329e+01 1.481941e+01 8.503215e+00 8.564717e+00 9.533006e+00 7.223599e+00 1.939144e-01 6.161764e-01 5.945978e-01 4.201968e-01 6.847234e-01 7.939537e-01 8.436604e-01 1.008402e+00 9.016352e-01 7.802857e-01 8.084050e-01 6.673417e-01 2.379609e-01
<GCONST> 6.670201e+01
<STATE> 3
<MEAN> 25
 -1.269440e+01 -2.414062e+00 6.948593e+00 8.263992e-01 3.145130e+00 2.552006e+00 -2.190849e+00 -1.121705e+00 1.724764e+00 -7.123594e-01 4.729717e+00 -2.494696e+00 -5.521972e-01 -6.500618e-01 6.200300e-01 -4.230557e-02 -6.557931e-02 -1.351737e-01 1.408405e-01 2.310851e-01 1.694833e-01 -6.322412e-02 -1.631929e-01 1.106662e-01 7.012808e-01
<VARIANCE> 25
 5.858198e+01 2.363135e+01 8.796639e+01 2.054787e+01 2.417918e+01 2.448708e+01 1.349286e+01 3.239740e+01 1.057633e+01 1.231517e+01 1.113361e+01 1.131970e+01 6.940112e-01 2.422976e+00 1.381013e+00 6.894089e-01 2.582712e+00 1.762636e+00 2.200907e+00 2.461658e+00 1.106642e+00 1.900097e+00 9.631019e-01 1.467271e+00 1.501681e+00
<GCONST> 8.802110e+01
<STATE> 4
<MEAN> 25
 6.005120e+00 -8.059251e+00 7.801857e+00 -7.172070e+00 -2.224696e+00 -2.366823e+00 2.737594e+00 -7.090761e-01 1.711052e+00 1.166552e+00 -2.458844e+00 3.219786e+00 3.131938e-01 1.416100e-02 -4.137307e-03 -2.172994e-01 -1.377590e-01 -1.751252e-02 7.092445e-02 -9.107701e-02 1.298755e-01 8.868909e-03 -1.161058e-01 7.777552e-02 3.331269e-02
<VARIANCE> 25
 2.178759e+02 4.746137e+01 4.563343e+01 9.158740e+01 1.274431e+02 7.104215e+01 7.750414e+01 7.912418e+01 8.642420e+01 5.325690e+01 5.775183e+01 4.325452e+01 5.364485e+00 3.726767e+00 3.190112e+00 3.872972e+00 4.758222e+00 3.863888e+00 4.829142e+00 5.204368e+00 5.126505e+00 5.832111e+00 4.227397e+00 3.285496e+00 1.367215e+00
<GCONST> 1.156055e+02
<TRANSP> 5
 0.000000e+00 1.000000e+00 0.000000e+00 0.000000e+00 0.000000e+00
 0.000000e+00 9.865192e-01 1.348080e-02 0.000000e+00 0.000000e+00
 0.000000e+00 0.000000e+00 8.158823e-01 1.841177e-01 0.000000e+00
 0.000000e+00 0.000000e+00 0.000000e+00 9.822989e-01 1.770111e-02
 0.000000e+00 0.000000e+00 0.000000e+00 0.000000e+00 0.000000e+00
<ENDHMM>
~h "char"
<BEGINHMM>
<NUMSTATES> 5
<STATE> 2
<MEAN> 25
 -3.284653e+00 4.416530e+00 -3.044082e+00 2.777534e+00 -9.220016e-01 2.459880e+00 4.293888e-01 5.422558e-01 -5.919931e-01 2.742134e-01 2.452355e-02 -2.279828e+00 3.853749e-03 -7.043511e-03 -3.499284e-03 -3.809452e-03 -1.410169e-02 -9.142399e-03 1.126639e-02 1.706291e-03 -6.896918e-03 -1.769354e-03 2.113846e-02 -5.687803e-03 4.593594e-02
<VARIANCE> 25
 1.543646e+01 6.486221e+00 1.111921e+01 1.454023e+01 1.000731e+01 9.592047e+00 9.239241e+00 1.280197e+01 1.247201e+01 1.211657e+01 7.230515e+00 9.047960e+00 1.412761e+00 6.158634e-01 6.263056e-01 7.553286e-01 6.137398e-01 9.660536e-01 1.045458e+00 9.526569e-01 1.259556e+00 1.314530e+00 9.093007e-01 1.063450e+00 2.233648e-01
<GCONST> 7.173240e+01
<STATE> 3
<MEAN> 25
 -3.673542e+00 4.556512e+00 -4.445333e+00 2.595108e+00 -1.861388e+00 1.088256e+00 -1.150207e+00 -8.129898e-01 -1.648571e+00 1.652208e+00 1.458655e+00 -3.382448e+00 -1.897088e-01 -1.006115e+00 9.843680e-01 3.496261e-02 -4.959145e-01 1.874061e-01 -4.140444e-01 2.290738e-01 3.919012e-01 -5.026464e-01 4.412588e-01 1.160386e-01 5.247949e-01
<VARIANCE> 25
 8.056482e+00 1.164266e+01 1.080614e+01 2.546618e+01 7.564286e+00 1.549905e+01 1.411503e+01 1.928640e+01 1.521856e+01 1.281142e+01 6.183645e+00 5.578147e+00 5.834565e-01 3.763147e+00 1.942529e+00 1.527483e+00 6.947900e-01 2.413122e+00 1.208307e+00 1.608536e+00 1.383264e+00 2.568578e+00 1.178633e+00 8.471411e-01 1.282098e+00
<GCONST> 7.986019e+01
<STATE> 4
<MEAN> 25
 6.214324e+00 -8.746019e+00 5.975458e+00 -5.601938e+00 1.599374e-01 -5.289202e+00 2.196191e-01 -1.315429e+00 1.434070e+00 -3.446468e-01 -9.250352e-01 5.192509e+00 3.667835e-01 -2.033798e-01 1.694386e-01 -2.735811e-01 2.017955e-01 -2.291150e-01 -8.424082e-02 4.313922e-03 -9.893941e-02 -9.619077e-02 -5.013363e-02 1.770473e-01 2.482782e-01
<VARIANCE> 25
 1.354005e+02 4.442491e+01 5.544232e+01 7.682795e+01 1.571275e+02 5.705278e+01 6.965131e+01 7.483711e+01 7.854926e+01 8.388573e+01 7.332468e+01 7.007786e+01 5.028214e+00 3.393168e+00 3.594526e+00 3.817181e+00 7.405297e+00 5.496452e+00 5.247622e+00 4.871331e+00 5.997501e+00 5.229805e+00 5.273211e+00 4.122556e+00 2.375877e+00
<GCONST> 1.177968e+02
<TRANSP> 5
 0.000000e+00 1.000000e+00 0.000000e+00 0.000000e+00 0.000000e+00
 0.000000e+00 9.883820e-01 1.161799e-02 0.000000e+00 0.000000e+00
 0.000000e+00 0.000000e+00 5.579197e-01 4.420803e-01 0.000000e+00
 0.000000e+00 0.000000e+00 0.000000e+00 9.810358e-01 1.896419e-02
 0.000000e+00 0.000000e+00 0.000000e+00 0.000000e+00 0.000000e+00
<ENDHMM>
~h "teen"
<BEGINHMM>
<NUMSTATES> 5
<STATE> 2
<MEAN> 25
 -2.457788e+00 2.989428e+00 -5.656735e+00 -1.523276e+00 -3.885904e+00 2.060115e+00 1.672943e+00 3.217602e-01 -1.432064e+00 2.244843e+00 5.513592e-02 1.844383e+00 6.470537e-03 -3.215935e-03 -1.055165e-02 7.550796e-03 5.751632e-03 -3.039088e-03 1.601137e-03 6.760251e-03 -2.092987e-03 1.196192e-02 6.471118e-03 -6.923154e-04 5.570651e-02
<VARIANCE> 25
 1.329005e+00 5.435000e+00 6.960914e+00 4.826272e+00 5.184269e+00 9.190831e+00 8.459439e+00 1.089515e+01 7.237668e+00 7.792562e+00 6.085670e+00 5.270460e+00 1.083673e-01 4.758779e-01 4.952150e-01 5.610511e-01 6.142726e-01 8.121060e-01 9.360566e-01 7.323417e-01 7.597024e-01 9.860556e-01 7.141563e-01 6.131122e-01 1.452372e-01
<GCONST> 5.896389e+01
<STATE> 3
<MEAN> 25
 -1.307009e+00 -1.395489e-01 -6.903194e+00 -1.830238e+00 -3.457538e+00 2.427343e+00 3.250480e+00 4.288316e-02 -2.021930e+00 1.788434e+00 -6.428322e-01 1.827096e+00 -6.921105e-02 -3.958914e-01 6.708481e-02 1.100671e-01 -3.620374e-01 2.664221e-01 2.034881e-01 -4.692197e-01 2.772776e-01 -3.719276e-01 -8.368093e-03 -2.554293e-01 6.617483e-02
<VARIANCE> 25
 1.424241e+00 3.719994e+01 1.232106e+01 6.540174e+00 2.316864e+00 8.048157e+00 1.663298e+01 5.327263e+00 6.674719e+00 1.087696e+01 1.969030e+01 8.609703e+00 1.570415e-01 6.660977e+00 1.995682e+00 1.041789e+00 3.905370e-01 7.296318e-01 3.461822e+00 1.036171e+00 8.240505e-01 1.934849e+00 3.862892e+00 9.137521e-01 1.295537e+00
<GCONST> 7.391949e+01
<STATE> 4
<MEAN> 25
 3.390082e+00 -8.316718e+00 1.628135e+01 3.146859e+00 1.091186e+01 -1.071260e+01 -2.910369e+00 -3.219702e+00 5.253743e+00 -5.928004e+00 -1.830215e+00 -6.487268e+00 3.038421e-01 -2.312430e-01 7.139906e-01 9.418287e-02 5.564558e-01 -5.335968e-01 -1.129567e-01 -2.091870e-03 3.175511e-01 -3.513351e-01 1.029104e-01 -3.196984e-01 3.507530e-01
<VARIANCE> 25
 2.577741e+01 3.996114e+01 1.640991e+02 4.507751e+01 1.346929e+02 1.076852e+02 4.183905e+01 7.965147e+01 7.284686e+01 6.617418e+01 4.265428e+01 3.807515e+01 1.145549e+00 3.266921e+00 4.584002e+00 3.966917e+00 4.828834e+00 3.575054e+00 4.143239e+00 3.969764e+00 2.881140e+00 5.075120e+00 4.311736e+00 2.583918e+00 3.656651e+00
<GCONST> 1.116191e+02
<TRANSP> 5
 0.000000e+00 1.000000e+00 0.000000e+00 0.000000e+00 0.000000e+00
 0.000000e+00 9.904646e-01 9.535458e-03 0.000000e+00 0.000000e+00
 0.000000e+00 0.000000e+00 7.728457e-01 2.271543e-01 0.000000e+00
 0.000000e+00 0.000000e+00 0.000000e+00 9.725208e-01 2.747916e-02
 0.000000e+00 0.000000e+00 0.000000e+00 0.000000e+00 0.000000e+00
<ENDHMM>
~h "don"
<BEGINHMM>
<NUMSTATES> 5
<STATE> 2
<MEAN> 25
 -6.510742e+00 3.600842e+00 -5.781054e+00 1.114760e+00 -6.463707e-01 -2.979955e-01 4.073455e+00 -1.197788e+00 8.372337e-02 2.183015e+00 -1.169804e-01 8.361776e-01 -3.909549e-02 -7.904865e-02 -4.191310e-02 -1.901669e-02 9.840019e-04 -3.060045e-02 2.140585e-02 -2.595305e-03 1.564522e-02 2.337755e-02 3.405234e-02 3.383145e-02 3.483485e-02
<VARIANCE> 25
 4.671677e+00 9.866087e+00 6.824380e+00 4.054152e+00 9.316442e+00 7.048271e+00 7.472692e+00 8.637043e+00 9.667726e+00 9.977526e+00 7.626040e+00 7.829158e+00 9.319638e-02 2.946001e-01 3.804699e-01 3.891402e-01 4.802095e-01 4.938353e-01 7.401746e-01 8.374836e-01 8.974748e-01 1.005024e+00 7.206311e-01 6.828787e-01 9.597830e-02
<GCONST> 5.952971e+01
<STATE> 3
<MEAN> 25
 -5.820367e+00 -3.048620e+00 -6.710706e+00 -7.994598e-01 1.102147e+00 -1.699021e+00 3.252544e+00 -3.782544e+00 3.744217e-01 -9.135606e-01 2.369906e+00 2.570344e+00 5.084879e-02 -1.299314e-02 1.083205e-02 1.182003e-01 -2.281094e-02 5.851407e-02 -7.539231e-02 3.197001e-02 6.804157e-02 3.427124e-03 -8.219074e-02 4.305208e-03 9.173494e-03
<VARIANCE> 25
 5.713947e+00 4.058898e+01 3.055992e+01 1.302485e+01 1.275809e+01 4.684689e+01 1.939028e+01 1.444586e+01 1.895209e+01 1.389815e+01 1.044757e+01 1.470289e+01 7.159110e-01 2.429852e+00 1.546921e+00 1.215649e+00 1.556101e+00 2.821040e+00 1.379622e+00 1.545761e+00 1.544529e+00 1.306464e+00 1.127533e+00 1.320191e+00 1.431160e-01
<GCONST> 8.259375e+01
<STATE> 4
<MEAN> 25
 8.138993e+00 -2.628270e+00 6.708250e+00 -1.317302e-01 1.425220e+00 1.765244e+00 -4.459486e+00 -1.429287e+00 8.378607e-01 -1.828307e+00 5.031836e-01 -2.257284e+00 2.343587e-01 1.363171e-01 2.398122e-01 6.852932e-02 4.165919e-02 9.154270e-02 -6.369212e-02 -2.152537e-02 -3.273644e-02 7.372351e-02 1.997759e-02 -1.189274e-01 1.183093e-01
<VARIANCE> 25
 1.087814e+02 5.545584e+01 6.066528e+01 1.756420e+02 3.334776e+01 1.065578e+02 8.551451e+01 5.483063e+01 6.349815e+01 6.089003e+01 5.538457e+01 7.724624e+01 4.879306e+00 3.857909e+00 4.364674e+00 5.595499e+00 2.510259e+00 4.387691e+00 6.776942e+00 4.748153e+00 5.876327e+00 5.747379e+00 6.398835e+00 5.762336e+00 1.593177e+00
<GCONST> 1.167696e+02
<TRANSP> 5
 0.000000e+00 1.000000e+00 0.000000e+00 0.000000e+00 0.000000e+00
 0.000000e+00 9.863723e-01 1.362768e-02 0.000000e+00 0.000000e+00
 0.000000e+00 0.000000e+00 9.456407e-01 5.435924e-02 0.000000e+00
 0.000000e+00 0.000000e+00 0.000000e+00 9.614789e-01 3.852111e-02
 0.000000e+00 0.000000e+00 0.000000e+00 0.000000e+00 0.000000e+00
<ENDHMM>
~h "nau"
<BEGINHMM>
<NUMSTATES> 5
<STATE> 2
<MEAN> 25
 -6.963634e+00 2.788255e+00 -5.170597e+00 1.074783e+00 -2.460749e-01 1.218396e+00 1.959666e+00 -8.712981e-01 1.277591e+00 5.958496e-01 1.077870e+00 2.205105e-01 7.411219e-03 1.925942e-03 -1.184099e-02 2.388988e-02 2.778576e-02 -3.793485e-03 1.767682e-02 3.880345e-02 2.298477e-02 -1.363928e-02 -1.026542e-02 -2.018566e-03 4.097616e-02
<VARIANCE> 25
 4.203448e+00 6.992632e+00 5.974096e+00 5.944215e+00 1.293529e+01 1.678224e+01 1.291949e+01 1.020519e+01 1.048198e+01 1.010621e+01 8.781474e+00 8.497608e+00 1.380287e-01 5.477719e-01 4.560735e-01 5.167133e-01 7.577929e-01 7.755931e-01 8.906866e-01 1.054992e+00 1.075006e+00 8.231068e-01 7.414380e-01 6.596778e-01 1.980493e-01
<GCONST> 6.505668e+01
<STATE> 3
<MEAN> 25
 -4.435864e+00 -2.320406e+00 -6.602238e+00 6.136154e+00 2.786096e+00 2.192919e+00 1.068114e-01 2.001368e+00 2.527777e+00 -4.336815e+00 1.238902e+00 1.191175e+00 3.250085e-01 -1.454833e-01 2.824807e-01 7.343811e-01 4.233449e-01 2.996748e-01 -7.374223e-02 6.773707e-02 2.672290e-01 -8.338061e-02 -1.854092e-01 -2.444839e-01 3.510041e-01
<VARIANCE> 25
 5.306814e+00 2.324874e+01 8.488478e+00 1.207197e+01 4.735229e+00 8.332627e+00 1.126419e+01 1.294709e+01 1.497641e+01 2.786376e+01 2.265660e+01 1.388101e+01 3.203342e-01 1.000546e+00 7.763133e-01 1.257869e+00 6.440226e-01 1.228822e+00 1.189068e+00 1.475949e+00 1.536907e+00 2.175981e+00 1.697010e+00 9.962513e-01 1.043394e-01
<GCONST> 7.447340e+01
<STATE> 4
<MEAN> 25
 1.038001e+01 -5.824170e+00 1.118508e+00 1.242161e+01 2.633294e+00 7.596326e+00 -7.530169e+00 -7.059695e+00 5.276804e+00 -1.821831e+00 -4.237449e+00 -2.497224e+00 1.482863e+00 -7.602980e-01 7.811984e-01 2.174600e-01 3.664091e-01 5.140224e-01 -9.433824e-01 -3.427853e-01 -4.610076e-02 -5.977131e-01 -2.535880e-01 -2.773542e-01 2.868987e-01
<VARIANCE> 25
 1.471450e+02 7.063949e+01 3.760468e+01 6.518223e+01 4.537585e+01 6.082789e+01 7.776532e+01 6.265133e+01 3.214410e+01 6.167296e+01 5.369979e+01 2.662617e+01 3.147507e+00 2.717865e+00 1.462461e+00 5.829771e+00 4.928638e+00 5.013421e+00 4.670816e+00 4.073553e+00 2.918345e+00 3.604685e+00 3.367221e+00 1.518412e+00 9.488817e-01
<GCONST> 1.086471e+02
<TRANSP> 5
 0.000000e+00 1.000000e+00 0.000000e+00 0.000000e+00 0.000000e+00
 0.000000e+00 9.889531e-01 1.104692e-02 0.000000e+00 0.000000e+00
 0.000000e+00 0.000000e+00 7.551168e-01 2.448832e-01 0.000000e+00
 0.000000e+00 0.000000e+00 0.000000e+00 9.046687e-01 9.533123e-02
 0.000000e+00 0.000000e+00 0.000000e+00 0.000000e+00 0.000000e+00
<ENDHMM>
~h "sil"
<BEGINHMM>
<NUMSTATES> 5
<STATE> 2
<MEAN> 25
 2.469346e+00 9.426661e-01 1.070248e+00 1.214849e+00 4.516282e+00 1.312033e+00 3.686536e-01 1.280427e+00 1.315027e+00 4.805470e-01 1.254273e+00 2.104765e+00 -1.850723e+00 -8.645599e-02 -7.735401e-01 -1.526527e-01 -1.794449e+00 -2.407387e-01 -1.769450e-02 -8.155533e-01 -6.864003e-01 -4.351922e-01 -2.672471e-01 -5.559084e-01 6.635455e+00
<VARIANCE> 25
 1.439021e+02 6.603592e+01 4.973506e+01 5.999833e+01 7.298003e+01 5.389520e+01 3.894945e+01 5.721893e+01 4.092670e+01 4.038247e+01 3.481573e+01 3.354576e+01 1.389275e+01 5.373805e+00 5.002935e+00 6.030033e+00 6.416972e+00 6.092515e+00 4.340080e+00 5.701186e+00 4.466383e+00 3.717280e+00 4.008464e+00 2.731244e+00 4.090260e+01
<GCONST> 1.170750e+02
<STATE> 3
<MEAN> 25
 -8.166541e-01 1.751064e+00 -2.361332e+00 9.107826e-01 -1.990325e+00 9.195383e-01 -6.303813e-01 -2.774742e-01 -9.730467e-01 -9.475135e-01 1.131982e+00 9.450930e-02 -1.373638e-01 -1.584028e-01 7.773017e-02 -1.800361e-01 -2.839389e-01 1.967147e-01 -4.831782e-02 -1.075745e-01 -2.801705e-01 5.035617e-02 -1.325566e-02 -1.476464e-01 1.911114e+00
<VARIANCE> 25
 4.061739e+01 3.457343e+01 4.736244e+01 3.831988e+01 3.693030e+01 3.175314e+01 2.742822e+01 2.563952e+01 2.711831e+01 2.555630e+01 1.837555e+01 2.141695e+01 2.387596e+00 2.509303e+00 3.392962e+00 3.012967e+00 3.134921e+00 3.627152e+00 2.883769e+00 2.651535e+00 3.262434e+00 2.266742e+00 2.485604e+00 2.012503e+00 9.537076e+00
<GCONST> 1.012831e+02
<STATE> 4
<MEAN> 25
 3.337699e+00 -1.143227e+00 3.208374e+00 -1.860540e+00 -2.030229e-01 -8.999224e-01 -1.542674e+00 8.041691e-01 -1.165099e+00 -1.290308e-01 -3.292798e-01 -2.322544e-01 -7.682163e-02 7.327463e-02 -2.478733e-02 1.249610e-01 -1.758732e-02 5.502467e-02 5.041508e-02 3.693533e-02 -1.849527e-02 6.218432e-02 -2.227560e-02 -9.898143e-03 -1.079052e-01
<VARIANCE> 25
 9.648608e+01 6.302799e+01 8.850500e+01 7.049559e+01 5.968221e+01 6.103192e+01 5.232254e+01 4.265527e+01 3.934991e+01 3.844847e+01 3.195737e+01 3.281098e+01 1.669002e+00 1.907059e+00 2.527742e+00 2.851445e+00 2.958207e+00 2.957615e+00 2.688599e+00 2.778575e+00 2.953068e+00 3.273455e+00 2.677529e+00 2.261369e+00 1.256762e+00
<GCONST> 1.051975e+02
<TRANSP> 5
 0.000000e+00 1.000000e+00 0.000000e+00 0.000000e+00 0.000000e+00
 0.000000e+00 7.477831e-01 2.522169e-01 0.000000e+00 0.000000e+00
 0.000000e+00 0.000000e+00 6.218433e-01 3.781567e-01 0.000000e+00
 0.000000e+00 0.000000e+00 0.000000e+00 9.347647e-01 6.523522e-02
 0.000000e+00 0.000000e+00 0.000000e+00 0.000000e+00 0.000000e+00
<ENDHMM>
~h "shunya"
<BEGINHMM>
<NUMSTATES> 5
<STATE> 2
<MEAN> 25
 -6.092251e+00 7.389498e+00 -5.743647e+00 8.459052e-02 -4.930082e+00 1.563067e+00 3.072205e+00 4.502965e-01 -8.694305e-01 8.119349e-01 -2.085687e-01 1.238472e+00 6.724387e-03 -1.646017e-02 -9.090669e-03 1.679850e-02 9.533778e-03 -3.345359e-03 -2.762262e-02 -3.516119e-03 -1.082708e-02 -2.735026e-02 -9.534872e-03 6.553730e-03 5.891327e-02
<VARIANCE> 25
 3.882167e+00 1.043534e+01 5.542959e+00 7.686547e+00 1.026914e+01 1.044615e+01 1.328564e+01 1.091870e+01 8.765914e+00 8.917281e+00 6.772833e+00 7.290092e+00 2.028843e-01 5.450230e-01 4.066103e-01 5.651540e-01 5.783179e-01 7.128325e-01 9.614337e-01 7.584703e-01 7.638497e-01 8.481543e-01 6.102303e-01 6.647418e-01 3.281263e-01
<GCONST> 6.398611e+01
<STATE> 3
<MEAN> 25
 -5.337660e+00 6.003766e+00 -5.675031e+00 7.585513e-01 -3.436560e+00 1.881963e+00 1.293147e+00 3.685477e-01 2.387065e-01 2.896216e-01 -2.771396e-01 2.205259e+00 7.029412e-01 -1.137721e+00 7.286286e-01 7.901023e-01 1.045523e+00 3.667485e-01 -5.453737e-01 -2.402142e-02 -1.384671e-01 -6.545276e-01 -8.674879e-02 -4.095767e-01 6.285974e-01
<VARIANCE> 25
 4.624866e+00 8.029084e+00 7.772610e+00 1.708348e+01 1.778957e+01 8.203744e+00 1.804841e+01 1.105207e+01 1.432203e+01 1.524146e+01 1.707154e+01 9.438395e+00 1.074209e+00 5.053411e+00 1.887895e+00 3.245360e+00 1.494970e+00 1.549347e+00 2.522073e+00 2.089565e+00 1.741666e+00 1.931224e+00 2.589760e+00 1.329755e+00 6.209202e-01
<GCONST> 8.317638e+01
<STATE> 4
<MEAN> 25
 8.505159e+00 -1.086571e+01 7.806643e+00 4.039395e-01 6.132145e+00 -2.585433e+00 -4.452140e+00 -8.835166e-01 1.269588e+00 -1.670359e+00 -1.654698e-01 -2.056755e+00 1.418601e-01 -9.328429e-02 1.407159e-01 -1.620789e-01 1.479875e-01 -1.810116e-01 -2.258079e-02 -8.426643e-02 -1.419065e-02 3.579083e-02 6.802788e-02 -3.065041e-02 1.619839e-01
<VARIANCE> 25
 2.595052e+02 5.366641e+01 4.210860e+01 8.080515e+01 1.289662e+02 1.192299e+02 6.273120e+01 5.813312e+01 7.425327e+01 5.054317e+01 6.864824e+01 3.519694e+01 6.647023e+00 4.869487e+00 4.493157e+00 6.608651e+00 7.452542e+00 7.464324e+00 3.841843e+00 4.299835e+00 6.611135e+00 5.459526e+00 6.101656e+00 3.116173e+00 2.588040e+00
<GCONST> 1.186567e+02
<TRANSP> 5
 0.000000e+00 1.000000e+00 0.000000e+00 0.000000e+00 0.000000e+00
 0.000000e+00 9.867189e-01 1.328113e-02 0.000000e+00 0.000000e+00
 0.000000e+00 0.000000e+00 5.388749e-01 4.611252e-01 0.000000e+00
 0.000000e+00 0.000000e+00 0.000000e+00 9.844233e-01 1.557674e-02
 0.000000e+00 0.000000e+00 0.000000e+00 0.000000e+00 0.000000e+00
<ENDHMM>
~h "pach"
<BEGINHMM>
<NUMSTATES> 5
<STATE> 2
<MEAN> 25
 -3.845375e+00 4.468579e+00 -3.692628e+00 4.119849e+00 -6.368828e-02 1.999937e+00 -1.813152e-01 -9.739484e-01 -1.225901e+00 -3.154930e-01 3.231272e-01 -2.127147e+00 -4.772060e-03 1.649585e-02 -1.784297e-02 9.653717e-03 1.175413e-02 -9.812448e-03 -2.535740e-02 -6.466435e-03 2.428923e-02 1.955226e-02 1.177563e-02 -1.616536e-02 3.431917e-02
<VARIANCE> 25
 4.644674e+00 4.726114e+00 6.685301e+00 5.815164e+00 6.258087e+00 7.681736e+00 6.819398e+00 8.228473e+00 1.244517e+01 8.750274e+00 9.055448e+00 9.518141e+00 1.150763e-01 2.657951e-01 3.108250e-01 4.108109e-01 5.118698e-01 6.243353e-01 6.698554e-01 8.031395e-01 8.229718e-01 7.830234e-01 6.348531e-01 7.948000e-01 1.096797e-01
<GCONST> 5.910355e+01
<STATE> 3
<MEAN> 25
 -4.333464e+00 4.393375e+00 -3.898666e+00 5.492320e+00 7.009485e-01 1.932689e+00 5.760008e-01 -7.575962e-01 6.614176e-01 8.325615e-01 1.696358e+00 -2.970776e+00 1.858234e-01 -2.538276e-01 2.787490e-01 4.119016e-01 2.169202e-02 -2.777659e-01 -1.127456e-01 2.294604e-01 -3.741625e-02 -1.635730e-01 8.733451e-02 3.958985e-01 2.586907e-01
<VARIANCE> 25
 5.669067e+00 9.663811e+00 5.841286e+00 6.394778e+00 4.432099e+00 3.326560e+00 8.200539e+00 5.150982e+00 7.563334e+00 8.742791e+00 3.544417e+00 7.519005e+00 3.739482e-01 1.499683e+00 1.015078e+00 6.712237e-01 6.659297e-01 9.748024e-01 8.355913e-01 4.701771e-01 7.005889e-01 1.082818e+00 9.917803e-01 7.412258e-01 1.146980e+00
<GCONST> 6.470404e+01
<STATE> 4
<MEAN> 25
 1.289369e+01 -1.376504e+01 6.751666e+00 -1.423376e+01 1.795739e+00 -1.181170e+01 5.675470e-01 4.247502e+00 3.013710e+00 2.578105e+00 -1.511486e+00 5.215291e+00 6.594794e-01 -7.368703e-01 5.240263e-01 -7.362748e-01 1.964250e-01 -3.954395e-01 2.062838e-02 -6.687900e-02 -2.384643e-02 -7.937497e-02 -1.024689e-01 3.821226e-01 5.860003e-01
<VARIANCE> 25
 6.094513e+01 8.602940e+01 2.817445e+01 9.368265e+01 2.524303e+01 4.680614e+01 2.065486e+01 2.225588e+01 2.435366e+01 2.590862e+01 7.713103e+01 4.001928e+01 3.434297e+00 3.516578e+00 1.617833e+00 4.378089e+00 3.091032e+00 2.381284e+00 2.105101e+00 1.806554e+00 2.940518e+00 3.354538e+00 2.801272e+00 2.041761e+00 3.392890e+00
<GCONST> 1.031126e+02
<TRANSP> 5
 0.000000e+00 1.000000e+00 0.000000e+00 0.000000e+00 0.000000e+00
 0.000000e+00 9.880269e-01 1.197316e-02 0.000000e+00 0.000000e+00
 0.000000e+00 0.000000e+00 4.848560e-01 5.151441e-01 0.000000e+00
 0.000000e+00 0.000000e+00 0.000000e+00 9.159817e-01 8.401838e-02
 0.000000e+00 0.000000e+00 0.000000e+00 0.000000e+00 0.000000e+00
<ENDHMM>
~h "aath"
<BEGINHMM>
<NUMSTATES> 5
<STATE> 2
<MEAN> 25
 -4.456232e+00 3.421997e+00 -1.547455e+00 4.080089e+00 1.081869e+00 1.275867e+00 -8.523313e-01 6.729228e-02 -1.227744e+00 -6.797479e-01 7.660558e-01 -2.321689e+00 1.252849e-03 5.301839e-02 -2.981113e-02 -4.303944e-02 -1.982897e-02 9.931847e-03 -2.260761e-03 -5.215406e-03 7.651637e-04 -3.537639e-03 -1.773064e-02 -5.591530e-03 2.923695e-02
<VARIANCE> 25
 3.234640e+00 8.105658e+00 6.362056e+00 1.357058e+01 1.048972e+01 1.219674e+01 9.659760e+00 9.071628e+00 8.429275e+00 1.136405e+01 1.090961e+01 6.554280e+00 1.680200e-01 4.650145e-01 3.709932e-01 9.201954e-01 7.075743e-01 8.954219e-01 9.892961e-01 8.821632e-01 9.980895e-01 6.958151e-01 7.745327e-01 6.992181e-01 2.172034e-01
<GCONST> 6.510686e+01
<STATE> 3
<MEAN> 25
 -4.374688e+00 1.720709e+00 -2.248114e+00 1.023484e+00 -4.496883e-01 1.628757e+00 4.255612e-01 4.103722e-01 -1.431812e+00 -2.173911e+00 1.474775e+00 -2.489816e+00 -6.495227e-02 -2.794257e-01 2.642128e-01 -2.451137e-01 -4.092610e-01 1.957307e-01 4.923668e-01 -5.095081e-02 4.428224e-01 -1.146039e-01 -3.106240e-01 6.976351e-05 3.500727e-01
<VARIANCE> 25
 4.279875e+00 3.245387e+01 1.178498e+01 1.740338e+01 2.344126e+01 1.702386e+01 2.103094e+01 1.281030e+01 1.065719e+01 2.363400e+01 1.099290e+01 8.187182e+00 6.325811e-01 2.895777e+00 1.098282e+00 1.658344e+00 2.283896e+00 2.393660e+00 2.178908e+00 2.334650e+00 2.184251e+00 1.635912e+00 1.520557e+00 9.644712e-01 1.394598e+00
<GCONST> 8.433751e+01
<STATE> 4
<MEAN> 25
 7.711842e+00 -6.259702e+00 1.933517e+00 -8.285239e+00 -4.151944e+00 -2.513581e+00 2.235363e+00 2.035744e+00 3.023198e+00 1.195891e+00 -3.690293e+00 3.955708e+00 4.714415e-01 -2.211222e-01 5.874112e-02 -1.978020e-01 1.707730e-01 -8.587234e-02 -1.618178e-01 -1.386835e-01 -1.864516e-01 1.138947e-01 9.390860e-02 2.025936e-01 1.797175e-01
<VARIANCE> 25
 1.157206e+02 9.528888e+01 4.543806e+01 7.165382e+01 1.057389e+02 8.435846e+01 5.898537e+01 5.487924e+01 7.870539e+01 7.731644e+01 9.046486e+01 4.861661e+01 3.284535e+00 3.533670e+00 2.720402e+00 3.956501e+00 7.009532e+00 7.102827e+00 4.426975e+00 5.998168e+00 5.681639e+00 5.370060e+00 6.210710e+00 4.652246e+00 2.226436e+00
<GCONST> 1.172210e+02
<TRANSP> 5
 0.000000e+00 1.000000e+00 0.000000e+00 0.000000e+00 0.000000e+00
 0.000000e+00 9.851483e-01 1.485170e-02 0.000000e+00 0.000000e+00
 0.000000e+00 0.000000e+00 7.414309e-01 2.585691e-01 0.000000e+00
 0.000000e+00 0.000000e+00 0.000000e+00 9.736371e-01 2.636288e-02
 0.000000e+00 0.000000e+00 0.000000e+00 0.000000e+00 0.000000e+00
<ENDHMM>
