~o
<STREAMINFO> 1 14
<VECSIZE> 14<NULLD><USER><DIAGC>
~s "silst"
<MEAN> 14
 -1.903476e+03 1.447999e+02 -5.525780e+02 1.900347e+02 -3.102209e+02 9.475180e+01 3.458427e+02 -1.821008e+02 -8.859802e+01 9.244884e+01 3.099962e+00 4.959834e+01 -2.555738e+00 3.702855e+00
<VARIANCE> 14
 3.443590e+08 3.560980e+08 3.626437e+08 3.579445e+08 3.602660e+08 3.476152e+08 3.514067e+08 3.546420e+08 3.652106e+08 3.546769e+08 1.272365e+01 5.136258e+01 6.367290e+00 1.518184e+01
<GCONST> 2.336724e+02
~h "l1_i"
<BEGINHMM>
<NUMSTATES> 5
<STATE> 2
<MEAN> 14
 -2.141851e+03 -9.823655e+01 1.327235e+02 2.604050e+02 -2.793618e+02 -5.447760e+02 -1.746327e+02 -1.676303e+02 7.649536e+02 -1.335344e+02 1.213169e+01 4.788284e+01 -1.566537e+00 1.629951e+00
<VARIANCE> 14
 3.425751e+08 3.531665e+08 3.512121e+08 3.663624e+08 3.571362e+08 3.682710e+08 3.478954e+08 3.587902e+08 3.538321e+08 3.537502e+08 1.279806e+02 3.182157e+01 9.465653e-01 1.916865e+00
<GCONST> 2.315206e+02
<STATE> 3
<MEAN> 14
 -3.211559e+03 -2.050904e+02 -9.290956e+02 7.833757e+01 -4.482243e+02 -2.352973e+02 -4.140204e+02 1.115397e+02 -1.489180e+03 9.863872e+02 6.801799e+00 4.685425e+01 -1.416010e+00 1.385518e+00
<VARIANCE> 14
 3.248548e+08 3.457897e+08 3.541887e+08 3.656643e+08 3.284898e+08 3.268120e+08 3.392298e+08 3.543980e+08 3.932691e+08 3.770191e+08 3.497832e+01 3.292717e+01 3.436466e-01 4.816327e-01
<GCONST> 2.277242e+02
<STATE> 4
<MEAN> 14
 -1.727114e+03 -2.608325e+01 -9.996494e+01 2.504329e+02 -2.292930e+02 -1.854052e+02 -7.875138e+02 -5.603912e+00 -1.958578e+02 -2.069507e+02 2.153685e+00 4.872110e+01 -1.335534e+00 1.680185e+00
<VARIANCE> 14
 3.426353e+08 3.614098e+08 3.581517e+08 3.523951e+08 3.464965e+08 3.507168e+08 3.583635e+08 3.428850e+08 3.686317e+08 3.529765e+08 3.296316e+00 2.701335e+01 3.967242e-01 1.339325e+00
<GCONST> 2.264175e+02
<TRANSP> 5
 0.000000e+00 1.000000e+00 0.000000e+00 0.000000e+00 0.000000e+00
 0.000000e+00 9.549834e-01 4.501661e-02 0.000000e+00 0.000000e+00
 0.000000e+00 0.000000e+00 8.341957e-01 1.658043e-01 0.000000e+00
 0.000000e+00 0.000000e+00 0.000000e+00 9.658926e-01 3.410740e-02
 0.000000e+00 0.000000e+00 0.000000e+00 0.000000e+00 0.000000e+00
<ENDHMM>
~h "l1_u"
<BEGINHMM>
<NUMSTATES> 5
<STATE> 2
<MEAN> 14
 -3.255896e+03 1.271115e+03 7.966887e+02 7.525071e+02 -5.017679e+02 -2.630412e+02 -8.190684e+02 -2.412848e+02 -9.821899e+01 9.638606e+02 1.169834e+01 4.774644e+01 -1.487668e+00 1.732881e+00
<VARIANCE> 14
 3.402197e+08 3.707568e+08 3.776163e+08 3.761924e+08 3.828378e+08 3.483106e+08 3.410848e+08 3.505646e+08 3.820396e+08 3.323250e+08 1.669684e+02 3.947042e+01 5.203406e-01 1.522026e+00
<GCONST> 2.312986e+02
<STATE> 3
<MEAN> 14
 -1.872900e+03 7.349907e+02 -4.763911e+02 -6.372445e+02 7.974828e+02 1.247991e+03 -1.802649e+03 -2.634655e+03 1.707676e+03 -1.002963e+03 8.030538e+00 4.615323e+01 -1.215487e+00 1.295380e+00
<VARIANCE> 14
 3.050450e+08 3.503861e+08 3.457586e+08 3.322434e+08 3.552450e+08 3.583576e+08 3.490736e+08 3.731092e+08 3.290448e+08 3.642183e+08 4.703616e+01 3.111771e+01 1.382650e-01 3.128603e-01
<GCONST> 2.264900e+02
<STATE> 4
<MEAN> 14
 3.628930e+02 2.211479e+02 5.972340e+02 -9.635442e+02 -1.151361e+03 -1.705338e+03 1.192428e+03 5.438970e+02 2.199125e+01 -8.842083e+02 8.508637e+00 4.811892e+01 -1.614579e+00 1.551620e+00
<VARIANCE> 14
 3.477626e+08 3.167614e+08 3.772913e+08 3.335560e+08 3.503748e+08 3.644092e+08 3.596358e+08 3.511014e+08 3.479776e+08 3.339864e+08 6.563943e+01 1.934022e+01 1.225798e+00 9.799722e-01
<GCONST> 2.297343e+02
<TRANSP> 5
 0.000000e+00 1.000000e+00 0.000000e+00 0.000000e+00 0.000000e+00
 0.000000e+00 9.156194e-01 8.438057e-02 0.000000e+00 0.000000e+00
 0.000000e+00 0.000000e+00 9.314412e-01 6.855873e-02 0.000000e+00
 0.000000e+00 0.000000e+00 0.000000e+00 9.098906e-01 9.010939e-02
 0.000000e+00 0.000000e+00 0.000000e+00 0.000000e+00 0.000000e+00
<ENDHMM>
~h "l2_i"
<BEGINHMM>
<NUMSTATES> 5
<STATE> 2
<MEAN> 14
 -4.700854e+03 4.918441e+02 2.218060e+02 8.658201e+02 -3.911573e+02 -1.070016e+03 -9.383538e+02 5.478041e+02 7.734717e+02 5.012649e+02 1.331625e+01 4.872495e+01 -1.515503e+00 1.615582e+00
<VARIANCE> 14
 2.927115e+08 3.652794e+08 3.333560e+08 3.404915e+08 3.783524e+08 3.627742e+08 3.563592e+08 3.682916e+08 3.684238e+08 3.572155e+08 1.841938e+02 4.435147e+01 7.062286e-01 1.462643e+00
<GCONST> 2.315474e+02
<STATE> 3
<MEAN> 14
 -2.500394e+03 3.293644e+02 -3.875883e+02 -3.641515e+01 -3.836152e+02 5.372388e+02 -2.463614e+01 2.681714e+02 -7.358215e+02 1.209003e+02 4.611355e+00 4.754938e+01 -1.449641e+00 1.330469e+00
<VARIANCE> 14
 3.283576e+08 3.450174e+08 3.540255e+08 3.434735e+08 3.488233e+08 3.491334e+08 3.507636e+08 3.463808e+08 3.300308e+08 3.562314e+08 1.764553e+01 3.081369e+01 4.323534e-01 2.853229e-01
<GCONST> 2.265298e+02
<STATE> 4
<MEAN> 14
 1.108881e+02 -5.807769e+02 1.518318e+02 -3.614998e+02 -3.878299e+02 2.130657e+02 -1.305871e+03 6.014746e+01 2.398917e+02 9.892348e+01 9.167663e+00 4.935574e+01 -1.609985e+00 1.913999e+00
<VARIANCE> 14
 3.245223e+08 3.786534e+08 3.538006e+08 3.590996e+08 3.588523e+08 3.363601e+08 3.537156e+08 3.413716e+08 3.468924e+08 3.350683e+08 9.921132e+01 2.652400e+01 8.556482e-01 3.706753e+00
<GCONST> 2.314522e+02
<TRANSP> 5
 0.000000e+00 1.000000e+00 0.000000e+00 0.000000e+00 0.000000e+00
 0.000000e+00 9.251399e-01 7.486016e-02 0.000000e+00 0.000000e+00
 0.000000e+00 0.000000e+00 9.505701e-01 4.942995e-02 0.000000e+00
 0.000000e+00 0.000000e+00 0.000000e+00 9.414724e-01 5.852766e-02
 0.000000e+00 0.000000e+00 0.000000e+00 0.000000e+00 0.000000e+00
<ENDHMM>
~h "l2_u"
<BEGINHMM>
<NUMSTATES> 5
<STATE> 2
<MEAN> 14
 -3.272867e+03 -7.542269e+02 -1.394264e+03 -2.301809e+03 7.073009e+02 1.049759e+02 -3.022318e+02 6.202164e+02 8.898353e+02 2.284484e+03 6.244920e+00 4.611039e+01 -1.176337e+00 3.164011e+00
<VARIANCE> 14
 3.279260e+08 3.716812e+08 3.765279e+08 3.146982e+08 3.595962e+08 3.282340e+08 3.139331e+08 3.453899e+08 3.945848e+08 3.285348e+08 4.707947e+01 4.365765e+01 1.315611e-01 1.601766e+01
<GCONST> 2.306975e+02
<STATE> 3
<MEAN> 14
 -1.418577e+03 -8.721620e+02 -8.350264e+02 -8.527177e+02 -1.033158e+03 -8.207069e+02 5.627909e+02 1.088806e+03 -2.071785e+02 -1.505929e+02 2.582136e+00 4.791676e+01 -1.299317e+00 1.909341e+00
<VARIANCE> 14
 3.109231e+08 3.617824e+08 3.340929e+08 3.672241e+08 3.781751e+08 3.581887e+08 3.734595e+08 3.684407e+08 3.572778e+08 3.467834e+08 4.994640e+00 2.358223e+01 2.935136e-01 2.600323e+00
<GCONST> 2.271078e+02
<STATE> 4
<MEAN> 14
 -1.589778e+03 -5.259374e+02 2.632907e+02 3.890012e+02 -6.501819e+02 -4.392368e+02 -1.102491e+02 -7.791480e+02 -2.631678e+02 6.357385e+02 1.223814e+01 4.833547e+01 -1.533840e+00 1.663644e+00
<VARIANCE> 14
 3.515132e+08 3.652083e+08 3.493045e+08 3.648769e+08 3.816884e+08 3.612363e+08 3.440946e+08 3.551371e+08 3.534490e+08 3.506779e+08 1.705601e+02 3.170829e+01 7.795750e-01 2.011211e+00
<GCONST> 2.317242e+02
<TRANSP> 5
 0.000000e+00 1.000000e+00 0.000000e+00 0.000000e+00 0.000000e+00
 0.000000e+00 6.020992e-01 3.979008e-01 0.000000e+00 0.000000e+00
 0.000000e+00 0.000000e+00 9.259574e-01 7.404259e-02 0.000000e+00
 0.000000e+00 0.000000e+00 0.000000e+00 9.697215e-01 3.027855e-02
 0.000000e+00 0.000000e+00 0.000000e+00 0.000000e+00 0.000000e+00
<ENDHMM>
~h "l3_i"
<BEGINHMM>
<NUMSTATES> 5
<STATE> 2
<MEAN> 14
 -1.444549e+03 -1.364254e+03 -1.416825e+03 2.657538e+01 -1.252255e+03 -1.232115e+03 3.138902e+02 -4.871195e+02 -2.985842e+02 -7.454324e+02 1.215068e+01 4.770025e+01 -1.506330e+00 1.763384e+00
<VARIANCE> 14
 3.491001e+08 3.636808e+08 3.369577e+08 3.628305e+08 3.648865e+08 3.528828e+08 3.638185e+08 3.704548e+08 3.690800e+08 3.591061e+08 1.633880e+02 3.765076e+01 6.331188e-01 2.580392e+00
<GCONST> 2.319380e+02
<STATE> 3
<MEAN> 14
 -2.060378e+03 8.680032e+02 -9.453476e+01 -2.531373e+02 -5.044544e+02 5.563208e+02 -7.907186e+02 4.992056e+02 -7.053714e+01 8.515891e+01 6.820739e+00 4.661262e+01 -1.334319e+00 1.294020e+00
<VARIANCE> 14
 3.367767e+08 3.525322e+08 3.587186e+08 3.540870e+08 3.568692e+08 3.521779e+08 3.534439e+08 3.423937e+08 3.522387e+08 3.505771e+08 3.095657e+01 2.754821e+01 3.255105e-01 2.311814e-01
<GCONST> 2.266527e+02
<STATE> 4
<MEAN> 14
 -2.065100e+03 7.031376e+02 -2.886921e+02 -1.224613e+03 8.212752e+02 -3.196690e+02 -3.130856e+02 6.047723e+02 1.509227e+02 -6.592422e+02 2.456665e+00 4.879755e+01 -1.413213e+00 1.630755e+00
<VARIANCE> 14
 3.444794e+08 3.768622e+08 3.374457e+08 3.432588e+08 3.548849e+08 3.485234e+08 3.687424e+08 3.822352e+08 3.701308e+08 3.506694e+08 6.222109e+00 3.191760e+01 4.141629e-01 7.426797e-01
<GCONST> 2.267868e+02
<TRANSP> 5
 0.000000e+00 1.000000e+00 0.000000e+00 0.000000e+00 0.000000e+00
 0.000000e+00 9.348289e-01 6.517109e-02 0.000000e+00 0.000000e+00
 0.000000e+00 0.000000e+00 9.446845e-01 5.531554e-02 0.000000e+00
 0.000000e+00 0.000000e+00 0.000000e+00 9.321772e-01 6.782278e-02
 0.000000e+00 0.000000e+00 0.000000e+00 0.000000e+00 0.000000e+00
<ENDHMM>
~h "l3_u"
<BEGINHMM>
<NUMSTATES> 5
<STATE> 2
<MEAN> 14
 -2.913774e+03 7.915449e+02 1.300006e+03 4.856117e+00 -2.411344e+02 7.559817e+02 -3.993351e+01 5.442708e+02 5.632828e+02 1.187720e+02 1.064769e+01 4.816476e+01 -1.480409e+00 1.564137e+00
<VARIANCE> 14
 3.498549e+08 3.538341e+08 3.600033e+08 3.694477e+08 3.521951e+08 3.475386e+08 3.559381e+08 3.472931e+08 3.766165e+08 3.487872e+08 1.198148e+02 2.853926e+01 6.725198e-01 1.342111e+00
<GCONST> 2.306703e+02
<STATE> 3
<MEAN> 14
 -3.225834e+03 -5.685049e+01 3.557951e+03 3.194582e+03 -4.677893e+03 -2.834319e+02 -4.875792e+02 -1.032190e+02 7.705471e+02 -9.635982e+02 4.272734e+00 4.813217e+01 -1.347823e+00 4.529365e+00
<VARIANCE> 14
 3.795418e+08 3.696436e+08 3.198432e+08 3.768572e+08 3.410068e+08 3.678351e+08 3.807914e+08 3.209764e+08 3.788482e+08 3.250514e+08 1.893138e+01 2.249805e+01 2.532040e-01 2.893986e+01
<GCONST> 2.306568e+02
<STATE> 4
<MEAN> 14
 -2.010996e+03 8.046790e+02 2.599637e+02 -8.991057e+02 3.181320e+02 2.628649e+02 3.139674e+02 2.238455e+02 -8.756588e+02 1.925676e+02 2.521142e+00 4.856339e+01 -1.311086e+00 1.608439e+00
<VARIANCE> 14
 3.364379e+08 3.728435e+08 3.635149e+08 3.583332e+08 3.510445e+08 3.565210e+08 3.455985e+08 3.639325e+08 3.657508e+08 3.490210e+08 6.636090e+00 2.941107e+01 3.056578e-01 9.329351e-01
<GCONST> 2.266581e+02
<TRANSP> 5
 0.000000e+00 1.000000e+00 0.000000e+00 0.000000e+00 0.000000e+00
 0.000000e+00 9.597344e-01 4.026557e-02 0.000000e+00 0.000000e+00
 0.000000e+00 0.000000e+00 6.074985e-01 3.925016e-01 0.000000e+00
 0.000000e+00 0.000000e+00 0.000000e+00 9.645687e-01 3.543133e-02
 0.000000e+00 0.000000e+00 0.000000e+00 0.000000e+00 0.000000e+00
<ENDHMM>
~h "l4_i"
<BEGINHMM>
<NUMSTATES> 5
<STATE> 2
<MEAN> 14
 -7.364083e+03 1.606684e+03 1.957390e+03 -9.387643e+02 1.216972e+03 1.135070e+03 -1.613724e+02 2.171074e+03 -6.079529e+02 -6.497092e+02 1.041623e+01 4.774644e+01 -2.281943e+00 2.918572e+00
<VARIANCE> 14
 2.580320e+08 3.723752e+08 3.917652e+08 3.703801e+08 3.152424e+08 3.677205e+08 3.432162e+08 2.926367e+08 3.731927e+08 3.269242e+08 1.156051e+02 4.055584e+01 9.610919e+00 1.126545e+01
<GCONST> 2.352708e+02
<STATE> 3
<MEAN> 14
 -1.064588e+03 3.348985e+02 -7.914040e+02 -2.889645e+02 -7.514917e+01 -7.041652e+02 4.267610e+02 -1.169480e+03 8.298588e+02 8.370866e+02 3.463800e+00 4.771463e+01 -1.335253e+00 1.521656e+00
<VARIANCE> 14
 3.376261e+08 3.624246e+08 3.530356e+08 3.410149e+08 3.677563e+08 3.494665e+08 3.476516e+08 3.536788e+08 3.586961e+08 3.572780e+08 1.206084e+01 2.852398e+01 2.988215e-01 4.474513e-01
<GCONST> 2.263716e+02
<STATE> 4
<MEAN> 14
 -3.974296e+02 1.015661e+02 5.752404e+02 -1.125861e+03 -9.145462e+00 6.188245e+02 -6.975472e+02 -7.543198e+01 -1.959959e+02 -4.490371e+01 9.203979e+00 4.969689e+01 -1.578136e+00 1.797558e+00
<VARIANCE> 14
 3.558105e+08 3.626357e+08 3.593929e+08 3.692750e+08 3.609564e+08 3.525229e+08 3.529886e+08 3.424396e+08 3.567540e+08 3.518668e+08 1.223932e+02 2.996829e+01 9.173101e-01 2.823650e+00
<GCONST> 2.318049e+02
<TRANSP> 5
 0.000000e+00 1.000000e+00 0.000000e+00 0.000000e+00 0.000000e+00
 0.000000e+00 7.441404e-01 2.558596e-01 0.000000e+00 0.000000e+00
 0.000000e+00 0.000000e+00 9.673466e-01 3.265339e-02 0.000000e+00
 0.000000e+00 0.000000e+00 0.000000e+00 9.805179e-01 1.948202e-02
 0.000000e+00 0.000000e+00 0.000000e+00 0.000000e+00 0.000000e+00
<ENDHMM>
~h "l4_u"
<BEGINHMM>
<NUMSTATES> 5
<STATE> 2
<MEAN> 14
 -3.632882e+03 3.630574e+02 -2.719971e+02 3.663909e+02 1.292381e+03 -6.022120e+02 -1.055694e+03 -2.185075e+02 1.699654e+02 -1.062718e+03 1.398432e+01 4.704909e+01 -1.467259e+00 1.867794e+00
<VARIANCE> 14
 3.293163e+08 3.806440e+08 3.439737e+08 3.661806e+08 3.667913e+08 3.248800e+08 3.600277e+08 3.579461e+08 3.365092e+08 3.737901e+08 1.896943e+02 4.752144e+01 5.949122e-01 3.796874e+00
<GCONST> 2.324865e+02
<STATE> 3
<MEAN> 14
 -3.438689e+03 1.033755e+03 -1.791525e+02 -3.790671e+02 -4.972441e+02 1.991050e+02 -5.910561e+02 6.355841e+01 -1.679043e+03 -3.893467e+02 6.020488e+00 4.524868e+01 -1.279161e+00 1.396893e+00
<VARIANCE> 14
 2.988092e+08 3.526484e+08 3.919293e+08 3.647651e+08 3.593090e+08 3.729879e+08 3.538801e+08 3.471595e+08 3.299104e+08 3.436375e+08 2.679854e+01 2.727179e+01 2.958575e-01 3.718829e-01
<GCONST> 2.268710e+02
<STATE> 4
<MEAN> 14
 -1.407257e+03 -2.138148e+02 4.295721e+01 -2.602016e+02 -5.852393e+02 -2.989440e+02 6.166648e+02 6.935521e+02 -1.441956e+00 -7.052612e+01 1.918179e+00 4.852053e+01 -1.356047e+00 1.944219e+00
<VARIANCE> 14
 3.462109e+08 3.573916e+08 3.640940e+08 3.505677e+08 3.393738e+08 3.668732e+08 3.570296e+08 3.499283e+08 3.622897e+08 3.387100e+08 3.437956e+00 2.896304e+01 4.279164e-01 2.343349e+00
<GCONST> 2.271572e+02
<TRANSP> 5
 0.000000e+00 1.000000e+00 0.000000e+00 0.000000e+00 0.000000e+00
 0.000000e+00 8.957073e-01 1.042927e-01 0.000000e+00 0.000000e+00
 0.000000e+00 0.000000e+00 9.178619e-01 8.213812e-02 0.000000e+00
 0.000000e+00 0.000000e+00 0.000000e+00 9.222715e-01 7.772843e-02
 0.000000e+00 0.000000e+00 0.000000e+00 0.000000e+00 0.000000e+00
<ENDHMM>
~h "l5_i"
<BEGINHMM>
<NUMSTATES> 5
<STATE> 2
<MEAN> 14
 -1.517053e+03 -1.025086e+02 -3.442113e+02 2.194370e+02 3.066268e+02 -4.123462e+02 -2.378838e+02 8.518477e+02 7.004965e+01 -4.251818e+02 1.289516e+01 4.759595e+01 -1.532938e+00 1.548584e+00
<VARIANCE> 14
 3.498372e+08 3.605065e+08 3.713486e+08 3.521189e+08 3.723847e+08 3.716112e+08 3.454856e+08 3.493709e+08 3.471858e+08 3.548732e+08 1.646294e+02 3.013248e+01 8.810976e-01 1.525823e+00
<GCONST> 2.314772e+02
<STATE> 3
<MEAN> 14
 -2.854494e+03 1.195057e+03 1.550927e+03 -1.213496e+03 -7.283246e+02 8.169856e+02 2.482950e+02 9.797200e+02 2.134832e+03 7.832637e+02 5.071447e+00 4.563675e+01 -1.325643e+00 2.383637e+00
<VARIANCE> 14
 2.985657e+08 3.548366e+08 3.458562e+08 3.537280e+08 3.537816e+08 3.276470e+08 3.713460e+08 3.443782e+08 3.634385e+08 3.768381e+08 1.747089e+01 2.593840e+01 2.634033e-01 8.112320e+00
<GCONST> 2.292931e+02
<STATE> 4
<MEAN> 14
 -1.382958e+03 2.464240e+02 -1.333922e+02 1.883963e+02 -1.609016e+02 1.522168e+02 -5.286761e+01 9.410268e+01 -5.139470e+02 -5.619351e+01 2.614677e+00 4.831483e+01 -1.380234e+00 1.562928e+00
<VARIANCE> 14
 3.523470e+08 3.588283e+08 3.585637e+08 3.541915e+08 3.520851e+08 3.655726e+08 3.434820e+08 3.571200e+08 3.512916e+08 3.620163e+08 6.595350e+00 3.238706e+01 3.993833e-01 7.345127e-01
<GCONST> 2.267584e+02
<TRANSP> 5
 0.000000e+00 1.000000e+00 0.000000e+00 0.000000e+00 0.000000e+00
 0.000000e+00 9.531366e-01 4.686337e-02 0.000000e+00 0.000000e+00
 0.000000e+00 0.000000e+00 8.236318e-01 1.763682e-01 0.000000e+00
 0.000000e+00 0.000000e+00 0.000000e+00 9.795828e-01 2.041714e-02
 0.000000e+00 0.000000e+00 0.000000e+00 0.000000e+00 0.000000e+00
<ENDHMM>
~h "l5_u"
<BEGINHMM>
<NUMSTATES> 5
<STATE> 2
<MEAN> 14
 -2.156111e+03 -3.449846e+02 7.286685e+02 -6.943556e+02 3.182814e+02 1.431896e+03 -1.210359e+03 6.155422e+02 1.292494e+03 -1.696513e+03 1.027323e+01 4.631934e+01 -1.425980e+00 2.750355e+00
<VARIANCE> 14
 2.951124e+08 3.392555e+08 3.878363e+08 3.251045e+08 3.666095e+08 3.316570e+08 3.305569e+08 3.768252e+08 3.707200e+08 3.690409e+08 9.448805e+01 4.180779e+01 2.255775e-01 1.311686e+01
<GCONST> 2.317779e+02
<STATE> 3
<MEAN> 14
 -3.368704e+03 -8.808684e+01 3.767574e+02 -3.983089e+02 9.333371e+01 9.587002e+02 -7.677490e+00 4.730724e+02 2.124284e+02 -1.553485e+03 1.025880e+01 4.521849e+01 -1.311824e+00 1.445979e+00
<VARIANCE> 14
 3.154692e+08 3.550587e+08 3.526084e+08 3.551020e+08 3.702150e+08 3.502155e+08 3.553858e+08 3.643600e+08 3.704523e+08 3.580842e+08 8.915360e+01 3.881958e+01 2.284858e-01 5.658684e-01
<GCONST> 2.286926e+02
<STATE> 4
<MEAN> 14
 -8.370515e+02 1.125854e+00 4.057736e+02 1.380234e+02 2.996587e+02 -6.851123e+02 -1.200884e+02 3.385150e+02 -4.716212e+02 -3.149935e+02 9.447238e+00 4.955726e+01 -1.649084e+00 1.770039e+00
<VARIANCE> 14
 3.446572e+08 3.629509e+08 3.660217e+08 3.672337e+08 3.873709e+08 3.663869e+08 3.351472e+08 3.449815e+08 3.549429e+08 3.588662e+08 1.038453e+02 2.721508e+01 1.284573e+00 2.687865e+00
<GCONST> 2.318928e+02
<TRANSP> 5
 0.000000e+00 1.000000e+00 0.000000e+00 0.000000e+00 0.000000e+00
 0.000000e+00 7.894123e-01 2.105877e-01 0.000000e+00 0.000000e+00
 0.000000e+00 0.000000e+00 9.242435e-01 7.575648e-02 0.000000e+00
 0.000000e+00 0.000000e+00 0.000000e+00 9.596419e-01 4.035814e-02
 0.000000e+00 0.000000e+00 0.000000e+00 0.000000e+00 0.000000e+00
<ENDHMM>
~h "sil"
<BEGINHMM>
<NUMSTATES> 5
<STATE> 2
<MEAN> 14
 -1.618336e+03 1.408714e+02 -8.325194e+01 1.685957e+02 -1.346134e+02 4.878272e+01 2.677273e+02 1.625060e+01 6.313949e+01 8.249918e+01 5.712119e-01 5.719684e+01 -1.532211e+00 1.688558e+00
<VARIANCE> 14
 3.337348e+08 3.579101e+08 3.534878e+08 3.535094e+08 3.557924e+08 3.542437e+08 3.556123e+08 3.567381e+08 3.573743e+08 3.567926e+08 8.450084e-01 7.062690e+01 5.939178e-01 7.419024e-01
<GCONST> 2.258323e+02
<STATE> 3
~s "silst"
<STATE> 4
<MEAN> 14
 -1.431110e+03 -1.088636e+02 -6.691817e+01 2.106578e+01 3.289114e+01 -2.541662e+02 1.358034e+02 9.130579e+01 -7.386417e+01 1.486185e+02 5.291034e+00 4.775603e+01 -1.373344e+00 1.482273e+00
<VARIANCE> 14
 3.441973e+08 3.566854e+08 3.568974e+08 3.580350e+08 3.575408e+08 3.556763e+08 3.533035e+08 3.579823e+08 3.602305e+08 3.579616e+08 2.794679e+01 3.486311e+01 3.183954e-01 6.075258e-01
<GCONST> 2.278687e+02
<TRANSP> 5
 0.000000e+00 1.000000e+00 0.000000e+00 0.000000e+00 0.000000e+00
 0.000000e+00 8.512781e-01 3.741771e-02 1.113043e-01 0.000000e+00
 0.000000e+00 0.000000e+00 6.315057e-01 3.684944e-01 0.000000e+00
 0.000000e+00 2.019355e-01 0.000000e+00 7.590013e-01 3.906322e-02
 0.000000e+00 0.000000e+00 0.000000e+00 0.000000e+00 0.000000e+00
<ENDHMM>
