~o
<STREAMINFO> 1 25
<VECSIZE> 25<NULLD><MFCC_D_N_Z_0><DIAGC>
~s "silst"
<MEAN> 25
 -6.914248e+00 3.405969e+00 -1.595540e+00 -3.107971e+00 2.449262e+00 -2.595631e-01 -3.925969e-01 2.532880e+00 -2.359257e+00 2.014589e-01 2.101806e+00 -1.091293e+00 9.931491e-02 -3.567440e-01 -6.896916e-02 1.936441e-01 -3.485688e-01 -4.428154e-03 3.792060e-02 -2.977871e-01 5.473444e-02 -6.692290e-02 -1.925786e-01 1.308974e-01 1.299902e+00
<VARIANCE> 25
 5.782553e+01 4.689020e+01 1.528538e+01 2.869612e+01 4.326753e+01 1.674244e+01 1.780638e+01 2.746168e+01 2.003737e+01 1.620934e+01 1.421342e+01 1.607227e+01 2.135785e+00 1.937136e+00 1.018861e+00 1.380588e+00 1.482748e+00 1.404371e+00 1.350006e+00 1.796739e+00 1.984149e+00 1.405083e+00 1.302251e+00 1.070958e+00 4.645689e+00
<GCONST> 9.020267e+01
~h "ek"
<BEGINHMM>
<NUMSTATES> 5
<STATE> 2
<MEAN> 25
 -4.064156e-01 1.899590e+00 -3.950119e-01 2.415363e-01 -3.106429e-01 -2.460992e+00 -3.011067e+00 -2.577486e+00 -4.916992e-01 -4.213005e-01 -2.794782e+00 -9.267203e-01 1.081616e+00 -4.590229e-01 -1.326076e-01 1.705457e+00 1.104342e+00 -1.850322e+00 -3.169268e+00 -1.888057e+00 -8.209779e-01 -6.353533e-01 -2.399994e-01 -3.401231e-01 9.352903e-01
<VARIANCE> 25
 4.354873e+00 3.715024e+00 2.760817e+00 4.133532e+00 3.514412e+00 4.818664e+00 1.593338e+01 1.804498e+01 1.068617e+01 9.018538e+00 2.890580e+00 5.334500e+00 2.212243e-01 1.651372e+00 3.895274e-01 1.788746e+00 1.158642e+00 5.877417e-01 7.172171e-01 1.080066e+00 1.450375e+00 8.240193e-01 6.968802e-01 9.953830e-01 2.602942e-01
<GCONST> 6.341850e+01
<STATE> 3
<MEAN> 25
 8.651669e+00 -8.266035e+00 -5.269670e-02 1.508438e+01 6.805094e+00 -1.104100e+01 -1.934698e+01 -1.113475e+01 -2.520392e+00 -2.986318e+00 2.151386e-01 -4.236949e-01 2.226050e+00 -2.544412e+00 8.930138e-01 2.989722e+00 8.300043e-01 -1.534907e+00 -2.662079e+00 -1.581122e+00 -3.810421e-01 -3.655825e-01 8.775092e-01 5.057304e-01 3.549950e+00
<VARIANCE> 25
 2.269662e+01 2.758108e+01 6.502821e+00 2.881515e+01 1.532903e+01 2.822055e+01 2.212168e+01 2.262551e+01 1.976573e+01 6.236741e+00 1.418575e+01 1.984594e+01 1.710670e+00 2.337886e+00 8.321488e-01 3.375366e+00 2.659685e+00 1.735886e+00 4.310282e+00 2.886468e+00 2.891534e+00 1.172908e+00 1.582531e+00 1.018873e+00 1.439587e+00
<GCONST> 8.889252e+01
<STATE> 4
<MEAN> 25
 6.954988e+00 -6.597559e+00 2.785001e+00 7.986686e+00 4.993612e-01 -2.090529e+00 -4.373854e+00 -4.788266e+00 -1.339296e+00 -2.275519e+00 -6.867238e-01 -2.491986e-01 -2.590286e-01 3.348282e-01 -5.207396e-02 -4.742957e-01 -1.912161e-01 4.567161e-01 7.118627e-01 3.585437e-01 8.318987e-02 8.384612e-02 -7.380001e-02 -3.228823e-02 -4.124356e-01
<VARIANCE> 25
 2.401521e+01 6.286073e+01 1.543015e+01 1.259288e+02 9.770811e+01 9.766373e+01 1.623365e+02 4.071173e+01 2.188174e+01 2.618502e+01 1.691394e+01 1.896911e+01 1.640027e+00 4.019807e+00 1.281286e+00 4.677783e+00 6.257739e+00 3.170902e+00 2.791098e+00 2.284266e+00 1.368220e+00 2.400023e+00 1.736535e+00 1.494982e+00 3.075868e+00
<GCONST> 1.027036e+02
<TRANSP> 5
 0.000000e+00 1.000000e+00 0.000000e+00 0.000000e+00 0.000000e+00
 0.000000e+00 7.291111e-01 2.708889e-01 0.000000e+00 0.000000e+00
 0.000000e+00 0.000000e+00 7.921430e-01 2.078570e-01 0.000000e+00
 0.000000e+00 0.000000e+00 0.000000e+00 9.757342e-01 2.426580e-02
 0.000000e+00 0.000000e+00 0.000000e+00 0.000000e+00 0.000000e+00
<ENDHMM>
~h "saat"
<BEGINHMM>
<NUMSTATES> 5
<STATE> 2
<MEAN> 25
 -3.106363e+00 -1.606095e+00 2.300872e-01 7.005445e-01 -2.934673e+00 -1.369357e+00 2.625083e+00 6.464859e-01 -3.167943e+00 2.796429e-01 2.297898e+00 -1.789601e+00 5.828933e-02 -3.347793e+00 2.172535e+00 1.570656e+00 -2.682946e+00 1.107594e+00 1.469857e+00 -1.993608e+00 -1.149886e+00 1.803419e-02 9.562434e-01 6.709675e-01 1.694191e+00
<VARIANCE> 25
 2.685848e+00 4.143769e+01 3.264220e+01 1.844072e+01 2.083084e+01 1.251928e+01 2.285109e+01 3.846616e+01 1.751091e+01 1.468182e+01 1.045829e+01 1.442144e+01 7.602533e-01 1.951994e+00 3.308755e+00 1.625593e+00 7.018687e-01 4.054701e+00 2.306064e+00 4.685641e+00 1.893543e+00 2.091257e+00 1.020253e+00 1.191282e+00 8.930290e-01
<GCONST> 8.692857e+01
<STATE> 3
<MEAN> 25
 -1.599785e+00 -1.697915e+01 1.201398e+01 6.255057e+00 -1.362864e+01 6.291671e+00 3.229160e+00 -8.866985e+00 9.374267e-01 -1.128631e-01 1.304923e+00 2.414616e+00 1.354392e+00 -3.249382e-01 -1.578836e-01 -4.462836e-02 -3.645269e-01 -3.879479e-01 -6.224544e-01 -2.082191e-01 2.225694e-01 -6.028417e-01 -3.888978e-01 3.716957e-01 1.282551e+00
<VARIANCE> 25
 1.903916e+01 3.390538e+01 3.181263e+01 1.601962e+01 1.940188e+01 2.225153e+01 1.820027e+01 1.597366e+01 1.305052e+01 1.035752e+01 1.528428e+01 8.660397e+00 4.496541e+00 4.856637e+00 4.069335e+00 1.170305e+00 2.590145e+00 3.691808e+00 1.881089e+00 2.972885e+00 1.803881e+00 1.288924e+00 9.876989e-01 7.839633e-01 8.526918e-01
<GCONST> 8.923520e+01
<STATE> 4
<MEAN> 25
 1.076679e+01 -5.636682e+00 -1.095524e+00 -2.027126e+00 -1.010009e+01 -3.953044e+00 -8.100948e-01 -1.601458e+00 3.335370e+00 5.496137e-01 -5.848877e-01 2.687398e+00 -3.196936e-01 3.269420e-01 -1.197312e-01 -7.303905e-02 2.927611e-01 1.566396e-02 7.148606e-02 1.273804e-01 4.689983e-02 2.322893e-01 -1.465007e-03 -1.535414e-01 -4.404722e-01
<VARIANCE> 25
 5.122444e+01 7.344740e+01 1.416925e+01 2.013080e+01 4.073708e+01 1.646371e+01 2.087100e+01 4.155222e+01 3.286204e+01 4.704300e+01 1.727950e+01 2.735282e+01 1.515527e+00 7.726305e+00 2.207945e+00 2.766537e+00 2.866451e+00 1.713674e+00 1.448482e+00 3.696014e+00 3.600572e+00 2.791654e+00 1.878812e+00 1.501062e+00 3.469686e+00
<GCONST> 9.873650e+01
<TRANSP> 5
 0.000000e+00 1.000000e+00 0.000000e+00 0.000000e+00 0.000000e+00
 0.000000e+00 7.120440e-01 2.879560e-01 0.000000e+00 0.000000e+00
 0.000000e+00 0.000000e+00 9.222513e-01 7.774873e-02 0.000000e+00
 0.000000e+00 0.000000e+00 0.000000e+00 9.726212e-01 2.737881e-02
 0.000000e+00 0.000000e+00 0.000000e+00 0.000000e+00 0.000000e+00
<ENDHMM>
~h "saha"
<BEGINHMM>
<NUMSTATES> 5
<STATE> 2
<MEAN> 25
 -4.224714e+00 -7.208994e+00 6.239172e+00 4.738171e+00 -6.260148e+00 3.371100e+00 5.761163e+00 -3.420616e+00 -1.933618e+00 8.474635e-01 2.207510e+00 3.934545e-01 -4.967286e-02 -2.907381e+00 2.032001e+00 1.143089e+00 -1.918648e+00 1.434954e+00 1.120425e+00 -7.248824e-01 9.203925e-01 2.585199e-02 -1.071292e-01 5.997406e-01 1.503283e+00
<VARIANCE> 25
 6.674955e+00 7.676305e+01 3.748034e+01 2.519547e+01 3.390358e+01 2.359380e+01 1.375300e+01 3.232446e+01 1.260735e+01 2.987502e+01 1.148890e+01 2.476045e+01 3.375841e-01 2.917990e+00 1.012900e+00 1.761812e+00 2.983235e+00 1.603875e+00 1.296083e+00 1.738819e+00 1.198618e+00 2.654996e+00 8.028690e-01 2.171584e+00 8.016946e-01
<GCONST> 8.783459e+01
<STATE> 3
<MEAN> 25
 3.689692e+00 -1.768644e+01 6.407642e+00 5.781844e+00 -9.288026e+00 1.399674e-01 -2.032811e+00 -5.589968e+00 -7.962499e-02 -4.359141e+00 1.730533e+00 4.750274e+00 1.631596e+00 6.932167e-01 -1.275938e+00 -7.558177e-01 2.813686e-01 -1.144544e+00 -1.019086e+00 2.882487e-01 -4.761984e-02 -3.765028e-01 -9.184718e-02 1.681293e-01 1.245226e+00
<VARIANCE> 25
 9.741818e+01 6.969006e+01 7.911034e+01 3.307200e+01 3.855193e+01 8.168145e+01 4.388528e+01 3.917035e+01 3.929233e+01 4.217663e+01 1.693909e+01 1.901689e+01 4.300732e+00 6.552440e+00 3.583172e+00 1.620973e+00 3.585908e+00 5.927605e+00 2.274333e+00 2.694019e+00 5.551826e+00 3.908158e+00 2.470170e+00 1.554435e+00 1.314766e+00
<GCONST> 1.059952e+02
<STATE> 4
<MEAN> 25
 1.200204e+01 -1.902148e+00 -1.317206e-01 -1.664804e+00 -6.895872e+00 -1.395595e+00 1.347800e+00 1.342307e+00 7.225252e+00 2.895745e+00 -3.044530e+00 3.183741e-01 -3.772871e-01 2.227661e-01 1.861098e-01 7.939375e-02 1.272188e-01 2.075605e-01 2.167322e-01 1.080377e-01 6.586769e-02 2.088620e-01 3.626713e-02 -1.597245e-01 -4.998078e-01
<VARIANCE> 25
 4.795843e+01 3.450591e+01 5.279431e+01 4.922493e+01 6.665529e+01 3.188520e+01 2.482538e+01 4.797783e+01 2.686820e+01 3.869070e+01 2.103395e+01 1.637935e+01 9.073099e-01 2.136556e+00 1.752128e+00 1.277138e+00 1.883289e+00 1.994047e+00 1.607728e+00 1.472319e+00 2.015983e+00 1.781431e+00 1.129935e+00 1.375529e+00 8.874403e-01
<GCONST> 9.400651e+01
<TRANSP> 5
 0.000000e+00 1.000000e+00 0.000000e+00 0.000000e+00 0.000000e+00
 0.000000e+00 8.503954e-01 1.496047e-01 0.000000e+00 0.000000e+00
 0.000000e+00 0.000000e+00 9.259678e-01 7.403227e-02 0.000000e+00
 0.000000e+00 0.000000e+00 0.000000e+00 9.776855e-01 2.231453e-02
 0.000000e+00 0.000000e+00 0.000000e+00 0.000000e+00 0.000000e+00
<ENDHMM>
~h "char"
<BEGINHMM>
<NUMSTATES> 5
<STATE> 2
<MEAN> 25
 -4.137972e+00 4.239759e+00 6.299492e-01 1.162252e-02 1.562189e+00 2.281782e-01 2.439384e+00 2.776544e+00 6.665819e-01 1.974079e+00 -4.254400e-01 -1.307003e+00 9.786417e-01 -3.448471e+00 -2.263382e-02 9.029140e-01 -2.369982e+00 -1.294870e+00 -2.691343e-01 2.299953e-02 4.840727e-02 -2.038088e+00 -1.472820e+00 -3.203717e-01 1.985460e+00
<VARIANCE> 25
 1.061066e+00 4.270322e-01 1.486035e+00 1.731987e+00 5.100444e+00 5.382483e+00 4.745838e+00 5.799648e+00 2.265542e+00 1.870049e+00 3.138933e+00 6.833643e+00 3.951693e-01 4.729109e-01 4.032195e-01 5.078394e-01 1.102059e+00 8.475955e-01 1.794306e-01 1.898889e+00 5.127124e+00 3.059574e+00 4.937438e-01 5.558630e-01 6.583196e-01
<GCONST> 5.387151e+01
<STATE> 3
<MEAN> 25
 -2.623738e+00 3.320495e+00 -1.768933e-01 6.328876e-01 1.369279e+00 5.336081e-01 2.220432e+00 -3.474637e-01 -3.087981e+00 -9.851157e-01 -2.007669e+00 -3.343135e+00 4.088767e-01 -7.119737e+00 1.467414e+00 2.023752e+00 -3.879053e+00 -1.497944e+00 -9.906361e-01 -2.674779e-01 9.327359e-01 -2.883905e+00 -1.170208e+00 7.134708e-01 3.494119e+00
<VARIANCE> 25
 7.225914e-01 3.746967e+00 1.557697e+00 1.372772e+00 3.915583e-01 6.182005e+00 3.588354e+00 4.705340e+00 2.185934e+00 1.041930e+01 1.566291e+01 7.894247e+00 6.577623e-01 1.663329e+00 6.308692e-01 1.816720e+00 2.581243e+00 1.303132e+00 5.258276e-01 1.776053e+00 4.430605e+00 3.449106e+00 8.889663e-01 8.000755e-01 6.351466e-01
<GCONST> 6.265950e+01
<STATE> 4
<MEAN> 25
 1.228310e+01 -1.069942e+01 -1.390394e+00 1.383944e+00 -7.578601e+00 -3.751374e+00 -3.493448e+00 -3.327089e+00 2.063109e+00 -3.172972e+00 -5.908868e-01 5.012593e+00 2.349514e-01 2.863346e-01 -6.812717e-04 -9.005887e-02 4.847376e-02 7.252410e-02 5.307735e-02 1.193571e-02 6.323009e-02 1.173956e-01 1.106400e-01 5.127107e-02 7.200292e-02
<VARIANCE> 25
 5.417260e+01 6.816656e+01 4.509041e+01 5.255539e+01 4.300438e+01 2.048211e+01 3.274509e+01 5.876442e+01 6.214907e+01 5.050136e+01 2.311682e+01 3.126578e+01 2.972223e+00 7.003169e+00 3.611636e+00 3.999392e+00 4.994385e+00 2.230355e+00 2.184683e+00 4.088255e+00 4.903564e+00 3.143744e+00 1.775813e+00 2.466049e+00 2.995816e+00
<GCONST> 1.065249e+02
<TRANSP> 5
 0.000000e+00 1.000000e+00 0.000000e+00 0.000000e+00 0.000000e+00
 0.000000e+00 0.000000e+00 1.000000e+00 0.000000e+00 0.000000e+00
 0.000000e+00 0.000000e+00 0.000000e+00 1.000000e+00 0.000000e+00
 0.000000e+00 0.000000e+00 0.000000e+00 9.732157e-01 2.678428e-02
 0.000000e+00 0.000000e+00 0.000000e+00 0.000000e+00 0.000000e+00
<ENDHMM>
~h "teen"
<BEGINHMM>
<NUMSTATES> 5
<STATE> 2
<MEAN> 25
 -2.553934e+00 -2.315157e-01 -2.670328e+00 -3.874706e+00 -3.811731e+00 -1.970438e+00 -6.312785e-01 5.561857e-01 1.645682e-01 2.845340e+00 2.690700e+00 3.187757e-01 1.491345e+00 -4.394778e+00 1.955034e+00 2.198568e+00 -2.596621e+00 -7.138922e-01 -1.464417e+00 -1.801692e+00 1.141422e+00 3.146862e-01 -6.402684e-01 -7.085550e-01 3.153989e+00
<VARIANCE> 25
 3.333874e+00 1.164160e+01 6.311987e+00 3.590923e+00 3.191104e+01 7.199040e+00 7.336527e+00 1.154279e+01 3.874135e+00 8.084854e+00 2.051812e+01 8.233156e+00 1.116918e+00 2.364530e+00 1.921294e+00 3.971706e+00 4.464723e+00 4.662950e-01 7.779444e-01 1.536780e+00 2.953833e-01 2.010938e+00 1.681364e+00 7.080625e-01 2.849739e+00
<GCONST> 7.579206e+01
<STATE> 3
<MEAN> 25
 6.138680e+00 -1.628180e+01 7.431769e+00 1.498184e+01 -1.989697e+00 -3.874257e+00 -8.238567e+00 -7.799630e+00 1.290246e+00 -1.351981e+00 -7.987237e-01 -1.638916e+00 2.743915e+00 -1.589230e+00 2.060861e+00 5.410943e+00 3.476300e+00 -8.455563e-01 -3.450507e+00 -1.886011e+00 -9.517405e-01 -2.423532e+00 -6.072502e-01 6.216905e-01 3.613250e+00
<VARIANCE> 25
 2.071611e+01 1.167135e+01 2.170822e+01 7.848161e+01 1.141644e+02 1.317354e+01 7.222063e+01 2.807729e+01 2.101525e+01 3.064848e+01 1.734842e+01 1.575014e+01 4.731407e-01 6.869221e+00 3.118326e+00 2.919941e+00 5.640350e+00 2.682585e+00 6.861290e+00 4.340483e+00 2.034458e+00 2.056950e+00 2.237658e+00 2.189665e+00 2.078074e+00
<GCONST> 9.913448e+01
<STATE> 4
<MEAN> 25
 1.000855e+01 -3.795022e+00 7.848884e+00 1.329570e+01 4.674412e+00 -2.194085e+00 -9.303573e+00 -6.556799e+00 1.105355e+00 -3.605326e+00 -3.517723e+00 -9.403915e-02 -1.861795e-01 4.220050e-01 -1.648222e-01 -5.255679e-01 -1.408153e-01 2.250864e-01 4.432851e-01 2.358649e-01 7.934251e-02 1.948513e-01 2.001363e-02 -9.313892e-02 -3.929166e-01
<VARIANCE> 25
 2.262207e+01 7.062879e+01 1.839313e+01 6.046078e+01 1.542139e+01 7.707700e+01 1.022864e+02 3.786277e+01 3.006583e+01 2.217935e+01 2.689570e+01 2.109578e+01 9.704203e-01 1.059085e+00 1.231315e+00 1.420561e+00 1.060222e+00 4.034408e+00 1.716302e+00 1.863077e+00 1.460781e+00 1.675650e+00 1.533836e+00 1.718229e+00 7.966083e-01
<GCONST> 9.336226e+01
<TRANSP> 5
 0.000000e+00 1.000000e+00 0.000000e+00 0.000000e+00 0.000000e+00
 0.000000e+00 5.726039e-01 4.273961e-01 0.000000e+00 0.000000e+00
 0.000000e+00 0.000000e+00 7.500026e-01 2.499974e-01 0.000000e+00
 0.000000e+00 0.000000e+00 0.000000e+00 9.747202e-01 2.527981e-02
 0.000000e+00 0.000000e+00 0.000000e+00 0.000000e+00 0.000000e+00
<ENDHMM>
~h "don"
<BEGINHMM>
<NUMSTATES> 5
<STATE> 2
<MEAN> 25
 1.730775e+00 5.424867e+00 4.645841e+00 4.481934e+00 2.763693e+00 3.300710e+00 4.119345e+00 -2.078815e+00 -3.314835e+00 6.231332e-01 -1.276759e+00 -3.163646e+00 1.592738e+00 1.142418e+00 1.578875e+00 1.542810e+00 1.187270e+00 7.786295e-01 -1.707744e-01 -5.718661e-01 -4.931341e-02 -4.555507e-01 -5.604042e-01 -4.480304e-01 1.013674e+00
<VARIANCE> 25
 1.735462e+01 1.349581e+01 2.008745e+01 1.524491e+01 1.075859e+01 9.958328e+00 6.380562e+00 1.074124e+01 1.432053e+01 7.574891e+00 1.232288e+01 1.601127e+01 9.758184e-01 1.235507e+00 1.053364e+00 1.532439e+00 2.253443e+00 1.476045e+00 1.453757e+00 2.089568e+00 7.826480e-01 4.278435e-01 2.494911e+00 2.582700e+00 4.425978e-01
<GCONST> 7.893298e+01
<STATE> 3
<MEAN> 25
 1.073295e+01 -2.670147e-01 6.559109e+00 1.040214e+01 2.938479e+00 -1.985010e+00 -1.097729e+00 7.241551e-01 -1.426714e+00 -6.182961e+00 -2.794468e+00 2.945793e-01 1.220268e+00 -2.279157e+00 -5.287370e-01 -5.980804e-01 -1.921838e+00 -1.982661e+00 -1.429262e+00 1.000896e+00 8.528012e-01 -2.367306e+00 -1.355763e+00 1.171104e+00 2.539400e+00
<VARIANCE> 25
 1.121971e+01 5.932752e+01 7.453044e+00 1.709641e+01 4.172575e+01 6.616729e+01 2.662899e+01 4.336777e+01 1.235658e+01 8.494555e+01 2.656049e+01 1.437377e+01 8.151762e-01 5.528960e+00 1.095946e+00 6.149524e+00 2.282556e+00 5.562794e+00 6.220418e+00 4.515595e+00 2.718809e+00 7.401876e+00 3.962869e+00 9.664843e-01 2.403809e+00
<GCONST> 9.968347e+01
<STATE> 4
<MEAN> 25
 1.315678e+01 -3.495240e+00 5.171337e+00 4.344496e+00 -2.876616e+00 -4.642057e+00 -1.196461e+01 -2.493008e+00 1.016325e+01 -5.798843e+00 -1.068102e+01 7.834324e-01 -2.756453e-01 3.545559e-01 -8.193411e-03 1.319875e-01 4.286880e-01 3.677716e-01 1.508112e-01 -2.867890e-01 -9.994318e-02 6.396324e-01 3.871292e-01 -2.189510e-01 -5.638812e-01
<VARIANCE> 25
 1.000470e+01 1.777692e+01 1.976964e+01 2.255288e+01 1.231848e+02 1.074399e+02 3.580661e+01 6.387908e+01 5.812638e+01 4.343253e+01 3.704916e+01 1.965121e+01 3.986450e-01 6.383423e-01 1.389117e+00 1.756907e+00 4.819335e+00 3.922344e+00 2.970463e+00 3.714976e+00 5.196978e+00 3.010975e+00 2.235027e+00 1.861953e+00 3.770164e-01
<GCONST> 9.694267e+01
<TRANSP> 5
 0.000000e+00 1.000000e+00 0.000000e+00 0.000000e+00 0.000000e+00
 0.000000e+00 8.468361e-01 1.531639e-01 0.000000e+00 0.000000e+00
 0.000000e+00 0.000000e+00 8.556006e-01 1.443994e-01 0.000000e+00
 0.000000e+00 0.000000e+00 0.000000e+00 9.622537e-01 3.774632e-02
 0.000000e+00 0.000000e+00 0.000000e+00 0.000000e+00 0.000000e+00
<ENDHMM>
~h "nau"
<BEGINHMM>
<NUMSTATES> 5
<STATE> 2
<MEAN> 25
 -3.687282e+00 -2.124514e+00 -1.859190e+00 -7.106711e-01 -1.010339e+00 6.768957e-01 2.849790e+00 6.118503e-01 -1.427567e+00 -3.489821e-01 3.130953e-01 5.362077e-01 -3.858885e-02 2.276186e-02 2.423922e-03 -9.379604e-03 2.102508e-02 -7.288160e-03 -2.921352e-02 9.214993e-03 1.739283e-02 1.867179e-02 9.924956e-03 -2.389405e-02 -4.290201e-02
<VARIANCE> 25
 2.480937e+00 5.785627e+00 2.957032e+00 5.669375e+00 6.813213e+00 1.083233e+01 1.133330e+01 9.605784e+00 9.976282e+00 1.524953e+01 8.803224e+00 7.165003e+00 9.493676e-02 4.678507e-01 3.070850e-01 4.896582e-01 8.417775e-01 1.379763e+00 1.426024e+00 1.086591e+00 1.207631e+00 1.464465e+00 9.948672e-01 8.621414e-01 6.302727e-02
<GCONST> 6.282206e+01
<STATE> 3
<MEAN> 25
 -4.899115e+00 9.295992e-01 -2.188759e+00 -1.580218e+00 -3.253352e-01 -8.972310e-01 1.634471e+00 1.209104e+00 9.696534e-01 5.026448e+00 2.503242e+00 -1.441172e+00 1.700665e-01 2.405021e-01 1.314576e-01 1.450496e-01 6.980948e-02 -1.971963e-01 -1.260683e-02 1.320423e-01 1.347789e-01 1.932443e-01 7.402750e-02 -1.128354e-01 6.438004e-02
<VARIANCE> 25
 8.594435e-01 1.337304e+00 2.677326e+00 3.957578e+00 3.602257e+00 1.030656e+01 3.928334e+00 1.350450e+01 7.519092e+00 6.153121e+00 7.916322e+00 4.972027e+00 3.217879e-01 3.181775e-01 4.699421e-01 5.717739e-01 6.016694e-01 7.256736e-01 5.901337e-01 1.251539e+00 6.518198e-01 7.951890e-01 1.202122e+00 7.952918e-01 1.273200e-01
<GCONST> 5.605123e+01
<STATE> 4
<MEAN> 25
 1.307962e+01 3.127153e-01 3.805798e+00 5.691897e+00 8.580908e-02 -5.151998e+00 -8.679531e+00 -2.474480e+00 3.790418e+00 -2.687052e+00 -3.022629e+00 1.080239e+00 2.029520e-01 2.230939e-02 1.489417e-01 8.740503e-02 -6.300247e-02 3.100220e-02 -2.889690e-02 -1.450850e-01 -5.592723e-02 -7.840752e-02 -7.971094e-02 4.973078e-02 1.728925e-01
<VARIANCE> 25
 4.059153e+01 4.666786e+01 2.498655e+01 4.066540e+01 8.240108e+01 1.167742e+02 6.382838e+01 6.842147e+01 4.539437e+01 4.723924e+01 1.343065e+01 3.452348e+01 1.886553e+00 1.994386e+00 1.371824e+00 3.775987e+00 4.149309e+00 5.348328e+00 3.543147e+00 4.752759e+00 2.406404e+00 3.517061e+00 1.900040e+00 2.508903e+00 1.979704e+00
<GCONST> 1.050546e+02
<TRANSP> 5
 0.000000e+00 1.000000e+00 0.000000e+00 0.000000e+00 0.000000e+00
 0.000000e+00 9.835506e-01 1.644936e-02 0.000000e+00 0.000000e+00
 0.000000e+00 0.000000e+00 9.015280e-01 9.847204e-02 0.000000e+00
 0.000000e+00 0.000000e+00 0.000000e+00 9.761782e-01 2.382178e-02
 0.000000e+00 0.000000e+00 0.000000e+00 0.000000e+00 0.000000e+00
<ENDHMM>
~h "sil"
<BEGINHMM>
<NUMSTATES> 5
<STATE> 2
<MEAN> 25
 1.028419e+00 9.499113e+00 1.879506e+00 -5.037405e+00 8.780392e+00 -5.228093e-01 -5.507638e-01 6.838217e+00 -7.076889e-01 1.108026e+00 4.966754e+00 -2.909823e+00 -9.854833e-01 -2.569212e-01 -2.945781e-01 -1.198307e-01 -1.820550e-01 3.008663e-02 1.887818e-02 3.568266e-02 -1.358358e-01 1.148038e-01 1.759659e-02 2.935014e-02 1.192160e+00
<VARIANCE> 25
 4.485717e+00 2.277951e+01 7.050040e+00 1.796710e+01 2.705769e+01 4.679514e+00 1.017804e+01 2.091467e+01 4.150192e+00 4.350611e+00 9.130520e+00 4.023122e+00 2.995612e+00 4.018406e-01 4.791823e-01 2.300668e-01 3.691580e-01 3.531934e-01 3.880404e-01 3.010541e-01 3.605178e-01 3.365510e-01 3.746087e-01 3.622757e-01 6.938975e+00
<GCONST> 6.374099e+01
<STATE> 3
~s "silst"
<STATE> 4
<MEAN> 25
 -1.976289e+00 8.477307e-01 -6.509058e-01 -5.443815e-01 9.543705e-02 8.956288e-01 1.642499e+00 1.801315e-01 -5.250484e-01 4.329272e-01 -1.036210e-01 -1.979276e-01 -6.238057e-02 2.469610e-02 -3.341713e-02 -4.205525e-02 2.202060e-02 -6.102112e-03 -4.242119e-03 2.696904e-02 -1.771390e-02 5.305202e-03 1.274844e-02 -1.458376e-02 -5.696732e-02
<VARIANCE> 25
 5.087844e+00 4.733803e+00 5.827760e+00 7.623919e+00 9.177063e+00 9.345605e+00 1.030366e+01 1.073141e+01 1.063998e+01 9.831513e+00 8.569574e+00 7.709057e+00 1.266430e-01 2.648771e-01 3.536065e-01 5.083547e-01 6.273502e-01 7.643516e-01 9.014846e-01 9.391297e-01 9.766822e-01 9.474891e-01 9.202119e-01 8.277630e-01 6.580432e-02
<GCONST> 6.183724e+01
<TRANSP> 5
 0.000000e+00 1.000000e+00 0.000000e+00 0.000000e+00 0.000000e+00
 0.000000e+00 6.768056e-01 2.341636e-01 8.903088e-02 0.000000e+00
 0.000000e+00 0.000000e+00 9.284471e-01 7.155290e-02 0.000000e+00
 0.000000e+00 7.457731e-03 0.000000e+00 9.748586e-01 1.768361e-02
 0.000000e+00 0.000000e+00 0.000000e+00 0.000000e+00 0.000000e+00
<ENDHMM>
~h "shunya"
<BEGINHMM>
<NUMSTATES> 5
<STATE> 2
<MEAN> 25
 -3.782484e+00 -6.279581e+00 -3.112817e-01 2.861777e+00 -4.061007e-01 -5.750241e-01 6.264029e-01 4.109159e+00 7.187717e+00 5.080970e-02 -4.709718e+00 -2.905348e+00 -4.523338e-02 -3.772714e+00 1.571809e+00 2.555713e+00 -1.868761e-01 7.647922e-01 -8.671705e-01 -1.143282e+00 2.371445e+00 6.771564e-02 -1.142232e+00 4.173123e-01 1.641698e+00
<VARIANCE> 25
 7.879866e+00 4.764161e+01 1.793043e+01 2.863928e+01 2.276454e+01 1.321304e+01 2.869738e+01 3.864418e+01 1.558640e+01 9.126293e+00 1.157655e+01 1.268395e+01 1.260175e-01 2.367454e+00 1.429398e+00 1.446921e+00 8.325034e-01 5.500667e+00 3.483684e+00 8.055440e+00 8.848807e-01 2.613689e+00 2.361472e+00 8.657616e-01 4.430059e-01
<GCONST> 8.589331e+01
<STATE> 3
<MEAN> 25
 1.009050e+00 -2.413899e+01 6.160497e+00 9.357805e+00 -2.103034e+00 6.898872e+00 -7.516704e+00 -7.749470e+00 1.154013e+01 1.899091e+00 -1.342229e+00 1.926743e+00 1.222349e+00 2.079666e-01 2.274579e-01 2.476848e-01 3.075946e-01 2.436314e-01 -3.709021e-01 -6.941391e-01 -9.912249e-01 -9.428469e-01 1.193428e-01 7.717398e-01 1.077106e+00
<VARIANCE> 25
 2.926832e+01 5.594723e+01 7.560864e+00 2.471054e+01 2.453582e+01 2.710570e+01 2.094680e+01 3.169201e+01 2.730781e+01 2.745869e+01 2.336536e+01 1.490362e+01 2.953229e+00 1.357699e+01 1.998829e+00 2.544381e+00 4.655221e+00 1.856990e+00 1.652399e+00 1.126518e+00 4.396555e+00 3.582553e+00 2.298931e+00 8.253806e-01 1.576408e+00
<GCONST> 9.599731e+01
<STATE> 4
<MEAN> 25
 1.427900e+01 -4.260220e+00 2.609424e+00 8.497208e+00 5.317170e+00 7.132071e-01 -1.093501e+01 -9.147407e+00 1.762777e+00 -4.567132e+00 -4.322805e+00 4.496968e+00 -1.878585e-01 3.776512e-01 -1.064388e-01 -2.397465e-01 -1.321103e-01 -1.212628e-01 2.665318e-01 2.591602e-01 6.145523e-02 2.866475e-01 9.093329e-02 -2.275623e-01 -3.630577e-01
<VARIANCE> 25
 1.545870e+01 3.702164e+01 3.521708e+01 3.647507e+01 4.104202e+01 8.892029e+01 7.277390e+01 9.135459e+01 3.740763e+01 3.897754e+01 3.079584e+01 5.580797e+01 1.315221e+00 2.276189e+00 1.786076e+00 1.976805e+00 2.191005e+00 3.622142e+00 1.704369e+00 2.648398e+00 2.573026e+00 2.380519e+00 2.211453e+00 3.475688e+00 1.353660e+00
<GCONST> 1.012846e+02
<TRANSP> 5
 0.000000e+00 1.000000e+00 0.000000e+00 0.000000e+00 0.000000e+00
 0.000000e+00 7.250377e-01 2.749623e-01 0.000000e+00 0.000000e+00
 0.000000e+00 0.000000e+00 9.155240e-01 8.447602e-02 0.000000e+00
 0.000000e+00 0.000000e+00 0.000000e+00 9.728847e-01 2.711534e-02
 0.000000e+00 0.000000e+00 0.000000e+00 0.000000e+00 0.000000e+00
<ENDHMM>
~h "pach"
<BEGINHMM>
<NUMSTATES> 5
<STATE> 2
<MEAN> 25
 -2.775987e+00 2.031535e+00 -9.944737e-01 4.653950e-02 2.418189e+00 8.918446e-01 6.123892e-01 5.308884e-01 -9.156732e-01 9.857216e-02 -2.434976e-01 -6.026373e-01 -4.554478e-02 3.014648e-02 -6.905207e-03 -5.740852e-03 3.056644e-02 4.711252e-03 -1.080745e-02 5.675115e-03 -1.653813e-02 -7.882769e-03 4.652720e-02 1.236014e-02 -4.437298e-02
<VARIANCE> 25
 1.204313e+00 4.085601e+00 2.460007e+00 3.318247e+00 5.512043e+00 7.450434e+00 6.022963e+00 6.493581e+00 6.897706e+00 5.711861e+00 8.250553e+00 5.398650e+00 7.232721e-02 2.569501e-01 2.571380e-01 3.637414e-01 6.712256e-01 8.319958e-01 7.046140e-01 6.977234e-01 8.351640e-01 7.372226e-01 9.359569e-01 6.920683e-01 2.864723e-02
<GCONST> 5.237222e+01
<STATE> 3
<MEAN> 25
 -3.896851e+00 4.831234e-01 -1.268455e+00 1.065598e+00 2.717422e+00 -1.066792e+00 -7.037697e-01 1.327184e+00 -3.752514e-01 3.396042e-02 1.179364e+00 -1.044489e+00 1.064147e-01 3.803717e-02 -2.507469e-02 -1.127026e-01 -1.699297e-01 -2.280780e-01 -1.790117e-01 -7.592466e-02 -5.448717e-02 -9.688136e-02 2.298332e-02 -1.572727e-02 5.147443e-02
<VARIANCE> 25
 1.725776e+00 3.747747e+01 7.733783e+00 2.856858e+01 2.579457e+01 1.046631e+01 1.694925e+01 7.793188e+00 1.334055e+01 7.872170e+00 1.893310e+01 1.008960e+01 3.973239e-01 4.680491e+00 1.462126e+00 3.469132e+00 3.791636e+00 1.504028e+00 2.654407e+00 8.020947e-01 1.951766e+00 8.336798e-01 3.399086e+00 1.893437e+00 4.114999e-01
<GCONST> 8.210421e+01
<STATE> 4
<MEAN> 25
 8.357762e+00 -7.171814e+00 1.876454e+00 8.811400e-01 -9.019741e+00 -2.619740e+00 -7.703739e-01 -2.702558e+00 3.486881e+00 6.275871e-01 -7.703094e-01 2.083150e+00 8.440989e-02 -1.077723e-01 9.222782e-02 1.192314e-01 -4.140183e-02 7.182783e-02 1.016962e-01 -2.180775e-02 5.424210e-02 3.805690e-02 -3.434338e-02 2.726155e-02 1.178491e-01
<VARIANCE> 25
 6.936710e+01 9.893310e+01 3.830752e+01 3.083055e+01 5.395261e+01 4.338266e+01 2.287967e+01 3.187555e+01 3.952774e+01 3.471416e+01 2.137861e+01 2.044778e+01 3.119491e+00 6.066165e+00 1.917725e+00 1.993189e+00 3.958714e+00 3.089803e+00 1.970561e+00 2.704670e+00 3.210115e+00 3.002872e+00 2.008301e+00 1.953676e+00 3.828363e+00
<GCONST> 1.029435e+02
<TRANSP> 5
 0.000000e+00 1.000000e+00 0.000000e+00 0.000000e+00 0.000000e+00
 0.000000e+00 9.834518e-01 1.654814e-02 0.000000e+00 0.000000e+00
 0.000000e+00 0.000000e+00 9.147887e-01 8.521138e-02 0.000000e+00
 0.000000e+00 0.000000e+00 0.000000e+00 9.809401e-01 1.905986e-02
 0.000000e+00 0.000000e+00 0.000000e+00 0.000000e+00 0.000000e+00
<ENDHMM>
~h "aath"
<BEGINHMM>
<NUMSTATES> 5
<STATE> 2
<MEAN> 25
 4.895341e+00 1.695529e-01 -2.823202e+00 -6.724368e+00 -8.656757e+00 -1.896133e+00 2.165306e+00 3.531607e+00 6.804612e+00 2.247371e+00 -4.439111e+00 -2.802369e+00 3.739101e+00 -1.308456e+00 -1.015763e+00 -8.211911e-01 -2.452484e+00 -1.773420e+00 -6.359317e-01 1.091326e+00 1.894792e+00 -3.205181e-01 -1.513067e+00 -3.477081e-01 3.510788e+00
<VARIANCE> 25
 5.133882e+01 9.093585e+00 1.507962e+01 9.798267e+00 5.981867e+01 4.514846e+01 1.996104e+01 4.640729e+01 1.709188e+01 1.438279e+01 3.362402e+01 1.225066e+01 2.373718e+00 2.088537e+00 1.807613e+00 2.385657e+00 2.904585e+00 3.977348e+00 2.402115e+00 6.006406e+00 2.018392e+00 1.257017e+00 1.492445e+00 2.290083e+00 2.823796e+00
<GCONST> 9.472308e+01
<STATE> 3
<MEAN> 25
 1.904107e+01 -1.033980e+01 -5.072201e+00 -4.459872e+00 -1.441180e+01 -1.041218e+01 -2.381779e+00 5.500172e+00 1.207299e+01 4.489411e-02 -4.906022e+00 1.094016e+00 1.620124e-01 -2.936231e-01 -1.815786e-01 1.789403e-01 8.188802e-01 8.118673e-02 -5.349281e-02 -7.163494e-01 -7.585787e-01 -9.822989e-02 6.885043e-01 5.485579e-01 8.072194e-01
<VARIANCE> 25
 1.612319e+01 1.512443e+01 3.900920e+01 1.134792e+01 6.507291e+01 2.178141e+01 1.416875e+01 5.926189e+01 2.573416e+01 2.359088e+01 2.629798e+01 1.185541e+01 2.024175e+00 3.033141e+00 1.388397e+00 2.001542e+00 3.519444e+00 2.680418e+00 1.476296e+00 2.986896e+00 4.216560e+00 1.586115e+00 1.324311e+00 1.087501e+00 1.831442e+00
<GCONST> 9.311190e+01
<STATE> 4
<MEAN> 25
 8.996173e+00 -1.342114e+00 1.625217e+00 2.519574e+00 -1.082170e+00 1.568723e+00 6.407799e-01 -3.500422e+00 -6.217827e-01 -7.023604e-02 2.658445e+00 4.084663e+00 -4.807189e-01 3.119865e-01 3.896387e-01 2.584794e-01 8.396217e-02 3.136505e-01 1.194433e-01 4.452796e-02 4.478906e-02 1.187836e-01 -1.005676e-01 -1.717764e-01 -7.431714e-01
<VARIANCE> 25
 2.949869e+01 5.459590e+01 3.260082e+01 4.659099e+01 3.669968e+01 3.082130e+01 2.188495e+01 3.529893e+01 3.257516e+01 2.424752e+01 2.039034e+01 2.346431e+01 1.828048e+00 7.088525e+00 1.412150e+00 2.640014e+00 3.724477e+00 4.562667e+00 3.533352e+00 5.274519e+00 4.777539e+00 3.478140e+00 2.101231e+00 2.389699e+00 2.674764e+00
<GCONST> 1.022236e+02
<TRANSP> 5
 0.000000e+00 1.000000e+00 0.000000e+00 0.000000e+00 0.000000e+00
 0.000000e+00 7.895254e-01 2.104747e-01 0.000000e+00 0.000000e+00
 0.000000e+00 0.000000e+00 9.264220e-01 7.357801e-02 0.000000e+00
 0.000000e+00 0.000000e+00 0.000000e+00 9.678503e-01 3.214975e-02
 0.000000e+00 0.000000e+00 0.000000e+00 0.000000e+00 0.000000e+00
<ENDHMM>
