~o
<STREAMINFO> 1 14
<VECSIZE> 14<NULLD><USER><DIAGC>
~h "l1_i"
<BEGINHMM>
<NUMSTATES> 5
<STATE> 2
<MEAN> 14
 -2.759587e+03 -1.436665e+02 6.748123e+00 7.074544e+01 -1.038247e+02 1.458576e+02 -1.161483e+02 -3.711541e+02 2.908146e+02 2.356300e+01 4.032763e+00 5.130512e+01 -1.473252e+00 1.682628e+00
<VARIANCE> 14
 3.240086e+08 3.570824e+08 3.554123e+08 3.586953e+08 3.549214e+08 3.563315e+08 3.490166e+08 3.546584e+08 3.623450e+08 3.548924e+08 4.368191e+01 6.688603e+01 7.895888e-01 1.805639e+00
<GCONST> 2.308729e+02
<STATE> 3
<MEAN> 14
 -2.530842e+03 -1.501214e+02 3.294270e+01 1.893537e+01 -1.666430e+02 9.796712e+01 -1.448365e+02 -4.039435e+02 2.827078e+02 1.652485e+01 3.914244e+00 5.148206e+01 -1.475759e+00 1.689030e+00
<VARIANCE> 14
 3.316927e+08 3.571010e+08 3.574081e+08 3.551341e+08 3.551244e+08 3.545896e+08 3.509185e+08 3.545072e+08 3.623497e+08 3.534392e+08 4.292013e+01 6.725216e+01 8.035328e-01 1.826912e+00
<GCONST> 2.309057e+02
<STATE> 4
<MEAN> 14
 -7.740638e+02 -9.901717e+01 -7.888003e+01 1.577542e+02 -1.698216e+02 5.413962e+01 -1.053062e+01 -2.040609e+02 1.069604e+02 1.280191e+02 3.447521e+00 5.206503e+01 -1.491035e+00 1.711795e+00
<VARIANCE> 14
 3.523603e+08 3.556061e+08 3.564774e+08 3.591512e+08 3.511043e+08 3.552725e+08 3.537247e+08 3.582740e+08 3.595194e+08 3.536050e+08 3.453452e+01 7.176778e+01 8.011662e-01 1.874470e+00
<GCONST> 2.308427e+02
<TRANSP> 5
 0.000000e+00 1.000000e+00 0.000000e+00 0.000000e+00 0.000000e+00
 0.000000e+00 8.400925e-01 1.599075e-01 0.000000e+00 0.000000e+00
 0.000000e+00 0.000000e+00 8.400921e-01 1.599079e-01 0.000000e+00
 0.000000e+00 0.000000e+00 0.000000e+00 9.821196e-01 1.788050e-02
 0.000000e+00 0.000000e+00 0.000000e+00 0.000000e+00 0.000000e+00
<ENDHMM>
~h "l1_u"
<BEGINHMM>
<NUMSTATES> 5
<STATE> 2
<MEAN> 14
 -2.680446e+03 -1.127564e+02 4.709089e+02 -2.688335e+02 3.104539e+02 -1.984704e+02 -4.981447e+02 -2.578193e+02 5.727454e+02 -1.453187e+02 4.854963e+00 5.091394e+01 -1.456822e+00 1.623397e+00
<VARIANCE> 14
 3.126397e+08 3.609709e+08 3.512351e+08 3.531810e+08 3.665833e+08 3.408410e+08 3.544648e+08 3.577780e+08 3.575949e+08 3.459298e+08 5.490404e+01 6.466609e+01 8.072317e-01 1.665894e+00
<GCONST> 2.309305e+02
<STATE> 3
<MEAN> 14
 -2.506605e+03 -6.848317e+01 3.937130e+02 -4.849882e+02 2.634089e+02 -2.010343e+02 -4.316357e+02 -2.470104e+02 4.300641e+02 -7.701720e+01 4.732968e+00 5.088081e+01 -1.458546e+00 1.627894e+00
<VARIANCE> 14
 3.244600e+08 3.572764e+08 3.533260e+08 3.499040e+08 3.610421e+08 3.384723e+08 3.546819e+08 3.598123e+08 3.581935e+08 3.440087e+08 5.238800e+01 6.430582e+01 8.621377e-01 1.606226e+00
<GCONST> 2.309110e+02
<STATE> 4
<MEAN> 14
 -1.065453e+03 -2.803512e+02 4.177166e+02 -2.093943e+02 -2.017224e+02 1.100977e+02 2.099551e+01 -1.406220e+02 2.210904e+02 1.047173e+01 4.361276e+00 5.131168e+01 -1.496503e+00 1.658575e+00
<VARIANCE> 14
 3.578076e+08 3.478680e+08 3.621329e+08 3.489492e+08 3.560688e+08 3.402288e+08 3.616160e+08 3.575754e+08 3.593780e+08 3.447578e+08 4.964021e+01 5.927728e+01 9.177170e-01 1.536487e+00
<GCONST> 2.308967e+02
<TRANSP> 5
 0.000000e+00 1.000000e+00 0.000000e+00 0.000000e+00 0.000000e+00
 0.000000e+00 8.278035e-01 1.721965e-01 0.000000e+00 0.000000e+00
 0.000000e+00 0.000000e+00 8.278034e-01 1.721966e-01 0.000000e+00
 0.000000e+00 0.000000e+00 0.000000e+00 9.705004e-01 2.949959e-02
 0.000000e+00 0.000000e+00 0.000000e+00 0.000000e+00 0.000000e+00
<ENDHMM>
~h "l2_i"
<BEGINHMM>
<NUMSTATES> 5
<STATE> 2
<MEAN> 14
 -3.122554e+03 1.514916e+02 -5.403642e+01 3.807854e+02 1.318179e+02 4.112745e+02 4.821291e+01 -2.716579e+02 -6.386332e+02 9.072278e+01 4.485301e+00 5.070184e+01 -1.542429e+00 1.638272e+00
<VARIANCE> 14
 3.211707e+08 3.645225e+08 3.519870e+08 3.586582e+08 3.645237e+08 3.512387e+08 3.561295e+08 3.568229e+08 3.538564e+08 3.488058e+08 4.712783e+01 7.130407e+01 8.846037e-01 1.608394e+00
<GCONST> 2.310103e+02
<STATE> 3
<MEAN> 14
 -2.869623e+03 2.327218e+02 5.974274e+00 2.457058e+02 -4.294540e+00 4.017728e+02 9.467365e+01 -1.578743e+02 -7.185954e+02 1.158909e+02 4.334852e+00 5.079352e+01 -1.542493e+00 1.638635e+00
<VARIANCE> 14
 3.304058e+08 3.637055e+08 3.508420e+08 3.590217e+08 3.640782e+08 3.539160e+08 3.552048e+08 3.549238e+08 3.540655e+08 3.492251e+08 4.498093e+01 6.997105e+01 8.629867e-01 1.601029e+00
<GCONST> 2.309396e+02
<STATE> 4
<MEAN> 14
 -1.078630e+03 1.367044e+02 1.676181e+02 -9.024937e+01 -2.650861e+02 2.175077e+02 6.792958e+01 2.267709e+02 -3.521848e+02 -1.958498e+02 4.090994e+00 5.167066e+01 -1.532873e+00 1.694955e+00
<VARIANCE> 14
 3.489166e+08 3.598301e+08 3.508291e+08 3.614016e+08 3.621531e+08 3.532106e+08 3.574174e+08 3.516029e+08 3.529186e+08 3.481465e+08 4.328886e+01 7.206462e+01 8.672921e-01 1.866519e+00
<GCONST> 2.311227e+02
<TRANSP> 5
 0.000000e+00 1.000000e+00 0.000000e+00 0.000000e+00 0.000000e+00
 0.000000e+00 8.363886e-01 1.636114e-01 0.000000e+00 0.000000e+00
 0.000000e+00 0.000000e+00 8.363889e-01 1.636111e-01 0.000000e+00
 0.000000e+00 0.000000e+00 0.000000e+00 9.823021e-01 1.769798e-02
 0.000000e+00 0.000000e+00 0.000000e+00 0.000000e+00 0.000000e+00
<ENDHMM>
~h "l2_u"
<BEGINHMM>
<NUMSTATES> 5
<STATE> 2
<MEAN> 14
 -2.357325e+03 -3.191337e+02 -2.074809e+02 -1.533410e+02 -1.450770e+02 -1.511585e+02 3.127180e+02 1.434758e+02 1.677877e+02 5.309890e+02 4.268411e+00 5.042679e+01 -1.463845e+00 1.723071e+00
<VARIANCE> 14
 3.189296e+08 3.538619e+08 3.559844e+08 3.462381e+08 3.698313e+08 3.550641e+08 3.537540e+08 3.549163e+08 3.600603e+08 3.579335e+08 5.548901e+01 5.306847e+01 7.232744e-01 2.084768e+00
<GCONST> 2.309322e+02
<STATE> 3
<MEAN> 14
 -2.193995e+03 -3.139123e+02 -1.609781e+02 -1.677348e+02 -1.755413e+02 -1.071611e+02 3.780157e+02 1.982223e+02 1.116773e+02 4.930160e+02 4.194877e+00 5.044569e+01 -1.467463e+00 1.730438e+00
<VARIANCE> 14
 3.274730e+08 3.550238e+08 3.578715e+08 3.490494e+08 3.678326e+08 3.522515e+08 3.542020e+08 3.569820e+08 3.599321e+08 3.556100e+08 5.537051e+01 5.182913e+01 7.203669e-01 2.088220e+00
<GCONST> 2.309340e+02
<STATE> 4
<MEAN> 14
 -5.779503e+02 -6.057193e+01 1.019212e+02 2.090731e+02 -3.025587e+02 -2.876750e+02 4.369259e+02 2.057374e+02 -4.254482e+00 2.640949e+02 4.699854e+00 5.072363e+01 -1.478258e+00 1.723762e+00
<VARIANCE> 14
 3.485317e+08 3.597854e+08 3.612870e+08 3.595067e+08 3.677140e+08 3.539832e+08 3.539040e+08 3.607806e+08 3.558229e+08 3.597062e+08 6.557027e+01 5.302836e+01 7.311519e-01 1.972310e+00
<GCONST> 2.312126e+02
<TRANSP> 5
 0.000000e+00 1.000000e+00 0.000000e+00 0.000000e+00 0.000000e+00
 0.000000e+00 8.343117e-01 1.656883e-01 0.000000e+00 0.000000e+00
 0.000000e+00 0.000000e+00 8.343121e-01 1.656880e-01 0.000000e+00
 0.000000e+00 0.000000e+00 0.000000e+00 9.795874e-01 2.041255e-02
 0.000000e+00 0.000000e+00 0.000000e+00 0.000000e+00 0.000000e+00
<ENDHMM>
~h "l3_i"
<BEGINHMM>
<NUMSTATES> 5
<STATE> 2
<MEAN> 14
 -2.796989e+03 2.752195e+02 -3.629196e+01 -3.490961e+02 1.196160e+02 -6.229533e+01 6.642748e+02 -2.673351e+01 3.918190e+02 2.126295e+02 4.308695e+00 5.081711e+01 -1.503971e+00 1.667347e+00
<VARIANCE> 14
 3.334590e+08 3.630369e+08 3.576590e+08 3.603109e+08 3.601092e+08 3.533682e+08 3.570182e+08 3.621166e+08 3.641003e+08 3.559288e+08 4.253620e+01 6.883234e+01 7.933787e-01 1.768319e+00
<GCONST> 2.309724e+02
<STATE> 3
<MEAN> 14
 -2.638377e+03 2.808154e+02 -9.007142e+01 -3.715813e+02 6.455501e+01 -6.327679e+01 6.287581e+02 3.602415e+01 3.408206e+02 2.486254e+02 4.230831e+00 5.083456e+01 -1.504843e+00 1.669342e+00
<VARIANCE> 14
 3.409081e+08 3.626201e+08 3.565976e+08 3.603277e+08 3.598652e+08 3.526855e+08 3.572528e+08 3.602612e+08 3.635721e+08 3.570936e+08 4.166209e+01 6.727534e+01 8.251780e-01 1.780014e+00
<GCONST> 2.309874e+02
<STATE> 4
<MEAN> 14
 -8.297690e+02 1.870580e+02 -1.994981e+02 -1.451002e+02 -3.560984e+02 1.184201e+01 3.383472e+02 2.008444e+02 -1.579860e+02 7.367619e+01 3.934252e+00 5.167004e+01 -1.501311e+00 1.670505e+00
<VARIANCE> 14
 3.550233e+08 3.583063e+08 3.546028e+08 3.568932e+08 3.595145e+08 3.542022e+08 3.557609e+08 3.581828e+08 3.614766e+08 3.561494e+08 3.878756e+01 6.671439e+01 8.630897e-01 1.826136e+00
<GCONST> 2.309763e+02
<TRANSP> 5
 0.000000e+00 1.000000e+00 0.000000e+00 0.000000e+00 0.000000e+00
 0.000000e+00 8.399153e-01 1.600847e-01 0.000000e+00 0.000000e+00
 0.000000e+00 0.000000e+00 8.399150e-01 1.600850e-01 0.000000e+00
 0.000000e+00 0.000000e+00 0.000000e+00 9.827664e-01 1.723358e-02
 0.000000e+00 0.000000e+00 0.000000e+00 0.000000e+00 0.000000e+00
<ENDHMM>
~h "l3_u"
<BEGINHMM>
<NUMSTATES> 5
<STATE> 2
<MEAN> 14
 -2.724014e+03 3.138690e+02 5.668718e+02 -3.787612e+02 -1.134286e+02 3.349598e+02 -3.092171e+02 4.301708e+02 4.520117e+01 -4.945533e+01 4.207915e+00 5.065065e+01 -1.462019e+00 1.741994e+00
<VARIANCE> 14
 3.111274e+08 3.579806e+08 3.608099e+08 3.705551e+08 3.605652e+08 3.513385e+08 3.486677e+08 3.524168e+08 3.663023e+08 3.553144e+08 4.414117e+01 6.406783e+01 7.290704e-01 2.419623e+00
<GCONST> 2.310692e+02
<STATE> 3
<MEAN> 14
 -2.615406e+03 2.105888e+02 5.361254e+02 -2.360485e+02 -9.661018e+01 2.784539e+02 -2.642525e+02 4.857270e+02 5.610085e+01 -7.630202e+01 4.135478e+00 5.055907e+01 -1.470376e+00 1.740885e+00
<VARIANCE> 14
 3.199983e+08 3.580965e+08 3.582028e+08 3.687638e+08 3.573214e+08 3.496127e+08 3.463380e+08 3.560586e+08 3.662564e+08 3.558566e+08 4.243225e+01 6.131742e+01 7.294180e-01 2.447535e+00
<GCONST> 2.310051e+02
<STATE> 4
<MEAN> 14
 -1.017557e+03 5.107880e+02 3.912173e+02 1.637299e+02 -1.780571e+02 2.459200e+01 1.612811e+02 2.834656e+02 2.016073e+02 1.282665e+02 3.821523e+00 5.099081e+01 -1.489884e+00 1.737151e+00
<VARIANCE> 14
 3.505580e+08 3.660560e+08 3.565791e+08 3.614562e+08 3.554999e+08 3.556903e+08 3.437289e+08 3.587258e+08 3.661976e+08 3.570469e+08 3.857376e+01 6.135600e+01 7.192919e-01 2.087291e+00
<GCONST> 2.308411e+02
<TRANSP> 5
 0.000000e+00 1.000000e+00 0.000000e+00 0.000000e+00 0.000000e+00
 0.000000e+00 8.331447e-01 1.668553e-01 0.000000e+00 0.000000e+00
 0.000000e+00 0.000000e+00 8.331444e-01 1.668557e-01 0.000000e+00
 0.000000e+00 0.000000e+00 0.000000e+00 9.773637e-01 2.263629e-02
 0.000000e+00 0.000000e+00 0.000000e+00 0.000000e+00 0.000000e+00
<ENDHMM>
~h "l4_i"
<BEGINHMM>
<NUMSTATES> 5
<STATE> 2
<MEAN> 14
 -2.351143e+03 -2.040703e+02 -9.062662e+01 -4.862095e+02 -1.832162e+02 -4.226371e+02 -6.897914e+01 -4.653319e+02 2.622972e+02 1.860662e+02 4.216172e+00 5.115245e+01 -1.487892e+00 1.739949e+00
<VARIANCE> 14
 3.286756e+08 3.653475e+08 3.560649e+08 3.487799e+08 3.583061e+08 3.555560e+08 3.479186e+08 3.551708e+08 3.650583e+08 3.552384e+08 4.564698e+01 6.514260e+01 8.524243e-01 1.911217e+00
<GCONST> 2.310489e+02
<STATE> 3
<MEAN> 14
 -2.180317e+03 -1.013141e+02 -1.252477e+02 -4.965978e+02 -1.857652e+02 -4.574207e+02 -1.225869e+02 -3.545316e+02 2.573773e+02 1.456532e+02 4.169646e+00 5.109862e+01 -1.483907e+00 1.738914e+00
<VARIANCE> 14
 3.348448e+08 3.648627e+08 3.571996e+08 3.486749e+08 3.607785e+08 3.560800e+08 3.482538e+08 3.565646e+08 3.640952e+08 3.551357e+08 4.495277e+01 6.391610e+01 8.321980e-01 1.888623e+00
<GCONST> 2.310091e+02
<STATE> 4
<MEAN> 14
 -5.060470e+02 2.672045e+02 8.720810e+01 -5.307930e+02 -1.860358e+02 -6.597830e+01 -2.388836e+02 -1.081819e+02 1.718329e+02 1.470224e+02 4.283829e+00 5.148562e+01 -1.494415e+00 1.715247e+00
<VARIANCE> 14
 3.512992e+08 3.627408e+08 3.584226e+08 3.534168e+08 3.638165e+08 3.526688e+08 3.484007e+08 3.550147e+08 3.627529e+08 3.563225e+08 4.788915e+01 6.446311e+01 7.941791e-01 1.939603e+00
<GCONST> 2.311143e+02
<TRANSP> 5
 0.000000e+00 1.000000e+00 0.000000e+00 0.000000e+00 0.000000e+00
 0.000000e+00 8.426357e-01 1.573643e-01 0.000000e+00 0.000000e+00
 0.000000e+00 0.000000e+00 8.426355e-01 1.573645e-01 0.000000e+00
 0.000000e+00 0.000000e+00 0.000000e+00 9.859121e-01 1.408786e-02
 0.000000e+00 0.000000e+00 0.000000e+00 0.000000e+00 0.000000e+00
<ENDHMM>
~h "l4_u"
<BEGINHMM>
<NUMSTATES> 5
<STATE> 2
<MEAN> 14
 -2.650283e+03 1.491969e+02 -6.537928e+02 3.692661e+02 -1.357959e+02 -1.331907e+02 4.359688e+02 1.150560e+02 -5.126635e+02 -2.348697e+02 4.147728e+00 4.986674e+01 -1.495591e+00 1.705591e+00
<VARIANCE> 14
 3.132821e+08 3.510981e+08 3.704944e+08 3.509088e+08 3.505997e+08 3.528167e+08 3.551710e+08 3.585101e+08 3.634488e+08 3.574816e+08 4.244615e+01 6.236173e+01 8.999569e-01 1.940096e+00
<GCONST> 2.309623e+02
<STATE> 3
<MEAN> 14
 -2.623628e+03 -6.898282e+01 -7.218076e+02 2.249899e+02 -2.443442e+02 -1.745501e+01 3.097546e+02 1.418781e+02 -6.088652e+02 -8.817407e+01 3.986801e+00 4.997948e+01 -1.503612e+00 1.704879e+00
<VARIANCE> 14
 3.212410e+08 3.547078e+08 3.675151e+08 3.534319e+08 3.496975e+08 3.513927e+08 3.543329e+08 3.581684e+08 3.612007e+08 3.581612e+08 4.072130e+01 6.129553e+01 8.894237e-01 1.916148e+00
<GCONST> 2.308995e+02
<STATE> 4
<MEAN> 14
 -1.282464e+03 3.988387e+02 -5.412081e+02 9.367323e+00 -3.996904e+02 -1.813417e+01 4.939545e+01 5.407665e+00 -2.081570e+02 4.898769e+01 3.251305e+00 5.145959e+01 -1.524365e+00 1.731186e+00
<VARIANCE> 14
 3.473266e+08 3.559324e+08 3.619083e+08 3.585242e+08 3.536594e+08 3.496917e+08 3.518303e+08 3.560552e+08 3.523114e+08 3.656077e+08 3.441917e+01 6.504218e+01 8.489651e-01 2.023260e+00
<GCONST> 2.308681e+02
<TRANSP> 5
 0.000000e+00 1.000000e+00 0.000000e+00 0.000000e+00 0.000000e+00
 0.000000e+00 8.224948e-01 1.775052e-01 0.000000e+00 0.000000e+00
 0.000000e+00 0.000000e+00 8.224949e-01 1.775050e-01 0.000000e+00
 0.000000e+00 0.000000e+00 0.000000e+00 9.757478e-01 2.425216e-02
 0.000000e+00 0.000000e+00 0.000000e+00 0.000000e+00 0.000000e+00
<ENDHMM>
~h "l5_i"
<BEGINHMM>
<NUMSTATES> 5
<STATE> 2
<MEAN> 14
 -2.586278e+03 -3.175894e+02 -4.160814e+02 1.543290e+02 -1.835822e+02 -3.552326e+02 1.068664e+02 1.952190e+02 -1.658155e+02 -3.421824e+01 4.054573e+00 5.036694e+01 -1.475037e+00 1.705569e+00
<VARIANCE> 14
 3.300427e+08 3.570728e+08 3.557753e+08 3.523114e+08 3.483076e+08 3.611964e+08 3.533478e+08 3.546340e+08 3.564953e+08 3.588776e+08 4.170166e+01 5.799377e+01 7.896861e-01 1.961579e+00
<GCONST> 2.307702e+02
<STATE> 3
<MEAN> 14
 -2.419672e+03 -3.833987e+02 -3.881246e+02 1.380209e+02 -1.430718e+02 -3.461612e+02 1.144658e+02 2.045047e+02 -1.264807e+02 -1.232347e+02 3.922552e+00 5.044705e+01 -1.475609e+00 1.707029e+00
<VARIANCE> 14
 3.370837e+08 3.562921e+08 3.561333e+08 3.527542e+08 3.487826e+08 3.620635e+08 3.527831e+08 3.528086e+08 3.565028e+08 3.581722e+08 3.952820e+01 5.692986e+01 7.920109e-01 1.945736e+00
<GCONST> 2.307092e+02
<STATE> 4
<MEAN> 14
 -8.069107e+02 1.590405e+02 -1.533268e+02 2.366782e+02 -1.802718e+02 -5.355973e+01 8.584105e+01 3.971612e+01 -1.634575e+02 -3.059481e+01 3.587380e+00 5.113595e+01 -1.490620e+00 1.692278e+00
<VARIANCE> 14
 3.579133e+08 3.550965e+08 3.566814e+08 3.527566e+08 3.511343e+08 3.607847e+08 3.512357e+08 3.560443e+08 3.544861e+08 3.553639e+08 3.866836e+01 5.805941e+01 7.997866e-01 1.782214e+00
<GCONST> 2.306814e+02
<TRANSP> 5
 0.000000e+00 1.000000e+00 0.000000e+00 0.000000e+00 0.000000e+00
 0.000000e+00 8.413233e-01 1.586767e-01 0.000000e+00 0.000000e+00
 0.000000e+00 0.000000e+00 8.413234e-01 1.586767e-01 0.000000e+00
 0.000000e+00 0.000000e+00 0.000000e+00 9.845986e-01 1.540139e-02
 0.000000e+00 0.000000e+00 0.000000e+00 0.000000e+00 0.000000e+00
<ENDHMM>
~h "l5_u"
<BEGINHMM>
<NUMSTATES> 5
<STATE> 2
<MEAN> 14
 -2.490769e+03 -4.897998e+02 7.504379e+01 -8.974617e+01 -2.955078e+02 2.096723e+01 4.519794e+02 1.312413e+02 1.279335e+02 -1.447252e+01 4.615077e+00 5.117802e+01 -1.501130e+00 1.709604e+00
<VARIANCE> 14
 3.225567e+08 3.568712e+08 3.616970e+08 3.514804e+08 3.634842e+08 3.539841e+08 3.606422e+08 3.459775e+08 3.558044e+08 3.558872e+08 4.696172e+01 8.097449e+01 7.604560e-01 1.929284e+00
<GCONST> 2.311670e+02
<STATE> 3
<MEAN> 14
 -2.442760e+03 -5.593655e+02 4.641251e+01 -1.169956e+02 -4.214542e+02 -2.880999e+01 3.355246e+02 1.407309e+02 2.141213e+01 5.952499e+01 4.620576e+00 5.120492e+01 -1.493957e+00 1.700022e+00
<VARIANCE> 14
 3.300582e+08 3.603179e+08 3.593013e+08 3.531833e+08 3.646907e+08 3.553642e+08 3.614041e+08 3.456560e+08 3.575001e+08 3.562408e+08 4.790255e+01 7.966301e+01 7.979505e-01 1.897824e+00
<GCONST> 2.312471e+02
<STATE> 4
<MEAN> 14
 -8.768015e+02 -1.928735e+02 2.056168e+02 -3.018764e+02 8.393517e+00 -2.105819e+02 1.310804e+02 1.708227e+02 -4.284031e+02 5.846143e+01 4.203424e+00 5.264975e+01 -1.511580e+00 1.693516e+00
<VARIANCE> 14
 3.532264e+08 3.549464e+08 3.465789e+08 3.513687e+08 3.630000e+08 3.547835e+08 3.609537e+08 3.454666e+08 3.593713e+08 3.562437e+08 4.828143e+01 8.173273e+01 8.575332e-01 1.915421e+00
<GCONST> 2.313707e+02
<TRANSP> 5
 0.000000e+00 1.000000e+00 0.000000e+00 0.000000e+00 0.000000e+00
 0.000000e+00 8.324235e-01 1.675765e-01 0.000000e+00 0.000000e+00
 0.000000e+00 0.000000e+00 8.324239e-01 1.675761e-01 0.000000e+00
 0.000000e+00 0.000000e+00 0.000000e+00 9.800112e-01 1.998884e-02
 0.000000e+00 0.000000e+00 0.000000e+00 0.000000e+00 0.000000e+00
<ENDHMM>
~h "sil"
<BEGINHMM>
<NUMSTATES> 5
<STATE> 2
<MEAN> 14
 -1.971316e+03 1.517498e+02 -1.659545e+02 9.150318e+00 6.027411e+01 3.715042e+01 2.941333e+01 2.378788e+02 -2.823233e+02 9.705093e+01 2.679760e+00 5.393820e+01 -1.571330e+00 1.799104e+00
<VARIANCE> 14
 2.751049e+08 3.612867e+08 3.523565e+08 3.587684e+08 3.559025e+08 3.578760e+08 3.524934e+08 3.568957e+08 3.583299e+08 3.580195e+08 3.030164e+01 8.474074e+01 9.167299e-01 1.836521e+00
<GCONST> 2.307706e+02
<STATE> 3
<MEAN> 14
 -2.432008e+03 9.988336e+01 -1.927900e+02 1.461763e+02 1.109496e+01 -1.776576e+01 1.651335e+02 3.254948e+01 -1.289527e+02 1.384565e+01 3.495153e+00 5.253656e+01 -1.538971e+00 1.755436e+00
<VARIANCE> 14
 2.963050e+08 3.605317e+08 3.535936e+08 3.549377e+08 3.566084e+08 3.565705e+08 3.537858e+08 3.560094e+08 3.579954e+08 3.561298e+08 3.935353e+01 8.065857e+01 9.038033e-01 1.870028e+00
<GCONST> 2.310447e+02
<STATE> 4
<MEAN> 14
 -1.790129e+03 6.544296e+01 -6.943009e+01 7.295087e+01 -9.285268e+01 -8.829813e+01 8.694932e+01 1.679328e+01 5.742393e+01 6.404311e+01 3.796520e+00 5.188870e+01 -1.509580e+00 1.710984e+00
<VARIANCE> 14
 3.446353e+08 3.578396e+08 3.559084e+08 3.555488e+08 3.578467e+08 3.547770e+08 3.540742e+08 3.560801e+08 3.585224e+08 3.563991e+08 4.177616e+01 6.963337e+01 8.408832e-01 1.855065e+00
<GCONST> 2.310308e+02
<TRANSP> 5
 0.000000e+00 1.000000e+00 0.000000e+00 0.000000e+00 0.000000e+00
 0.000000e+00 8.360096e-01 1.639904e-01 0.000000e+00 0.000000e+00
 0.000000e+00 0.000000e+00 8.360101e-01 1.639899e-01 0.000000e+00
 0.000000e+00 0.000000e+00 0.000000e+00 9.814113e-01 1.858871e-02
 0.000000e+00 0.000000e+00 0.000000e+00 0.000000e+00 0.000000e+00
<ENDHMM>
